%YAML:1.0
---
opencv_ml_svm:
   format: 3
   svmType: C_SVC
   kernel:
      type: RBF
      gamma: 5.0000000000000003e-02
   C: 2.5000000000000000e+00
   term_criteria: { epsilon:1.1920928955078125e-07, iterations:1000 }
   var_count: 36
   class_count: 27
   class_labels: !!opencv-matrix
      rows: 27
      cols: 1
      dt: i
      data: [ 48, 49, 50, 51, 53, 54, 55, 56, 57, 65, 66, 67, 68, 69, 70,
          71, 72, 74, 75, 76, 77, 78, 80, 82, 86, 87, 88 ]
   sv_total: 2986
   support_vectors:
      - [ 1.18259862e-01, 1.53762922e-02, 1.92934588e-01, 3.45268011e-01,
          3.45268011e-01, 6.36676028e-02, 3.35940160e-02, 1.74279083e-02,
          2.50505004e-02, 1.54403755e-02, 1.26133943e-02, 0.,
          4.87557426e-02, 3.43446732e-01, 3.45268011e-01, 2.29773447e-01,
          3.13348286e-02, 4.23727855e-02, 3.45268011e-01, 5.76557815e-02,
          0., 0., 1.08179256e-01, 7.16787651e-02, 7.57737607e-02,
          1.07367821e-01, 1.69048831e-01, 3.45268011e-01, 2.22026289e-01,
          1.70208648e-01, 7.89634585e-02, 1.00771077e-01, 1.20263994e-02,
          0., 8.36342275e-02, 4.77471575e-02 ]
      - [ 2.20796138e-01, 1.91093117e-01, 8.38072971e-02, 2.95457810e-01,
          2.84657031e-01, 1.05799019e-01, 3.53562906e-02, 2.59600207e-02,
          9.83091369e-02, 5.05092703e-02, 5.04823262e-03, 0., 0.,
          2.95457810e-01, 2.95457810e-01, 2.48140261e-01, 8.65711868e-02,
          0., 2.95457810e-01, 2.95457810e-01, 0., 0., 2.09444791e-01,
          8.69843662e-02, 1.36926070e-01, 5.25089391e-02, 1.27844855e-01,
          2.95457810e-01, 2.95457810e-01, 1.00427635e-01, 5.02372794e-02,
          2.98292097e-02, 1.19582871e-02, 2.54010651e-02, 8.46574455e-02,
          1.02210686e-01 ]
      - [ 7.92613104e-02, 8.45418721e-02, 3.07524800e-01, 3.07524800e-01,
          3.07524800e-01, 3.96656469e-02, 1.24688065e-02, 1.74831524e-02,
          2.04870366e-02, 0., 0., 0., 9.65197906e-02, 3.07524800e-01,
          3.07524800e-01, 1.81901380e-01, 9.03829336e-02, 5.86440898e-02,
          1.81028336e-01, 1.15041487e-01, 9.51022096e-03, 2.41123922e-02,
          3.42661627e-02, 0., 6.36443421e-02, 1.43638626e-01,
          3.07524800e-01, 3.07524800e-01, 9.76104438e-02, 1.69439062e-01,
          1.69916391e-01, 1.62073866e-01, 2.40358710e-02, 6.62454516e-02,
          5.15174903e-02, 3.07524800e-01 ]
      - [ 1.09557584e-01, 5.21394657e-03, 1.80072054e-01, 3.52715373e-01,
          3.52715373e-01, 1.88674077e-01, 6.16366155e-02, 6.84114872e-03,
          9.28695034e-03, 2.74254475e-02, 0., 0., 0., 5.10901101e-02,
          3.52715373e-01, 2.60702312e-01, 1.25953346e-01, 4.06731181e-02,
          3.52715373e-01, 4.61376868e-02, 3.36256661e-02, 6.10614344e-02,
          1.82862729e-01, 7.86792412e-02, 1.26901999e-01, 2.26863828e-02,
          2.37258837e-01, 3.52715373e-01, 2.03452721e-01, 1.25041932e-01,
          7.14765862e-02, 0., 0., 4.01297882e-02, 5.73077984e-02,
          1.36261135e-01 ]
      - [ 2.19162121e-01, 1.68264285e-02, 8.64596441e-02, 3.27671051e-01,
          3.27671051e-01, 6.66595548e-02, 8.40373933e-02, 1.54495044e-02,
          2.50945911e-02, 4.59873527e-02, 1.34013817e-02, 1.48395196e-01,
          2.36304000e-01, 3.27671051e-01, 3.27671051e-01, 1.35882959e-01,
          3.62812988e-02, 0., 3.27671051e-01, 5.71161769e-02, 0., 0., 0.,
          3.04782148e-02, 4.97196056e-02, 1.44553646e-01, 1.79831743e-01,
          3.27671051e-01, 1.56991869e-01, 1.28431678e-01, 8.37653577e-02,
          2.21751183e-01, 5.90625927e-02, 3.10369637e-02, 8.88590515e-02,
          1.34582117e-01 ]
      - [ 1.18259862e-01, 1.53762922e-02, 1.92934588e-01, 3.45268011e-01,
          3.45268011e-01, 6.36676028e-02, 3.35940160e-02, 1.74279083e-02,
          2.50505004e-02, 1.54403755e-02, 1.26133943e-02, 0.,
          4.87557426e-02, 3.43446732e-01, 3.45268011e-01, 2.29773447e-01,
          3.13348286e-02, 4.23727855e-02, 3.45268011e-01, 5.76557815e-02,
          0., 0., 1.08179256e-01, 7.16787651e-02, 7.57737607e-02,
          1.07367821e-01, 1.69048831e-01, 3.45268011e-01, 2.22026289e-01,
          1.70208648e-01, 7.89634585e-02, 1.00771077e-01, 1.20263994e-02,
          0., 8.36342275e-02, 4.77471575e-02 ]
      - [ 2.20796138e-01, 1.91093117e-01, 8.38072971e-02, 2.95457810e-01,
          2.84657031e-01, 1.05799019e-01, 3.53562906e-02, 2.59600207e-02,
          9.83091369e-02, 5.05092703e-02, 5.04823262e-03, 0., 0.,
          2.95457810e-01, 2.95457810e-01, 2.48140261e-01, 8.65711868e-02,
          0., 2.95457810e-01, 2.95457810e-01, 0., 0., 2.09444791e-01,
          8.69843662e-02, 1.36926070e-01, 5.25089391e-02, 1.27844855e-01,
          2.95457810e-01, 2.95457810e-01, 1.00427635e-01, 5.02372794e-02,
          2.98292097e-02, 1.19582871e-02, 2.54010651e-02, 8.46574455e-02,
          1.02210686e-01 ]
      - [ 7.92613104e-02, 8.45418721e-02, 3.07524800e-01, 3.07524800e-01,
          3.07524800e-01, 3.96656469e-02, 1.24688065e-02, 1.74831524e-02,
          2.04870366e-02, 0., 0., 0., 9.65197906e-02, 3.07524800e-01,
          3.07524800e-01, 1.81901380e-01, 9.03829336e-02, 5.86440898e-02,
          1.81028336e-01, 1.15041487e-01, 9.51022096e-03, 2.41123922e-02,
          3.42661627e-02, 0., 6.36443421e-02, 1.43638626e-01,
          3.07524800e-01, 3.07524800e-01, 9.76104438e-02, 1.69439062e-01,
          1.69916391e-01, 1.62073866e-01, 2.40358710e-02, 6.62454516e-02,
          5.15174903e-02, 3.07524800e-01 ]
      - [ 1.09557584e-01, 5.21394657e-03, 1.80072054e-01, 3.52715373e-01,
          3.52715373e-01, 1.88674077e-01, 6.16366155e-02, 6.84114872e-03,
          9.28695034e-03, 2.74254475e-02, 0., 0., 0., 5.10901101e-02,
          3.52715373e-01, 2.60702312e-01, 1.25953346e-01, 4.06731181e-02,
          3.52715373e-01, 4.61376868e-02, 3.36256661e-02, 6.10614344e-02,
          1.82862729e-01, 7.86792412e-02, 1.26901999e-01, 2.26863828e-02,
          2.37258837e-01, 3.52715373e-01, 2.03452721e-01, 1.25041932e-01,
          7.14765862e-02, 0., 0., 4.01297882e-02, 5.73077984e-02,
          1.36261135e-01 ]
      - [ 2.19162121e-01, 1.68264285e-02, 8.64596441e-02, 3.27671051e-01,
          3.27671051e-01, 6.66595548e-02, 8.40373933e-02, 1.54495044e-02,
          2.50945911e-02, 4.59873527e-02, 1.34013817e-02, 1.48395196e-01,
          2.36304000e-01, 3.27671051e-01, 3.27671051e-01, 1.35882959e-01,
          3.62812988e-02, 0., 3.27671051e-01, 5.71161769e-02, 0., 0., 0.,
          3.04782148e-02, 4.97196056e-02, 1.44553646e-01, 1.79831743e-01,
          3.27671051e-01, 1.56991869e-01, 1.28431678e-01, 8.37653577e-02,
          2.21751183e-01, 5.90625927e-02, 3.10369637e-02, 8.88590515e-02,
          1.34582117e-01 ]
      - [ 1.18259862e-01, 1.53762922e-02, 1.92934588e-01, 3.45268011e-01,
          3.45268011e-01, 6.36676028e-02, 3.35940160e-02, 1.74279083e-02,
          2.50505004e-02, 1.54403755e-02, 1.26133943e-02, 0.,
          4.87557426e-02, 3.43446732e-01, 3.45268011e-01, 2.29773447e-01,
          3.13348286e-02, 4.23727855e-02, 3.45268011e-01, 5.76557815e-02,
          0., 0., 1.08179256e-01, 7.16787651e-02, 7.57737607e-02,
          1.07367821e-01, 1.69048831e-01, 3.45268011e-01, 2.22026289e-01,
          1.70208648e-01, 7.89634585e-02, 1.00771077e-01, 1.20263994e-02,
          0., 8.36342275e-02, 4.77471575e-02 ]
      - [ 2.20796138e-01, 1.91093117e-01, 8.38072971e-02, 2.95457810e-01,
          2.84657031e-01, 1.05799019e-01, 3.53562906e-02, 2.59600207e-02,
          9.83091369e-02, 5.05092703e-02, 5.04823262e-03, 0., 0.,
          2.95457810e-01, 2.95457810e-01, 2.48140261e-01, 8.65711868e-02,
          0., 2.95457810e-01, 2.95457810e-01, 0., 0., 2.09444791e-01,
          8.69843662e-02, 1.36926070e-01, 5.25089391e-02, 1.27844855e-01,
          2.95457810e-01, 2.95457810e-01, 1.00427635e-01, 5.02372794e-02,
          2.98292097e-02, 1.19582871e-02, 2.54010651e-02, 8.46574455e-02,
          1.02210686e-01 ]
      - [ 7.92613104e-02, 8.45418721e-02, 3.07524800e-01, 3.07524800e-01,
          3.07524800e-01, 3.96656469e-02, 1.24688065e-02, 1.74831524e-02,
          2.04870366e-02, 0., 0., 0., 9.65197906e-02, 3.07524800e-01,
          3.07524800e-01, 1.81901380e-01, 9.03829336e-02, 5.86440898e-02,
          1.81028336e-01, 1.15041487e-01, 9.51022096e-03, 2.41123922e-02,
          3.42661627e-02, 0., 6.36443421e-02, 1.43638626e-01,
          3.07524800e-01, 3.07524800e-01, 9.76104438e-02, 1.69439062e-01,
          1.69916391e-01, 1.62073866e-01, 2.40358710e-02, 6.62454516e-02,
          5.15174903e-02, 3.07524800e-01 ]
      - [ 1.09557584e-01, 5.21394657e-03, 1.80072054e-01, 3.52715373e-01,
          3.52715373e-01, 1.88674077e-01, 6.16366155e-02, 6.84114872e-03,
          9.28695034e-03, 2.74254475e-02, 0., 0., 0., 5.10901101e-02,
          3.52715373e-01, 2.60702312e-01, 1.25953346e-01, 4.06731181e-02,
          3.52715373e-01, 4.61376868e-02, 3.36256661e-02, 6.10614344e-02,
          1.82862729e-01, 7.86792412e-02, 1.26901999e-01, 2.26863828e-02,
          2.37258837e-01, 3.52715373e-01, 2.03452721e-01, 1.25041932e-01,
          7.14765862e-02, 0., 0., 4.01297882e-02, 5.73077984e-02,
          1.36261135e-01 ]
      - [ 2.19162121e-01, 1.68264285e-02, 8.64596441e-02, 3.27671051e-01,
          3.27671051e-01, 6.66595548e-02, 8.40373933e-02, 1.54495044e-02,
          2.50945911e-02, 4.59873527e-02, 1.34013817e-02, 1.48395196e-01,
          2.36304000e-01, 3.27671051e-01, 3.27671051e-01, 1.35882959e-01,
          3.62812988e-02, 0., 3.27671051e-01, 5.71161769e-02, 0., 0., 0.,
          3.04782148e-02, 4.97196056e-02, 1.44553646e-01, 1.79831743e-01,
          3.27671051e-01, 1.56991869e-01, 1.28431678e-01, 8.37653577e-02,
          2.21751183e-01, 5.90625927e-02, 3.10369637e-02, 8.88590515e-02,
          1.34582117e-01 ]
      - [ 1.18259862e-01, 1.53762922e-02, 1.92934588e-01, 3.45268011e-01,
          3.45268011e-01, 6.36676028e-02, 3.35940160e-02, 1.74279083e-02,
          2.50505004e-02, 1.54403755e-02, 1.26133943e-02, 0.,
          4.87557426e-02, 3.43446732e-01, 3.45268011e-01, 2.29773447e-01,
          3.13348286e-02, 4.23727855e-02, 3.45268011e-01, 5.76557815e-02,
          0., 0., 1.08179256e-01, 7.16787651e-02, 7.57737607e-02,
          1.07367821e-01, 1.69048831e-01, 3.45268011e-01, 2.22026289e-01,
          1.70208648e-01, 7.89634585e-02, 1.00771077e-01, 1.20263994e-02,
          0., 8.36342275e-02, 4.77471575e-02 ]
      - [ 2.20796138e-01, 1.91093117e-01, 8.38072971e-02, 2.95457810e-01,
          2.84657031e-01, 1.05799019e-01, 3.53562906e-02, 2.59600207e-02,
          9.83091369e-02, 5.05092703e-02, 5.04823262e-03, 0., 0.,
          2.95457810e-01, 2.95457810e-01, 2.48140261e-01, 8.65711868e-02,
          0., 2.95457810e-01, 2.95457810e-01, 0., 0., 2.09444791e-01,
          8.69843662e-02, 1.36926070e-01, 5.25089391e-02, 1.27844855e-01,
          2.95457810e-01, 2.95457810e-01, 1.00427635e-01, 5.02372794e-02,
          2.98292097e-02, 1.19582871e-02, 2.54010651e-02, 8.46574455e-02,
          1.02210686e-01 ]
      - [ 7.92613104e-02, 8.45418721e-02, 3.07524800e-01, 3.07524800e-01,
          3.07524800e-01, 3.96656469e-02, 1.24688065e-02, 1.74831524e-02,
          2.04870366e-02, 0., 0., 0., 9.65197906e-02, 3.07524800e-01,
          3.07524800e-01, 1.81901380e-01, 9.03829336e-02, 5.86440898e-02,
          1.81028336e-01, 1.15041487e-01, 9.51022096e-03, 2.41123922e-02,
          3.42661627e-02, 0., 6.36443421e-02, 1.43638626e-01,
          3.07524800e-01, 3.07524800e-01, 9.76104438e-02, 1.69439062e-01,
          1.69916391e-01, 1.62073866e-01, 2.40358710e-02, 6.62454516e-02,
          5.15174903e-02, 3.07524800e-01 ]
      - [ 1.09557584e-01, 5.21394657e-03, 1.80072054e-01, 3.52715373e-01,
          3.52715373e-01, 1.88674077e-01, 6.16366155e-02, 6.84114872e-03,
          9.28695034e-03, 2.74254475e-02, 0., 0., 0., 5.10901101e-02,
          3.52715373e-01, 2.60702312e-01, 1.25953346e-01, 4.06731181e-02,
          3.52715373e-01, 4.61376868e-02, 3.36256661e-02, 6.10614344e-02,
          1.82862729e-01, 7.86792412e-02, 1.26901999e-01, 2.26863828e-02,
          2.37258837e-01, 3.52715373e-01, 2.03452721e-01, 1.25041932e-01,
          7.14765862e-02, 0., 0., 4.01297882e-02, 5.73077984e-02,
          1.36261135e-01 ]
      - [ 2.19162121e-01, 1.68264285e-02, 8.64596441e-02, 3.27671051e-01,
          3.27671051e-01, 6.66595548e-02, 8.40373933e-02, 1.54495044e-02,
          2.50945911e-02, 4.59873527e-02, 1.34013817e-02, 1.48395196e-01,
          2.36304000e-01, 3.27671051e-01, 3.27671051e-01, 1.35882959e-01,
          3.62812988e-02, 0., 3.27671051e-01, 5.71161769e-02, 0., 0., 0.,
          3.04782148e-02, 4.97196056e-02, 1.44553646e-01, 1.79831743e-01,
          3.27671051e-01, 1.56991869e-01, 1.28431678e-01, 8.37653577e-02,
          2.21751183e-01, 5.90625927e-02, 3.10369637e-02, 8.88590515e-02,
          1.34582117e-01 ]
      - [ 1.18259862e-01, 1.53762922e-02, 1.92934588e-01, 3.45268011e-01,
          3.45268011e-01, 6.36676028e-02, 3.35940160e-02, 1.74279083e-02,
          2.50505004e-02, 1.54403755e-02, 1.26133943e-02, 0.,
          4.87557426e-02, 3.43446732e-01, 3.45268011e-01, 2.29773447e-01,
          3.13348286e-02, 4.23727855e-02, 3.45268011e-01, 5.76557815e-02,
          0., 0., 1.08179256e-01, 7.16787651e-02, 7.57737607e-02,
          1.07367821e-01, 1.69048831e-01, 3.45268011e-01, 2.22026289e-01,
          1.70208648e-01, 7.89634585e-02, 1.00771077e-01, 1.20263994e-02,
          0., 8.36342275e-02, 4.77471575e-02 ]
      - [ 2.20796138e-01, 1.91093117e-01, 8.38072971e-02, 2.95457810e-01,
          2.84657031e-01, 1.05799019e-01, 3.53562906e-02, 2.59600207e-02,
          9.83091369e-02, 5.05092703e-02, 5.04823262e-03, 0., 0.,
          2.95457810e-01, 2.95457810e-01, 2.48140261e-01, 8.65711868e-02,
          0., 2.95457810e-01, 2.95457810e-01, 0., 0., 2.09444791e-01,
          8.69843662e-02, 1.36926070e-01, 5.25089391e-02, 1.27844855e-01,
          2.95457810e-01, 2.95457810e-01, 1.00427635e-01, 5.02372794e-02,
          2.98292097e-02, 1.19582871e-02, 2.54010651e-02, 8.46574455e-02,
          1.02210686e-01 ]
      - [ 7.92613104e-02, 8.45418721e-02, 3.07524800e-01, 3.07524800e-01,
          3.07524800e-01, 3.96656469e-02, 1.24688065e-02, 1.74831524e-02,
          2.04870366e-02, 0., 0., 0., 9.65197906e-02, 3.07524800e-01,
          3.07524800e-01, 1.81901380e-01, 9.03829336e-02, 5.86440898e-02,
          1.81028336e-01, 1.15041487e-01, 9.51022096e-03, 2.41123922e-02,
          3.42661627e-02, 0., 6.36443421e-02, 1.43638626e-01,
          3.07524800e-01, 3.07524800e-01, 9.76104438e-02, 1.69439062e-01,
          1.69916391e-01, 1.62073866e-01, 2.40358710e-02, 6.62454516e-02,
          5.15174903e-02, 3.07524800e-01 ]
      - [ 1.09557584e-01, 5.21394657e-03, 1.80072054e-01, 3.52715373e-01,
          3.52715373e-01, 1.88674077e-01, 6.16366155e-02, 6.84114872e-03,
          9.28695034e-03, 2.74254475e-02, 0., 0., 0., 5.10901101e-02,
          3.52715373e-01, 2.60702312e-01, 1.25953346e-01, 4.06731181e-02,
          3.52715373e-01, 4.61376868e-02, 3.36256661e-02, 6.10614344e-02,
          1.82862729e-01, 7.86792412e-02, 1.26901999e-01, 2.26863828e-02,
          2.37258837e-01, 3.52715373e-01, 2.03452721e-01, 1.25041932e-01,
          7.14765862e-02, 0., 0., 4.01297882e-02, 5.73077984e-02,
          1.36261135e-01 ]
      - [ 2.19162121e-01, 1.68264285e-02, 8.64596441e-02, 3.27671051e-01,
          3.27671051e-01, 6.66595548e-02, 8.40373933e-02, 1.54495044e-02,
          2.50945911e-02, 4.59873527e-02, 1.34013817e-02, 1.48395196e-01,
          2.36304000e-01, 3.27671051e-01, 3.27671051e-01, 1.35882959e-01,
          3.62812988e-02, 0., 3.27671051e-01, 5.71161769e-02, 0., 0., 0.,
          3.04782148e-02, 4.97196056e-02, 1.44553646e-01, 1.79831743e-01,
          3.27671051e-01, 1.56991869e-01, 1.28431678e-01, 8.37653577e-02,
          2.21751183e-01, 5.90625927e-02, 3.10369637e-02, 8.88590515e-02,
          1.34582117e-01 ]
      - [ 7.57313222e-02, 1.88038990e-01, 2.46814370e-01, 2.60270715e-01,
          3.05690765e-01, 0., 0., 8.43048748e-03, 1.58042815e-02, 0.,
          6.40718313e-03, 0., 0., 2.06762612e-01, 2.92461097e-01,
          3.05690765e-01, 1.82273224e-01, 1.07256398e-01, 3.05690765e-01,
          4.32734489e-02, 0., 0., 1.38586745e-01, 8.57453421e-02,
          1.82701215e-01, 1.73033342e-01, 3.05690765e-01, 3.05690765e-01,
          1.45492673e-01, 1.76984012e-01, 1.33157760e-01, 0., 0., 0., 0.,
          1.66331679e-01 ]
      - [ 1.56581491e-01, 1.13638282e-01, 1.92985147e-01, 3.08022022e-01,
          3.08022022e-01, 5.71619943e-02, 0., 0., 6.61149388e-03,
          6.00147434e-03, 0., 0., 1.08560529e-02, 1.97565511e-01,
          3.08022022e-01, 3.08022022e-01, 1.92367405e-01, 2.70544682e-02,
          3.08022022e-01, 1.52128980e-01, 4.45952080e-02, 2.36845501e-02,
          1.42709151e-01, 9.82208177e-02, 3.08022022e-01, 1.25636056e-01,
          5.48079796e-02, 3.08022022e-01, 3.08022022e-01, 7.84356222e-02,
          7.19095916e-02, 1.52037246e-02, 0., 0., 0., 4.65722475e-03 ]
      - [ 1.04720786e-01, 2.20360890e-01, 2.39385128e-01, 2.82290280e-01,
          2.48701587e-01, 0., 0., 0., 2.08898038e-02, 4.20655049e-02, 0.,
          5.14909532e-03, 0., 2.59888887e-01, 2.81300515e-01,
          2.58630842e-01, 2.30291009e-01, 9.67708528e-02, 2.92734265e-01,
          0., 2.05760021e-04, 0., 4.30566221e-02, 4.76299189e-02,
          1.03836901e-01, 2.07971796e-01, 2.92734265e-01, 2.92734265e-01,
          1.73528835e-01, 8.68423730e-02, 9.16688368e-02, 1.18221402e-01,
          0., 0., 4.97233123e-02, 2.92734265e-01 ]
      - [ 4.35637347e-02, 1.50355980e-01, 2.59819299e-01, 2.42964327e-01,
          3.40543121e-01, 6.74790591e-02, 8.74257684e-02, 5.46662770e-02,
          0., 3.88641953e-02, 8.31710361e-03, 0., 0., 6.12509027e-02,
          2.19103739e-01, 2.85269499e-01, 1.73006192e-01, 1.30437195e-01,
          3.40543121e-01, 4.09774370e-02, 5.99975698e-02, 1.53124586e-01,
          2.15570748e-01, 1.06105246e-01, 6.69633821e-02, 1.49895266e-01,
          3.40543121e-01, 3.40543121e-01, 2.17836887e-01, 1.10121414e-01,
          0., 0., 0., 0., 1.36469463e-02, 1.22714870e-01 ]
      - [ 1.12034202e-01, 1.65684953e-01, 2.67491311e-01, 1.87573180e-01,
          1.11454301e-01, 3.07787955e-02, 0., 4.25712019e-02,
          1.65921133e-02, 0., 5.82345687e-02, 6.16502762e-02,
          8.74804333e-02, 3.01828682e-01, 3.01828682e-01, 2.86180735e-01,
          1.07959531e-01, 3.01637985e-02, 3.01828682e-01, 8.01573042e-03,
          0., 0., 0., 4.69314605e-02, 1.94269791e-01, 2.44381592e-01,
          3.01828682e-01, 3.01828682e-01, 1.31759062e-01, 1.61255315e-01,
          1.50943652e-01, 1.88566640e-01, 5.53185642e-02, 6.56167343e-02,
          0., 2.53360748e-01 ]
      - [ 7.57313222e-02, 1.88038990e-01, 2.46814370e-01, 2.60270715e-01,
          3.05690765e-01, 0., 0., 8.43048748e-03, 1.58042815e-02, 0.,
          6.40718313e-03, 0., 0., 2.06762612e-01, 2.92461097e-01,
          3.05690765e-01, 1.82273224e-01, 1.07256398e-01, 3.05690765e-01,
          4.32734489e-02, 0., 0., 1.38586745e-01, 8.57453421e-02,
          1.82701215e-01, 1.73033342e-01, 3.05690765e-01, 3.05690765e-01,
          1.45492673e-01, 1.76984012e-01, 1.33157760e-01, 0., 0., 0., 0.,
          1.66331679e-01 ]
      - [ 1.56581491e-01, 1.13638282e-01, 1.92985147e-01, 3.08022022e-01,
          3.08022022e-01, 5.71619943e-02, 0., 0., 6.61149388e-03,
          6.00147434e-03, 0., 0., 1.08560529e-02, 1.97565511e-01,
          3.08022022e-01, 3.08022022e-01, 1.92367405e-01, 2.70544682e-02,
          3.08022022e-01, 1.52128980e-01, 4.45952080e-02, 2.36845501e-02,
          1.42709151e-01, 9.82208177e-02, 3.08022022e-01, 1.25636056e-01,
          5.48079796e-02, 3.08022022e-01, 3.08022022e-01, 7.84356222e-02,
          7.19095916e-02, 1.52037246e-02, 0., 0., 0., 4.65722475e-03 ]
      - [ 1.04720786e-01, 2.20360890e-01, 2.39385128e-01, 2.82290280e-01,
          2.48701587e-01, 0., 0., 0., 2.08898038e-02, 4.20655049e-02, 0.,
          5.14909532e-03, 0., 2.59888887e-01, 2.81300515e-01,
          2.58630842e-01, 2.30291009e-01, 9.67708528e-02, 2.92734265e-01,
          0., 2.05760021e-04, 0., 4.30566221e-02, 4.76299189e-02,
          1.03836901e-01, 2.07971796e-01, 2.92734265e-01, 2.92734265e-01,
          1.73528835e-01, 8.68423730e-02, 9.16688368e-02, 1.18221402e-01,
          0., 0., 4.97233123e-02, 2.92734265e-01 ]
      - [ 4.35637347e-02, 1.50355980e-01, 2.59819299e-01, 2.42964327e-01,
          3.40543121e-01, 6.74790591e-02, 8.74257684e-02, 5.46662770e-02,
          0., 3.88641953e-02, 8.31710361e-03, 0., 0., 6.12509027e-02,
          2.19103739e-01, 2.85269499e-01, 1.73006192e-01, 1.30437195e-01,
          3.40543121e-01, 4.09774370e-02, 5.99975698e-02, 1.53124586e-01,
          2.15570748e-01, 1.06105246e-01, 6.69633821e-02, 1.49895266e-01,
          3.40543121e-01, 3.40543121e-01, 2.17836887e-01, 1.10121414e-01,
          0., 0., 0., 0., 1.36469463e-02, 1.22714870e-01 ]
      - [ 1.12034202e-01, 1.65684953e-01, 2.67491311e-01, 1.87573180e-01,
          1.11454301e-01, 3.07787955e-02, 0., 4.25712019e-02,
          1.65921133e-02, 0., 5.82345687e-02, 6.16502762e-02,
          8.74804333e-02, 3.01828682e-01, 3.01828682e-01, 2.86180735e-01,
          1.07959531e-01, 3.01637985e-02, 3.01828682e-01, 8.01573042e-03,
          0., 0., 0., 4.69314605e-02, 1.94269791e-01, 2.44381592e-01,
          3.01828682e-01, 3.01828682e-01, 1.31759062e-01, 1.61255315e-01,
          1.50943652e-01, 1.88566640e-01, 5.53185642e-02, 6.56167343e-02,
          0., 2.53360748e-01 ]
      - [ 7.57313222e-02, 1.88038990e-01, 2.46814370e-01, 2.60270715e-01,
          3.05690765e-01, 0., 0., 8.43048748e-03, 1.58042815e-02, 0.,
          6.40718313e-03, 0., 0., 2.06762612e-01, 2.92461097e-01,
          3.05690765e-01, 1.82273224e-01, 1.07256398e-01, 3.05690765e-01,
          4.32734489e-02, 0., 0., 1.38586745e-01, 8.57453421e-02,
          1.82701215e-01, 1.73033342e-01, 3.05690765e-01, 3.05690765e-01,
          1.45492673e-01, 1.76984012e-01, 1.33157760e-01, 0., 0., 0., 0.,
          1.66331679e-01 ]
      - [ 1.56581491e-01, 1.13638282e-01, 1.92985147e-01, 3.08022022e-01,
          3.08022022e-01, 5.71619943e-02, 0., 0., 6.61149388e-03,
          6.00147434e-03, 0., 0., 1.08560529e-02, 1.97565511e-01,
          3.08022022e-01, 3.08022022e-01, 1.92367405e-01, 2.70544682e-02,
          3.08022022e-01, 1.52128980e-01, 4.45952080e-02, 2.36845501e-02,
          1.42709151e-01, 9.82208177e-02, 3.08022022e-01, 1.25636056e-01,
          5.48079796e-02, 3.08022022e-01, 3.08022022e-01, 7.84356222e-02,
          7.19095916e-02, 1.52037246e-02, 0., 0., 0., 4.65722475e-03 ]
      - [ 1.04720786e-01, 2.20360890e-01, 2.39385128e-01, 2.82290280e-01,
          2.48701587e-01, 0., 0., 0., 2.08898038e-02, 4.20655049e-02, 0.,
          5.14909532e-03, 0., 2.59888887e-01, 2.81300515e-01,
          2.58630842e-01, 2.30291009e-01, 9.67708528e-02, 2.92734265e-01,
          0., 2.05760021e-04, 0., 4.30566221e-02, 4.76299189e-02,
          1.03836901e-01, 2.07971796e-01, 2.92734265e-01, 2.92734265e-01,
          1.73528835e-01, 8.68423730e-02, 9.16688368e-02, 1.18221402e-01,
          0., 0., 4.97233123e-02, 2.92734265e-01 ]
      - [ 4.35637347e-02, 1.50355980e-01, 2.59819299e-01, 2.42964327e-01,
          3.40543121e-01, 6.74790591e-02, 8.74257684e-02, 5.46662770e-02,
          0., 3.88641953e-02, 8.31710361e-03, 0., 0., 6.12509027e-02,
          2.19103739e-01, 2.85269499e-01, 1.73006192e-01, 1.30437195e-01,
          3.40543121e-01, 4.09774370e-02, 5.99975698e-02, 1.53124586e-01,
          2.15570748e-01, 1.06105246e-01, 6.69633821e-02, 1.49895266e-01,
          3.40543121e-01, 3.40543121e-01, 2.17836887e-01, 1.10121414e-01,
          0., 0., 0., 0., 1.36469463e-02, 1.22714870e-01 ]
      - [ 1.12034202e-01, 1.65684953e-01, 2.67491311e-01, 1.87573180e-01,
          1.11454301e-01, 3.07787955e-02, 0., 4.25712019e-02,
          1.65921133e-02, 0., 5.82345687e-02, 6.16502762e-02,
          8.74804333e-02, 3.01828682e-01, 3.01828682e-01, 2.86180735e-01,
          1.07959531e-01, 3.01637985e-02, 3.01828682e-01, 8.01573042e-03,
          0., 0., 0., 4.69314605e-02, 1.94269791e-01, 2.44381592e-01,
          3.01828682e-01, 3.01828682e-01, 1.31759062e-01, 1.61255315e-01,
          1.50943652e-01, 1.88566640e-01, 5.53185642e-02, 6.56167343e-02,
          0., 2.53360748e-01 ]
      - [ 7.57313222e-02, 1.88038990e-01, 2.46814370e-01, 2.60270715e-01,
          3.05690765e-01, 0., 0., 8.43048748e-03, 1.58042815e-02, 0.,
          6.40718313e-03, 0., 0., 2.06762612e-01, 2.92461097e-01,
          3.05690765e-01, 1.82273224e-01, 1.07256398e-01, 3.05690765e-01,
          4.32734489e-02, 0., 0., 1.38586745e-01, 8.57453421e-02,
          1.82701215e-01, 1.73033342e-01, 3.05690765e-01, 3.05690765e-01,
          1.45492673e-01, 1.76984012e-01, 1.33157760e-01, 0., 0., 0., 0.,
          1.66331679e-01 ]
      - [ 1.56581491e-01, 1.13638282e-01, 1.92985147e-01, 3.08022022e-01,
          3.08022022e-01, 5.71619943e-02, 0., 0., 6.61149388e-03,
          6.00147434e-03, 0., 0., 1.08560529e-02, 1.97565511e-01,
          3.08022022e-01, 3.08022022e-01, 1.92367405e-01, 2.70544682e-02,
          3.08022022e-01, 1.52128980e-01, 4.45952080e-02, 2.36845501e-02,
          1.42709151e-01, 9.82208177e-02, 3.08022022e-01, 1.25636056e-01,
          5.48079796e-02, 3.08022022e-01, 3.08022022e-01, 7.84356222e-02,
          7.19095916e-02, 1.52037246e-02, 0., 0., 0., 4.65722475e-03 ]
      - [ 1.04720786e-01, 2.20360890e-01, 2.39385128e-01, 2.82290280e-01,
          2.48701587e-01, 0., 0., 0., 2.08898038e-02, 4.20655049e-02, 0.,
          5.14909532e-03, 0., 2.59888887e-01, 2.81300515e-01,
          2.58630842e-01, 2.30291009e-01, 9.67708528e-02, 2.92734265e-01,
          0., 2.05760021e-04, 0., 4.30566221e-02, 4.76299189e-02,
          1.03836901e-01, 2.07971796e-01, 2.92734265e-01, 2.92734265e-01,
          1.73528835e-01, 8.68423730e-02, 9.16688368e-02, 1.18221402e-01,
          0., 0., 4.97233123e-02, 2.92734265e-01 ]
      - [ 4.35637347e-02, 1.50355980e-01, 2.59819299e-01, 2.42964327e-01,
          3.40543121e-01, 6.74790591e-02, 8.74257684e-02, 5.46662770e-02,
          0., 3.88641953e-02, 8.31710361e-03, 0., 0., 6.12509027e-02,
          2.19103739e-01, 2.85269499e-01, 1.73006192e-01, 1.30437195e-01,
          3.40543121e-01, 4.09774370e-02, 5.99975698e-02, 1.53124586e-01,
          2.15570748e-01, 1.06105246e-01, 6.69633821e-02, 1.49895266e-01,
          3.40543121e-01, 3.40543121e-01, 2.17836887e-01, 1.10121414e-01,
          0., 0., 0., 0., 1.36469463e-02, 1.22714870e-01 ]
      - [ 1.12034202e-01, 1.65684953e-01, 2.67491311e-01, 1.87573180e-01,
          1.11454301e-01, 3.07787955e-02, 0., 4.25712019e-02,
          1.65921133e-02, 0., 5.82345687e-02, 6.16502762e-02,
          8.74804333e-02, 3.01828682e-01, 3.01828682e-01, 2.86180735e-01,
          1.07959531e-01, 3.01637985e-02, 3.01828682e-01, 8.01573042e-03,
          0., 0., 0., 4.69314605e-02, 1.94269791e-01, 2.44381592e-01,
          3.01828682e-01, 3.01828682e-01, 1.31759062e-01, 1.61255315e-01,
          1.50943652e-01, 1.88566640e-01, 5.53185642e-02, 6.56167343e-02,
          0., 2.53360748e-01 ]
      - [ 7.57313222e-02, 1.88038990e-01, 2.46814370e-01, 2.60270715e-01,
          3.05690765e-01, 0., 0., 8.43048748e-03, 1.58042815e-02, 0.,
          6.40718313e-03, 0., 0., 2.06762612e-01, 2.92461097e-01,
          3.05690765e-01, 1.82273224e-01, 1.07256398e-01, 3.05690765e-01,
          4.32734489e-02, 0., 0., 1.38586745e-01, 8.57453421e-02,
          1.82701215e-01, 1.73033342e-01, 3.05690765e-01, 3.05690765e-01,
          1.45492673e-01, 1.76984012e-01, 1.33157760e-01, 0., 0., 0., 0.,
          1.66331679e-01 ]
      - [ 1.56581491e-01, 1.13638282e-01, 1.92985147e-01, 3.08022022e-01,
          3.08022022e-01, 5.71619943e-02, 0., 0., 6.61149388e-03,
          6.00147434e-03, 0., 0., 1.08560529e-02, 1.97565511e-01,
          3.08022022e-01, 3.08022022e-01, 1.92367405e-01, 2.70544682e-02,
          3.08022022e-01, 1.52128980e-01, 4.45952080e-02, 2.36845501e-02,
          1.42709151e-01, 9.82208177e-02, 3.08022022e-01, 1.25636056e-01,
          5.48079796e-02, 3.08022022e-01, 3.08022022e-01, 7.84356222e-02,
          7.19095916e-02, 1.52037246e-02, 0., 0., 0., 4.65722475e-03 ]
      - [ 1.04720786e-01, 2.20360890e-01, 2.39385128e-01, 2.82290280e-01,
          2.48701587e-01, 0., 0., 0., 2.08898038e-02, 4.20655049e-02, 0.,
          5.14909532e-03, 0., 2.59888887e-01, 2.81300515e-01,
          2.58630842e-01, 2.30291009e-01, 9.67708528e-02, 2.92734265e-01,
          0., 2.05760021e-04, 0., 4.30566221e-02, 4.76299189e-02,
          1.03836901e-01, 2.07971796e-01, 2.92734265e-01, 2.92734265e-01,
          1.73528835e-01, 8.68423730e-02, 9.16688368e-02, 1.18221402e-01,
          0., 0., 4.97233123e-02, 2.92734265e-01 ]
      - [ 4.35637347e-02, 1.50355980e-01, 2.59819299e-01, 2.42964327e-01,
          3.40543121e-01, 6.74790591e-02, 8.74257684e-02, 5.46662770e-02,
          0., 3.88641953e-02, 8.31710361e-03, 0., 0., 6.12509027e-02,
          2.19103739e-01, 2.85269499e-01, 1.73006192e-01, 1.30437195e-01,
          3.40543121e-01, 4.09774370e-02, 5.99975698e-02, 1.53124586e-01,
          2.15570748e-01, 1.06105246e-01, 6.69633821e-02, 1.49895266e-01,
          3.40543121e-01, 3.40543121e-01, 2.17836887e-01, 1.10121414e-01,
          0., 0., 0., 0., 1.36469463e-02, 1.22714870e-01 ]
      - [ 1.12034202e-01, 1.65684953e-01, 2.67491311e-01, 1.87573180e-01,
          1.11454301e-01, 3.07787955e-02, 0., 4.25712019e-02,
          1.65921133e-02, 0., 5.82345687e-02, 6.16502762e-02,
          8.74804333e-02, 3.01828682e-01, 3.01828682e-01, 2.86180735e-01,
          1.07959531e-01, 3.01637985e-02, 3.01828682e-01, 8.01573042e-03,
          0., 0., 0., 4.69314605e-02, 1.94269791e-01, 2.44381592e-01,
          3.01828682e-01, 3.01828682e-01, 1.31759062e-01, 1.61255315e-01,
          1.50943652e-01, 1.88566640e-01, 5.53185642e-02, 6.56167343e-02,
          0., 2.53360748e-01 ]
      - [ 9.60249975e-02, 1.34159923e-01, 2.47248113e-01, 2.09323868e-01,
          3.68032336e-01, 0., 0., 0., 1.62362377e-03, 1.36774387e-02, 0.,
          6.08077385e-02, 1.65141970e-01, 3.68032336e-01, 3.25935394e-01,
          1.30033776e-01, 3.96538079e-02, 5.50639108e-02, 3.68032336e-01,
          3.22157796e-03, 0., 0., 1.46008171e-02, 2.56751068e-02,
          8.79148766e-02, 1.36296600e-01, 1.79025054e-01, 3.68032336e-01,
          1.12854123e-01, 1.65751815e-01, 9.77481082e-02, 1.65439218e-01,
          9.36615616e-02, 0., 6.19913032e-03, 1.48157641e-01 ]
      - [ 1.56961277e-01, 1.34816721e-01, 2.39931569e-01, 1.19799972e-01,
          1.62093326e-01, 2.95712233e-01, 4.22130078e-02, 0.,
          3.68670709e-02, 1.84236690e-02, 0., 0., 1.26014888e-01,
          3.28799427e-01, 3.28799427e-01, 2.77444750e-01, 5.90134561e-02,
          1.14682475e-02, 3.28799427e-01, 3.46585773e-02, 0., 0., 0.,
          3.76792699e-02, 1.48338407e-01, 2.17761979e-01, 1.33394226e-01,
          3.28799427e-01, 3.04037392e-01, 4.70300913e-02, 8.68804455e-02,
          1.80350512e-01, 6.50417060e-02, 0., 4.37681414e-02,
          9.19319838e-02 ]
      - [ 4.43089642e-02, 1.63805425e-01, 2.86272645e-01, 2.86272645e-01,
          2.86272645e-01, 1.33954594e-02, 7.98359280e-04, 7.62767252e-03,
          1.86920501e-02, 1.07379943e-01, 1.20923873e-02, 1.15717664e-01,
          2.86272645e-01, 2.85476059e-01, 2.52286524e-01, 9.71942395e-02,
          5.15865758e-02, 7.50462189e-02, 2.86272645e-01, 4.50864248e-03,
          7.76586728e-03, 0., 0., 2.31396724e-02, 4.07584012e-02,
          1.42899692e-01, 2.86272645e-01, 2.86272645e-01, 1.27733514e-01,
          1.79810345e-01, 1.00235909e-01, 1.93811670e-01, 3.60913612e-02,
          7.47202337e-02, 3.47457007e-02, 2.86272645e-01 ]
      - [ 6.59338608e-02, 1.18767522e-01, 2.81115174e-01, 3.02243590e-01,
          3.02243590e-01, 0., 0., 4.44372330e-04, 0., 1.79602742e-01, 0.,
          0., 4.52064537e-02, 3.02243590e-01, 3.02243590e-01,
          1.38459221e-01, 7.79337808e-02, 9.61493328e-02, 3.02243590e-01,
          2.62936559e-02, 0., 0., 8.31709802e-02, 5.01162708e-02,
          1.60571337e-01, 1.07541576e-01, 3.02243590e-01, 3.02243590e-01,
          1.53486252e-01, 1.43312812e-01, 9.78068709e-02, 4.04325835e-02,
          0., 5.40088257e-03, 1.12254387e-02, 3.02243590e-01 ]
      - [ 1.79997995e-01, 9.56881866e-02, 2.45399505e-01, 9.72052887e-02,
          3.71933430e-01, 0., 4.18461673e-02, 0., 0., 3.36094126e-02,
          5.39569259e-02, 1.03340417e-01, 3.46922040e-01, 3.71933430e-01,
          2.13497609e-01, 9.09086540e-02, 1.07920431e-02, 5.40283211e-02,
          3.71933430e-01, 3.75449331e-03, 0., 7.51399109e-03,
          5.11389168e-04, 0., 9.25523788e-02, 1.01499408e-01,
          1.09856196e-01, 3.71933430e-01, 8.11048970e-02, 1.31168172e-01,
          6.83773607e-02, 2.17808351e-01, 8.31428617e-02, 0.,
          6.09452277e-02, 1.55550852e-01 ]
      - [ 9.60249975e-02, 1.34159923e-01, 2.47248113e-01, 2.09323868e-01,
          3.68032336e-01, 0., 0., 0., 1.62362377e-03, 1.36774387e-02, 0.,
          6.08077385e-02, 1.65141970e-01, 3.68032336e-01, 3.25935394e-01,
          1.30033776e-01, 3.96538079e-02, 5.50639108e-02, 3.68032336e-01,
          3.22157796e-03, 0., 0., 1.46008171e-02, 2.56751068e-02,
          8.79148766e-02, 1.36296600e-01, 1.79025054e-01, 3.68032336e-01,
          1.12854123e-01, 1.65751815e-01, 9.77481082e-02, 1.65439218e-01,
          9.36615616e-02, 0., 6.19913032e-03, 1.48157641e-01 ]
      - [ 1.56961277e-01, 1.34816721e-01, 2.39931569e-01, 1.19799972e-01,
          1.62093326e-01, 2.95712233e-01, 4.22130078e-02, 0.,
          3.68670709e-02, 1.84236690e-02, 0., 0., 1.26014888e-01,
          3.28799427e-01, 3.28799427e-01, 2.77444750e-01, 5.90134561e-02,
          1.14682475e-02, 3.28799427e-01, 3.46585773e-02, 0., 0., 0.,
          3.76792699e-02, 1.48338407e-01, 2.17761979e-01, 1.33394226e-01,
          3.28799427e-01, 3.04037392e-01, 4.70300913e-02, 8.68804455e-02,
          1.80350512e-01, 6.50417060e-02, 0., 4.37681414e-02,
          9.19319838e-02 ]
      - [ 4.43089642e-02, 1.63805425e-01, 2.86272645e-01, 2.86272645e-01,
          2.86272645e-01, 1.33954594e-02, 7.98359280e-04, 7.62767252e-03,
          1.86920501e-02, 1.07379943e-01, 1.20923873e-02, 1.15717664e-01,
          2.86272645e-01, 2.85476059e-01, 2.52286524e-01, 9.71942395e-02,
          5.15865758e-02, 7.50462189e-02, 2.86272645e-01, 4.50864248e-03,
          7.76586728e-03, 0., 0., 2.31396724e-02, 4.07584012e-02,
          1.42899692e-01, 2.86272645e-01, 2.86272645e-01, 1.27733514e-01,
          1.79810345e-01, 1.00235909e-01, 1.93811670e-01, 3.60913612e-02,
          7.47202337e-02, 3.47457007e-02, 2.86272645e-01 ]
      - [ 6.59338608e-02, 1.18767522e-01, 2.81115174e-01, 3.02243590e-01,
          3.02243590e-01, 0., 0., 4.44372330e-04, 0., 1.79602742e-01, 0.,
          0., 4.52064537e-02, 3.02243590e-01, 3.02243590e-01,
          1.38459221e-01, 7.79337808e-02, 9.61493328e-02, 3.02243590e-01,
          2.62936559e-02, 0., 0., 8.31709802e-02, 5.01162708e-02,
          1.60571337e-01, 1.07541576e-01, 3.02243590e-01, 3.02243590e-01,
          1.53486252e-01, 1.43312812e-01, 9.78068709e-02, 4.04325835e-02,
          0., 5.40088257e-03, 1.12254387e-02, 3.02243590e-01 ]
      - [ 1.79997995e-01, 9.56881866e-02, 2.45399505e-01, 9.72052887e-02,
          3.71933430e-01, 0., 4.18461673e-02, 0., 0., 3.36094126e-02,
          5.39569259e-02, 1.03340417e-01, 3.46922040e-01, 3.71933430e-01,
          2.13497609e-01, 9.09086540e-02, 1.07920431e-02, 5.40283211e-02,
          3.71933430e-01, 3.75449331e-03, 0., 7.51399109e-03,
          5.11389168e-04, 0., 9.25523788e-02, 1.01499408e-01,
          1.09856196e-01, 3.71933430e-01, 8.11048970e-02, 1.31168172e-01,
          6.83773607e-02, 2.17808351e-01, 8.31428617e-02, 0.,
          6.09452277e-02, 1.55550852e-01 ]
      - [ 9.60249975e-02, 1.34159923e-01, 2.47248113e-01, 2.09323868e-01,
          3.68032336e-01, 0., 0., 0., 1.62362377e-03, 1.36774387e-02, 0.,
          6.08077385e-02, 1.65141970e-01, 3.68032336e-01, 3.25935394e-01,
          1.30033776e-01, 3.96538079e-02, 5.50639108e-02, 3.68032336e-01,
          3.22157796e-03, 0., 0., 1.46008171e-02, 2.56751068e-02,
          8.79148766e-02, 1.36296600e-01, 1.79025054e-01, 3.68032336e-01,
          1.12854123e-01, 1.65751815e-01, 9.77481082e-02, 1.65439218e-01,
          9.36615616e-02, 0., 6.19913032e-03, 1.48157641e-01 ]
      - [ 1.56961277e-01, 1.34816721e-01, 2.39931569e-01, 1.19799972e-01,
          1.62093326e-01, 2.95712233e-01, 4.22130078e-02, 0.,
          3.68670709e-02, 1.84236690e-02, 0., 0., 1.26014888e-01,
          3.28799427e-01, 3.28799427e-01, 2.77444750e-01, 5.90134561e-02,
          1.14682475e-02, 3.28799427e-01, 3.46585773e-02, 0., 0., 0.,
          3.76792699e-02, 1.48338407e-01, 2.17761979e-01, 1.33394226e-01,
          3.28799427e-01, 3.04037392e-01, 4.70300913e-02, 8.68804455e-02,
          1.80350512e-01, 6.50417060e-02, 0., 4.37681414e-02,
          9.19319838e-02 ]
      - [ 4.43089642e-02, 1.63805425e-01, 2.86272645e-01, 2.86272645e-01,
          2.86272645e-01, 1.33954594e-02, 7.98359280e-04, 7.62767252e-03,
          1.86920501e-02, 1.07379943e-01, 1.20923873e-02, 1.15717664e-01,
          2.86272645e-01, 2.85476059e-01, 2.52286524e-01, 9.71942395e-02,
          5.15865758e-02, 7.50462189e-02, 2.86272645e-01, 4.50864248e-03,
          7.76586728e-03, 0., 0., 2.31396724e-02, 4.07584012e-02,
          1.42899692e-01, 2.86272645e-01, 2.86272645e-01, 1.27733514e-01,
          1.79810345e-01, 1.00235909e-01, 1.93811670e-01, 3.60913612e-02,
          7.47202337e-02, 3.47457007e-02, 2.86272645e-01 ]
      - [ 6.59338608e-02, 1.18767522e-01, 2.81115174e-01, 3.02243590e-01,
          3.02243590e-01, 0., 0., 4.44372330e-04, 0., 1.79602742e-01, 0.,
          0., 4.52064537e-02, 3.02243590e-01, 3.02243590e-01,
          1.38459221e-01, 7.79337808e-02, 9.61493328e-02, 3.02243590e-01,
          2.62936559e-02, 0., 0., 8.31709802e-02, 5.01162708e-02,
          1.60571337e-01, 1.07541576e-01, 3.02243590e-01, 3.02243590e-01,
          1.53486252e-01, 1.43312812e-01, 9.78068709e-02, 4.04325835e-02,
          0., 5.40088257e-03, 1.12254387e-02, 3.02243590e-01 ]
      - [ 1.79997995e-01, 9.56881866e-02, 2.45399505e-01, 9.72052887e-02,
          3.71933430e-01, 0., 4.18461673e-02, 0., 0., 3.36094126e-02,
          5.39569259e-02, 1.03340417e-01, 3.46922040e-01, 3.71933430e-01,
          2.13497609e-01, 9.09086540e-02, 1.07920431e-02, 5.40283211e-02,
          3.71933430e-01, 3.75449331e-03, 0., 7.51399109e-03,
          5.11389168e-04, 0., 9.25523788e-02, 1.01499408e-01,
          1.09856196e-01, 3.71933430e-01, 8.11048970e-02, 1.31168172e-01,
          6.83773607e-02, 2.17808351e-01, 8.31428617e-02, 0.,
          6.09452277e-02, 1.55550852e-01 ]
      - [ 9.60249975e-02, 1.34159923e-01, 2.47248113e-01, 2.09323868e-01,
          3.68032336e-01, 0., 0., 0., 1.62362377e-03, 1.36774387e-02, 0.,
          6.08077385e-02, 1.65141970e-01, 3.68032336e-01, 3.25935394e-01,
          1.30033776e-01, 3.96538079e-02, 5.50639108e-02, 3.68032336e-01,
          3.22157796e-03, 0., 0., 1.46008171e-02, 2.56751068e-02,
          8.79148766e-02, 1.36296600e-01, 1.79025054e-01, 3.68032336e-01,
          1.12854123e-01, 1.65751815e-01, 9.77481082e-02, 1.65439218e-01,
          9.36615616e-02, 0., 6.19913032e-03, 1.48157641e-01 ]
      - [ 1.56961277e-01, 1.34816721e-01, 2.39931569e-01, 1.19799972e-01,
          1.62093326e-01, 2.95712233e-01, 4.22130078e-02, 0.,
          3.68670709e-02, 1.84236690e-02, 0., 0., 1.26014888e-01,
          3.28799427e-01, 3.28799427e-01, 2.77444750e-01, 5.90134561e-02,
          1.14682475e-02, 3.28799427e-01, 3.46585773e-02, 0., 0., 0.,
          3.76792699e-02, 1.48338407e-01, 2.17761979e-01, 1.33394226e-01,
          3.28799427e-01, 3.04037392e-01, 4.70300913e-02, 8.68804455e-02,
          1.80350512e-01, 6.50417060e-02, 0., 4.37681414e-02,
          9.19319838e-02 ]
      - [ 4.43089642e-02, 1.63805425e-01, 2.86272645e-01, 2.86272645e-01,
          2.86272645e-01, 1.33954594e-02, 7.98359280e-04, 7.62767252e-03,
          1.86920501e-02, 1.07379943e-01, 1.20923873e-02, 1.15717664e-01,
          2.86272645e-01, 2.85476059e-01, 2.52286524e-01, 9.71942395e-02,
          5.15865758e-02, 7.50462189e-02, 2.86272645e-01, 4.50864248e-03,
          7.76586728e-03, 0., 0., 2.31396724e-02, 4.07584012e-02,
          1.42899692e-01, 2.86272645e-01, 2.86272645e-01, 1.27733514e-01,
          1.79810345e-01, 1.00235909e-01, 1.93811670e-01, 3.60913612e-02,
          7.47202337e-02, 3.47457007e-02, 2.86272645e-01 ]
      - [ 6.59338608e-02, 1.18767522e-01, 2.81115174e-01, 3.02243590e-01,
          3.02243590e-01, 0., 0., 4.44372330e-04, 0., 1.79602742e-01, 0.,
          0., 4.52064537e-02, 3.02243590e-01, 3.02243590e-01,
          1.38459221e-01, 7.79337808e-02, 9.61493328e-02, 3.02243590e-01,
          2.62936559e-02, 0., 0., 8.31709802e-02, 5.01162708e-02,
          1.60571337e-01, 1.07541576e-01, 3.02243590e-01, 3.02243590e-01,
          1.53486252e-01, 1.43312812e-01, 9.78068709e-02, 4.04325835e-02,
          0., 5.40088257e-03, 1.12254387e-02, 3.02243590e-01 ]
      - [ 1.79997995e-01, 9.56881866e-02, 2.45399505e-01, 9.72052887e-02,
          3.71933430e-01, 0., 4.18461673e-02, 0., 0., 3.36094126e-02,
          5.39569259e-02, 1.03340417e-01, 3.46922040e-01, 3.71933430e-01,
          2.13497609e-01, 9.09086540e-02, 1.07920431e-02, 5.40283211e-02,
          3.71933430e-01, 3.75449331e-03, 0., 7.51399109e-03,
          5.11389168e-04, 0., 9.25523788e-02, 1.01499408e-01,
          1.09856196e-01, 3.71933430e-01, 8.11048970e-02, 1.31168172e-01,
          6.83773607e-02, 2.17808351e-01, 8.31428617e-02, 0.,
          6.09452277e-02, 1.55550852e-01 ]
      - [ 9.60249975e-02, 1.34159923e-01, 2.47248113e-01, 2.09323868e-01,
          3.68032336e-01, 0., 0., 0., 1.62362377e-03, 1.36774387e-02, 0.,
          6.08077385e-02, 1.65141970e-01, 3.68032336e-01, 3.25935394e-01,
          1.30033776e-01, 3.96538079e-02, 5.50639108e-02, 3.68032336e-01,
          3.22157796e-03, 0., 0., 1.46008171e-02, 2.56751068e-02,
          8.79148766e-02, 1.36296600e-01, 1.79025054e-01, 3.68032336e-01,
          1.12854123e-01, 1.65751815e-01, 9.77481082e-02, 1.65439218e-01,
          9.36615616e-02, 0., 6.19913032e-03, 1.48157641e-01 ]
      - [ 1.56961277e-01, 1.34816721e-01, 2.39931569e-01, 1.19799972e-01,
          1.62093326e-01, 2.95712233e-01, 4.22130078e-02, 0.,
          3.68670709e-02, 1.84236690e-02, 0., 0., 1.26014888e-01,
          3.28799427e-01, 3.28799427e-01, 2.77444750e-01, 5.90134561e-02,
          1.14682475e-02, 3.28799427e-01, 3.46585773e-02, 0., 0., 0.,
          3.76792699e-02, 1.48338407e-01, 2.17761979e-01, 1.33394226e-01,
          3.28799427e-01, 3.04037392e-01, 4.70300913e-02, 8.68804455e-02,
          1.80350512e-01, 6.50417060e-02, 0., 4.37681414e-02,
          9.19319838e-02 ]
      - [ 4.43089642e-02, 1.63805425e-01, 2.86272645e-01, 2.86272645e-01,
          2.86272645e-01, 1.33954594e-02, 7.98359280e-04, 7.62767252e-03,
          1.86920501e-02, 1.07379943e-01, 1.20923873e-02, 1.15717664e-01,
          2.86272645e-01, 2.85476059e-01, 2.52286524e-01, 9.71942395e-02,
          5.15865758e-02, 7.50462189e-02, 2.86272645e-01, 4.50864248e-03,
          7.76586728e-03, 0., 0., 2.31396724e-02, 4.07584012e-02,
          1.42899692e-01, 2.86272645e-01, 2.86272645e-01, 1.27733514e-01,
          1.79810345e-01, 1.00235909e-01, 1.93811670e-01, 3.60913612e-02,
          7.47202337e-02, 3.47457007e-02, 2.86272645e-01 ]
      - [ 6.59338608e-02, 1.18767522e-01, 2.81115174e-01, 3.02243590e-01,
          3.02243590e-01, 0., 0., 4.44372330e-04, 0., 1.79602742e-01, 0.,
          0., 4.52064537e-02, 3.02243590e-01, 3.02243590e-01,
          1.38459221e-01, 7.79337808e-02, 9.61493328e-02, 3.02243590e-01,
          2.62936559e-02, 0., 0., 8.31709802e-02, 5.01162708e-02,
          1.60571337e-01, 1.07541576e-01, 3.02243590e-01, 3.02243590e-01,
          1.53486252e-01, 1.43312812e-01, 9.78068709e-02, 4.04325835e-02,
          0., 5.40088257e-03, 1.12254387e-02, 3.02243590e-01 ]
      - [ 1.79997995e-01, 9.56881866e-02, 2.45399505e-01, 9.72052887e-02,
          3.71933430e-01, 0., 4.18461673e-02, 0., 0., 3.36094126e-02,
          5.39569259e-02, 1.03340417e-01, 3.46922040e-01, 3.71933430e-01,
          2.13497609e-01, 9.09086540e-02, 1.07920431e-02, 5.40283211e-02,
          3.71933430e-01, 3.75449331e-03, 0., 7.51399109e-03,
          5.11389168e-04, 0., 9.25523788e-02, 1.01499408e-01,
          1.09856196e-01, 3.71933430e-01, 8.11048970e-02, 1.31168172e-01,
          6.83773607e-02, 2.17808351e-01, 8.31428617e-02, 0.,
          6.09452277e-02, 1.55550852e-01 ]
      - [ 1.06108725e-01, 1.65679365e-01, 2.95936376e-01, 3.07898343e-01,
          1.99397653e-01, 0., 0., 0., 2.05971431e-02, 6.41071587e-04, 0.,
          1.99636095e-03, 0., 3.07898343e-01, 3.07898343e-01,
          1.71137765e-01, 1.24530554e-01, 7.88072273e-02, 3.07898343e-01,
          0., 0., 0., 3.98506410e-02, 1.16493471e-01, 1.63562834e-01,
          1.53638288e-01, 3.07898343e-01, 3.07898343e-01, 1.04500614e-01,
          1.65278912e-01, 9.42078978e-02, 2.45925486e-01, 0., 0.,
          2.53147036e-02, 1.99902132e-01 ]
      - [ 1.71140924e-01, 9.76175442e-02, 2.43092731e-01, 2.90183723e-01,
          2.91008174e-01, 1.31167974e-02, 0., 0., 2.11849175e-02, 0.,
          9.27463081e-03, 7.59267481e-03, 0., 2.91008174e-01,
          2.91008174e-01, 2.91008174e-01, 7.39325732e-02, 3.10818031e-02,
          2.91008174e-01, 1.66403994e-01, 0., 0., 5.60981929e-02,
          1.58821851e-01, 2.91008174e-01, 8.46243575e-02, 1.48742646e-01,
          2.91008174e-01, 2.91008174e-01, 9.26320255e-02, 4.09029387e-02,
          1.66327551e-01, 0., 6.70689531e-03, 5.48155839e-03,
          9.92842093e-02 ]
      - [ 7.23041743e-02, 2.53499687e-01, 2.38971069e-01, 3.01148832e-01,
          1.03331789e-01, 8.17505177e-03, 0., 8.52072611e-03,
          2.01683380e-02, 0., 0., 0., 6.91879839e-02, 3.01148832e-01,
          3.01148832e-01, 2.47351199e-01, 2.24540889e-01, 4.05340567e-02,
          1.24039456e-01, 0., 0., 3.74066969e-03, 4.21980396e-02, 0.,
          4.39487919e-02, 3.01148832e-01, 3.01148832e-01, 3.01148832e-01,
          5.45256846e-02, 1.26360133e-01, 1.45717040e-01, 2.02980235e-01,
          5.54843284e-02, 5.46684116e-02, 5.25375307e-02, 3.01148832e-01 ]
      - [ 6.32583424e-02, 1.09158784e-01, 2.15926781e-01, 3.09599400e-01,
          3.09599400e-01, 0., 1.80754494e-02, 0., 9.85466223e-03,
          7.29990676e-02, 0., 2.01590615e-03, 0., 1.14206523e-01,
          3.09599400e-01, 1.95703194e-01, 1.80445567e-01, 1.34526134e-01,
          2.71791786e-01, 0., 0., 4.15711664e-02, 2.53744006e-01,
          1.17633983e-01, 1.20005548e-01, 5.68643510e-02, 3.09599400e-01,
          3.09599400e-01, 2.19742224e-01, 1.66897058e-01, 5.35590686e-02,
          1.06337667e-02, 0., 0., 6.33209273e-02, 3.09599400e-01 ]
      - [ 1.58382148e-01, 1.28932312e-01, 2.44759083e-01, 1.68239206e-01,
          1.53409570e-01, 0., 0., 2.96859387e-02, 9.07340087e-03, 0.,
          5.69610111e-02, 9.50188264e-02, 2.33019695e-01, 3.20287734e-01,
          3.20287734e-01, 8.39879662e-02, 3.88004817e-02, 1.06897146e-01,
          3.20287734e-01, 0., 0., 0., 0., 5.86188324e-02, 1.21212557e-01,
          1.25533804e-01, 3.20287734e-01, 3.20287734e-01, 8.11553001e-02,
          7.05507845e-02, 1.15802862e-01, 2.36425698e-01, 1.58378020e-01,
          0., 6.06374554e-02, 3.20287734e-01 ]
      - [ 1.30599782e-01, 2.97737151e-01, 2.60766387e-01, 2.70359606e-01,
          2.43339315e-01, 5.61790951e-02, 1.50024652e-01, 4.43034954e-02,
          3.40215638e-02, 1.87005386e-01, 0., 0., 7.72089660e-02,
          2.98357010e-01, 2.98357010e-01, 1.71979964e-01, 1.19851679e-01,
          9.78471041e-02, 2.98357010e-01, 1.83692366e-01, 0., 0.,
          1.83828905e-01, 7.50797614e-02, 7.65646175e-02, 7.68517330e-02,
          1.29099980e-01, 2.98357010e-01, 2.98357010e-01, 1.25909671e-01,
          8.49290118e-02, 3.15997899e-02, 0., 0., 0., 0. ]
      - [ 2.58106202e-01, 2.97828406e-01, 2.30525091e-01, 1.09057344e-01,
          1.63404346e-01, 0., 7.59366229e-02, 1.41522706e-01,
          3.79093252e-02, 1.80249915e-01, 2.13911645e-02, 8.22707824e-03,
          0., 2.08385363e-01, 2.97828406e-01, 2.97828406e-01,
          1.29486293e-01, 8.47529992e-02, 2.97828406e-01, 2.97828406e-01,
          1.02815160e-03, 1.59798022e-02, 1.87946290e-01, 1.17583342e-01,
          1.58599943e-01, 1.03401229e-01, 4.56310622e-02, 2.97828406e-01,
          2.97828406e-01, 4.03727517e-02, 4.78727631e-02, 4.15527448e-02,
          0., 0., 9.64586530e-03, 5.94825810e-03 ]
      - [ 8.94785747e-02, 2.03049645e-01, 2.85697162e-01, 2.85697162e-01,
          2.70665288e-01, 6.63667172e-02, 1.20802566e-01, 4.76947390e-02,
          6.31126687e-02, 7.47431740e-02, 0., 0., 7.56465569e-02,
          2.85697162e-01, 2.85697162e-01, 1.10352024e-01, 1.25403702e-01,
          1.94375992e-01, 2.85697162e-01, 1.58249065e-01, 0.,
          3.21762785e-02, 9.95370150e-02, 5.57899959e-02, 4.67028171e-02,
          1.16078347e-01, 2.85697162e-01, 2.85697162e-01, 2.85697162e-01,
          2.17184976e-01, 1.30020723e-01, 5.26752360e-02, 0., 0., 0.,
          2.58540940e-02 ]
      - [ 1.10540666e-01, 2.36084282e-01, 2.13414326e-01, 3.23752970e-01,
          3.23752970e-01, 1.15294673e-01, 1.12783074e-01, 9.37929973e-02,
          3.63948494e-02, 1.82580039e-01, 0., 0., 0., 1.47204578e-01,
          3.23752970e-01, 1.93959370e-01, 8.21433365e-02, 1.59500167e-01,
          3.23752970e-01, 1.05327599e-01, 8.46755281e-02, 6.35471046e-02,
          2.29588225e-01, 8.24829638e-02, 4.23934571e-02, 3.50288413e-02,
          8.46711844e-02, 3.23752970e-01, 3.23752970e-01, 6.22217804e-02,
          2.78346911e-02, 0., 0., 0., 0., 0. ]
      - [ 2.34976560e-01, 2.73433119e-01, 1.50818735e-01, 1.01338081e-01,
          1.64611891e-01, 2.78496742e-02, 1.65668681e-01, 4.52997684e-02,
          3.38967368e-02, 1.56950250e-01, 0., 1.28324360e-01,
          2.67073601e-01, 3.06471914e-01, 3.06471914e-01, 8.58512595e-02,
          7.06851333e-02, 1.23108208e-01, 3.06471914e-01, 1.90065160e-01,
          0., 0., 0., 5.43674268e-02, 7.57903904e-02, 1.27714321e-01,
          1.66380331e-01, 3.06471914e-01, 3.06471914e-01, 8.04473385e-02,
          8.90472159e-02, 2.55172819e-01, 2.39968300e-02, 0., 0., 0. ]
      - [ 1.30599782e-01, 2.97737151e-01, 2.60766387e-01, 2.70359606e-01,
          2.43339315e-01, 5.61790951e-02, 1.50024652e-01, 4.43034954e-02,
          3.40215638e-02, 1.87005386e-01, 0., 0., 7.72089660e-02,
          2.98357010e-01, 2.98357010e-01, 1.71979964e-01, 1.19851679e-01,
          9.78471041e-02, 2.98357010e-01, 1.83692366e-01, 0., 0.,
          1.83828905e-01, 7.50797614e-02, 7.65646175e-02, 7.68517330e-02,
          1.29099980e-01, 2.98357010e-01, 2.98357010e-01, 1.25909671e-01,
          8.49290118e-02, 3.15997899e-02, 0., 0., 0., 0. ]
      - [ 2.58106202e-01, 2.97828406e-01, 2.30525091e-01, 1.09057344e-01,
          1.63404346e-01, 0., 7.59366229e-02, 1.41522706e-01,
          3.79093252e-02, 1.80249915e-01, 2.13911645e-02, 8.22707824e-03,
          0., 2.08385363e-01, 2.97828406e-01, 2.97828406e-01,
          1.29486293e-01, 8.47529992e-02, 2.97828406e-01, 2.97828406e-01,
          1.02815160e-03, 1.59798022e-02, 1.87946290e-01, 1.17583342e-01,
          1.58599943e-01, 1.03401229e-01, 4.56310622e-02, 2.97828406e-01,
          2.97828406e-01, 4.03727517e-02, 4.78727631e-02, 4.15527448e-02,
          0., 0., 9.64586530e-03, 5.94825810e-03 ]
      - [ 8.94785747e-02, 2.03049645e-01, 2.85697162e-01, 2.85697162e-01,
          2.70665288e-01, 6.63667172e-02, 1.20802566e-01, 4.76947390e-02,
          6.31126687e-02, 7.47431740e-02, 0., 0., 7.56465569e-02,
          2.85697162e-01, 2.85697162e-01, 1.10352024e-01, 1.25403702e-01,
          1.94375992e-01, 2.85697162e-01, 1.58249065e-01, 0.,
          3.21762785e-02, 9.95370150e-02, 5.57899959e-02, 4.67028171e-02,
          1.16078347e-01, 2.85697162e-01, 2.85697162e-01, 2.85697162e-01,
          2.17184976e-01, 1.30020723e-01, 5.26752360e-02, 0., 0., 0.,
          2.58540940e-02 ]
      - [ 1.10540666e-01, 2.36084282e-01, 2.13414326e-01, 3.23752970e-01,
          3.23752970e-01, 1.15294673e-01, 1.12783074e-01, 9.37929973e-02,
          3.63948494e-02, 1.82580039e-01, 0., 0., 0., 1.47204578e-01,
          3.23752970e-01, 1.93959370e-01, 8.21433365e-02, 1.59500167e-01,
          3.23752970e-01, 1.05327599e-01, 8.46755281e-02, 6.35471046e-02,
          2.29588225e-01, 8.24829638e-02, 4.23934571e-02, 3.50288413e-02,
          8.46711844e-02, 3.23752970e-01, 3.23752970e-01, 6.22217804e-02,
          2.78346911e-02, 0., 0., 0., 0., 0. ]
      - [ 2.34976560e-01, 2.73433119e-01, 1.50818735e-01, 1.01338081e-01,
          1.64611891e-01, 2.78496742e-02, 1.65668681e-01, 4.52997684e-02,
          3.38967368e-02, 1.56950250e-01, 0., 1.28324360e-01,
          2.67073601e-01, 3.06471914e-01, 3.06471914e-01, 8.58512595e-02,
          7.06851333e-02, 1.23108208e-01, 3.06471914e-01, 1.90065160e-01,
          0., 0., 0., 5.43674268e-02, 7.57903904e-02, 1.27714321e-01,
          1.66380331e-01, 3.06471914e-01, 3.06471914e-01, 8.04473385e-02,
          8.90472159e-02, 2.55172819e-01, 2.39968300e-02, 0., 0., 0. ]
      - [ 1.30599782e-01, 2.97737151e-01, 2.60766387e-01, 2.70359606e-01,
          2.43339315e-01, 5.61790951e-02, 1.50024652e-01, 4.43034954e-02,
          3.40215638e-02, 1.87005386e-01, 0., 0., 7.72089660e-02,
          2.98357010e-01, 2.98357010e-01, 1.71979964e-01, 1.19851679e-01,
          9.78471041e-02, 2.98357010e-01, 1.83692366e-01, 0., 0.,
          1.83828905e-01, 7.50797614e-02, 7.65646175e-02, 7.68517330e-02,
          1.29099980e-01, 2.98357010e-01, 2.98357010e-01, 1.25909671e-01,
          8.49290118e-02, 3.15997899e-02, 0., 0., 0., 0. ]
      - [ 2.58106202e-01, 2.97828406e-01, 2.30525091e-01, 1.09057344e-01,
          1.63404346e-01, 0., 7.59366229e-02, 1.41522706e-01,
          3.79093252e-02, 1.80249915e-01, 2.13911645e-02, 8.22707824e-03,
          0., 2.08385363e-01, 2.97828406e-01, 2.97828406e-01,
          1.29486293e-01, 8.47529992e-02, 2.97828406e-01, 2.97828406e-01,
          1.02815160e-03, 1.59798022e-02, 1.87946290e-01, 1.17583342e-01,
          1.58599943e-01, 1.03401229e-01, 4.56310622e-02, 2.97828406e-01,
          2.97828406e-01, 4.03727517e-02, 4.78727631e-02, 4.15527448e-02,
          0., 0., 9.64586530e-03, 5.94825810e-03 ]
      - [ 8.94785747e-02, 2.03049645e-01, 2.85697162e-01, 2.85697162e-01,
          2.70665288e-01, 6.63667172e-02, 1.20802566e-01, 4.76947390e-02,
          6.31126687e-02, 7.47431740e-02, 0., 0., 7.56465569e-02,
          2.85697162e-01, 2.85697162e-01, 1.10352024e-01, 1.25403702e-01,
          1.94375992e-01, 2.85697162e-01, 1.58249065e-01, 0.,
          3.21762785e-02, 9.95370150e-02, 5.57899959e-02, 4.67028171e-02,
          1.16078347e-01, 2.85697162e-01, 2.85697162e-01, 2.85697162e-01,
          2.17184976e-01, 1.30020723e-01, 5.26752360e-02, 0., 0., 0.,
          2.58540940e-02 ]
      - [ 1.10540666e-01, 2.36084282e-01, 2.13414326e-01, 3.23752970e-01,
          3.23752970e-01, 1.15294673e-01, 1.12783074e-01, 9.37929973e-02,
          3.63948494e-02, 1.82580039e-01, 0., 0., 0., 1.47204578e-01,
          3.23752970e-01, 1.93959370e-01, 8.21433365e-02, 1.59500167e-01,
          3.23752970e-01, 1.05327599e-01, 8.46755281e-02, 6.35471046e-02,
          2.29588225e-01, 8.24829638e-02, 4.23934571e-02, 3.50288413e-02,
          8.46711844e-02, 3.23752970e-01, 3.23752970e-01, 6.22217804e-02,
          2.78346911e-02, 0., 0., 0., 0., 0. ]
      - [ 2.34976560e-01, 2.73433119e-01, 1.50818735e-01, 1.01338081e-01,
          1.64611891e-01, 2.78496742e-02, 1.65668681e-01, 4.52997684e-02,
          3.38967368e-02, 1.56950250e-01, 0., 1.28324360e-01,
          2.67073601e-01, 3.06471914e-01, 3.06471914e-01, 8.58512595e-02,
          7.06851333e-02, 1.23108208e-01, 3.06471914e-01, 1.90065160e-01,
          0., 0., 0., 5.43674268e-02, 7.57903904e-02, 1.27714321e-01,
          1.66380331e-01, 3.06471914e-01, 3.06471914e-01, 8.04473385e-02,
          8.90472159e-02, 2.55172819e-01, 2.39968300e-02, 0., 0., 0. ]
      - [ 1.30599782e-01, 2.97737151e-01, 2.60766387e-01, 2.70359606e-01,
          2.43339315e-01, 5.61790951e-02, 1.50024652e-01, 4.43034954e-02,
          3.40215638e-02, 1.87005386e-01, 0., 0., 7.72089660e-02,
          2.98357010e-01, 2.98357010e-01, 1.71979964e-01, 1.19851679e-01,
          9.78471041e-02, 2.98357010e-01, 1.83692366e-01, 0., 0.,
          1.83828905e-01, 7.50797614e-02, 7.65646175e-02, 7.68517330e-02,
          1.29099980e-01, 2.98357010e-01, 2.98357010e-01, 1.25909671e-01,
          8.49290118e-02, 3.15997899e-02, 0., 0., 0., 0. ]
      - [ 2.58106202e-01, 2.97828406e-01, 2.30525091e-01, 1.09057344e-01,
          1.63404346e-01, 0., 7.59366229e-02, 1.41522706e-01,
          3.79093252e-02, 1.80249915e-01, 2.13911645e-02, 8.22707824e-03,
          0., 2.08385363e-01, 2.97828406e-01, 2.97828406e-01,
          1.29486293e-01, 8.47529992e-02, 2.97828406e-01, 2.97828406e-01,
          1.02815160e-03, 1.59798022e-02, 1.87946290e-01, 1.17583342e-01,
          1.58599943e-01, 1.03401229e-01, 4.56310622e-02, 2.97828406e-01,
          2.97828406e-01, 4.03727517e-02, 4.78727631e-02, 4.15527448e-02,
          0., 0., 9.64586530e-03, 5.94825810e-03 ]
      - [ 8.94785747e-02, 2.03049645e-01, 2.85697162e-01, 2.85697162e-01,
          2.70665288e-01, 6.63667172e-02, 1.20802566e-01, 4.76947390e-02,
          6.31126687e-02, 7.47431740e-02, 0., 0., 7.56465569e-02,
          2.85697162e-01, 2.85697162e-01, 1.10352024e-01, 1.25403702e-01,
          1.94375992e-01, 2.85697162e-01, 1.58249065e-01, 0.,
          3.21762785e-02, 9.95370150e-02, 5.57899959e-02, 4.67028171e-02,
          1.16078347e-01, 2.85697162e-01, 2.85697162e-01, 2.85697162e-01,
          2.17184976e-01, 1.30020723e-01, 5.26752360e-02, 0., 0., 0.,
          2.58540940e-02 ]
      - [ 1.10540666e-01, 2.36084282e-01, 2.13414326e-01, 3.23752970e-01,
          3.23752970e-01, 1.15294673e-01, 1.12783074e-01, 9.37929973e-02,
          3.63948494e-02, 1.82580039e-01, 0., 0., 0., 1.47204578e-01,
          3.23752970e-01, 1.93959370e-01, 8.21433365e-02, 1.59500167e-01,
          3.23752970e-01, 1.05327599e-01, 8.46755281e-02, 6.35471046e-02,
          2.29588225e-01, 8.24829638e-02, 4.23934571e-02, 3.50288413e-02,
          8.46711844e-02, 3.23752970e-01, 3.23752970e-01, 6.22217804e-02,
          2.78346911e-02, 0., 0., 0., 0., 0. ]
      - [ 2.34976560e-01, 2.73433119e-01, 1.50818735e-01, 1.01338081e-01,
          1.64611891e-01, 2.78496742e-02, 1.65668681e-01, 4.52997684e-02,
          3.38967368e-02, 1.56950250e-01, 0., 1.28324360e-01,
          2.67073601e-01, 3.06471914e-01, 3.06471914e-01, 8.58512595e-02,
          7.06851333e-02, 1.23108208e-01, 3.06471914e-01, 1.90065160e-01,
          0., 0., 0., 5.43674268e-02, 7.57903904e-02, 1.27714321e-01,
          1.66380331e-01, 3.06471914e-01, 3.06471914e-01, 8.04473385e-02,
          8.90472159e-02, 2.55172819e-01, 2.39968300e-02, 0., 0., 0. ]
      - [ 1.30599782e-01, 2.97737151e-01, 2.60766387e-01, 2.70359606e-01,
          2.43339315e-01, 5.61790951e-02, 1.50024652e-01, 4.43034954e-02,
          3.40215638e-02, 1.87005386e-01, 0., 0., 7.72089660e-02,
          2.98357010e-01, 2.98357010e-01, 1.71979964e-01, 1.19851679e-01,
          9.78471041e-02, 2.98357010e-01, 1.83692366e-01, 0., 0.,
          1.83828905e-01, 7.50797614e-02, 7.65646175e-02, 7.68517330e-02,
          1.29099980e-01, 2.98357010e-01, 2.98357010e-01, 1.25909671e-01,
          8.49290118e-02, 3.15997899e-02, 0., 0., 0., 0. ]
      - [ 2.58106202e-01, 2.97828406e-01, 2.30525091e-01, 1.09057344e-01,
          1.63404346e-01, 0., 7.59366229e-02, 1.41522706e-01,
          3.79093252e-02, 1.80249915e-01, 2.13911645e-02, 8.22707824e-03,
          0., 2.08385363e-01, 2.97828406e-01, 2.97828406e-01,
          1.29486293e-01, 8.47529992e-02, 2.97828406e-01, 2.97828406e-01,
          1.02815160e-03, 1.59798022e-02, 1.87946290e-01, 1.17583342e-01,
          1.58599943e-01, 1.03401229e-01, 4.56310622e-02, 2.97828406e-01,
          2.97828406e-01, 4.03727517e-02, 4.78727631e-02, 4.15527448e-02,
          0., 0., 9.64586530e-03, 5.94825810e-03 ]
      - [ 8.94785747e-02, 2.03049645e-01, 2.85697162e-01, 2.85697162e-01,
          2.70665288e-01, 6.63667172e-02, 1.20802566e-01, 4.76947390e-02,
          6.31126687e-02, 7.47431740e-02, 0., 0., 7.56465569e-02,
          2.85697162e-01, 2.85697162e-01, 1.10352024e-01, 1.25403702e-01,
          1.94375992e-01, 2.85697162e-01, 1.58249065e-01, 0.,
          3.21762785e-02, 9.95370150e-02, 5.57899959e-02, 4.67028171e-02,
          1.16078347e-01, 2.85697162e-01, 2.85697162e-01, 2.85697162e-01,
          2.17184976e-01, 1.30020723e-01, 5.26752360e-02, 0., 0., 0.,
          2.58540940e-02 ]
      - [ 1.10540666e-01, 2.36084282e-01, 2.13414326e-01, 3.23752970e-01,
          3.23752970e-01, 1.15294673e-01, 1.12783074e-01, 9.37929973e-02,
          3.63948494e-02, 1.82580039e-01, 0., 0., 0., 1.47204578e-01,
          3.23752970e-01, 1.93959370e-01, 8.21433365e-02, 1.59500167e-01,
          3.23752970e-01, 1.05327599e-01, 8.46755281e-02, 6.35471046e-02,
          2.29588225e-01, 8.24829638e-02, 4.23934571e-02, 3.50288413e-02,
          8.46711844e-02, 3.23752970e-01, 3.23752970e-01, 6.22217804e-02,
          2.78346911e-02, 0., 0., 0., 0., 0. ]
      - [ 2.34976560e-01, 2.73433119e-01, 1.50818735e-01, 1.01338081e-01,
          1.64611891e-01, 2.78496742e-02, 1.65668681e-01, 4.52997684e-02,
          3.38967368e-02, 1.56950250e-01, 0., 1.28324360e-01,
          2.67073601e-01, 3.06471914e-01, 3.06471914e-01, 8.58512595e-02,
          7.06851333e-02, 1.23108208e-01, 3.06471914e-01, 1.90065160e-01,
          0., 0., 0., 5.43674268e-02, 7.57903904e-02, 1.27714321e-01,
          1.66380331e-01, 3.06471914e-01, 3.06471914e-01, 8.04473385e-02,
          8.90472159e-02, 2.55172819e-01, 2.39968300e-02, 0., 0., 0. ]
      - [ 1.06108725e-01, 1.65679365e-01, 2.95936376e-01, 3.07898343e-01,
          1.99397653e-01, 0., 0., 0., 2.05971431e-02, 6.41071587e-04, 0.,
          1.99636095e-03, 0., 3.07898343e-01, 3.07898343e-01,
          1.71137765e-01, 1.24530554e-01, 7.88072273e-02, 3.07898343e-01,
          0., 0., 0., 3.98506410e-02, 1.16493471e-01, 1.63562834e-01,
          1.53638288e-01, 3.07898343e-01, 3.07898343e-01, 1.04500614e-01,
          1.65278912e-01, 9.42078978e-02, 2.45925486e-01, 0., 0.,
          2.53147036e-02, 1.99902132e-01 ]
      - [ 1.71140924e-01, 9.76175442e-02, 2.43092731e-01, 2.90183723e-01,
          2.91008174e-01, 1.31167974e-02, 0., 0., 2.11849175e-02, 0.,
          9.27463081e-03, 7.59267481e-03, 0., 2.91008174e-01,
          2.91008174e-01, 2.91008174e-01, 7.39325732e-02, 3.10818031e-02,
          2.91008174e-01, 1.66403994e-01, 0., 0., 5.60981929e-02,
          1.58821851e-01, 2.91008174e-01, 8.46243575e-02, 1.48742646e-01,
          2.91008174e-01, 2.91008174e-01, 9.26320255e-02, 4.09029387e-02,
          1.66327551e-01, 0., 6.70689531e-03, 5.48155839e-03,
          9.92842093e-02 ]
      - [ 7.23041743e-02, 2.53499687e-01, 2.38971069e-01, 3.01148832e-01,
          1.03331789e-01, 8.17505177e-03, 0., 8.52072611e-03,
          2.01683380e-02, 0., 0., 0., 6.91879839e-02, 3.01148832e-01,
          3.01148832e-01, 2.47351199e-01, 2.24540889e-01, 4.05340567e-02,
          1.24039456e-01, 0., 0., 3.74066969e-03, 4.21980396e-02, 0.,
          4.39487919e-02, 3.01148832e-01, 3.01148832e-01, 3.01148832e-01,
          5.45256846e-02, 1.26360133e-01, 1.45717040e-01, 2.02980235e-01,
          5.54843284e-02, 5.46684116e-02, 5.25375307e-02, 3.01148832e-01 ]
      - [ 6.32583424e-02, 1.09158784e-01, 2.15926781e-01, 3.09599400e-01,
          3.09599400e-01, 0., 1.80754494e-02, 0., 9.85466223e-03,
          7.29990676e-02, 0., 2.01590615e-03, 0., 1.14206523e-01,
          3.09599400e-01, 1.95703194e-01, 1.80445567e-01, 1.34526134e-01,
          2.71791786e-01, 0., 0., 4.15711664e-02, 2.53744006e-01,
          1.17633983e-01, 1.20005548e-01, 5.68643510e-02, 3.09599400e-01,
          3.09599400e-01, 2.19742224e-01, 1.66897058e-01, 5.35590686e-02,
          1.06337667e-02, 0., 0., 6.33209273e-02, 3.09599400e-01 ]
      - [ 1.58382148e-01, 1.28932312e-01, 2.44759083e-01, 1.68239206e-01,
          1.53409570e-01, 0., 0., 2.96859387e-02, 9.07340087e-03, 0.,
          5.69610111e-02, 9.50188264e-02, 2.33019695e-01, 3.20287734e-01,
          3.20287734e-01, 8.39879662e-02, 3.88004817e-02, 1.06897146e-01,
          3.20287734e-01, 0., 0., 0., 0., 5.86188324e-02, 1.21212557e-01,
          1.25533804e-01, 3.20287734e-01, 3.20287734e-01, 8.11553001e-02,
          7.05507845e-02, 1.15802862e-01, 2.36425698e-01, 1.58378020e-01,
          0., 6.06374554e-02, 3.20287734e-01 ]
      - [ 1.06108725e-01, 1.65679365e-01, 2.95936376e-01, 3.07898343e-01,
          1.99397653e-01, 0., 0., 0., 2.05971431e-02, 6.41071587e-04, 0.,
          1.99636095e-03, 0., 3.07898343e-01, 3.07898343e-01,
          1.71137765e-01, 1.24530554e-01, 7.88072273e-02, 3.07898343e-01,
          0., 0., 0., 3.98506410e-02, 1.16493471e-01, 1.63562834e-01,
          1.53638288e-01, 3.07898343e-01, 3.07898343e-01, 1.04500614e-01,
          1.65278912e-01, 9.42078978e-02, 2.45925486e-01, 0., 0.,
          2.53147036e-02, 1.99902132e-01 ]
      - [ 7.23041743e-02, 2.53499687e-01, 2.38971069e-01, 3.01148832e-01,
          1.03331789e-01, 8.17505177e-03, 0., 8.52072611e-03,
          2.01683380e-02, 0., 0., 0., 6.91879839e-02, 3.01148832e-01,
          3.01148832e-01, 2.47351199e-01, 2.24540889e-01, 4.05340567e-02,
          1.24039456e-01, 0., 0., 3.74066969e-03, 4.21980396e-02, 0.,
          4.39487919e-02, 3.01148832e-01, 3.01148832e-01, 3.01148832e-01,
          5.45256846e-02, 1.26360133e-01, 1.45717040e-01, 2.02980235e-01,
          5.54843284e-02, 5.46684116e-02, 5.25375307e-02, 3.01148832e-01 ]
      - [ 6.32583424e-02, 1.09158784e-01, 2.15926781e-01, 3.09599400e-01,
          3.09599400e-01, 0., 1.80754494e-02, 0., 9.85466223e-03,
          7.29990676e-02, 0., 2.01590615e-03, 0., 1.14206523e-01,
          3.09599400e-01, 1.95703194e-01, 1.80445567e-01, 1.34526134e-01,
          2.71791786e-01, 0., 0., 4.15711664e-02, 2.53744006e-01,
          1.17633983e-01, 1.20005548e-01, 5.68643510e-02, 3.09599400e-01,
          3.09599400e-01, 2.19742224e-01, 1.66897058e-01, 5.35590686e-02,
          1.06337667e-02, 0., 0., 6.33209273e-02, 3.09599400e-01 ]
      - [ 1.58382148e-01, 1.28932312e-01, 2.44759083e-01, 1.68239206e-01,
          1.53409570e-01, 0., 0., 2.96859387e-02, 9.07340087e-03, 0.,
          5.69610111e-02, 9.50188264e-02, 2.33019695e-01, 3.20287734e-01,
          3.20287734e-01, 8.39879662e-02, 3.88004817e-02, 1.06897146e-01,
          3.20287734e-01, 0., 0., 0., 0., 5.86188324e-02, 1.21212557e-01,
          1.25533804e-01, 3.20287734e-01, 3.20287734e-01, 8.11553001e-02,
          7.05507845e-02, 1.15802862e-01, 2.36425698e-01, 1.58378020e-01,
          0., 6.06374554e-02, 3.20287734e-01 ]
      - [ 1.06108725e-01, 1.65679365e-01, 2.95936376e-01, 3.07898343e-01,
          1.99397653e-01, 0., 0., 0., 2.05971431e-02, 6.41071587e-04, 0.,
          1.99636095e-03, 0., 3.07898343e-01, 3.07898343e-01,
          1.71137765e-01, 1.24530554e-01, 7.88072273e-02, 3.07898343e-01,
          0., 0., 0., 3.98506410e-02, 1.16493471e-01, 1.63562834e-01,
          1.53638288e-01, 3.07898343e-01, 3.07898343e-01, 1.04500614e-01,
          1.65278912e-01, 9.42078978e-02, 2.45925486e-01, 0., 0.,
          2.53147036e-02, 1.99902132e-01 ]
      - [ 7.23041743e-02, 2.53499687e-01, 2.38971069e-01, 3.01148832e-01,
          1.03331789e-01, 8.17505177e-03, 0., 8.52072611e-03,
          2.01683380e-02, 0., 0., 0., 6.91879839e-02, 3.01148832e-01,
          3.01148832e-01, 2.47351199e-01, 2.24540889e-01, 4.05340567e-02,
          1.24039456e-01, 0., 0., 3.74066969e-03, 4.21980396e-02, 0.,
          4.39487919e-02, 3.01148832e-01, 3.01148832e-01, 3.01148832e-01,
          5.45256846e-02, 1.26360133e-01, 1.45717040e-01, 2.02980235e-01,
          5.54843284e-02, 5.46684116e-02, 5.25375307e-02, 3.01148832e-01 ]
      - [ 6.32583424e-02, 1.09158784e-01, 2.15926781e-01, 3.09599400e-01,
          3.09599400e-01, 0., 1.80754494e-02, 0., 9.85466223e-03,
          7.29990676e-02, 0., 2.01590615e-03, 0., 1.14206523e-01,
          3.09599400e-01, 1.95703194e-01, 1.80445567e-01, 1.34526134e-01,
          2.71791786e-01, 0., 0., 4.15711664e-02, 2.53744006e-01,
          1.17633983e-01, 1.20005548e-01, 5.68643510e-02, 3.09599400e-01,
          3.09599400e-01, 2.19742224e-01, 1.66897058e-01, 5.35590686e-02,
          1.06337667e-02, 0., 0., 6.33209273e-02, 3.09599400e-01 ]
      - [ 1.58382148e-01, 1.28932312e-01, 2.44759083e-01, 1.68239206e-01,
          1.53409570e-01, 0., 0., 2.96859387e-02, 9.07340087e-03, 0.,
          5.69610111e-02, 9.50188264e-02, 2.33019695e-01, 3.20287734e-01,
          3.20287734e-01, 8.39879662e-02, 3.88004817e-02, 1.06897146e-01,
          3.20287734e-01, 0., 0., 0., 0., 5.86188324e-02, 1.21212557e-01,
          1.25533804e-01, 3.20287734e-01, 3.20287734e-01, 8.11553001e-02,
          7.05507845e-02, 1.15802862e-01, 2.36425698e-01, 1.58378020e-01,
          0., 6.06374554e-02, 3.20287734e-01 ]
      - [ 1.06108725e-01, 1.65679365e-01, 2.95936376e-01, 3.07898343e-01,
          1.99397653e-01, 0., 0., 0., 2.05971431e-02, 6.41071587e-04, 0.,
          1.99636095e-03, 0., 3.07898343e-01, 3.07898343e-01,
          1.71137765e-01, 1.24530554e-01, 7.88072273e-02, 3.07898343e-01,
          0., 0., 0., 3.98506410e-02, 1.16493471e-01, 1.63562834e-01,
          1.53638288e-01, 3.07898343e-01, 3.07898343e-01, 1.04500614e-01,
          1.65278912e-01, 9.42078978e-02, 2.45925486e-01, 0., 0.,
          2.53147036e-02, 1.99902132e-01 ]
      - [ 7.23041743e-02, 2.53499687e-01, 2.38971069e-01, 3.01148832e-01,
          1.03331789e-01, 8.17505177e-03, 0., 8.52072611e-03,
          2.01683380e-02, 0., 0., 0., 6.91879839e-02, 3.01148832e-01,
          3.01148832e-01, 2.47351199e-01, 2.24540889e-01, 4.05340567e-02,
          1.24039456e-01, 0., 0., 3.74066969e-03, 4.21980396e-02, 0.,
          4.39487919e-02, 3.01148832e-01, 3.01148832e-01, 3.01148832e-01,
          5.45256846e-02, 1.26360133e-01, 1.45717040e-01, 2.02980235e-01,
          5.54843284e-02, 5.46684116e-02, 5.25375307e-02, 3.01148832e-01 ]
      - [ 6.32583424e-02, 1.09158784e-01, 2.15926781e-01, 3.09599400e-01,
          3.09599400e-01, 0., 1.80754494e-02, 0., 9.85466223e-03,
          7.29990676e-02, 0., 2.01590615e-03, 0., 1.14206523e-01,
          3.09599400e-01, 1.95703194e-01, 1.80445567e-01, 1.34526134e-01,
          2.71791786e-01, 0., 0., 4.15711664e-02, 2.53744006e-01,
          1.17633983e-01, 1.20005548e-01, 5.68643510e-02, 3.09599400e-01,
          3.09599400e-01, 2.19742224e-01, 1.66897058e-01, 5.35590686e-02,
          1.06337667e-02, 0., 0., 6.33209273e-02, 3.09599400e-01 ]
      - [ 1.58382148e-01, 1.28932312e-01, 2.44759083e-01, 1.68239206e-01,
          1.53409570e-01, 0., 0., 2.96859387e-02, 9.07340087e-03, 0.,
          5.69610111e-02, 9.50188264e-02, 2.33019695e-01, 3.20287734e-01,
          3.20287734e-01, 8.39879662e-02, 3.88004817e-02, 1.06897146e-01,
          3.20287734e-01, 0., 0., 0., 0., 5.86188324e-02, 1.21212557e-01,
          1.25533804e-01, 3.20287734e-01, 3.20287734e-01, 8.11553001e-02,
          7.05507845e-02, 1.15802862e-01, 2.36425698e-01, 1.58378020e-01,
          0., 6.06374554e-02, 3.20287734e-01 ]
      - [ 2.19214067e-01, 8.56351480e-02, 1.99679866e-01, 2.86768585e-01,
          2.69595802e-01, 2.18143895e-01, 3.32121849e-02, 3.87457646e-02,
          6.22461513e-02, 3.89791876e-02, 4.49713506e-03, 1.49778519e-02,
          4.63748574e-02, 2.86768585e-01, 2.86768585e-01, 2.86768585e-01,
          3.68016474e-02, 1.18546644e-02, 2.86768585e-01, 1.99381426e-01,
          1.79379620e-02, 0., 2.06357598e-01, 1.01307839e-01,
          1.57680780e-01, 1.31750554e-01, 9.14794505e-02, 2.86768585e-01,
          2.86768585e-01, 1.52082816e-01, 1.15644179e-01, 6.33765236e-02,
          1.37873357e-02, 0., 3.64877097e-02, 1.06663123e-01 ]
      - [ 2.68918537e-02, 6.98938817e-02, 2.88533598e-01, 2.88533598e-01,
          2.88533598e-01, 0., 0., 0., 0., 9.36049223e-02, 3.84414643e-02,
          6.64574374e-03, 2.88533598e-01, 2.74789363e-01, 2.77309060e-01,
          1.52192369e-01, 7.81141669e-02, 2.83107180e-02, 2.88533598e-01,
          3.95376496e-02, 0., 0., 6.93230052e-03, 3.26507464e-02,
          7.61983320e-02, 1.19465187e-01, 2.88533598e-01, 2.38742918e-01,
          1.61800191e-01, 2.88533598e-01, 5.17621115e-02, 1.61546901e-01,
          1.94538408e-03, 1.00477813e-02, 2.83716600e-02, 2.88533598e-01 ]
      - [ 3.23575735e-02, 1.17687946e-02, 1.41924769e-01, 3.17224830e-01,
          3.17224830e-01, 4.56244797e-02, 6.62772777e-03, 9.27309506e-03,
          0., 9.32515785e-02, 3.73788700e-02, 0., 0., 3.17224830e-01,
          2.98539966e-01, 2.44703084e-01, 1.16130240e-01, 7.19880015e-02,
          3.17224830e-01, 0., 1.82240661e-02, 8.52413327e-02,
          1.72592387e-01, 8.88679326e-02, 9.11388621e-02, 5.06305657e-02,
          2.32121035e-01, 3.17224830e-01, 2.52541006e-01, 1.36759043e-01,
          4.87113670e-02, 4.12374502e-03, 0., 0., 0., 3.17224830e-01 ]
      - [ 1.76068410e-01, 1.08545393e-01, 1.32441774e-01, 2.93976068e-01,
          3.37154567e-01, 4.09963019e-02, 0., 8.73867795e-03,
          1.29039222e-02, 0., 0., 1.68811515e-01, 3.11027497e-01,
          3.37154567e-01, 2.89629221e-01, 7.36289173e-02, 4.80251275e-02,
          2.73279585e-02, 3.37154567e-01, 1.90838352e-02, 0.,
          2.34206440e-03, 8.36819224e-03, 3.08119562e-02, 6.01626262e-02,
          1.35053217e-01, 1.80132776e-01, 3.37154567e-01, 2.16780096e-01,
          1.56499356e-01, 1.41803920e-01, 1.66013718e-01, 3.69775742e-02,
          4.49652672e-02, 1.01310397e-02, 2.64855009e-02 ]
      - [ 2.19214067e-01, 8.56351480e-02, 1.99679866e-01, 2.86768585e-01,
          2.69595802e-01, 2.18143895e-01, 3.32121849e-02, 3.87457646e-02,
          6.22461513e-02, 3.89791876e-02, 4.49713506e-03, 1.49778519e-02,
          4.63748574e-02, 2.86768585e-01, 2.86768585e-01, 2.86768585e-01,
          3.68016474e-02, 1.18546644e-02, 2.86768585e-01, 1.99381426e-01,
          1.79379620e-02, 0., 2.06357598e-01, 1.01307839e-01,
          1.57680780e-01, 1.31750554e-01, 9.14794505e-02, 2.86768585e-01,
          2.86768585e-01, 1.52082816e-01, 1.15644179e-01, 6.33765236e-02,
          1.37873357e-02, 0., 3.64877097e-02, 1.06663123e-01 ]
      - [ 2.68918537e-02, 6.98938817e-02, 2.88533598e-01, 2.88533598e-01,
          2.88533598e-01, 0., 0., 0., 0., 9.36049223e-02, 3.84414643e-02,
          6.64574374e-03, 2.88533598e-01, 2.74789363e-01, 2.77309060e-01,
          1.52192369e-01, 7.81141669e-02, 2.83107180e-02, 2.88533598e-01,
          3.95376496e-02, 0., 0., 6.93230052e-03, 3.26507464e-02,
          7.61983320e-02, 1.19465187e-01, 2.88533598e-01, 2.38742918e-01,
          1.61800191e-01, 2.88533598e-01, 5.17621115e-02, 1.61546901e-01,
          1.94538408e-03, 1.00477813e-02, 2.83716600e-02, 2.88533598e-01 ]
      - [ 3.23575735e-02, 1.17687946e-02, 1.41924769e-01, 3.17224830e-01,
          3.17224830e-01, 4.56244797e-02, 6.62772777e-03, 9.27309506e-03,
          0., 9.32515785e-02, 3.73788700e-02, 0., 0., 3.17224830e-01,
          2.98539966e-01, 2.44703084e-01, 1.16130240e-01, 7.19880015e-02,
          3.17224830e-01, 0., 1.82240661e-02, 8.52413327e-02,
          1.72592387e-01, 8.88679326e-02, 9.11388621e-02, 5.06305657e-02,
          2.32121035e-01, 3.17224830e-01, 2.52541006e-01, 1.36759043e-01,
          4.87113670e-02, 4.12374502e-03, 0., 0., 0., 3.17224830e-01 ]
      - [ 1.76068410e-01, 1.08545393e-01, 1.32441774e-01, 2.93976068e-01,
          3.37154567e-01, 4.09963019e-02, 0., 8.73867795e-03,
          1.29039222e-02, 0., 0., 1.68811515e-01, 3.11027497e-01,
          3.37154567e-01, 2.89629221e-01, 7.36289173e-02, 4.80251275e-02,
          2.73279585e-02, 3.37154567e-01, 1.90838352e-02, 0.,
          2.34206440e-03, 8.36819224e-03, 3.08119562e-02, 6.01626262e-02,
          1.35053217e-01, 1.80132776e-01, 3.37154567e-01, 2.16780096e-01,
          1.56499356e-01, 1.41803920e-01, 1.66013718e-01, 3.69775742e-02,
          4.49652672e-02, 1.01310397e-02, 2.64855009e-02 ]
      - [ 2.19214067e-01, 8.56351480e-02, 1.99679866e-01, 2.86768585e-01,
          2.69595802e-01, 2.18143895e-01, 3.32121849e-02, 3.87457646e-02,
          6.22461513e-02, 3.89791876e-02, 4.49713506e-03, 1.49778519e-02,
          4.63748574e-02, 2.86768585e-01, 2.86768585e-01, 2.86768585e-01,
          3.68016474e-02, 1.18546644e-02, 2.86768585e-01, 1.99381426e-01,
          1.79379620e-02, 0., 2.06357598e-01, 1.01307839e-01,
          1.57680780e-01, 1.31750554e-01, 9.14794505e-02, 2.86768585e-01,
          2.86768585e-01, 1.52082816e-01, 1.15644179e-01, 6.33765236e-02,
          1.37873357e-02, 0., 3.64877097e-02, 1.06663123e-01 ]
      - [ 2.68918537e-02, 6.98938817e-02, 2.88533598e-01, 2.88533598e-01,
          2.88533598e-01, 0., 0., 0., 0., 9.36049223e-02, 3.84414643e-02,
          6.64574374e-03, 2.88533598e-01, 2.74789363e-01, 2.77309060e-01,
          1.52192369e-01, 7.81141669e-02, 2.83107180e-02, 2.88533598e-01,
          3.95376496e-02, 0., 0., 6.93230052e-03, 3.26507464e-02,
          7.61983320e-02, 1.19465187e-01, 2.88533598e-01, 2.38742918e-01,
          1.61800191e-01, 2.88533598e-01, 5.17621115e-02, 1.61546901e-01,
          1.94538408e-03, 1.00477813e-02, 2.83716600e-02, 2.88533598e-01 ]
      - [ 3.23575735e-02, 1.17687946e-02, 1.41924769e-01, 3.17224830e-01,
          3.17224830e-01, 4.56244797e-02, 6.62772777e-03, 9.27309506e-03,
          0., 9.32515785e-02, 3.73788700e-02, 0., 0., 3.17224830e-01,
          2.98539966e-01, 2.44703084e-01, 1.16130240e-01, 7.19880015e-02,
          3.17224830e-01, 0., 1.82240661e-02, 8.52413327e-02,
          1.72592387e-01, 8.88679326e-02, 9.11388621e-02, 5.06305657e-02,
          2.32121035e-01, 3.17224830e-01, 2.52541006e-01, 1.36759043e-01,
          4.87113670e-02, 4.12374502e-03, 0., 0., 0., 3.17224830e-01 ]
      - [ 1.76068410e-01, 1.08545393e-01, 1.32441774e-01, 2.93976068e-01,
          3.37154567e-01, 4.09963019e-02, 0., 8.73867795e-03,
          1.29039222e-02, 0., 0., 1.68811515e-01, 3.11027497e-01,
          3.37154567e-01, 2.89629221e-01, 7.36289173e-02, 4.80251275e-02,
          2.73279585e-02, 3.37154567e-01, 1.90838352e-02, 0.,
          2.34206440e-03, 8.36819224e-03, 3.08119562e-02, 6.01626262e-02,
          1.35053217e-01, 1.80132776e-01, 3.37154567e-01, 2.16780096e-01,
          1.56499356e-01, 1.41803920e-01, 1.66013718e-01, 3.69775742e-02,
          4.49652672e-02, 1.01310397e-02, 2.64855009e-02 ]
      - [ 2.19214067e-01, 8.56351480e-02, 1.99679866e-01, 2.86768585e-01,
          2.69595802e-01, 2.18143895e-01, 3.32121849e-02, 3.87457646e-02,
          6.22461513e-02, 3.89791876e-02, 4.49713506e-03, 1.49778519e-02,
          4.63748574e-02, 2.86768585e-01, 2.86768585e-01, 2.86768585e-01,
          3.68016474e-02, 1.18546644e-02, 2.86768585e-01, 1.99381426e-01,
          1.79379620e-02, 0., 2.06357598e-01, 1.01307839e-01,
          1.57680780e-01, 1.31750554e-01, 9.14794505e-02, 2.86768585e-01,
          2.86768585e-01, 1.52082816e-01, 1.15644179e-01, 6.33765236e-02,
          1.37873357e-02, 0., 3.64877097e-02, 1.06663123e-01 ]
      - [ 2.68918537e-02, 6.98938817e-02, 2.88533598e-01, 2.88533598e-01,
          2.88533598e-01, 0., 0., 0., 0., 9.36049223e-02, 3.84414643e-02,
          6.64574374e-03, 2.88533598e-01, 2.74789363e-01, 2.77309060e-01,
          1.52192369e-01, 7.81141669e-02, 2.83107180e-02, 2.88533598e-01,
          3.95376496e-02, 0., 0., 6.93230052e-03, 3.26507464e-02,
          7.61983320e-02, 1.19465187e-01, 2.88533598e-01, 2.38742918e-01,
          1.61800191e-01, 2.88533598e-01, 5.17621115e-02, 1.61546901e-01,
          1.94538408e-03, 1.00477813e-02, 2.83716600e-02, 2.88533598e-01 ]
      - [ 3.23575735e-02, 1.17687946e-02, 1.41924769e-01, 3.17224830e-01,
          3.17224830e-01, 4.56244797e-02, 6.62772777e-03, 9.27309506e-03,
          0., 9.32515785e-02, 3.73788700e-02, 0., 0., 3.17224830e-01,
          2.98539966e-01, 2.44703084e-01, 1.16130240e-01, 7.19880015e-02,
          3.17224830e-01, 0., 1.82240661e-02, 8.52413327e-02,
          1.72592387e-01, 8.88679326e-02, 9.11388621e-02, 5.06305657e-02,
          2.32121035e-01, 3.17224830e-01, 2.52541006e-01, 1.36759043e-01,
          4.87113670e-02, 4.12374502e-03, 0., 0., 0., 3.17224830e-01 ]
      - [ 1.76068410e-01, 1.08545393e-01, 1.32441774e-01, 2.93976068e-01,
          3.37154567e-01, 4.09963019e-02, 0., 8.73867795e-03,
          1.29039222e-02, 0., 0., 1.68811515e-01, 3.11027497e-01,
          3.37154567e-01, 2.89629221e-01, 7.36289173e-02, 4.80251275e-02,
          2.73279585e-02, 3.37154567e-01, 1.90838352e-02, 0.,
          2.34206440e-03, 8.36819224e-03, 3.08119562e-02, 6.01626262e-02,
          1.35053217e-01, 1.80132776e-01, 3.37154567e-01, 2.16780096e-01,
          1.56499356e-01, 1.41803920e-01, 1.66013718e-01, 3.69775742e-02,
          4.49652672e-02, 1.01310397e-02, 2.64855009e-02 ]
      - [ 2.19214067e-01, 8.56351480e-02, 1.99679866e-01, 2.86768585e-01,
          2.69595802e-01, 2.18143895e-01, 3.32121849e-02, 3.87457646e-02,
          6.22461513e-02, 3.89791876e-02, 4.49713506e-03, 1.49778519e-02,
          4.63748574e-02, 2.86768585e-01, 2.86768585e-01, 2.86768585e-01,
          3.68016474e-02, 1.18546644e-02, 2.86768585e-01, 1.99381426e-01,
          1.79379620e-02, 0., 2.06357598e-01, 1.01307839e-01,
          1.57680780e-01, 1.31750554e-01, 9.14794505e-02, 2.86768585e-01,
          2.86768585e-01, 1.52082816e-01, 1.15644179e-01, 6.33765236e-02,
          1.37873357e-02, 0., 3.64877097e-02, 1.06663123e-01 ]
      - [ 2.68918537e-02, 6.98938817e-02, 2.88533598e-01, 2.88533598e-01,
          2.88533598e-01, 0., 0., 0., 0., 9.36049223e-02, 3.84414643e-02,
          6.64574374e-03, 2.88533598e-01, 2.74789363e-01, 2.77309060e-01,
          1.52192369e-01, 7.81141669e-02, 2.83107180e-02, 2.88533598e-01,
          3.95376496e-02, 0., 0., 6.93230052e-03, 3.26507464e-02,
          7.61983320e-02, 1.19465187e-01, 2.88533598e-01, 2.38742918e-01,
          1.61800191e-01, 2.88533598e-01, 5.17621115e-02, 1.61546901e-01,
          1.94538408e-03, 1.00477813e-02, 2.83716600e-02, 2.88533598e-01 ]
      - [ 3.23575735e-02, 1.17687946e-02, 1.41924769e-01, 3.17224830e-01,
          3.17224830e-01, 4.56244797e-02, 6.62772777e-03, 9.27309506e-03,
          0., 9.32515785e-02, 3.73788700e-02, 0., 0., 3.17224830e-01,
          2.98539966e-01, 2.44703084e-01, 1.16130240e-01, 7.19880015e-02,
          3.17224830e-01, 0., 1.82240661e-02, 8.52413327e-02,
          1.72592387e-01, 8.88679326e-02, 9.11388621e-02, 5.06305657e-02,
          2.32121035e-01, 3.17224830e-01, 2.52541006e-01, 1.36759043e-01,
          4.87113670e-02, 4.12374502e-03, 0., 0., 0., 3.17224830e-01 ]
      - [ 1.76068410e-01, 1.08545393e-01, 1.32441774e-01, 2.93976068e-01,
          3.37154567e-01, 4.09963019e-02, 0., 8.73867795e-03,
          1.29039222e-02, 0., 0., 1.68811515e-01, 3.11027497e-01,
          3.37154567e-01, 2.89629221e-01, 7.36289173e-02, 4.80251275e-02,
          2.73279585e-02, 3.37154567e-01, 1.90838352e-02, 0.,
          2.34206440e-03, 8.36819224e-03, 3.08119562e-02, 6.01626262e-02,
          1.35053217e-01, 1.80132776e-01, 3.37154567e-01, 2.16780096e-01,
          1.56499356e-01, 1.41803920e-01, 1.66013718e-01, 3.69775742e-02,
          4.49652672e-02, 1.01310397e-02, 2.64855009e-02 ]
      - [ 1.61273628e-01, 7.96862170e-02, 1.76813990e-01, 2.78524488e-01,
          2.78524488e-01, 1.35960251e-01, 6.05717525e-02, 1.98203567e-02,
          1.25553105e-02, 9.27500874e-02, 3.29950824e-02, 3.61757204e-02,
          0., 2.78524488e-01, 2.78524488e-01, 1.88307792e-01,
          2.17217177e-01, 6.99536577e-02, 2.78524488e-01, 5.52622927e-03,
          0., 1.04668245e-01, 1.17072970e-01, 2.54751265e-01,
          2.69379139e-01, 1.85841560e-01, 1.23055771e-01, 2.78524488e-01,
          6.83939308e-02, 2.29597434e-01, 1.26040921e-01, 1.83997333e-01,
          2.22145449e-02, 2.82391030e-02, 1.17028719e-02, 1.71125770e-01 ]
      - [ 1.38669699e-01, 2.53524482e-01, 2.05464914e-01, 2.53524482e-01,
          2.34057218e-01, 1.98880628e-01, 1.05466172e-01, 8.81036837e-03,
          3.89891006e-02, 3.76239121e-02, 0., 5.11785559e-02,
          8.78098607e-03, 2.53524482e-01, 2.53524482e-01, 2.53524482e-01,
          1.63372174e-01, 9.31011066e-02, 2.53524482e-01, 1.67661563e-01,
          2.69435290e-02, 1.22544825e-01, 1.41158223e-01, 2.01503515e-01,
          2.45087594e-01, 1.52047276e-01, 1.68492168e-01, 2.53524482e-01,
          2.53524482e-01, 1.13871612e-01, 1.42376244e-01, 1.25781223e-01,
          8.40399712e-02, 1.52034732e-02, 3.49782705e-02, 6.55389875e-02 ]
      - [ 9.77285653e-02, 1.06893092e-01, 2.57014245e-01, 2.57014245e-01,
          2.57014245e-01, 1.10097662e-01, 1.19457981e-02, 1.51095865e-02,
          4.67484444e-02, 0., 0., 1.63512975e-02, 1.27927676e-01,
          1.38190269e-01, 2.56251425e-01, 2.57014245e-01, 1.29350469e-01,
          2.57014245e-01, 2.57014245e-01, 0., 0., 4.25457582e-02,
          1.22139648e-01, 2.57014245e-01, 1.72244176e-01, 1.82774693e-01,
          2.57014245e-01, 2.33905867e-01, 1.73303291e-01, 2.28458360e-01,
          1.40337303e-01, 7.75957853e-02, 1.24437492e-02, 6.25964031e-02,
          7.19824657e-02, 2.57014245e-01 ]
      - [ 6.84686527e-02, 3.68420370e-02, 8.22378621e-02, 2.90114462e-01,
          2.90114462e-01, 2.42815450e-01, 1.42562285e-01, 6.47505373e-02,
          5.91298230e-02, 1.77175894e-01, 4.49467897e-02, 4.48247232e-02,
          0., 2.90114462e-01, 2.10310906e-01, 1.51322901e-01,
          1.33020878e-01, 1.70185998e-01, 2.90114462e-01, 7.50644058e-02,
          1.26720928e-02, 2.21972823e-01, 2.43455991e-01, 2.33594656e-01,
          1.78383827e-01, 1.11059546e-01, 1.82597101e-01, 2.90114462e-01,
          1.39639422e-01, 1.66421399e-01, 3.41920294e-02, 1.18231423e-01,
          3.95935848e-02, 1.13779688e-02, 3.04233246e-02, 1.37158811e-01 ]
      - [ 2.21669003e-01, 5.84521666e-02, 1.66234970e-01, 2.95256019e-01,
          1.20017923e-01, 8.20758790e-02, 6.75872415e-02, 6.12423457e-02,
          0., 1.85243376e-02, 2.14423537e-02, 4.15791534e-02,
          1.11692391e-01, 2.95256019e-01, 2.95256019e-01, 1.77065536e-01,
          1.12668209e-01, 1.19195513e-01, 2.95256019e-01, 3.65722813e-02,
          0., 0., 5.97222848e-03, 2.95256019e-01, 2.02182591e-01,
          1.06475934e-01, 2.19866872e-01, 2.95256019e-01, 1.07462592e-01,
          2.48870030e-01, 1.61127388e-01, 2.86846101e-01, 3.68692093e-02,
          0., 6.27395138e-03, 9.47612301e-02 ]
      - [ 1.61273628e-01, 7.96862170e-02, 1.76813990e-01, 2.78524488e-01,
          2.78524488e-01, 1.35960251e-01, 6.05717525e-02, 1.98203567e-02,
          1.25553105e-02, 9.27500874e-02, 3.29950824e-02, 3.61757204e-02,
          0., 2.78524488e-01, 2.78524488e-01, 1.88307792e-01,
          2.17217177e-01, 6.99536577e-02, 2.78524488e-01, 5.52622927e-03,
          0., 1.04668245e-01, 1.17072970e-01, 2.54751265e-01,
          2.69379139e-01, 1.85841560e-01, 1.23055771e-01, 2.78524488e-01,
          6.83939308e-02, 2.29597434e-01, 1.26040921e-01, 1.83997333e-01,
          2.22145449e-02, 2.82391030e-02, 1.17028719e-02, 1.71125770e-01 ]
      - [ 1.38669699e-01, 2.53524482e-01, 2.05464914e-01, 2.53524482e-01,
          2.34057218e-01, 1.98880628e-01, 1.05466172e-01, 8.81036837e-03,
          3.89891006e-02, 3.76239121e-02, 0., 5.11785559e-02,
          8.78098607e-03, 2.53524482e-01, 2.53524482e-01, 2.53524482e-01,
          1.63372174e-01, 9.31011066e-02, 2.53524482e-01, 1.67661563e-01,
          2.69435290e-02, 1.22544825e-01, 1.41158223e-01, 2.01503515e-01,
          2.45087594e-01, 1.52047276e-01, 1.68492168e-01, 2.53524482e-01,
          2.53524482e-01, 1.13871612e-01, 1.42376244e-01, 1.25781223e-01,
          8.40399712e-02, 1.52034732e-02, 3.49782705e-02, 6.55389875e-02 ]
      - [ 9.77285653e-02, 1.06893092e-01, 2.57014245e-01, 2.57014245e-01,
          2.57014245e-01, 1.10097662e-01, 1.19457981e-02, 1.51095865e-02,
          4.67484444e-02, 0., 0., 1.63512975e-02, 1.27927676e-01,
          1.38190269e-01, 2.56251425e-01, 2.57014245e-01, 1.29350469e-01,
          2.57014245e-01, 2.57014245e-01, 0., 0., 4.25457582e-02,
          1.22139648e-01, 2.57014245e-01, 1.72244176e-01, 1.82774693e-01,
          2.57014245e-01, 2.33905867e-01, 1.73303291e-01, 2.28458360e-01,
          1.40337303e-01, 7.75957853e-02, 1.24437492e-02, 6.25964031e-02,
          7.19824657e-02, 2.57014245e-01 ]
      - [ 6.84686527e-02, 3.68420370e-02, 8.22378621e-02, 2.90114462e-01,
          2.90114462e-01, 2.42815450e-01, 1.42562285e-01, 6.47505373e-02,
          5.91298230e-02, 1.77175894e-01, 4.49467897e-02, 4.48247232e-02,
          0., 2.90114462e-01, 2.10310906e-01, 1.51322901e-01,
          1.33020878e-01, 1.70185998e-01, 2.90114462e-01, 7.50644058e-02,
          1.26720928e-02, 2.21972823e-01, 2.43455991e-01, 2.33594656e-01,
          1.78383827e-01, 1.11059546e-01, 1.82597101e-01, 2.90114462e-01,
          1.39639422e-01, 1.66421399e-01, 3.41920294e-02, 1.18231423e-01,
          3.95935848e-02, 1.13779688e-02, 3.04233246e-02, 1.37158811e-01 ]
      - [ 2.21669003e-01, 5.84521666e-02, 1.66234970e-01, 2.95256019e-01,
          1.20017923e-01, 8.20758790e-02, 6.75872415e-02, 6.12423457e-02,
          0., 1.85243376e-02, 2.14423537e-02, 4.15791534e-02,
          1.11692391e-01, 2.95256019e-01, 2.95256019e-01, 1.77065536e-01,
          1.12668209e-01, 1.19195513e-01, 2.95256019e-01, 3.65722813e-02,
          0., 0., 5.97222848e-03, 2.95256019e-01, 2.02182591e-01,
          1.06475934e-01, 2.19866872e-01, 2.95256019e-01, 1.07462592e-01,
          2.48870030e-01, 1.61127388e-01, 2.86846101e-01, 3.68692093e-02,
          0., 6.27395138e-03, 9.47612301e-02 ]
      - [ 1.61273628e-01, 7.96862170e-02, 1.76813990e-01, 2.78524488e-01,
          2.78524488e-01, 1.35960251e-01, 6.05717525e-02, 1.98203567e-02,
          1.25553105e-02, 9.27500874e-02, 3.29950824e-02, 3.61757204e-02,
          0., 2.78524488e-01, 2.78524488e-01, 1.88307792e-01,
          2.17217177e-01, 6.99536577e-02, 2.78524488e-01, 5.52622927e-03,
          0., 1.04668245e-01, 1.17072970e-01, 2.54751265e-01,
          2.69379139e-01, 1.85841560e-01, 1.23055771e-01, 2.78524488e-01,
          6.83939308e-02, 2.29597434e-01, 1.26040921e-01, 1.83997333e-01,
          2.22145449e-02, 2.82391030e-02, 1.17028719e-02, 1.71125770e-01 ]
      - [ 1.38669699e-01, 2.53524482e-01, 2.05464914e-01, 2.53524482e-01,
          2.34057218e-01, 1.98880628e-01, 1.05466172e-01, 8.81036837e-03,
          3.89891006e-02, 3.76239121e-02, 0., 5.11785559e-02,
          8.78098607e-03, 2.53524482e-01, 2.53524482e-01, 2.53524482e-01,
          1.63372174e-01, 9.31011066e-02, 2.53524482e-01, 1.67661563e-01,
          2.69435290e-02, 1.22544825e-01, 1.41158223e-01, 2.01503515e-01,
          2.45087594e-01, 1.52047276e-01, 1.68492168e-01, 2.53524482e-01,
          2.53524482e-01, 1.13871612e-01, 1.42376244e-01, 1.25781223e-01,
          8.40399712e-02, 1.52034732e-02, 3.49782705e-02, 6.55389875e-02 ]
      - [ 9.77285653e-02, 1.06893092e-01, 2.57014245e-01, 2.57014245e-01,
          2.57014245e-01, 1.10097662e-01, 1.19457981e-02, 1.51095865e-02,
          4.67484444e-02, 0., 0., 1.63512975e-02, 1.27927676e-01,
          1.38190269e-01, 2.56251425e-01, 2.57014245e-01, 1.29350469e-01,
          2.57014245e-01, 2.57014245e-01, 0., 0., 4.25457582e-02,
          1.22139648e-01, 2.57014245e-01, 1.72244176e-01, 1.82774693e-01,
          2.57014245e-01, 2.33905867e-01, 1.73303291e-01, 2.28458360e-01,
          1.40337303e-01, 7.75957853e-02, 1.24437492e-02, 6.25964031e-02,
          7.19824657e-02, 2.57014245e-01 ]
      - [ 6.84686527e-02, 3.68420370e-02, 8.22378621e-02, 2.90114462e-01,
          2.90114462e-01, 2.42815450e-01, 1.42562285e-01, 6.47505373e-02,
          5.91298230e-02, 1.77175894e-01, 4.49467897e-02, 4.48247232e-02,
          0., 2.90114462e-01, 2.10310906e-01, 1.51322901e-01,
          1.33020878e-01, 1.70185998e-01, 2.90114462e-01, 7.50644058e-02,
          1.26720928e-02, 2.21972823e-01, 2.43455991e-01, 2.33594656e-01,
          1.78383827e-01, 1.11059546e-01, 1.82597101e-01, 2.90114462e-01,
          1.39639422e-01, 1.66421399e-01, 3.41920294e-02, 1.18231423e-01,
          3.95935848e-02, 1.13779688e-02, 3.04233246e-02, 1.37158811e-01 ]
      - [ 2.21669003e-01, 5.84521666e-02, 1.66234970e-01, 2.95256019e-01,
          1.20017923e-01, 8.20758790e-02, 6.75872415e-02, 6.12423457e-02,
          0., 1.85243376e-02, 2.14423537e-02, 4.15791534e-02,
          1.11692391e-01, 2.95256019e-01, 2.95256019e-01, 1.77065536e-01,
          1.12668209e-01, 1.19195513e-01, 2.95256019e-01, 3.65722813e-02,
          0., 0., 5.97222848e-03, 2.95256019e-01, 2.02182591e-01,
          1.06475934e-01, 2.19866872e-01, 2.95256019e-01, 1.07462592e-01,
          2.48870030e-01, 1.61127388e-01, 2.86846101e-01, 3.68692093e-02,
          0., 6.27395138e-03, 9.47612301e-02 ]
      - [ 1.61273628e-01, 7.96862170e-02, 1.76813990e-01, 2.78524488e-01,
          2.78524488e-01, 1.35960251e-01, 6.05717525e-02, 1.98203567e-02,
          1.25553105e-02, 9.27500874e-02, 3.29950824e-02, 3.61757204e-02,
          0., 2.78524488e-01, 2.78524488e-01, 1.88307792e-01,
          2.17217177e-01, 6.99536577e-02, 2.78524488e-01, 5.52622927e-03,
          0., 1.04668245e-01, 1.17072970e-01, 2.54751265e-01,
          2.69379139e-01, 1.85841560e-01, 1.23055771e-01, 2.78524488e-01,
          6.83939308e-02, 2.29597434e-01, 1.26040921e-01, 1.83997333e-01,
          2.22145449e-02, 2.82391030e-02, 1.17028719e-02, 1.71125770e-01 ]
      - [ 1.38669699e-01, 2.53524482e-01, 2.05464914e-01, 2.53524482e-01,
          2.34057218e-01, 1.98880628e-01, 1.05466172e-01, 8.81036837e-03,
          3.89891006e-02, 3.76239121e-02, 0., 5.11785559e-02,
          8.78098607e-03, 2.53524482e-01, 2.53524482e-01, 2.53524482e-01,
          1.63372174e-01, 9.31011066e-02, 2.53524482e-01, 1.67661563e-01,
          2.69435290e-02, 1.22544825e-01, 1.41158223e-01, 2.01503515e-01,
          2.45087594e-01, 1.52047276e-01, 1.68492168e-01, 2.53524482e-01,
          2.53524482e-01, 1.13871612e-01, 1.42376244e-01, 1.25781223e-01,
          8.40399712e-02, 1.52034732e-02, 3.49782705e-02, 6.55389875e-02 ]
      - [ 9.77285653e-02, 1.06893092e-01, 2.57014245e-01, 2.57014245e-01,
          2.57014245e-01, 1.10097662e-01, 1.19457981e-02, 1.51095865e-02,
          4.67484444e-02, 0., 0., 1.63512975e-02, 1.27927676e-01,
          1.38190269e-01, 2.56251425e-01, 2.57014245e-01, 1.29350469e-01,
          2.57014245e-01, 2.57014245e-01, 0., 0., 4.25457582e-02,
          1.22139648e-01, 2.57014245e-01, 1.72244176e-01, 1.82774693e-01,
          2.57014245e-01, 2.33905867e-01, 1.73303291e-01, 2.28458360e-01,
          1.40337303e-01, 7.75957853e-02, 1.24437492e-02, 6.25964031e-02,
          7.19824657e-02, 2.57014245e-01 ]
      - [ 6.84686527e-02, 3.68420370e-02, 8.22378621e-02, 2.90114462e-01,
          2.90114462e-01, 2.42815450e-01, 1.42562285e-01, 6.47505373e-02,
          5.91298230e-02, 1.77175894e-01, 4.49467897e-02, 4.48247232e-02,
          0., 2.90114462e-01, 2.10310906e-01, 1.51322901e-01,
          1.33020878e-01, 1.70185998e-01, 2.90114462e-01, 7.50644058e-02,
          1.26720928e-02, 2.21972823e-01, 2.43455991e-01, 2.33594656e-01,
          1.78383827e-01, 1.11059546e-01, 1.82597101e-01, 2.90114462e-01,
          1.39639422e-01, 1.66421399e-01, 3.41920294e-02, 1.18231423e-01,
          3.95935848e-02, 1.13779688e-02, 3.04233246e-02, 1.37158811e-01 ]
      - [ 2.21669003e-01, 5.84521666e-02, 1.66234970e-01, 2.95256019e-01,
          1.20017923e-01, 8.20758790e-02, 6.75872415e-02, 6.12423457e-02,
          0., 1.85243376e-02, 2.14423537e-02, 4.15791534e-02,
          1.11692391e-01, 2.95256019e-01, 2.95256019e-01, 1.77065536e-01,
          1.12668209e-01, 1.19195513e-01, 2.95256019e-01, 3.65722813e-02,
          0., 0., 5.97222848e-03, 2.95256019e-01, 2.02182591e-01,
          1.06475934e-01, 2.19866872e-01, 2.95256019e-01, 1.07462592e-01,
          2.48870030e-01, 1.61127388e-01, 2.86846101e-01, 3.68692093e-02,
          0., 6.27395138e-03, 9.47612301e-02 ]
      - [ 1.61273628e-01, 7.96862170e-02, 1.76813990e-01, 2.78524488e-01,
          2.78524488e-01, 1.35960251e-01, 6.05717525e-02, 1.98203567e-02,
          1.25553105e-02, 9.27500874e-02, 3.29950824e-02, 3.61757204e-02,
          0., 2.78524488e-01, 2.78524488e-01, 1.88307792e-01,
          2.17217177e-01, 6.99536577e-02, 2.78524488e-01, 5.52622927e-03,
          0., 1.04668245e-01, 1.17072970e-01, 2.54751265e-01,
          2.69379139e-01, 1.85841560e-01, 1.23055771e-01, 2.78524488e-01,
          6.83939308e-02, 2.29597434e-01, 1.26040921e-01, 1.83997333e-01,
          2.22145449e-02, 2.82391030e-02, 1.17028719e-02, 1.71125770e-01 ]
      - [ 1.38669699e-01, 2.53524482e-01, 2.05464914e-01, 2.53524482e-01,
          2.34057218e-01, 1.98880628e-01, 1.05466172e-01, 8.81036837e-03,
          3.89891006e-02, 3.76239121e-02, 0., 5.11785559e-02,
          8.78098607e-03, 2.53524482e-01, 2.53524482e-01, 2.53524482e-01,
          1.63372174e-01, 9.31011066e-02, 2.53524482e-01, 1.67661563e-01,
          2.69435290e-02, 1.22544825e-01, 1.41158223e-01, 2.01503515e-01,
          2.45087594e-01, 1.52047276e-01, 1.68492168e-01, 2.53524482e-01,
          2.53524482e-01, 1.13871612e-01, 1.42376244e-01, 1.25781223e-01,
          8.40399712e-02, 1.52034732e-02, 3.49782705e-02, 6.55389875e-02 ]
      - [ 9.77285653e-02, 1.06893092e-01, 2.57014245e-01, 2.57014245e-01,
          2.57014245e-01, 1.10097662e-01, 1.19457981e-02, 1.51095865e-02,
          4.67484444e-02, 0., 0., 1.63512975e-02, 1.27927676e-01,
          1.38190269e-01, 2.56251425e-01, 2.57014245e-01, 1.29350469e-01,
          2.57014245e-01, 2.57014245e-01, 0., 0., 4.25457582e-02,
          1.22139648e-01, 2.57014245e-01, 1.72244176e-01, 1.82774693e-01,
          2.57014245e-01, 2.33905867e-01, 1.73303291e-01, 2.28458360e-01,
          1.40337303e-01, 7.75957853e-02, 1.24437492e-02, 6.25964031e-02,
          7.19824657e-02, 2.57014245e-01 ]
      - [ 6.84686527e-02, 3.68420370e-02, 8.22378621e-02, 2.90114462e-01,
          2.90114462e-01, 2.42815450e-01, 1.42562285e-01, 6.47505373e-02,
          5.91298230e-02, 1.77175894e-01, 4.49467897e-02, 4.48247232e-02,
          0., 2.90114462e-01, 2.10310906e-01, 1.51322901e-01,
          1.33020878e-01, 1.70185998e-01, 2.90114462e-01, 7.50644058e-02,
          1.26720928e-02, 2.21972823e-01, 2.43455991e-01, 2.33594656e-01,
          1.78383827e-01, 1.11059546e-01, 1.82597101e-01, 2.90114462e-01,
          1.39639422e-01, 1.66421399e-01, 3.41920294e-02, 1.18231423e-01,
          3.95935848e-02, 1.13779688e-02, 3.04233246e-02, 1.37158811e-01 ]
      - [ 2.21669003e-01, 5.84521666e-02, 1.66234970e-01, 2.95256019e-01,
          1.20017923e-01, 8.20758790e-02, 6.75872415e-02, 6.12423457e-02,
          0., 1.85243376e-02, 2.14423537e-02, 4.15791534e-02,
          1.11692391e-01, 2.95256019e-01, 2.95256019e-01, 1.77065536e-01,
          1.12668209e-01, 1.19195513e-01, 2.95256019e-01, 3.65722813e-02,
          0., 0., 5.97222848e-03, 2.95256019e-01, 2.02182591e-01,
          1.06475934e-01, 2.19866872e-01, 2.95256019e-01, 1.07462592e-01,
          2.48870030e-01, 1.61127388e-01, 2.86846101e-01, 3.68692093e-02,
          0., 6.27395138e-03, 9.47612301e-02 ]
      - [ 8.15307721e-02, 2.49661729e-01, 2.37871349e-01, 2.72003293e-01,
          1.29684418e-01, 0., 0., 0., 0., 4.31219302e-02, 3.36185917e-02,
          1.54117979e-02, 2.39072125e-02, 2.72003293e-01, 2.72003293e-01,
          1.61684915e-01, 9.15095508e-02, 6.18399903e-02, 2.72003293e-01,
          0., 0., 4.01195465e-03, 1.40407160e-01, 2.72003293e-01,
