%YAML:1.0
---
opencv_ml_svm:
   format: 3
   svmType: C_SVC
   kernel:
      type: RBF
      gamma: 5.0000000000000003e-02
   C: 2.5000000000000000e+00
   term_criteria: { epsilon:1.1920928955078125e-07, iterations:1000 }
   var_count: 36
   class_count: 9
   class_labels: !!opencv-matrix
      rows: 9
      cols: 1
      dt: i
      data: [ 11, 12, 14, 18, 21, 22, 24, 25, 28 ]
   sv_total: 594
   support_vectors:
      - [ 2.65828371e-01, 7.54771009e-02, 1.62985936e-01, 1.27799034e-01,
          3.37208241e-01, 5.63361347e-02, 6.91147298e-02, 4.47989963e-02,
          1.70182332e-01, 0., 2.89407112e-02, 1.62865058e-01,
          4.77295518e-02, 3.37208241e-01, 1.67794824e-01, 2.40105633e-02,
          4.64778729e-02, 1.64603576e-01, 3.37208241e-01, 1.03196949e-01,
          2.79829390e-02, 3.41847539e-02, 8.06544255e-03, 1.18418455e-01,
          2.03601405e-01, 9.05095413e-02, 1.66270450e-01, 3.37208241e-01,
          3.94913405e-02, 9.80928764e-02, 2.75232643e-02, 6.39026314e-02,
          9.08023790e-02, 9.68102813e-02, 2.19151318e-01, 3.37208241e-01 ]
      - [ 2.96917588e-01, 1.22630328e-01, 1.16562374e-01, 8.71967450e-02,
          1.70936391e-01, 2.81636208e-01, 5.72518259e-02, 2.51936931e-02,
          1.24284588e-02, 4.61481214e-02, 2.76702307e-02, 0.,
          7.40709975e-02, 2.96917588e-01, 2.96917588e-01, 1.23080470e-01,
          5.61927184e-02, 7.50467256e-02, 2.96917588e-01, 2.14933246e-01,
          1.72314607e-02, 3.01458240e-02, 2.45404672e-02, 5.07451594e-02,
          5.49301766e-02, 2.37071991e-01, 1.70599654e-01, 2.96917588e-01,
          1.64107800e-01, 1.90855131e-01, 1.76789761e-02, 9.25193354e-02,
          0., 1.89870540e-02, 2.79985905e-01, 2.96917588e-01 ]
      - [ 1.34459585e-01, 4.09948342e-02, 1.27188385e-01, 2.68771499e-01,
          2.68771499e-01, 1.62464567e-02, 4.57609706e-02, 2.28704419e-02,
          2.00645611e-01, 1.08334169e-01, 1.00372300e-01, 2.08209112e-01,
          2.68771499e-01, 2.68771499e-01, 1.49653926e-01, 4.54119965e-02,
          8.64815339e-02, 1.05665997e-01, 2.68771499e-01, 1.19625933e-01,
          0., 3.85569744e-02, 9.96885672e-02, 8.49257782e-02,
          1.52881369e-01, 1.97873190e-01, 2.68771499e-01, 2.68771499e-01,
          7.26157054e-02, 9.82105359e-03, 3.65822986e-02, 1.13317519e-01,
          2.09001489e-02, 2.16924712e-01, 2.68771499e-01, 2.68771499e-01 ]
      - [ 7.68530145e-02, 5.65211326e-02, 7.84412846e-02, 4.86587025e-02,
          3.03856581e-01, 6.01704121e-02, 3.75777334e-02, 7.84443840e-02,
          2.29129121e-01, 2.41021171e-01, 4.28354815e-02, 1.20326139e-01,
          9.56388190e-02, 3.03856581e-01, 1.58336073e-01, 9.13278982e-02,
          7.66973123e-02, 6.74206614e-02, 3.03856581e-01, 7.14770779e-02,
          3.20254965e-03, 1.03939818e-02, 6.50755614e-02, 7.46516660e-02,
          2.96790332e-01, 2.69126475e-01, 3.03856581e-01, 3.03856581e-01,
          4.21411507e-02, 1.00559212e-01, 0., 1.45106800e-02,
          8.02429616e-02, 1.75947055e-01, 1.10839389e-01, 3.03856581e-01 ]
      - [ 3.58897299e-01, 9.35400650e-02, 2.72594810e-01, 4.57723998e-02,
          2.20014676e-01, 0., 6.41758665e-02, 6.94357157e-02,
          1.04241125e-01, 4.66508605e-02, 3.35782059e-02, 2.82862596e-02,
          1.55162960e-01, 3.58897299e-01, 1.89826041e-01, 3.24062929e-02,
          5.28836772e-02, 1.78322792e-01, 3.58897299e-01, 7.71023706e-02,
          3.78870070e-02, 3.21432948e-02, 1.94486454e-02, 1.31643683e-01,
          6.86873049e-02, 7.08811507e-02, 1.59634233e-01, 3.58897299e-01,
          1.35171011e-01, 1.75821912e-02, 4.14581932e-02, 1.10056937e-01,
          2.93470384e-03, 1.98530421e-01, 2.68819451e-01, 1.61558032e-01 ]
      - [ 2.65828371e-01, 7.54771009e-02, 1.62985936e-01, 1.27799034e-01,
          3.37208241e-01, 5.63361347e-02, 6.91147298e-02, 4.47989963e-02,
          1.70182332e-01, 0., 2.89407112e-02, 1.62865058e-01,
          4.77295518e-02, 3.37208241e-01, 1.67794824e-01, 2.40105633e-02,
          4.64778729e-02, 1.64603576e-01, 3.37208241e-01, 1.03196949e-01,
          2.79829390e-02, 3.41847539e-02, 8.06544255e-03, 1.18418455e-01,
          2.03601405e-01, 9.05095413e-02, 1.66270450e-01, 3.37208241e-01,
          3.94913405e-02, 9.80928764e-02, 2.75232643e-02, 6.39026314e-02,
          9.08023790e-02, 9.68102813e-02, 2.19151318e-01, 3.37208241e-01 ]
      - [ 2.96917588e-01, 1.22630328e-01, 1.16562374e-01, 8.71967450e-02,
          1.70936391e-01, 2.81636208e-01, 5.72518259e-02, 2.51936931e-02,
          1.24284588e-02, 4.61481214e-02, 2.76702307e-02, 0.,
          7.40709975e-02, 2.96917588e-01, 2.96917588e-01, 1.23080470e-01,
          5.61927184e-02, 7.50467256e-02, 2.96917588e-01, 2.14933246e-01,
          1.72314607e-02, 3.01458240e-02, 2.45404672e-02, 5.07451594e-02,
          5.49301766e-02, 2.37071991e-01, 1.70599654e-01, 2.96917588e-01,
          1.64107800e-01, 1.90855131e-01, 1.76789761e-02, 9.25193354e-02,
          0., 1.89870540e-02, 2.79985905e-01, 2.96917588e-01 ]
      - [ 1.34459585e-01, 4.09948342e-02, 1.27188385e-01, 2.68771499e-01,
          2.68771499e-01, 1.62464567e-02, 4.57609706e-02, 2.28704419e-02,
          2.00645611e-01, 1.08334169e-01, 1.00372300e-01, 2.08209112e-01,
          2.68771499e-01, 2.68771499e-01, 1.49653926e-01, 4.54119965e-02,
          8.64815339e-02, 1.05665997e-01, 2.68771499e-01, 1.19625933e-01,
          0., 3.85569744e-02, 9.96885672e-02, 8.49257782e-02,
          1.52881369e-01, 1.97873190e-01, 2.68771499e-01, 2.68771499e-01,
          7.26157054e-02, 9.82105359e-03, 3.65822986e-02, 1.13317519e-01,
          2.09001489e-02, 2.16924712e-01, 2.68771499e-01, 2.68771499e-01 ]
      - [ 7.68530145e-02, 5.65211326e-02, 7.84412846e-02, 4.86587025e-02,
          3.03856581e-01, 6.01704121e-02, 3.75777334e-02, 7.84443840e-02,
          2.29129121e-01, 2.41021171e-01, 4.28354815e-02, 1.20326139e-01,
          9.56388190e-02, 3.03856581e-01, 1.58336073e-01, 9.13278982e-02,
          7.66973123e-02, 6.74206614e-02, 3.03856581e-01, 7.14770779e-02,
          3.20254965e-03, 1.03939818e-02, 6.50755614e-02, 7.46516660e-02,
          2.96790332e-01, 2.69126475e-01, 3.03856581e-01, 3.03856581e-01,
          4.21411507e-02, 1.00559212e-01, 0., 1.45106800e-02,
          8.02429616e-02, 1.75947055e-01, 1.10839389e-01, 3.03856581e-01 ]
      - [ 3.58897299e-01, 9.35400650e-02, 2.72594810e-01, 4.57723998e-02,
          2.20014676e-01, 0., 6.41758665e-02, 6.94357157e-02,
          1.04241125e-01, 4.66508605e-02, 3.35782059e-02, 2.82862596e-02,
          1.55162960e-01, 3.58897299e-01, 1.89826041e-01, 3.24062929e-02,
          5.28836772e-02, 1.78322792e-01, 3.58897299e-01, 7.71023706e-02,
          3.78870070e-02, 3.21432948e-02, 1.94486454e-02, 1.31643683e-01,
          6.86873049e-02, 7.08811507e-02, 1.59634233e-01, 3.58897299e-01,
          1.35171011e-01, 1.75821912e-02, 4.14581932e-02, 1.10056937e-01,
          2.93470384e-03, 1.98530421e-01, 2.68819451e-01, 1.61558032e-01 ]
      - [ 2.65828371e-01, 7.54771009e-02, 1.62985936e-01, 1.27799034e-01,
          3.37208241e-01, 5.63361347e-02, 6.91147298e-02, 4.47989963e-02,
          1.70182332e-01, 0., 2.89407112e-02, 1.62865058e-01,
          4.77295518e-02, 3.37208241e-01, 1.67794824e-01, 2.40105633e-02,
          4.64778729e-02, 1.64603576e-01, 3.37208241e-01, 1.03196949e-01,
          2.79829390e-02, 3.41847539e-02, 8.06544255e-03, 1.18418455e-01,
          2.03601405e-01, 9.05095413e-02, 1.66270450e-01, 3.37208241e-01,
          3.94913405e-02, 9.80928764e-02, 2.75232643e-02, 6.39026314e-02,
          9.08023790e-02, 9.68102813e-02, 2.19151318e-01, 3.37208241e-01 ]
      - [ 2.96917588e-01, 1.22630328e-01, 1.16562374e-01, 8.71967450e-02,
          1.70936391e-01, 2.81636208e-01, 5.72518259e-02, 2.51936931e-02,
          1.24284588e-02, 4.61481214e-02, 2.76702307e-02, 0.,
          7.40709975e-02, 2.96917588e-01, 2.96917588e-01, 1.23080470e-01,
          5.61927184e-02, 7.50467256e-02, 2.96917588e-01, 2.14933246e-01,
          1.72314607e-02, 3.01458240e-02, 2.45404672e-02, 5.07451594e-02,
          5.49301766e-02, 2.37071991e-01, 1.70599654e-01, 2.96917588e-01,
          1.64107800e-01, 1.90855131e-01, 1.76789761e-02, 9.25193354e-02,
          0., 1.89870540e-02, 2.79985905e-01, 2.96917588e-01 ]
      - [ 1.34459585e-01, 4.09948342e-02, 1.27188385e-01, 2.68771499e-01,
          2.68771499e-01, 1.62464567e-02, 4.57609706e-02, 2.28704419e-02,
          2.00645611e-01, 1.08334169e-01, 1.00372300e-01, 2.08209112e-01,
          2.68771499e-01, 2.68771499e-01, 1.49653926e-01, 4.54119965e-02,
          8.64815339e-02, 1.05665997e-01, 2.68771499e-01, 1.19625933e-01,
          0., 3.85569744e-02, 9.96885672e-02, 8.49257782e-02,
          1.52881369e-01, 1.97873190e-01, 2.68771499e-01, 2.68771499e-01,
          7.26157054e-02, 9.82105359e-03, 3.65822986e-02, 1.13317519e-01,
          2.09001489e-02, 2.16924712e-01, 2.68771499e-01, 2.68771499e-01 ]
      - [ 7.68530145e-02, 5.65211326e-02, 7.84412846e-02, 4.86587025e-02,
          3.03856581e-01, 6.01704121e-02, 3.75777334e-02, 7.84443840e-02,
          2.29129121e-01, 2.41021171e-01, 4.28354815e-02, 1.20326139e-01,
          9.56388190e-02, 3.03856581e-01, 1.58336073e-01, 9.13278982e-02,
          7.66973123e-02, 6.74206614e-02, 3.03856581e-01, 7.14770779e-02,
          3.20254965e-03, 1.03939818e-02, 6.50755614e-02, 7.46516660e-02,
          2.96790332e-01, 2.69126475e-01, 3.03856581e-01, 3.03856581e-01,
          4.21411507e-02, 1.00559212e-01, 0., 1.45106800e-02,
          8.02429616e-02, 1.75947055e-01, 1.10839389e-01, 3.03856581e-01 ]
      - [ 3.58897299e-01, 9.35400650e-02, 2.72594810e-01, 4.57723998e-02,
          2.20014676e-01, 0., 6.41758665e-02, 6.94357157e-02,
          1.04241125e-01, 4.66508605e-02, 3.35782059e-02, 2.82862596e-02,
          1.55162960e-01, 3.58897299e-01, 1.89826041e-01, 3.24062929e-02,
          5.28836772e-02, 1.78322792e-01, 3.58897299e-01, 7.71023706e-02,
          3.78870070e-02, 3.21432948e-02, 1.94486454e-02, 1.31643683e-01,
          6.86873049e-02, 7.08811507e-02, 1.59634233e-01, 3.58897299e-01,
          1.35171011e-01, 1.75821912e-02, 4.14581932e-02, 1.10056937e-01,
          2.93470384e-03, 1.98530421e-01, 2.68819451e-01, 1.61558032e-01 ]
      - [ 2.96917588e-01, 1.22630328e-01, 1.16562374e-01, 8.71967450e-02,
          1.70936391e-01, 2.81636208e-01, 5.72518259e-02, 2.51936931e-02,
          1.24284588e-02, 4.61481214e-02, 2.76702307e-02, 0.,
          7.40709975e-02, 2.96917588e-01, 2.96917588e-01, 1.23080470e-01,
          5.61927184e-02, 7.50467256e-02, 2.96917588e-01, 2.14933246e-01,
          1.72314607e-02, 3.01458240e-02, 2.45404672e-02, 5.07451594e-02,
          5.49301766e-02, 2.37071991e-01, 1.70599654e-01, 2.96917588e-01,
          1.64107800e-01, 1.90855131e-01, 1.76789761e-02, 9.25193354e-02,
          0., 1.89870540e-02, 2.79985905e-01, 2.96917588e-01 ]
      - [ 1.34459585e-01, 4.09948342e-02, 1.27188385e-01, 2.68771499e-01,
          2.68771499e-01, 1.62464567e-02, 4.57609706e-02, 2.28704419e-02,
          2.00645611e-01, 1.08334169e-01, 1.00372300e-01, 2.08209112e-01,
          2.68771499e-01, 2.68771499e-01, 1.49653926e-01, 4.54119965e-02,
          8.64815339e-02, 1.05665997e-01, 2.68771499e-01, 1.19625933e-01,
          0., 3.85569744e-02, 9.96885672e-02, 8.49257782e-02,
          1.52881369e-01, 1.97873190e-01, 2.68771499e-01, 2.68771499e-01,
          7.26157054e-02, 9.82105359e-03, 3.65822986e-02, 1.13317519e-01,
          2.09001489e-02, 2.16924712e-01, 2.68771499e-01, 2.68771499e-01 ]
      - [ 7.68530145e-02, 5.65211326e-02, 7.84412846e-02, 4.86587025e-02,
          3.03856581e-01, 6.01704121e-02, 3.75777334e-02, 7.84443840e-02,
          2.29129121e-01, 2.41021171e-01, 4.28354815e-02, 1.20326139e-01,
          9.56388190e-02, 3.03856581e-01, 1.58336073e-01, 9.13278982e-02,
          7.66973123e-02, 6.74206614e-02, 3.03856581e-01, 7.14770779e-02,
          3.20254965e-03, 1.03939818e-02, 6.50755614e-02, 7.46516660e-02,
          2.96790332e-01, 2.69126475e-01, 3.03856581e-01, 3.03856581e-01,
          4.21411507e-02, 1.00559212e-01, 0., 1.45106800e-02,
          8.02429616e-02, 1.75947055e-01, 1.10839389e-01, 3.03856581e-01 ]
      - [ 3.58897299e-01, 9.35400650e-02, 2.72594810e-01, 4.57723998e-02,
          2.20014676e-01, 0., 6.41758665e-02, 6.94357157e-02,
          1.04241125e-01, 4.66508605e-02, 3.35782059e-02, 2.82862596e-02,
          1.55162960e-01, 3.58897299e-01, 1.89826041e-01, 3.24062929e-02,
          5.28836772e-02, 1.78322792e-01, 3.58897299e-01, 7.71023706e-02,
          3.78870070e-02, 3.21432948e-02, 1.94486454e-02, 1.31643683e-01,
          6.86873049e-02, 7.08811507e-02, 1.59634233e-01, 3.58897299e-01,
          1.35171011e-01, 1.75821912e-02, 4.14581932e-02, 1.10056937e-01,
          2.93470384e-03, 1.98530421e-01, 2.68819451e-01, 1.61558032e-01 ]
      - [ 2.96917588e-01, 1.22630328e-01, 1.16562374e-01, 8.71967450e-02,
          1.70936391e-01, 2.81636208e-01, 5.72518259e-02, 2.51936931e-02,
          1.24284588e-02, 4.61481214e-02, 2.76702307e-02, 0.,
          7.40709975e-02, 2.96917588e-01, 2.96917588e-01, 1.23080470e-01,
          5.61927184e-02, 7.50467256e-02, 2.96917588e-01, 2.14933246e-01,
          1.72314607e-02, 3.01458240e-02, 2.45404672e-02, 5.07451594e-02,
          5.49301766e-02, 2.37071991e-01, 1.70599654e-01, 2.96917588e-01,
          1.64107800e-01, 1.90855131e-01, 1.76789761e-02, 9.25193354e-02,
          0., 1.89870540e-02, 2.79985905e-01, 2.96917588e-01 ]
      - [ 1.34459585e-01, 4.09948342e-02, 1.27188385e-01, 2.68771499e-01,
          2.68771499e-01, 1.62464567e-02, 4.57609706e-02, 2.28704419e-02,
          2.00645611e-01, 1.08334169e-01, 1.00372300e-01, 2.08209112e-01,
          2.68771499e-01, 2.68771499e-01, 1.49653926e-01, 4.54119965e-02,
          8.64815339e-02, 1.05665997e-01, 2.68771499e-01, 1.19625933e-01,
          0., 3.85569744e-02, 9.96885672e-02, 8.49257782e-02,
          1.52881369e-01, 1.97873190e-01, 2.68771499e-01, 2.68771499e-01,
          7.26157054e-02, 9.82105359e-03, 3.65822986e-02, 1.13317519e-01,
          2.09001489e-02, 2.16924712e-01, 2.68771499e-01, 2.68771499e-01 ]
      - [ 7.68530145e-02, 5.65211326e-02, 7.84412846e-02, 4.86587025e-02,
          3.03856581e-01, 6.01704121e-02, 3.75777334e-02, 7.84443840e-02,
          2.29129121e-01, 2.41021171e-01, 4.28354815e-02, 1.20326139e-01,
          9.56388190e-02, 3.03856581e-01, 1.58336073e-01, 9.13278982e-02,
          7.66973123e-02, 6.74206614e-02, 3.03856581e-01, 7.14770779e-02,
          3.20254965e-03, 1.03939818e-02, 6.50755614e-02, 7.46516660e-02,
          2.96790332e-01, 2.69126475e-01, 3.03856581e-01, 3.03856581e-01,
          4.21411507e-02, 1.00559212e-01, 0., 1.45106800e-02,
          8.02429616e-02, 1.75947055e-01, 1.10839389e-01, 3.03856581e-01 ]
      - [ 3.58897299e-01, 9.35400650e-02, 2.72594810e-01, 4.57723998e-02,
          2.20014676e-01, 0., 6.41758665e-02, 6.94357157e-02,
          1.04241125e-01, 4.66508605e-02, 3.35782059e-02, 2.82862596e-02,
          1.55162960e-01, 3.58897299e-01, 1.89826041e-01, 3.24062929e-02,
          5.28836772e-02, 1.78322792e-01, 3.58897299e-01, 7.71023706e-02,
          3.78870070e-02, 3.21432948e-02, 1.94486454e-02, 1.31643683e-01,
          6.86873049e-02, 7.08811507e-02, 1.59634233e-01, 3.58897299e-01,
          1.35171011e-01, 1.75821912e-02, 4.14581932e-02, 1.10056937e-01,
          2.93470384e-03, 1.98530421e-01, 2.68819451e-01, 1.61558032e-01 ]
      - [ 2.96917588e-01, 1.22630328e-01, 1.16562374e-01, 8.71967450e-02,
          1.70936391e-01, 2.81636208e-01, 5.72518259e-02, 2.51936931e-02,
          1.24284588e-02, 4.61481214e-02, 2.76702307e-02, 0.,
          7.40709975e-02, 2.96917588e-01, 2.96917588e-01, 1.23080470e-01,
          5.61927184e-02, 7.50467256e-02, 2.96917588e-01, 2.14933246e-01,
          1.72314607e-02, 3.01458240e-02, 2.45404672e-02, 5.07451594e-02,
          5.49301766e-02, 2.37071991e-01, 1.70599654e-01, 2.96917588e-01,
          1.64107800e-01, 1.90855131e-01, 1.76789761e-02, 9.25193354e-02,
          0., 1.89870540e-02, 2.79985905e-01, 2.96917588e-01 ]
      - [ 1.34459585e-01, 4.09948342e-02, 1.27188385e-01, 2.68771499e-01,
          2.68771499e-01, 1.62464567e-02, 4.57609706e-02, 2.28704419e-02,
          2.00645611e-01, 1.08334169e-01, 1.00372300e-01, 2.08209112e-01,
          2.68771499e-01, 2.68771499e-01, 1.49653926e-01, 4.54119965e-02,
          8.64815339e-02, 1.05665997e-01, 2.68771499e-01, 1.19625933e-01,
          0., 3.85569744e-02, 9.96885672e-02, 8.49257782e-02,
          1.52881369e-01, 1.97873190e-01, 2.68771499e-01, 2.68771499e-01,
          7.26157054e-02, 9.82105359e-03, 3.65822986e-02, 1.13317519e-01,
          2.09001489e-02, 2.16924712e-01, 2.68771499e-01, 2.68771499e-01 ]
      - [ 7.68530145e-02, 5.65211326e-02, 7.84412846e-02, 4.86587025e-02,
          3.03856581e-01, 6.01704121e-02, 3.75777334e-02, 7.84443840e-02,
          2.29129121e-01, 2.41021171e-01, 4.28354815e-02, 1.20326139e-01,
          9.56388190e-02, 3.03856581e-01, 1.58336073e-01, 9.13278982e-02,
          7.66973123e-02, 6.74206614e-02, 3.03856581e-01, 7.14770779e-02,
          3.20254965e-03, 1.03939818e-02, 6.50755614e-02, 7.46516660e-02,
          2.96790332e-01, 2.69126475e-01, 3.03856581e-01, 3.03856581e-01,
          4.21411507e-02, 1.00559212e-01, 0., 1.45106800e-02,
          8.02429616e-02, 1.75947055e-01, 1.10839389e-01, 3.03856581e-01 ]
      - [ 3.58897299e-01, 9.35400650e-02, 2.72594810e-01, 4.57723998e-02,
          2.20014676e-01, 0., 6.41758665e-02, 6.94357157e-02,
          1.04241125e-01, 4.66508605e-02, 3.35782059e-02, 2.82862596e-02,
          1.55162960e-01, 3.58897299e-01, 1.89826041e-01, 3.24062929e-02,
          5.28836772e-02, 1.78322792e-01, 3.58897299e-01, 7.71023706e-02,
          3.78870070e-02, 3.21432948e-02, 1.94486454e-02, 1.31643683e-01,
          6.86873049e-02, 7.08811507e-02, 1.59634233e-01, 3.58897299e-01,
          1.35171011e-01, 1.75821912e-02, 4.14581932e-02, 1.10056937e-01,
          2.93470384e-03, 1.98530421e-01, 2.68819451e-01, 1.61558032e-01 ]
      - [ 2.96917588e-01, 1.22630328e-01, 1.16562374e-01, 8.71967450e-02,
          1.70936391e-01, 2.81636208e-01, 5.72518259e-02, 2.51936931e-02,
          1.24284588e-02, 4.61481214e-02, 2.76702307e-02, 0.,
          7.40709975e-02, 2.96917588e-01, 2.96917588e-01, 1.23080470e-01,
          5.61927184e-02, 7.50467256e-02, 2.96917588e-01, 2.14933246e-01,
          1.72314607e-02, 3.01458240e-02, 2.45404672e-02, 5.07451594e-02,
          5.49301766e-02, 2.37071991e-01, 1.70599654e-01, 2.96917588e-01,
          1.64107800e-01, 1.90855131e-01, 1.76789761e-02, 9.25193354e-02,
          0., 1.89870540e-02, 2.79985905e-01, 2.96917588e-01 ]
      - [ 1.34459585e-01, 4.09948342e-02, 1.27188385e-01, 2.68771499e-01,
          2.68771499e-01, 1.62464567e-02, 4.57609706e-02, 2.28704419e-02,
          2.00645611e-01, 1.08334169e-01, 1.00372300e-01, 2.08209112e-01,
          2.68771499e-01, 2.68771499e-01, 1.49653926e-01, 4.54119965e-02,
          8.64815339e-02, 1.05665997e-01, 2.68771499e-01, 1.19625933e-01,
          0., 3.85569744e-02, 9.96885672e-02, 8.49257782e-02,
          1.52881369e-01, 1.97873190e-01, 2.68771499e-01, 2.68771499e-01,
          7.26157054e-02, 9.82105359e-03, 3.65822986e-02, 1.13317519e-01,
          2.09001489e-02, 2.16924712e-01, 2.68771499e-01, 2.68771499e-01 ]
      - [ 7.68530145e-02, 5.65211326e-02, 7.84412846e-02, 4.86587025e-02,
          3.03856581e-01, 6.01704121e-02, 3.75777334e-02, 7.84443840e-02,
          2.29129121e-01, 2.41021171e-01, 4.28354815e-02, 1.20326139e-01,
          9.56388190e-02, 3.03856581e-01, 1.58336073e-01, 9.13278982e-02,
          7.66973123e-02, 6.74206614e-02, 3.03856581e-01, 7.14770779e-02,
          3.20254965e-03, 1.03939818e-02, 6.50755614e-02, 7.46516660e-02,
          2.96790332e-01, 2.69126475e-01, 3.03856581e-01, 3.03856581e-01,
          4.21411507e-02, 1.00559212e-01, 0., 1.45106800e-02,
          8.02429616e-02, 1.75947055e-01, 1.10839389e-01, 3.03856581e-01 ]
      - [ 3.58897299e-01, 9.35400650e-02, 2.72594810e-01, 4.57723998e-02,
          2.20014676e-01, 0., 6.41758665e-02, 6.94357157e-02,
          1.04241125e-01, 4.66508605e-02, 3.35782059e-02, 2.82862596e-02,
          1.55162960e-01, 3.58897299e-01, 1.89826041e-01, 3.24062929e-02,
          5.28836772e-02, 1.78322792e-01, 3.58897299e-01, 7.71023706e-02,
          3.78870070e-02, 3.21432948e-02, 1.94486454e-02, 1.31643683e-01,
          6.86873049e-02, 7.08811507e-02, 1.59634233e-01, 3.58897299e-01,
          1.35171011e-01, 1.75821912e-02, 4.14581932e-02, 1.10056937e-01,
          2.93470384e-03, 1.98530421e-01, 2.68819451e-01, 1.61558032e-01 ]
      - [ 2.96917588e-01, 1.22630328e-01, 1.16562374e-01, 8.71967450e-02,
          1.70936391e-01, 2.81636208e-01, 5.72518259e-02, 2.51936931e-02,
          1.24284588e-02, 4.61481214e-02, 2.76702307e-02, 0.,
          7.40709975e-02, 2.96917588e-01, 2.96917588e-01, 1.23080470e-01,
          5.61927184e-02, 7.50467256e-02, 2.96917588e-01, 2.14933246e-01,
          1.72314607e-02, 3.01458240e-02, 2.45404672e-02, 5.07451594e-02,
          5.49301766e-02, 2.37071991e-01, 1.70599654e-01, 2.96917588e-01,
          1.64107800e-01, 1.90855131e-01, 1.76789761e-02, 9.25193354e-02,
          0., 1.89870540e-02, 2.79985905e-01, 2.96917588e-01 ]
      - [ 1.34459585e-01, 4.09948342e-02, 1.27188385e-01, 2.68771499e-01,
          2.68771499e-01, 1.62464567e-02, 4.57609706e-02, 2.28704419e-02,
          2.00645611e-01, 1.08334169e-01, 1.00372300e-01, 2.08209112e-01,
          2.68771499e-01, 2.68771499e-01, 1.49653926e-01, 4.54119965e-02,
          8.64815339e-02, 1.05665997e-01, 2.68771499e-01, 1.19625933e-01,
          0., 3.85569744e-02, 9.96885672e-02, 8.49257782e-02,
          1.52881369e-01, 1.97873190e-01, 2.68771499e-01, 2.68771499e-01,
          7.26157054e-02, 9.82105359e-03, 3.65822986e-02, 1.13317519e-01,
          2.09001489e-02, 2.16924712e-01, 2.68771499e-01, 2.68771499e-01 ]
      - [ 7.68530145e-02, 5.65211326e-02, 7.84412846e-02, 4.86587025e-02,
          3.03856581e-01, 6.01704121e-02, 3.75777334e-02, 7.84443840e-02,
          2.29129121e-01, 2.41021171e-01, 4.28354815e-02, 1.20326139e-01,
          9.56388190e-02, 3.03856581e-01, 1.58336073e-01, 9.13278982e-02,
          7.66973123e-02, 6.74206614e-02, 3.03856581e-01, 7.14770779e-02,
          3.20254965e-03, 1.03939818e-02, 6.50755614e-02, 7.46516660e-02,
          2.96790332e-01, 2.69126475e-01, 3.03856581e-01, 3.03856581e-01,
          4.21411507e-02, 1.00559212e-01, 0., 1.45106800e-02,
          8.02429616e-02, 1.75947055e-01, 1.10839389e-01, 3.03856581e-01 ]
      - [ 3.58897299e-01, 9.35400650e-02, 2.72594810e-01, 4.57723998e-02,
          2.20014676e-01, 0., 6.41758665e-02, 6.94357157e-02,
          1.04241125e-01, 4.66508605e-02, 3.35782059e-02, 2.82862596e-02,
          1.55162960e-01, 3.58897299e-01, 1.89826041e-01, 3.24062929e-02,
          5.28836772e-02, 1.78322792e-01, 3.58897299e-01, 7.71023706e-02,
          3.78870070e-02, 3.21432948e-02, 1.94486454e-02, 1.31643683e-01,
          6.86873049e-02, 7.08811507e-02, 1.59634233e-01, 3.58897299e-01,
          1.35171011e-01, 1.75821912e-02, 4.14581932e-02, 1.10056937e-01,
          2.93470384e-03, 1.98530421e-01, 2.68819451e-01, 1.61558032e-01 ]
      - [ 2.96917588e-01, 1.22630328e-01, 1.16562374e-01, 8.71967450e-02,
          1.70936391e-01, 2.81636208e-01, 5.72518259e-02, 2.51936931e-02,
          1.24284588e-02, 4.61481214e-02, 2.76702307e-02, 0.,
          7.40709975e-02, 2.96917588e-01, 2.96917588e-01, 1.23080470e-01,
          5.61927184e-02, 7.50467256e-02, 2.96917588e-01, 2.14933246e-01,
          1.72314607e-02, 3.01458240e-02, 2.45404672e-02, 5.07451594e-02,
          5.49301766e-02, 2.37071991e-01, 1.70599654e-01, 2.96917588e-01,
          1.64107800e-01, 1.90855131e-01, 1.76789761e-02, 9.25193354e-02,
          0., 1.89870540e-02, 2.79985905e-01, 2.96917588e-01 ]
      - [ 1.34459585e-01, 4.09948342e-02, 1.27188385e-01, 2.68771499e-01,
          2.68771499e-01, 1.62464567e-02, 4.57609706e-02, 2.28704419e-02,
          2.00645611e-01, 1.08334169e-01, 1.00372300e-01, 2.08209112e-01,
          2.68771499e-01, 2.68771499e-01, 1.49653926e-01, 4.54119965e-02,
          8.64815339e-02, 1.05665997e-01, 2.68771499e-01, 1.19625933e-01,
          0., 3.85569744e-02, 9.96885672e-02, 8.49257782e-02,
          1.52881369e-01, 1.97873190e-01, 2.68771499e-01, 2.68771499e-01,
          7.26157054e-02, 9.82105359e-03, 3.65822986e-02, 1.13317519e-01,
          2.09001489e-02, 2.16924712e-01, 2.68771499e-01, 2.68771499e-01 ]
      - [ 7.68530145e-02, 5.65211326e-02, 7.84412846e-02, 4.86587025e-02,
          3.03856581e-01, 6.01704121e-02, 3.75777334e-02, 7.84443840e-02,
          2.29129121e-01, 2.41021171e-01, 4.28354815e-02, 1.20326139e-01,
          9.56388190e-02, 3.03856581e-01, 1.58336073e-01, 9.13278982e-02,
          7.66973123e-02, 6.74206614e-02, 3.03856581e-01, 7.14770779e-02,
          3.20254965e-03, 1.03939818e-02, 6.50755614e-02, 7.46516660e-02,
          2.96790332e-01, 2.69126475e-01, 3.03856581e-01, 3.03856581e-01,
          4.21411507e-02, 1.00559212e-01, 0., 1.45106800e-02,
          8.02429616e-02, 1.75947055e-01, 1.10839389e-01, 3.03856581e-01 ]
      - [ 3.58897299e-01, 9.35400650e-02, 2.72594810e-01, 4.57723998e-02,
          2.20014676e-01, 0., 6.41758665e-02, 6.94357157e-02,
          1.04241125e-01, 4.66508605e-02, 3.35782059e-02, 2.82862596e-02,
          1.55162960e-01, 3.58897299e-01, 1.89826041e-01, 3.24062929e-02,
          5.28836772e-02, 1.78322792e-01, 3.58897299e-01, 7.71023706e-02,
          3.78870070e-02, 3.21432948e-02, 1.94486454e-02, 1.31643683e-01,
          6.86873049e-02, 7.08811507e-02, 1.59634233e-01, 3.58897299e-01,
          1.35171011e-01, 1.75821912e-02, 4.14581932e-02, 1.10056937e-01,
          2.93470384e-03, 1.98530421e-01, 2.68819451e-01, 1.61558032e-01 ]
      - [ 2.96917588e-01, 1.22630328e-01, 1.16562374e-01, 8.71967450e-02,
          1.70936391e-01, 2.81636208e-01, 5.72518259e-02, 2.51936931e-02,
          1.24284588e-02, 4.61481214e-02, 2.76702307e-02, 0.,
          7.40709975e-02, 2.96917588e-01, 2.96917588e-01, 1.23080470e-01,
          5.61927184e-02, 7.50467256e-02, 2.96917588e-01, 2.14933246e-01,
          1.72314607e-02, 3.01458240e-02, 2.45404672e-02, 5.07451594e-02,
          5.49301766e-02, 2.37071991e-01, 1.70599654e-01, 2.96917588e-01,
          1.64107800e-01, 1.90855131e-01, 1.76789761e-02, 9.25193354e-02,
          0., 1.89870540e-02, 2.79985905e-01, 2.96917588e-01 ]
      - [ 1.34459585e-01, 4.09948342e-02, 1.27188385e-01, 2.68771499e-01,
          2.68771499e-01, 1.62464567e-02, 4.57609706e-02, 2.28704419e-02,
          2.00645611e-01, 1.08334169e-01, 1.00372300e-01, 2.08209112e-01,
          2.68771499e-01, 2.68771499e-01, 1.49653926e-01, 4.54119965e-02,
          8.64815339e-02, 1.05665997e-01, 2.68771499e-01, 1.19625933e-01,
          0., 3.85569744e-02, 9.96885672e-02, 8.49257782e-02,
          1.52881369e-01, 1.97873190e-01, 2.68771499e-01, 2.68771499e-01,
          7.26157054e-02, 9.82105359e-03, 3.65822986e-02, 1.13317519e-01,
          2.09001489e-02, 2.16924712e-01, 2.68771499e-01, 2.68771499e-01 ]
      - [ 7.68530145e-02, 5.65211326e-02, 7.84412846e-02, 4.86587025e-02,
          3.03856581e-01, 6.01704121e-02, 3.75777334e-02, 7.84443840e-02,
          2.29129121e-01, 2.41021171e-01, 4.28354815e-02, 1.20326139e-01,
          9.56388190e-02, 3.03856581e-01, 1.58336073e-01, 9.13278982e-02,
          7.66973123e-02, 6.74206614e-02, 3.03856581e-01, 7.14770779e-02,
          3.20254965e-03, 1.03939818e-02, 6.50755614e-02, 7.46516660e-02,
          2.96790332e-01, 2.69126475e-01, 3.03856581e-01, 3.03856581e-01,
          4.21411507e-02, 1.00559212e-01, 0., 1.45106800e-02,
          8.02429616e-02, 1.75947055e-01, 1.10839389e-01, 3.03856581e-01 ]
      - [ 3.58897299e-01, 9.35400650e-02, 2.72594810e-01, 4.57723998e-02,
          2.20014676e-01, 0., 6.41758665e-02, 6.94357157e-02,
          1.04241125e-01, 4.66508605e-02, 3.35782059e-02, 2.82862596e-02,
          1.55162960e-01, 3.58897299e-01, 1.89826041e-01, 3.24062929e-02,
          5.28836772e-02, 1.78322792e-01, 3.58897299e-01, 7.71023706e-02,
          3.78870070e-02, 3.21432948e-02, 1.94486454e-02, 1.31643683e-01,
          6.86873049e-02, 7.08811507e-02, 1.59634233e-01, 3.58897299e-01,
          1.35171011e-01, 1.75821912e-02, 4.14581932e-02, 1.10056937e-01,
          2.93470384e-03, 1.98530421e-01, 2.68819451e-01, 1.61558032e-01 ]
      - [ 2.96917588e-01, 1.22630328e-01, 1.16562374e-01, 8.71967450e-02,
          1.70936391e-01, 2.81636208e-01, 5.72518259e-02, 2.51936931e-02,
          1.24284588e-02, 4.61481214e-02, 2.76702307e-02, 0.,
          7.40709975e-02, 2.96917588e-01, 2.96917588e-01, 1.23080470e-01,
          5.61927184e-02, 7.50467256e-02, 2.96917588e-01, 2.14933246e-01,
          1.72314607e-02, 3.01458240e-02, 2.45404672e-02, 5.07451594e-02,
          5.49301766e-02, 2.37071991e-01, 1.70599654e-01, 2.96917588e-01,
          1.64107800e-01, 1.90855131e-01, 1.76789761e-02, 9.25193354e-02,
          0., 1.89870540e-02, 2.79985905e-01, 2.96917588e-01 ]
      - [ 1.34459585e-01, 4.09948342e-02, 1.27188385e-01, 2.68771499e-01,
          2.68771499e-01, 1.62464567e-02, 4.57609706e-02, 2.28704419e-02,
          2.00645611e-01, 1.08334169e-01, 1.00372300e-01, 2.08209112e-01,
          2.68771499e-01, 2.68771499e-01, 1.49653926e-01, 4.54119965e-02,
          8.64815339e-02, 1.05665997e-01, 2.68771499e-01, 1.19625933e-01,
          0., 3.85569744e-02, 9.96885672e-02, 8.49257782e-02,
          1.52881369e-01, 1.97873190e-01, 2.68771499e-01, 2.68771499e-01,
          7.26157054e-02, 9.82105359e-03, 3.65822986e-02, 1.13317519e-01,
          2.09001489e-02, 2.16924712e-01, 2.68771499e-01, 2.68771499e-01 ]
      - [ 7.68530145e-02, 5.65211326e-02, 7.84412846e-02, 4.86587025e-02,
          3.03856581e-01, 6.01704121e-02, 3.75777334e-02, 7.84443840e-02,
          2.29129121e-01, 2.41021171e-01, 4.28354815e-02, 1.20326139e-01,
          9.56388190e-02, 3.03856581e-01, 1.58336073e-01, 9.13278982e-02,
          7.66973123e-02, 6.74206614e-02, 3.03856581e-01, 7.14770779e-02,
          3.20254965e-03, 1.03939818e-02, 6.50755614e-02, 7.46516660e-02,
          2.96790332e-01, 2.69126475e-01, 3.03856581e-01, 3.03856581e-01,
          4.21411507e-02, 1.00559212e-01, 0., 1.45106800e-02,
          8.02429616e-02, 1.75947055e-01, 1.10839389e-01, 3.03856581e-01 ]
      - [ 3.58897299e-01, 9.35400650e-02, 2.72594810e-01, 4.57723998e-02,
          2.20014676e-01, 0., 6.41758665e-02, 6.94357157e-02,
          1.04241125e-01, 4.66508605e-02, 3.35782059e-02, 2.82862596e-02,
          1.55162960e-01, 3.58897299e-01, 1.89826041e-01, 3.24062929e-02,
          5.28836772e-02, 1.78322792e-01, 3.58897299e-01, 7.71023706e-02,
          3.78870070e-02, 3.21432948e-02, 1.94486454e-02, 1.31643683e-01,
          6.86873049e-02, 7.08811507e-02, 1.59634233e-01, 3.58897299e-01,
          1.35171011e-01, 1.75821912e-02, 4.14581932e-02, 1.10056937e-01,
          2.93470384e-03, 1.98530421e-01, 2.68819451e-01, 1.61558032e-01 ]
      - [ 2.96917588e-01, 1.22630328e-01, 1.16562374e-01, 8.71967450e-02,
          1.70936391e-01, 2.81636208e-01, 5.72518259e-02, 2.51936931e-02,
          1.24284588e-02, 4.61481214e-02, 2.76702307e-02, 0.,
          7.40709975e-02, 2.96917588e-01, 2.96917588e-01, 1.23080470e-01,
          5.61927184e-02, 7.50467256e-02, 2.96917588e-01, 2.14933246e-01,
          1.72314607e-02, 3.01458240e-02, 2.45404672e-02, 5.07451594e-02,
          5.49301766e-02, 2.37071991e-01, 1.70599654e-01, 2.96917588e-01,
          1.64107800e-01, 1.90855131e-01, 1.76789761e-02, 9.25193354e-02,
          0., 1.89870540e-02, 2.79985905e-01, 2.96917588e-01 ]
      - [ 1.34459585e-01, 4.09948342e-02, 1.27188385e-01, 2.68771499e-01,
          2.68771499e-01, 1.62464567e-02, 4.57609706e-02, 2.28704419e-02,
          2.00645611e-01, 1.08334169e-01, 1.00372300e-01, 2.08209112e-01,
          2.68771499e-01, 2.68771499e-01, 1.49653926e-01, 4.54119965e-02,
          8.64815339e-02, 1.05665997e-01, 2.68771499e-01, 1.19625933e-01,
          0., 3.85569744e-02, 9.96885672e-02, 8.49257782e-02,
          1.52881369e-01, 1.97873190e-01, 2.68771499e-01, 2.68771499e-01,
          7.26157054e-02, 9.82105359e-03, 3.65822986e-02, 1.13317519e-01,
          2.09001489e-02, 2.16924712e-01, 2.68771499e-01, 2.68771499e-01 ]
      - [ 7.68530145e-02, 5.65211326e-02, 7.84412846e-02, 4.86587025e-02,
          3.03856581e-01, 6.01704121e-02, 3.75777334e-02, 7.84443840e-02,
          2.29129121e-01, 2.41021171e-01, 4.28354815e-02, 1.20326139e-01,
          9.56388190e-02, 3.03856581e-01, 1.58336073e-01, 9.13278982e-02,
          7.66973123e-02, 6.74206614e-02, 3.03856581e-01, 7.14770779e-02,
          3.20254965e-03, 1.03939818e-02, 6.50755614e-02, 7.46516660e-02,
          2.96790332e-01, 2.69126475e-01, 3.03856581e-01, 3.03856581e-01,
          4.21411507e-02, 1.00559212e-01, 0., 1.45106800e-02,
          8.02429616e-02, 1.75947055e-01, 1.10839389e-01, 3.03856581e-01 ]
      - [ 3.58897299e-01, 9.35400650e-02, 2.72594810e-01, 4.57723998e-02,
          2.20014676e-01, 0., 6.41758665e-02, 6.94357157e-02,
          1.04241125e-01, 4.66508605e-02, 3.35782059e-02, 2.82862596e-02,
          1.55162960e-01, 3.58897299e-01, 1.89826041e-01, 3.24062929e-02,
          5.28836772e-02, 1.78322792e-01, 3.58897299e-01, 7.71023706e-02,
          3.78870070e-02, 3.21432948e-02, 1.94486454e-02, 1.31643683e-01,
          6.86873049e-02, 7.08811507e-02, 1.59634233e-01, 3.58897299e-01,
          1.35171011e-01, 1.75821912e-02, 4.14581932e-02, 1.10056937e-01,
          2.93470384e-03, 1.98530421e-01, 2.68819451e-01, 1.61558032e-01 ]
      - [ 2.96917588e-01, 1.22630328e-01, 1.16562374e-01, 8.71967450e-02,
          1.70936391e-01, 2.81636208e-01, 5.72518259e-02, 2.51936931e-02,
          1.24284588e-02, 4.61481214e-02, 2.76702307e-02, 0.,
          7.40709975e-02, 2.96917588e-01, 2.96917588e-01, 1.23080470e-01,
          5.61927184e-02, 7.50467256e-02, 2.96917588e-01, 2.14933246e-01,
          1.72314607e-02, 3.01458240e-02, 2.45404672e-02, 5.07451594e-02,
          5.49301766e-02, 2.37071991e-01, 1.70599654e-01, 2.96917588e-01,
          1.64107800e-01, 1.90855131e-01, 1.76789761e-02, 9.25193354e-02,
          0., 1.89870540e-02, 2.79985905e-01, 2.96917588e-01 ]
      - [ 1.34459585e-01, 4.09948342e-02, 1.27188385e-01, 2.68771499e-01,
          2.68771499e-01, 1.62464567e-02, 4.57609706e-02, 2.28704419e-02,
          2.00645611e-01, 1.08334169e-01, 1.00372300e-01, 2.08209112e-01,
          2.68771499e-01, 2.68771499e-01, 1.49653926e-01, 4.54119965e-02,
          8.64815339e-02, 1.05665997e-01, 2.68771499e-01, 1.19625933e-01,
          0., 3.85569744e-02, 9.96885672e-02, 8.49257782e-02,
          1.52881369e-01, 1.97873190e-01, 2.68771499e-01, 2.68771499e-01,
          7.26157054e-02, 9.82105359e-03, 3.65822986e-02, 1.13317519e-01,
          2.09001489e-02, 2.16924712e-01, 2.68771499e-01, 2.68771499e-01 ]
      - [ 7.68530145e-02, 5.65211326e-02, 7.84412846e-02, 4.86587025e-02,
          3.03856581e-01, 6.01704121e-02, 3.75777334e-02, 7.84443840e-02,
          2.29129121e-01, 2.41021171e-01, 4.28354815e-02, 1.20326139e-01,
          9.56388190e-02, 3.03856581e-01, 1.58336073e-01, 9.13278982e-02,
          7.66973123e-02, 6.74206614e-02, 3.03856581e-01, 7.14770779e-02,
          3.20254965e-03, 1.03939818e-02, 6.50755614e-02, 7.46516660e-02,
          2.96790332e-01, 2.69126475e-01, 3.03856581e-01, 3.03856581e-01,
          4.21411507e-02, 1.00559212e-01, 0., 1.45106800e-02,
          8.02429616e-02, 1.75947055e-01, 1.10839389e-01, 3.03856581e-01 ]
      - [ 3.58897299e-01, 9.35400650e-02, 2.72594810e-01, 4.57723998e-02,
          2.20014676e-01, 0., 6.41758665e-02, 6.94357157e-02,
          1.04241125e-01, 4.66508605e-02, 3.35782059e-02, 2.82862596e-02,
          1.55162960e-01, 3.58897299e-01, 1.89826041e-01, 3.24062929e-02,
          5.28836772e-02, 1.78322792e-01, 3.58897299e-01, 7.71023706e-02,
          3.78870070e-02, 3.21432948e-02, 1.94486454e-02, 1.31643683e-01,
          6.86873049e-02, 7.08811507e-02, 1.59634233e-01, 3.58897299e-01,
          1.35171011e-01, 1.75821912e-02, 4.14581932e-02, 1.10056937e-01,
          2.93470384e-03, 1.98530421e-01, 2.68819451e-01, 1.61558032e-01 ]
      - [ 2.96917588e-01, 1.22630328e-01, 1.16562374e-01, 8.71967450e-02,
          1.70936391e-01, 2.81636208e-01, 5.72518259e-02, 2.51936931e-02,
          1.24284588e-02, 4.61481214e-02, 2.76702307e-02, 0.,
          7.40709975e-02, 2.96917588e-01, 2.96917588e-01, 1.23080470e-01,
          5.61927184e-02, 7.50467256e-02, 2.96917588e-01, 2.14933246e-01,
          1.72314607e-02, 3.01458240e-02, 2.45404672e-02, 5.07451594e-02,
          5.49301766e-02, 2.37071991e-01, 1.70599654e-01, 2.96917588e-01,
          1.64107800e-01, 1.90855131e-01, 1.76789761e-02, 9.25193354e-02,
          0., 1.89870540e-02, 2.79985905e-01, 2.96917588e-01 ]
      - [ 1.34459585e-01, 4.09948342e-02, 1.27188385e-01, 2.68771499e-01,
          2.68771499e-01, 1.62464567e-02, 4.57609706e-02, 2.28704419e-02,
          2.00645611e-01, 1.08334169e-01, 1.00372300e-01, 2.08209112e-01,
          2.68771499e-01, 2.68771499e-01, 1.49653926e-01, 4.54119965e-02,
          8.64815339e-02, 1.05665997e-01, 2.68771499e-01, 1.19625933e-01,
          0., 3.85569744e-02, 9.96885672e-02, 8.49257782e-02,
          1.52881369e-01, 1.97873190e-01, 2.68771499e-01, 2.68771499e-01,
          7.26157054e-02, 9.82105359e-03, 3.65822986e-02, 1.13317519e-01,
          2.09001489e-02, 2.16924712e-01, 2.68771499e-01, 2.68771499e-01 ]
      - [ 7.68530145e-02, 5.65211326e-02, 7.84412846e-02, 4.86587025e-02,
          3.03856581e-01, 6.01704121e-02, 3.75777334e-02, 7.84443840e-02,
          2.29129121e-01, 2.41021171e-01, 4.28354815e-02, 1.20326139e-01,
          9.56388190e-02, 3.03856581e-01, 1.58336073e-01, 9.13278982e-02,
          7.66973123e-02, 6.74206614e-02, 3.03856581e-01, 7.14770779e-02,
          3.20254965e-03, 1.03939818e-02, 6.50755614e-02, 7.46516660e-02,
          2.96790332e-01, 2.69126475e-01, 3.03856581e-01, 3.03856581e-01,
          4.21411507e-02, 1.00559212e-01, 0., 1.45106800e-02,
          8.02429616e-02, 1.75947055e-01, 1.10839389e-01, 3.03856581e-01 ]
      - [ 2.96917588e-01, 1.22630328e-01, 1.16562374e-01, 8.71967450e-02,
          1.70936391e-01, 2.81636208e-01, 5.72518259e-02, 2.51936931e-02,
          1.24284588e-02, 4.61481214e-02, 2.76702307e-02, 0.,
          7.40709975e-02, 2.96917588e-01, 2.96917588e-01, 1.23080470e-01,
          5.61927184e-02, 7.50467256e-02, 2.96917588e-01, 2.14933246e-01,
          1.72314607e-02, 3.01458240e-02, 2.45404672e-02, 5.07451594e-02,
          5.49301766e-02, 2.37071991e-01, 1.70599654e-01, 2.96917588e-01,
          1.64107800e-01, 1.90855131e-01, 1.76789761e-02, 9.25193354e-02,
          0., 1.89870540e-02, 2.79985905e-01, 2.96917588e-01 ]
      - [ 1.34459585e-01, 4.09948342e-02, 1.27188385e-01, 2.68771499e-01,
          2.68771499e-01, 1.62464567e-02, 4.57609706e-02, 2.28704419e-02,
          2.00645611e-01, 1.08334169e-01, 1.00372300e-01, 2.08209112e-01,
          2.68771499e-01, 2.68771499e-01, 1.49653926e-01, 4.54119965e-02,
          8.64815339e-02, 1.05665997e-01, 2.68771499e-01, 1.19625933e-01,
          0., 3.85569744e-02, 9.96885672e-02, 8.49257782e-02,
          1.52881369e-01, 1.97873190e-01, 2.68771499e-01, 2.68771499e-01,
          7.26157054e-02, 9.82105359e-03, 3.65822986e-02, 1.13317519e-01,
          2.09001489e-02, 2.16924712e-01, 2.68771499e-01, 2.68771499e-01 ]
      - [ 7.68530145e-02, 5.65211326e-02, 7.84412846e-02, 4.86587025e-02,
          3.03856581e-01, 6.01704121e-02, 3.75777334e-02, 7.84443840e-02,
          2.29129121e-01, 2.41021171e-01, 4.28354815e-02, 1.20326139e-01,
          9.56388190e-02, 3.03856581e-01, 1.58336073e-01, 9.13278982e-02,
          7.66973123e-02, 6.74206614e-02, 3.03856581e-01, 7.14770779e-02,
          3.20254965e-03, 1.03939818e-02, 6.50755614e-02, 7.46516660e-02,
          2.96790332e-01, 2.69126475e-01, 3.03856581e-01, 3.03856581e-01,
          4.21411507e-02, 1.00559212e-01, 0., 1.45106800e-02,
          8.02429616e-02, 1.75947055e-01, 1.10839389e-01, 3.03856581e-01 ]
      - [ 2.96917588e-01, 1.22630328e-01, 1.16562374e-01, 8.71967450e-02,
          1.70936391e-01, 2.81636208e-01, 5.72518259e-02, 2.51936931e-02,
          1.24284588e-02, 4.61481214e-02, 2.76702307e-02, 0.,
          7.40709975e-02, 2.96917588e-01, 2.96917588e-01, 1.23080470e-01,
          5.61927184e-02, 7.50467256e-02, 2.96917588e-01, 2.14933246e-01,
          1.72314607e-02, 3.01458240e-02, 2.45404672e-02, 5.07451594e-02,
          5.49301766e-02, 2.37071991e-01, 1.70599654e-01, 2.96917588e-01,
          1.64107800e-01, 1.90855131e-01, 1.76789761e-02, 9.25193354e-02,
          0., 1.89870540e-02, 2.79985905e-01, 2.96917588e-01 ]
      - [ 1.34459585e-01, 4.09948342e-02, 1.27188385e-01, 2.68771499e-01,
          2.68771499e-01, 1.62464567e-02, 4.57609706e-02, 2.28704419e-02,
          2.00645611e-01, 1.08334169e-01, 1.00372300e-01, 2.08209112e-01,
          2.68771499e-01, 2.68771499e-01, 1.49653926e-01, 4.54119965e-02,
          8.64815339e-02, 1.05665997e-01, 2.68771499e-01, 1.19625933e-01,
          0., 3.85569744e-02, 9.96885672e-02, 8.49257782e-02,
          1.52881369e-01, 1.97873190e-01, 2.68771499e-01, 2.68771499e-01,
          7.26157054e-02, 9.82105359e-03, 3.65822986e-02, 1.13317519e-01,
          2.09001489e-02, 2.16924712e-01, 2.68771499e-01, 2.68771499e-01 ]
      - [ 2.96917588e-01, 1.22630328e-01, 1.16562374e-01, 8.71967450e-02,
          1.70936391e-01, 2.81636208e-01, 5.72518259e-02, 2.51936931e-02,
          1.24284588e-02, 4.61481214e-02, 2.76702307e-02, 0.,
          7.40709975e-02, 2.96917588e-01, 2.96917588e-01, 1.23080470e-01,
          5.61927184e-02, 7.50467256e-02, 2.96917588e-01, 2.14933246e-01,
          1.72314607e-02, 3.01458240e-02, 2.45404672e-02, 5.07451594e-02,
          5.49301766e-02, 2.37071991e-01, 1.70599654e-01, 2.96917588e-01,
          1.64107800e-01, 1.90855131e-01, 1.76789761e-02, 9.25193354e-02,
          0., 1.89870540e-02, 2.79985905e-01, 2.96917588e-01 ]
      - [ 1.34459585e-01, 4.09948342e-02, 1.27188385e-01, 2.68771499e-01,
          2.68771499e-01, 1.62464567e-02, 4.57609706e-02, 2.28704419e-02,
          2.00645611e-01, 1.08334169e-01, 1.00372300e-01, 2.08209112e-01,
          2.68771499e-01, 2.68771499e-01, 1.49653926e-01, 4.54119965e-02,
          8.64815339e-02, 1.05665997e-01, 2.68771499e-01, 1.19625933e-01,
          0., 3.85569744e-02, 9.96885672e-02, 8.49257782e-02,
          1.52881369e-01, 1.97873190e-01, 2.68771499e-01, 2.68771499e-01,
          7.26157054e-02, 9.82105359e-03, 3.65822986e-02, 1.13317519e-01,
          2.09001489e-02, 2.16924712e-01, 2.68771499e-01, 2.68771499e-01 ]
      - [ 2.96917588e-01, 1.22630328e-01, 1.16562374e-01, 8.71967450e-02,
          1.70936391e-01, 2.81636208e-01, 5.72518259e-02, 2.51936931e-02,
          1.24284588e-02, 4.61481214e-02, 2.76702307e-02, 0.,
          7.40709975e-02, 2.96917588e-01, 2.96917588e-01, 1.23080470e-01,
          5.61927184e-02, 7.50467256e-02, 2.96917588e-01, 2.14933246e-01,
          1.72314607e-02, 3.01458240e-02, 2.45404672e-02, 5.07451594e-02,
          5.49301766e-02, 2.37071991e-01, 1.70599654e-01, 2.96917588e-01,
          1.64107800e-01, 1.90855131e-01, 1.76789761e-02, 9.25193354e-02,
          0., 1.89870540e-02, 2.79985905e-01, 2.96917588e-01 ]
      - [ 1.34459585e-01, 4.09948342e-02, 1.27188385e-01, 2.68771499e-01,
          2.68771499e-01, 1.62464567e-02, 4.57609706e-02, 2.28704419e-02,
          2.00645611e-01, 1.08334169e-01, 1.00372300e-01, 2.08209112e-01,
          2.68771499e-01, 2.68771499e-01, 1.49653926e-01, 4.54119965e-02,
          8.64815339e-02, 1.05665997e-01, 2.68771499e-01, 1.19625933e-01,
          0., 3.85569744e-02, 9.96885672e-02, 8.49257782e-02,
          1.52881369e-01, 1.97873190e-01, 2.68771499e-01, 2.68771499e-01,
          7.26157054e-02, 9.82105359e-03, 3.65822986e-02, 1.13317519e-01,
          2.09001489e-02, 2.16924712e-01, 2.68771499e-01, 2.68771499e-01 ]
      - [ 2.96917588e-01, 1.22630328e-01, 1.16562374e-01, 8.71967450e-02,
          1.70936391e-01, 2.81636208e-01, 5.72518259e-02, 2.51936931e-02,
          1.24284588e-02, 4.61481214e-02, 2.76702307e-02, 0.,
          7.40709975e-02, 2.96917588e-01, 2.96917588e-01, 1.23080470e-01,
          5.61927184e-02, 7.50467256e-02, 2.96917588e-01, 2.14933246e-01,
          1.72314607e-02, 3.01458240e-02, 2.45404672e-02, 5.07451594e-02,
          5.49301766e-02, 2.37071991e-01, 1.70599654e-01, 2.96917588e-01,
          1.64107800e-01, 1.90855131e-01, 1.76789761e-02, 9.25193354e-02,
          0., 1.89870540e-02, 2.79985905e-01, 2.96917588e-01 ]
      - [ 1.34459585e-01, 4.09948342e-02, 1.27188385e-01, 2.68771499e-01,
          2.68771499e-01, 1.62464567e-02, 4.57609706e-02, 2.28704419e-02,
          2.00645611e-01, 1.08334169e-01, 1.00372300e-01, 2.08209112e-01,
          2.68771499e-01, 2.68771499e-01, 1.49653926e-01, 4.54119965e-02,
          8.64815339e-02, 1.05665997e-01, 2.68771499e-01, 1.19625933e-01,
          0., 3.85569744e-02, 9.96885672e-02, 8.49257782e-02,
          1.52881369e-01, 1.97873190e-01, 2.68771499e-01, 2.68771499e-01,
          7.26157054e-02, 9.82105359e-03, 3.65822986e-02, 1.13317519e-01,
          2.09001489e-02, 2.16924712e-01, 2.68771499e-01, 2.68771499e-01 ]
      - [ 2.96917588e-01, 1.22630328e-01, 1.16562374e-01, 8.71967450e-02,
          1.70936391e-01, 2.81636208e-01, 5.72518259e-02, 2.51936931e-02,
          1.24284588e-02, 4.61481214e-02, 2.76702307e-02, 0.,
          7.40709975e-02, 2.96917588e-01, 2.96917588e-01, 1.23080470e-01,
          5.61927184e-02, 7.50467256e-02, 2.96917588e-01, 2.14933246e-01,
          1.72314607e-02, 3.01458240e-02, 2.45404672e-02, 5.07451594e-02,
          5.49301766e-02, 2.37071991e-01, 1.70599654e-01, 2.96917588e-01,
          1.64107800e-01, 1.90855131e-01, 1.76789761e-02, 9.25193354e-02,
          0., 1.89870540e-02, 2.79985905e-01, 2.96917588e-01 ]
      - [ 1.34459585e-01, 4.09948342e-02, 1.27188385e-01, 2.68771499e-01,
          2.68771499e-01, 1.62464567e-02, 4.57609706e-02, 2.28704419e-02,
          2.00645611e-01, 1.08334169e-01, 1.00372300e-01, 2.08209112e-01,
          2.68771499e-01, 2.68771499e-01, 1.49653926e-01, 4.54119965e-02,
          8.64815339e-02, 1.05665997e-01, 2.68771499e-01, 1.19625933e-01,
          0., 3.85569744e-02, 9.96885672e-02, 8.49257782e-02,
          1.52881369e-01, 1.97873190e-01, 2.68771499e-01, 2.68771499e-01,
          7.26157054e-02, 9.82105359e-03, 3.65822986e-02, 1.13317519e-01,
          2.09001489e-02, 2.16924712e-01, 2.68771499e-01, 2.68771499e-01 ]
      - [ 2.96917588e-01, 1.22630328e-01, 1.16562374e-01, 8.71967450e-02,
          1.70936391e-01, 2.81636208e-01, 5.72518259e-02, 2.51936931e-02,
          1.24284588e-02, 4.61481214e-02, 2.76702307e-02, 0.,
          7.40709975e-02, 2.96917588e-01, 2.96917588e-01, 1.23080470e-01,
          5.61927184e-02, 7.50467256e-02, 2.96917588e-01, 2.14933246e-01,
          1.72314607e-02, 3.01458240e-02, 2.45404672e-02, 5.07451594e-02,
          5.49301766e-02, 2.37071991e-01, 1.70599654e-01, 2.96917588e-01,
          1.64107800e-01, 1.90855131e-01, 1.76789761e-02, 9.25193354e-02,
          0., 1.89870540e-02, 2.79985905e-01, 2.96917588e-01 ]
      - [ 1.34459585e-01, 4.09948342e-02, 1.27188385e-01, 2.68771499e-01,
          2.68771499e-01, 1.62464567e-02, 4.57609706e-02, 2.28704419e-02,
          2.00645611e-01, 1.08334169e-01, 1.00372300e-01, 2.08209112e-01,
          2.68771499e-01, 2.68771499e-01, 1.49653926e-01, 4.54119965e-02,
          8.64815339e-02, 1.05665997e-01, 2.68771499e-01, 1.19625933e-01,
          0., 3.85569744e-02, 9.96885672e-02, 8.49257782e-02,
          1.52881369e-01, 1.97873190e-01, 2.68771499e-01, 2.68771499e-01,
          7.26157054e-02, 9.82105359e-03, 3.65822986e-02, 1.13317519e-01,
          2.09001489e-02, 2.16924712e-01, 2.68771499e-01, 2.68771499e-01 ]
      - [ 2.11852849e-01, 7.74673298e-02, 2.49737725e-01, 2.49737725e-01,
          7.92826787e-02, 4.73765731e-02, 1.24383152e-01, 2.32688725e-01,
          1.42543972e-01, 2.25693747e-01, 4.92441244e-02, 1.61467716e-01,
          4.59886491e-02, 2.49737725e-01, 2.49737725e-01, 2.34543934e-01,
          9.77785215e-02, 7.48868892e-03, 2.49737725e-01, 1.09312125e-01,
          1.81951329e-01, 4.11964022e-02, 1.44871190e-01, 4.70496304e-02,
          1.97932228e-01, 7.27516264e-02, 2.49737725e-01, 2.49737725e-01,
          1.94224462e-01, 1.51797712e-01, 1.14435077e-01, 2.00643390e-01,
          9.73630026e-02, 7.94277191e-02, 9.25536677e-02, 1.22458741e-01 ]
      - [ 1.81867421e-01, 1.25886157e-01, 9.99580994e-02, 2.52923250e-01,
          1.70957357e-01, 3.53756808e-02, 6.98604733e-02, 1.21909656e-01,
          2.52923250e-01, 1.34298787e-01, 1.53104542e-02, 1.01102307e-01,
          1.76994726e-01, 2.50709981e-01, 2.52923250e-01, 2.52923250e-01,
          2.52923250e-01, 0., 2.52923250e-01, 2.10209548e-01,
          1.56424552e-01, 8.12178776e-02, 1.32369637e-01, 4.40808125e-02,
          6.76252246e-02, 1.96066827e-01, 1.88101843e-01, 2.52923250e-01,
          2.32025668e-01, 1.71327338e-01, 7.34509826e-02, 1.48051530e-01,
          5.17399795e-02, 8.10311362e-02, 1.38079897e-01, 9.20379683e-02 ]
      - [ 2.00448483e-01, 7.36336410e-02, 2.70343423e-01, 1.82509646e-01,
          7.25242123e-02, 6.57600537e-02, 9.10266787e-02, 1.62563831e-01,
          3.32419649e-02, 1.84560403e-01, 5.91455214e-02, 1.17204010e-01,
          1.59863234e-01, 2.70343423e-01, 2.70343423e-01, 2.15918407e-01,
          2.71481760e-02, 8.65677372e-03, 2.70343423e-01, 6.06940612e-02,
          8.82226750e-02, 4.43527699e-02, 1.40688658e-01, 7.62401968e-02,
          1.91414244e-02, 2.33240306e-01, 2.70343423e-01, 2.70343423e-01,
          1.13951087e-01, 2.70343423e-01, 1.62618399e-01, 2.20398992e-01,
          1.10129252e-01, 1.50712699e-01, 4.38294001e-02, 1.45686924e-01 ]
      - [ 1.60716712e-01, 9.02355015e-02, 2.14594021e-01, 2.56604135e-01,
          2.36627504e-01, 1.31548882e-01, 1.52288554e-02, 2.20672950e-01,
          1.48262709e-01, 2.53785551e-01, 1.12775788e-02, 5.36683910e-02,
          3.70467640e-02, 2.42422685e-01, 2.56604135e-01, 2.56604135e-01,
          1.28254652e-01, 8.17045644e-02, 2.56604135e-01, 9.10375640e-02,
          1.73072264e-01, 7.99236819e-02, 1.61769986e-01, 8.76838714e-02,
          1.91123292e-01, 1.13516167e-01, 2.56604135e-01, 2.56604135e-01,
          2.04392165e-01, 1.03851892e-01, 5.97739555e-02, 3.32861990e-02,
          1.01888925e-01, 0., 1.35463804e-01, 1.27037734e-01 ]
      - [ 2.18921900e-01, 1.42111510e-01, 7.69132748e-02, 2.16834545e-01,
          8.61837193e-02, 2.72583440e-02, 1.03112221e-01, 2.49552250e-01,
          9.13259685e-02, 1.83516726e-01, 0., 2.49552250e-01,
          1.69668689e-01, 2.49552250e-01, 2.49552250e-01, 2.23329082e-01,
          6.91788793e-02, 1.05204441e-01, 2.49552250e-01, 1.67868599e-01,
          6.43005222e-02, 5.20282909e-02, 2.87669152e-02, 1.33973032e-01,
          1.28230318e-01, 4.10153084e-02, 2.49552250e-01, 2.49552250e-01,
          2.06474319e-01, 1.15073480e-01, 1.27182752e-01, 2.49552250e-01,
          1.38969749e-01, 1.35483786e-01, 2.00709566e-01, 5.89124449e-02 ]
      - [ 2.11852849e-01, 7.74673298e-02, 2.49737725e-01, 2.49737725e-01,
          7.92826787e-02, 4.73765731e-02, 1.24383152e-01, 2.32688725e-01,
          1.42543972e-01, 2.25693747e-01, 4.92441244e-02, 1.61467716e-01,
          4.59886491e-02, 2.49737725e-01, 2.49737725e-01, 2.34543934e-01,
          9.77785215e-02, 7.48868892e-03, 2.49737725e-01, 1.09312125e-01,
          1.81951329e-01, 4.11964022e-02, 1.44871190e-01, 4.70496304e-02,
          1.97932228e-01, 7.27516264e-02, 2.49737725e-01, 2.49737725e-01,
          1.94224462e-01, 1.51797712e-01, 1.14435077e-01, 2.00643390e-01,
          9.73630026e-02, 7.94277191e-02, 9.25536677e-02, 1.22458741e-01 ]
      - [ 1.81867421e-01, 1.25886157e-01, 9.99580994e-02, 2.52923250e-01,
          1.70957357e-01, 3.53756808e-02, 6.98604733e-02, 1.21909656e-01,
          2.52923250e-01, 1.34298787e-01, 1.53104542e-02, 1.01102307e-01,
          1.76994726e-01, 2.50709981e-01, 2.52923250e-01, 2.52923250e-01,
          2.52923250e-01, 0., 2.52923250e-01, 2.10209548e-01,
          1.56424552e-01, 8.12178776e-02, 1.32369637e-01, 4.40808125e-02,
          6.76252246e-02, 1.96066827e-01, 1.88101843e-01, 2.52923250e-01,
          2.32025668e-01, 1.71327338e-01, 7.34509826e-02, 1.48051530e-01,
          5.17399795e-02, 8.10311362e-02, 1.38079897e-01, 9.20379683e-02 ]
      - [ 2.00448483e-01, 7.36336410e-02, 2.70343423e-01, 1.82509646e-01,
          7.25242123e-02, 6.57600537e-02, 9.10266787e-02, 1.62563831e-01,
          3.32419649e-02, 1.84560403e-01, 5.91455214e-02, 1.17204010e-01,
          1.59863234e-01, 2.70343423e-01, 2.70343423e-01, 2.15918407e-01,
          2.71481760e-02, 8.65677372e-03, 2.70343423e-01, 6.06940612e-02,
          8.82226750e-02, 4.43527699e-02, 1.40688658e-01, 7.62401968e-02,
          1.91414244e-02, 2.33240306e-01, 2.70343423e-01, 2.70343423e-01,
          1.13951087e-01, 2.70343423e-01, 1.62618399e-01, 2.20398992e-01,
          1.10129252e-01, 1.50712699e-01, 4.38294001e-02, 1.45686924e-01 ]
      - [ 1.60716712e-01, 9.02355015e-02, 2.14594021e-01, 2.56604135e-01,
          2.36627504e-01, 1.31548882e-01, 1.52288554e-02, 2.20672950e-01,
          1.48262709e-01, 2.53785551e-01, 1.12775788e-02, 5.36683910e-02,
          3.70467640e-02, 2.42422685e-01, 2.56604135e-01, 2.56604135e-01,
          1.28254652e-01, 8.17045644e-02, 2.56604135e-01, 9.10375640e-02,
          1.73072264e-01, 7.99236819e-02, 1.61769986e-01, 8.76838714e-02,
          1.91123292e-01, 1.13516167e-01, 2.56604135e-01, 2.56604135e-01,
          2.04392165e-01, 1.03851892e-01, 5.97739555e-02, 3.32861990e-02,
          1.01888925e-01, 0., 1.35463804e-01, 1.27037734e-01 ]
      - [ 2.18921900e-01, 1.42111510e-01, 7.69132748e-02, 2.16834545e-01,
          8.61837193e-02, 2.72583440e-02, 1.03112221e-01, 2.49552250e-01,
          9.13259685e-02, 1.83516726e-01, 0., 2.49552250e-01,
          1.69668689e-01, 2.49552250e-01, 2.49552250e-01, 2.23329082e-01,
          6.91788793e-02, 1.05204441e-01, 2.49552250e-01, 1.67868599e-01,
          6.43005222e-02, 5.20282909e-02, 2.87669152e-02, 1.33973032e-01,
          1.28230318e-01, 4.10153084e-02, 2.49552250e-01, 2.49552250e-01,
          2.06474319e-01, 1.15073480e-01, 1.27182752e-01, 2.49552250e-01,
          1.38969749e-01, 1.35483786e-01, 2.00709566e-01, 5.89124449e-02 ]
      - [ 2.11852849e-01, 7.74673298e-02, 2.49737725e-01, 2.49737725e-01,
          7.92826787e-02, 4.73765731e-02, 1.24383152e-01, 2.32688725e-01,
          1.42543972e-01, 2.25693747e-01, 4.92441244e-02, 1.61467716e-01,
          4.59886491e-02, 2.49737725e-01, 2.49737725e-01, 2.34543934e-01,
          9.77785215e-02, 7.48868892e-03, 2.49737725e-01, 1.09312125e-01,
          1.81951329e-01, 4.11964022e-02, 1.44871190e-01, 4.70496304e-02,
          1.97932228e-01, 7.27516264e-02, 2.49737725e-01, 2.49737725e-01,
          1.94224462e-01, 1.51797712e-01, 1.14435077e-01, 2.00643390e-01,
          9.73630026e-02, 7.94277191e-02, 9.25536677e-02, 1.22458741e-01 ]
      - [ 1.81867421e-01, 1.25886157e-01, 9.99580994e-02, 2.52923250e-01,
          1.70957357e-01, 3.53756808e-02, 6.98604733e-02, 1.21909656e-01,
          2.52923250e-01, 1.34298787e-01, 1.53104542e-02, 1.01102307e-01,
          1.76994726e-01, 2.50709981e-01, 2.52923250e-01, 2.52923250e-01,
          2.52923250e-01, 0., 2.52923250e-01, 2.10209548e-01,
          1.56424552e-01, 8.12178776e-02, 1.32369637e-01, 4.40808125e-02,
          6.76252246e-02, 1.96066827e-01, 1.88101843e-01, 2.52923250e-01,
          2.32025668e-01, 1.71327338e-01, 7.34509826e-02, 1.48051530e-01,
          5.17399795e-02, 8.10311362e-02, 1.38079897e-01, 9.20379683e-02 ]
      - [ 2.00448483e-01, 7.36336410e-02, 2.70343423e-01, 1.82509646e-01,
          7.25242123e-02, 6.57600537e-02, 9.10266787e-02, 1.62563831e-01,
          3.32419649e-02, 1.84560403e-01, 5.91455214e-02, 1.17204010e-01,
          1.59863234e-01, 2.70343423e-01, 2.70343423e-01, 2.15918407e-01,
          2.71481760e-02, 8.65677372e-03, 2.70343423e-01, 6.06940612e-02,
          8.82226750e-02, 4.43527699e-02, 1.40688658e-01, 7.62401968e-02,
          1.91414244e-02, 2.33240306e-01, 2.70343423e-01, 2.70343423e-01,
          1.13951087e-01, 2.70343423e-01, 1.62618399e-01, 2.20398992e-01,
          1.10129252e-01, 1.50712699e-01, 4.38294001e-02, 1.45686924e-01 ]
      - [ 1.60716712e-01, 9.02355015e-02, 2.14594021e-01, 2.56604135e-01,
          2.36627504e-01, 1.31548882e-01, 1.52288554e-02, 2.20672950e-01,
          1.48262709e-01, 2.53785551e-01, 1.12775788e-02, 5.36683910e-02,
          3.70467640e-02, 2.42422685e-01, 2.56604135e-01, 2.56604135e-01,
          1.28254652e-01, 8.17045644e-02, 2.56604135e-01, 9.10375640e-02,
          1.73072264e-01, 7.99236819e-02, 1.61769986e-01, 8.76838714e-02,
          1.91123292e-01, 1.13516167e-01, 2.56604135e-01, 2.56604135e-01,
          2.04392165e-01, 1.03851892e-01, 5.97739555e-02, 3.32861990e-02,
          1.01888925e-01, 0., 1.35463804e-01, 1.27037734e-01 ]
      - [ 2.18921900e-01, 1.42111510e-01, 7.69132748e-02, 2.16834545e-01,
          8.61837193e-02, 2.72583440e-02, 1.03112221e-01, 2.49552250e-01,
          9.13259685e-02, 1.83516726e-01, 0., 2.49552250e-01,
          1.69668689e-01, 2.49552250e-01, 2.49552250e-01, 2.23329082e-01,
          6.91788793e-02, 1.05204441e-01, 2.49552250e-01, 1.67868599e-01,
          6.43005222e-02, 5.20282909e-02, 2.87669152e-02, 1.33973032e-01,
          1.28230318e-01, 4.10153084e-02, 2.49552250e-01, 2.49552250e-01,
          2.06474319e-01, 1.15073480e-01, 1.27182752e-01, 2.49552250e-01,
          1.38969749e-01, 1.35483786e-01, 2.00709566e-01, 5.89124449e-02 ]
      - [ 2.11852849e-01, 7.74673298e-02, 2.49737725e-01, 2.49737725e-01,
          7.92826787e-02, 4.73765731e-02, 1.24383152e-01, 2.32688725e-01,
          1.42543972e-01, 2.25693747e-01, 4.92441244e-02, 1.61467716e-01,
          4.59886491e-02, 2.49737725e-01, 2.49737725e-01, 2.34543934e-01,
          9.77785215e-02, 7.48868892e-03, 2.49737725e-01, 1.09312125e-01,
          1.81951329e-01, 4.11964022e-02, 1.44871190e-01, 4.70496304e-02,
          1.97932228e-01, 7.27516264e-02, 2.49737725e-01, 2.49737725e-01,
          1.94224462e-01, 1.51797712e-01, 1.14435077e-01, 2.00643390e-01,
          9.73630026e-02, 7.94277191e-02, 9.25536677e-02, 1.22458741e-01 ]
      - [ 1.81867421e-01, 1.25886157e-01, 9.99580994e-02, 2.52923250e-01,
          1.70957357e-01, 3.53756808e-02, 6.98604733e-02, 1.21909656e-01,
          2.52923250e-01, 1.34298787e-01, 1.53104542e-02, 1.01102307e-01,
          1.76994726e-01, 2.50709981e-01, 2.52923250e-01, 2.52923250e-01,
          2.52923250e-01, 0., 2.52923250e-01, 2.10209548e-01,
          1.56424552e-01, 8.12178776e-02, 1.32369637e-01, 4.40808125e-02,
          6.76252246e-02, 1.96066827e-01, 1.88101843e-01, 2.52923250e-01,
          2.32025668e-01, 1.71327338e-01, 7.34509826e-02, 1.48051530e-01,
          5.17399795e-02, 8.10311362e-02, 1.38079897e-01, 9.20379683e-02 ]
      - [ 2.00448483e-01, 7.36336410e-02, 2.70343423e-01, 1.82509646e-01,
          7.25242123e-02, 6.57600537e-02, 9.10266787e-02, 1.62563831e-01,
          3.32419649e-02, 1.84560403e-01, 5.91455214e-02, 1.17204010e-01,
          1.59863234e-01, 2.70343423e-01, 2.70343423e-01, 2.15918407e-01,
          2.71481760e-02, 8.65677372e-03, 2.70343423e-01, 6.06940612e-02,
          8.82226750e-02, 4.43527699e-02, 1.40688658e-01, 7.62401968e-02,
          1.91414244e-02, 2.33240306e-01, 2.70343423e-01, 2.70343423e-01,
          1.13951087e-01, 2.70343423e-01, 1.62618399e-01, 2.20398992e-01,
          1.10129252e-01, 1.50712699e-01, 4.38294001e-02, 1.45686924e-01 ]
      - [ 1.60716712e-01, 9.02355015e-02, 2.14594021e-01, 2.56604135e-01,
          2.36627504e-01, 1.31548882e-01, 1.52288554e-02, 2.20672950e-01,
          1.48262709e-01, 2.53785551e-01, 1.12775788e-02, 5.36683910e-02,
          3.70467640e-02, 2.42422685e-01, 2.56604135e-01, 2.56604135e-01,
          1.28254652e-01, 8.17045644e-02, 2.56604135e-01, 9.10375640e-02,
          1.73072264e-01, 7.99236819e-02, 1.61769986e-01, 8.76838714e-02,
          1.91123292e-01, 1.13516167e-01, 2.56604135e-01, 2.56604135e-01,
          2.04392165e-01, 1.03851892e-01, 5.97739555e-02, 3.32861990e-02,
          1.01888925e-01, 0., 1.35463804e-01, 1.27037734e-01 ]
      - [ 2.18921900e-01, 1.42111510e-01, 7.69132748e-02, 2.16834545e-01,
          8.61837193e-02, 2.72583440e-02, 1.03112221e-01, 2.49552250e-01,
          9.13259685e-02, 1.83516726e-01, 0., 2.49552250e-01,
          1.69668689e-01, 2.49552250e-01, 2.49552250e-01, 2.23329082e-01,
          6.91788793e-02, 1.05204441e-01, 2.49552250e-01, 1.67868599e-01,
          6.43005222e-02, 5.20282909e-02, 2.87669152e-02, 1.33973032e-01,
          1.28230318e-01, 4.10153084e-02, 2.49552250e-01, 2.49552250e-01,
          2.06474319e-01, 1.15073480e-01, 1.27182752e-01, 2.49552250e-01,
          1.38969749e-01, 1.35483786e-01, 2.00709566e-01, 5.89124449e-02 ]
      - [ 2.11852849e-01, 7.74673298e-02, 2.49737725e-01, 2.49737725e-01,
          7.92826787e-02, 4.73765731e-02, 1.24383152e-01, 2.32688725e-01,
          1.42543972e-01, 2.25693747e-01, 4.92441244e-02, 1.61467716e-01,
          4.59886491e-02, 2.49737725e-01, 2.49737725e-01, 2.34543934e-01,
          9.77785215e-02, 7.48868892e-03, 2.49737725e-01, 1.09312125e-01,
          1.81951329e-01, 4.11964022e-02, 1.44871190e-01, 4.70496304e-02,
          1.97932228e-01, 7.27516264e-02, 2.49737725e-01, 2.49737725e-01,
          1.94224462e-01, 1.51797712e-01, 1.14435077e-01, 2.00643390e-01,
          9.73630026e-02, 7.94277191e-02, 9.25536677e-02, 1.22458741e-01 ]
      - [ 1.81867421e-01, 1.25886157e-01, 9.99580994e-02, 2.52923250e-01,
          1.70957357e-01, 3.53756808e-02, 6.98604733e-02, 1.21909656e-01,
          2.52923250e-01, 1.34298787e-01, 1.53104542e-02, 1.01102307e-01,
          1.76994726e-01, 2.50709981e-01, 2.52923250e-01, 2.52923250e-01,
          2.52923250e-01, 0., 2.52923250e-01, 2.10209548e-01,
          1.56424552e-01, 8.12178776e-02, 1.32369637e-01, 4.40808125e-02,
          6.76252246e-02, 1.96066827e-01, 1.88101843e-01, 2.52923250e-01,
          2.32025668e-01, 1.71327338e-01, 7.34509826e-02, 1.48051530e-01,
          5.17399795e-02, 8.10311362e-02, 1.38079897e-01, 9.20379683e-02 ]
      - [ 2.00448483e-01, 7.36336410e-02, 2.70343423e-01, 1.82509646e-01,
          7.25242123e-02, 6.57600537e-02, 9.10266787e-02, 1.62563831e-01,
          3.32419649e-02, 1.84560403e-01, 5.91455214e-02, 1.17204010e-01,
          1.59863234e-01, 2.70343423e-01, 2.70343423e-01, 2.15918407e-01,
          2.71481760e-02, 8.65677372e-03, 2.70343423e-01, 6.06940612e-02,
          8.82226750e-02, 4.43527699e-02, 1.40688658e-01, 7.62401968e-02,
          1.91414244e-02, 2.33240306e-01, 2.70343423e-01, 2.70343423e-01,
          1.13951087e-01, 2.70343423e-01, 1.62618399e-01, 2.20398992e-01,
          1.10129252e-01, 1.50712699e-01, 4.38294001e-02, 1.45686924e-01 ]
      - [ 1.60716712e-01, 9.02355015e-02, 2.14594021e-01, 2.56604135e-01,
          2.36627504e-01, 1.31548882e-01, 1.52288554e-02, 2.20672950e-01,
          1.48262709e-01, 2.53785551e-01, 1.12775788e-02, 5.36683910e-02,
          3.70467640e-02, 2.42422685e-01, 2.56604135e-01, 2.56604135e-01,
          1.28254652e-01, 8.17045644e-02, 2.56604135e-01, 9.10375640e-02,
          1.73072264e-01, 7.99236819e-02, 1.61769986e-01, 8.76838714e-02,
          1.91123292e-01, 1.13516167e-01, 2.56604135e-01, 2.56604135e-01,
          2.04392165e-01, 1.03851892e-01, 5.97739555e-02, 3.32861990e-02,
          1.01888925e-01, 0., 1.35463804e-01, 1.27037734e-01 ]
      - [ 2.18921900e-01, 1.42111510e-01, 7.69132748e-02, 2.16834545e-01,
          8.61837193e-02, 2.72583440e-02, 1.03112221e-01, 2.49552250e-01,
          9.13259685e-02, 1.83516726e-01, 0., 2.49552250e-01,
          1.69668689e-01, 2.49552250e-01, 2.49552250e-01, 2.23329082e-01,
          6.91788793e-02, 1.05204441e-01, 2.49552250e-01, 1.67868599e-01,
          6.43005222e-02, 5.20282909e-02, 2.87669152e-02, 1.33973032e-01,
          1.28230318e-01, 4.10153084e-02, 2.49552250e-01, 2.49552250e-01,
          2.06474319e-01, 1.15073480e-01, 1.27182752e-01, 2.49552250e-01,
          1.38969749e-01, 1.35483786e-01, 2.00709566e-01, 5.89124449e-02 ]
      - [ 5.14335074e-02, 8.86315256e-02, 2.68160552e-01, 2.69599944e-01,
          2.69599944e-01, 5.12398332e-02, 1.25071391e-01, 0.,
          1.32699817e-01, 6.04502447e-02, 1.10183284e-01, 2.92380992e-02,
          1.30844191e-02, 2.69599944e-01, 2.69599944e-01, 1.56618610e-01,
          6.73496053e-02, 5.07423356e-02, 2.69599944e-01, 1.22898020e-01,
          1.24072492e-01, 2.78935768e-02, 2.69599944e-01, 9.61363539e-02,
          9.14240554e-02, 1.95436940e-01, 2.26233184e-01, 2.69599944e-01,
          1.87307090e-01, 1.24375612e-01, 1.16033606e-01, 1.65240332e-01,
          1.16515696e-01, 5.73878400e-02, 7.30287284e-02, 2.69599944e-01 ]
      - [ 6.63122311e-02, 1.20668925e-01, 1.96751848e-01, 2.81753868e-01,
          2.01198712e-01, 1.12811014e-01, 5.68248220e-02, 0.,
          2.66228169e-01, 0., 1.60585400e-02, 3.94142084e-02, 0.,
          1.10175364e-01, 2.81753868e-01, 2.81753868e-01, 6.56779483e-02,
          1.05470188e-01, 2.81753868e-01, 2.04653427e-01, 1.60515890e-01,
          0., 2.56161094e-01, 3.28226313e-02, 1.51982978e-01,
          1.34954929e-01, 1.65261447e-01, 2.81753868e-01, 2.57186323e-01,
          1.06891371e-01, 1.71685711e-01, 9.45640951e-02, 4.07200754e-02,
          1.24745384e-01, 8.68896917e-02, 2.12078735e-01 ]
      - [ 2.19795555e-02, 7.53758177e-02, 2.64048368e-01, 2.24076226e-01,
          2.64048368e-01, 6.93928972e-02, 0., 1.67983416e-02, 0.,
          1.47396803e-01, 1.10560767e-02, 2.21101828e-02, 6.99756220e-02,
          2.64048368e-01, 2.64048368e-01, 5.04118241e-02, 6.12259470e-02,
          1.37716010e-01, 2.64048368e-01, 1.58665866e-01, 3.41984369e-02,
          1.14838518e-01, 1.71599641e-01, 7.88593441e-02, 7.05339834e-02,
          2.64048368e-01, 2.44441390e-01, 2.64048368e-01, 2.08818138e-01,
          2.35379130e-01, 1.27250895e-01, 1.56985432e-01, 7.92571455e-02,
          1.09864227e-01, 1.73622116e-01, 2.64048368e-01 ]
      - [ 7.97974169e-02, 4.92091738e-02, 2.84953207e-01, 2.73563445e-01,
          2.84953207e-01, 1.80066720e-01, 1.50186926e-01, 0.,
          3.79314087e-02, 1.77684814e-01, 2.44359653e-02, 0., 0.,
          1.72984809e-01, 2.84953207e-01, 1.88244134e-01, 7.94688240e-02,
          6.07674494e-02, 2.39595667e-01, 8.77667889e-02, 7.20679462e-02,
          1.56069160e-01, 2.84953207e-01, 9.69484448e-02, 1.09364770e-01,
          9.71505642e-02, 9.43038687e-02, 2.84953207e-01, 1.97749361e-01,
          1.20308526e-01, 1.18337318e-01, 7.11420178e-02, 1.41220883e-01,
          6.89276829e-02, 1.83135316e-01, 2.84953207e-01 ]
      - [ 6.79854006e-02, 1.19058326e-01, 2.88918078e-01, 2.91866332e-01,
          8.86103958e-02, 0., 1.35583701e-02, 0., 1.62787318e-01,
          3.18516232e-02, 6.36145175e-02, 2.99745277e-02, 1.33150844e-02,
          2.91866332e-01, 2.91866332e-01, 2.09099829e-01, 2.02446617e-02,
          7.98476562e-02, 2.91866332e-01, 1.18512236e-01, 1.01302624e-01,
          2.93422714e-02, 1.12224787e-01, 7.86942318e-02, 7.02330396e-02,
          2.51232505e-01, 2.89913595e-01, 2.91866332e-01, 1.69425830e-01,
          1.31529355e-02, 1.49229705e-01, 2.48105645e-01, 5.55817559e-02,
          6.42659217e-02, 7.45154619e-02, 2.43078351e-01 ]
      - [ 5.14335074e-02, 8.86315256e-02, 2.68160552e-01, 2.69599944e-01,
          2.69599944e-01, 5.12398332e-02, 1.25071391e-01, 0.,
          1.32699817e-01, 6.04502447e-02, 1.10183284e-01, 2.92380992e-02,
          1.30844191e-02, 2.69599944e-01, 2.69599944e-01, 1.56618610e-01,
          6.73496053e-02, 5.07423356e-02, 2.69599944e-01, 1.22898020e-01,
          1.24072492e-01, 2.78935768e-02, 2.69599944e-01, 9.61363539e-02,
          9.14240554e-02, 1.95436940e-01, 2.26233184e-01, 2.69599944e-01,
          1.87307090e-01, 1.24375612e-01, 1.16033606e-01, 1.65240332e-01,
          1.16515696e-01, 5.73878400e-02, 7.30287284e-02, 2.69599944e-01 ]
      - [ 6.63122311e-02, 1.20668925e-01, 1.96751848e-01, 2.81753868e-01,
          2.01198712e-01, 1.12811014e-01, 5.68248220e-02, 0.,
          2.66228169e-01, 0., 1.60585400e-02, 3.94142084e-02, 0.,
          1.10175364e-01, 2.81753868e-01, 2.81753868e-01, 6.56779483e-02,
          1.05470188e-01, 2.81753868e-01, 2.04653427e-01, 1.60515890e-01,
          0., 2.56161094e-01, 3.28226313e-02, 1.51982978e-01,
          1.34954929e-01, 1.65261447e-01, 2.81753868e-01, 2.57186323e-01,
          1.06891371e-01, 1.71685711e-01, 9.45640951e-02, 4.07200754e-02,
          1.24745384e-01, 8.68896917e-02, 2.12078735e-01 ]
      - [ 2.19795555e-02, 7.53758177e-02, 2.64048368e-01, 2.24076226e-01,
          2.64048368e-01, 6.93928972e-02, 0., 1.67983416e-02, 0.,
          1.47396803e-01, 1.10560767e-02, 2.21101828e-02, 6.99756220e-02,
          2.64048368e-01, 2.64048368e-01, 5.04118241e-02, 6.12259470e-02,
          1.37716010e-01, 2.64048368e-01, 1.58665866e-01, 3.41984369e-02,
          1.14838518e-01, 1.71599641e-01, 7.88593441e-02, 7.05339834e-02,
          2.64048368e-01, 2.44441390e-01, 2.64048368e-01, 2.08818138e-01,
          2.35379130e-01, 1.27250895e-01, 1.56985432e-01, 7.92571455e-02,
          1.09864227e-01, 1.73622116e-01, 2.64048368e-01 ]
      - [ 7.97974169e-02, 4.92091738e-02, 2.84953207e-01, 2.73563445e-01,
          2.84953207e-01, 1.80066720e-01, 1.50186926e-01, 0.,
          3.79314087e-02, 1.77684814e-01, 2.44359653e-02, 0., 0.,
          1.72984809e-01, 2.84953207e-01, 1.88244134e-01, 7.94688240e-02,
          6.07674494e-02, 2.39595667e-01, 8.77667889e-02, 7.20679462e-02,
          1.56069160e-01, 2.84953207e-01, 9.69484448e-02, 1.09364770e-01,
          9.71505642e-02, 9.43038687e-02, 2.84953207e-01, 1.97749361e-01,
          1.20308526e-01, 1.18337318e-01, 7.11420178e-02, 1.41220883e-01,
          6.89276829e-02, 1.83135316e-01, 2.84953207e-01 ]
      - [ 6.79854006e-02, 1.19058326e-01, 2.88918078e-01, 2.91866332e-01,
          8.86103958e-02, 0., 1.35583701e-02, 0., 1.62787318e-01,
          3.18516232e-02, 6.36145175e-02, 2.99745277e-02, 1.33150844e-02,
          2.91866332e-01, 2.91866332e-01, 2.09099829e-01, 2.02446617e-02,
          7.98476562e-02, 2.91866332e-01, 1.18512236e-01, 1.01302624e-01,
          2.93422714e-02, 1.12224787e-01, 7.86942318e-02, 7.02330396e-02,
          2.51232505e-01, 2.89913595e-01, 2.91866332e-01, 1.69425830e-01,
          1.31529355e-02, 1.49229705e-01, 2.48105645e-01, 5.55817559e-02,
          6.42659217e-02, 7.45154619e-02, 2.43078351e-01 ]
      - [ 5.14335074e-02, 8.86315256e-02, 2.68160552e-01, 2.69599944e-01,
          2.69599944e-01, 5.12398332e-02, 1.25071391e-01, 0.,
          1.32699817e-01, 6.04502447e-02, 1.10183284e-01, 2.92380992e-02,
          1.30844191e-02, 2.69599944e-01, 2.69599944e-01, 1.56618610e-01,
          6.73496053e-02, 5.07423356e-02, 2.69599944e-01, 1.22898020e-01,
          1.24072492e-01, 2.78935768e-02, 2.69599944e-01, 9.61363539e-02,
          9.14240554e-02, 1.95436940e-01, 2.26233184e-01, 2.69599944e-01,
          1.87307090e-01, 1.24375612e-01, 1.16033606e-01, 1.65240332e-01,
          1.16515696e-01, 5.73878400e-02, 7.30287284e-02, 2.69599944e-01 ]
      - [ 6.63122311e-02, 1.20668925e-01, 1.96751848e-01, 2.81753868e-01,
          2.01198712e-01, 1.12811014e-01, 5.68248220e-02, 0.,
          2.66228169e-01, 0., 1.60585400e-02, 3.94142084e-02, 0.,
          1.10175364e-01, 2.81753868e-01, 2.81753868e-01, 6.56779483e-02,
          1.05470188e-01, 2.81753868e-01, 2.04653427e-01, 1.60515890e-01,
          0., 2.56161094e-01, 3.28226313e-02, 1.51982978e-01,
          1.34954929e-01, 1.65261447e-01, 2.81753868e-01, 2.57186323e-01,
          1.06891371e-01, 1.71685711e-01, 9.45640951e-02, 4.07200754e-02,
          1.24745384e-01, 8.68896917e-02, 2.12078735e-01 ]
      - [ 2.19795555e-02, 7.53758177e-02, 2.64048368e-01, 2.24076226e-01,
          2.64048368e-01, 6.93928972e-02, 0., 1.67983416e-02, 0.,
          1.47396803e-01, 1.10560767e-02, 2.21101828e-02, 6.99756220e-02,
          2.64048368e-01, 2.64048368e-01, 5.04118241e-02, 6.12259470e-02,
          1.37716010e-01, 2.64048368e-01, 1.58665866e-01, 3.41984369e-02,
          1.14838518e-01, 1.71599641e-01, 7.88593441e-02, 7.05339834e-02,
          2.64048368e-01, 2.44441390e-01, 2.64048368e-01, 2.08818138e-01,
          2.35379130e-01, 1.27250895e-01, 1.56985432e-01, 7.92571455e-02,
          1.09864227e-01, 1.73622116e-01, 2.64048368e-01 ]
      - [ 7.97974169e-02, 4.92091738e-02, 2.84953207e-01, 2.73563445e-01,
          2.84953207e-01, 1.80066720e-01, 1.50186926e-01, 0.,
          3.79314087e-02, 1.77684814e-01, 2.44359653e-02, 0., 0.,
          1.72984809e-01, 2.84953207e-01, 1.88244134e-01, 7.94688240e-02,
          6.07674494e-02, 2.39595667e-01, 8.77667889e-02, 7.20679462e-02,
          1.56069160e-01, 2.84953207e-01, 9.69484448e-02, 1.09364770e-01,
          9.71505642e-02, 9.43038687e-02, 2.84953207e-01, 1.97749361e-01,
          1.20308526e-01, 1.18337318e-01, 7.11420178e-02, 1.41220883e-01,
          6.89276829e-02, 1.83135316e-01, 2.84953207e-01 ]
      - [ 6.79854006e-02, 1.19058326e-01, 2.88918078e-01, 2.91866332e-01,
          8.86103958e-02, 0., 1.35583701e-02, 0., 1.62787318e-01,
          3.18516232e-02, 6.36145175e-02, 2.99745277e-02, 1.33150844e-02,
          2.91866332e-01, 2.91866332e-01, 2.09099829e-01, 2.02446617e-02,
          7.98476562e-02, 2.91866332e-01, 1.18512236e-01, 1.01302624e-01,
          2.93422714e-02, 1.12224787e-01, 7.86942318e-02, 7.02330396e-02,
          2.51232505e-01, 2.89913595e-01, 2.91866332e-01, 1.69425830e-01,
          1.31529355e-02, 1.49229705e-01, 2.48105645e-01, 5.55817559e-02,
          6.42659217e-02, 7.45154619e-02, 2.43078351e-01 ]
      - [ 5.14335074e-02, 8.86315256e-02, 2.68160552e-01, 2.69599944e-01,
          2.69599944e-01, 5.12398332e-02, 1.25071391e-01, 0.,
          1.32699817e-01, 6.04502447e-02, 1.10183284e-01, 2.92380992e-02,
          1.30844191e-02, 2.69599944e-01, 2.69599944e-01, 1.56618610e-01,
          6.73496053e-02, 5.07423356e-02, 2.69599944e-01, 1.22898020e-01,
          1.24072492e-01, 2.78935768e-02, 2.69599944e-01, 9.61363539e-02,
          9.14240554e-02, 1.95436940e-01, 2.26233184e-01, 2.69599944e-01,
          1.87307090e-01, 1.24375612e-01, 1.16033606e-01, 1.65240332e-01,
          1.16515696e-01, 5.73878400e-02, 7.30287284e-02, 2.69599944e-01 ]
      - [ 6.63122311e-02, 1.20668925e-01, 1.96751848e-01, 2.81753868e-01,
          2.01198712e-01, 1.12811014e-01, 5.68248220e-02, 0.,
          2.66228169e-01, 0., 1.60585400e-02, 3.94142084e-02, 0.,
          1.10175364e-01, 2.81753868e-01, 2.81753868e-01, 6.56779483e-02,
          1.05470188e-01, 2.81753868e-01, 2.04653427e-01, 1.60515890e-01,
          0., 2.56161094e-01, 3.28226313e-02, 1.51982978e-01,
          1.34954929e-01, 1.65261447e-01, 2.81753868e-01, 2.57186323e-01,
          1.06891371e-01, 1.71685711e-01, 9.45640951e-02, 4.07200754e-02,
          1.24745384e-01, 8.68896917e-02, 2.12078735e-01 ]
      - [ 2.19795555e-02, 7.53758177e-02, 2.64048368e-01, 2.24076226e-01,
          2.64048368e-01, 6.93928972e-02, 0., 1.67983416e-02, 0.,
          1.47396803e-01, 1.10560767e-02, 2.21101828e-02, 6.99756220e-02,
          2.64048368e-01, 2.64048368e-01, 5.04118241e-02, 6.12259470e-02,
          1.37716010e-01, 2.64048368e-01, 1.58665866e-01, 3.41984369e-02,
          1.14838518e-01, 1.71599641e-01, 7.88593441e-02, 7.05339834e-02,
          2.64048368e-01, 2.44441390e-01, 2.64048368e-01, 2.08818138e-01,
          2.35379130e-01, 1.27250895e-01, 1.56985432e-01, 7.92571455e-02,
          1.09864227e-01, 1.73622116e-01, 2.64048368e-01 ]
      - [ 7.97974169e-02, 4.92091738e-02, 2.84953207e-01, 2.73563445e-01,
          2.84953207e-01, 1.80066720e-01, 1.50186926e-01, 0.,
          3.79314087e-02, 1.77684814e-01, 2.44359653e-02, 0., 0.,
          1.72984809e-01, 2.84953207e-01, 1.88244134e-01, 7.94688240e-02,
          6.07674494e-02, 2.39595667e-01, 8.77667889e-02, 7.20679462e-02,
          1.56069160e-01, 2.84953207e-01, 9.69484448e-02, 1.09364770e-01,
          9.71505642e-02, 9.43038687e-02, 2.84953207e-01, 1.97749361e-01,
          1.20308526e-01, 1.18337318e-01, 7.11420178e-02, 1.41220883e-01,
          6.89276829e-02, 1.83135316e-01, 2.84953207e-01 ]
      - [ 6.79854006e-02, 1.19058326e-01, 2.88918078e-01, 2.91866332e-01,
          8.86103958e-02, 0., 1.35583701e-02, 0., 1.62787318e-01,
          3.18516232e-02, 6.36145175e-02, 2.99745277e-02, 1.33150844e-02,
          2.91866332e-01, 2.91866332e-01, 2.09099829e-01, 2.02446617e-02,
          7.98476562e-02, 2.91866332e-01, 1.18512236e-01, 1.01302624e-01,
          2.93422714e-02, 1.12224787e-01, 7.86942318e-02, 7.02330396e-02,
          2.51232505e-01, 2.89913595e-01, 2.91866332e-01, 1.69425830e-01,
          1.31529355e-02, 1.49229705e-01, 2.48105645e-01, 5.55817559e-02,
          6.42659217e-02, 7.45154619e-02, 2.43078351e-01 ]
      - [ 5.14335074e-02, 8.86315256e-02, 2.68160552e-01, 2.69599944e-01,
          2.69599944e-01, 5.12398332e-02, 1.25071391e-01, 0.,
          1.32699817e-01, 6.04502447e-02, 1.10183284e-01, 2.92380992e-02,
          1.30844191e-02, 2.69599944e-01, 2.69599944e-01, 1.56618610e-01,
          6.73496053e-02, 5.07423356e-02, 2.69599944e-01, 1.22898020e-01,
          1.24072492e-01, 2.78935768e-02, 2.69599944e-01, 9.61363539e-02,
          9.14240554e-02, 1.95436940e-01, 2.26233184e-01, 2.69599944e-01,
          1.87307090e-01, 1.24375612e-01, 1.16033606e-01, 1.65240332e-01,
          1.16515696e-01, 5.73878400e-02, 7.30287284e-02, 2.69599944e-01 ]
      - [ 6.63122311e-02, 1.20668925e-01, 1.96751848e-01, 2.81753868e-01,
          2.01198712e-01, 1.12811014e-01, 5.68248220e-02, 0.,
          2.66228169e-01, 0., 1.60585400e-02, 3.94142084e-02, 0.,
          1.10175364e-01, 2.81753868e-01, 2.81753868e-01, 6.56779483e-02,
          1.05470188e-01, 2.81753868e-01, 2.04653427e-01, 1.60515890e-01,
          0., 2.56161094e-01, 3.28226313e-02, 1.51982978e-01,
          1.34954929e-01, 1.65261447e-01, 2.81753868e-01, 2.57186323e-01,
          1.06891371e-01, 1.71685711e-01, 9.45640951e-02, 4.07200754e-02,
          1.24745384e-01, 8.68896917e-02, 2.12078735e-01 ]
      - [ 2.19795555e-02, 7.53758177e-02, 2.64048368e-01, 2.24076226e-01,
          2.64048368e-01, 6.93928972e-02, 0., 1.67983416e-02, 0.,
          1.47396803e-01, 1.10560767e-02, 2.21101828e-02, 6.99756220e-02,
          2.64048368e-01, 2.64048368e-01, 5.04118241e-02, 6.12259470e-02,
          1.37716010e-01, 2.64048368e-01, 1.58665866e-01, 3.41984369e-02,
          1.14838518e-01, 1.71599641e-01, 7.88593441e-02, 7.05339834e-02,
          2.64048368e-01, 2.44441390e-01, 2.64048368e-01, 2.08818138e-01,
          2.35379130e-01, 1.27250895e-01, 1.56985432e-01, 7.92571455e-02,
          1.09864227e-01, 1.73622116e-01, 2.64048368e-01 ]
      - [ 7.97974169e-02, 4.92091738e-02, 2.84953207e-01, 2.73563445e-01,
          2.84953207e-01, 1.80066720e-01, 1.50186926e-01, 0.,
          3.79314087e-02, 1.77684814e-01, 2.44359653e-02, 0., 0.,
          1.72984809e-01, 2.84953207e-01, 1.88244134e-01, 7.94688240e-02,
          6.07674494e-02, 2.39595667e-01, 8.77667889e-02, 7.20679462e-02,
          1.56069160e-01, 2.84953207e-01, 9.69484448e-02, 1.09364770e-01,
          9.71505642e-02, 9.43038687e-02, 2.84953207e-01, 1.97749361e-01,
          1.20308526e-01, 1.18337318e-01, 7.11420178e-02, 1.41220883e-01,
          6.89276829e-02, 1.83135316e-01, 2.84953207e-01 ]
      - [ 6.79854006e-02, 1.19058326e-01, 2.88918078e-01, 2.91866332e-01,
          8.86103958e-02, 0., 1.35583701e-02, 0., 1.62787318e-01,
          3.18516232e-02, 6.36145175e-02, 2.99745277e-02, 1.33150844e-02,
          2.91866332e-01, 2.91866332e-01, 2.09099829e-01, 2.02446617e-02,
          7.98476562e-02, 2.91866332e-01, 1.18512236e-01, 1.01302624e-01,
          2.93422714e-02, 1.12224787e-01, 7.86942318e-02, 7.02330396e-02,
          2.51232505e-01, 2.89913595e-01, 2.91866332e-01, 1.69425830e-01,
          1.31529355e-02, 1.49229705e-01, 2.48105645e-01, 5.55817559e-02,
          6.42659217e-02, 7.45154619e-02, 2.43078351e-01 ]
      - [ 1.49162067e-02, 9.24745277e-02, 6.16913624e-02, 2.88425744e-01,
          2.88425744e-01, 9.06963423e-02, 4.06838814e-03, 1.40041783e-01,
          2.08791509e-01, 9.55175459e-02, 3.82490419e-02, 1.10830903e-01,
          0., 2.88425744e-01, 2.88425744e-01, 1.84576958e-01, 0.,
          5.60335033e-02, 2.04052642e-01, 7.10826442e-02, 5.02523817e-02,
          2.10618034e-01, 2.88425744e-01, 1.21140517e-01, 1.21062472e-01,
          1.67200118e-01, 2.32400224e-01, 1.95481166e-01, 1.53037965e-01,
          5.67610003e-02, 1.44651294e-01, 2.88425744e-01, 2.43867889e-01,
          1.83210988e-02, 4.62128408e-02, 6.45189732e-02 ]
      - [ 2.05890849e-01, 1.31561682e-01, 1.36681810e-01, 2.47110084e-01,
          2.61273235e-01, 7.44043365e-02, 7.81928003e-03, 4.30781022e-02,
          1.54179752e-01, 1.60128530e-02, 3.77530083e-02, 3.66918147e-02,
          2.50324234e-02, 2.32639253e-01, 2.61273235e-01, 2.61273235e-01,
          0., 5.96972257e-02, 2.49609858e-01, 1.40027046e-01,
          4.35652286e-02, 1.19989533e-02, 2.61273235e-01, 2.15113878e-01,
          1.49893984e-01, 1.32649720e-01, 1.66390866e-01, 2.61273235e-01,
          2.61273235e-01, 1.86649546e-01, 7.60579258e-02, 2.61273235e-01,
          1.38915703e-01, 1.59111097e-01, 6.33846447e-02, 5.39686605e-02 ]
      - [ 3.81832123e-02, 5.73627055e-02, 2.70175666e-01, 2.70175666e-01,
          2.70175666e-01, 0., 1.79602094e-02, 1.32556304e-01,
          4.22252491e-02, 1.47559226e-01, 2.52571870e-02, 7.57444045e-03,
          1.68808654e-01, 2.70175666e-01, 2.33897611e-01, 1.53058439e-01,
          8.69503319e-02, 7.69044133e-03, 2.50292778e-01, 7.30862692e-02,
          2.75352243e-02, 2.61670411e-01, 1.28374979e-01, 4.97612692e-02,
          1.90236628e-01, 2.70175666e-01, 2.52653241e-01, 1.60278350e-01,
          9.37854201e-02, 1.54998884e-01, 2.70175666e-01, 2.70175666e-01,
          6.91979155e-02, 1.53523292e-02, 5.29053621e-02, 7.32157007e-02 ]
      - [ 2.56763045e-02, 3.97305861e-02, 8.79093483e-02, 3.28495055e-01,
          3.33386511e-01, 1.34241566e-01, 0., 8.79511833e-02,
          5.33782542e-02, 2.00911090e-01, 2.19115838e-02, 5.64613864e-02,
          0., 2.53431827e-01, 3.33386511e-01, 1.36786327e-01,
          2.54519582e-02, 1.10492699e-01, 8.67333859e-02, 4.90904301e-02,
          0., 1.98755756e-01, 3.33386511e-01, 1.39751375e-01,
          3.30305807e-02, 8.59313235e-02, 5.15780412e-02, 3.33386511e-01,
          1.56475380e-01, 1.38124257e-01, 1.26143575e-01, 2.50194818e-01,
          2.42663801e-01, 1.45192062e-02, 8.00900683e-02, 3.76796350e-02 ]
      - [ 6.35939166e-02, 7.23030493e-02, 6.08957633e-02, 3.11102748e-01,
          2.31035113e-01, 0., 0., 2.11409763e-01, 1.77274644e-01,
          5.79777546e-02, 7.21860379e-02, 8.83603841e-02, 1.30932527e-02,
          3.11102748e-01, 3.11102748e-01, 5.30225337e-02, 6.88939169e-02,
          0., 3.11102748e-01, 1.40901178e-01, 2.23123026e-03,
          9.10944194e-02, 3.11102748e-01, 8.47641602e-02, 1.55044705e-01,
          1.95841700e-01, 2.01966628e-01, 1.25624007e-02, 7.30213849e-03,
          0., 2.01876342e-01, 3.11102748e-01, 2.67180145e-01,
          2.14745011e-02, 2.38294024e-02, 2.82775946e-02 ]
      - [ 1.49162067e-02, 9.24745277e-02, 6.16913624e-02, 2.88425744e-01,
          2.88425744e-01, 9.06963423e-02, 4.06838814e-03, 1.40041783e-01,
          2.08791509e-01, 9.55175459e-02, 3.82490419e-02, 1.10830903e-01,
          0., 2.88425744e-01, 2.88425744e-01, 1.84576958e-01, 0.,
          5.60335033e-02, 2.04052642e-01, 7.10826442e-02, 5.02523817e-02,
          2.10618034e-01, 2.88425744e-01, 1.21140517e-01, 1.21062472e-01,
          1.67200118e-01, 2.32400224e-01, 1.95481166e-01, 1.53037965e-01,
          5.67610003e-02, 1.44651294e-01, 2.88425744e-01, 2.43867889e-01,
          1.83210988e-02, 4.62128408e-02, 6.45189732e-02 ]
      - [ 2.05890849e-01, 1.31561682e-01, 1.36681810e-01, 2.47110084e-01,
          2.61273235e-01, 7.44043365e-02, 7.81928003e-03, 4.30781022e-02,
          1.54179752e-01, 1.60128530e-02, 3.77530083e-02, 3.66918147e-02,
          2.50324234e-02, 2.32639253e-01, 2.61273235e-01, 2.61273235e-01,
          0., 5.96972257e-02, 2.49609858e-01, 1.40027046e-01,
          4.35652286e-02, 1.19989533e-02, 2.61273235e-01, 2.15113878e-01,
          1.49893984e-01, 1.32649720e-01, 1.66390866e-01, 2.61273235e-01,
          2.61273235e-01, 1.86649546e-01, 7.60579258e-02, 2.61273235e-01,
          1.38915703e-01, 1.59111097e-01, 6.33846447e-02, 5.39686605e-02 ]
      - [ 3.81832123e-02, 5.73627055e-02, 2.70175666e-01, 2.70175666e-01,
          2.70175666e-01, 0., 1.79602094e-02, 1.32556304e-01,
          4.22252491e-02, 1.47559226e-01, 2.52571870e-02, 7.57444045e-03,
          1.68808654e-01, 2.70175666e-01, 2.33897611e-01, 1.53058439e-01,
          8.69503319e-02, 7.69044133e-03, 2.50292778e-01, 7.30862692e-02,
          2.75352243e-02, 2.61670411e-01, 1.28374979e-01, 4.97612692e-02,
          1.90236628e-01, 2.70175666e-01, 2.52653241e-01, 1.60278350e-01,
          9.37854201e-02, 1.54998884e-01, 2.70175666e-01, 2.70175666e-01,
          6.91979155e-02, 1.53523292e-02, 5.29053621e-02, 7.32157007e-02 ]
      - [ 2.56763045e-02, 3.97305861e-02, 8.79093483e-02, 3.28495055e-01,
          3.33386511e-01, 1.34241566e-01, 0., 8.79511833e-02,
          5.33782542e-02, 2.00911090e-01, 2.19115838e-02, 5.64613864e-02,
          0., 2.53431827e-01, 3.33386511e-01, 1.36786327e-01,
          2.54519582e-02, 1.10492699e-01, 8.67333859e-02, 4.90904301e-02,
          0., 1.98755756e-01, 3.33386511e-01, 1.39751375e-01,
          3.30305807e-02, 8.59313235e-02, 5.15780412e-02, 3.33386511e-01,
          1.56475380e-01, 1.38124257e-01, 1.26143575e-01, 2.50194818e-01,
          2.42663801e-01, 1.45192062e-02, 8.00900683e-02, 3.76796350e-02 ]
      - [ 6.35939166e-02, 7.23030493e-02, 6.08957633e-02, 3.11102748e-01,
          2.31035113e-01, 0., 0., 2.11409763e-01, 1.77274644e-01,
          5.79777546e-02, 7.21860379e-02, 8.83603841e-02, 1.30932527e-02,
          3.11102748e-01, 3.11102748e-01, 5.30225337e-02, 6.88939169e-02,
          0., 3.11102748e-01, 1.40901178e-01, 2.23123026e-03,
          9.10944194e-02, 3.11102748e-01, 8.47641602e-02, 1.55044705e-01,
          1.95841700e-01, 2.01966628e-01, 1.25624007e-02, 7.30213849e-03,
          0., 2.01876342e-01, 3.11102748e-01, 2.67180145e-01,
          2.14745011e-02, 2.38294024e-02, 2.82775946e-02 ]
      - [ 1.49162067e-02, 9.24745277e-02, 6.16913624e-02, 2.88425744e-01,
          2.88425744e-01, 9.06963423e-02, 4.06838814e-03, 1.40041783e-01,
          2.08791509e-01, 9.55175459e-02, 3.82490419e-02, 1.10830903e-01,
          0., 2.88425744e-01, 2.88425744e-01, 1.84576958e-01, 0.,
          5.60335033e-02, 2.04052642e-01, 7.10826442e-02, 5.02523817e-02,
          2.10618034e-01, 2.88425744e-01, 1.21140517e-01, 1.21062472e-01,
          1.67200118e-01, 2.32400224e-01, 1.95481166e-01, 1.53037965e-01,
          5.67610003e-02, 1.44651294e-01, 2.88425744e-01, 2.43867889e-01,
          1.83210988e-02, 4.62128408e-02, 6.45189732e-02 ]
      - [ 2.05890849e-01, 1.31561682e-01, 1.36681810e-01, 2.47110084e-01,
          2.61273235e-01, 7.44043365e-02, 7.81928003e-03, 4.30781022e-02,
          1.54179752e-01, 1.60128530e-02, 3.77530083e-02, 3.66918147e-02,
          2.50324234e-02, 2.32639253e-01, 2.61273235e-01, 2.61273235e-01,
          0., 5.96972257e-02, 2.49609858e-01, 1.40027046e-01,
          4.35652286e-02, 1.19989533e-02, 2.61273235e-01, 2.15113878e-01,
          1.49893984e-01, 1.32649720e-01, 1.66390866e-01, 2.61273235e-01,
          2.61273235e-01, 1.86649546e-01, 7.60579258e-02, 2.61273235e-01,
          1.38915703e-01, 1.59111097e-01, 6.33846447e-02, 5.39686605e-02 ]
      - [ 3.81832123e-02, 5.73627055e-02, 2.70175666e-01, 2.70175666e-01,
          2.70175666e-01, 0., 1.79602094e-02, 1.32556304e-01,
          4.22252491e-02, 1.47559226e-01, 2.52571870e-02, 7.57444045e-03,
          1.68808654e-01, 2.70175666e-01, 2.33897611e-01, 1.53058439e-01,
          8.69503319e-02, 7.69044133e-03, 2.50292778e-01, 7.30862692e-02,
          2.75352243e-02, 2.61670411e-01, 1.28374979e-01, 4.97612692e-02,
          1.90236628e-01, 2.70175666e-01, 2.52653241e-01, 1.60278350e-01,
          9.37854201e-02, 1.54998884e-01, 2.70175666e-01, 2.70175666e-01,
          6.91979155e-02, 1.53523292e-02, 5.29053621e-02, 7.32157007e-02 ]
      - [ 2.56763045e-02, 3.97305861e-02, 8.79093483e-02, 3.28495055e-01,
          3.33386511e-01, 1.34241566e-01, 0., 8.79511833e-02,
          5.33782542e-02, 2.00911090e-01, 2.19115838e-02, 5.64613864e-02,
          0., 2.53431827e-01, 3.33386511e-01, 1.36786327e-01,
          2.54519582e-02, 1.10492699e-01, 8.67333859e-02, 4.90904301e-02,
          0., 1.98755756e-01, 3.33386511e-01, 1.39751375e-01,
          3.30305807e-02, 8.59313235e-02, 5.15780412e-02, 3.33386511e-01,
          1.56475380e-01, 1.38124257e-01, 1.26143575e-01, 2.50194818e-01,
          2.42663801e-01, 1.45192062e-02, 8.00900683e-02, 3.76796350e-02 ]
      - [ 6.35939166e-02, 7.23030493e-02, 6.08957633e-02, 3.11102748e-01,
          2.31035113e-01, 0., 0., 2.11409763e-01, 1.77274644e-01,
          5.79777546e-02, 7.21860379e-02, 8.83603841e-02, 1.30932527e-02,
          3.11102748e-01, 3.11102748e-01, 5.30225337e-02, 6.88939169e-02,
          0., 3.11102748e-01, 1.40901178e-01, 2.23123026e-03,
          9.10944194e-02, 3.11102748e-01, 8.47641602e-02, 1.55044705e-01,
          1.95841700e-01, 2.01966628e-01, 1.25624007e-02, 7.30213849e-03,
          0., 2.01876342e-01, 3.11102748e-01, 2.67180145e-01,
          2.14745011e-02, 2.38294024e-02, 2.82775946e-02 ]
      - [ 1.49162067e-02, 9.24745277e-02, 6.16913624e-02, 2.88425744e-01,
          2.88425744e-01, 9.06963423e-02, 4.06838814e-03, 1.40041783e-01,
          2.08791509e-01, 9.55175459e-02, 3.82490419e-02, 1.10830903e-01,
          0., 2.88425744e-01, 2.88425744e-01, 1.84576958e-01, 0.,
          5.60335033e-02, 2.04052642e-01, 7.10826442e-02, 5.02523817e-02,
          2.10618034e-01, 2.88425744e-01, 1.21140517e-01, 1.21062472e-01,
          1.67200118e-01, 2.32400224e-01, 1.95481166e-01, 1.53037965e-01,
          5.67610003e-02, 1.44651294e-01, 2.88425744e-01, 2.43867889e-01,
          1.83210988e-02, 4.62128408e-02, 6.45189732e-02 ]
      - [ 2.05890849e-01, 1.31561682e-01, 1.36681810e-01, 2.47110084e-01,
          2.61273235e-01, 7.44043365e-02, 7.81928003e-03, 4.30781022e-02,
          1.54179752e-01, 1.60128530e-02, 3.77530083e-02, 3.66918147e-02,
          2.50324234e-02, 2.32639253e-01, 2.61273235e-01, 2.61273235e-01,
          0., 5.96972257e-02, 2.49609858e-01, 1.40027046e-01,
          4.35652286e-02, 1.19989533e-02, 2.61273235e-01, 2.15113878e-01,
          1.49893984e-01, 1.32649720e-01, 1.66390866e-01, 2.61273235e-01,
          2.61273235e-01, 1.86649546e-01, 7.60579258e-02, 2.61273235e-01,
          1.38915703e-01, 1.59111097e-01, 6.33846447e-02, 5.39686605e-02 ]
      - [ 3.81832123e-02, 5.73627055e-02, 2.70175666e-01, 2.70175666e-01,
          2.70175666e-01, 0., 1.79602094e-02, 1.32556304e-01,
          4.22252491e-02, 1.47559226e-01, 2.52571870e-02, 7.57444045e-03,
          1.68808654e-01, 2.70175666e-01, 2.33897611e-01, 1.53058439e-01,
          8.69503319e-02, 7.69044133e-03, 2.50292778e-01, 7.30862692e-02,
          2.75352243e-02, 2.61670411e-01, 1.28374979e-01, 4.97612692e-02,
          1.90236628e-01, 2.70175666e-01, 2.52653241e-01, 1.60278350e-01,
          9.37854201e-02, 1.54998884e-01, 2.70175666e-01, 2.70175666e-01,
          6.91979155e-02, 1.53523292e-02, 5.29053621e-02, 7.32157007e-02 ]
      - [ 2.56763045e-02, 3.97305861e-02, 8.79093483e-02, 3.28495055e-01,
          3.33386511e-01, 1.34241566e-01, 0., 8.79511833e-02,
          5.33782542e-02, 2.00911090e-01, 2.19115838e-02, 5.64613864e-02,
          0., 2.53431827e-01, 3.33386511e-01, 1.36786327e-01,
          2.54519582e-02, 1.10492699e-01, 8.67333859e-02, 4.90904301e-02,
          0., 1.98755756e-01, 3.33386511e-01, 1.39751375e-01,
          3.30305807e-02, 8.59313235e-02, 5.15780412e-02, 3.33386511e-01,
          1.56475380e-01, 1.38124257e-01, 1.26143575e-01, 2.50194818e-01,
          2.42663801e-01, 1.45192062e-02, 8.00900683e-02, 3.76796350e-02 ]
      - [ 6.35939166e-02, 7.23030493e-02, 6.08957633e-02, 3.11102748e-01,
          2.31035113e-01, 0., 0., 2.11409763e-01, 1.77274644e-01,
          5.79777546e-02, 7.21860379e-02, 8.83603841e-02, 1.30932527e-02,
          3.11102748e-01, 3.11102748e-01, 5.30225337e-02, 6.88939169e-02,
          0., 3.11102748e-01, 1.40901178e-01, 2.23123026e-03,
          9.10944194e-02, 3.11102748e-01, 8.47641602e-02, 1.55044705e-01,
          1.95841700e-01, 2.01966628e-01, 1.25624007e-02, 7.30213849e-03,
          0., 2.01876342e-01, 3.11102748e-01, 2.67180145e-01,
          2.14745011e-02, 2.38294024e-02, 2.82775946e-02 ]
      - [ 1.49162067e-02, 9.24745277e-02, 6.16913624e-02, 2.88425744e-01,
          2.88425744e-01, 9.06963423e-02, 4.06838814e-03, 1.40041783e-01,
          2.08791509e-01, 9.55175459e-02, 3.82490419e-02, 1.10830903e-01,
          0., 2.88425744e-01, 2.88425744e-01, 1.84576958e-01, 0.,
          5.60335033e-02, 2.04052642e-01, 7.10826442e-02, 5.02523817e-02,
          2.10618034e-01, 2.88425744e-01, 1.21140517e-01, 1.21062472e-01,
          1.67200118e-01, 2.32400224e-01, 1.95481166e-01, 1.53037965e-01,
          5.67610003e-02, 1.44651294e-01, 2.88425744e-01, 2.43867889e-01,
          1.83210988e-02, 4.62128408e-02, 6.45189732e-02 ]
      - [ 2.05890849e-01, 1.31561682e-01, 1.36681810e-01, 2.47110084e-01,
          2.61273235e-01, 7.44043365e-02, 7.81928003e-03, 4.30781022e-02,
          1.54179752e-01, 1.60128530e-02, 3.77530083e-02, 3.66918147e-02,
          2.50324234e-02, 2.32639253e-01, 2.61273235e-01, 2.61273235e-01,
          0., 5.96972257e-02, 2.49609858e-01, 1.40027046e-01,
          4.35652286e-02, 1.19989533e-02, 2.61273235e-01, 2.15113878e-01,
          1.49893984e-01, 1.32649720e-01, 1.66390866e-01, 2.61273235e-01,
          2.61273235e-01, 1.86649546e-01, 7.60579258e-02, 2.61273235e-01,
          1.38915703e-01, 1.59111097e-01, 6.33846447e-02, 5.39686605e-02 ]
      - [ 3.81832123e-02, 5.73627055e-02, 2.70175666e-01, 2.70175666e-01,
          2.70175666e-01, 0., 1.79602094e-02, 1.32556304e-01,
          4.22252491e-02, 1.47559226e-01, 2.52571870e-02, 7.57444045e-03,
          1.68808654e-01, 2.70175666e-01, 2.33897611e-01, 1.53058439e-01,
          8.69503319e-02, 7.69044133e-03, 2.50292778e-01, 7.30862692e-02,
          2.75352243e-02, 2.61670411e-01, 1.28374979e-01, 4.97612692e-02,
          1.90236628e-01, 2.70175666e-01, 2.52653241e-01, 1.60278350e-01,
          9.37854201e-02, 1.54998884e-01, 2.70175666e-01, 2.70175666e-01,
          6.91979155e-02, 1.53523292e-02, 5.29053621e-02, 7.32157007e-02 ]
      - [ 2.56763045e-02, 3.97305861e-02, 8.79093483e-02, 3.28495055e-01,
          3.33386511e-01, 1.34241566e-01, 0., 8.79511833e-02,
          5.33782542e-02, 2.00911090e-01, 2.19115838e-02, 5.64613864e-02,
          0., 2.53431827e-01, 3.33386511e-01, 1.36786327e-01,
          2.54519582e-02, 1.10492699e-01, 8.67333859e-02, 4.90904301e-02,
          0., 1.98755756e-01, 3.33386511e-01, 1.39751375e-01,
          3.30305807e-02, 8.59313235e-02, 5.15780412e-02, 3.33386511e-01,
          1.56475380e-01, 1.38124257e-01, 1.26143575e-01, 2.50194818e-01,
          2.42663801e-01, 1.45192062e-02, 8.00900683e-02, 3.76796350e-02 ]
      - [ 6.35939166e-02, 7.23030493e-02, 6.08957633e-02, 3.11102748e-01,
          2.31035113e-01, 0., 0., 2.11409763e-01, 1.77274644e-01,
          5.79777546e-02, 7.21860379e-02, 8.83603841e-02, 1.30932527e-02,
          3.11102748e-01, 3.11102748e-01, 5.30225337e-02, 6.88939169e-02,
          0., 3.11102748e-01, 1.40901178e-01, 2.23123026e-03,
          9.10944194e-02, 3.11102748e-01, 8.47641602e-02, 1.55044705e-01,
          1.95841700e-01, 2.01966628e-01, 1.25624007e-02, 7.30213849e-03,
          0., 2.01876342e-01, 3.11102748e-01, 2.67180145e-01,
          2.14745011e-02, 2.38294024e-02, 2.82775946e-02 ]
      - [ 7.18639418e-02, 1.16541199e-01, 2.24694997e-01, 1.53005734e-01,
          2.85768449e-01, 5.88985942e-02, 7.12649673e-02, 7.86106959e-02,
          4.20617387e-02, 3.59279811e-02, 0., 0., 0., 2.85768449e-01,
          2.85768449e-01, 0., 9.23864320e-02, 2.85768449e-01,
          2.85768449e-01, 1.80126857e-02, 1.89778185e-03, 6.49523437e-02,
          2.85768449e-01, 1.41707197e-01, 3.23854089e-02, 1.16972059e-01,
          2.45932043e-01, 2.85768449e-01, 1.59563020e-01, 6.40583560e-02,
          5.36052361e-02, 2.85629839e-01, 9.92963016e-02, 0.,
          6.32490218e-02, 2.85768449e-01 ]
      - [ 5.45847230e-02, 2.30927289e-01, 2.56914705e-01, 2.09008381e-01,
          2.89561063e-01, 1.89414516e-01, 8.49284530e-02, 2.56838612e-02,
          2.75883656e-02, 4.89785001e-02, 1.05724625e-01, 4.85344464e-03,
          2.62004249e-02, 2.89561063e-01, 2.89561063e-01, 1.46333098e-01,
          7.50247017e-02, 1.00930102e-01, 1.93138808e-01, 1.75482363e-01,
          1.43798411e-01, 4.47930321e-02, 2.89561063e-01, 2.89561063e-01,
          1.29663914e-01, 1.57524720e-02, 1.40831918e-01, 2.89561063e-01,
          2.89561063e-01, 8.39665979e-02, 5.50742708e-02, 6.54777735e-02,
          3.90087515e-02, 8.95287190e-03, 8.30771178e-02, 2.25169137e-02 ]
      - [ 1.74257830e-02, 1.28835902e-01, 1.51087791e-01, 2.31700599e-01,
          2.53751010e-01, 1.59723997e-01, 0., 4.06416841e-02,
          4.74190898e-02, 0., 2.48374566e-02, 2.74545141e-02,
          1.60861850e-01, 2.53751010e-01, 2.20117271e-01, 1.43982202e-01,
          1.82101816e-01, 2.53751010e-01, 2.47640982e-01, 6.56497478e-02,
          4.91382629e-02, 9.42718089e-02, 1.78583771e-01, 9.48151946e-02,
          6.87594339e-02, 2.53751010e-01, 2.53751010e-01, 1.44527569e-01,
          7.10239634e-02, 1.10917516e-01, 2.53751010e-01, 2.53751010e-01,
          1.22438911e-02, 8.45170096e-02, 2.53751010e-01, 2.53751010e-01 ]
      - [ 1.18806139e-02, 8.80309641e-02, 2.07053140e-01, 1.46149814e-01,
          3.35143954e-01, 3.12363595e-01, 1.09332586e-02, 5.38192540e-02,
          5.08704968e-02, 2.84272492e-01, 6.15632012e-02, 0.,
          1.85040869e-02, 3.31363708e-01, 2.63017774e-01, 5.52442148e-02,
          9.20623541e-02, 2.10153535e-01, 2.23715529e-01, 1.49308071e-01,
          1.14331111e-01, 8.62266496e-02, 3.35143954e-01, 1.65522039e-01,
          8.22633132e-02, 1.31684095e-01, 3.04598846e-02, 3.35143954e-01,
          1.33392930e-01, 4.57520038e-02, 2.09508464e-02, 1.71963889e-02,
          1.38252545e-02, 0., 4.50524278e-02, 0. ]
      - [ 2.36059919e-01, 2.09876537e-01, 1.79856792e-01, 1.02212794e-01,
          3.22552502e-01, 6.03265502e-02, 6.09598048e-02, 3.90893333e-02,
          7.32190907e-02, 3.67501937e-02, 0., 7.63254985e-02,
          9.25600808e-03, 3.22552502e-01, 3.18501681e-01, 1.23005388e-02,
          4.17224094e-02, 2.00482994e-01, 3.22552502e-01, 0.,
          1.95091858e-03, 6.10916689e-02, 8.41946155e-02, 1.39390856e-01,
          2.15161964e-02, 8.64618346e-02, 3.22552502e-01, 2.77417690e-01,
          8.25721845e-02, 6.58519492e-02, 6.07854575e-02, 3.22552502e-01,
          1.08360603e-01, 1.17759844e-02, 9.88053158e-02, 1.43351108e-01 ]
      - [ 7.18639418e-02, 1.16541199e-01, 2.24694997e-01, 1.53005734e-01,
          2.85768449e-01, 5.88985942e-02, 7.12649673e-02, 7.86106959e-02,
          4.20617387e-02, 3.59279811e-02, 0., 0., 0., 2.85768449e-01,
          2.85768449e-01, 0., 9.23864320e-02, 2.85768449e-01,
          2.85768449e-01, 1.80126857e-02, 1.89778185e-03, 6.49523437e-02,
