%YAML:1.0
---
opencv_ml_svm:
   format: 3
   svmType: C_SVC
   kernel:
      type: RBF
      gamma: 5.0000000000000003e-02
   C: 2.5000000000000000e+00
   term_criteria: { epsilon:1.1920928955078125e-07, iterations:1000 }
   var_count: 36
   class_count: 2
   class_labels: !!opencv-matrix
      rows: 2
      cols: 1
      dt: i
      data: [ 21, 28 ]
   sv_total: 10
   support_vectors:
      - [ 2.67949820e-01, 1.34331342e-02, 1.30607218e-01, 1.01746626e-01,
          2.59033084e-01, 4.35507968e-02, 0., 4.87257987e-02, 0.,
          2.34447978e-02, 0., 0., 2.95563072e-01, 2.95563072e-01, 0.,
          1.73158452e-01, 0., 0., 2.95563072e-01, 2.95563072e-01,
          2.14456797e-01, 7.11231679e-02, 0., 0., 1.13176201e-02,
          1.37891948e-01, 1.32572070e-01, 2.95563072e-01, 2.95563072e-01,
          2.95563072e-01, 2.36715510e-01, 1.30463868e-01, 3.83727849e-02,
          9.37224552e-02, 9.27406102e-02, 8.67554098e-02 ]
      - [ 2.90259689e-01, 2.46447884e-02, 1.12098902e-01, 6.32949024e-02,
          1.80163264e-01, 5.51432706e-02, 3.84061299e-02, 0., 0.,
          2.54486576e-02, 2.63463873e-02, 0., 2.90259689e-01,
          2.90259689e-01, 3.95195819e-02, 8.63886848e-02, 4.78304401e-02,
          0., 2.90259689e-01, 2.90259689e-01, 2.90259689e-01,
          8.30158740e-02, 7.45644644e-02, 3.29171941e-02, 3.30400802e-02,
          6.34169355e-02, 1.05176359e-01, 2.90259689e-01, 2.90259689e-01,
          2.90259689e-01, 2.52679020e-01, 9.28725973e-02, 0.,
          5.78855313e-02, 1.73872948e-01, 1.97914258e-01 ]
      - [ 2.27033541e-01, 9.14568156e-02, 2.24892482e-01, 2.39631310e-01,
          1.04349352e-01, 3.97510193e-02, 0., 4.28547002e-02,
          2.18192823e-02, 8.72489810e-03, 4.53360751e-02, 1.92131788e-01,
          2.89812118e-01, 2.85923630e-01, 1.07620105e-01, 6.83989078e-02,
          1.52230216e-02, 0., 2.89812118e-01, 2.89812118e-01,
          6.40373304e-02, 0., 5.87536283e-02, 2.93557961e-02,
          3.63494642e-02, 0., 2.64715999e-01, 2.89812118e-01,
          2.89812118e-01, 2.53085375e-01, 8.42989832e-02, 8.95218775e-02,
          1.72002316e-01, 1.30359992e-01, 2.89639849e-02, 2.31654048e-01 ]
      - [ 2.36120552e-01, 2.33158953e-02, 1.34273157e-01, 1.82599604e-01,
          2.95734763e-01, 0., 0., 4.97536324e-02, 0., 5.36769852e-02, 0.,
          0., 3.17891330e-01, 1.32125810e-01, 7.01379254e-02,
          2.12977499e-01, 0., 0., 3.17891330e-01, 3.17891330e-01,
          1.84793279e-01, 1.04793742e-01, 1.27631426e-01, 7.81130940e-02,
          0., 1.93122029e-01, 2.43471012e-01, 3.17891330e-01,
          2.63461053e-01, 1.80688709e-01, 1.44382343e-01, 4.53893058e-02,
          3.43592875e-02, 9.23693180e-02, 1.07480891e-01, 1.31274194e-01 ]
      - [ 1.83420315e-01, 1.31743765e-02, 2.05743462e-02, 1.09484613e-01,
          2.72064894e-01, 4.68004532e-02, 0., 2.90965177e-02, 0.,
          1.33397296e-01, 0., 1.21594116e-01, 3.13121319e-01,
          3.13121319e-01, 0., 0., 2.45123934e-02, 0., 2.71645248e-01,
          3.13121319e-01, 0., 0., 0., 0., 0., 4.32102233e-02,
          1.42427385e-01, 3.13121319e-01, 3.13121319e-01, 3.13121319e-01,
          1.72851548e-01, 2.60552287e-01, 7.93693513e-02, 9.33767781e-02,
          1.79137096e-01, 1.20202459e-01 ]
      - [ 0., 2.01892518e-02, 2.90671345e-02, 2.83367336e-01,
          2.83367336e-01, 2.83367336e-01, 4.43593748e-02, 1.49445357e-02,
          0., 2.25216523e-01, 4.73790392e-02, 5.53932302e-02,
          1.18925363e-01, 2.83367336e-01, 2.83367336e-01, 1.49485096e-01,
          8.77383649e-02, 1.05557851e-01, 1.17334530e-01, 3.95380110e-02,
          0., 8.68911743e-02, 2.83367336e-01, 1.54360339e-01,
          3.18351649e-02, 5.11972280e-03, 9.93076265e-02, 2.55180031e-01,
          2.74068743e-01, 1.06579931e-02, 2.67870687e-02, 1.59821123e-01,
          7.69349188e-02, 1.79487899e-01, 2.83367336e-01, 2.46501610e-01 ]
      - [ 3.77007648e-02, 4.07346487e-02, 4.33032997e-02, 2.30075344e-01,
          2.93791801e-01, 2.93791801e-01, 1.62595257e-01, 1.09332567e-02,
          0., 1.10654548e-01, 5.44322580e-02, 3.35989408e-02,
          5.99895567e-02, 2.93791801e-01, 2.06459954e-01, 2.93791801e-01,
          8.22604261e-03, 1.48681536e-01, 1.80517167e-01, 3.91253680e-02,
          6.02173200e-03, 9.64558348e-02, 2.93791801e-01, 2.04341248e-01,
          9.42122191e-02, 3.33963521e-02, 7.93385729e-02, 2.93791801e-01,
          1.56024620e-01, 2.37773702e-01, 0., 1.10917985e-01,
          5.59732281e-02, 1.28496841e-01, 1.10892840e-01, 2.93791801e-01 ]
      - [ 3.79951373e-02, 5.51711731e-02, 1.38758868e-01, 2.75750846e-01,
          2.75750846e-01, 1.40522495e-01, 1.50962267e-02, 4.80441656e-03,
          0., 5.88880889e-02, 6.14402406e-02, 0., 2.52171546e-01,
          2.11484164e-01, 2.75750846e-01, 1.10440247e-01, 2.47083396e-01,
          2.75750846e-01, 1.68029785e-01, 7.72892758e-02, 9.94678289e-02,
          1.93322226e-01, 2.75750846e-01, 9.97741520e-02, 5.09573072e-02,
          4.01835628e-02, 1.20360009e-01, 2.48743281e-01, 1.84976012e-01,
          6.72381371e-02, 4.76362705e-02, 2.25351140e-01, 1.73920020e-01,
          2.08089307e-01, 1.59387499e-01, 1.56582698e-01 ]
      - [ 0., 6.22540340e-02, 3.26297581e-02, 3.04708391e-01,
          3.04708391e-01, 2.36546874e-01, 5.68214729e-02, 1.47263659e-02,
          0., 2.16284141e-01, 9.83407050e-02, 1.57479942e-02,
          1.96075272e-02, 8.88552517e-02, 3.04708391e-01, 1.21476062e-01,
          1.04198493e-01, 1.37040898e-01, 1.27523378e-01, 3.86851430e-02,
          1.02587575e-02, 5.93073443e-02, 3.04708391e-01, 7.45307058e-02,
          4.28804308e-02, 5.03388122e-02, 7.17557147e-02, 3.04708391e-01,
          3.04708391e-01, 9.08343028e-03, 2.10543312e-02, 5.50558083e-02,
          3.59605029e-02, 2.05433160e-01, 3.04708391e-01, 3.04708391e-01 ]
      - [ 2.95067817e-01, 1.01750903e-01, 8.62323120e-02, 2.95067817e-01,
          2.95067817e-01, 2.05359399e-01, 2.38987897e-02, 1.45801958e-02,
          4.09814641e-02, 1.01512089e-01, 1.75209455e-02, 5.40427715e-02,
          2.42189184e-01, 2.95067817e-01, 2.95067817e-01, 1.38366908e-01,
          5.23242019e-02, 0., 2.95067817e-01, 9.98405963e-02, 0.,
          7.01450109e-02, 1.70061782e-01, 1.07599743e-01, 1.31836869e-02,
          1.70714736e-01, 2.67064631e-01, 1.66094616e-01, 7.32326135e-02,
          1.06656086e-02, 4.00152802e-02, 2.95067817e-01, 1.19289249e-01,
          9.19056907e-02, 1.21974669e-01, 7.61640668e-02 ]
   decision_functions:
      -
         sv_count: 10
         rho: 9.6690654754638672e-03
         alpha: [ 2.5000000000000000e+00, 2.5000000000000000e+00,
             2.5000000000000000e+00, 2.5000000000000000e+00,
             2.5000000000000000e+00, -2.5000000000000000e+00,
             -2.5000000000000000e+00, -2.5000000000000000e+00,
             -2.5000000000000000e+00, -2.5000000000000000e+00 ]
         index: [ 0, 1, 2, 3, 4, 5, 6, 7, 8, 9 ]
