%YAML:1.0
---
opencv_ml_svm:
   format: 3
   svmType: C_SVC
   kernel:
      type: RBF
      gamma: 5.0000000000000003e-02
   C: 2.5000000000000000e+00
   term_criteria: { epsilon:1.1920928955078125e-07, iterations:1000 }
   var_count: 36
   class_count: 2
   class_labels: !!opencv-matrix
      rows: 2
      cols: 1
      dt: i
      data: [ 21, 28 ]
   sv_total: 10
   support_vectors:
      - [ 0., 1.37292966e-02, 2.27445766e-01, 2.87418306e-01,
          2.87418306e-01, 2.50477999e-01, 0., 0., 0., 6.69809878e-02,
          1.92546360e-02, 0., 0., 2.36172020e-01, 2.32267186e-01,
          1.45170629e-01, 2.67562196e-02, 1.09326556e-01, 2.87418306e-01,
          1.45004034e-01, 6.11020885e-02, 1.34378284e-01, 2.87418306e-01,
          1.21699318e-01, 1.61337882e-01, 5.99117950e-02, 1.87009424e-01,
          2.87418306e-01, 2.12371960e-01, 2.09156796e-01, 4.96467017e-02,
          1.39662996e-01, 3.03127151e-02, 8.60364065e-02, 0.,
          2.87418306e-01 ]
      - [ 2.26166584e-02, 8.88097063e-02, 1.75838768e-01, 2.96680093e-01,
          2.84457743e-01, 2.76399046e-01, 5.03092520e-02, 1.41772963e-02,
          0., 7.27383718e-02, 1.99466422e-02, 0., 0., 1.97319061e-01,
          2.73460478e-01, 1.87552303e-01, 5.53513132e-02, 9.59422812e-02,
          2.70591646e-01, 2.96680093e-01, 1.40279338e-01, 2.17678156e-02,
          2.96680093e-01, 2.16854304e-01, 9.92112905e-02, 1.30071521e-01,
          2.92747151e-02, 2.96680093e-01, 2.96680093e-01, 1.26414374e-01,
          8.41828808e-02, 1.70956962e-02, 0., 3.26200575e-02,
          1.76391285e-02, 3.06953415e-02 ]
      - [ 0., 1.07538372e-01, 2.16169372e-01, 2.66420752e-01,
          2.66420752e-01, 0., 0., 0., 0., 9.31846723e-02, 1.17270127e-02,
          0., 3.09848934e-02, 9.94738936e-02, 2.66420752e-01,
          9.14443135e-02, 5.26568331e-02, 1.20096162e-01, 2.40157321e-01,
          8.13633278e-02, 1.08358264e-01, 2.14741781e-01, 1.81945413e-01,
          2.66420752e-01, 1.24832503e-01, 2.66420752e-01, 2.66420752e-01,
          2.58774251e-01, 8.93325880e-02, 6.79128394e-02, 0.,
          2.66420752e-01, 7.88313374e-02, 3.22936773e-02, 2.66420752e-01,
          2.66420752e-01 ]
      - [ 0., 3.65978628e-02, 1.68282926e-01, 2.93036908e-01,
          2.93036908e-01, 2.93036908e-01, 0., 0., 0., 7.56095350e-02, 0.,
          0., 0., 2.10100319e-02, 6.05576076e-02, 1.87322021e-01,
          3.04523222e-02, 1.16372004e-01, 2.93036908e-01, 1.30182639e-01,
          1.37606025e-01, 5.50590828e-02, 2.93036908e-01, 1.49030477e-01,
          1.84615120e-01, 1.21681124e-01, 2.93036908e-01, 2.93036908e-01,
          2.93036908e-01, 1.55413479e-01, 0., 5.40936626e-02,
          1.94773711e-02, 2.54672784e-02, 0., 2.93036908e-01 ]
      - [ 4.52361926e-02, 7.54057020e-02, 2.59196550e-01, 1.25347331e-01,
          2.82982498e-01, 1.88265964e-01, 0., 0., 0., 6.91362172e-02, 0.,
          1.14270717e-01, 1.34612903e-01, 1.97848573e-01, 2.74265885e-01,
          2.18398347e-01, 1.62031073e-02, 1.15926452e-01, 3.00160259e-01,
          6.23779148e-02, 6.65054321e-02, 7.68613666e-02, 2.88643479e-01,
          2.56624013e-01, 1.02274917e-01, 1.07772321e-01, 1.99459210e-01,
          3.00160259e-01, 7.41609707e-02, 1.32161126e-01, 8.06257203e-02,
          1.97774619e-01, 1.04265496e-01, 7.91396126e-02, 2.94971503e-02,
          3.00160259e-01 ]
      - [ 7.86719024e-02, 2.49418262e-02, 2.88018435e-01, 2.91023165e-01,
          2.91023165e-01, 1.05373196e-01, 2.99994480e-02, 2.66878381e-02,
          7.14201629e-02, 2.91023165e-01, 0., 3.35359760e-02, 0.,
          2.53891706e-01, 2.11262882e-01, 1.42730579e-01, 5.45663200e-02,
          1.00867122e-01, 2.91023165e-01, 1.05930880e-01, 2.13913806e-02,
          4.67369631e-02, 2.00912312e-01, 4.96581607e-02, 2.52306629e-02,
          1.64091542e-01, 1.73062503e-01, 2.91023165e-01, 2.31030896e-01,
          0., 0., 8.57762918e-02, 0., 0., 2.56062806e-01, 2.91023165e-01 ]
      - [ 6.50658384e-02, 1.31744310e-01, 1.45706207e-01, 2.69076794e-01,
          2.69076794e-01, 2.69076794e-01, 5.00119179e-02, 4.58647311e-02,
          1.33504227e-01, 2.69076794e-01, 4.34876904e-02, 0.,
          3.09858862e-02, 2.69076794e-01, 1.65996656e-01, 2.37158582e-01,
          5.32475859e-02, 1.94519669e-01, 2.69076794e-01, 1.00720815e-01,
          0., 9.58410129e-02, 2.69076794e-01, 1.41892761e-01,
          1.19948193e-01, 1.09320581e-01, 1.04988202e-01, 2.69076794e-01,
          2.45833322e-01, 3.86569127e-02, 3.96003425e-02, 4.26272787e-02,
          0., 1.12434831e-02, 1.16370425e-01, 2.69076794e-01 ]
      - [ 4.75371704e-02, 0., 2.93431818e-01, 2.93431818e-01,
          2.93431818e-01, 2.09762119e-02, 4.80092876e-02, 1.80577114e-02,
          3.07091959e-02, 2.93431818e-01, 2.09172741e-02, 2.50495430e-02,
          0., 2.93431818e-01, 1.10260285e-01, 7.44142830e-02,
          1.15607537e-01, 2.93431818e-01, 2.93431818e-01, 6.32750914e-02,
          3.69480774e-02, 6.12915121e-02, 1.97227299e-01, 3.15352343e-02,
          1.21633373e-02, 1.39574319e-01, 2.39531264e-01, 2.93431818e-01,
          3.64707783e-03, 1.56341549e-02, 0., 4.30118181e-02,
          1.69486906e-02, 3.02623957e-02, 2.93431818e-01, 2.39473447e-01 ]
      - [ 3.39323445e-03, 1.25375260e-02, 8.47031474e-02, 2.50877410e-01,
          3.59494835e-01, 1.51561767e-01, 5.64444065e-02, 0.,
          9.52458829e-02, 3.59494835e-01, 6.97600916e-02, 0., 0.,
          1.02750631e-02, 1.86235279e-01, 1.41630620e-01, 6.40971214e-02,
          6.28892183e-02, 2.74166197e-01, 1.15792081e-02, 2.68061031e-02,
          5.54203652e-02, 2.63189256e-01, 5.25090992e-02, 0.,
          2.74436921e-02, 1.01452656e-01, 3.59494835e-01, 2.61346817e-01,
          0., 0., 4.23273183e-02, 3.66091914e-02, 4.12432291e-02,
          2.72885084e-01, 3.59494835e-01 ]
      - [ 2.65372127e-01, 5.61372302e-02, 2.54717499e-01, 2.34700590e-01,
          2.73750216e-01, 7.06863552e-02, 2.86116507e-02, 2.54453477e-02,
          7.97308385e-02, 2.73750216e-01, 6.46306435e-03, 2.49733534e-02,
          9.82739627e-02, 2.73750216e-01, 2.73750216e-01, 8.32262710e-02,
          9.32000279e-02, 9.68409255e-02, 2.73750216e-01, 1.02125615e-01,
          1.72022469e-02, 4.00777757e-02, 1.08272798e-01, 6.80269161e-03,
          0., 1.90351471e-01, 2.73750216e-01, 2.73750216e-01,
          1.29846379e-01, 1.41374755e-03, 0., 6.32415488e-02,
          5.17499857e-02, 0., 2.73750216e-01, 2.73750216e-01 ]
   decision_functions:
      -
         sv_count: 10
         rho: -2.3673325777053833e-02
         alpha: [ 2.5000000000000000e+00, 2.5000000000000000e+00,
             2.5000000000000000e+00, 2.5000000000000000e+00,
             2.5000000000000000e+00, -2.5000000000000000e+00,
             -2.5000000000000000e+00, -2.5000000000000000e+00,
             -2.5000000000000000e+00, -2.5000000000000000e+00 ]
         index: [ 0, 1, 2, 3, 4, 5, 6, 7, 8, 9 ]
