%YAML:1.0
---
opencv_ml_svm:
   format: 3
   svmType: C_SVC
   kernel:
      type: RBF
      gamma: 5.0000000000000003e-02
   C: 2.5000000000000000e+00
   term_criteria: { epsilon:1.1920928955078125e-07, iterations:1000 }
   var_count: 36
   class_count: 7
   class_labels: !!opencv-matrix
      rows: 7
      cols: 1
      dt: i
      data: [ 48, 49, 50, 54, 56, 67, 86 ]
   sv_total: 174
   support_vectors:
      - [ 3.94966304e-02, 1.09429911e-01, 2.67915457e-01, 3.35432231e-01,
          3.35432231e-01, 7.81343598e-03, 0., 8.15933757e-03,
          6.35523722e-03, 0., 0., 0., 8.31667110e-02, 3.35432231e-01,
          3.35432231e-01, 1.78745136e-01, 4.43771034e-02, 5.07648289e-02,
          3.35432231e-01, 3.38776596e-02, 0., 0., 7.80091435e-02,
          1.01346388e-01, 1.01951621e-01, 1.02103136e-01, 1.73646882e-01,
          3.35432231e-01, 2.43694052e-01, 1.82360545e-01, 1.29664049e-01,
          9.26304832e-02, 0., 0., 0., 9.74924192e-02 ]
      - [ 2.19214067e-01, 8.56351480e-02, 1.99679866e-01, 2.86768585e-01,
          2.69595802e-01, 2.18143895e-01, 3.32121849e-02, 3.87457646e-02,
          6.22461513e-02, 3.89791876e-02, 4.49713506e-03, 1.49778519e-02,
          4.63748574e-02, 2.86768585e-01, 2.86768585e-01, 2.86768585e-01,
          3.68016474e-02, 1.18546644e-02, 2.86768585e-01, 1.99381426e-01,
          1.79379620e-02, 0., 2.06357598e-01, 1.01307839e-01,
          1.57680780e-01, 1.31750554e-01, 9.14794505e-02, 2.86768585e-01,
          2.86768585e-01, 1.52082816e-01, 1.15644179e-01, 6.33765236e-02,
          1.37873357e-02, 0., 3.64877097e-02, 1.06663123e-01 ]
      - [ 2.68918537e-02, 6.98938817e-02, 2.88533598e-01, 2.88533598e-01,
          2.88533598e-01, 0., 0., 0., 0., 9.36049223e-02, 3.84414643e-02,
          6.64574374e-03, 2.88533598e-01, 2.74789363e-01, 2.77309060e-01,
          1.52192369e-01, 7.81141669e-02, 2.83107180e-02, 2.88533598e-01,
          3.95376496e-02, 0., 0., 6.93230052e-03, 3.26507464e-02,
          7.61983320e-02, 1.19465187e-01, 2.88533598e-01, 2.38742918e-01,
          1.61800191e-01, 2.88533598e-01, 5.17621115e-02, 1.61546901e-01,
          1.94538408e-03, 1.00477813e-02, 2.83716600e-02, 2.88533598e-01 ]
      - [ 3.23575735e-02, 1.17687946e-02, 1.41924769e-01, 3.17224830e-01,
          3.17224830e-01, 4.56244797e-02, 6.62772777e-03, 9.27309506e-03,
          0., 9.32515785e-02, 3.73788700e-02, 0., 0., 3.17224830e-01,
          2.98539966e-01, 2.44703084e-01, 1.16130240e-01, 7.19880015e-02,
          3.17224830e-01, 0., 1.82240661e-02, 8.52413327e-02,
          1.72592387e-01, 8.88679326e-02, 9.11388621e-02, 5.06305657e-02,
          2.32121035e-01, 3.17224830e-01, 2.52541006e-01, 1.36759043e-01,
          4.87113670e-02, 4.12374502e-03, 0., 0., 0., 3.17224830e-01 ]
      - [ 1.76068410e-01, 1.08545393e-01, 1.32441774e-01, 2.93976068e-01,
          3.37154567e-01, 4.09963019e-02, 0., 8.73867795e-03,
          1.29039222e-02, 0., 0., 1.68811515e-01, 3.11027497e-01,
          3.37154567e-01, 2.89629221e-01, 7.36289173e-02, 4.80251275e-02,
          2.73279585e-02, 3.37154567e-01, 1.90838352e-02, 0.,
          2.34206440e-03, 8.36819224e-03, 3.08119562e-02, 6.01626262e-02,
          1.35053217e-01, 1.80132776e-01, 3.37154567e-01, 2.16780096e-01,
          1.56499356e-01, 1.41803920e-01, 1.66013718e-01, 3.69775742e-02,
          4.49652672e-02, 1.01310397e-02, 2.64855009e-02 ]
      - [ 2.50954837e-01, 2.50954837e-01, 2.50954837e-01, 1.65673673e-01,
          1.85564294e-01, 0., 0., 0., 0., 3.04704476e-02, 0., 0.,
          5.45382947e-02, 1.04493096e-01, 1.30573049e-01, 2.50954837e-01,
          2.50954837e-01, 8.14009756e-02, 2.50954837e-01, 2.23752230e-01,
          0., 1.16237618e-01, 2.50954837e-01, 1.29471213e-01,
          1.59982726e-01, 2.50954837e-01, 1.12466514e-01, 7.96312392e-02,
          2.50954837e-01, 2.50954837e-01, 2.50954837e-01, 1.68770835e-01,
          0., 0., 9.15739611e-02, 2.12288931e-01 ]
      - [ 1.90876890e-02, 2.62087375e-01, 2.12856606e-01, 2.62087375e-01,
          1.12305440e-01, 0., 0., 6.53390680e-03, 0., 0., 0., 0.,
          4.79049459e-02, 2.09231183e-01, 5.47586605e-02, 2.62087375e-01,
          2.62087375e-01, 7.75473341e-02, 6.02327250e-02, 1.93945706e-01,
          0., 0., 2.62087375e-01, 2.62087375e-01, 2.15352803e-01,
          1.82986572e-01, 2.61003703e-01, 1.39118046e-01, 1.18823573e-01,
          2.08965406e-01, 2.62087375e-01, 2.62087375e-01, 0., 0.,
          4.48721498e-02, 2.62087375e-01 ]
      - [ 2.85472184e-01, 2.08772734e-01, 2.85472184e-01, 7.51851276e-02,
          1.13229714e-01, 0., 0., 0., 0., 2.52079312e-02, 0., 0., 0.,
          1.21111110e-01, 6.46793917e-02, 2.85472184e-01, 2.85472184e-01,
          1.07467182e-01, 2.85472184e-01, 0., 0., 1.51872188e-02,
          1.56998217e-01, 1.44293800e-01, 2.40017891e-01, 2.21943483e-01,
          1.87493771e-01, 1.44935682e-01, 2.85472184e-01, 2.85472184e-01,
          2.50002712e-01, 4.09068400e-03, 0., 3.67516442e-03,
          2.97806300e-02, 2.53569782e-01 ]
      - [ 2.41303787e-01, 2.41303787e-01, 2.41303787e-01, 2.27487355e-01,
          2.41303787e-01, 1.34886935e-01, 1.27661914e-01, 1.19731650e-01,
          0., 3.14771347e-02, 0., 0., 0., 3.86932376e-03, 0.,
          2.41303787e-01, 2.41303787e-01, 8.40903148e-02, 2.41303787e-01,
          1.51975468e-01, 1.97972506e-01, 2.41303787e-01, 2.41303787e-01,
          1.33748710e-01, 1.65268257e-01, 2.04357982e-01, 1.61956802e-01,
          9.67397839e-02, 2.41303787e-01, 2.27703139e-01, 1.81268230e-01,
          2.14256812e-02, 0., 0., 9.45993960e-02, 1.73527926e-01 ]
      - [ 2.68694431e-01, 2.68694431e-01, 8.81846324e-02, 6.12653606e-02,
          3.35207582e-02, 0., 0., 0., 0., 5.27248811e-03, 0.,
          1.92070499e-01, 1.76102340e-01, 2.68694431e-01, 1.40745401e-01,
          2.68694431e-01, 2.68694431e-01, 3.37752998e-02, 2.46027321e-01,
          1.43972725e-01, 0., 0., 8.61192718e-02, 7.24829361e-02,
          1.72446266e-01, 2.68694431e-01, 1.21228278e-01, 1.12910166e-01,
          2.36641228e-01, 2.68694431e-01, 2.68694431e-01, 2.68694431e-01,
          6.70747980e-02, 0., 6.47169426e-02, 1.81378424e-01 ]
      - [ 7.57313222e-02, 1.88038990e-01, 2.46814370e-01, 2.60270715e-01,
          3.05690765e-01, 0., 0., 8.43048748e-03, 1.58042815e-02, 0.,
          6.40718313e-03, 0., 0., 2.06762612e-01, 2.92461097e-01,
          3.05690765e-01, 1.82273224e-01, 1.07256398e-01, 3.05690765e-01,
          4.32734489e-02, 0., 0., 1.38586745e-01, 8.57453421e-02,
          1.82701215e-01, 1.73033342e-01, 3.05690765e-01, 3.05690765e-01,
          1.45492673e-01, 1.76984012e-01, 1.33157760e-01, 0., 0., 0., 0.,
          1.66331679e-01 ]
      - [ 1.56581491e-01, 1.13638282e-01, 1.92985147e-01, 3.08022022e-01,
          3.08022022e-01, 5.71619943e-02, 0., 0., 6.61149388e-03,
          6.00147434e-03, 0., 0., 1.08560529e-02, 1.97565511e-01,
          3.08022022e-01, 3.08022022e-01, 1.92367405e-01, 2.70544682e-02,
          3.08022022e-01, 1.52128980e-01, 4.45952080e-02, 2.36845501e-02,
          1.42709151e-01, 9.82208177e-02, 3.08022022e-01, 1.25636056e-01,
          5.48079796e-02, 3.08022022e-01, 3.08022022e-01, 7.84356222e-02,
          7.19095916e-02, 1.52037246e-02, 0., 0., 0., 4.65722475e-03 ]
      - [ 1.04720786e-01, 2.20360890e-01, 2.39385128e-01, 2.82290280e-01,
          2.48701587e-01, 0., 0., 0., 2.08898038e-02, 4.20655049e-02, 0.,
          5.14909532e-03, 0., 2.59888887e-01, 2.81300515e-01,
          2.58630842e-01, 2.30291009e-01, 9.67708528e-02, 2.92734265e-01,
          0., 2.05760021e-04, 0., 4.30566221e-02, 4.76299189e-02,
          1.03836901e-01, 2.07971796e-01, 2.92734265e-01, 2.92734265e-01,
          1.73528835e-01, 8.68423730e-02, 9.16688368e-02, 1.18221402e-01,
          0., 0., 4.97233123e-02, 2.92734265e-01 ]
      - [ 4.35637347e-02, 1.50355980e-01, 2.59819299e-01, 2.42964327e-01,
          3.40543121e-01, 6.74790591e-02, 8.74257684e-02, 5.46662770e-02,
          0., 3.88641953e-02, 8.31710361e-03, 0., 0., 6.12509027e-02,
          2.19103739e-01, 2.85269499e-01, 1.73006192e-01, 1.30437195e-01,
          3.40543121e-01, 4.09774370e-02, 5.99975698e-02, 1.53124586e-01,
          2.15570748e-01, 1.06105246e-01, 6.69633821e-02, 1.49895266e-01,
          3.40543121e-01, 3.40543121e-01, 2.17836887e-01, 1.10121414e-01,
          0., 0., 0., 0., 1.36469463e-02, 1.22714870e-01 ]
      - [ 1.12034202e-01, 1.65684953e-01, 2.67491311e-01, 1.87573180e-01,
          1.11454301e-01, 3.07787955e-02, 0., 4.25712019e-02,
          1.65921133e-02, 0., 5.82345687e-02, 6.16502762e-02,
          8.74804333e-02, 3.01828682e-01, 3.01828682e-01, 2.86180735e-01,
          1.07959531e-01, 3.01637985e-02, 3.01828682e-01, 8.01573042e-03,
          0., 0., 0., 4.69314605e-02, 1.94269791e-01, 2.44381592e-01,
          3.01828682e-01, 3.01828682e-01, 1.31759062e-01, 1.61255315e-01,
          1.50943652e-01, 1.88566640e-01, 5.53185642e-02, 6.56167343e-02,
          0., 2.53360748e-01 ]
      - [ 1.06108725e-01, 1.65679365e-01, 2.95936376e-01, 3.07898343e-01,
          1.99397653e-01, 0., 0., 0., 2.05971431e-02, 6.41071587e-04, 0.,
          1.99636095e-03, 0., 3.07898343e-01, 3.07898343e-01,
          1.71137765e-01, 1.24530554e-01, 7.88072273e-02, 3.07898343e-01,
          0., 0., 0., 3.98506410e-02, 1.16493471e-01, 1.63562834e-01,
          1.53638288e-01, 3.07898343e-01, 3.07898343e-01, 1.04500614e-01,
          1.65278912e-01, 9.42078978e-02, 2.45925486e-01, 0., 0.,
          2.53147036e-02, 1.99902132e-01 ]
      - [ 1.71140924e-01, 9.76175442e-02, 2.43092731e-01, 2.90183723e-01,
          2.91008174e-01, 1.31167974e-02, 0., 0., 2.11849175e-02, 0.,
          9.27463081e-03, 7.59267481e-03, 0., 2.91008174e-01,
          2.91008174e-01, 2.91008174e-01, 7.39325732e-02, 3.10818031e-02,
          2.91008174e-01, 1.66403994e-01, 0., 0., 5.60981929e-02,
          1.58821851e-01, 2.91008174e-01, 8.46243575e-02, 1.48742646e-01,
          2.91008174e-01, 2.91008174e-01, 9.26320255e-02, 4.09029387e-02,
          1.66327551e-01, 0., 6.70689531e-03, 5.48155839e-03,
          9.92842093e-02 ]
      - [ 7.23041743e-02, 2.53499687e-01, 2.38971069e-01, 3.01148832e-01,
          1.03331789e-01, 8.17505177e-03, 0., 8.52072611e-03,
          2.01683380e-02, 0., 0., 0., 6.91879839e-02, 3.01148832e-01,
          3.01148832e-01, 2.47351199e-01, 2.24540889e-01, 4.05340567e-02,
          1.24039456e-01, 0., 0., 3.74066969e-03, 4.21980396e-02, 0.,
          4.39487919e-02, 3.01148832e-01, 3.01148832e-01, 3.01148832e-01,
          5.45256846e-02, 1.26360133e-01, 1.45717040e-01, 2.02980235e-01,
          5.54843284e-02, 5.46684116e-02, 5.25375307e-02, 3.01148832e-01 ]
      - [ 6.32583424e-02, 1.09158784e-01, 2.15926781e-01, 3.09599400e-01,
          3.09599400e-01, 0., 1.80754494e-02, 0., 9.85466223e-03,
          7.29990676e-02, 0., 2.01590615e-03, 0., 1.14206523e-01,
          3.09599400e-01, 1.95703194e-01, 1.80445567e-01, 1.34526134e-01,
          2.71791786e-01, 0., 0., 4.15711664e-02, 2.53744006e-01,
          1.17633983e-01, 1.20005548e-01, 5.68643510e-02, 3.09599400e-01,
          3.09599400e-01, 2.19742224e-01, 1.66897058e-01, 5.35590686e-02,
          1.06337667e-02, 0., 0., 6.33209273e-02, 3.09599400e-01 ]
      - [ 1.58382148e-01, 1.28932312e-01, 2.44759083e-01, 1.68239206e-01,
          1.53409570e-01, 0., 0., 2.96859387e-02, 9.07340087e-03, 0.,
          5.69610111e-02, 9.50188264e-02, 2.33019695e-01, 3.20287734e-01,
          3.20287734e-01, 8.39879662e-02, 3.88004817e-02, 1.06897146e-01,
          3.20287734e-01, 0., 0., 0., 0., 5.86188324e-02, 1.21212557e-01,
          1.25533804e-01, 3.20287734e-01, 3.20287734e-01, 8.11553001e-02,
          7.05507845e-02, 1.15802862e-01, 2.36425698e-01, 1.58378020e-01,
          0., 6.06374554e-02, 3.20287734e-01 ]
      - [ 9.60249975e-02, 1.34159923e-01, 2.47248113e-01, 2.09323868e-01,
          3.68032336e-01, 0., 0., 0., 1.62362377e-03, 1.36774387e-02, 0.,
          6.08077385e-02, 1.65141970e-01, 3.68032336e-01, 3.25935394e-01,
          1.30033776e-01, 3.96538079e-02, 5.50639108e-02, 3.68032336e-01,
          3.22157796e-03, 0., 0., 1.46008171e-02, 2.56751068e-02,
          8.79148766e-02, 1.36296600e-01, 1.79025054e-01, 3.68032336e-01,
          1.12854123e-01, 1.65751815e-01, 9.77481082e-02, 1.65439218e-01,
          9.36615616e-02, 0., 6.19913032e-03, 1.48157641e-01 ]
      - [ 1.56961277e-01, 1.34816721e-01, 2.39931569e-01, 1.19799972e-01,
          1.62093326e-01, 2.95712233e-01, 4.22130078e-02, 0.,
          3.68670709e-02, 1.84236690e-02, 0., 0., 1.26014888e-01,
          3.28799427e-01, 3.28799427e-01, 2.77444750e-01, 5.90134561e-02,
          1.14682475e-02, 3.28799427e-01, 3.46585773e-02, 0., 0., 0.,
          3.76792699e-02, 1.48338407e-01, 2.17761979e-01, 1.33394226e-01,
          3.28799427e-01, 3.04037392e-01, 4.70300913e-02, 8.68804455e-02,
          1.80350512e-01, 6.50417060e-02, 0., 4.37681414e-02,
          9.19319838e-02 ]
      - [ 4.43089642e-02, 1.63805425e-01, 2.86272645e-01, 2.86272645e-01,
          2.86272645e-01, 1.33954594e-02, 7.98359280e-04, 7.62767252e-03,
          1.86920501e-02, 1.07379943e-01, 1.20923873e-02, 1.15717664e-01,
          2.86272645e-01, 2.85476059e-01, 2.52286524e-01, 9.71942395e-02,
          5.15865758e-02, 7.50462189e-02, 2.86272645e-01, 4.50864248e-03,
          7.76586728e-03, 0., 0., 2.31396724e-02, 4.07584012e-02,
          1.42899692e-01, 2.86272645e-01, 2.86272645e-01, 1.27733514e-01,
          1.79810345e-01, 1.00235909e-01, 1.93811670e-01, 3.60913612e-02,
          7.47202337e-02, 3.47457007e-02, 2.86272645e-01 ]
      - [ 6.59338608e-02, 1.18767522e-01, 2.81115174e-01, 3.02243590e-01,
          3.02243590e-01, 0., 0., 4.44372330e-04, 0., 1.79602742e-01, 0.,
          0., 4.52064537e-02, 3.02243590e-01, 3.02243590e-01,
          1.38459221e-01, 7.79337808e-02, 9.61493328e-02, 3.02243590e-01,
          2.62936559e-02, 0., 0., 8.31709802e-02, 5.01162708e-02,
          1.60571337e-01, 1.07541576e-01, 3.02243590e-01, 3.02243590e-01,
          1.53486252e-01, 1.43312812e-01, 9.78068709e-02, 4.04325835e-02,
          0., 5.40088257e-03, 1.12254387e-02, 3.02243590e-01 ]
      - [ 1.79997995e-01, 9.56881866e-02, 2.45399505e-01, 9.72052887e-02,
          3.71933430e-01, 0., 4.18461673e-02, 0., 0., 3.36094126e-02,
          5.39569259e-02, 1.03340417e-01, 3.46922040e-01, 3.71933430e-01,
          2.13497609e-01, 9.09086540e-02, 1.07920431e-02, 5.40283211e-02,
          3.71933430e-01, 3.75449331e-03, 0., 7.51399109e-03,
          5.11389168e-04, 0., 9.25523788e-02, 1.01499408e-01,
          1.09856196e-01, 3.71933430e-01, 8.11048970e-02, 1.31168172e-01,
          6.83773607e-02, 2.17808351e-01, 8.31428617e-02, 0.,
          6.09452277e-02, 1.55550852e-01 ]
      - [ 3.40633631e-01, 1.45981297e-01, 0., 0., 7.44136050e-02, 0., 0.,
          0., 8.73778015e-02, 3.40633631e-01, 1.47766694e-01, 0., 0.,
          3.40633631e-01, 0., 3.20364125e-02, 1.44901350e-01,
          2.07665831e-01, 3.40633631e-01, 0., 0., 0., 0., 4.84684780e-02,
          1.31146684e-01, 1.38336867e-01, 2.13995397e-01, 3.40633631e-01,
          1.58992857e-01, 0., 0., 1.30948320e-01, 2.33859748e-01, 0.,
          2.73925085e-02, 3.40633631e-01 ]
      - [ 2.83457577e-01, 7.77712911e-02, 1.06621124e-01, 0.,
          9.69023257e-02, 0., 0., 0., 2.51292378e-01, 2.83457577e-01,
          1.37434274e-01, 0., 0., 2.83457577e-01, 2.60720402e-02,
          1.36386007e-01, 0., 2.83457577e-01, 2.83457577e-01, 0., 0., 0.,
          0., 4.72976714e-02, 1.26127124e-01, 2.39107698e-01,
          2.83457577e-01, 2.83457577e-01, 2.19112143e-01, 9.30504203e-02,
          0., 1.27167761e-01, 2.08722979e-01, 0., 1.93307832e-01,
          2.83457577e-01 ]
      - [ 3.19590092e-01, 1.50082424e-01, 0., 8.31324086e-02, 0., 0., 0.,
          0., 1.07787341e-01, 3.19590092e-01, 1.35134697e-01, 0., 0.,
          2.76094586e-01, 8.26176479e-02, 6.81177452e-02, 2.18813121e-01,
          1.81749120e-01, 3.19590092e-01, 0., 0., 0., 0., 0.,
          1.90499440e-01, 1.70269445e-01, 2.67049074e-01, 3.19590092e-01,
          1.81010768e-01, 0., 1.04653589e-01, 0., 2.40277007e-01, 0.,
          1.52782649e-01, 3.19590092e-01 ]
      - [ 3.48009378e-01, 2.67835617e-01, 0., 0., 3.48009378e-01, 0.,
          2.92103849e-02, 1.32119164e-01, 1.98644459e-01, 3.48009378e-01,
          0., 0., 0., 1.44655323e-02, 0., 0., 0., 7.03724921e-02,
          3.48009378e-01, 1.44967631e-01, 0., 0., 1.19396977e-01,
          2.57423222e-01, 1.19577847e-01, 1.51109889e-01, 3.48009378e-01,
          3.48009378e-01, 0., 0., 0., 0., 0., 0., 0., 0. ]
      - [ 3.99531089e-02, 0., 0., 0., 0., 0., 0., 0., 0., 4.25731361e-01,
          2.70766973e-01, 0., 0., 3.83340299e-01, 0., 2.95300819e-02,
          1.33565158e-01, 2.71961212e-01, 0., 0., 0., 0., 0., 0., 0., 0.,
          0., 4.25731361e-01, 1.46554247e-01, 0., 0., 1.20703727e-01,
          2.60240614e-01, 1.20886579e-01, 1.52763739e-01, 4.25731361e-01 ]
      - [ 3.18147868e-01, 1.04041845e-01, 0., 1.24049053e-01,
          1.18783891e-01, 0., 0., 2.90671498e-01, 1.13515951e-01,
          3.18147868e-01, 1.42991841e-01, 0., 0., 7.66304508e-02, 0.,
          1.53504074e-01, 3.18147868e-01, 1.58426404e-01, 3.18147868e-01,
          1.11270837e-01, 0., 0., 7.97964483e-02, 0., 1.33789659e-01,
          2.82826632e-01, 1.70548454e-01, 3.18147868e-01, 1.57709718e-01,
          0., 1.15745842e-01, 1.33431524e-01, 0., 0., 1.33524999e-01,
          2.48196915e-01 ]
      - [ 2.95251042e-01, 1.44998059e-01, 5.70121221e-02, 8.38734731e-02,
          8.83385539e-02, 0., 0., 2.34787986e-01, 2.95251042e-01,
          2.95251042e-01, 1.61558673e-01, 0., 4.59579052e-03, 0.,
          1.05219692e-01, 1.19262695e-01, 2.95251042e-01, 1.14470921e-01,
          2.95251042e-01, 1.09753974e-01, 0., 0., 0., 8.28366950e-02,
          1.34109825e-01, 2.82164216e-01, 1.65139988e-01, 2.95251042e-01,
          1.87174633e-01, 1.90040413e-02, 1.41119733e-01, 8.45626369e-02,
          0., 0., 2.95251042e-01, 1.57436028e-01 ]
      - [ 3.01440567e-01, 0., 1.47674426e-01, 1.14871629e-01,
          1.03465609e-01, 0., 0., 4.64325175e-02, 3.01440567e-01,
          3.01440567e-01, 1.42982483e-01, 0., 0., 8.77475515e-02,
          5.35597838e-03, 3.01440567e-01, 1.79338321e-01, 2.38514677e-01,
          3.01440567e-01, 1.12121627e-01, 0., 0., 1.11954711e-01,
          1.09759286e-01, 0., 2.77399212e-01, 1.65926129e-01,
          3.01440567e-01, 1.61837578e-01, 4.78710458e-02, 1.16810717e-01,
          1.38086244e-01, 0., 0., 1.76416799e-01, 2.36137465e-01 ]
      - [ 3.45676333e-01, 2.20235899e-01, 0., 1.10592440e-01,
          1.74216151e-01, 0., 1.36852235e-01, 3.45676333e-01,
          2.42442548e-01, 2.81963617e-01, 0., 0., 0., 0., 0., 0., 0., 0.,
          3.45676333e-01, 2.39802033e-01, 0., 1.03189945e-01,
          1.90097392e-01, 0., 1.19276404e-01, 3.45676333e-01,
          3.45676333e-01, 1.89541757e-01, 0., 0., 0., 0., 0., 0., 0., 0. ]
      - [ 1.31142467e-01, 0., 0., 0., 0., 0., 0., 0., 0., 3.65077078e-01,
          2.21921012e-01, 0., 1.11438625e-01, 1.75549150e-01, 0.,
          1.37899339e-01, 3.65077078e-01, 2.44297564e-01, 1.57718554e-01,
          0., 0., 0., 0., 0., 0., 0., 0., 3.65077078e-01, 2.41636842e-01,
          0., 1.03979491e-01, 1.91551894e-01, 0., 1.20189033e-01,
          3.65077078e-01, 3.65077078e-01 ]
      - [ 2.95780271e-01, 1.48461446e-01, 1.20279536e-01, 0.,
          7.12576509e-02, 0., 0., 1.11703679e-01, 2.11249053e-01,
          2.95780271e-01, 1.26181573e-01, 0., 0., 2.54475772e-01, 0., 0.,
          1.42405972e-01, 2.72821456e-01, 2.95780271e-01, 1.10432833e-01,
          0., 0., 9.09686461e-02, 1.05502337e-01, 0., 1.60353363e-01,
          2.95780271e-01, 2.95780271e-01, 1.28660306e-01, 9.91164967e-02,
          1.76324427e-01, 9.99655128e-02, 0., 0., 2.76094854e-01,
          2.95780271e-01 ]
      - [ 2.84801483e-01, 2.84801483e-01, 2.66027134e-02, 6.26378581e-02,
          0., 0., 0., 5.64123839e-02, 2.84801483e-01, 2.84801483e-01,
          1.26079842e-01, 0., 0., 9.39468294e-02, 1.53757200e-01, 0.,
          1.28909394e-01, 2.84801483e-01, 2.84801483e-01, 1.03383921e-01,
          0., 0., 2.08688844e-02, 1.71440974e-01, 0., 2.56061405e-01,
          2.84801483e-01, 2.84801483e-01, 1.43752486e-01, 9.77873430e-02,
          1.92192212e-01, 7.95925632e-02, 0., 1.32722378e-01, 0.,
          2.84801483e-01 ]
      - [ 2.71685719e-01, 2.71685719e-01, 1.12223841e-01, 0.,
          6.40808120e-02, 0., 0., 1.49859980e-01, 2.42697805e-01,
          2.71685719e-01, 8.03431347e-02, 0., 0., 2.32285053e-01, 0.,
          2.91777048e-02, 2.71685719e-01, 1.79947957e-01, 2.71685719e-01,
          1.08205847e-01, 0., 0., 9.38350931e-02, 9.67805758e-02,
          8.00412297e-02, 2.10191056e-01, 2.22249299e-01, 2.71685719e-01,
          2.71685719e-01, 9.67609659e-02, 1.70589462e-01, 9.60563123e-02,
          0., 6.52438924e-02, 1.89687967e-01, 2.71685719e-01 ]
      - [ 3.12792480e-01, 2.50064343e-01, 1.09515339e-01, 0.,
          2.96582490e-01, 0., 0., 2.31368586e-01, 3.12792480e-01,
          3.12792480e-01, 0., 0., 0., 0., 0., 0., 0., 0., 3.12792480e-01,
          2.17695951e-01, 9.02462527e-02, 1.60544604e-01, 1.73846856e-01,
          9.60605964e-02, 0., 3.12792480e-01, 3.12792480e-01,
          2.20700726e-01, 0., 0., 0., 0., 0., 0., 0., 1.65762261e-01 ]
      - [ 1.63911983e-01, 0., 0., 0., 0., 0., 0., 0., 0., 3.45181257e-01,
          2.51978040e-01, 1.10353440e-01, 0., 2.98852175e-01, 0., 0.,
          2.33139202e-01, 3.45181257e-01, 1.88225448e-01, 0., 0., 0., 0.,
          0., 0., 0., 0., 3.45181257e-01, 2.19361931e-01, 9.09368843e-02,
          1.61773220e-01, 1.75177276e-01, 9.67957303e-02, 0.,
          3.45181257e-01, 3.45181257e-01 ]
      - [ 2.91748285e-01, 7.84195289e-02, 1.01411588e-01, 0.,
          4.43250209e-01, 1.77704599e-02, 0., 0., 0., 2.41358623e-01,
          5.52313812e-02, 1.93534978e-02, 1.21449478e-01, 4.43250209e-01,
          7.90680051e-02, 5.00882901e-02, 6.36009499e-02, 9.25551727e-02,
          4.43250209e-01, 2.14011203e-02, 0., 0., 0., 0., 0.,
          2.33585332e-02, 1.15727097e-01, 4.43250209e-01, 0., 0., 0., 0.,
          0., 5.89067815e-03, 0., 4.24089842e-03 ]
      - [ 3.12381685e-01, 1.17066674e-01, 4.84955609e-02, 2.32902206e-02,
          1.17229968e-01, 3.91789943e-01, 1.70007013e-02, 2.40845103e-02,
          3.19044925e-02, 2.37775370e-01, 2.45351475e-02, 0.,
          6.47733063e-02, 3.91789943e-01, 3.91789943e-01, 7.80393407e-02,
          9.87791196e-02, 8.91695619e-02, 3.91789943e-01, 7.67537802e-02,
          0., 0., 0., 0., 0., 5.89590445e-02, 8.49579200e-02,
          3.91789943e-01, 3.04613635e-02, 6.32010866e-03, 0.,
          4.83670126e-04, 0., 0., 0., 2.37070653e-03 ]
      - [ 1.78805277e-01, 1.29880026e-01, 5.63422143e-02, 3.21658373e-01,
          3.21658373e-01, 4.22744043e-02, 2.18980573e-02, 0.,
          1.01346500e-01, 2.53797948e-01, 4.28996459e-02, 4.68445830e-02,
          3.21658373e-01, 2.40758479e-01, 5.08576557e-02, 3.68758179e-02,
          7.32555687e-02, 2.29769036e-01, 3.21658373e-01, 0., 0., 0., 0.,
          0., 0., 6.57396540e-02, 3.21658373e-01, 3.21658373e-01,
          1.33437335e-01, 0., 1.67821199e-02, 0., 0., 1.64498296e-02, 0.,
          3.21658373e-01 ]
      - [ 3.18706959e-01, 1.01508804e-01, 8.58814418e-02, 9.46585238e-02,
          4.05266523e-01, 6.55089831e-03, 1.65688246e-02, 0., 0.,
          2.51230150e-01, 0., 0., 8.50822031e-02, 4.05266523e-01,
          1.44079506e-01, 7.84273371e-02, 6.87132552e-02, 2.15870455e-01,
          4.05266523e-01, 7.18176598e-03, 0., 0., 0., 0., 0.,
          4.61203568e-02, 2.52466083e-01, 4.05266523e-01, 0., 0., 0., 0.,
          0., 0., 0., 0. ]
      - [ 2.26059228e-01, 6.41960278e-02, 0., 2.95207426e-02,
          4.40727323e-01, 7.64918998e-02, 3.90522741e-02, 0., 0.,
          3.07996809e-01, 1.13769591e-01, 8.28419551e-02, 1.06965490e-01,
          4.40727323e-01, 8.59628096e-02, 5.14285676e-02, 6.72453791e-02,
          7.19335154e-02, 4.40727323e-01, 4.52388972e-02, 0., 0., 0., 0.,
          0., 0., 9.17255953e-02, 4.40727323e-01, 1.42495232e-02,
          4.26503783e-03, 0., 1.16690984e-02, 0., 0., 0., 5.39245345e-02 ]
      - [ 2.92925745e-01, 9.16144624e-02, 1.42449528e-01, 8.35381672e-02,
          2.37872750e-02, 0., 0., 0., 2.92925745e-01, 2.92925745e-01,
          1.51069477e-01, 0., 0., 1.20270357e-01, 1.86867058e-01,
          1.66801438e-02, 2.10074648e-01, 1.41514152e-01, 2.92925745e-01,
          0., 0., 0., 0., 1.02772772e-01, 0., 2.10963100e-01,
          2.92925745e-01, 2.92925745e-01, 2.32384667e-01, 1.80780366e-01,
          3.14161740e-02, 1.05760984e-01, 0., 0., 2.69380301e-01,
          2.92925745e-01 ]
      - [ 2.81219870e-01, 2.21341506e-01, 1.40707433e-01, 0.,
          7.23753422e-02, 0., 0., 0., 2.81219870e-01, 2.81219870e-01,
          1.38925239e-01, 0., 0., 2.81219870e-01, 0., 1.05540276e-01,
          7.72948712e-02, 2.64127076e-01, 2.81219870e-01, 0., 0., 0., 0.,
          8.42771083e-02, 0., 2.26655319e-01, 2.81219870e-01,
          2.81219870e-01, 2.51942903e-01, 8.21729973e-02, 8.89666229e-02,
          1.15422614e-01, 0., 1.63201913e-02, 2.24728972e-01,
          2.55914956e-01 ]
      - [ 3.98251027e-01, 1.38178989e-01, 1.40472561e-01, 0.,
          3.63528639e-01, 0., 0., 1.56046897e-01, 3.98251027e-01,
          2.71457464e-01, 0., 0., 0., 0., 0., 0., 0., 0., 3.98251027e-01,
          4.02625725e-02, 1.34494126e-01, 0., 1.41312152e-01,
          8.93805549e-02, 0., 6.38304800e-02, 3.98251027e-01,
          2.11715832e-01, 0., 0., 0., 0., 0., 0., 0., 0. ]
      - [ 0., 0., 0., 0., 0., 0., 0., 0., 0., 4.40767258e-01,
          1.37619361e-01, 1.39903650e-01, 0., 3.62056345e-01, 0., 0.,
          1.55414909e-01, 4.12614495e-01, 4.29819636e-02, 0., 0., 0., 0.,
          0., 0., 0., 0., 4.40767258e-01, 4.00995091e-02, 1.33949414e-01,
          0., 1.40739828e-01, 8.90185609e-02, 0., 6.35719672e-02,
          4.40767258e-01 ]
      - [ 1.52459666e-01, 3.27437557e-02, 2.31134653e-01, 2.29170009e-01,
          2.86263108e-01, 0., 6.71935156e-02, 4.30639833e-02, 0.,
          1.25139967e-01, 1.45661712e-01, 2.65265465e-01, 9.22132749e-03,
          2.44625151e-01, 1.14176117e-01, 2.43396461e-01, 7.15386868e-02,
          1.67195633e-01, 1.12118222e-01, 1.20672025e-01, 2.86263108e-01,
          1.14470370e-01, 2.86263108e-01, 1.39256731e-01, 1.27944604e-01,
          7.30930641e-02, 2.70845629e-02, 4.45157327e-02, 1.13069765e-01,
          2.86263108e-01, 2.86263108e-01, 2.86263108e-01, 0.,
          4.82963659e-02, 0., 0. ]
      - [ 5.67353405e-02, 1.93638392e-02, 1.34145126e-01, 2.80155271e-01,
          2.80155271e-01, 1.45822555e-01, 7.58361816e-02, 2.43532490e-02,
          1.20017685e-01, 2.03508303e-01, 1.48388386e-01, 1.51126519e-01,
          5.60832806e-02, 2.80155271e-01, 1.68588310e-01, 2.13043705e-01,
          1.33340925e-01, 1.00812741e-01, 8.14065933e-02, 1.11770533e-01,
          2.70856827e-01, 1.59017235e-01, 2.35334173e-01, 1.39568478e-01,
          2.80155271e-01, 1.23791926e-01, 0., 0., 1.56965330e-01,
          1.85272753e-01, 2.80155271e-01, 2.80155271e-01, 6.49734586e-02,
          5.42444512e-02, 0., 1.48686543e-02 ]
      - [ 2.21535657e-02, 1.54819727e-01, 2.78403103e-01, 2.88864136e-01,
          1.42758965e-01, 8.38755518e-02, 7.56292045e-02, 5.53289838e-02,
          8.48041698e-02, 1.72748849e-01, 2.26086646e-01, 1.29025489e-01,
          4.31391262e-02, 2.66234249e-01, 1.76958859e-01, 2.18494266e-01,
          9.57687274e-02, 1.66471183e-01, 1.81703061e-01, 2.02586740e-01,
          2.88864136e-01, 1.19588062e-01, 2.07985520e-01, 2.04485983e-01,
          7.00055659e-02, 6.95505515e-02, 2.98844017e-02, 5.31199947e-02,
          1.03425249e-01, 2.88864136e-01, 2.88864136e-01, 1.83110937e-01,
          2.77656820e-02, 4.77148443e-02, 2.07506157e-02, 0. ]
      - [ 1.27515361e-01, 8.78951624e-02, 2.99077779e-01, 2.47235894e-01,
          2.99077779e-01, 1.18412159e-01, 6.96864575e-02, 4.87704426e-02,
          5.76792732e-02, 1.29782781e-01, 9.71293375e-02, 1.46091595e-01,
          0., 4.42073196e-02, 0., 2.52426714e-01, 7.00840950e-02,
          1.15719475e-01, 4.51785512e-02, 1.82692215e-01, 2.99077779e-01,
          2.99077779e-01, 2.99077779e-01, 1.44423291e-01, 1.32691473e-01,
          7.58048892e-02, 2.80894246e-02, 1.01138614e-01, 8.39366019e-02,
          1.74358442e-01, 2.99077779e-01, 2.99077779e-01, 0.,
          5.00882082e-02, 0., 4.44308072e-02 ]
      - [ 1.39626697e-01, 3.71929482e-02, 9.32965726e-02, 1.92960333e-02,
          3.17702889e-01, 0., 7.18542114e-02, 4.59962934e-02, 0.,
          1.09444052e-01, 1.51419014e-01, 3.17702889e-01, 1.57889366e-01,
          3.17702889e-01, 1.20673381e-01, 2.69327641e-01, 1.13831133e-01,
          1.20812595e-01, 9.05057192e-02, 7.29364380e-02, 3.17702889e-01,
          0., 8.14233273e-02, 1.48314029e-01, 1.34902745e-01,
          7.64094591e-02, 2.63655242e-02, 4.67802808e-02, 1.12578787e-01,
          3.17702889e-01, 3.17702889e-01, 3.17702889e-01, 0., 0., 0., 0. ]
      - [ 8.02878588e-02, 2.22393811e-01, 1.29999593e-01, 3.00006181e-01,
          2.80027926e-01, 3.36679853e-02, 6.15134053e-02, 0.,
          4.55441177e-02, 1.72990605e-01, 1.01157419e-01, 2.72932321e-01,
          5.13882115e-02, 2.52657056e-01, 2.16851175e-01, 6.82255030e-02,
          3.78668495e-02, 2.39751171e-02, 9.83804092e-02, 1.21134713e-01,
          3.00006181e-01, 1.40054837e-01, 3.00006181e-01, 2.02386245e-01,
          7.40249231e-02, 0., 1.05680719e-01, 0., 0., 2.23431155e-01,
          3.00006181e-01, 3.00006181e-01, 0., 0., 7.38700256e-02, 0. ]
      - [ 9.63186473e-02, 8.64390880e-02, 2.37606391e-01, 2.85427570e-01,
          1.70531183e-01, 1.52274325e-01, 9.15530100e-02, 4.88404781e-02,
          2.21558977e-02, 6.68861717e-02, 1.45520926e-01, 2.31469318e-01,
          5.98101392e-02, 2.04463720e-01, 2.85427570e-01, 1.33712202e-01,
          6.20037243e-02, 1.28012255e-01, 0., 1.16016664e-01,
          2.80218124e-01, 8.86173919e-02, 2.85427570e-01, 1.80865034e-01,
          2.03902572e-01, 9.39691737e-02, 1.04968362e-01, 0., 0.,
          1.09605804e-01, 2.85427570e-01, 2.85427570e-01, 2.85427570e-01,
          0., 7.46123120e-02, 1.34313041e-02 ]
      - [ 1.58407405e-01, 7.27573931e-02, 2.80034423e-01, 2.86849558e-01,
          1.46537781e-01, 7.29940757e-02, 8.18018019e-02, 0.,
          5.03662638e-02, 1.42854422e-01, 1.95147693e-01, 1.19810954e-01,
          1.10106729e-01, 2.86849558e-01, 1.32417515e-01, 1.10162690e-01,
          5.76971807e-02, 5.56389913e-02, 2.51633018e-01, 2.86849558e-01,
          1.60779744e-01, 1.25176013e-01, 2.70309150e-01, 2.30439633e-01,
          6.05328307e-02, 3.69674452e-02, 2.60074418e-02, 1.81288794e-02,
          2.67637782e-02, 2.86849558e-01, 2.86849558e-01, 2.86259353e-01,
          0., 0., 5.46226539e-02, 0. ]
      - [ 3.85677107e-02, 2.31751040e-01, 2.25015059e-01, 3.24206322e-01,
          3.24206322e-01, 8.94397125e-02, 6.68134838e-02, 0.,
          4.74603884e-02, 1.41701490e-01, 1.05413623e-01, 1.94870219e-01,
          0., 2.36949977e-02, 1.71620041e-01, 6.83841780e-02,
          3.94601002e-02, 2.49838717e-02, 6.04870990e-02, 6.36664927e-02,
          3.24206322e-01, 2.56854296e-01, 3.24206322e-01, 1.88119337e-01,
          7.71395266e-02, 0., 5.16723953e-02, 1.02840863e-01, 0.,
          9.25306603e-02, 3.24206322e-01, 3.24206322e-01, 0., 0.,
          7.69781098e-02, 0. ]
      - [ 8.54758620e-02, 9.70561206e-02, 1.35644734e-01, 2.11646900e-01,
          2.08764821e-01, 0., 6.49050996e-02, 0., 0., 1.42165199e-01,
          2.25501403e-01, 2.74323553e-01, 2.65366793e-01, 3.07915539e-01,
          2.46199518e-01, 1.42110199e-01, 3.10778394e-02, 7.79824033e-02,
          8.73557478e-02, 6.81640878e-02, 3.07915539e-01, 0.,
          8.96970928e-02, 2.59777904e-01, 7.48783052e-02, 4.55867033e-03,
          7.47494027e-02, 5.98607175e-02, 0., 2.91451097e-01,
          3.07915539e-01, 3.07915539e-01, 0., 2.25156685e-03, 0.,
          2.98451073e-02 ]
      - [ 6.45544827e-02, 0., 2.67937988e-01, 2.67937988e-01,
          2.49946728e-01, 1.13220789e-01, 0., 2.96897404e-02,
          5.39836399e-02, 1.70234546e-01, 2.11261898e-01, 2.45437056e-01,
          2.50639440e-03, 1.54058516e-01, 1.67015284e-01, 2.67564148e-01,
          2.68115196e-02, 1.11788802e-01, 9.34658796e-02, 2.14809299e-01,
          2.67937988e-01, 1.14624193e-02, 2.26906702e-01, 7.62931332e-02,
          2.67937988e-01, 4.12061177e-02, 9.12537649e-02, 0.,
          1.06657185e-01, 2.67937988e-01, 2.67937988e-01, 2.67937988e-01,
          8.98424163e-02, 0., 4.61279973e-02, 0. ]
      - [ 1.07179672e-01, 4.31292281e-02, 2.67138898e-01, 2.67138898e-01,
          2.67138898e-01, 1.02593854e-01, 6.64267763e-02, 5.63998334e-02,
          5.90907829e-03, 7.51841366e-02, 9.20849815e-02, 2.67138898e-01,
          0., 1.84833631e-01, 1.26555443e-01, 2.67138898e-01,
          5.78561798e-02, 1.87060043e-01, 5.03187813e-02, 1.14659190e-01,
          2.67138898e-01, 1.86186004e-02, 2.16026530e-01, 9.98065099e-02,
          2.67138898e-01, 1.41587317e-01, 1.27596006e-01, 0.,
          4.87708561e-02, 2.41728693e-01, 2.67138898e-01, 2.67138898e-01,
          2.18694910e-01, 5.34247644e-02, 3.41154970e-02, 4.40481342e-02 ]
      - [ 6.53342158e-02, 1.84537113e-01, 2.89512902e-01, 2.89512902e-01,
          1.72120318e-01, 4.14553098e-02, 3.54806557e-02, 4.57512103e-02,
          5.26076928e-02, 1.66885301e-01, 2.76706249e-01, 2.26992264e-01,
          5.61499037e-03, 8.39433223e-02, 2.89512902e-01, 1.48262128e-01,
          7.61018172e-02, 9.18970332e-02, 1.47123143e-01, 2.89512902e-01,
          8.54703858e-02, 0., 1.46326065e-01, 1.80188194e-01,
          1.88047573e-01, 7.09674731e-02, 9.62825939e-02, 8.49681795e-02,
          1.67130604e-01, 2.89512902e-01, 2.89512902e-01, 2.05913588e-01,
          9.44708139e-02, 2.38605998e-02, 5.02395369e-02, 0. ]
      - [ 5.46105802e-02, 1.35720652e-02, 2.67928749e-01, 2.67928749e-01,
          2.67928749e-01, 2.02506125e-01, 9.52980593e-02, 3.13131586e-02,
          9.55472514e-02, 1.31548211e-01, 2.09241539e-01, 1.51724622e-01,
          0., 3.15504484e-02, 9.30531174e-02, 1.86896339e-01,
          2.82775611e-02, 7.92895481e-02, 4.43461128e-02, 2.26554960e-01,
          2.67928749e-01, 2.67928749e-01, 2.67928749e-01, 1.20996475e-01,
          2.67928749e-01, 4.34592515e-02, 9.62434784e-02, 5.93973659e-02,
          1.12489149e-01, 2.32826754e-01, 2.67928749e-01, 2.67928749e-01,
          5.42232841e-02, 0., 4.86502536e-02, 0. ]
      - [ 6.97551742e-02, 0., 1.53864786e-01, 1.85398251e-01,
          1.31324768e-01, 9.49225426e-02, 0., 3.20816264e-02,
          5.66789731e-02, 7.04881325e-02, 2.28281736e-01, 3.09572279e-01,
          2.02564150e-01, 3.05228263e-01, 2.07890108e-01, 2.89119840e-01,
          2.89715286e-02, 1.22448541e-01, 5.55613227e-02, 2.32114911e-01,
          1.52110934e-01, 0., 3.19247730e-02, 0., 2.87943065e-01,
          4.45257984e-02, 5.67567386e-02, 4.54344265e-02, 1.62268393e-02,
          3.09572279e-01, 3.09572279e-01, 3.09572279e-01, 1.23965889e-01,
          2.54368670e-02, 0., 4.18486744e-02 ]
      - [ 0., 7.65877962e-02, 2.04796702e-01, 3.44409198e-01,
          3.09425682e-01, 9.11575779e-02, 3.45365927e-02, 3.90769839e-02,
          3.24838459e-02, 9.81498286e-02, 2.49245483e-02, 0.,
          7.27943843e-03, 3.44409198e-01, 3.44409198e-01, 2.24579841e-01,
          2.61563342e-02, 7.49223726e-03, 2.24347249e-01, 6.17172234e-02,
          3.44409198e-01, 3.60506848e-02, 1.01153657e-01, 0., 0.,
          1.60811394e-02, 8.65097996e-03, 3.65152694e-02, 3.57735567e-02,
          3.44409198e-01, 3.16771418e-02, 3.44409198e-01, 2.43638661e-02,
          2.23993007e-02, 0., 2.13473998e-02 ]
      - [ 0., 0., 7.29085281e-02, 2.87156641e-01, 2.87156641e-01,
          2.09616885e-01, 4.89083491e-02, 8.19658339e-02, 0.,
          1.03478115e-02, 4.42643277e-03, 0., 0., 2.87156641e-01,
          2.87156641e-01, 2.83426672e-01, 9.78040174e-02, 0.,
          1.92568734e-01, 5.33933453e-02, 2.87156641e-01, 2.87156641e-01,
          1.09954551e-01, 6.46769702e-02, 6.12654909e-02, 6.44057095e-02,
          7.67277256e-02, 1.12019092e-01, 2.57045366e-02, 2.25074142e-01,
          2.87156641e-01, 2.79366374e-01, 2.47570634e-01, 1.55817466e-02,
          1.33261811e-02, 2.79153138e-02 ]
      - [ 0., 1.08769342e-01, 3.13621879e-01, 3.13621879e-01,
          5.09360507e-02, 3.96185927e-02, 0., 7.20607787e-02, 0.,
          2.92892270e-02, 1.73974559e-01, 1.53068211e-02, 1.64239362e-01,
          3.13621879e-01, 3.13621879e-01, 1.39590457e-01, 4.07140926e-02,
          6.86966330e-02, 1.44897550e-01, 2.39064679e-01, 3.13621879e-01,
          6.93711191e-02, 1.34269282e-01, 8.87450874e-02, 0., 0.,
          1.48543287e-02, 1.44037813e-01, 1.95984334e-01, 3.13621879e-01,
          1.85036674e-01, 3.13621879e-01, 2.87772007e-02, 1.10431537e-02,
          5.17276861e-02, 0. ]
      - [ 0., 0., 1.54009432e-01, 3.48297715e-01, 3.48297715e-01,
          5.21234572e-02, 3.43685970e-02, 0., 6.54909899e-03,
          2.45247915e-01, 2.46353894e-02, 0., 6.93228981e-03,
          1.27195030e-01, 3.48297715e-01, 2.71049857e-01, 8.83943215e-02,
          0., 1.31022841e-01, 1.41383126e-01, 3.48297715e-01,
          5.86649887e-02, 1.16206735e-01, 3.08708642e-02, 0.,
          1.64542012e-02, 6.32567778e-02, 5.94898388e-02, 5.83951883e-02,
          3.48297715e-01, 1.05013400e-02, 3.48297715e-01, 1.36142612e-01,
          0., 1.98391266e-02, 2.99334247e-02 ]
      - [ 0., 5.54712750e-02, 1.46661729e-01, 3.76822770e-01,
          1.44237235e-01, 1.03833668e-01, 3.98351923e-02, 4.59670871e-02,
          5.06470874e-02, 7.83660412e-02, 2.79234629e-02, 8.56789574e-02,
          2.26636007e-01, 3.76822770e-01, 2.43736655e-01, 1.32588118e-01,
          3.34508903e-02, 7.63809774e-03, 2.16498032e-01, 7.74086863e-02,
          3.76822770e-01, 7.85157830e-02, 9.87693220e-02, 0., 0., 0., 0.,
          3.65674607e-02, 7.65208900e-02, 3.76822770e-01, 7.10784420e-02,
          3.76822770e-01, 3.09686400e-02, 7.30882678e-03, 3.97448018e-02,
          1.32206250e-02 ]
      - [ 5.26068825e-03, 9.37442947e-03, 2.46349275e-01, 3.26414019e-01,
          3.26414019e-01, 1.77310124e-01, 1.44519303e-02, 3.96500081e-02,
          3.58172767e-02, 1.58903673e-02, 0., 0., 1.62145309e-02,
          3.26414019e-01, 3.26414019e-01, 2.25044698e-01, 1.90251414e-02,
          1.07703008e-01, 1.92405790e-01, 7.64411539e-02, 3.26414019e-01,
          2.96868980e-02, 1.13850676e-01, 0., 0., 0., 2.59580482e-02,
          9.57896840e-03, 1.71953514e-01, 3.26414019e-01, 8.51475075e-02,
          3.26414019e-01, 2.15231664e-02, 2.09203344e-02, 0.,
          2.36109383e-02 ]
      - [ 3.89578217e-03, 0., 9.38613266e-02, 3.03653508e-01,
          3.21692586e-01, 2.09922642e-01, 1.11375257e-01, 3.10137291e-02,
          4.39514033e-02, 0., 9.25960112e-03, 6.86730770e-03, 0.,
          2.87936270e-01, 3.21692586e-01, 2.28259921e-01, 7.63975382e-02,
          0., 1.46587446e-01, 1.68201104e-02, 1.68112591e-01,
          3.21692586e-01, 1.22580245e-01, 7.20836595e-02, 1.36663616e-01,
          7.45309237e-03, 1.52730688e-01, 1.39132157e-01, 3.61848548e-02,
          8.38365108e-02, 3.21692586e-01, 3.21692586e-01, 1.99535206e-01,
          0., 3.24107781e-02, 1.78819187e-02 ]
      - [ 4.23128577e-03, 1.78207323e-01, 3.22690278e-01, 3.24861556e-01,
          8.71610865e-02, 4.81856130e-02, 6.72743050e-03, 4.85843271e-02,
          3.33925374e-02, 1.19035095e-01, 4.52462249e-02, 1.04228137e-02,
          1.56048313e-01, 3.24861556e-01, 3.24861556e-01, 1.41947627e-01,
          8.62229094e-02, 5.23830131e-02, 1.40802473e-01, 5.83387241e-02,
          3.24861556e-01, 5.86890504e-02, 1.49550512e-01, 1.33040026e-01,
          0., 0., 1.81357618e-02, 6.22582473e-02, 1.88428074e-01,
          3.24861556e-01, 1.95197061e-01, 3.23622167e-01, 2.94767264e-02,
          2.35798769e-03, 2.31087729e-02, 3.58699374e-02 ]
      - [ 0., 0., 1.43745795e-01, 3.43011796e-01, 3.43011796e-01,
          1.36632696e-01, 2.65471935e-02, 7.61358440e-03, 0.,
          9.40932706e-02, 0., 0., 0., 9.82567668e-02, 3.43011796e-01,
          2.58385420e-01, 8.93147811e-02, 1.69822782e-01, 2.59525567e-01,
          6.04768842e-02, 3.43011796e-01, 8.70449170e-02, 1.42964214e-01,
          2.23259255e-02, 6.61995867e-03, 8.24322999e-02, 1.30436486e-02,
          7.63535872e-02, 8.29426721e-02, 3.43011796e-01, 2.60190312e-02,
          3.43011796e-01, 7.84444958e-02, 4.83954251e-02, 0.,
          5.88172227e-02 ]
      - [ 5.16852327e-02, 6.41940627e-03, 2.31202886e-01, 3.34653437e-01,
          1.20400496e-01, 1.80202514e-01, 6.53230026e-02, 5.19067310e-02,
          3.80128063e-02, 0., 0., 5.82369342e-02, 3.34653437e-01,
          3.34653437e-01, 3.29156876e-01, 1.27768606e-01, 5.24495281e-02,
          9.66961682e-02, 1.51390627e-01, 8.12383965e-02, 3.34653437e-01,
          3.38506699e-02, 1.06136642e-01, 0., 4.18347400e-03, 0.,
          3.55845466e-02, 4.41572592e-02, 9.96867642e-02, 3.34653437e-01,
          1.24550469e-01, 3.34653437e-01, 5.63778616e-02, 0.,
          4.43727709e-02, 2.40166839e-02 ]
      - [ 1.47467792e-01, 2.57442921e-01, 2.57442921e-01, 6.92976266e-02,
          0., 0., 3.02704517e-02, 0., 5.51832616e-02, 1.13614678e-01, 0.,
          2.57442921e-01, 2.30345652e-01, 1.94652826e-01, 2.57442921e-01,
          2.50106771e-02, 1.26796499e-01, 0., 2.57442921e-01,
          7.05015436e-02, 9.48102996e-02, 1.23597477e-02, 2.57442921e-01,
          5.59038259e-02, 2.57442921e-01, 6.68966770e-02, 2.00091839e-01,
          1.56141877e-01, 1.90911993e-01, 2.57442921e-01, 1.90229312e-01,
          2.57442921e-01, 0., 1.77670702e-01, 2.36492112e-01,
          7.86014348e-02 ]
      - [ 2.43792206e-01, 1.75191805e-01, 2.43792206e-01, 3.55854742e-02,
          4.70841601e-02, 0., 2.41293553e-02, 0., 5.01266718e-02,
          1.25802219e-01, 0., 2.43792206e-01, 2.43792206e-01,
          2.37819493e-01, 2.26367295e-01, 2.16872796e-01, 7.91057944e-02,
          6.04709983e-02, 2.43792206e-01, 6.43149614e-02, 7.94887468e-02,
          7.72962766e-03, 2.05418423e-01, 1.58381894e-01, 2.43792206e-01,
          1.00549527e-01, 1.95366785e-01, 1.55044168e-01, 8.25827941e-02,
          2.25142315e-01, 2.43792206e-01, 1.76677719e-01, 1.51423633e-01,
          1.62465513e-01, 1.79743662e-01, 2.13642821e-01 ]
      - [ 1.82238966e-01, 2.41099507e-01, 2.41099507e-01, 2.41106935e-02,
          4.66377884e-02, 0., 0., 2.34015249e-02, 4.83630076e-02,
          7.70392567e-02, 1.33761734e-01, 2.28559911e-01, 2.09136382e-01,
          2.41099507e-01, 2.41099507e-01, 4.77753356e-02, 1.59486085e-01,
          8.96314457e-02, 2.41099507e-01, 3.94112580e-02, 8.15589502e-02,
          7.62311369e-02, 1.81477204e-01, 1.45350590e-01, 2.34963819e-01,
          1.64614737e-01, 1.74921080e-01, 2.26618294e-02, 2.41099507e-01,
          2.41099507e-01, 2.41099507e-01, 2.41099507e-01, 2.93046106e-02,
          0., 2.41099507e-01, 2.04808265e-01 ]
      - [ 1.51907787e-01, 2.82772720e-01, 2.87014306e-01, 2.51718909e-01,
          1.57084465e-01, 2.14459553e-01, 3.11818402e-02, 0.,
          5.68447299e-02, 1.17035419e-01, 0., 7.98747241e-02,
          5.69461323e-02, 4.34289910e-02, 1.84934974e-01, 2.57637054e-02,
          1.30614117e-01, 0., 2.87014306e-01, 1.57130569e-01,
          1.64266631e-01, 2.08688632e-01, 2.87014306e-01, 5.75869903e-02,
          2.87014306e-01, 1.52840421e-01, 2.06116259e-01, 1.60843030e-01,
          1.12153657e-01, 2.87014306e-01, 0., 3.64353806e-02, 0.,
          1.83020055e-01, 1.59682870e-01, 8.09679851e-02 ]
      - [ 1.38175964e-01, 2.00203910e-01, 1.57231197e-01, 0., 0., 0., 0.,
          0., 0., 1.22771651e-01, 7.41620734e-02, 2.86772102e-01,
          2.86772102e-01, 1.94552287e-01, 2.86772102e-01, 5.52525744e-02,
          1.26731008e-01, 5.51547557e-02, 2.86772102e-01, 0., 0.,
          1.23533634e-02, 3.03764120e-02, 0., 1.94079489e-01,
          6.68621212e-02, 1.25211135e-01, 1.18512221e-01, 2.61278510e-01,
          2.86772102e-01, 1.90131053e-01, 2.86772102e-01, 5.58749475e-02,
          2.86772102e-01, 2.36369953e-01, 1.53338179e-01 ]
      - [ 2.43998185e-01, 2.43998185e-01, 2.43998185e-01, 0., 0., 0., 0.,
          0., 3.91861871e-02, 2.03952000e-01, 2.43998185e-01,
          2.43998185e-01, 1.23483308e-01, 8.61646757e-02, 2.03698352e-01,
          1.92059264e-01, 7.93808848e-02, 1.35483935e-01, 2.43998185e-01,
          5.83404526e-02, 0., 0., 1.34351671e-01, 1.16748720e-01,
          2.43998185e-01, 1.39600620e-01, 2.06122160e-01, 2.34893352e-01,
          2.14779213e-01, 2.31238708e-01, 1.05061911e-01, 2.43998185e-01,
          3.29979360e-02, 2.43998185e-01, 1.75344989e-01, 2.51896195e-02 ]
      - [ 2.49427527e-01, 2.62757391e-01, 2.62757391e-01, 1.52436383e-02,
          0., 0., 0., 1.18838344e-02, 1.67410448e-02, 2.62757391e-01,
          1.63714781e-01, 2.62757391e-01, 0., 1.52014285e-01, 0.,
          2.62757391e-01, 6.29133210e-02, 7.00216740e-02, 2.62757391e-01,
          0., 0., 0., 6.06403537e-02, 1.73363149e-01, 2.62757391e-01,
          1.65390685e-01, 1.59577087e-01, 1.24732368e-01, 8.21758211e-02,
          2.62757391e-01, 1.26162857e-01, 2.39438474e-01, 2.29067579e-01,
          1.04856901e-01, 2.62757391e-01, 1.06819116e-01 ]
      - [ 2.67818630e-01, 2.67818630e-01, 1.12723447e-01, 0.,
          8.50242563e-03, 0., 0., 3.33503745e-02, 0., 1.79431915e-01,
          2.67818630e-01, 1.08543836e-01, 6.69632107e-02, 1.69131130e-01,
          2.38464758e-01, 2.27861568e-01, 1.16786242e-01, 1.12296432e-01,
          2.67818630e-01, 0., 0., 7.62852877e-02, 9.88620445e-02,
          1.42710149e-01, 2.09409192e-01, 1.09288365e-01, 1.89643413e-01,
          6.55980930e-02, 2.67818630e-01, 2.53293246e-01, 2.67818630e-01,
          2.67818630e-01, 1.94535553e-02, 1.78931817e-01, 1.99046597e-01,
          6.10163808e-02 ]
      - [ 2.72008836e-01, 2.72008836e-01, 2.72008836e-01, 1.28798991e-01,
          8.39068666e-02, 0., 8.95137116e-02, 5.48102632e-02,
          1.03868410e-01, 1.40119597e-01, 1.25168085e-01, 1.64423019e-01,
          0., 5.96701819e-03, 2.12467134e-01, 1.10813290e-01,
          2.79877968e-02, 7.83208832e-02, 2.72008836e-01, 6.08518869e-02,
          0., 1.09584600e-01, 2.72008836e-01, 1.56192929e-01,
          2.62527496e-01, 1.79168299e-01, 2.14995280e-01, 2.32616931e-01,
          2.24024996e-01, 2.41193041e-01, 0., 1.05383143e-01, 0.,
          2.72008836e-01, 1.49335042e-01, 2.62739789e-02 ]
      - [ 1.67652935e-01, 1.88434675e-01, 0., 0., 0., 0., 0., 0., 0.,
          2.89313585e-01, 2.89313585e-01, 2.89313585e-01, 1.30001515e-01,
          9.07129794e-02, 2.14450806e-01, 2.02197343e-01, 8.35710913e-02,
          1.83890283e-01, 2.89313585e-01, 6.14200234e-02, 0., 0.,
          1.47526124e-02, 0., 9.18702632e-02, 1.46969587e-01,
          1.35754764e-01, 1.89039499e-01, 2.26116583e-01, 2.43444905e-01,
          1.10607721e-01, 2.89313585e-01, 1.57651201e-01, 2.89313585e-01,
          1.84600785e-01, 1.07767098e-01 ]
      - [ 2.14234903e-01, 2.64172226e-01, 1.88647389e-01, 0.,
          1.35766724e-02, 0., 0., 0., 8.61899108e-02, 2.06025168e-01,
          1.76421270e-01, 2.26085231e-01, 1.54322341e-01, 2.64172226e-01,
          1.50078818e-01, 1.68601140e-01, 5.55056594e-02, 6.61347061e-02,
          2.64172226e-01, 7.92350844e-02, 6.43355120e-03, 0.,
          9.45076421e-02, 2.00247066e-03, 2.64172226e-01, 1.28150433e-01,
          2.35215127e-01, 1.78346038e-01, 2.64172226e-01, 2.64172226e-01,
          8.43852833e-02, 2.46275157e-01, 1.57516629e-01, 0.,
          2.52038896e-01, 1.01767354e-01 ]
      - [ 1.07533351e-01, 2.53349811e-01, 2.53349811e-01, 2.53177863e-02,
          2.80103777e-02, 0., 0., 3.10300719e-02, 7.11933002e-02,
          1.62260130e-01, 3.15203890e-02, 2.53349811e-01, 2.43028089e-01,
          2.53349811e-01, 1.97913378e-01, 1.54667974e-01, 1.37395486e-01,
          2.30838552e-01, 2.53349811e-01, 3.33468542e-02, 1.23067070e-02,
          0., 8.83315206e-02, 1.07312249e-02, 2.53349811e-01,
          1.47033289e-01, 1.22594938e-01, 1.96513176e-01, 2.53349811e-01,
          2.53349811e-01, 1.78849444e-01, 1.97514281e-01, 5.99128157e-02,
          7.97397494e-02, 2.53349811e-01, 1.27555281e-01 ]
      - [ 2.49702424e-01, 2.49702424e-01, 2.44913235e-01, 0., 0., 0., 0.,
          0., 2.94749048e-02, 1.16975553e-01, 1.83549628e-01,
          2.28742391e-01, 2.03422770e-01, 1.97149113e-01, 1.22869752e-01,
          2.49702424e-01, 2.02421665e-01, 9.23413783e-02, 2.49702424e-01,
          4.50113714e-02, 0., 0., 6.49786517e-02, 2.04017580e-01,
          1.63376927e-01, 1.72957540e-01, 2.49702424e-01, 2.31633976e-01,
          2.49702424e-01, 2.00286746e-01, 1.41803622e-01, 2.49702424e-01,
          3.11900508e-02, 1.04920845e-02, 1.51489586e-01, 1.25533476e-01 ]
      - [ 2.62424916e-01, 2.62424916e-01, 2.62424916e-01, 8.55313092e-02,
          2.62424916e-01, 6.00676574e-02, 0., 0., 8.68332237e-02,
          1.38904661e-01, 5.59199490e-02, 0., 6.99428767e-02,
          2.01985836e-01, 9.11313370e-02, 1.69859558e-01, 5.59199490e-02,
          6.66283295e-02, 2.62424916e-01, 1.38913542e-01, 2.08967909e-01,
          8.50151256e-02, 2.62424916e-01, 1.36434332e-01, 2.62424916e-01,
          1.29106939e-01, 2.36970752e-01, 1.79677203e-01, 2.17147455e-01,
          2.62424916e-01, 0., 3.35041396e-02, 2.42753979e-02, 0.,
          2.53920078e-01, 1.02526933e-01 ]
      - [ 1.50677860e-01, 2.43920490e-01, 0., 0., 0., 0., 0., 0.,
          5.42201661e-02, 2.63403565e-01, 2.66643047e-01, 2.66643047e-01,
          1.52053490e-01, 2.66643047e-01, 1.47872359e-01, 1.66122362e-01,
          5.46896122e-02, 9.58649665e-02, 2.66643047e-01, 0., 0., 0.,
          2.47695167e-02, 0., 8.36926326e-02, 8.70679617e-02,
          2.31757000e-01, 1.01221599e-01, 2.66643047e-01, 2.66643047e-01,
          8.31446499e-02, 2.66643047e-01, 1.57173842e-01, 2.66643047e-01,
          2.66643047e-01, 1.00271165e-01 ]
      - [ 1.67997420e-01, 2.84716427e-01, 0., 2.00349651e-02, 0.,
          1.33701218e-02, 0., 0., 6.59594461e-02, 2.15836316e-01,
          2.84716427e-01, 2.34185427e-01, 0., 2.84716427e-01,
          7.39359483e-02, 9.36076567e-02, 1.42939731e-01, 5.76008484e-02,
          2.84716427e-01, 6.72537237e-02, 6.68384954e-02, 1.08463228e-01,
          1.80346265e-01, 7.41689205e-02, 2.84716427e-01, 2.22623125e-01,
          0., 2.52475142e-01, 1.27707273e-01, 2.84716427e-01,
          2.63244092e-01, 2.60849923e-01, 0., 1.52342292e-02,
          8.88757259e-02, 8.48129019e-02 ]
      - [ 1.84265703e-01, 2.58857191e-01, 2.58857191e-01, 2.12091934e-02,
          2.92414743e-02, 0., 0., 1.69568509e-02, 4.54491638e-02,
          9.35289040e-02, 2.58857191e-01, 2.45018795e-01, 9.92090628e-02,
          1.02911085e-01, 2.58857191e-01, 1.97423190e-01, 7.50682354e-02,
          1.16741315e-01, 2.58857191e-01, 5.54545522e-02, 1.55635923e-02,
          1.34074256e-01, 2.04005957e-01, 1.55327678e-01, 2.58857191e-01,
          1.44341677e-01, 5.42956032e-02, 1.20888270e-01, 1.41185939e-01,
          2.58857191e-01, 2.58857191e-01, 2.58857191e-01, 4.81637195e-02,
          5.85321188e-02, 1.31137207e-01, 2.08707541e-01 ]
      - [ 2.42580399e-01, 2.84128159e-01, 2.38782223e-02, 0., 0.,
          1.72226392e-02, 0., 6.60035247e-03, 5.12496047e-02,
          2.84128159e-01, 2.84128159e-01, 0., 1.26266927e-01,
          1.94642141e-01, 1.07512929e-01, 1.71020582e-01, 1.34733334e-01,
          8.21429044e-02, 2.84128159e-01, 4.82922196e-02, 1.28237590e-01,
          0., 1.76148042e-01, 1.22755714e-01, 2.16778457e-01,
          2.25551859e-01, 1.39441997e-01, 2.01872692e-01, 2.75557309e-01,
          2.84128159e-01, 2.84128159e-01, 5.19253798e-02, 5.36525026e-02,
          0., 0., 1.71068862e-01 ]
      - [ 2.46152833e-01, 3.06346625e-01, 2.32595831e-01, 1.98989715e-02,
          1.52128786e-01, 8.67134556e-02, 0., 6.49583265e-02,
          6.55117258e-02, 1.35075524e-01, 7.66909420e-02, 0., 0.,
          2.09615245e-01, 0., 9.29722637e-02, 7.70111531e-02,
          5.72098643e-02, 3.06346625e-01, 7.77615458e-02, 2.55030900e-01,
          3.06346625e-01, 3.06346625e-01, 7.36654773e-02, 3.06346625e-01,
          2.21111998e-01, 0., 2.00403616e-01, 1.15876094e-01,
          3.06346625e-01, 0., 5.12370020e-02, 0., 1.51308225e-02,
          8.82724524e-02, 8.42372105e-02 ]
      - [ 8.91868323e-02, 2.98620582e-01, 0., 0., 0., 0., 0., 0., 0.,
          2.75922924e-01, 2.98620582e-01, 2.36525789e-01, 2.02351864e-02,
          2.98620582e-01, 8.81785750e-02, 9.45431367e-02, 1.44368216e-01,
          1.24795109e-01, 2.98620582e-01, 0., 0., 0., 2.85298228e-02, 0.,
          2.02783227e-01, 1.41710922e-01, 0., 1.85118750e-01,
          1.60884142e-01, 2.98620582e-01, 2.98620582e-01, 2.98620582e-01,
          7.49101415e-02, 1.77907318e-01, 1.24253154e-01, 8.56604874e-02 ]
      - [ 0., 0., 2.20321178e-01, 7.69854188e-02, 2.93171793e-01, 0., 0.,
          0., 0., 0., 2.91784499e-02, 2.93171793e-01, 2.92636991e-01,
          2.93171793e-01, 7.98005313e-02, 0., 6.28264919e-02, 0.,
          2.93171793e-01, 2.59605229e-01, 2.93171793e-01, 7.62480274e-02,
          4.39804122e-02, 7.16051906e-02, 1.58773080e-01, 1.22775063e-01,
          8.45008790e-02, 1.92193598e-01, 6.86743036e-02, 1.42206475e-01,
          1.66391492e-01, 2.93171793e-01, 2.93171793e-01, 1.27181858e-01,
          5.46002574e-02, 1.03285074e-01 ]
      - [ 5.18684685e-02, 0., 7.94436410e-02, 2.57763386e-01,
          2.57763386e-01, 2.57763386e-01, 4.41807359e-02, 0., 0.,
          1.89537276e-02, 1.20240618e-02, 1.02240413e-01, 2.57763386e-01,
          2.57763386e-01, 2.57763386e-01, 7.70625994e-02, 4.66114879e-02,
          3.39690074e-02, 2.41542801e-01, 1.23286307e-01, 2.57763386e-01,
          1.69689551e-01, 1.19623117e-01, 9.82342884e-02, 2.57763386e-01,
          9.43930671e-02, 1.38098598e-01, 1.77869499e-01, 1.63616747e-01,
          1.47982836e-01, 1.12096757e-01, 2.57763386e-01, 1.87806845e-01,
          2.57763386e-01, 1.40901953e-01, 4.61454205e-02 ]
      - [ 1.68380756e-02, 6.69476297e-03, 2.62903094e-01, 2.62903094e-01,
          2.62903094e-01, 6.91632926e-03, 0., 8.36737547e-03, 0.,
          6.38159066e-02, 2.34747678e-01, 2.62903094e-01, 2.62903094e-01,
          7.07656965e-02, 8.44413266e-02, 2.06268467e-02, 3.15295346e-02,
          3.04364618e-02, 2.59628117e-01, 2.62903094e-01, 2.62903094e-01,
          1.28647210e-02, 8.30916315e-03, 3.67422625e-02, 3.05332523e-02,
          1.41611874e-01, 1.67775944e-01, 2.60158747e-01, 5.85134514e-02,
          1.84896305e-01, 2.62903094e-01, 2.62903094e-01, 2.62903094e-01,
          7.58897811e-02, 7.22798407e-02, 1.75351985e-02 ]
      - [ 0., 0., 2.88820028e-01, 1.61554337e-01, 2.88820028e-01, 0., 0.,
          0., 0., 7.06627816e-02, 7.03065023e-02, 2.33055294e-01,
          2.06976384e-01, 2.88820028e-01, 9.01603773e-02, 6.68006539e-02,
          6.63915873e-02, 5.72799356e-04, 2.61659384e-01, 1.29324213e-01,
          2.88820028e-01, 1.09883562e-01, 2.88820028e-01, 1.40588492e-01,
          1.50733933e-01, 1.20880403e-01, 1.44678308e-02, 1.80740520e-01,
          1.02771774e-01, 1.70794219e-01, 1.51550859e-01, 3.96573991e-02,
          2.88820028e-01, 1.98118120e-01, 1.54690012e-01, 1.86055198e-01 ]
      - [ 0., 2.46440154e-02, 1.00482345e-01, 3.85564081e-02,
          3.06604505e-01, 0., 3.15504968e-02, 0., 3.73375490e-02, 0., 0.,
          3.06604505e-01, 3.04924577e-01, 3.06604505e-01, 3.12072784e-02,
          0., 0., 0., 3.06604505e-01, 2.49540493e-01, 3.01200956e-01, 0.,
          9.02042910e-03, 3.17223184e-02, 9.51467678e-02, 8.48678648e-02,
          8.07901919e-02, 2.11579889e-01, 1.05360746e-01, 1.08460642e-01,
          2.17839628e-01, 3.06604505e-01, 3.06604505e-01, 1.18359461e-01,
          1.06313102e-01, 1.00847490e-01 ]
      - [ 9.12088230e-02, 1.51249319e-01, 2.76886493e-01, 2.76886493e-01,
          2.75211781e-01, 3.33305374e-02, 6.51473254e-02, 3.41336988e-02,
          0., 0., 0., 2.19696313e-02, 3.40623930e-02, 2.76886493e-01,
          2.76886493e-01, 1.66806072e-01, 7.75527135e-02, 1.68109294e-02,
          2.75488198e-01, 1.00071058e-01, 1.49735972e-01, 5.35089783e-02,
          5.06293550e-02, 1.10185124e-01, 2.76886493e-01, 2.76886493e-01,
          8.09876695e-02, 1.12442993e-01, 1.77782431e-01, 1.65953517e-01,
          2.76886493e-01, 2.76886493e-01, 4.87932116e-02, 5.83569184e-02,
          8.14594924e-02, 1.44159585e-01 ]
      - [ 1.34733260e-01, 1.59811616e-01, 1.44576102e-01, 2.62246430e-01,
          2.03296244e-01, 4.46822867e-02, 2.85722595e-02, 2.15105060e-02,
          2.01371416e-01, 1.07828733e-02, 2.67772451e-02, 0.,
          2.07425077e-02, 2.62246430e-01, 2.62246430e-01, 2.62246430e-01,
          3.14784013e-02, 0., 2.16006592e-01, 3.69315371e-02,
          2.05962703e-01, 6.25074729e-02, 2.38322616e-01, 1.33829683e-01,
          2.62246430e-01, 1.07898459e-01, 2.28077382e-01, 2.23264858e-01,
          1.82710648e-01, 1.02411136e-01, 1.70725405e-01, 2.62246430e-01,
          1.50991872e-01, 6.24148883e-02, 9.83960554e-02, 2.08313197e-01 ]
      - [ 3.36311683e-02, 2.54934460e-01, 2.54934460e-01, 2.54934460e-01,
          1.71071783e-01, 3.06464247e-02, 5.87641783e-02, 1.84340347e-02,
          3.85225713e-02, 1.40955821e-01, 4.28754650e-02, 9.65384487e-03,
          2.54934460e-01, 2.54934460e-01, 2.29430586e-01, 1.65166035e-01,
          5.61049320e-02, 8.87963846e-02, 2.54934460e-01, 1.39850989e-01,
          5.57389110e-02, 0., 5.85453510e-02, 6.64734095e-02,
          8.50692093e-02, 2.54934460e-01, 2.54934460e-01, 2.54934460e-01,
          9.34520811e-02, 2.54934460e-01, 2.54934460e-01, 2.54934460e-01,
          9.63655114e-02, 8.09951201e-02, 8.18934590e-02, 4.12662737e-02 ]
      - [ 2.30736621e-02, 9.43761617e-02, 2.69619226e-01, 2.69619226e-01,
          2.69619226e-01, 7.53556043e-02, 3.40355672e-02, 9.93150007e-03,
          0., 1.01723485e-01, 0., 2.41531841e-02, 0., 2.69619226e-01,
          2.69619226e-01, 2.16533840e-01, 1.16604999e-01, 6.17642254e-02,
          2.25156546e-01, 2.40836516e-02, 9.96744856e-02, 1.50758699e-01,
          2.69619226e-01, 1.25264943e-01, 2.24987864e-01, 1.86294332e-01,
          3.70339938e-02, 2.52781242e-01, 2.67864674e-01, 1.69233307e-01,
          1.64419442e-01, 3.43315043e-02, 5.00675738e-02, 5.11452183e-02,
          1.85363889e-01, 2.32201278e-01 ]
      - [ 1.14642799e-01, 9.93799120e-02, 2.89518774e-01, 2.44981289e-01,
          1.52559653e-01, 3.63026001e-02, 9.80154052e-02, 5.74984215e-02,
          0., 0., 8.05945396e-02, 8.49994794e-02, 2.41063237e-01,
          2.89518774e-01, 2.89518774e-01, 4.61884551e-02, 5.67744561e-02,
          1.84908360e-02, 2.89518774e-01, 1.03738107e-01, 1.34821162e-01,
          3.38269514e-03, 6.67309342e-03, 3.23483832e-02, 1.53965950e-01,
          2.62721241e-01, 1.46686777e-01, 1.53819948e-01, 6.51473701e-02,
          1.88264817e-01, 2.89518774e-01, 2.89518774e-01, 2.38463908e-01,
          1.40030786e-01, 5.64691834e-02, 1.08192578e-01 ]
      - [ 9.12088230e-02, 1.51249319e-01, 2.76886493e-01, 2.76886493e-01,
          2.75211781e-01, 3.33305374e-02, 6.51473254e-02, 3.41336988e-02,
          0., 0., 0., 2.19696313e-02, 3.40623930e-02, 2.76886493e-01,
          2.76886493e-01, 1.66806072e-01, 7.75527135e-02, 1.68109294e-02,
          2.75488198e-01, 1.00071058e-01, 1.49735972e-01, 5.35089783e-02,
          5.06293550e-02, 1.10185124e-01, 2.76886493e-01, 2.76886493e-01,
          8.09876695e-02, 1.12442993e-01, 1.77782431e-01, 1.65953517e-01,
          2.76886493e-01, 2.76886493e-01, 4.87932116e-02, 5.83569184e-02,
          8.14594924e-02, 1.44159585e-01 ]
      - [ 1.34733260e-01, 1.59811616e-01, 1.44576102e-01, 2.62246430e-01,
          2.03296244e-01, 4.46822867e-02, 2.85722595e-02, 2.15105060e-02,
          2.01371416e-01, 1.07828733e-02, 2.67772451e-02, 0.,
          2.07425077e-02, 2.62246430e-01, 2.62246430e-01, 2.62246430e-01,
          3.14784013e-02, 0., 2.16006592e-01, 3.69315371e-02,
          2.05962703e-01, 6.25074729e-02, 2.38322616e-01, 1.33829683e-01,
          2.62246430e-01, 1.07898459e-01, 2.28077382e-01, 2.23264858e-01,
          1.82710648e-01, 1.02411136e-01, 1.70725405e-01, 2.62246430e-01,
          1.50991872e-01, 6.24148883e-02, 9.83960554e-02, 2.08313197e-01 ]
      - [ 3.36311683e-02, 2.54934460e-01, 2.54934460e-01, 2.54934460e-01,
          1.71071783e-01, 3.06464247e-02, 5.87641783e-02, 1.84340347e-02,
          3.85225713e-02, 1.40955821e-01, 4.28754650e-02, 9.65384487e-03,
          2.54934460e-01, 2.54934460e-01, 2.29430586e-01, 1.65166035e-01,
          5.61049320e-02, 8.87963846e-02, 2.54934460e-01, 1.39850989e-01,
          5.57389110e-02, 0., 5.85453510e-02, 6.64734095e-02,
          8.50692093e-02, 2.54934460e-01, 2.54934460e-01, 2.54934460e-01,
          9.34520811e-02, 2.54934460e-01, 2.54934460e-01, 2.54934460e-01,
          9.63655114e-02, 8.09951201e-02, 8.18934590e-02, 4.12662737e-02 ]
      - [ 2.30736621e-02, 9.43761617e-02, 2.69619226e-01, 2.69619226e-01,
          2.69619226e-01, 7.53556043e-02, 3.40355672e-02, 9.93150007e-03,
          0., 1.01723485e-01, 0., 2.41531841e-02, 0., 2.69619226e-01,
          2.69619226e-01, 2.16533840e-01, 1.16604999e-01, 6.17642254e-02,
          2.25156546e-01, 2.40836516e-02, 9.96744856e-02, 1.50758699e-01,
          2.69619226e-01, 1.25264943e-01, 2.24987864e-01, 1.86294332e-01,
          3.70339938e-02, 2.52781242e-01, 2.67864674e-01, 1.69233307e-01,
          1.64419442e-01, 3.43315043e-02, 5.00675738e-02, 5.11452183e-02,
          1.85363889e-01, 2.32201278e-01 ]
      - [ 1.14642799e-01, 9.93799120e-02, 2.89518774e-01, 2.44981289e-01,
          1.52559653e-01, 3.63026001e-02, 9.80154052e-02, 5.74984215e-02,
          0., 0., 8.05945396e-02, 8.49994794e-02, 2.41063237e-01,
          2.89518774e-01, 2.89518774e-01, 4.61884551e-02, 5.67744561e-02,
          1.84908360e-02, 2.89518774e-01, 1.03738107e-01, 1.34821162e-01,
          3.38269514e-03, 6.67309342e-03, 3.23483832e-02, 1.53965950e-01,
          2.62721241e-01, 1.46686777e-01, 1.53819948e-01, 6.51473701e-02,
          1.88264817e-01, 2.89518774e-01, 2.89518774e-01, 2.38463908e-01,
          1.40030786e-01, 5.64691834e-02, 1.08192578e-01 ]
      - [ 9.12088230e-02, 1.51249319e-01, 2.76886493e-01, 2.76886493e-01,
          2.75211781e-01, 3.33305374e-02, 6.51473254e-02, 3.41336988e-02,
          0., 0., 0., 2.19696313e-02, 3.40623930e-02, 2.76886493e-01,
          2.76886493e-01, 1.66806072e-01, 7.75527135e-02, 1.68109294e-02,
          2.75488198e-01, 1.00071058e-01, 1.49735972e-01, 5.35089783e-02,
          5.06293550e-02, 1.10185124e-01, 2.76886493e-01, 2.76886493e-01,
          8.09876695e-02, 1.12442993e-01, 1.77782431e-01, 1.65953517e-01,
          2.76886493e-01, 2.76886493e-01, 4.87932116e-02, 5.83569184e-02,
          8.14594924e-02, 1.44159585e-01 ]
      - [ 1.34733260e-01, 1.59811616e-01, 1.44576102e-01, 2.62246430e-01,
          2.03296244e-01, 4.46822867e-02, 2.85722595e-02, 2.15105060e-02,
          2.01371416e-01, 1.07828733e-02, 2.67772451e-02, 0.,
          2.07425077e-02, 2.62246430e-01, 2.62246430e-01, 2.62246430e-01,
          3.14784013e-02, 0., 2.16006592e-01, 3.69315371e-02,
          2.05962703e-01, 6.25074729e-02, 2.38322616e-01, 1.33829683e-01,
          2.62246430e-01, 1.07898459e-01, 2.28077382e-01, 2.23264858e-01,
          1.82710648e-01, 1.02411136e-01, 1.70725405e-01, 2.62246430e-01,
          1.50991872e-01, 6.24148883e-02, 9.83960554e-02, 2.08313197e-01 ]
      - [ 3.36311683e-02, 2.54934460e-01, 2.54934460e-01, 2.54934460e-01,
          1.71071783e-01, 3.06464247e-02, 5.87641783e-02, 1.84340347e-02,
          3.85225713e-02, 1.40955821e-01, 4.28754650e-02, 9.65384487e-03,
          2.54934460e-01, 2.54934460e-01, 2.29430586e-01, 1.65166035e-01,
          5.61049320e-02, 8.87963846e-02, 2.54934460e-01, 1.39850989e-01,
          5.57389110e-02, 0., 5.85453510e-02, 6.64734095e-02,
          8.50692093e-02, 2.54934460e-01, 2.54934460e-01, 2.54934460e-01,
          9.34520811e-02, 2.54934460e-01, 2.54934460e-01, 2.54934460e-01,
          9.63655114e-02, 8.09951201e-02, 8.18934590e-02, 4.12662737e-02 ]
      - [ 2.30736621e-02, 9.43761617e-02, 2.69619226e-01, 2.69619226e-01,
          2.69619226e-01, 7.53556043e-02, 3.40355672e-02, 9.93150007e-03,
          0., 1.01723485e-01, 0., 2.41531841e-02, 0., 2.69619226e-01,
          2.69619226e-01, 2.16533840e-01, 1.16604999e-01, 6.17642254e-02,
          2.25156546e-01, 2.40836516e-02, 9.96744856e-02, 1.50758699e-01,
          2.69619226e-01, 1.25264943e-01, 2.24987864e-01, 1.86294332e-01,
          3.70339938e-02, 2.52781242e-01, 2.67864674e-01, 1.69233307e-01,
          1.64419442e-01, 3.43315043e-02, 5.00675738e-02, 5.11452183e-02,
          1.85363889e-01, 2.32201278e-01 ]
      - [ 1.14642799e-01, 9.93799120e-02, 2.89518774e-01, 2.44981289e-01,
          1.52559653e-01, 3.63026001e-02, 9.80154052e-02, 5.74984215e-02,
          0., 0., 8.05945396e-02, 8.49994794e-02, 2.41063237e-01,
          2.89518774e-01, 2.89518774e-01, 4.61884551e-02, 5.67744561e-02,
          1.84908360e-02, 2.89518774e-01, 1.03738107e-01, 1.34821162e-01,
          3.38269514e-03, 6.67309342e-03, 3.23483832e-02, 1.53965950e-01,
          2.62721241e-01, 1.46686777e-01, 1.53819948e-01, 6.51473701e-02,
          1.88264817e-01, 2.89518774e-01, 2.89518774e-01, 2.38463908e-01,
          1.40030786e-01, 5.64691834e-02, 1.08192578e-01 ]
      - [ 9.12088230e-02, 1.51249319e-01, 2.76886493e-01, 2.76886493e-01,
          2.75211781e-01, 3.33305374e-02, 6.51473254e-02, 3.41336988e-02,
          0., 0., 0., 2.19696313e-02, 3.40623930e-02, 2.76886493e-01,
          2.76886493e-01, 1.66806072e-01, 7.75527135e-02, 1.68109294e-02,
          2.75488198e-01, 1.00071058e-01, 1.49735972e-01, 5.35089783e-02,
          5.06293550e-02, 1.10185124e-01, 2.76886493e-01, 2.76886493e-01,
          8.09876695e-02, 1.12442993e-01, 1.77782431e-01, 1.65953517e-01,
          2.76886493e-01, 2.76886493e-01, 4.87932116e-02, 5.83569184e-02,
          8.14594924e-02, 1.44159585e-01 ]
      - [ 1.34733260e-01, 1.59811616e-01, 1.44576102e-01, 2.62246430e-01,
          2.03296244e-01, 4.46822867e-02, 2.85722595e-02, 2.15105060e-02,
          2.01371416e-01, 1.07828733e-02, 2.67772451e-02, 0.,
          2.07425077e-02, 2.62246430e-01, 2.62246430e-01, 2.62246430e-01,
          3.14784013e-02, 0., 2.16006592e-01, 3.69315371e-02,
          2.05962703e-01, 6.25074729e-02, 2.38322616e-01, 1.33829683e-01,
          2.62246430e-01, 1.07898459e-01, 2.28077382e-01, 2.23264858e-01,
          1.82710648e-01, 1.02411136e-01, 1.70725405e-01, 2.62246430e-01,
          1.50991872e-01, 6.24148883e-02, 9.83960554e-02, 2.08313197e-01 ]
      - [ 3.36311683e-02, 2.54934460e-01, 2.54934460e-01, 2.54934460e-01,
          1.71071783e-01, 3.06464247e-02, 5.87641783e-02, 1.84340347e-02,
          3.85225713e-02, 1.40955821e-01, 4.28754650e-02, 9.65384487e-03,
          2.54934460e-01, 2.54934460e-01, 2.29430586e-01, 1.65166035e-01,
          5.61049320e-02, 8.87963846e-02, 2.54934460e-01, 1.39850989e-01,
          5.57389110e-02, 0., 5.85453510e-02, 6.64734095e-02,
          8.50692093e-02, 2.54934460e-01, 2.54934460e-01, 2.54934460e-01,
          9.34520811e-02, 2.54934460e-01, 2.54934460e-01, 2.54934460e-01,
          9.63655114e-02, 8.09951201e-02, 8.18934590e-02, 4.12662737e-02 ]
      - [ 2.30736621e-02, 9.43761617e-02, 2.69619226e-01, 2.69619226e-01,
          2.69619226e-01, 7.53556043e-02, 3.40355672e-02, 9.93150007e-03,
          0., 1.01723485e-01, 0., 2.41531841e-02, 0., 2.69619226e-01,
          2.69619226e-01, 2.16533840e-01, 1.16604999e-01, 6.17642254e-02,
          2.25156546e-01, 2.40836516e-02, 9.96744856e-02, 1.50758699e-01,
          2.69619226e-01, 1.25264943e-01, 2.24987864e-01, 1.86294332e-01,
          3.70339938e-02, 2.52781242e-01, 2.67864674e-01, 1.69233307e-01,
          1.64419442e-01, 3.43315043e-02, 5.00675738e-02, 5.11452183e-02,
          1.85363889e-01, 2.32201278e-01 ]
      - [ 1.14642799e-01, 9.93799120e-02, 2.89518774e-01, 2.44981289e-01,
          1.52559653e-01, 3.63026001e-02, 9.80154052e-02, 5.74984215e-02,
          0., 0., 8.05945396e-02, 8.49994794e-02, 2.41063237e-01,
          2.89518774e-01, 2.89518774e-01, 4.61884551e-02, 5.67744561e-02,
          1.84908360e-02, 2.89518774e-01, 1.03738107e-01, 1.34821162e-01,
          3.38269514e-03, 6.67309342e-03, 3.23483832e-02, 1.53965950e-01,
          2.62721241e-01, 1.46686777e-01, 1.53819948e-01, 6.51473701e-02,
          1.88264817e-01, 2.89518774e-01, 2.89518774e-01, 2.38463908e-01,
          1.40030786e-01, 5.64691834e-02, 1.08192578e-01 ]
      - [ 9.12088230e-02, 1.51249319e-01, 2.76886493e-01, 2.76886493e-01,
          2.75211781e-01, 3.33305374e-02, 6.51473254e-02, 3.41336988e-02,
          0., 0., 0., 2.19696313e-02, 3.40623930e-02, 2.76886493e-01,
          2.76886493e-01, 1.66806072e-01, 7.75527135e-02, 1.68109294e-02,
          2.75488198e-01, 1.00071058e-01, 1.49735972e-01, 5.35089783e-02,
          5.06293550e-02, 1.10185124e-01, 2.76886493e-01, 2.76886493e-01,
          8.09876695e-02, 1.12442993e-01, 1.77782431e-01, 1.65953517e-01,
          2.76886493e-01, 2.76886493e-01, 4.87932116e-02, 5.83569184e-02,
          8.14594924e-02, 1.44159585e-01 ]
      - [ 1.34733260e-01, 1.59811616e-01, 1.44576102e-01, 2.62246430e-01,
          2.03296244e-01, 4.46822867e-02, 2.85722595e-02, 2.15105060e-02,
          2.01371416e-01, 1.07828733e-02, 2.67772451e-02, 0.,
          2.07425077e-02, 2.62246430e-01, 2.62246430e-01, 2.62246430e-01,
          3.14784013e-02, 0., 2.16006592e-01, 3.69315371e-02,
          2.05962703e-01, 6.25074729e-02, 2.38322616e-01, 1.33829683e-01,
          2.62246430e-01, 1.07898459e-01, 2.28077382e-01, 2.23264858e-01,
          1.82710648e-01, 1.02411136e-01, 1.70725405e-01, 2.62246430e-01,
          1.50991872e-01, 6.24148883e-02, 9.83960554e-02, 2.08313197e-01 ]
      - [ 3.36311683e-02, 2.54934460e-01, 2.54934460e-01, 2.54934460e-01,
          1.71071783e-01, 3.06464247e-02, 5.87641783e-02, 1.84340347e-02,
          3.85225713e-02, 1.40955821e-01, 4.28754650e-02, 9.65384487e-03,
          2.54934460e-01, 2.54934460e-01, 2.29430586e-01, 1.65166035e-01,
          5.61049320e-02, 8.87963846e-02, 2.54934460e-01, 1.39850989e-01,
          5.57389110e-02, 0., 5.85453510e-02, 6.64734095e-02,
          8.50692093e-02, 2.54934460e-01, 2.54934460e-01, 2.54934460e-01,
          9.34520811e-02, 2.54934460e-01, 2.54934460e-01, 2.54934460e-01,
          9.63655114e-02, 8.09951201e-02, 8.18934590e-02, 4.12662737e-02 ]
      - [ 2.30736621e-02, 9.43761617e-02, 2.69619226e-01, 2.69619226e-01,
          2.69619226e-01, 7.53556043e-02, 3.40355672e-02, 9.93150007e-03,
          0., 1.01723485e-01, 0., 2.41531841e-02, 0., 2.69619226e-01,
          2.69619226e-01, 2.16533840e-01, 1.16604999e-01, 6.17642254e-02,
          2.25156546e-01, 2.40836516e-02, 9.96744856e-02, 1.50758699e-01,
          2.69619226e-01, 1.25264943e-01, 2.24987864e-01, 1.86294332e-01,
          3.70339938e-02, 2.52781242e-01, 2.67864674e-01, 1.69233307e-01,
          1.64419442e-01, 3.43315043e-02, 5.00675738e-02, 5.11452183e-02,
          1.85363889e-01, 2.32201278e-01 ]
      - [ 1.14642799e-01, 9.93799120e-02, 2.89518774e-01, 2.44981289e-01,
          1.52559653e-01, 3.63026001e-02, 9.80154052e-02, 5.74984215e-02,
          0., 0., 8.05945396e-02, 8.49994794e-02, 2.41063237e-01,
          2.89518774e-01, 2.89518774e-01, 4.61884551e-02, 5.67744561e-02,
          1.84908360e-02, 2.89518774e-01, 1.03738107e-01, 1.34821162e-01,
          3.38269514e-03, 6.67309342e-03, 3.23483832e-02, 1.53965950e-01,
          2.62721241e-01, 1.46686777e-01, 1.53819948e-01, 6.51473701e-02,
          1.88264817e-01, 2.89518774e-01, 2.89518774e-01, 2.38463908e-01,
          1.40030786e-01, 5.64691834e-02, 1.08192578e-01 ]
      - [ 1.04561180e-01, 1.35830969e-01, 2.82444626e-01, 2.82444626e-01,
          2.82444626e-01, 1.09407358e-01, 7.21287727e-03, 0., 0.,
          1.59369126e-01, 3.77168842e-02, 3.90598662e-02, 0.,
          2.42345780e-01, 2.82444626e-01, 2.82444626e-01, 5.23081012e-02,
          1.95299331e-02, 2.82444626e-01, 3.55781503e-02, 7.21190544e-03,
          6.37028292e-02, 2.82444626e-01, 6.02458045e-02, 1.88754037e-01,
          8.82003829e-02, 1.49698526e-01, 2.65430927e-01, 7.52646253e-02,
          2.46651322e-01, 1.06888711e-01, 2.82444626e-01, 0.,
          6.55414909e-02, 5.16713448e-02, 5.56320790e-03 ]
      - [ 1.41928673e-01, 2.36749858e-01, 2.23789141e-01, 2.76198328e-01,
          2.76198328e-01, 2.25389808e-01, 1.51087958e-02, 7.25289667e-03,
          0., 9.56571177e-02, 4.86724265e-02, 2.58348752e-02, 0.,
          6.54360503e-02, 2.76198328e-01, 2.76198328e-01, 8.93823877e-02,
          1.14080936e-01, 2.76198328e-01, 0., 5.85815758e-02,
          1.26489997e-01, 2.76099980e-01, 2.33283773e-01, 2.26469144e-01,
          6.59429803e-02, 1.16681501e-01, 2.03088745e-01, 4.95244227e-02,
          1.51439756e-01, 1.23263367e-01, 2.76198328e-01, 1.10618040e-01,
          7.81066045e-02, 3.68290059e-02, 8.12590048e-02 ]
      - [ 0., 1.01702757e-01, 2.94433683e-01, 2.94433683e-01,
          2.94433683e-01, 6.27323538e-02, 0., 0., 1.19621577e-02,
          6.24755211e-02, 8.53865147e-02, 7.42057189e-02, 9.70236138e-02,
          2.09489867e-01, 2.94433683e-01, 8.82710516e-02, 8.86284709e-02,
          6.85540289e-02, 2.48616189e-01, 2.13403441e-02, 1.69987958e-02,
          1.78288653e-01, 1.73502967e-01, 0., 1.18215919e-01,
          1.08789831e-01, 2.94433683e-01, 2.93306649e-01, 2.08563834e-01,
          2.94433683e-01, 1.01776600e-01, 2.72984177e-01, 8.28724504e-02,
          0., 4.05302159e-02, 4.37336937e-02 ]
      - [ 8.53051320e-02, 1.15477420e-01, 9.98629406e-02, 3.05467159e-01,
          3.05467159e-01, 3.05467159e-01, 1.96782529e-01, 0., 0.,
          1.82078019e-01, 4.59218174e-02, 4.75569516e-02, 0.,
          1.97684616e-01, 1.75439894e-01, 2.14398935e-01, 6.36872053e-02,
          2.37784758e-02, 3.05467159e-01, 7.31356144e-02, 1.54972255e-01,
          2.07099646e-01, 3.05467159e-01, 7.35266581e-02, 9.66434404e-02,
          6.15564995e-02, 1.29861623e-01, 2.64018625e-01, 5.04417606e-02,
          1.53760493e-01, 0., 3.02282065e-01, 0., 7.97993988e-02,
          6.98692128e-02, 0. ]
      - [ 2.18345612e-01, 2.17628539e-01, 2.87296474e-01, 2.68321544e-01,
          1.99969918e-01, 0., 6.26301998e-03, 0., 0., 7.64854103e-02,
          3.27499807e-02, 3.39161083e-02, 0., 3.00224870e-01,
          3.00224870e-01, 2.93241590e-01, 4.54196930e-02, 0.,
          3.00224870e-01, 8.60564690e-03, 0., 0., 8.29102695e-02,
          5.23120873e-02, 2.08677754e-01, 1.42353773e-01, 2.44528949e-01,
          1.92238927e-01, 8.76403451e-02, 2.20432192e-01, 1.48126498e-01,
          3.00224870e-01, 0., 5.69103956e-02, 4.48667929e-02,
          4.83059417e-03 ]
      - [ 2.07354516e-01, 2.80157477e-01, 2.80157477e-01, 2.41229698e-01,
          5.32085216e-03, 0., 0., 6.98268879e-03, 0., 1.31183684e-01,
          5.57218120e-02, 5.55536970e-02, 2.51268357e-01, 2.80157477e-01,
          1.31147400e-01, 7.52034113e-02, 5.48717864e-02, 2.40911823e-02,
          2.42960960e-01, 8.41300562e-03, 0., 0., 1.17371455e-01,
          2.64102995e-01, 2.80157477e-01, 2.80157477e-01, 4.62026298e-02,
          1.15705244e-01, 1.90833900e-02, 2.80157477e-01, 2.80157477e-01,
          2.67665058e-01, 3.60877775e-02, 0., 5.30774407e-02,
          4.53573093e-02 ]
      - [ 2.22392902e-01, 2.84049988e-01, 2.84049988e-01, 2.45813444e-01,
          0., 0., 0., 5.38541144e-03, 0., 1.25653863e-01, 6.91530406e-02,
          7.97799677e-02, 1.42304167e-01, 2.84049988e-01, 2.72965163e-01,
          1.10055074e-01, 4.92695570e-02, 1.03082642e-01, 1.58385471e-01,
          1.14825992e-02, 0., 9.96224675e-03, 4.28486802e-02,
          2.82317698e-01, 2.84049988e-01, 2.84049988e-01, 1.72889054e-01,
          5.15682250e-02, 9.78145227e-02, 1.44266233e-01, 2.84049988e-01,
          2.73921549e-01, 4.44235168e-02, 8.88845176e-02, 4.84859981e-02,
          4.55553420e-02 ]
      - [ 6.22788146e-02, 2.96952188e-01, 2.96952188e-01, 1.91036865e-01,
          3.90703185e-03, 0., 0., 0., 6.35317899e-03, 1.54829383e-01,
          5.66882975e-02, 5.51641099e-02, 2.89140165e-01, 2.96952188e-01,
          0., 7.13154823e-02, 2.53204592e-02, 8.46403986e-02,
          2.96952188e-01, 2.09538657e-02, 0., 7.00720446e-03,
          1.03776082e-01, 2.96952188e-01, 2.96952188e-01, 2.02454075e-01,
          1.04243927e-01, 8.23210478e-02, 0., 2.96952188e-01,
          2.82848239e-01, 2.39451274e-01, 4.60675657e-02, 6.55000284e-02,
          4.40825149e-02, 0. ]
      - [ 4.95286509e-02, 2.86651909e-01, 2.86651909e-01, 2.86651909e-01,
          2.86651909e-01, 5.22702858e-02, 0., 8.09776504e-03, 0.,
          1.52132601e-01, 6.46201149e-02, 6.44251481e-02, 1.79401696e-01,
          9.18685272e-02, 9.98202488e-02, 8.72127563e-02, 6.36343434e-02,
          2.79383399e-02, 1.15374118e-01, 9.75649152e-03, 1.33378997e-01,
          2.10685402e-01, 2.86651909e-01, 2.86651909e-01, 2.86651909e-01,
          1.59045368e-01, 5.35807982e-02, 1.50466204e-01, 2.21308451e-02,
          2.86651909e-01, 2.86651909e-01, 1.59818113e-01, 4.18506861e-02,
          0., 6.15534559e-02, 5.26004881e-02 ]
      - [ 2.05334753e-01, 2.74979323e-01, 2.74979323e-01, 5.41521050e-02,
          5.40779112e-03, 0., 0., 0., 0., 8.72267783e-02, 1.93650141e-01,
          2.57759511e-01, 2.74979323e-01, 2.74979323e-01, 1.33290261e-01,
          7.60271847e-02, 5.45402467e-02, 0., 2.72360653e-01, 0., 0., 0.,
          5.40779112e-03, 6.04810789e-02, 2.74979323e-01, 2.74979323e-01,
          4.69575487e-02, 0., 2.80990563e-02, 2.74979323e-01,
          2.74979323e-01, 2.74979323e-01, 2.07937166e-01, 1.09847002e-01,
          1.08155822e-02, 0. ]
      - [ 1.14956170e-01, 2.73794413e-01, 2.73794413e-01, 2.73794413e-01,
          1.36030503e-02, 3.97736812e-03, 1.53928890e-03, 0.,
          4.37629633e-02, 4.81376536e-02, 3.99232544e-02, 1.77373905e-02,
          2.73794413e-01, 2.18033209e-01, 2.15177566e-01, 2.73794413e-01,
          1.54082328e-01, 2.49273470e-03, 1.15959667e-01, 3.60283721e-03,
          0., 0., 9.52271149e-02, 2.62577385e-01, 2.73794413e-01,
          2.73794413e-01, 2.73794413e-01, 8.09256919e-03, 7.38277435e-02,
          1.05025746e-01, 2.73794413e-01, 2.73794413e-01, 4.86917011e-02,
          5.31754456e-02, 0., 0. ]
      - [ 1.35421425e-01, 2.77500987e-01, 2.77500987e-01, 2.77500987e-01,
          1.02460392e-01, 2.74434267e-03, 0., 0., 5.27591109e-02,
          7.01408181e-03, 3.65706645e-02, 0., 2.77500987e-01,
          2.77500987e-01, 2.45042875e-01, 2.77500987e-01, 1.06573828e-01,
          2.96163857e-02, 7.01408181e-03, 0., 0., 0., 3.73223647e-02,
          2.77500987e-01, 2.77500987e-01, 2.77500987e-01, 2.63580471e-01,
          1.72834117e-02, 3.70871201e-02, 1.28244504e-01, 6.18242659e-02,
          2.77500987e-01, 1.62953734e-01, 6.06722496e-02, 3.92576195e-02,
          0. ]
      - [ 1.64243832e-01, 3.03416818e-01, 3.03416818e-01, 1.56030208e-01,
          1.08259460e-02, 0., 0., 0., 0., 1.38618514e-01, 4.61719744e-02,
          1.80308625e-01, 1.67469442e-01, 1.21789657e-01, 2.99791455e-01,
          1.10069506e-01, 1.13183856e-01, 0., 1.86840847e-01, 0., 0.,
          4.03615693e-03, 8.97100344e-02, 1.35729983e-01, 3.03416818e-01,
          3.03416818e-01, 3.03416818e-01, 7.58393407e-02, 4.73967791e-02,
          1.43249452e-01, 3.03416818e-01, 3.03416818e-01, 0.,
          4.97479215e-02, 0., 1.42009640e-02 ]
      - [ 8.35555419e-02, 1.80254161e-01, 2.87876815e-01, 2.87876815e-01,
          1.73530117e-01, 4.75473702e-03, 1.74672890e-03, 0., 0.,
          7.83496499e-02, 4.42240685e-02, 2.08341945e-02, 4.20237817e-02,
          1.41871527e-01, 2.87876815e-01, 2.68069506e-01, 1.75700590e-01,
          2.71269423e-03, 7.94763416e-02, 0., 3.78113333e-03,
          6.05506226e-02, 2.87876815e-01, 2.87876815e-01, 2.87876815e-01,
          2.87876815e-01, 9.71062705e-02, 4.50054854e-02, 9.03653726e-02,
          1.19179383e-01, 2.87876815e-01, 2.87876815e-01, 5.52535653e-02,
          6.03415556e-02, 0., 2.92174350e-02 ]
      - [ 1.66292489e-01, 2.95091838e-01, 2.95091838e-01, 2.32376866e-02,
          6.13789260e-03, 0., 5.23086917e-03, 0., 4.60734628e-02,
          1.95479393e-02, 1.37247453e-02, 2.15031102e-01, 2.95091838e-01,
          2.95091838e-01, 2.20127657e-01, 2.26405546e-01, 2.77252439e-02,
          0., 1.36773869e-01, 3.66822421e-03, 0., 0., 0., 1.08897179e-01,
          2.15701625e-01, 2.95091838e-01, 2.95091838e-01, 1.71105657e-02,
          0., 0., 2.95091838e-01, 2.95091838e-01, 1.72175273e-01,
          1.34802446e-01, 2.18449198e-02, 0. ]
      - [ 2.22546846e-01, 1.03983991e-01, 2.40546048e-01, 1.52938336e-01,
          2.83279307e-02, 0., 0., 0., 9.20644030e-02, 5.45693226e-02,
          1.96253303e-02, 6.43424392e-02, 2.43658662e-01, 2.87359327e-01,
          2.87359327e-01, 2.87359327e-01, 8.88888612e-02, 0.,
          2.87359327e-01, 1.04841720e-02, 0., 0., 0., 1.15583232e-02,
          1.79098725e-01, 1.43637463e-01, 2.87359327e-01, 2.87359327e-01,
          9.15347040e-02, 2.34072119e-01, 8.06716979e-02, 2.87359327e-01,
          2.10222378e-01, 6.29160926e-02, 6.74791187e-02, 1.44895881e-01 ]
      - [ 1.89830408e-01, 1.37091205e-01, 1.99439466e-01, 1.96273953e-01,
          7.66073689e-02, 0., 6.85049873e-03, 0., 8.59217495e-02, 0.,
          5.43400310e-02, 8.87135565e-02, 9.60974470e-02, 3.00856769e-01,
          3.00856769e-01, 2.65611768e-01, 4.95999455e-02, 0.,
          3.00856769e-01, 7.61330128e-02, 5.12473425e-03, 0., 0., 0.,
          1.93663374e-01, 2.31270581e-01, 1.40664175e-01, 3.00856769e-01,
          0., 1.74761072e-01, 8.93495232e-02, 3.00856769e-01,
          3.00856769e-01, 1.94598034e-01, 8.89231488e-02, 1.28512591e-01 ]
      - [ 1.37655646e-01, 2.76834041e-01, 1.71089560e-01, 1.87234923e-01,
          8.66415258e-03, 0., 0., 1.07360967e-02, 5.15232012e-02,
          5.15462495e-02, 1.73283052e-02, 6.24058768e-02, 2.76834041e-01,
          2.76834041e-01, 2.76834041e-01, 2.29378417e-01, 3.70982252e-02,
          1.98155758e-03, 2.76834041e-01, 0., 0., 0., 0., 2.55535636e-03,
          8.55896920e-02, 2.53113151e-01, 2.76834041e-01, 1.47708327e-01,
          1.63644627e-01, 2.76834041e-01, 1.41892388e-01, 2.76834041e-01,
          9.25011560e-02, 4.65987287e-02, 1.11535512e-01, 2.76834041e-01 ]
      - [ 2.42176622e-01, 1.13545224e-01, 2.73308992e-01, 2.73308992e-01,
          1.97253928e-01, 0., 0., 0., 8.45686570e-02, 9.93998721e-02,
          6.15545996e-02, 0., 4.43313904e-02, 2.46602222e-01,
          2.73308992e-01, 2.73308992e-01, 1.36805221e-01, 6.16460405e-02,
          2.73308992e-01, 9.63056646e-03, 0., 0., 6.31636083e-02,
          6.97307885e-02, 2.22310320e-01, 1.93927780e-01, 2.73308992e-01,
          2.42326096e-01, 1.56521037e-01, 2.15014309e-01, 1.16655327e-01,
          2.73308992e-01, 1.33992851e-01, 4.75407578e-02, 0.,
          3.60549279e-02 ]
      - [ 1.50143266e-01, 1.75420746e-01, 1.33394077e-01, 0.,
          9.91613884e-03, 0., 0., 0., 3.13575864e-02, 1.69674262e-01,
          2.37780660e-02, 2.17632890e-01, 3.01769972e-01, 3.01769972e-01,
          2.37501293e-01, 2.41082519e-01, 3.54076996e-02, 7.93256517e-03,
          3.01769972e-01, 0., 0., 0., 0., 0., 1.33929744e-01,
          1.27338797e-01, 2.51791447e-01, 3.01769972e-01, 1.32599115e-01,
          1.63426295e-01, 0., 3.01769972e-01, 1.43898651e-01,
          1.44677818e-01, 7.33121112e-02, 3.01769972e-01 ]
      - [ 1.04561180e-01, 1.35830969e-01, 2.82444626e-01, 2.82444626e-01,
          2.82444626e-01, 1.09407358e-01, 7.21287727e-03, 0., 0.,
          1.59369126e-01, 3.77168842e-02, 3.90598662e-02, 0.,
          2.42345780e-01, 2.82444626e-01, 2.82444626e-01, 5.23081012e-02,
          1.95299331e-02, 2.82444626e-01, 3.55781503e-02, 7.21190544e-03,
          6.37028292e-02, 2.82444626e-01, 6.02458045e-02, 1.88754037e-01,
          8.82003829e-02, 1.49698526e-01, 2.65430927e-01, 7.52646253e-02,
          2.46651322e-01, 1.06888711e-01, 2.82444626e-01, 0.,
          6.55414909e-02, 5.16713448e-02, 5.56320790e-03 ]
      - [ 1.41928673e-01, 2.36749858e-01, 2.23789141e-01, 2.76198328e-01,
          2.76198328e-01, 2.25389808e-01, 1.51087958e-02, 7.25289667e-03,
          0., 9.56571177e-02, 4.86724265e-02, 2.58348752e-02, 0.,
          6.54360503e-02, 2.76198328e-01, 2.76198328e-01, 8.93823877e-02,
          1.14080936e-01, 2.76198328e-01, 0., 5.85815758e-02,
          1.26489997e-01, 2.76099980e-01, 2.33283773e-01, 2.26469144e-01,
          6.59429803e-02, 1.16681501e-01, 2.03088745e-01, 4.95244227e-02,
          1.51439756e-01, 1.23263367e-01, 2.76198328e-01, 1.10618040e-01,
          7.81066045e-02, 3.68290059e-02, 8.12590048e-02 ]
      - [ 0., 1.01702757e-01, 2.94433683e-01, 2.94433683e-01,
          2.94433683e-01, 6.27323538e-02, 0., 0., 1.19621577e-02,
          6.24755211e-02, 8.53865147e-02, 7.42057189e-02, 9.70236138e-02,
          2.09489867e-01, 2.94433683e-01, 8.82710516e-02, 8.86284709e-02,
          6.85540289e-02, 2.48616189e-01, 2.13403441e-02, 1.69987958e-02,
          1.78288653e-01, 1.73502967e-01, 0., 1.18215919e-01,
          1.08789831e-01, 2.94433683e-01, 2.93306649e-01, 2.08563834e-01,
          2.94433683e-01, 1.01776600e-01, 2.72984177e-01, 8.28724504e-02,
          0., 4.05302159e-02, 4.37336937e-02 ]
      - [ 8.53051320e-02, 1.15477420e-01, 9.98629406e-02, 3.05467159e-01,
          3.05467159e-01, 3.05467159e-01, 1.96782529e-01, 0., 0.,
          1.82078019e-01, 4.59218174e-02, 4.75569516e-02, 0.,
          1.97684616e-01, 1.75439894e-01, 2.14398935e-01, 6.36872053e-02,
          2.37784758e-02, 3.05467159e-01, 7.31356144e-02, 1.54972255e-01,
          2.07099646e-01, 3.05467159e-01, 7.35266581e-02, 9.66434404e-02,
          6.15564995e-02, 1.29861623e-01, 2.64018625e-01, 5.04417606e-02,
          1.53760493e-01, 0., 3.02282065e-01, 0., 7.97993988e-02,
          6.98692128e-02, 0. ]
      - [ 2.18345612e-01, 2.17628539e-01, 2.87296474e-01, 2.68321544e-01,
          1.99969918e-01, 0., 6.26301998e-03, 0., 0., 7.64854103e-02,
          3.27499807e-02, 3.39161083e-02, 0., 3.00224870e-01,
          3.00224870e-01, 2.93241590e-01, 4.54196930e-02, 0.,
          3.00224870e-01, 8.60564690e-03, 0., 0., 8.29102695e-02,
          5.23120873e-02, 2.08677754e-01, 1.42353773e-01, 2.44528949e-01,
          1.92238927e-01, 8.76403451e-02, 2.20432192e-01, 1.48126498e-01,
          3.00224870e-01, 0., 5.69103956e-02, 4.48667929e-02,
          4.83059417e-03 ]
      - [ 4.03104872e-02, 6.23868406e-02, 2.56137159e-02, 1.83876216e-01,
          3.45408916e-01, 1.09884813e-01, 1.45536616e-01, 3.43457639e-01,
          1.81697547e-01, 5.81693538e-02, 3.32104892e-01, 1.79975748e-01,
          1.43276572e-01, 3.45408916e-01, 1.21705323e-01, 7.67359659e-02,
          7.69232363e-02, 2.80030500e-02, 1.28341705e-01, 0., 0.,
          5.25696250e-03, 3.94328544e-03, 2.37135831e-02, 4.38258424e-02,
          3.45408916e-01, 1.79764822e-01, 2.17023551e-01, 3.45408916e-01,
          1.90104470e-02, 6.58591241e-02, 3.79999802e-02, 6.33090385e-04,
          0., 0., 0. ]
      - [ 1.28616825e-01, 4.49346341e-02, 2.08673440e-02, 1.36526808e-01,
          1.31152749e-01, 2.31891945e-01, 1.08081639e-01, 1.94756493e-01,
          3.54893625e-01, 1.19904727e-01, 1.07906394e-01, 2.33806178e-01,
          9.37459767e-02, 3.54893625e-01, 3.54893625e-01, 1.59271106e-01,
          1.09014437e-02, 7.10994825e-02, 1.55790269e-01, 2.94545339e-03,
          1.64810324e-03, 1.22272018e-02, 2.97138244e-02, 3.95580940e-02,
          2.02280059e-02, 1.46790385e-01, 3.54893625e-01, 1.12579092e-01,
          3.54893625e-01, 1.45559177e-01, 7.69214407e-02, 5.80761768e-02,
          0., 5.15470514e-03, 0., 0. ]
      - [ 7.02658156e-03, 4.29262929e-02, 1.65843591e-01, 3.42213690e-01,
          3.04446667e-01, 5.51638752e-02, 1.41591087e-01, 2.39183694e-01,
          5.27125150e-02, 2.15693086e-01, 3.42213690e-01, 1.64685994e-01,
          2.10254237e-01, 2.16702953e-01, 8.13221186e-02, 1.97338667e-02,
          8.62182304e-02, 4.16736417e-02, 1.09565109e-01, 6.07067486e-03,
          0., 0., 1.72115378e-02, 1.77211035e-02, 9.35773253e-02,
          3.42213690e-01, 6.37551956e-03, 3.42213690e-01, 3.42213690e-01,
          1.52230645e-02, 4.33104448e-02, 6.77790344e-02, 1.12344380e-02,
          4.85237269e-03, 1.10773859e-03, 0. ]
      - [ 0., 1.59199446e-01, 2.85965111e-02, 1.11353897e-01,
          3.36250305e-01, 1.50019109e-01, 1.22800522e-01, 3.03438723e-01,
          8.25572833e-02, 1.74625456e-01, 2.70202219e-01, 2.11566240e-01,
          1.93972543e-01, 2.37426847e-01, 1.98218614e-01, 1.02353498e-01,
          8.18596631e-02, 1.13801889e-01, 1.76041290e-01, 1.92119971e-01,
          1.78609937e-02, 7.00232014e-02, 1.09204575e-01, 2.44640112e-02,
          5.58775216e-02, 3.36250305e-01, 1.44630715e-01, 2.53776073e-01,
          3.36250305e-01, 0., 0., 0., 0., 0., 0., 0. ]
      - [ 1.12509526e-01, 5.82487583e-02, 5.95266968e-02, 1.36411533e-01,
          3.19851279e-01, 1.57793730e-01, 1.19969308e-01, 1.63078532e-01,
          2.18419194e-01, 1.87527575e-02, 2.58880705e-01, 1.83361515e-01,
          2.71554321e-01, 3.19851279e-01, 7.28390068e-02, 0.,
          1.81229174e-01, 1.24632806e-01, 1.26784205e-01, 0., 0., 0., 0.,
          0., 0., 3.19851279e-01, 3.19851279e-01, 1.71705663e-01,
          3.19851279e-01, 2.20953170e-02, 1.10861801e-01, 1.33751377e-01,
          1.47440210e-02, 3.36898342e-02, 1.63816437e-01, 6.20456189e-02 ]
      - [ 2.23819971e-01, 1.01193935e-01, 5.28635420e-02, 5.42730764e-02,
          2.44430080e-01, 7.90633336e-02, 3.15332144e-01, 3.15332144e-01,
          1.84584945e-01, 3.15332144e-01, 1.53733686e-01, 9.69485119e-02,
          7.05455542e-02, 1.13696672e-01, 6.58358410e-02, 1.01678587e-01,
          3.15332144e-01, 1.08267680e-01, 2.19902005e-02, 0., 0.,
          3.44865732e-02, 5.83369918e-02, 1.38811991e-01, 3.15332144e-01,
          3.15332144e-01, 2.26733387e-02, 3.15332144e-01, 9.26888287e-02,
          5.67818284e-02, 4.37149219e-02, 1.10471964e-01, 7.86717758e-02,
          0., 0., 5.92030957e-02 ]
      - [ 1.01830900e-01, 6.87561482e-02, 8.25765580e-02, 4.59011830e-02,
          2.38053396e-01, 5.88534400e-02, 2.84997821e-01, 2.84997821e-01,
          1.19087964e-01, 2.84997821e-01, 2.60134965e-01, 1.76807597e-01,
          9.77683589e-02, 7.09685534e-02, 1.38892353e-01, 2.19405338e-01,
          2.40972206e-01, 1.53457507e-01, 2.49766484e-02, 0., 0.,
          3.39213796e-02, 4.27192487e-02, 1.91914424e-01, 2.84997821e-01,
          2.84997821e-01, 3.02510541e-02, 2.84997821e-01, 2.84997821e-01,
          1.26900122e-01, 9.38725024e-02, 6.47198781e-02, 0., 0.,
          8.54062010e-03, 0. ]
      - [ 2.51338869e-01, 1.03131980e-01, 0., 8.71434733e-02,
          2.42876053e-01, 8.96232724e-02, 2.93680787e-01, 1.28899261e-01,
          2.93680787e-01, 2.93680787e-01, 1.88722879e-01, 4.76219272e-03,
          4.97836024e-02, 4.50559566e-03, 6.60647824e-02, 2.55312443e-01,
          1.69969484e-01, 2.53133148e-01, 1.96938999e-02, 0.,
          3.08877099e-02, 0., 6.45057932e-02, 3.47404815e-02,
          2.93680787e-01, 2.93680787e-01, 5.72696049e-03, 2.93680787e-01,
          7.40438178e-02, 3.46649140e-02, 1.36177540e-01, 0.,
          1.05884634e-01, 0., 2.10547559e-02, 2.70542800e-01 ]
      - [ 2.90586412e-01, 1.05072312e-01, 5.34403659e-02, 6.04103394e-02,
          2.90586412e-01, 7.99260437e-02, 2.90586412e-01, 2.90568322e-01,
          2.29664296e-01, 2.90586412e-01, 9.76023674e-02, 9.80063751e-02,
          1.09049808e-02, 0., 6.65542111e-02, 1.02788061e-01,
          2.90586412e-01, 4.56020981e-02, 1.41618773e-01, 2.43323036e-02,
          5.74014075e-02, 3.48628759e-02, 2.23584130e-01, 2.04339460e-01,
          2.90586412e-01, 2.90586412e-01, 1.78520405e-03, 2.90586412e-01,
          6.93679079e-02, 0., 4.41919230e-02, 0., 0., 0., 0.,
          5.80638908e-02 ]
      - [ 1.15103573e-01, 5.47352470e-02, 2.97951940e-02, 5.45668490e-02,
          1.73523009e-01, 7.94912949e-02, 3.17105085e-01, 3.17105085e-01,
          4.74416614e-02, 3.17105085e-01, 2.01572254e-01, 1.42563343e-01,
          7.09274113e-02, 1.27473414e-01, 6.61922023e-02, 1.86287120e-01,
          3.17105085e-01, 2.01642126e-01, 1.58871133e-02, 0., 0., 0.,
          6.58065733e-03, 1.54330097e-02, 1.60393074e-01, 3.17105085e-01,
          2.27960665e-02, 3.17105085e-01, 9.31905434e-02, 5.70891835e-02,
          7.86247924e-02, 1.63142040e-01, 2.03227982e-01, 2.09244996e-01,
          1.25491470e-01, 5.95235564e-02 ]
      - [ 8.80272016e-02, 5.21736965e-02, 0., 0., 5.56912199e-02,
          1.23945223e-02, 2.35590547e-01, 3.59356076e-01, 3.47612411e-01,
          2.41323203e-01, 3.59356076e-01, 1.56385392e-01, 0.,
          1.55763701e-01, 0., 5.59502915e-02, 1.97602101e-02,
          2.36161221e-02, 1.55901074e-01, 2.69700829e-02, 5.36210164e-02,
          6.24110922e-02, 1.78253248e-01, 9.52127129e-02, 2.93865316e-02,
          3.05363387e-01, 3.59356076e-01, 1.10560767e-01, 3.59356076e-01,
          5.80844842e-02, 0., 0., 2.20084004e-03, 0., 0., 0. ]
      - [ 1.94171399e-01, 0., 8.82261433e-03, 2.06655376e-02, 0., 0., 0.,
          3.25172573e-01, 3.25172573e-01, 9.18548107e-02, 3.25172573e-01,
          3.25172573e-01, 1.05203688e-01, 1.00569434e-01, 9.63684320e-02,
          2.30590794e-02, 5.05019948e-02, 8.99966434e-03, 3.25172573e-01,
          7.63771385e-02, 6.40930459e-02, 1.67966694e-01, 4.41859402e-02,
          1.38303027e-01, 4.85252105e-02, 1.93014771e-01, 3.17396373e-01,
          4.43772227e-03, 3.25172573e-01, 2.92267680e-01, 1.66044366e-02,
          0., 0., 0., 0., 0. ]
      - [ 2.21767575e-02, 4.81888093e-03, 5.44844270e-02, 6.45693392e-02,
          1.32273614e-01, 8.27091411e-02, 3.34658146e-01, 3.34658146e-01,
          7.49734640e-02, 3.34658146e-01, 3.34658146e-01, 4.67779525e-02,
          2.92586181e-02, 5.89182824e-02, 0., 5.55269271e-02,
          2.69115195e-02, 9.76793021e-02, 1.38942108e-01, 0., 0.,
          8.33143145e-02, 1.08694188e-01, 5.26137352e-02, 2.18080301e-02,
          3.34658146e-01, 3.34658146e-01, 3.34658146e-01, 3.34658146e-01,
          7.24690780e-02, 0., 0., 0., 0., 0., 0. ]
      - [ 1.13683924e-01, 2.97431648e-01, 0., 0., 1.63267851e-01,
          1.29103577e-02, 2.45395362e-01, 2.97431648e-01, 2.42023185e-01,
          2.04609752e-01, 2.97431648e-01, 1.62893847e-01, 0.,
          1.62246272e-01, 0., 5.82788326e-02, 2.05825903e-02,
          2.45989785e-02, 2.41397768e-01, 2.97431648e-01, 1.16354465e-01,
          6.50085211e-02, 1.85671791e-01, 1.01467714e-01, 3.06095425e-02,
          2.97431648e-01, 2.97431648e-01, 3.61536779e-02, 2.97431648e-01,
          0., 0., 0., 0., 0., 0., 0. ]
      - [ 1.45262703e-01, 5.44616207e-02, 0., 0., 5.37058078e-02,
          1.13962041e-02, 2.75264025e-01, 3.39798123e-01, 2.85631865e-01,
          1.37688935e-01, 3.39798123e-01, 1.63019717e-01, 0.,
          2.78057784e-01, 0., 4.07251418e-02, 2.16259986e-01,
          7.92230070e-02, 1.36041239e-01, 0., 0., 0., 0., 6.05232678e-02,
          3.09930779e-02, 2.40097016e-01, 3.39798123e-01, 1.42321303e-01,
          3.39798123e-01, 1.16210133e-01, 6.46950081e-02, 2.25644037e-01,
          2.29735137e-03, 0., 8.01975876e-02, 9.13015101e-03 ]
      - [ 3.11095536e-01, 2.30712056e-01, 3.09430808e-02, 0.,
          2.76517421e-01, 1.61677543e-02, 3.11095536e-01, 3.11095536e-01,
          0., 3.11095536e-01, 1.68102294e-01, 0., 5.58198839e-02,
          1.11560486e-01, 6.23167790e-02, 9.39626023e-02, 6.86811581e-02,
          1.62223980e-01, 8.67755935e-02, 2.14339681e-02, 5.44335926e-03,
          7.82206431e-02, 1.28954267e-02, 2.35543385e-01, 3.11095536e-01,
          3.11095536e-01, 7.81071633e-02, 3.11095536e-01, 1.39052421e-01,
          4.58604805e-02, 5.00173829e-02, 6.50879294e-02, 0., 0., 0., 0. ]
      - [ 2.06584577e-02, 2.90894866e-01, 8.09959322e-02, 3.36202197e-02,
          2.73286790e-01, 7.35212788e-02, 2.90894866e-01, 2.90894866e-01,
          2.45257914e-01, 1.11018151e-01, 2.90894866e-01, 4.25672941e-02,
          4.90019508e-02, 7.31211528e-02, 1.96600020e-01, 1.09285153e-01,
          7.67792538e-02, 1.55743390e-01, 2.64896918e-02, 3.57474275e-02,
          3.60557772e-02, 5.95376492e-02, 1.44050241e-01, 1.81878909e-01,
          2.90894866e-01, 2.90894866e-01, 9.10423882e-03, 2.90894866e-01,
          2.90894866e-01, 9.58668664e-02, 4.60717641e-02, 0., 0., 0., 0.,
          0. ]
      - [ 3.26648921e-01, 7.48083666e-02, 0., 5.86145297e-02,
          2.03809828e-01, 1.79619640e-01, 3.26648921e-01, 2.18412325e-01,
          4.62896265e-02, 3.26648921e-01, 4.42996919e-02, 9.32967942e-03,
          4.83488627e-02, 0., 6.10798858e-02, 9.81407315e-02,
          1.12935128e-02, 2.97980100e-01, 1.15595192e-01, 1.96040515e-02,
          1.67326014e-02, 2.96938680e-02, 9.65898037e-02, 1.20241128e-01,
          3.26648921e-01, 3.26648921e-01, 1.46942809e-01, 3.26648921e-01,
          8.04279521e-02, 5.33752367e-02, 2.32896823e-02, 5.75425290e-02,
          0., 0., 0., 2.16781855e-01 ]
      - [ 2.83287406e-01, 2.83287406e-01, 3.36413272e-02, 6.06873967e-02,
          2.83287406e-01, 1.13870958e-02, 2.83287406e-01, 2.74503559e-01,
          6.64046127e-03, 2.83287406e-01, 5.95550463e-02, 0., 0., 0.,
          6.77508265e-02, 1.02156170e-01, 7.46701807e-02, 1.69729501e-01,
          2.83287406e-01, 1.31030664e-01, 5.57775535e-02, 1.39420435e-01,
          1.92964777e-01, 2.56082833e-01, 2.83287406e-01, 2.83287406e-01,
          4.12565889e-03, 2.83287406e-01, 4.34501879e-02, 0., 0., 0., 0.,
          0., 0., 0. ]
      - [ 1.65674776e-01, 7.71944672e-02, 1.11008529e-02, 0.,
          1.78105056e-01, 1.56427100e-02, 3.34536999e-01, 3.34536999e-01,
          3.29927616e-02, 3.34536999e-01, 3.34536999e-01, 2.99382154e-02,
          5.40071502e-02, 1.07937597e-01, 6.02930635e-02, 9.08361450e-02,
          6.64507598e-02, 1.39851108e-01, 4.17438336e-02, 0., 0., 0., 0.,
          5.49940355e-02, 3.34536999e-01, 3.34536999e-01, 7.18991309e-02,
          3.34536999e-01, 1.55274644e-01, 4.96377647e-02, 1.24073543e-01,
          7.54508674e-02, 1.72900155e-01, 1.05737060e-01, 0.,
          3.67152155e-03 ]
      - [ 1.55870140e-01, 1.78315580e-01, 3.74398641e-02, 1.18416801e-01,
          1.53516382e-01, 1.34344622e-01, 3.07478338e-01, 3.07478338e-01,
          1.80157959e-01, 3.07478338e-01, 3.07478338e-01, 5.63826337e-02,
          6.91350624e-02, 6.77568614e-02, 2.19823383e-02, 7.47624785e-02,
          3.07478338e-01, 8.49643350e-02, 7.23861381e-02, 0., 0., 0.,
          8.95456672e-02, 7.12375641e-02, 1.04572013e-01, 3.07478338e-01,
          3.07478338e-01, 3.07478338e-01, 1.74791843e-01, 0.,
          8.91073123e-02, 6.68274909e-02, 0., 0., 0., 0. ]
      - [ 5.99137172e-02, 1.64813787e-01, 6.78141043e-02, 3.31188552e-02,
          2.39933416e-01, 7.71803409e-02, 2.24844545e-01, 3.15875769e-01,
          2.97499895e-01, 2.78927367e-02, 3.15875769e-01, 1.31494418e-01,
          5.17205819e-02, 5.91055863e-02, 1.12814017e-01, 1.53273955e-01,
          2.94519842e-01, 1.05836011e-01, 8.37953836e-02, 0., 0., 0.,
          1.04952037e-01, 1.63741380e-01, 1.06355734e-01, 2.81071872e-01,
          3.15875769e-01, 2.16116443e-01, 3.15875769e-01, 1.31311238e-01,
          0., 6.59158751e-02, 0., 0., 0., 0. ]
      - [ 2.42073640e-01, 2.34116405e-01, 8.96372795e-02, 1.70956880e-01,
          1.38834432e-01, 2.21849933e-01, 3.50391060e-01, 2.92116910e-01,
          7.42779747e-02, 3.50391060e-01, 2.08726093e-01, 0.,
          4.04342599e-02, 0., 0., 1.88107386e-01, 1.65821433e-01,
          1.33189291e-01, 1.03036322e-01, 0., 0., 0., 1.14298100e-02,
          4.56775315e-02, 4.31490988e-02, 3.50391060e-01, 3.37934792e-02,
          3.50391060e-01, 9.78822634e-02, 6.72348216e-02, 1.20294772e-01,
          0., 0., 0., 0., 1.69291332e-01 ]
