%YAML:1.0
---
opencv_ml_svm:
   format: 3
   svmType: C_SVC
   kernel:
      type: RBF
      gamma: 5.0000000000000003e-02
   C: 2.5000000000000000e+00
   term_criteria: { epsilon:1.1920928955078125e-07, iterations:1000 }
   var_count: 36
   class_count: 8
   class_labels: !!opencv-matrix
      rows: 8
      cols: 1
      dt: i
      data: [ 51, 55, 57, 65, 67, 68, 69, 71 ]
   sv_total: 180
   support_vectors:
      - [ 8.62503499e-02, 4.10621949e-02, 0., 5.30133843e-02,
          2.73691177e-01, 0., 5.07008471e-02, 3.88929583e-02, 0.,
          5.49469404e-02, 1.68747902e-01, 0., 0., 2.73691177e-01,
          8.88072103e-02, 1.54039059e-02, 6.54772595e-02, 3.44441831e-02,
          2.73691177e-01, 1.85764670e-01, 1.12156689e-01, 6.79132715e-02,
          2.38385051e-01, 2.73691177e-01, 2.60112733e-01, 9.43292771e-03,
          1.76386610e-01, 2.73691177e-01, 2.73691177e-01, 2.73691177e-01,
          1.90507814e-01, 2.02821732e-01, 1.29986182e-01, 2.73691177e-01,
          1.42868146e-01, 1.32320672e-01 ]
      - [ 5.23798242e-02, 0., 4.65045646e-02, 3.31959091e-02,
          2.45882586e-01, 2.45882586e-01, 1.52334675e-01, 6.04032651e-02,
          0., 0., 3.16108130e-02, 0., 2.49985773e-02, 2.45882586e-01,
          2.23220870e-01, 1.09977968e-01, 6.20889068e-02, 7.72817582e-02,
          2.00999334e-01, 1.91696271e-01, 1.22905195e-01, 6.68026060e-02,
          1.81030899e-01, 2.45882586e-01, 2.45882586e-01, 2.11141422e-01,
          1.60925612e-01, 2.45882586e-01, 2.45882586e-01, 2.45882586e-01,
          1.03991978e-01, 1.27267882e-01, 1.31264389e-01, 2.45882586e-01,
          2.45882586e-01, 2.12066606e-01 ]
      - [ 7.14134425e-02, 3.59166339e-02, 1.12531066e-01, 2.38016397e-01,
          2.44449437e-01, 0., 0., 0., 0., 1.54104933e-01, 2.37022098e-02,
          1.71907142e-01, 2.44449437e-01, 2.44449437e-01, 1.33111760e-01,
          4.03056927e-02, 5.19601963e-02, 0., 2.44449437e-01,
          1.90512449e-01, 9.03736278e-02, 1.60225600e-01, 2.44449437e-01,
          2.44449437e-01, 1.60449609e-01, 9.84134078e-02, 1.07190944e-01,
          2.44449437e-01, 2.44449437e-01, 2.44449437e-01, 1.24816872e-01,
          2.44449437e-01, 2.44449437e-01, 1.55192003e-01, 1.52629286e-01,
          1.05193108e-01 ]
      - [ 3.62581089e-02, 4.09073420e-02, 0., 3.04432828e-02,
          2.91295260e-01, 0., 5.05096428e-02, 2.06485931e-02, 0.,
          4.11688350e-02, 1.68111518e-01, 0., 0., 2.91295260e-01,
          8.84722993e-02, 1.53458146e-02, 4.45817374e-02, 3.43142860e-02,
          2.00559691e-01, 2.22318500e-01, 1.78932726e-01, 1.89611033e-01,
          2.91295260e-01, 2.91295260e-01, 2.91295260e-01, 9.39735398e-03,
          1.60219878e-01, 2.91295260e-01, 2.91295260e-01, 1.95275173e-01,
          6.78354725e-02, 7.67290732e-03, 5.91437630e-02, 2.91295260e-01,
          1.61124066e-01, 1.32175535e-01 ]
      - [ 9.24580917e-02, 4.32986617e-02, 0., 5.64220920e-02,
          2.97359228e-01, 5.44067509e-02, 0., 4.16837558e-02, 0.,
          5.78503236e-02, 8.68074670e-02, 0., 0., 2.97359228e-01,
          5.67005053e-02, 0., 2.22653504e-02, 0., 2.95934081e-01,
          4.00799327e-02, 4.95860577e-02, 7.04756826e-02, 2.04582259e-01,
          2.18427196e-01, 1.00325868e-01, 0., 1.10575207e-01,
          1.60782695e-01, 2.97359228e-01, 2.97359228e-01, 1.43191501e-01,
          2.97359228e-01, 2.97359228e-01, 2.97359228e-01, 7.00165108e-02,
          2.97359228e-01 ]
      - [ 8.62503499e-02, 4.10621949e-02, 0., 5.30133843e-02,
          2.73691177e-01, 0., 5.07008471e-02, 3.88929583e-02, 0.,
          5.49469404e-02, 1.68747902e-01, 0., 0., 2.73691177e-01,
          8.88072103e-02, 1.54039059e-02, 6.54772595e-02, 3.44441831e-02,
          2.73691177e-01, 1.85764670e-01, 1.12156689e-01, 6.79132715e-02,
          2.38385051e-01, 2.73691177e-01, 2.60112733e-01, 9.43292771e-03,
          1.76386610e-01, 2.73691177e-01, 2.73691177e-01, 2.73691177e-01,
          1.90507814e-01, 2.02821732e-01, 1.29986182e-01, 2.73691177e-01,
          1.42868146e-01, 1.32320672e-01 ]
      - [ 5.23798242e-02, 0., 4.65045646e-02, 3.31959091e-02,
          2.45882586e-01, 2.45882586e-01, 1.52334675e-01, 6.04032651e-02,
          0., 0., 3.16108130e-02, 0., 2.49985773e-02, 2.45882586e-01,
          2.23220870e-01, 1.09977968e-01, 6.20889068e-02, 7.72817582e-02,
          2.00999334e-01, 1.91696271e-01, 1.22905195e-01, 6.68026060e-02,
          1.81030899e-01, 2.45882586e-01, 2.45882586e-01, 2.11141422e-01,
          1.60925612e-01, 2.45882586e-01, 2.45882586e-01, 2.45882586e-01,
          1.03991978e-01, 1.27267882e-01, 1.31264389e-01, 2.45882586e-01,
          2.45882586e-01, 2.12066606e-01 ]
      - [ 7.14134425e-02, 3.59166339e-02, 1.12531066e-01, 2.38016397e-01,
          2.44449437e-01, 0., 0., 0., 0., 1.54104933e-01, 2.37022098e-02,
          1.71907142e-01, 2.44449437e-01, 2.44449437e-01, 1.33111760e-01,
          4.03056927e-02, 5.19601963e-02, 0., 2.44449437e-01,
          1.90512449e-01, 9.03736278e-02, 1.60225600e-01, 2.44449437e-01,
          2.44449437e-01, 1.60449609e-01, 9.84134078e-02, 1.07190944e-01,
          2.44449437e-01, 2.44449437e-01, 2.44449437e-01, 1.24816872e-01,
          2.44449437e-01, 2.44449437e-01, 1.55192003e-01, 1.52629286e-01,
          1.05193108e-01 ]
      - [ 3.62581089e-02, 4.09073420e-02, 0., 3.04432828e-02,
          2.91295260e-01, 0., 5.05096428e-02, 2.06485931e-02, 0.,
          4.11688350e-02, 1.68111518e-01, 0., 0., 2.91295260e-01,
          8.84722993e-02, 1.53458146e-02, 4.45817374e-02, 3.43142860e-02,
          2.00559691e-01, 2.22318500e-01, 1.78932726e-01, 1.89611033e-01,
          2.91295260e-01, 2.91295260e-01, 2.91295260e-01, 9.39735398e-03,
          1.60219878e-01, 2.91295260e-01, 2.91295260e-01, 1.95275173e-01,
          6.78354725e-02, 7.67290732e-03, 5.91437630e-02, 2.91295260e-01,
          1.61124066e-01, 1.32175535e-01 ]
      - [ 9.24580917e-02, 4.32986617e-02, 0., 5.64220920e-02,
          2.97359228e-01, 5.44067509e-02, 0., 4.16837558e-02, 0.,
          5.78503236e-02, 8.68074670e-02, 0., 0., 2.97359228e-01,
          5.67005053e-02, 0., 2.22653504e-02, 0., 2.95934081e-01,
          4.00799327e-02, 4.95860577e-02, 7.04756826e-02, 2.04582259e-01,
          2.18427196e-01, 1.00325868e-01, 0., 1.10575207e-01,
          1.60782695e-01, 2.97359228e-01, 2.97359228e-01, 1.43191501e-01,
          2.97359228e-01, 2.97359228e-01, 2.97359228e-01, 7.00165108e-02,
          2.97359228e-01 ]
      - [ 8.62503499e-02, 4.10621949e-02, 0., 5.30133843e-02,
          2.73691177e-01, 0., 5.07008471e-02, 3.88929583e-02, 0.,
          5.49469404e-02, 1.68747902e-01, 0., 0., 2.73691177e-01,
          8.88072103e-02, 1.54039059e-02, 6.54772595e-02, 3.44441831e-02,
          2.73691177e-01, 1.85764670e-01, 1.12156689e-01, 6.79132715e-02,
          2.38385051e-01, 2.73691177e-01, 2.60112733e-01, 9.43292771e-03,
          1.76386610e-01, 2.73691177e-01, 2.73691177e-01, 2.73691177e-01,
          1.90507814e-01, 2.02821732e-01, 1.29986182e-01, 2.73691177e-01,
          1.42868146e-01, 1.32320672e-01 ]
      - [ 5.23798242e-02, 0., 4.65045646e-02, 3.31959091e-02,
          2.45882586e-01, 2.45882586e-01, 1.52334675e-01, 6.04032651e-02,
          0., 0., 3.16108130e-02, 0., 2.49985773e-02, 2.45882586e-01,
          2.23220870e-01, 1.09977968e-01, 6.20889068e-02, 7.72817582e-02,
          2.00999334e-01, 1.91696271e-01, 1.22905195e-01, 6.68026060e-02,
          1.81030899e-01, 2.45882586e-01, 2.45882586e-01, 2.11141422e-01,
          1.60925612e-01, 2.45882586e-01, 2.45882586e-01, 2.45882586e-01,
          1.03991978e-01, 1.27267882e-01, 1.31264389e-01, 2.45882586e-01,
          2.45882586e-01, 2.12066606e-01 ]
      - [ 7.14134425e-02, 3.59166339e-02, 1.12531066e-01, 2.38016397e-01,
          2.44449437e-01, 0., 0., 0., 0., 1.54104933e-01, 2.37022098e-02,
          1.71907142e-01, 2.44449437e-01, 2.44449437e-01, 1.33111760e-01,
          4.03056927e-02, 5.19601963e-02, 0., 2.44449437e-01,
          1.90512449e-01, 9.03736278e-02, 1.60225600e-01, 2.44449437e-01,
          2.44449437e-01, 1.60449609e-01, 9.84134078e-02, 1.07190944e-01,
          2.44449437e-01, 2.44449437e-01, 2.44449437e-01, 1.24816872e-01,
          2.44449437e-01, 2.44449437e-01, 1.55192003e-01, 1.52629286e-01,
          1.05193108e-01 ]
      - [ 3.62581089e-02, 4.09073420e-02, 0., 3.04432828e-02,
          2.91295260e-01, 0., 5.05096428e-02, 2.06485931e-02, 0.,
          4.11688350e-02, 1.68111518e-01, 0., 0., 2.91295260e-01,
          8.84722993e-02, 1.53458146e-02, 4.45817374e-02, 3.43142860e-02,
          2.00559691e-01, 2.22318500e-01, 1.78932726e-01, 1.89611033e-01,
          2.91295260e-01, 2.91295260e-01, 2.91295260e-01, 9.39735398e-03,
          1.60219878e-01, 2.91295260e-01, 2.91295260e-01, 1.95275173e-01,
          6.78354725e-02, 7.67290732e-03, 5.91437630e-02, 2.91295260e-01,
          1.61124066e-01, 1.32175535e-01 ]
      - [ 9.24580917e-02, 4.32986617e-02, 0., 5.64220920e-02,
          2.97359228e-01, 5.44067509e-02, 0., 4.16837558e-02, 0.,
          5.78503236e-02, 8.68074670e-02, 0., 0., 2.97359228e-01,
          5.67005053e-02, 0., 2.22653504e-02, 0., 2.95934081e-01,
          4.00799327e-02, 4.95860577e-02, 7.04756826e-02, 2.04582259e-01,
          2.18427196e-01, 1.00325868e-01, 0., 1.10575207e-01,
          1.60782695e-01, 2.97359228e-01, 2.97359228e-01, 1.43191501e-01,
          2.97359228e-01, 2.97359228e-01, 2.97359228e-01, 7.00165108e-02,
          2.97359228e-01 ]
      - [ 2.27367654e-02, 2.97429655e-02, 3.35766897e-02, 2.15519756e-01,
          2.64798403e-01, 1.07417278e-01, 3.08031924e-02, 1.82894468e-02,
          0., 0., 1.53983802e-01, 2.15264987e-02, 0., 2.64798403e-01,
          1.37150601e-01, 4.93150838e-02, 0., 1.22677267e-01,
          1.99588031e-01, 2.09248066e-01, 9.03026387e-02, 4.70110886e-02,
          2.64798403e-01, 2.64798403e-01, 2.34110296e-01, 4.75438945e-02,
          1.49052277e-01, 2.34941453e-01, 4.53510731e-02, 2.64798403e-01,
          2.25061283e-01, 2.64798403e-01, 2.64798403e-01, 2.64798403e-01,
          2.59648953e-02, 1.86917469e-01 ]
      - [ 4.15087938e-02, 0., 4.95822430e-02, 3.13991793e-02,
          2.24133581e-01, 2.36222699e-01, 1.04857281e-01, 1.05642878e-01,
          0., 2.99146678e-02, 0., 2.06222273e-02, 0., 2.67598271e-01,
          2.67598271e-01, 3.56157832e-02, 8.92780498e-02, 2.77611502e-02,
          2.67598271e-01, 7.70237297e-02, 9.81287360e-02, 6.61345720e-02,
          2.36677647e-01, 2.67598271e-01, 2.67598271e-01, 8.38502273e-02,
          6.66771084e-02, 2.67598271e-01, 7.58787543e-02, 2.67598271e-01,
          1.07891589e-01, 1.98792472e-01, 2.67598271e-01, 2.67598271e-01,
          1.97243124e-01, 1.66074038e-01 ]
      - [ 3.56447771e-02, 5.48560880e-02, 1.73169076e-01, 2.35837758e-01,
          1.12739213e-01, 5.74639700e-02, 0., 0., 0., 3.81668843e-02,
          1.40542671e-01, 1.81668803e-01, 2.49100477e-01, 2.49100477e-01,
          8.69375616e-02, 7.10198507e-02, 2.79416256e-02, 7.76104182e-02,
          2.49100477e-01, 1.99343607e-01, 1.08535938e-01, 1.19207941e-01,
          2.49100477e-01, 2.19050005e-01, 2.48553291e-01, 6.10257760e-02,
          6.25703931e-02, 2.09286824e-01, 2.49100477e-01, 2.22177401e-01,
          2.49100477e-01, 2.49100477e-01, 2.49100477e-01, 1.43635541e-01,
          5.98901249e-02, 1.53502479e-01 ]
      - [ 0., 0., 3.35471109e-02, 2.14826718e-01, 2.83350080e-01,
          1.06443323e-01, 0., 0., 6.20283186e-02, 5.45877181e-02,
          1.54798552e-01, 2.09706165e-02, 0., 2.83350080e-01,
          1.38165683e-01, 5.77373281e-02, 0., 6.22724108e-02,
          1.48963749e-01, 1.93216622e-01, 1.34320155e-01, 5.78363501e-02,
          2.83350080e-01, 2.83350080e-01, 2.31015980e-01, 4.80198003e-02,
          9.73768383e-02, 2.83350080e-01, 3.31855826e-02, 2.60693103e-01,
          1.71578586e-01, 2.61469912e-02, 2.83350080e-01, 2.72760719e-01,
          1.27127588e-01, 2.57542640e-01 ]
      - [ 4.64201868e-02, 3.41486521e-02, 3.88064682e-02, 1.84773996e-01,
          1.36479303e-01, 9.54862535e-02, 3.63706984e-02, 2.31090263e-02,
          0., 0., 5.51929325e-02, 2.53603738e-02, 6.65194318e-02,
          3.27518761e-01, 9.73997712e-02, 0., 0., 8.71760398e-02,
          2.46696264e-01, 1.26595065e-01, 5.00992797e-02, 7.37832114e-02,
          2.70655364e-01, 1.76657528e-01, 8.87565464e-02, 5.52909635e-02,
          1.72051758e-01, 1.56265914e-01, 1.57182679e-01, 3.27518761e-01,
          2.56900758e-01, 3.27518761e-01, 3.27518761e-01, 3.27518761e-01,
          3.16703916e-02, 1.54669672e-01 ]
      - [ 2.27367654e-02, 2.97429655e-02, 3.35766897e-02, 2.15519756e-01,
          2.64798403e-01, 1.07417278e-01, 3.08031924e-02, 1.82894468e-02,
          0., 0., 1.53983802e-01, 2.15264987e-02, 0., 2.64798403e-01,
          1.37150601e-01, 4.93150838e-02, 0., 1.22677267e-01,
          1.99588031e-01, 2.09248066e-01, 9.03026387e-02, 4.70110886e-02,
          2.64798403e-01, 2.64798403e-01, 2.34110296e-01, 4.75438945e-02,
          1.49052277e-01, 2.34941453e-01, 4.53510731e-02, 2.64798403e-01,
          2.25061283e-01, 2.64798403e-01, 2.64798403e-01, 2.64798403e-01,
          2.59648953e-02, 1.86917469e-01 ]
      - [ 4.15087938e-02, 0., 4.95822430e-02, 3.13991793e-02,
          2.24133581e-01, 2.36222699e-01, 1.04857281e-01, 1.05642878e-01,
          0., 2.99146678e-02, 0., 2.06222273e-02, 0., 2.67598271e-01,
          2.67598271e-01, 3.56157832e-02, 8.92780498e-02, 2.77611502e-02,
          2.67598271e-01, 7.70237297e-02, 9.81287360e-02, 6.61345720e-02,
          2.36677647e-01, 2.67598271e-01, 2.67598271e-01, 8.38502273e-02,
          6.66771084e-02, 2.67598271e-01, 7.58787543e-02, 2.67598271e-01,
          1.07891589e-01, 1.98792472e-01, 2.67598271e-01, 2.67598271e-01,
          1.97243124e-01, 1.66074038e-01 ]
      - [ 3.56447771e-02, 5.48560880e-02, 1.73169076e-01, 2.35837758e-01,
          1.12739213e-01, 5.74639700e-02, 0., 0., 0., 3.81668843e-02,
          1.40542671e-01, 1.81668803e-01, 2.49100477e-01, 2.49100477e-01,
          8.69375616e-02, 7.10198507e-02, 2.79416256e-02, 7.76104182e-02,
          2.49100477e-01, 1.99343607e-01, 1.08535938e-01, 1.19207941e-01,
          2.49100477e-01, 2.19050005e-01, 2.48553291e-01, 6.10257760e-02,
          6.25703931e-02, 2.09286824e-01, 2.49100477e-01, 2.22177401e-01,
          2.49100477e-01, 2.49100477e-01, 2.49100477e-01, 1.43635541e-01,
          5.98901249e-02, 1.53502479e-01 ]
      - [ 0., 0., 3.35471109e-02, 2.14826718e-01, 2.83350080e-01,
          1.06443323e-01, 0., 0., 6.20283186e-02, 5.45877181e-02,
          1.54798552e-01, 2.09706165e-02, 0., 2.83350080e-01,
          1.38165683e-01, 5.77373281e-02, 0., 6.22724108e-02,
          1.48963749e-01, 1.93216622e-01, 1.34320155e-01, 5.78363501e-02,
          2.83350080e-01, 2.83350080e-01, 2.31015980e-01, 4.80198003e-02,
          9.73768383e-02, 2.83350080e-01, 3.31855826e-02, 2.60693103e-01,
          1.71578586e-01, 2.61469912e-02, 2.83350080e-01, 2.72760719e-01,
          1.27127588e-01, 2.57542640e-01 ]
      - [ 4.64201868e-02, 3.41486521e-02, 3.88064682e-02, 1.84773996e-01,
          1.36479303e-01, 9.54862535e-02, 3.63706984e-02, 2.31090263e-02,
          0., 0., 5.51929325e-02, 2.53603738e-02, 6.65194318e-02,
          3.27518761e-01, 9.73997712e-02, 0., 0., 8.71760398e-02,
          2.46696264e-01, 1.26595065e-01, 5.00992797e-02, 7.37832114e-02,
          2.70655364e-01, 1.76657528e-01, 8.87565464e-02, 5.52909635e-02,
          1.72051758e-01, 1.56265914e-01, 1.57182679e-01, 3.27518761e-01,
          2.56900758e-01, 3.27518761e-01, 3.27518761e-01, 3.27518761e-01,
          3.16703916e-02, 1.54669672e-01 ]
      - [ 1.08593471e-01, 1.26651853e-01, 1.33256271e-01, 1.70492440e-01,
          3.14848810e-01, 9.87154245e-02, 1.74166411e-01, 5.17237894e-02,
          4.45652306e-02, 4.67567407e-02, 2.06431672e-01, 8.65317434e-02,
          1.08168364e-01, 3.14848810e-01, 2.07187846e-01, 6.97586462e-02,
          9.07911807e-02, 7.02145025e-02, 3.14848810e-01, 3.14848810e-01,
          8.54975134e-02, 0., 2.30445325e-01, 7.85862282e-03,
          3.13271657e-02, 0., 0., 3.14848810e-01, 3.14848810e-01,
          3.14848810e-01, 1.23244859e-02, 6.84851967e-03, 0.,
          9.05740727e-03, 0., 0. ]
      - [ 1.84285775e-01, 7.99472108e-02, 1.09218717e-01, 1.55369744e-01,
          2.96684593e-01, 2.96684593e-01, 1.30687475e-01, 1.59481004e-01,
          4.21864092e-02, 8.28674585e-02, 7.54809305e-02, 7.87455514e-02,
          1.45725254e-02, 2.96684593e-01, 2.96684593e-01, 1.03889346e-01,
          1.10276192e-01, 1.09977312e-01, 2.96684593e-01, 2.96684593e-01,
          1.61467150e-01, 0., 6.86309487e-02, 2.25710087e-02, 0.,
          3.83379869e-02, 0., 2.96684593e-01, 2.96684593e-01,
          2.96684593e-01, 1.29593583e-02, 1.15912016e-02, 0., 0., 0., 0. ]
      - [ 1.80306777e-01, 1.19146779e-01, 1.17359780e-01, 2.93884784e-01,
          1.91993743e-01, 8.86114091e-02, 3.01386211e-02, 2.55107321e-02,
          6.55642971e-02, 2.32934147e-01, 1.14506423e-01, 2.42949009e-01,
          2.93884784e-01, 2.75915265e-01, 1.67106137e-01, 9.93713364e-02,
          5.37733547e-02, 3.22245173e-02, 2.93884784e-01, 2.93884784e-01,
          0., 2.15183273e-01, 2.38464832e-01, 8.55228305e-02, 0.,
          5.95803186e-02, 0., 2.93884784e-01, 2.93884784e-01,
          1.11438982e-01, 0., 5.89129003e-03, 0., 0., 0., 0. ]
      - [ 0., 1.39740109e-01, 8.93061981e-02, 1.46426246e-01,
          3.57182533e-01, 1.10015452e-01, 1.58948034e-01, 3.53546366e-02,
          7.31113553e-02, 7.18573183e-02, 1.77214533e-01, 9.14469734e-02,
          1.12139389e-01, 3.57182533e-01, 1.52075782e-01, 9.20142680e-02,
          9.53834727e-02, 3.50143015e-02, 3.57182533e-01, 3.57182533e-01,
          2.60751992e-01, 0., 2.23448604e-01, 0., 3.27176340e-02, 0., 0.,
          8.85188505e-02, 3.57182533e-01, 2.06536755e-01, 1.28715122e-02,
          5.75631531e-03, 0., 9.45942290e-03, 0., 0. ]
      - [ 1.60695717e-01, 8.61800462e-02, 9.97798890e-02, 1.16937116e-01,
          3.63223732e-01, 7.40555152e-02, 1.22011907e-01, 5.12122102e-02,
          3.21456641e-02, 1.76299307e-02, 1.95503354e-01, 1.07773885e-01,
          7.60218203e-02, 3.63223732e-01, 1.76619887e-01, 8.79385471e-02,
          3.98513600e-02, 6.53075799e-02, 3.05453271e-01, 1.43887430e-01,
          8.04902241e-03, 0., 1.88927725e-01, 0., 0., 0., 0.,
          3.63223732e-01, 3.63223732e-01, 3.63223732e-01, 0.,
          8.06671008e-02, 0., 4.95308824e-02, 0., 1.68484251e-03 ]
      - [ 5.10958629e-03, 4.97527793e-02, 5.55079281e-02, 9.98547673e-02,
          3.80367160e-01, 1.11067191e-01, 8.97634998e-02, 0., 0., 0.,
          1.35075942e-01, 6.62286161e-03, 5.28608523e-02, 3.80367160e-01,
          1.01433061e-01, 7.44677261e-02, 0., 2.39134971e-02,
          2.97329187e-01, 2.13101238e-01, 2.83521824e-02, 0.,
          2.39370242e-01, 0., 0., 0., 9.12068486e-02, 3.80367160e-01,
          3.80367160e-01, 3.80367160e-01, 0., 3.95690091e-02,
          4.66193166e-03, 0., 2.86118481e-02, 2.28927843e-02 ]
      - [ 5.62966019e-02, 9.25929658e-03, 4.09474671e-02, 1.03824623e-01,
          3.16449732e-01, 3.16449732e-01, 1.33679301e-01, 2.11265571e-02,
          4.58539203e-02, 1.90829847e-03, 1.85289066e-02, 2.24730875e-02,
          3.79990451e-02, 3.16449732e-01, 3.16449732e-01, 9.05796587e-02,
          0., 0., 3.07595283e-01, 3.16449732e-01, 6.09403029e-02, 0.,
          1.27691492e-01, 0., 0., 0., 1.16330504e-01, 3.16449732e-01,
          3.16449732e-01, 3.16449732e-01, 1.22466788e-01, 8.22093114e-02,
          0., 6.33898471e-03, 4.77742963e-02, 0. ]
      - [ 2.85880454e-02, 1.00145906e-01, 8.12049657e-02, 3.34382892e-01,
          3.26642543e-01, 6.22644648e-03, 4.02024984e-02, 0.,
          3.13078403e-03, 1.03112526e-01, 8.98742378e-02, 2.44689539e-01,
          3.34382892e-01, 3.34382892e-01, 7.52692968e-02, 7.41268769e-02,
          3.42484675e-02, 0., 2.72679985e-01, 9.62349474e-02, 0.,
          2.24651948e-01, 2.28541493e-01, 6.50764257e-02, 0.,
          3.36250737e-02, 1.57610059e-01, 3.34382892e-01, 3.34382892e-01,
          3.95231135e-02, 1.20343929e-02, 1.62868686e-02, 0.,
          2.43501607e-02, 0., 7.16724694e-02 ]
      - [ 0., 0., 2.43508853e-02, 5.45572825e-02, 3.60225409e-01,
          7.61399791e-02, 4.61990051e-02, 0., 0., 1.53042227e-01,
          1.34124741e-01, 2.08102968e-02, 2.88862176e-02, 3.60225409e-01,
          1.21803634e-01, 1.00271456e-01, 6.65766001e-02, 2.35147290e-02,
          3.60225409e-01, 2.33869255e-01, 1.67120025e-01, 0.,
          2.10011736e-01, 0., 0., 2.80006770e-02, 1.28698677e-01,
          3.60225409e-01, 3.60225409e-01, 3.50576937e-01, 0., 0., 0., 0.,
          0., 1.23272277e-02 ]
      - [ 1.23602048e-01, 5.36673106e-02, 7.87978321e-02, 1.01461746e-01,
          4.30741221e-01, 1.15895569e-01, 7.85596967e-02, 6.56158850e-02,
          5.30238543e-03, 0., 4.47083823e-02, 0., 0., 4.30741221e-01,
          2.76805293e-02, 0., 0., 2.43212823e-02, 1.05622791e-01, 0., 0.,
          0., 1.61182731e-01, 0., 0., 0., 0., 4.30741221e-01,
          4.30741221e-01, 3.41288269e-01, 9.11523867e-03, 2.03336433e-01,
          0., 0., 2.89771538e-02, 3.32640158e-03 ]
      - [ 5.10958629e-03, 4.97527793e-02, 5.55079281e-02, 9.98547673e-02,
          3.80367160e-01, 1.11067191e-01, 8.97634998e-02, 0., 0., 0.,
          1.35075942e-01, 6.62286161e-03, 5.28608523e-02, 3.80367160e-01,
          1.01433061e-01, 7.44677261e-02, 0., 2.39134971e-02,
          2.97329187e-01, 2.13101238e-01, 2.83521824e-02, 0.,
          2.39370242e-01, 0., 0., 0., 9.12068486e-02, 3.80367160e-01,
          3.80367160e-01, 3.80367160e-01, 0., 3.95690091e-02,
          4.66193166e-03, 0., 2.86118481e-02, 2.28927843e-02 ]
      - [ 5.62966019e-02, 9.25929658e-03, 4.09474671e-02, 1.03824623e-01,
          3.16449732e-01, 3.16449732e-01, 1.33679301e-01, 2.11265571e-02,
          4.58539203e-02, 1.90829847e-03, 1.85289066e-02, 2.24730875e-02,
          3.79990451e-02, 3.16449732e-01, 3.16449732e-01, 9.05796587e-02,
          0., 0., 3.07595283e-01, 3.16449732e-01, 6.09403029e-02, 0.,
          1.27691492e-01, 0., 0., 0., 1.16330504e-01, 3.16449732e-01,
          3.16449732e-01, 3.16449732e-01, 1.22466788e-01, 8.22093114e-02,
          0., 6.33898471e-03, 4.77742963e-02, 0. ]
      - [ 2.85880454e-02, 1.00145906e-01, 8.12049657e-02, 3.34382892e-01,
          3.26642543e-01, 6.22644648e-03, 4.02024984e-02, 0.,
          3.13078403e-03, 1.03112526e-01, 8.98742378e-02, 2.44689539e-01,
          3.34382892e-01, 3.34382892e-01, 7.52692968e-02, 7.41268769e-02,
          3.42484675e-02, 0., 2.72679985e-01, 9.62349474e-02, 0.,
          2.24651948e-01, 2.28541493e-01, 6.50764257e-02, 0.,
          3.36250737e-02, 1.57610059e-01, 3.34382892e-01, 3.34382892e-01,
          3.95231135e-02, 1.20343929e-02, 1.62868686e-02, 0.,
          2.43501607e-02, 0., 7.16724694e-02 ]
      - [ 0., 0., 2.43508853e-02, 5.45572825e-02, 3.60225409e-01,
          7.61399791e-02, 4.61990051e-02, 0., 0., 1.53042227e-01,
          1.34124741e-01, 2.08102968e-02, 2.88862176e-02, 3.60225409e-01,
          1.21803634e-01, 1.00271456e-01, 6.65766001e-02, 2.35147290e-02,
          3.60225409e-01, 2.33869255e-01, 1.67120025e-01, 0.,
          2.10011736e-01, 0., 0., 2.80006770e-02, 1.28698677e-01,
          3.60225409e-01, 3.60225409e-01, 3.50576937e-01, 0., 0., 0., 0.,
          0., 1.23272277e-02 ]
      - [ 1.23602048e-01, 5.36673106e-02, 7.87978321e-02, 1.01461746e-01,
          4.30741221e-01, 1.15895569e-01, 7.85596967e-02, 6.56158850e-02,
          5.30238543e-03, 0., 4.47083823e-02, 0., 0., 4.30741221e-01,
          2.76805293e-02, 0., 0., 2.43212823e-02, 1.05622791e-01, 0., 0.,
          0., 1.61182731e-01, 0., 0., 0., 0., 4.30741221e-01,
          4.30741221e-01, 3.41288269e-01, 9.11523867e-03, 2.03336433e-01,
          0., 0., 2.89771538e-02, 3.32640158e-03 ]
      - [ 1.08593471e-01, 1.26651853e-01, 1.33256271e-01, 1.70492440e-01,
          3.14848810e-01, 9.87154245e-02, 1.74166411e-01, 5.17237894e-02,
          4.45652306e-02, 4.67567407e-02, 2.06431672e-01, 8.65317434e-02,
          1.08168364e-01, 3.14848810e-01, 2.07187846e-01, 6.97586462e-02,
          9.07911807e-02, 7.02145025e-02, 3.14848810e-01, 3.14848810e-01,
          8.54975134e-02, 0., 2.30445325e-01, 7.85862282e-03,
          3.13271657e-02, 0., 0., 3.14848810e-01, 3.14848810e-01,
          3.14848810e-01, 1.23244859e-02, 6.84851967e-03, 0.,
          9.05740727e-03, 0., 0. ]
      - [ 1.84285775e-01, 7.99472108e-02, 1.09218717e-01, 1.55369744e-01,
          2.96684593e-01, 2.96684593e-01, 1.30687475e-01, 1.59481004e-01,
          4.21864092e-02, 8.28674585e-02, 7.54809305e-02, 7.87455514e-02,
          1.45725254e-02, 2.96684593e-01, 2.96684593e-01, 1.03889346e-01,
          1.10276192e-01, 1.09977312e-01, 2.96684593e-01, 2.96684593e-01,
          1.61467150e-01, 0., 6.86309487e-02, 2.25710087e-02, 0.,
          3.83379869e-02, 0., 2.96684593e-01, 2.96684593e-01,
          2.96684593e-01, 1.29593583e-02, 1.15912016e-02, 0., 0., 0., 0. ]
      - [ 1.80306777e-01, 1.19146779e-01, 1.17359780e-01, 2.93884784e-01,
          1.91993743e-01, 8.86114091e-02, 3.01386211e-02, 2.55107321e-02,
          6.55642971e-02, 2.32934147e-01, 1.14506423e-01, 2.42949009e-01,
          2.93884784e-01, 2.75915265e-01, 1.67106137e-01, 9.93713364e-02,
          5.37733547e-02, 3.22245173e-02, 2.93884784e-01, 2.93884784e-01,
          0., 2.15183273e-01, 2.38464832e-01, 8.55228305e-02, 0.,
          5.95803186e-02, 0., 2.93884784e-01, 2.93884784e-01,
          1.11438982e-01, 0., 5.89129003e-03, 0., 0., 0., 0. ]
      - [ 0., 1.39740109e-01, 8.93061981e-02, 1.46426246e-01,
          3.57182533e-01, 1.10015452e-01, 1.58948034e-01, 3.53546366e-02,
          7.31113553e-02, 7.18573183e-02, 1.77214533e-01, 9.14469734e-02,
          1.12139389e-01, 3.57182533e-01, 1.52075782e-01, 9.20142680e-02,
          9.53834727e-02, 3.50143015e-02, 3.57182533e-01, 3.57182533e-01,
          2.60751992e-01, 0., 2.23448604e-01, 0., 3.27176340e-02, 0., 0.,
          8.85188505e-02, 3.57182533e-01, 2.06536755e-01, 1.28715122e-02,
          5.75631531e-03, 0., 9.45942290e-03, 0., 0. ]
      - [ 1.60695717e-01, 8.61800462e-02, 9.97798890e-02, 1.16937116e-01,
          3.63223732e-01, 7.40555152e-02, 1.22011907e-01, 5.12122102e-02,
          3.21456641e-02, 1.76299307e-02, 1.95503354e-01, 1.07773885e-01,
          7.60218203e-02, 3.63223732e-01, 1.76619887e-01, 8.79385471e-02,
          3.98513600e-02, 6.53075799e-02, 3.05453271e-01, 1.43887430e-01,
          8.04902241e-03, 0., 1.88927725e-01, 0., 0., 0., 0.,
          3.63223732e-01, 3.63223732e-01, 3.63223732e-01, 0.,
          8.06671008e-02, 0., 4.95308824e-02, 0., 1.68484251e-03 ]
      - [ 5.10958629e-03, 4.97527793e-02, 5.55079281e-02, 9.98547673e-02,
          3.80367160e-01, 1.11067191e-01, 8.97634998e-02, 0., 0., 0.,
          1.35075942e-01, 6.62286161e-03, 5.28608523e-02, 3.80367160e-01,
          1.01433061e-01, 7.44677261e-02, 0., 2.39134971e-02,
          2.97329187e-01, 2.13101238e-01, 2.83521824e-02, 0.,
          2.39370242e-01, 0., 0., 0., 9.12068486e-02, 3.80367160e-01,
          3.80367160e-01, 3.80367160e-01, 0., 3.95690091e-02,
          4.66193166e-03, 0., 2.86118481e-02, 2.28927843e-02 ]
      - [ 5.62966019e-02, 9.25929658e-03, 4.09474671e-02, 1.03824623e-01,
          3.16449732e-01, 3.16449732e-01, 1.33679301e-01, 2.11265571e-02,
          4.58539203e-02, 1.90829847e-03, 1.85289066e-02, 2.24730875e-02,
          3.79990451e-02, 3.16449732e-01, 3.16449732e-01, 9.05796587e-02,
          0., 0., 3.07595283e-01, 3.16449732e-01, 6.09403029e-02, 0.,
          1.27691492e-01, 0., 0., 0., 1.16330504e-01, 3.16449732e-01,
          3.16449732e-01, 3.16449732e-01, 1.22466788e-01, 8.22093114e-02,
          0., 6.33898471e-03, 4.77742963e-02, 0. ]
      - [ 2.85880454e-02, 1.00145906e-01, 8.12049657e-02, 3.34382892e-01,
          3.26642543e-01, 6.22644648e-03, 4.02024984e-02, 0.,
          3.13078403e-03, 1.03112526e-01, 8.98742378e-02, 2.44689539e-01,
          3.34382892e-01, 3.34382892e-01, 7.52692968e-02, 7.41268769e-02,
          3.42484675e-02, 0., 2.72679985e-01, 9.62349474e-02, 0.,
          2.24651948e-01, 2.28541493e-01, 6.50764257e-02, 0.,
          3.36250737e-02, 1.57610059e-01, 3.34382892e-01, 3.34382892e-01,
          3.95231135e-02, 1.20343929e-02, 1.62868686e-02, 0.,
          2.43501607e-02, 0., 7.16724694e-02 ]
      - [ 0., 0., 2.43508853e-02, 5.45572825e-02, 3.60225409e-01,
          7.61399791e-02, 4.61990051e-02, 0., 0., 1.53042227e-01,
          1.34124741e-01, 2.08102968e-02, 2.88862176e-02, 3.60225409e-01,
          1.21803634e-01, 1.00271456e-01, 6.65766001e-02, 2.35147290e-02,
          3.60225409e-01, 2.33869255e-01, 1.67120025e-01, 0.,
          2.10011736e-01, 0., 0., 2.80006770e-02, 1.28698677e-01,
          3.60225409e-01, 3.60225409e-01, 3.50576937e-01, 0., 0., 0., 0.,
          0., 1.23272277e-02 ]
      - [ 1.23602048e-01, 5.36673106e-02, 7.87978321e-02, 1.01461746e-01,
          4.30741221e-01, 1.15895569e-01, 7.85596967e-02, 6.56158850e-02,
          5.30238543e-03, 0., 4.47083823e-02, 0., 0., 4.30741221e-01,
          2.76805293e-02, 0., 0., 2.43212823e-02, 1.05622791e-01, 0., 0.,
          0., 1.61182731e-01, 0., 0., 0., 0., 4.30741221e-01,
          4.30741221e-01, 3.41288269e-01, 9.11523867e-03, 2.03336433e-01,
          0., 0., 2.89771538e-02, 3.32640158e-03 ]
      - [ 5.80673106e-03, 0., 2.87436634e-01, 0., 5.41119426e-02, 0., 0.,
          0., 0., 0., 0., 0., 2.33168349e-01, 2.87436634e-01,
          2.87436634e-01, 1.32794023e-01, 0., 2.72543803e-02,
          2.87436634e-01, 8.71245414e-02, 1.06377661e-01, 0.,
          5.60102835e-02, 9.32400376e-02, 2.87436634e-01, 1.48885101e-01,
          1.21935397e-01, 2.16835260e-01, 2.66491234e-01, 2.87436634e-01,
          2.00499028e-01, 2.87436634e-01, 2.41404533e-01, 6.43438175e-02,
          2.27302060e-01, 7.65810981e-02 ]
      - [ 6.54539140e-03, 6.61909059e-02, 1.02759913e-01, 2.57987201e-01,
          6.62829205e-02, 0., 0., 0., 0., 0., 0., 0., 1.67796448e-01,
          2.57987201e-01, 2.08668068e-01, 2.16690153e-01, 0., 0.,
          2.57987201e-01, 1.96361747e-02, 2.57987201e-01, 1.73174776e-02,
          1.78823415e-02, 1.34083852e-01, 2.57987201e-01, 1.87096536e-01,
          1.20869391e-01, 2.57987201e-01, 2.57987201e-01, 2.57987201e-01,
          2.57987201e-01, 2.57987201e-01, 2.07237333e-01, 1.20772488e-01,
          2.33495042e-01, 1.25478208e-01 ]
      - [ 7.07357144e-03, 2.82942858e-02, 2.58769900e-01, 1.28947169e-01,
          3.25776972e-02, 0., 0., 0., 0., 1.95905156e-02, 0.,
          1.26244292e-01, 2.86009282e-01, 2.93296933e-01, 2.93296933e-01,
          1.46861374e-01, 5.64381145e-02, 0., 2.93296933e-01,
          7.59301111e-02, 2.12207157e-02, 4.16341163e-02, 1.05840847e-01,
          1.58888191e-01, 1.69665992e-01, 1.03338502e-01, 1.18897587e-01,
          2.93296933e-01, 2.93296933e-01, 2.93296933e-01, 2.38503709e-01,
          2.93296933e-01, 1.23925440e-01, 6.53292537e-02, 9.46956053e-02,
          7.73653686e-02 ]
      - [ 5.63339796e-03, 0., 2.64731616e-01, 2.26208180e-01,
          1.25648692e-01, 0., 0., 0., 0., 1.69001929e-02, 0., 0., 0.,
          2.15198085e-01, 2.64731616e-01, 1.50648117e-01, 5.71727455e-02,
          2.64408253e-02, 2.64731616e-01, 8.45238417e-02, 2.64731616e-01,
          4.47137095e-02, 2.14227334e-01, 2.64731616e-01, 2.64731616e-01,
          1.98082909e-01, 1.18295573e-01, 2.64731616e-01, 2.64731616e-01,
          2.64731616e-01, 1.49800345e-01, 1.74475729e-01, 4.08308916e-02,
          6.24231286e-02, 2.38271773e-01, 7.42951185e-02 ]
      - [ 6.82515698e-03, 0., 1.34263948e-01, 0., 6.82515698e-03, 0., 0.,
          0., 0., 0., 0., 1.72928169e-01, 3.01540315e-01, 3.01540315e-01,
          2.37531960e-01, 0., 0., 3.25943492e-02, 9.69488397e-02,
          1.79382205e-01, 0., 0., 9.65222903e-03, 2.55373996e-02,
          1.38119012e-01, 1.08785987e-01, 1.19005747e-01, 3.01540315e-01,
          1.36789247e-01, 3.01540315e-01, 3.01540315e-01, 3.01540315e-01,
          3.01540315e-01, 2.95340717e-01, 1.80615708e-01, 1.79026917e-01 ]
      - [ 5.80673106e-03, 0., 2.87436634e-01, 0., 5.41119426e-02, 0., 0.,
          0., 0., 0., 0., 0., 2.33168349e-01, 2.87436634e-01,
          2.87436634e-01, 1.32794023e-01, 0., 2.72543803e-02,
          2.87436634e-01, 8.71245414e-02, 1.06377661e-01, 0.,
          5.60102835e-02, 9.32400376e-02, 2.87436634e-01, 1.48885101e-01,
          1.21935397e-01, 2.16835260e-01, 2.66491234e-01, 2.87436634e-01,
          2.00499028e-01, 2.87436634e-01, 2.41404533e-01, 6.43438175e-02,
          2.27302060e-01, 7.65810981e-02 ]
      - [ 6.54539140e-03, 6.61909059e-02, 1.02759913e-01, 2.57987201e-01,
          6.62829205e-02, 0., 0., 0., 0., 0., 0., 0., 1.67796448e-01,
          2.57987201e-01, 2.08668068e-01, 2.16690153e-01, 0., 0.,
          2.57987201e-01, 1.96361747e-02, 2.57987201e-01, 1.73174776e-02,
          1.78823415e-02, 1.34083852e-01, 2.57987201e-01, 1.87096536e-01,
          1.20869391e-01, 2.57987201e-01, 2.57987201e-01, 2.57987201e-01,
          2.57987201e-01, 2.57987201e-01, 2.07237333e-01, 1.20772488e-01,
          2.33495042e-01, 1.25478208e-01 ]
      - [ 7.07357144e-03, 2.82942858e-02, 2.58769900e-01, 1.28947169e-01,
          3.25776972e-02, 0., 0., 0., 0., 1.95905156e-02, 0.,
          1.26244292e-01, 2.86009282e-01, 2.93296933e-01, 2.93296933e-01,
          1.46861374e-01, 5.64381145e-02, 0., 2.93296933e-01,
          7.59301111e-02, 2.12207157e-02, 4.16341163e-02, 1.05840847e-01,
          1.58888191e-01, 1.69665992e-01, 1.03338502e-01, 1.18897587e-01,
          2.93296933e-01, 2.93296933e-01, 2.93296933e-01, 2.38503709e-01,
          2.93296933e-01, 1.23925440e-01, 6.53292537e-02, 9.46956053e-02,
          7.73653686e-02 ]
      - [ 5.63339796e-03, 0., 2.64731616e-01, 2.26208180e-01,
          1.25648692e-01, 0., 0., 0., 0., 1.69001929e-02, 0., 0., 0.,
          2.15198085e-01, 2.64731616e-01, 1.50648117e-01, 5.71727455e-02,
          2.64408253e-02, 2.64731616e-01, 8.45238417e-02, 2.64731616e-01,
          4.47137095e-02, 2.14227334e-01, 2.64731616e-01, 2.64731616e-01,
          1.98082909e-01, 1.18295573e-01, 2.64731616e-01, 2.64731616e-01,
          2.64731616e-01, 1.49800345e-01, 1.74475729e-01, 4.08308916e-02,
          6.24231286e-02, 2.38271773e-01, 7.42951185e-02 ]
      - [ 6.82515698e-03, 0., 1.34263948e-01, 0., 6.82515698e-03, 0., 0.,
          0., 0., 0., 0., 1.72928169e-01, 3.01540315e-01, 3.01540315e-01,
          2.37531960e-01, 0., 0., 3.25943492e-02, 9.69488397e-02,
          1.79382205e-01, 0., 0., 9.65222903e-03, 2.55373996e-02,
          1.38119012e-01, 1.08785987e-01, 1.19005747e-01, 3.01540315e-01,
          1.36789247e-01, 3.01540315e-01, 3.01540315e-01, 3.01540315e-01,
          3.01540315e-01, 2.95340717e-01, 1.80615708e-01, 1.79026917e-01 ]
      - [ 5.80673106e-03, 0., 2.87436634e-01, 0., 5.41119426e-02, 0., 0.,
          0., 0., 0., 0., 0., 2.33168349e-01, 2.87436634e-01,
          2.87436634e-01, 1.32794023e-01, 0., 2.72543803e-02,
          2.87436634e-01, 8.71245414e-02, 1.06377661e-01, 0.,
          5.60102835e-02, 9.32400376e-02, 2.87436634e-01, 1.48885101e-01,
          1.21935397e-01, 2.16835260e-01, 2.66491234e-01, 2.87436634e-01,
          2.00499028e-01, 2.87436634e-01, 2.41404533e-01, 6.43438175e-02,
          2.27302060e-01, 7.65810981e-02 ]
      - [ 6.54539140e-03, 6.61909059e-02, 1.02759913e-01, 2.57987201e-01,
          6.62829205e-02, 0., 0., 0., 0., 0., 0., 0., 1.67796448e-01,
          2.57987201e-01, 2.08668068e-01, 2.16690153e-01, 0., 0.,
          2.57987201e-01, 1.96361747e-02, 2.57987201e-01, 1.73174776e-02,
          1.78823415e-02, 1.34083852e-01, 2.57987201e-01, 1.87096536e-01,
          1.20869391e-01, 2.57987201e-01, 2.57987201e-01, 2.57987201e-01,
          2.57987201e-01, 2.57987201e-01, 2.07237333e-01, 1.20772488e-01,
          2.33495042e-01, 1.25478208e-01 ]
      - [ 7.07357144e-03, 2.82942858e-02, 2.58769900e-01, 1.28947169e-01,
          3.25776972e-02, 0., 0., 0., 0., 1.95905156e-02, 0.,
          1.26244292e-01, 2.86009282e-01, 2.93296933e-01, 2.93296933e-01,
          1.46861374e-01, 5.64381145e-02, 0., 2.93296933e-01,
          7.59301111e-02, 2.12207157e-02, 4.16341163e-02, 1.05840847e-01,
          1.58888191e-01, 1.69665992e-01, 1.03338502e-01, 1.18897587e-01,
          2.93296933e-01, 2.93296933e-01, 2.93296933e-01, 2.38503709e-01,
          2.93296933e-01, 1.23925440e-01, 6.53292537e-02, 9.46956053e-02,
          7.73653686e-02 ]
      - [ 5.63339796e-03, 0., 2.64731616e-01, 2.26208180e-01,
          1.25648692e-01, 0., 0., 0., 0., 1.69001929e-02, 0., 0., 0.,
          2.15198085e-01, 2.64731616e-01, 1.50648117e-01, 5.71727455e-02,
          2.64408253e-02, 2.64731616e-01, 8.45238417e-02, 2.64731616e-01,
          4.47137095e-02, 2.14227334e-01, 2.64731616e-01, 2.64731616e-01,
          1.98082909e-01, 1.18295573e-01, 2.64731616e-01, 2.64731616e-01,
          2.64731616e-01, 1.49800345e-01, 1.74475729e-01, 4.08308916e-02,
          6.24231286e-02, 2.38271773e-01, 7.42951185e-02 ]
      - [ 6.82515698e-03, 0., 1.34263948e-01, 0., 6.82515698e-03, 0., 0.,
          0., 0., 0., 0., 1.72928169e-01, 3.01540315e-01, 3.01540315e-01,
          2.37531960e-01, 0., 0., 3.25943492e-02, 9.69488397e-02,
          1.79382205e-01, 0., 0., 9.65222903e-03, 2.55373996e-02,
          1.38119012e-01, 1.08785987e-01, 1.19005747e-01, 3.01540315e-01,
          1.36789247e-01, 3.01540315e-01, 3.01540315e-01, 3.01540315e-01,
          3.01540315e-01, 2.95340717e-01, 1.80615708e-01, 1.79026917e-01 ]
      - [ 5.80673106e-03, 0., 2.87436634e-01, 0., 5.41119426e-02, 0., 0.,
          0., 0., 0., 0., 0., 2.33168349e-01, 2.87436634e-01,
          2.87436634e-01, 1.32794023e-01, 0., 2.72543803e-02,
          2.87436634e-01, 8.71245414e-02, 1.06377661e-01, 0.,
          5.60102835e-02, 9.32400376e-02, 2.87436634e-01, 1.48885101e-01,
          1.21935397e-01, 2.16835260e-01, 2.66491234e-01, 2.87436634e-01,
          2.00499028e-01, 2.87436634e-01, 2.41404533e-01, 6.43438175e-02,
          2.27302060e-01, 7.65810981e-02 ]
      - [ 6.54539140e-03, 6.61909059e-02, 1.02759913e-01, 2.57987201e-01,
          6.62829205e-02, 0., 0., 0., 0., 0., 0., 0., 1.67796448e-01,
          2.57987201e-01, 2.08668068e-01, 2.16690153e-01, 0., 0.,
          2.57987201e-01, 1.96361747e-02, 2.57987201e-01, 1.73174776e-02,
          1.78823415e-02, 1.34083852e-01, 2.57987201e-01, 1.87096536e-01,
          1.20869391e-01, 2.57987201e-01, 2.57987201e-01, 2.57987201e-01,
          2.57987201e-01, 2.57987201e-01, 2.07237333e-01, 1.20772488e-01,
          2.33495042e-01, 1.25478208e-01 ]
      - [ 7.07357144e-03, 2.82942858e-02, 2.58769900e-01, 1.28947169e-01,
          3.25776972e-02, 0., 0., 0., 0., 1.95905156e-02, 0.,
          1.26244292e-01, 2.86009282e-01, 2.93296933e-01, 2.93296933e-01,
          1.46861374e-01, 5.64381145e-02, 0., 2.93296933e-01,
          7.59301111e-02, 2.12207157e-02, 4.16341163e-02, 1.05840847e-01,
          1.58888191e-01, 1.69665992e-01, 1.03338502e-01, 1.18897587e-01,
          2.93296933e-01, 2.93296933e-01, 2.93296933e-01, 2.38503709e-01,
          2.93296933e-01, 1.23925440e-01, 6.53292537e-02, 9.46956053e-02,
          7.73653686e-02 ]
      - [ 5.63339796e-03, 0., 2.64731616e-01, 2.26208180e-01,
          1.25648692e-01, 0., 0., 0., 0., 1.69001929e-02, 0., 0., 0.,
          2.15198085e-01, 2.64731616e-01, 1.50648117e-01, 5.71727455e-02,
          2.64408253e-02, 2.64731616e-01, 8.45238417e-02, 2.64731616e-01,
          4.47137095e-02, 2.14227334e-01, 2.64731616e-01, 2.64731616e-01,
          1.98082909e-01, 1.18295573e-01, 2.64731616e-01, 2.64731616e-01,
          2.64731616e-01, 1.49800345e-01, 1.74475729e-01, 4.08308916e-02,
          6.24231286e-02, 2.38271773e-01, 7.42951185e-02 ]
      - [ 6.82515698e-03, 0., 1.34263948e-01, 0., 6.82515698e-03, 0., 0.,
          0., 0., 0., 0., 1.72928169e-01, 3.01540315e-01, 3.01540315e-01,
          2.37531960e-01, 0., 0., 3.25943492e-02, 9.69488397e-02,
          1.79382205e-01, 0., 0., 9.65222903e-03, 2.55373996e-02,
          1.38119012e-01, 1.08785987e-01, 1.19005747e-01, 3.01540315e-01,
          1.36789247e-01, 3.01540315e-01, 3.01540315e-01, 3.01540315e-01,
          3.01540315e-01, 2.95340717e-01, 1.80615708e-01, 1.79026917e-01 ]
      - [ 0., 0., 1.29293114e-01, 2.67095208e-01, 2.48614043e-01, 0., 0.,
          0., 0., 0., 0., 1.54142277e-02, 0., 2.67095208e-01,
          2.67095208e-01, 1.07715689e-01, 3.86674590e-02, 0.,
          2.23615408e-01, 1.10722214e-01, 2.67095208e-01, 1.14864215e-01,
          2.67095208e-01, 2.66357094e-01, 2.22878844e-01, 1.39163345e-01,
          9.65000540e-02, 1.80086359e-01, 2.67095208e-01, 2.67095208e-01,
          2.67095208e-01, 1.98911056e-01, 0., 4.72940877e-02,
          1.46399289e-01, 1.30372971e-01 ]
      - [ 0., 5.15018739e-02, 1.54643968e-01, 2.68024325e-01,
          2.68024325e-01, 0., 0., 0., 1.62169859e-02, 0., 0., 0., 0.,
          1.33434102e-01, 2.68024325e-01, 1.63836524e-01, 3.36831845e-02,
          0., 2.68024325e-01, 6.66309893e-02, 1.70927554e-01,
          2.68024325e-01, 8.99961889e-02, 2.68024325e-01, 2.68024325e-01,
          1.27215639e-01, 1.15081668e-01, 1.68599457e-01, 2.46763691e-01,
          2.68024325e-01, 2.68024325e-01, 2.22219497e-01, 7.78694749e-02,
          2.61871144e-02, 9.88052785e-02, 2.33367741e-01 ]
      - [ 0., 1.12407962e-02, 2.66493976e-01, 2.19125733e-01,
          1.54752240e-01, 0., 0., 0., 0., 0., 0., 0., 5.22083826e-02,
          2.66493976e-01, 2.58004606e-01, 1.63808748e-01, 1.12478055e-01,
          0., 2.66493976e-01, 1.47196382e-01, 2.66493976e-01,
          5.67206331e-02, 2.66493976e-01, 2.66493976e-01, 2.05037504e-01,
          6.14390895e-02, 7.65236244e-02, 2.66493976e-01, 2.66493976e-01,
          2.66493976e-01, 1.69467866e-01, 1.72818184e-01, 2.53019501e-02,
          2.98879649e-02, 6.64187670e-02, 1.97169647e-01 ]
      - [ 0., 0., 9.15533081e-02, 2.85012245e-01, 2.85012245e-01,
          1.08850494e-01, 0., 0., 0., 2.36966070e-02, 0., 1.59360208e-02,
          0., 8.65883678e-02, 2.85012245e-01, 1.19431570e-01,
          3.94216105e-02, 0., 2.70845979e-01, 4.55990657e-02,
          2.85012245e-01, 2.79355377e-01, 2.85012245e-01, 2.57062346e-01,
          1.48561090e-01, 6.45224974e-02, 1.35203570e-01, 1.37299508e-01,
          2.85012245e-01, 2.85012245e-01, 2.06279010e-01, 1.05841234e-02,
          2.17879750e-02, 0., 2.07982227e-01, 1.33034930e-01 ]
      - [ 0., 1.12226103e-02, 1.41227901e-01, 2.98962146e-01,
          2.65529826e-02, 0., 0., 0., 0., 0., 0., 1.65657513e-02,
          9.60251689e-02, 2.98962146e-01, 2.98962146e-01, 3.52748558e-02,
          0., 0., 2.45943308e-01, 1.47600293e-01, 2.58286774e-01,
          2.96922345e-02, 1.56023383e-01, 2.51832604e-01, 2.05698252e-01,
          1.88021153e-01, 1.05439425e-01, 1.71462029e-01, 2.15711027e-01,
          2.98962146e-01, 2.98962146e-01, 2.98962146e-01, 3.87663394e-02,
          8.26344341e-02, 1.19035244e-01, 8.58543664e-02 ]
      - [ 1.20499305e-01, 1.27132878e-01, 9.86058936e-02, 2.12199226e-01,
          2.92427778e-01, 1.45183101e-01, 2.82344162e-01, 1.09109208e-01,
          4.27866131e-02, 4.44410145e-02, 4.87905294e-02, 1.26271650e-01,
          9.30552781e-02, 2.92427778e-01, 2.05834955e-01, 4.58929725e-02,
          4.54713888e-02, 0., 2.92427778e-01, 8.19550827e-02,
          5.93665391e-02, 9.22686383e-02, 2.24534884e-01, 1.69759929e-01,
          2.22626045e-01, 1.70887694e-01, 2.50284404e-01, 2.11882949e-01,
          2.84314547e-02, 2.00117081e-02, 0., 9.75195169e-02,
          2.23250967e-02, 2.92427778e-01, 2.92427778e-01, 3.81405689e-02 ]
      - [ 1.54316679e-01, 1.43386260e-01, 2.07699165e-01, 1.07673883e-01,
          2.68892318e-01, 7.42206201e-02, 2.19497979e-01, 1.83456481e-01,
          0., 0., 1.61036812e-02, 1.09357640e-01, 1.22962721e-01,
          2.68892318e-01, 2.40712568e-01, 1.98102579e-01, 7.24655017e-02,
          6.45927563e-02, 2.42938846e-01, 1.88035950e-01, 6.09065853e-02,
          1.29438862e-01, 2.68892318e-01, 2.66894400e-01, 2.04377621e-01,
          2.68892318e-01, 9.96561572e-02, 2.35226661e-01, 0.,
          9.09570791e-03, 1.26886535e-02, 3.54513191e-02, 3.73324156e-02,
          1.48609057e-01, 2.68892318e-01, 0. ]
      - [ 5.82150668e-02, 1.41526148e-01, 1.84709817e-01, 3.01343381e-01,
          1.76344395e-01, 1.80588871e-01, 1.57145977e-01, 1.01979777e-01,
          5.24336174e-02, 0., 1.25040799e-01, 1.21789962e-01,
          2.87728250e-01, 3.01343381e-01, 1.33375928e-01, 3.10202371e-02,
          9.39159691e-02, 8.26163068e-02, 3.01343381e-01, 1.10786960e-01,
          1.08446993e-01, 6.34102225e-02, 2.04661340e-01, 7.52227381e-02,
          2.36338079e-01, 1.50130004e-01, 2.20352933e-01, 1.51097462e-01,
          5.92471026e-02, 0., 1.31479604e-02, 7.67611787e-02,
          3.33640389e-02, 3.01343381e-01, 3.01343381e-01, 5.61158322e-02 ]
      - [ 6.47915825e-02, 1.03474267e-01, 9.07652676e-02, 2.10477084e-01,
          2.99330443e-01, 2.99330443e-01, 2.31085360e-01, 2.17552811e-01,
          2.60913987e-02, 7.70423487e-02, 6.92646131e-02, 7.21591413e-02,
          1.48632392e-01, 2.99330443e-01, 5.86064570e-02, 6.43641353e-02,
          3.05563994e-02, 4.86382470e-02, 2.42195979e-01, 1.10999234e-01,
          5.82495518e-02, 1.31771073e-01, 2.99330443e-01, 7.19750673e-02,
          2.99330443e-01, 2.99330443e-01, 1.41606569e-01, 1.88730866e-01,
          1.29991183e-02, 0., 1.29991183e-02, 4.15439680e-02, 0.,
          1.98481288e-02, 2.99330443e-01, 0. ]
      - [ 1.34716436e-01, 1.57914534e-01, 5.00219651e-02, 1.62646919e-01,
          2.28871793e-01, 7.02803805e-02, 4.38620076e-02, 3.19182053e-02,
          0., 8.13197345e-02, 4.27085795e-02, 1.47410437e-01,
          9.49070603e-02, 3.10531497e-01, 2.45415553e-01, 2.35898793e-01,
          1.88782379e-01, 3.35472599e-02, 3.10531497e-01, 2.34266281e-01,
          0., 8.65277424e-02, 1.02885485e-01, 5.71396761e-02,
          6.53448328e-02, 6.61125705e-02, 3.08854669e-01, 1.69897318e-01,
          4.22304235e-02, 4.40267809e-02, 0., 2.33747900e-01,
          1.07021265e-01, 3.10531497e-01, 3.10531497e-01, 1.05975263e-01 ]
      - [ 9.86692011e-02, 1.72426686e-01, 7.72884563e-02, 1.92347929e-01,
          2.42677867e-01, 1.93341359e-01, 1.41696692e-01, 8.85491222e-02,
          0., 6.78111054e-03, 0., 0., 0., 9.58993845e-03, 0.,
          7.24388957e-02, 8.67667943e-02, 0., 3.26113611e-01,
          3.26113611e-01, 9.29807574e-02, 2.41397306e-01, 3.26113611e-01,
          1.85399920e-01, 3.13258737e-01, 8.39790106e-02, 1.58384249e-01,
          3.26113611e-01, 2.42780894e-02, 0., 0., 0., 2.75329109e-02, 0.,
          3.26113611e-01, 1.25689268e-01 ]
      - [ 9.79684293e-03, 2.76268482e-01, 1.83676511e-01, 1.44964263e-01,
          2.30012089e-01, 2.21004099e-01, 1.76328957e-01, 7.16603696e-02,
          0., 2.52870116e-02, 0., 0., 0., 1.19986329e-02, 0.,
          4.43570949e-02, 1.74800709e-01, 4.04360443e-02, 2.71740466e-01,
          2.76268482e-01, 2.76268482e-01, 2.28739515e-01, 2.76268482e-01,
          2.76268482e-01, 1.85544953e-01, 1.73277244e-01, 9.65562612e-02,
          2.76268482e-01, 0., 0., 0., 0., 0., 0., 1.95002258e-01,
          2.76268482e-01 ]
      - [ 2.43815463e-02, 5.61305359e-02, 2.56832242e-01, 1.47534683e-01,
          2.41515964e-01, 3.20255905e-01, 8.50652233e-02, 0., 0., 0., 0.,
          0., 0., 1.72403567e-02, 0., 1.19354695e-01, 7.80258924e-02, 0.,
          3.40628892e-01, 3.40628892e-01, 1.15308717e-01, 4.07081917e-02,
          2.68151015e-01, 2.84845620e-01, 1.89578190e-01, 5.24065830e-02,
          1.46487728e-01, 3.40628892e-01, 3.77219729e-02, 1.83996297e-02,
          0., 2.46541090e-02, 7.26939067e-02, 1.40921265e-01,
          3.40628892e-01, 0. ]
      - [ 0., 9.06997696e-02, 1.59296304e-01, 2.95996815e-01,
          2.95996815e-01, 1.95658386e-01, 2.16993615e-01, 2.00156540e-01,
          4.59817275e-02, 2.44973265e-02, 0., 0., 0., 0., 0., 0., 0., 0.,
          2.95996815e-01, 2.19562024e-01, 1.14918560e-01, 2.04548433e-01,
          2.95996815e-01, 2.03389362e-01, 2.36555070e-01, 2.38286838e-01,
          2.95996815e-01, 2.15929493e-01, 0., 0., 0., 0., 0., 0.,
          9.26416963e-02, 2.95996815e-01 ]
      - [ 9.64049026e-02, 1.68469757e-01, 7.55148083e-02, 1.87933847e-01,
          2.27738947e-01, 0., 0., 0., 0., 6.62549445e-03, 0., 0., 0.,
          1.87397283e-02, 1.88904479e-01, 2.09221512e-01, 1.71292678e-01,
          0., 3.69953424e-01, 3.69953424e-01, 9.08469930e-02,
          1.48264512e-01, 1.79177210e-01, 1.18608966e-01, 6.91182762e-02,
          2.25451123e-02, 5.12548015e-02, 3.69953424e-01, 7.36911595e-02,
          0., 8.75930935e-02, 0., 8.94373804e-02, 2.36951694e-01,
          3.69953424e-01, 2.26299703e-01 ]
      - [ 9.86692011e-02, 1.72426686e-01, 7.72884563e-02, 1.92347929e-01,
          2.42677867e-01, 1.93341359e-01, 1.41696692e-01, 8.85491222e-02,
          0., 6.78111054e-03, 0., 0., 0., 9.58993845e-03, 0.,
          7.24388957e-02, 8.67667943e-02, 0., 3.26113611e-01,
          3.26113611e-01, 9.29807574e-02, 2.41397306e-01, 3.26113611e-01,
          1.85399920e-01, 3.13258737e-01, 8.39790106e-02, 1.58384249e-01,
          3.26113611e-01, 2.42780894e-02, 0., 0., 0., 2.75329109e-02, 0.,
          3.26113611e-01, 1.25689268e-01 ]
      - [ 9.79684293e-03, 2.76268482e-01, 1.83676511e-01, 1.44964263e-01,
          2.30012089e-01, 2.21004099e-01, 1.76328957e-01, 7.16603696e-02,
          0., 2.52870116e-02, 0., 0., 0., 1.19986329e-02, 0.,
          4.43570949e-02, 1.74800709e-01, 4.04360443e-02, 2.71740466e-01,
          2.76268482e-01, 2.76268482e-01, 2.28739515e-01, 2.76268482e-01,
          2.76268482e-01, 1.85544953e-01, 1.73277244e-01, 9.65562612e-02,
          2.76268482e-01, 0., 0., 0., 0., 0., 0., 1.95002258e-01,
          2.76268482e-01 ]
      - [ 2.43815463e-02, 5.61305359e-02, 2.56832242e-01, 1.47534683e-01,
          2.41515964e-01, 3.20255905e-01, 8.50652233e-02, 0., 0., 0., 0.,
          0., 0., 1.72403567e-02, 0., 1.19354695e-01, 7.80258924e-02, 0.,
          3.40628892e-01, 3.40628892e-01, 1.15308717e-01, 4.07081917e-02,
          2.68151015e-01, 2.84845620e-01, 1.89578190e-01, 5.24065830e-02,
          1.46487728e-01, 3.40628892e-01, 3.77219729e-02, 1.83996297e-02,
          0., 2.46541090e-02, 7.26939067e-02, 1.40921265e-01,
          3.40628892e-01, 0. ]
      - [ 0., 9.06997696e-02, 1.59296304e-01, 2.95996815e-01,
          2.95996815e-01, 1.95658386e-01, 2.16993615e-01, 2.00156540e-01,
          4.59817275e-02, 2.44973265e-02, 0., 0., 0., 0., 0., 0., 0., 0.,
          2.95996815e-01, 2.19562024e-01, 1.14918560e-01, 2.04548433e-01,
          2.95996815e-01, 2.03389362e-01, 2.36555070e-01, 2.38286838e-01,
          2.95996815e-01, 2.15929493e-01, 0., 0., 0., 0., 0., 0.,
          9.26416963e-02, 2.95996815e-01 ]
      - [ 9.64049026e-02, 1.68469757e-01, 7.55148083e-02, 1.87933847e-01,
          2.27738947e-01, 0., 0., 0., 0., 6.62549445e-03, 0., 0., 0.,
          1.87397283e-02, 1.88904479e-01, 2.09221512e-01, 1.71292678e-01,
          0., 3.69953424e-01, 3.69953424e-01, 9.08469930e-02,
          1.48264512e-01, 1.79177210e-01, 1.18608966e-01, 6.91182762e-02,
          2.25451123e-02, 5.12548015e-02, 3.69953424e-01, 7.36911595e-02,
          0., 8.75930935e-02, 0., 8.94373804e-02, 2.36951694e-01,
          3.69953424e-01, 2.26299703e-01 ]
      - [ 9.86692011e-02, 1.72426686e-01, 7.72884563e-02, 1.92347929e-01,
          2.42677867e-01, 1.93341359e-01, 1.41696692e-01, 8.85491222e-02,
          0., 6.78111054e-03, 0., 0., 0., 9.58993845e-03, 0.,
          7.24388957e-02, 8.67667943e-02, 0., 3.26113611e-01,
          3.26113611e-01, 9.29807574e-02, 2.41397306e-01, 3.26113611e-01,
          1.85399920e-01, 3.13258737e-01, 8.39790106e-02, 1.58384249e-01,
          3.26113611e-01, 2.42780894e-02, 0., 0., 0., 2.75329109e-02, 0.,
          3.26113611e-01, 1.25689268e-01 ]
      - [ 9.79684293e-03, 2.76268482e-01, 1.83676511e-01, 1.44964263e-01,
          2.30012089e-01, 2.21004099e-01, 1.76328957e-01, 7.16603696e-02,
          0., 2.52870116e-02, 0., 0., 0., 1.19986329e-02, 0.,
          4.43570949e-02, 1.74800709e-01, 4.04360443e-02, 2.71740466e-01,
          2.76268482e-01, 2.76268482e-01, 2.28739515e-01, 2.76268482e-01,
          2.76268482e-01, 1.85544953e-01, 1.73277244e-01, 9.65562612e-02,
          2.76268482e-01, 0., 0., 0., 0., 0., 0., 1.95002258e-01,
          2.76268482e-01 ]
      - [ 2.43815463e-02, 5.61305359e-02, 2.56832242e-01, 1.47534683e-01,
          2.41515964e-01, 3.20255905e-01, 8.50652233e-02, 0., 0., 0., 0.,
          0., 0., 1.72403567e-02, 0., 1.19354695e-01, 7.80258924e-02, 0.,
          3.40628892e-01, 3.40628892e-01, 1.15308717e-01, 4.07081917e-02,
          2.68151015e-01, 2.84845620e-01, 1.89578190e-01, 5.24065830e-02,
          1.46487728e-01, 3.40628892e-01, 3.77219729e-02, 1.83996297e-02,
          0., 2.46541090e-02, 7.26939067e-02, 1.40921265e-01,
          3.40628892e-01, 0. ]
      - [ 0., 9.06997696e-02, 1.59296304e-01, 2.95996815e-01,
          2.95996815e-01, 1.95658386e-01, 2.16993615e-01, 2.00156540e-01,
          4.59817275e-02, 2.44973265e-02, 0., 0., 0., 0., 0., 0., 0., 0.,
          2.95996815e-01, 2.19562024e-01, 1.14918560e-01, 2.04548433e-01,
          2.95996815e-01, 2.03389362e-01, 2.36555070e-01, 2.38286838e-01,
          2.95996815e-01, 2.15929493e-01, 0., 0., 0., 0., 0., 0.,
          9.26416963e-02, 2.95996815e-01 ]
      - [ 9.64049026e-02, 1.68469757e-01, 7.55148083e-02, 1.87933847e-01,
          2.27738947e-01, 0., 0., 0., 0., 6.62549445e-03, 0., 0., 0.,
          1.87397283e-02, 1.88904479e-01, 2.09221512e-01, 1.71292678e-01,
          0., 3.69953424e-01, 3.69953424e-01, 9.08469930e-02,
          1.48264512e-01, 1.79177210e-01, 1.18608966e-01, 6.91182762e-02,
          2.25451123e-02, 5.12548015e-02, 3.69953424e-01, 7.36911595e-02,
          0., 8.75930935e-02, 0., 8.94373804e-02, 2.36951694e-01,
          3.69953424e-01, 2.26299703e-01 ]
      - [ 9.86692011e-02, 1.72426686e-01, 7.72884563e-02, 1.92347929e-01,
          2.42677867e-01, 1.93341359e-01, 1.41696692e-01, 8.85491222e-02,
          0., 6.78111054e-03, 0., 0., 0., 9.58993845e-03, 0.,
          7.24388957e-02, 8.67667943e-02, 0., 3.26113611e-01,
          3.26113611e-01, 9.29807574e-02, 2.41397306e-01, 3.26113611e-01,
          1.85399920e-01, 3.13258737e-01, 8.39790106e-02, 1.58384249e-01,
          3.26113611e-01, 2.42780894e-02, 0., 0., 0., 2.75329109e-02, 0.,
          3.26113611e-01, 1.25689268e-01 ]
      - [ 9.79684293e-03, 2.76268482e-01, 1.83676511e-01, 1.44964263e-01,
          2.30012089e-01, 2.21004099e-01, 1.76328957e-01, 7.16603696e-02,
          0., 2.52870116e-02, 0., 0., 0., 1.19986329e-02, 0.,
          4.43570949e-02, 1.74800709e-01, 4.04360443e-02, 2.71740466e-01,
          2.76268482e-01, 2.76268482e-01, 2.28739515e-01, 2.76268482e-01,
          2.76268482e-01, 1.85544953e-01, 1.73277244e-01, 9.65562612e-02,
          2.76268482e-01, 0., 0., 0., 0., 0., 0., 1.95002258e-01,
          2.76268482e-01 ]
      - [ 2.43815463e-02, 5.61305359e-02, 2.56832242e-01, 1.47534683e-01,
          2.41515964e-01, 3.20255905e-01, 8.50652233e-02, 0., 0., 0., 0.,
          0., 0., 1.72403567e-02, 0., 1.19354695e-01, 7.80258924e-02, 0.,
          3.40628892e-01, 3.40628892e-01, 1.15308717e-01, 4.07081917e-02,
          2.68151015e-01, 2.84845620e-01, 1.89578190e-01, 5.24065830e-02,
          1.46487728e-01, 3.40628892e-01, 3.77219729e-02, 1.83996297e-02,
          0., 2.46541090e-02, 7.26939067e-02, 1.40921265e-01,
          3.40628892e-01, 0. ]
      - [ 0., 9.06997696e-02, 1.59296304e-01, 2.95996815e-01,
          2.95996815e-01, 1.95658386e-01, 2.16993615e-01, 2.00156540e-01,
          4.59817275e-02, 2.44973265e-02, 0., 0., 0., 0., 0., 0., 0., 0.,
          2.95996815e-01, 2.19562024e-01, 1.14918560e-01, 2.04548433e-01,
          2.95996815e-01, 2.03389362e-01, 2.36555070e-01, 2.38286838e-01,
          2.95996815e-01, 2.15929493e-01, 0., 0., 0., 0., 0., 0.,
          9.26416963e-02, 2.95996815e-01 ]
      - [ 9.64049026e-02, 1.68469757e-01, 7.55148083e-02, 1.87933847e-01,
          2.27738947e-01, 0., 0., 0., 0., 6.62549445e-03, 0., 0., 0.,
          1.87397283e-02, 1.88904479e-01, 2.09221512e-01, 1.71292678e-01,
          0., 3.69953424e-01, 3.69953424e-01, 9.08469930e-02,
          1.48264512e-01, 1.79177210e-01, 1.18608966e-01, 6.91182762e-02,
          2.25451123e-02, 5.12548015e-02, 3.69953424e-01, 7.36911595e-02,
          0., 8.75930935e-02, 0., 8.94373804e-02, 2.36951694e-01,
          3.69953424e-01, 2.26299703e-01 ]
      - [ 0., 1.26464635e-01, 1.99108899e-01, 3.16054225e-01,
          3.19661677e-01, 1.86025992e-01, 1.15743563e-01, 0., 0.,
          3.18118408e-02, 0., 0., 0., 0., 4.01246697e-02, 1.50642514e-01,
          1.29665479e-01, 0., 3.19661677e-01, 2.16232851e-01,
          2.48032913e-01, 4.19740491e-02, 1.88928679e-01, 1.15751652e-02,
          2.99712360e-01, 2.19989151e-01, 1.96940273e-01, 3.07123005e-01,
          1.56613573e-01, 0., 9.07898843e-02, 3.04142654e-01, 0., 0.,
          8.60578269e-02, 9.77245718e-03 ]
      - [ 0., 2.08231375e-01, 1.84516832e-01, 2.62766063e-01,
          2.82350153e-01, 2.82350153e-01, 1.05527259e-01, 0., 0.,
          1.28409229e-02, 0., 0., 0., 0., 1.65775605e-02, 1.74102932e-01,
          1.21787511e-01, 1.11962125e-01, 2.82350153e-01, 1.15057349e-01,
          2.04250604e-01, 1.30062163e-01, 2.82350153e-01, 8.58558938e-02,
          2.82350153e-01, 2.20536128e-01, 2.82350153e-01, 2.82350153e-01,
          8.07869434e-02, 0., 0., 8.83239135e-02, 2.82350153e-01, 0.,
          6.56607524e-02, 0. ]
      - [ 8.10883287e-03, 5.19218631e-02, 2.89373577e-01, 1.72553718e-01,
          3.06838155e-01, 9.50534940e-02, 0., 7.53206760e-03, 0.,
          6.24843612e-02, 0., 0., 0., 1.62176657e-02, 6.95169345e-02,
          1.42599896e-01, 7.25006014e-02, 7.33946785e-02, 3.06838155e-01,
          1.96596965e-01, 3.06838155e-01, 1.43595055e-01, 3.05118799e-01,
          1.91756874e-01, 0., 1.37575477e-01, 3.06838155e-01,
          3.06838155e-01, 7.51086920e-02, 1.25122815e-01, 1.40909523e-01,
          2.82512158e-01, 5.29046208e-02, 5.61796390e-02, 0.,
          1.70066938e-01 ]
      - [ 0., 2.19491143e-02, 4.62361053e-02, 3.22301477e-01,
          3.22301477e-01, 2.68029094e-01, 3.15715253e-01, 1.53676853e-01,
          0., 3.77027318e-02, 0., 0., 0., 0., 0., 0., 0., 0.,
          3.22301477e-01, 2.25482404e-01, 3.22301477e-01, 1.06197514e-01,
          3.22301477e-01, 0., 3.03072989e-01, 2.58818835e-01,
          1.28699616e-01, 2.09550008e-01, 0., 0., 0., 0., 0., 0., 0., 0. ]
      - [ 2.30658595e-02, 1.24682769e-01, 1.96303487e-01, 3.11601073e-01,
          2.24219978e-01, 0., 0., 0., 0., 3.13636139e-02, 0., 0., 0.,
          1.11370936e-01, 2.22964242e-01, 2.62632728e-01, 1.27838522e-01,
          0., 3.71562898e-01, 9.11191329e-02, 6.81916848e-02,
          4.13826406e-02, 1.23917930e-01, 1.14120729e-02, 1.46630973e-01,
          2.16889530e-01, 1.94165424e-01, 3.22108418e-01, 2.76473939e-01,
          1.76346481e-01, 8.95106643e-02, 3.55519354e-01, 0.,
          1.48858473e-01, 8.48452821e-02, 9.63476487e-03 ]
      - [ 0., 1.26464635e-01, 1.99108899e-01, 3.16054225e-01,
          3.19661677e-01, 1.86025992e-01, 1.15743563e-01, 0., 0.,
          3.18118408e-02, 0., 0., 0., 0., 4.01246697e-02, 1.50642514e-01,
          1.29665479e-01, 0., 3.19661677e-01, 2.16232851e-01,
          2.48032913e-01, 4.19740491e-02, 1.88928679e-01, 1.15751652e-02,
          2.99712360e-01, 2.19989151e-01, 1.96940273e-01, 3.07123005e-01,
          1.56613573e-01, 0., 9.07898843e-02, 3.04142654e-01, 0., 0.,
          8.60578269e-02, 9.77245718e-03 ]
      - [ 0., 2.08231375e-01, 1.84516832e-01, 2.62766063e-01,
          2.82350153e-01, 2.82350153e-01, 1.05527259e-01, 0., 0.,
          1.28409229e-02, 0., 0., 0., 0., 1.65775605e-02, 1.74102932e-01,
          1.21787511e-01, 1.11962125e-01, 2.82350153e-01, 1.15057349e-01,
          2.04250604e-01, 1.30062163e-01, 2.82350153e-01, 8.58558938e-02,
          2.82350153e-01, 2.20536128e-01, 2.82350153e-01, 2.82350153e-01,
          8.07869434e-02, 0., 0., 8.83239135e-02, 2.82350153e-01, 0.,
          6.56607524e-02, 0. ]
      - [ 8.10883287e-03, 5.19218631e-02, 2.89373577e-01, 1.72553718e-01,
          3.06838155e-01, 9.50534940e-02, 0., 7.53206760e-03, 0.,
          6.24843612e-02, 0., 0., 0., 1.62176657e-02, 6.95169345e-02,
          1.42599896e-01, 7.25006014e-02, 7.33946785e-02, 3.06838155e-01,
          1.96596965e-01, 3.06838155e-01, 1.43595055e-01, 3.05118799e-01,
          1.91756874e-01, 0., 1.37575477e-01, 3.06838155e-01,
          3.06838155e-01, 7.51086920e-02, 1.25122815e-01, 1.40909523e-01,
          2.82512158e-01, 5.29046208e-02, 5.61796390e-02, 0.,
          1.70066938e-01 ]
      - [ 0., 2.19491143e-02, 4.62361053e-02, 3.22301477e-01,
          3.22301477e-01, 2.68029094e-01, 3.15715253e-01, 1.53676853e-01,
          0., 3.77027318e-02, 0., 0., 0., 0., 0., 0., 0., 0.,
          3.22301477e-01, 2.25482404e-01, 3.22301477e-01, 1.06197514e-01,
          3.22301477e-01, 0., 3.03072989e-01, 2.58818835e-01,
          1.28699616e-01, 2.09550008e-01, 0., 0., 0., 0., 0., 0., 0., 0. ]
      - [ 2.30658595e-02, 1.24682769e-01, 1.96303487e-01, 3.11601073e-01,
          2.24219978e-01, 0., 0., 0., 0., 3.13636139e-02, 0., 0., 0.,
          1.11370936e-01, 2.22964242e-01, 2.62632728e-01, 1.27838522e-01,
          0., 3.71562898e-01, 9.11191329e-02, 6.81916848e-02,
          4.13826406e-02, 1.23917930e-01, 1.14120729e-02, 1.46630973e-01,
          2.16889530e-01, 1.94165424e-01, 3.22108418e-01, 2.76473939e-01,
          1.76346481e-01, 8.95106643e-02, 3.55519354e-01, 0.,
          1.48858473e-01, 8.48452821e-02, 9.63476487e-03 ]
      - [ 0., 1.26464635e-01, 1.99108899e-01, 3.16054225e-01,
          3.19661677e-01, 1.86025992e-01, 1.15743563e-01, 0., 0.,
          3.18118408e-02, 0., 0., 0., 0., 4.01246697e-02, 1.50642514e-01,
          1.29665479e-01, 0., 3.19661677e-01, 2.16232851e-01,
          2.48032913e-01, 4.19740491e-02, 1.88928679e-01, 1.15751652e-02,
          2.99712360e-01, 2.19989151e-01, 1.96940273e-01, 3.07123005e-01,
          1.56613573e-01, 0., 9.07898843e-02, 3.04142654e-01, 0., 0.,
          8.60578269e-02, 9.77245718e-03 ]
      - [ 0., 2.08231375e-01, 1.84516832e-01, 2.62766063e-01,
          2.82350153e-01, 2.82350153e-01, 1.05527259e-01, 0., 0.,
          1.28409229e-02, 0., 0., 0., 0., 1.65775605e-02, 1.74102932e-01,
          1.21787511e-01, 1.11962125e-01, 2.82350153e-01, 1.15057349e-01,
          2.04250604e-01, 1.30062163e-01, 2.82350153e-01, 8.58558938e-02,
          2.82350153e-01, 2.20536128e-01, 2.82350153e-01, 2.82350153e-01,
          8.07869434e-02, 0., 0., 8.83239135e-02, 2.82350153e-01, 0.,
          6.56607524e-02, 0. ]
      - [ 8.10883287e-03, 5.19218631e-02, 2.89373577e-01, 1.72553718e-01,
          3.06838155e-01, 9.50534940e-02, 0., 7.53206760e-03, 0.,
          6.24843612e-02, 0., 0., 0., 1.62176657e-02, 6.95169345e-02,
          1.42599896e-01, 7.25006014e-02, 7.33946785e-02, 3.06838155e-01,
          1.96596965e-01, 3.06838155e-01, 1.43595055e-01, 3.05118799e-01,
          1.91756874e-01, 0., 1.37575477e-01, 3.06838155e-01,
          3.06838155e-01, 7.51086920e-02, 1.25122815e-01, 1.40909523e-01,
          2.82512158e-01, 5.29046208e-02, 5.61796390e-02, 0.,
          1.70066938e-01 ]
      - [ 0., 2.19491143e-02, 4.62361053e-02, 3.22301477e-01,
          3.22301477e-01, 2.68029094e-01, 3.15715253e-01, 1.53676853e-01,
          0., 3.77027318e-02, 0., 0., 0., 0., 0., 0., 0., 0.,
          3.22301477e-01, 2.25482404e-01, 3.22301477e-01, 1.06197514e-01,
          3.22301477e-01, 0., 3.03072989e-01, 2.58818835e-01,
          1.28699616e-01, 2.09550008e-01, 0., 0., 0., 0., 0., 0., 0., 0. ]
      - [ 2.30658595e-02, 1.24682769e-01, 1.96303487e-01, 3.11601073e-01,
          2.24219978e-01, 0., 0., 0., 0., 3.13636139e-02, 0., 0., 0.,
          1.11370936e-01, 2.22964242e-01, 2.62632728e-01, 1.27838522e-01,
          0., 3.71562898e-01, 9.11191329e-02, 6.81916848e-02,
          4.13826406e-02, 1.23917930e-01, 1.14120729e-02, 1.46630973e-01,
          2.16889530e-01, 1.94165424e-01, 3.22108418e-01, 2.76473939e-01,
          1.76346481e-01, 8.95106643e-02, 3.55519354e-01, 0.,
          1.48858473e-01, 8.48452821e-02, 9.63476487e-03 ]
      - [ 0., 1.26464635e-01, 1.99108899e-01, 3.16054225e-01,
          3.19661677e-01, 1.86025992e-01, 1.15743563e-01, 0., 0.,
          3.18118408e-02, 0., 0., 0., 0., 4.01246697e-02, 1.50642514e-01,
          1.29665479e-01, 0., 3.19661677e-01, 2.16232851e-01,
          2.48032913e-01, 4.19740491e-02, 1.88928679e-01, 1.15751652e-02,
          2.99712360e-01, 2.19989151e-01, 1.96940273e-01, 3.07123005e-01,
          1.56613573e-01, 0., 9.07898843e-02, 3.04142654e-01, 0., 0.,
          8.60578269e-02, 9.77245718e-03 ]
      - [ 0., 2.08231375e-01, 1.84516832e-01, 2.62766063e-01,
          2.82350153e-01, 2.82350153e-01, 1.05527259e-01, 0., 0.,
          1.28409229e-02, 0., 0., 0., 0., 1.65775605e-02, 1.74102932e-01,
          1.21787511e-01, 1.11962125e-01, 2.82350153e-01, 1.15057349e-01,
          2.04250604e-01, 1.30062163e-01, 2.82350153e-01, 8.58558938e-02,
          2.82350153e-01, 2.20536128e-01, 2.82350153e-01, 2.82350153e-01,
          8.07869434e-02, 0., 0., 8.83239135e-02, 2.82350153e-01, 0.,
          6.56607524e-02, 0. ]
      - [ 8.10883287e-03, 5.19218631e-02, 2.89373577e-01, 1.72553718e-01,
          3.06838155e-01, 9.50534940e-02, 0., 7.53206760e-03, 0.,
          6.24843612e-02, 0., 0., 0., 1.62176657e-02, 6.95169345e-02,
          1.42599896e-01, 7.25006014e-02, 7.33946785e-02, 3.06838155e-01,
          1.96596965e-01, 3.06838155e-01, 1.43595055e-01, 3.05118799e-01,
          1.91756874e-01, 0., 1.37575477e-01, 3.06838155e-01,
          3.06838155e-01, 7.51086920e-02, 1.25122815e-01, 1.40909523e-01,
          2.82512158e-01, 5.29046208e-02, 5.61796390e-02, 0.,
          1.70066938e-01 ]
      - [ 0., 2.19491143e-02, 4.62361053e-02, 3.22301477e-01,
          3.22301477e-01, 2.68029094e-01, 3.15715253e-01, 1.53676853e-01,
          0., 3.77027318e-02, 0., 0., 0., 0., 0., 0., 0., 0.,
          3.22301477e-01, 2.25482404e-01, 3.22301477e-01, 1.06197514e-01,
          3.22301477e-01, 0., 3.03072989e-01, 2.58818835e-01,
          1.28699616e-01, 2.09550008e-01, 0., 0., 0., 0., 0., 0., 0., 0. ]
      - [ 2.30658595e-02, 1.24682769e-01, 1.96303487e-01, 3.11601073e-01,
          2.24219978e-01, 0., 0., 0., 0., 3.13636139e-02, 0., 0., 0.,
          1.11370936e-01, 2.22964242e-01, 2.62632728e-01, 1.27838522e-01,
          0., 3.71562898e-01, 9.11191329e-02, 6.81916848e-02,
          4.13826406e-02, 1.23917930e-01, 1.14120729e-02, 1.46630973e-01,
          2.16889530e-01, 1.94165424e-01, 3.22108418e-01, 2.76473939e-01,
          1.76346481e-01, 8.95106643e-02, 3.55519354e-01, 0.,
          1.48858473e-01, 8.48452821e-02, 9.63476487e-03 ]
      - [ 0., 1.26464635e-01, 1.99108899e-01, 3.16054225e-01,
          3.19661677e-01, 1.86025992e-01, 1.15743563e-01, 0., 0.,
          3.18118408e-02, 0., 0., 0., 0., 4.01246697e-02, 1.50642514e-01,
          1.29665479e-01, 0., 3.19661677e-01, 2.16232851e-01,
          2.48032913e-01, 4.19740491e-02, 1.88928679e-01, 1.15751652e-02,
          2.99712360e-01, 2.19989151e-01, 1.96940273e-01, 3.07123005e-01,
          1.56613573e-01, 0., 9.07898843e-02, 3.04142654e-01, 0., 0.,
          8.60578269e-02, 9.77245718e-03 ]
      - [ 0., 2.08231375e-01, 1.84516832e-01, 2.62766063e-01,
          2.82350153e-01, 2.82350153e-01, 1.05527259e-01, 0., 0.,
          1.28409229e-02, 0., 0., 0., 0., 1.65775605e-02, 1.74102932e-01,
          1.21787511e-01, 1.11962125e-01, 2.82350153e-01, 1.15057349e-01,
          2.04250604e-01, 1.30062163e-01, 2.82350153e-01, 8.58558938e-02,
          2.82350153e-01, 2.20536128e-01, 2.82350153e-01, 2.82350153e-01,
          8.07869434e-02, 0., 0., 8.83239135e-02, 2.82350153e-01, 0.,
          6.56607524e-02, 0. ]
      - [ 8.10883287e-03, 5.19218631e-02, 2.89373577e-01, 1.72553718e-01,
          3.06838155e-01, 9.50534940e-02, 0., 7.53206760e-03, 0.,
          6.24843612e-02, 0., 0., 0., 1.62176657e-02, 6.95169345e-02,
          1.42599896e-01, 7.25006014e-02, 7.33946785e-02, 3.06838155e-01,
          1.96596965e-01, 3.06838155e-01, 1.43595055e-01, 3.05118799e-01,
          1.91756874e-01, 0., 1.37575477e-01, 3.06838155e-01,
          3.06838155e-01, 7.51086920e-02, 1.25122815e-01, 1.40909523e-01,
          2.82512158e-01, 5.29046208e-02, 5.61796390e-02, 0.,
          1.70066938e-01 ]
      - [ 0., 2.19491143e-02, 4.62361053e-02, 3.22301477e-01,
          3.22301477e-01, 2.68029094e-01, 3.15715253e-01, 1.53676853e-01,
          0., 3.77027318e-02, 0., 0., 0., 0., 0., 0., 0., 0.,
          3.22301477e-01, 2.25482404e-01, 3.22301477e-01, 1.06197514e-01,
          3.22301477e-01, 0., 3.03072989e-01, 2.58818835e-01,
          1.28699616e-01, 2.09550008e-01, 0., 0., 0., 0., 0., 0., 0., 0. ]
      - [ 2.30658595e-02, 1.24682769e-01, 1.96303487e-01, 3.11601073e-01,
          2.24219978e-01, 0., 0., 0., 0., 3.13636139e-02, 0., 0., 0.,
          1.11370936e-01, 2.22964242e-01, 2.62632728e-01, 1.27838522e-01,
          0., 3.71562898e-01, 9.11191329e-02, 6.81916848e-02,
          4.13826406e-02, 1.23917930e-01, 1.14120729e-02, 1.46630973e-01,
          2.16889530e-01, 1.94165424e-01, 3.22108418e-01, 2.76473939e-01,
          1.76346481e-01, 8.95106643e-02, 3.55519354e-01, 0.,
          1.48858473e-01, 8.48452821e-02, 9.63476487e-03 ]
      - [ 3.20199251e-01, 1.28849551e-01, 9.64087993e-02, 1.68518946e-01,
          3.39799255e-01, 3.03997565e-02, 1.34224128e-02, 5.09487540e-02,
          2.46503949e-02, 1.59066226e-02, 0., 0., 4.42678817e-02,
          3.39799255e-01, 3.39799255e-01, 2.25939065e-01, 7.71744177e-02,
          0., 3.39799255e-01, 2.24518776e-01, 0., 1.75387580e-02,
          1.29120752e-01, 3.31347920e-02, 4.91522904e-03, 6.24058768e-02,
          1.60569876e-01, 3.39799255e-01, 9.96407941e-02, 2.05983624e-01,
          7.66084939e-02, 1.78059936e-01, 2.49566231e-02, 0.,
          3.73841785e-02, 1.10429674e-01 ]
      - [ 3.00873160e-01, 1.79689229e-01, 1.07188441e-01, 1.00090392e-01,
          3.00873160e-01, 2.06886351e-01, 1.09285060e-02, 5.78039475e-02,
          4.06379253e-02, 0., 0., 0., 0., 3.00873160e-01, 3.00873160e-01,
          2.85950720e-01, 2.42284089e-02, 0., 3.00873160e-01,
          3.00873160e-01, 8.01855549e-02, 3.04717128e-03, 1.38911322e-01,
          1.28388882e-01, 7.77610317e-02, 4.14525345e-02, 2.79943924e-02,
          3.00873160e-01, 3.00873160e-01, 7.46809021e-02, 6.03388846e-02,
          1.46807849e-01, 1.77739020e-02, 2.73185205e-02, 4.50495407e-02,
          8.43089074e-02 ]
      - [ 1.24071263e-01, 1.27730295e-01, 7.35478997e-02, 3.09767216e-01,
          3.09767216e-01, 1.70921870e-02, 3.90998609e-02, 3.06723136e-02,
          1.08509749e-01, 0., 0., 0., 1.82766348e-01, 3.09767216e-01,
          3.09767216e-01, 1.07465625e-01, 9.98381376e-02, 4.10677008e-02,
          3.09767216e-01, 6.51002750e-02, 1.06901098e-02, 2.59456318e-02,
          6.66359365e-02, 0., 4.25521433e-02, 7.53409117e-02,
          3.09767216e-01, 2.78309762e-01, 3.60502973e-02, 1.19889982e-01,
          2.46776834e-01, 2.03251541e-01, 0., 0., 8.80732387e-02,
          3.09767216e-01 ]
      - [ 1.93574771e-01, 7.75542930e-02, 8.02246854e-02, 1.84345990e-01,
          3.16302329e-01, 6.18047081e-02, 2.98528131e-02, 0.,
          5.11180200e-02, 7.34769478e-02, 0., 0., 0., 1.88308284e-01,
          3.16302329e-01, 2.65191197e-01, 1.37625128e-01, 6.14825673e-02,
          3.16302329e-01, 1.37574449e-01, 0., 2.56932098e-02,
          2.18230143e-01, 5.59619367e-02, 0., 0., 3.16302329e-01,
          3.16302329e-01, 2.57752180e-01, 1.54607758e-01, 1.09071724e-01,
          1.48290982e-02, 0., 0., 4.22182493e-02, 3.16302329e-01 ]
      - [ 3.44879866e-01, 7.64649287e-02, 1.25325024e-01, 1.18069276e-01,
          3.44879866e-01, 5.50717115e-02, 1.81548242e-02, 4.84277792e-02,
          6.67932183e-02, 5.38452081e-02, 8.16064328e-02, 0.,
          9.67123210e-02, 3.44879866e-01, 3.43618900e-01, 6.71932921e-02,
          5.54332808e-02, 0., 3.44879866e-01, 2.56764293e-01,
          1.08631290e-02, 3.96928117e-02, 3.47347483e-02, 0.,
          3.07746585e-02, 7.45190904e-02, 1.67984009e-01, 3.44879866e-01,
          1.22910731e-01, 9.82773006e-02, 1.18501112e-01, 2.26196334e-01,
          6.30094334e-02, 0., 7.76949003e-02, 1.07361801e-01 ]
      - [ 4.16632444e-02, 6.88530952e-02, 3.46646607e-02, 1.12396300e-01,
          4.24924582e-01, 0., 0., 3.17201950e-02, 7.30288327e-02, 0., 0.,
          3.93063761e-02, 4.69088927e-02, 4.24924582e-01, 5.68262301e-02,
          3.24020907e-02, 3.90171446e-02, 0., 3.60809147e-01,
          6.73242807e-02, 1.27806976e-01, 0., 9.26011503e-02,
          3.46742906e-02, 7.54235759e-02, 2.11019590e-01, 4.24924582e-01,
          3.38343456e-02, 3.66593972e-02, 4.69940603e-02, 1.06480457e-01,
          4.24924582e-01, 1.03370391e-01, 4.95088585e-02, 3.66273262e-02,
          0. ]
      - [ 7.01452866e-02, 6.14628308e-02, 8.76616687e-02, 6.96470365e-02,
          3.26645941e-01, 2.52248466e-01, 1.55589031e-02, 0.,
          1.62524119e-01, 0., 0., 0., 0., 3.26645941e-01, 3.26645941e-01,
          2.88513601e-02, 3.77648808e-02, 0., 3.26645941e-01,
          1.27768427e-01, 7.79493973e-02, 3.13592777e-02, 4.56728600e-02,
          7.15810880e-02, 2.33285785e-01, 1.38382837e-01, 3.26645941e-01,
          9.07234177e-02, 3.65622602e-02, 3.86384949e-02, 9.30605903e-02,
          3.26645941e-01, 3.26645941e-01, 8.40337798e-02, 9.16025341e-02,
          0. ]
      - [ 0., 9.18903500e-02, 1.16024032e-01, 3.42671275e-01,
          1.75623730e-01, 2.61552110e-02, 0., 0., 0., 0., 3.50518711e-02,
          1.31293803e-01, 3.42671275e-01, 3.42671275e-01, 5.71460351e-02,
          4.12974246e-02, 3.44774798e-02, 0., 2.92293221e-01,
          1.04558475e-01, 1.00321583e-02, 0., 5.23029417e-02, 0.,
          9.92263183e-02, 2.43390456e-01, 3.42671275e-01, 1.62314072e-01,
          3.98993939e-02, 9.61464122e-02, 3.42671275e-01, 3.42671275e-01,
          5.65839410e-02, 9.18425918e-02, 0., 1.70621295e-02 ]
      - [ 4.64273952e-02, 0., 3.86285260e-02, 7.98701644e-02,
          3.92388433e-01, 0., 0., 0., 2.96626445e-02, 3.83365527e-02, 0.,
          4.38010208e-02, 5.22728786e-02, 3.92388433e-01, 6.33242503e-02,
          4.74274531e-02, 4.34787162e-02, 3.10016926e-02, 2.89834648e-01,
          5.57956919e-02, 1.42421573e-01, 6.30282983e-02, 3.92388433e-01,
          9.43848640e-02, 8.40481818e-02, 2.10386440e-01, 3.92388433e-01,
          1.20345622e-01, 4.08513620e-02, 5.23677841e-02, 5.56280762e-02,
          3.92388433e-01, 5.94450831e-02, 5.51701449e-02, 6.19938113e-02,
          0. ]
      - [ 1.01631984e-01, 4.31382507e-02, 0., 1.23135418e-01,
          3.20057482e-01, 0., 0., 3.46741788e-02, 7.91047812e-02, 0., 0.,
          3.74161899e-02, 0., 4.56549555e-01, 3.10119633e-02, 0., 0., 0.,
          3.02611232e-01, 0., 2.57389024e-02, 0., 7.75338197e-03, 0.,
          1.55888060e-02, 4.38371040e-02, 4.56549555e-01, 1.78977221e-01,
          0., 1.27064452e-01, 1.54118314e-01, 4.56549555e-01,
          1.50816157e-01, 6.48694560e-02, 1.79187655e-01, 9.80994627e-02 ]
      - [ 2.25975037e-01, 1.19141951e-01, 8.31944570e-02, 2.37264186e-01,
          1.49074197e-01, 6.60509542e-02, 0., 1.76224262e-02, 0., 0., 0.,
          3.09194829e-02, 2.15699658e-01, 3.88035059e-01, 1.91203207e-01,
          1.78980585e-02, 9.44183320e-02, 0., 3.05863827e-01, 0.,
          8.62943754e-03, 1.80600695e-02, 1.27524808e-01, 4.87931259e-02,
          3.67947891e-02, 2.16164663e-01, 3.88035059e-01, 8.64516571e-02,
          1.04121514e-01, 6.64119348e-02, 1.67476520e-01, 3.88035059e-01,
          2.00820178e-01, 1.78451762e-01, 0., 1.26542956e-01 ]
      - [ 1.24940902e-01, 2.11848795e-01, 1.55283958e-01, 4.49290611e-02,
          2.42669478e-01, 1.38572320e-01, 0., 1.73011161e-02,
          8.71431902e-02, 1.01848505e-02, 0., 3.84093747e-02,
          7.79557154e-02, 3.13314170e-01, 3.13314170e-01, 1.08354688e-01,
          8.59194323e-02, 0., 2.63910115e-01, 1.95997916e-02,
          1.37330666e-02, 1.03510739e-02, 1.06429927e-01, 4.66161780e-02,
          3.71371806e-02, 2.86703020e-01, 3.13314170e-01, 1.15050629e-01,
          8.30559433e-02, 5.23366034e-02, 1.09704085e-01, 3.13314170e-01,
          3.13314170e-01, 3.08536857e-01, 0., 1.10795267e-01 ]
      - [ 1.81425244e-01, 1.78194240e-01, 8.94231945e-02, 3.07769239e-01,
          1.00542694e-01, 3.24278772e-02, 2.66013723e-02, 0.,
          2.04052441e-02, 9.04415641e-03, 5.61432801e-02, 1.32101431e-01,
          3.07769239e-01, 3.07769239e-01, 7.65947849e-02, 3.31971459e-02,
          2.96861324e-02, 9.48575586e-02, 2.70565033e-01, 0., 0.,
          6.18149862e-02, 1.08053774e-01, 8.12857524e-02, 0.,
          3.07769239e-01, 3.07769239e-01, 1.99137837e-01, 1.04160197e-01,
          7.46475682e-02, 3.07769239e-01, 3.07769239e-01, 2.06072390e-01,
          4.74132225e-02, 1.02065682e-01, 8.91429484e-02 ]
      - [ 1.98310614e-01, 1.17937855e-01, 8.23536590e-02, 2.92912722e-01,
          3.57575983e-01, 1.05056487e-01, 0., 1.74443256e-02, 0.,
          6.69426769e-02, 3.38110998e-02, 3.11818421e-02, 1.55473262e-01,
          3.57575983e-01, 1.19777046e-01, 3.80517356e-02, 9.37804282e-02,
          6.91121519e-02, 3.32364529e-01, 1.03150435e-01, 2.16261093e-02,
          6.15333170e-02, 1.55388847e-01, 1.21163718e-01, 1.37113661e-01,
          2.25592643e-01, 3.57575983e-01, 9.57985446e-02, 3.94548438e-02,
          4.48037647e-02, 1.04495950e-01, 3.57575983e-01, 1.00115463e-01,
          4.88817245e-02, 3.62415910e-02, 0. ]
      - [ 1.71830162e-01, 1.43189833e-01, 8.30877051e-02, 7.41650760e-02,
          4.05049622e-02, 1.72759965e-02, 0., 1.81566942e-02,
          1.72759965e-02, 7.32289627e-02, 0., 2.24571712e-02,
          2.85514027e-01, 4.02934581e-01, 1.60951689e-01, 1.38484277e-02,
          2.68065725e-02, 0., 1.78669661e-01, 0., 3.73191610e-02,
          1.68776456e-02, 9.67896432e-02, 2.81321388e-02, 2.95965895e-02,
          1.71199486e-01, 4.02934581e-01, 2.80154914e-01, 1.14610314e-01,
          3.09399553e-02, 1.36522934e-01, 4.02934581e-01, 2.20987767e-01,
          1.05863214e-01, 1.44460782e-01, 2.60106146e-01 ]
      - [ 4.16632444e-02, 6.88530952e-02, 3.46646607e-02, 1.12396300e-01,
          4.24924582e-01, 0., 0., 3.17201950e-02, 7.30288327e-02, 0., 0.,
          3.93063761e-02, 4.69088927e-02, 4.24924582e-01, 5.68262301e-02,
          3.24020907e-02, 3.90171446e-02, 0., 3.60809147e-01,
          6.73242807e-02, 1.27806976e-01, 0., 9.26011503e-02,
          3.46742906e-02, 7.54235759e-02, 2.11019590e-01, 4.24924582e-01,
          3.38343456e-02, 3.66593972e-02, 4.69940603e-02, 1.06480457e-01,
          4.24924582e-01, 1.03370391e-01, 4.95088585e-02, 3.66273262e-02,
          0. ]
      - [ 7.01452866e-02, 6.14628308e-02, 8.76616687e-02, 6.96470365e-02,
          3.26645941e-01, 2.52248466e-01, 1.55589031e-02, 0.,
          1.62524119e-01, 0., 0., 0., 0., 3.26645941e-01, 3.26645941e-01,
          2.88513601e-02, 3.77648808e-02, 0., 3.26645941e-01,
          1.27768427e-01, 7.79493973e-02, 3.13592777e-02, 4.56728600e-02,
          7.15810880e-02, 2.33285785e-01, 1.38382837e-01, 3.26645941e-01,
          9.07234177e-02, 3.65622602e-02, 3.86384949e-02, 9.30605903e-02,
          3.26645941e-01, 3.26645941e-01, 8.40337798e-02, 9.16025341e-02,
          0. ]
      - [ 0., 9.18903500e-02, 1.16024032e-01, 3.42671275e-01,
          1.75623730e-01, 2.61552110e-02, 0., 0., 0., 0., 3.50518711e-02,
          1.31293803e-01, 3.42671275e-01, 3.42671275e-01, 5.71460351e-02,
          4.12974246e-02, 3.44774798e-02, 0., 2.92293221e-01,
          1.04558475e-01, 1.00321583e-02, 0., 5.23029417e-02, 0.,
          9.92263183e-02, 2.43390456e-01, 3.42671275e-01, 1.62314072e-01,
          3.98993939e-02, 9.61464122e-02, 3.42671275e-01, 3.42671275e-01,
          5.65839410e-02, 9.18425918e-02, 0., 1.70621295e-02 ]
      - [ 4.64273952e-02, 0., 3.86285260e-02, 7.98701644e-02,
          3.92388433e-01, 0., 0., 0., 2.96626445e-02, 3.83365527e-02, 0.,
          4.38010208e-02, 5.22728786e-02, 3.92388433e-01, 6.33242503e-02,
          4.74274531e-02, 4.34787162e-02, 3.10016926e-02, 2.89834648e-01,
          5.57956919e-02, 1.42421573e-01, 6.30282983e-02, 3.92388433e-01,
          9.43848640e-02, 8.40481818e-02, 2.10386440e-01, 3.92388433e-01,
          1.20345622e-01, 4.08513620e-02, 5.23677841e-02, 5.56280762e-02,
          3.92388433e-01, 5.94450831e-02, 5.51701449e-02, 6.19938113e-02,
          0. ]
      - [ 1.01631984e-01, 4.31382507e-02, 0., 1.23135418e-01,
          3.20057482e-01, 0., 0., 3.46741788e-02, 7.91047812e-02, 0., 0.,
          3.74161899e-02, 0., 4.56549555e-01, 3.10119633e-02, 0., 0., 0.,
          3.02611232e-01, 0., 2.57389024e-02, 0., 7.75338197e-03, 0.,
          1.55888060e-02, 4.38371040e-02, 4.56549555e-01, 1.78977221e-01,
          0., 1.27064452e-01, 1.54118314e-01, 4.56549555e-01,
          1.50816157e-01, 6.48694560e-02, 1.79187655e-01, 9.80994627e-02 ]
      - [ 4.16632444e-02, 6.88530952e-02, 3.46646607e-02, 1.12396300e-01,
          4.24924582e-01, 0., 0., 3.17201950e-02, 7.30288327e-02, 0., 0.,
          3.93063761e-02, 4.69088927e-02, 4.24924582e-01, 5.68262301e-02,
          3.24020907e-02, 3.90171446e-02, 0., 3.60809147e-01,
          6.73242807e-02, 1.27806976e-01, 0., 9.26011503e-02,
          3.46742906e-02, 7.54235759e-02, 2.11019590e-01, 4.24924582e-01,
          3.38343456e-02, 3.66593972e-02, 4.69940603e-02, 1.06480457e-01,
          4.24924582e-01, 1.03370391e-01, 4.95088585e-02, 3.66273262e-02,
          0. ]
      - [ 7.01452866e-02, 6.14628308e-02, 8.76616687e-02, 6.96470365e-02,
          3.26645941e-01, 2.52248466e-01, 1.55589031e-02, 0.,
          1.62524119e-01, 0., 0., 0., 0., 3.26645941e-01, 3.26645941e-01,
          2.88513601e-02, 3.77648808e-02, 0., 3.26645941e-01,
          1.27768427e-01, 7.79493973e-02, 3.13592777e-02, 4.56728600e-02,
          7.15810880e-02, 2.33285785e-01, 1.38382837e-01, 3.26645941e-01,
          9.07234177e-02, 3.65622602e-02, 3.86384949e-02, 9.30605903e-02,
          3.26645941e-01, 3.26645941e-01, 8.40337798e-02, 9.16025341e-02,
          0. ]
      - [ 0., 9.18903500e-02, 1.16024032e-01, 3.42671275e-01,
          1.75623730e-01, 2.61552110e-02, 0., 0., 0., 0., 3.50518711e-02,
          1.31293803e-01, 3.42671275e-01, 3.42671275e-01, 5.71460351e-02,
          4.12974246e-02, 3.44774798e-02, 0., 2.92293221e-01,
          1.04558475e-01, 1.00321583e-02, 0., 5.23029417e-02, 0.,
          9.92263183e-02, 2.43390456e-01, 3.42671275e-01, 1.62314072e-01,
          3.98993939e-02, 9.61464122e-02, 3.42671275e-01, 3.42671275e-01,
          5.65839410e-02, 9.18425918e-02, 0., 1.70621295e-02 ]
      - [ 4.64273952e-02, 0., 3.86285260e-02, 7.98701644e-02,
          3.92388433e-01, 0., 0., 0., 2.96626445e-02, 3.83365527e-02, 0.,
          4.38010208e-02, 5.22728786e-02, 3.92388433e-01, 6.33242503e-02,
          4.74274531e-02, 4.34787162e-02, 3.10016926e-02, 2.89834648e-01,
          5.57956919e-02, 1.42421573e-01, 6.30282983e-02, 3.92388433e-01,
          9.43848640e-02, 8.40481818e-02, 2.10386440e-01, 3.92388433e-01,
          1.20345622e-01, 4.08513620e-02, 5.23677841e-02, 5.56280762e-02,
          3.92388433e-01, 5.94450831e-02, 5.51701449e-02, 6.19938113e-02,
          0. ]
      - [ 1.01631984e-01, 4.31382507e-02, 0., 1.23135418e-01,
          3.20057482e-01, 0., 0., 3.46741788e-02, 7.91047812e-02, 0., 0.,
          3.74161899e-02, 0., 4.56549555e-01, 3.10119633e-02, 0., 0., 0.,
          3.02611232e-01, 0., 2.57389024e-02, 0., 7.75338197e-03, 0.,
          1.55888060e-02, 4.38371040e-02, 4.56549555e-01, 1.78977221e-01,
          0., 1.27064452e-01, 1.54118314e-01, 4.56549555e-01,
          1.50816157e-01, 6.48694560e-02, 1.79187655e-01, 9.80994627e-02 ]
      - [ 4.16632444e-02, 6.88530952e-02, 3.46646607e-02, 1.12396300e-01,
          4.24924582e-01, 0., 0., 3.17201950e-02, 7.30288327e-02, 0., 0.,
          3.93063761e-02, 4.69088927e-02, 4.24924582e-01, 5.68262301e-02,
          3.24020907e-02, 3.90171446e-02, 0., 3.60809147e-01,
          6.73242807e-02, 1.27806976e-01, 0., 9.26011503e-02,
          3.46742906e-02, 7.54235759e-02, 2.11019590e-01, 4.24924582e-01,
          3.38343456e-02, 3.66593972e-02, 4.69940603e-02, 1.06480457e-01,
          4.24924582e-01, 1.03370391e-01, 4.95088585e-02, 3.66273262e-02,
          0. ]
      - [ 7.01452866e-02, 6.14628308e-02, 8.76616687e-02, 6.96470365e-02,
          3.26645941e-01, 2.52248466e-01, 1.55589031e-02, 0.,
          1.62524119e-01, 0., 0., 0., 0., 3.26645941e-01, 3.26645941e-01,
          2.88513601e-02, 3.77648808e-02, 0., 3.26645941e-01,
          1.27768427e-01, 7.79493973e-02, 3.13592777e-02, 4.56728600e-02,
          7.15810880e-02, 2.33285785e-01, 1.38382837e-01, 3.26645941e-01,
          9.07234177e-02, 3.65622602e-02, 3.86384949e-02, 9.30605903e-02,
          3.26645941e-01, 3.26645941e-01, 8.40337798e-02, 9.16025341e-02,
          0. ]
      - [ 0., 9.18903500e-02, 1.16024032e-01, 3.42671275e-01,
          1.75623730e-01, 2.61552110e-02, 0., 0., 0., 0., 3.50518711e-02,
          1.31293803e-01, 3.42671275e-01, 3.42671275e-01, 5.71460351e-02,
          4.12974246e-02, 3.44774798e-02, 0., 2.92293221e-01,
          1.04558475e-01, 1.00321583e-02, 0., 5.23029417e-02, 0.,
          9.92263183e-02, 2.43390456e-01, 3.42671275e-01, 1.62314072e-01,
          3.98993939e-02, 9.61464122e-02, 3.42671275e-01, 3.42671275e-01,
          5.65839410e-02, 9.18425918e-02, 0., 1.70621295e-02 ]
      - [ 4.64273952e-02, 0., 3.86285260e-02, 7.98701644e-02,
          3.92388433e-01, 0., 0., 0., 2.96626445e-02, 3.83365527e-02, 0.,
          4.38010208e-02, 5.22728786e-02, 3.92388433e-01, 6.33242503e-02,
          4.74274531e-02, 4.34787162e-02, 3.10016926e-02, 2.89834648e-01,
          5.57956919e-02, 1.42421573e-01, 6.30282983e-02, 3.92388433e-01,
          9.43848640e-02, 8.40481818e-02, 2.10386440e-01, 3.92388433e-01,
          1.20345622e-01, 4.08513620e-02, 5.23677841e-02, 5.56280762e-02,
          3.92388433e-01, 5.94450831e-02, 5.51701449e-02, 6.19938113e-02,
          0. ]
      - [ 1.01631984e-01, 4.31382507e-02, 0., 1.23135418e-01,
          3.20057482e-01, 0., 0., 3.46741788e-02, 7.91047812e-02, 0., 0.,
          3.74161899e-02, 0., 4.56549555e-01, 3.10119633e-02, 0., 0., 0.,
          3.02611232e-01, 0., 2.57389024e-02, 0., 7.75338197e-03, 0.,
          1.55888060e-02, 4.38371040e-02, 4.56549555e-01, 1.78977221e-01,
          0., 1.27064452e-01, 1.54118314e-01, 4.56549555e-01,
          1.50816157e-01, 6.48694560e-02, 1.79187655e-01, 9.80994627e-02 ]
      - [ 0., 0., 1.72791943e-01, 2.97990710e-01, 1.17890149e-01,
          1.11998590e-02, 0., 0., 0., 0., 0., 0., 0., 2.97990710e-01,
          2.97990710e-01, 8.79327133e-02, 4.72545549e-02, 5.21731265e-02,
          2.97990710e-01, 2.16170028e-01, 1.09381527e-01, 5.58986776e-02,
          6.25668764e-02, 1.41020253e-01, 9.16701481e-02, 1.51741520e-01,
          1.88059837e-01, 2.97990710e-01, 1.85511455e-01, 1.74103275e-01,
          1.33855522e-01, 2.97990710e-01, 2.66063631e-01, 2.46639907e-01,
          1.43449754e-01, 1.52916983e-01 ]
      - [ 0., 5.90651445e-02, 1.81688040e-01, 2.84818232e-01,
          2.59964347e-01, 0., 0., 0., 0., 0., 0., 0., 1.90401636e-02,
          1.55498549e-01, 2.84818232e-01, 1.61238655e-01, 3.25570926e-02,
          0., 2.48144820e-01, 2.84818232e-01, 8.98074806e-02,
          3.51476260e-02, 2.17808142e-01, 9.10417661e-02, 2.84818232e-01,
          9.30674225e-02, 8.72323141e-02, 2.84818232e-01, 2.84818232e-01,
          1.58667311e-01, 8.81260186e-02, 1.30075887e-01, 7.65473694e-02,
          2.84818232e-01, 2.05573246e-01, 1.88709825e-01 ]
      - [ 0., 3.84291783e-02, 2.07703859e-01, 2.89512098e-01,
          5.08753471e-02, 0., 0., 0., 0., 3.80916409e-02, 4.39459793e-02,
          2.62552779e-02, 1.14136726e-01, 2.89512098e-01, 2.55348325e-01,
          2.96292566e-02, 8.47393945e-02, 0., 2.89512098e-01,
          2.23923087e-01, 1.15901798e-01, 4.79846224e-02, 8.14220123e-03,
          2.00529303e-03, 5.49993664e-02, 2.51185596e-01, 2.89512098e-01,
          1.98860034e-01, 1.14456050e-01, 1.55178696e-01, 2.44794980e-01,
          2.89512098e-01, 2.89512098e-01, 1.38902858e-01, 2.48815686e-01,
          9.80292782e-02 ]
      - [ 0., 0., 1.17794998e-01, 2.81026483e-01, 2.81026483e-01,
          4.30109575e-02, 0., 0., 0., 2.67156139e-02, 0., 0., 0.,
          5.77911846e-02, 2.81026483e-01, 1.06099062e-01, 5.26085384e-02,
          5.80843911e-02, 2.81026483e-01, 1.92637563e-01, 1.21774554e-01,
          2.11253539e-01, 2.81026483e-01, 2.68525690e-01, 1.88861042e-01,
          6.55397177e-02, 1.09598354e-01, 2.81026483e-01, 1.55238882e-01,
          1.93829343e-01, 0., 2.31037229e-01, 1.84681222e-01,
          1.87779874e-01, 1.89844280e-01, 2.18775123e-01 ]
      - [ 0., 0., 1.45174026e-01, 2.47538894e-01, 5.72477467e-02, 0.,
          1.15079395e-02, 0., 0., 1.39267575e-02, 0., 3.60462628e-02,
          1.81410849e-01, 3.15713406e-01, 3.13809097e-01, 7.02527240e-02,
          0., 0., 3.15713406e-01, 2.01000884e-01, 5.07476963e-02, 0., 0.,
          0., 5.86189888e-02, 1.84354767e-01, 2.06194639e-01,
          3.04728955e-01, 1.22982785e-01, 1.53924197e-01, 1.53846323e-01,
          3.15713406e-01, 3.15713406e-01, 2.65234590e-01, 1.20265268e-01,
          1.21036977e-01 ]
      - [ 0., 0., 1.72791943e-01, 2.97990710e-01, 1.17890149e-01,
          1.11998590e-02, 0., 0., 0., 0., 0., 0., 0., 2.97990710e-01,
          2.97990710e-01, 8.79327133e-02, 4.72545549e-02, 5.21731265e-02,
          2.97990710e-01, 2.16170028e-01, 1.09381527e-01, 5.58986776e-02,
          6.25668764e-02, 1.41020253e-01, 9.16701481e-02, 1.51741520e-01,
          1.88059837e-01, 2.97990710e-01, 1.85511455e-01, 1.74103275e-01,
          1.33855522e-01, 2.97990710e-01, 2.66063631e-01, 2.46639907e-01,
          1.43449754e-01, 1.52916983e-01 ]
      - [ 0., 5.90651445e-02, 1.81688040e-01, 2.84818232e-01,
          2.59964347e-01, 0., 0., 0., 0., 0., 0., 0., 1.90401636e-02,
          1.55498549e-01, 2.84818232e-01, 1.61238655e-01, 3.25570926e-02,
          0., 2.48144820e-01, 2.84818232e-01, 8.98074806e-02,
          3.51476260e-02, 2.17808142e-01, 9.10417661e-02, 2.84818232e-01,
          9.30674225e-02, 8.72323141e-02, 2.84818232e-01, 2.84818232e-01,
          1.58667311e-01, 8.81260186e-02, 1.30075887e-01, 7.65473694e-02,
          2.84818232e-01, 2.05573246e-01, 1.88709825e-01 ]
      - [ 0., 3.84291783e-02, 2.07703859e-01, 2.89512098e-01,
          5.08753471e-02, 0., 0., 0., 0., 3.80916409e-02, 4.39459793e-02,
          2.62552779e-02, 1.14136726e-01, 2.89512098e-01, 2.55348325e-01,
          2.96292566e-02, 8.47393945e-02, 0., 2.89512098e-01,
          2.23923087e-01, 1.15901798e-01, 4.79846224e-02, 8.14220123e-03,
          2.00529303e-03, 5.49993664e-02, 2.51185596e-01, 2.89512098e-01,
          1.98860034e-01, 1.14456050e-01, 1.55178696e-01, 2.44794980e-01,
          2.89512098e-01, 2.89512098e-01, 1.38902858e-01, 2.48815686e-01,
          9.80292782e-02 ]
      - [ 0., 0., 1.17794998e-01, 2.81026483e-01, 2.81026483e-01,
          4.30109575e-02, 0., 0., 0., 2.67156139e-02, 0., 0., 0.,
          5.77911846e-02, 2.81026483e-01, 1.06099062e-01, 5.26085384e-02,
          5.80843911e-02, 2.81026483e-01, 1.92637563e-01, 1.21774554e-01,
          2.11253539e-01, 2.81026483e-01, 2.68525690e-01, 1.88861042e-01,
          6.55397177e-02, 1.09598354e-01, 2.81026483e-01, 1.55238882e-01,
          1.93829343e-01, 0., 2.31037229e-01, 1.84681222e-01,
          1.87779874e-01, 1.89844280e-01, 2.18775123e-01 ]
      - [ 0., 0., 1.45174026e-01, 2.47538894e-01, 5.72477467e-02, 0.,
          1.15079395e-02, 0., 0., 1.39267575e-02, 0., 3.60462628e-02,
          1.81410849e-01, 3.15713406e-01, 3.13809097e-01, 7.02527240e-02,
          0., 0., 3.15713406e-01, 2.01000884e-01, 5.07476963e-02, 0., 0.,
          0., 5.86189888e-02, 1.84354767e-01, 2.06194639e-01,
          3.04728955e-01, 1.22982785e-01, 1.53924197e-01, 1.53846323e-01,
          3.15713406e-01, 3.15713406e-01, 2.65234590e-01, 1.20265268e-01,
          1.21036977e-01 ]
      - [ 0., 0., 1.72791943e-01, 2.97990710e-01, 1.17890149e-01,
          1.11998590e-02, 0., 0., 0., 0., 0., 0., 0., 2.97990710e-01,
          2.97990710e-01, 8.79327133e-02, 4.72545549e-02, 5.21731265e-02,
          2.97990710e-01, 2.16170028e-01, 1.09381527e-01, 5.58986776e-02,
          6.25668764e-02, 1.41020253e-01, 9.16701481e-02, 1.51741520e-01,
          1.88059837e-01, 2.97990710e-01, 1.85511455e-01, 1.74103275e-01,
          1.33855522e-01, 2.97990710e-01, 2.66063631e-01, 2.46639907e-01,
          1.43449754e-01, 1.52916983e-01 ]
      - [ 0., 5.90651445e-02, 1.81688040e-01, 2.84818232e-01,
          2.59964347e-01, 0., 0., 0., 0., 0., 0., 0., 1.90401636e-02,
          1.55498549e-01, 2.84818232e-01, 1.61238655e-01, 3.25570926e-02,
          0., 2.48144820e-01, 2.84818232e-01, 8.98074806e-02,
          3.51476260e-02, 2.17808142e-01, 9.10417661e-02, 2.84818232e-01,
          9.30674225e-02, 8.72323141e-02, 2.84818232e-01, 2.84818232e-01,
          1.58667311e-01, 8.81260186e-02, 1.30075887e-01, 7.65473694e-02,
          2.84818232e-01, 2.05573246e-01, 1.88709825e-01 ]
      - [ 0., 3.84291783e-02, 2.07703859e-01, 2.89512098e-01,
          5.08753471e-02, 0., 0., 0., 0., 3.80916409e-02, 4.39459793e-02,
          2.62552779e-02, 1.14136726e-01, 2.89512098e-01, 2.55348325e-01,
          2.96292566e-02, 8.47393945e-02, 0., 2.89512098e-01,
          2.23923087e-01, 1.15901798e-01, 4.79846224e-02, 8.14220123e-03,
          2.00529303e-03, 5.49993664e-02, 2.51185596e-01, 2.89512098e-01,
          1.98860034e-01, 1.14456050e-01, 1.55178696e-01, 2.44794980e-01,
          2.89512098e-01, 2.89512098e-01, 1.38902858e-01, 2.48815686e-01,
          9.80292782e-02 ]
      - [ 0., 0., 1.17794998e-01, 2.81026483e-01, 2.81026483e-01,
          4.30109575e-02, 0., 0., 0., 2.67156139e-02, 0., 0., 0.,
          5.77911846e-02, 2.81026483e-01, 1.06099062e-01, 5.26085384e-02,
          5.80843911e-02, 2.81026483e-01, 1.92637563e-01, 1.21774554e-01,
          2.11253539e-01, 2.81026483e-01, 2.68525690e-01, 1.88861042e-01,
          6.55397177e-02, 1.09598354e-01, 2.81026483e-01, 1.55238882e-01,
          1.93829343e-01, 0., 2.31037229e-01, 1.84681222e-01,
          1.87779874e-01, 1.89844280e-01, 2.18775123e-01 ]
      - [ 0., 0., 1.45174026e-01, 2.47538894e-01, 5.72477467e-02, 0.,
          1.15079395e-02, 0., 0., 1.39267575e-02, 0., 3.60462628e-02,
          1.81410849e-01, 3.15713406e-01, 3.13809097e-01, 7.02527240e-02,
          0., 0., 3.15713406e-01, 2.01000884e-01, 5.07476963e-02, 0., 0.,
          0., 5.86189888e-02, 1.84354767e-01, 2.06194639e-01,
          3.04728955e-01, 1.22982785e-01, 1.53924197e-01, 1.53846323e-01,
          3.15713406e-01, 3.15713406e-01, 2.65234590e-01, 1.20265268e-01,
          1.21036977e-01 ]
      - [ 0., 0., 1.72791943e-01, 2.97990710e-01, 1.17890149e-01,
          1.11998590e-02, 0., 0., 0., 0., 0., 0., 0., 2.97990710e-01,
          2.97990710e-01, 8.79327133e-02, 4.72545549e-02, 5.21731265e-02,
          2.97990710e-01, 2.16170028e-01, 1.09381527e-01, 5.58986776e-02,
          6.25668764e-02, 1.41020253e-01, 9.16701481e-02, 1.51741520e-01,
          1.88059837e-01, 2.97990710e-01, 1.85511455e-01, 1.74103275e-01,
          1.33855522e-01, 2.97990710e-01, 2.66063631e-01, 2.46639907e-01,
          1.43449754e-01, 1.52916983e-01 ]
      - [ 0., 5.90651445e-02, 1.81688040e-01, 2.84818232e-01,
          2.59964347e-01, 0., 0., 0., 0., 0., 0., 0., 1.90401636e-02,
          1.55498549e-01, 2.84818232e-01, 1.61238655e-01, 3.25570926e-02,
          0., 2.48144820e-01, 2.84818232e-01, 8.98074806e-02,
          3.51476260e-02, 2.17808142e-01, 9.10417661e-02, 2.84818232e-01,
          9.30674225e-02, 8.72323141e-02, 2.84818232e-01, 2.84818232e-01,
          1.58667311e-01, 8.81260186e-02, 1.30075887e-01, 7.65473694e-02,
          2.84818232e-01, 2.05573246e-01, 1.88709825e-01 ]
      - [ 0., 3.84291783e-02, 2.07703859e-01, 2.89512098e-01,
          5.08753471e-02, 0., 0., 0., 0., 3.80916409e-02, 4.39459793e-02,
          2.62552779e-02, 1.14136726e-01, 2.89512098e-01, 2.55348325e-01,
          2.96292566e-02, 8.47393945e-02, 0., 2.89512098e-01,
          2.23923087e-01, 1.15901798e-01, 4.79846224e-02, 8.14220123e-03,
          2.00529303e-03, 5.49993664e-02, 2.51185596e-01, 2.89512098e-01,
          1.98860034e-01, 1.14456050e-01, 1.55178696e-01, 2.44794980e-01,
          2.89512098e-01, 2.89512098e-01, 1.38902858e-01, 2.48815686e-01,
          9.80292782e-02 ]
      - [ 0., 0., 1.17794998e-01, 2.81026483e-01, 2.81026483e-01,
          4.30109575e-02, 0., 0., 0., 2.67156139e-02, 0., 0., 0.,
          5.77911846e-02, 2.81026483e-01, 1.06099062e-01, 5.26085384e-02,
          5.80843911e-02, 2.81026483e-01, 1.92637563e-01, 1.21774554e-01,
          2.11253539e-01, 2.81026483e-01, 2.68525690e-01, 1.88861042e-01,
          6.55397177e-02, 1.09598354e-01, 2.81026483e-01, 1.55238882e-01,
          1.93829343e-01, 0., 2.31037229e-01, 1.84681222e-01,
          1.87779874e-01, 1.89844280e-01, 2.18775123e-01 ]
      - [ 0., 0., 1.45174026e-01, 2.47538894e-01, 5.72477467e-02, 0.,
          1.15079395e-02, 0., 0., 1.39267575e-02, 0., 3.60462628e-02,
          1.81410849e-01, 3.15713406e-01, 3.13809097e-01, 7.02527240e-02,
          0., 0., 3.15713406e-01, 2.01000884e-01, 5.07476963e-02, 0., 0.,
          0., 5.86189888e-02, 1.84354767e-01, 2.06194639e-01,
          3.04728955e-01, 1.22982785e-01, 1.53924197e-01, 1.53846323e-01,
          3.15713406e-01, 3.15713406e-01, 2.65234590e-01, 1.20265268e-01,
          1.21036977e-01 ]
      - [ 0., 0., 1.72791943e-01, 2.97990710e-01, 1.17890149e-01,
          1.11998590e-02, 0., 0., 0., 0., 0., 0., 0., 2.97990710e-01,
          2.97990710e-01, 8.79327133e-02, 4.72545549e-02, 5.21731265e-02,
          2.97990710e-01, 2.16170028e-01, 1.09381527e-01, 5.58986776e-02,
          6.25668764e-02, 1.41020253e-01, 9.16701481e-02, 1.51741520e-01,
          1.88059837e-01, 2.97990710e-01, 1.85511455e-01, 1.74103275e-01,
          1.33855522e-01, 2.97990710e-01, 2.66063631e-01, 2.46639907e-01,
          1.43449754e-01, 1.52916983e-01 ]
      - [ 0., 5.90651445e-02, 1.81688040e-01, 2.84818232e-01,
          2.59964347e-01, 0., 0., 0., 0., 0., 0., 0., 1.90401636e-02,
          1.55498549e-01, 2.84818232e-01, 1.61238655e-01, 3.25570926e-02,
          0., 2.48144820e-01, 2.84818232e-01, 8.98074806e-02,
          3.51476260e-02, 2.17808142e-01, 9.10417661e-02, 2.84818232e-01,
          9.30674225e-02, 8.72323141e-02, 2.84818232e-01, 2.84818232e-01,
          1.58667311e-01, 8.81260186e-02, 1.30075887e-01, 7.65473694e-02,
          2.84818232e-01, 2.05573246e-01, 1.88709825e-01 ]
      - [ 0., 3.84291783e-02, 2.07703859e-01, 2.89512098e-01,
          5.08753471e-02, 0., 0., 0., 0., 3.80916409e-02, 4.39459793e-02,
          2.62552779e-02, 1.14136726e-01, 2.89512098e-01, 2.55348325e-01,
          2.96292566e-02, 8.47393945e-02, 0., 2.89512098e-01,
          2.23923087e-01, 1.15901798e-01, 4.79846224e-02, 8.14220123e-03,
          2.00529303e-03, 5.49993664e-02, 2.51185596e-01, 2.89512098e-01,
          1.98860034e-01, 1.14456050e-01, 1.55178696e-01, 2.44794980e-01,
          2.89512098e-01, 2.89512098e-01, 1.38902858e-01, 2.48815686e-01,
          9.80292782e-02 ]
      - [ 0., 0., 1.17794998e-01, 2.81026483e-01, 2.81026483e-01,
          4.30109575e-02, 0., 0., 0., 2.67156139e-02, 0., 0., 0.,
          5.77911846e-02, 2.81026483e-01, 1.06099062e-01, 5.26085384e-02,
          5.80843911e-02, 2.81026483e-01, 1.92637563e-01, 1.21774554e-01,
          2.11253539e-01, 2.81026483e-01, 2.68525690e-01, 1.88861042e-01,
          6.55397177e-02, 1.09598354e-01, 2.81026483e-01, 1.55238882e-01,
