%YAML:1.0
---
opencv_ml_svm:
   format: 3
   svmType: C_SVC
   kernel:
      type: RBF
      gamma: 5.0000000000000003e-02
   C: 2.5000000000000000e+00
   term_criteria: { epsilon:1.1920928955078125e-07, iterations:1000 }
   var_count: 36
   class_count: 11
   class_labels: !!opencv-matrix
      rows: 11
      cols: 1
      dt: i
      data: [ 51, 52, 53, 54, 55, 57, 65, 67, 71, 80, 84 ]
   sv_total: 392
   support_vectors:
      - [ 1.00553304e-01, 6.87185973e-02, 2.83306509e-01, 9.95852575e-02,
          2.83306509e-01, 1.50522113e-01, 4.53985147e-02, 5.95120490e-02,
          0., 2.70877123e-01, 0., 6.68777302e-02, 2.96841096e-02,
          1.40013561e-01, 1.23219430e-01, 2.30332136e-01, 1.63829938e-01,
          1.44692004e-01, 1.75714463e-01, 4.00945507e-02, 2.36000746e-01,
          2.83306509e-01, 2.17088878e-01, 2.10909083e-01, 3.20912972e-02,
          0., 1.68013483e-01, 1.61638722e-01, 1.64458111e-01,
          2.83306509e-01, 1.01187088e-01, 2.18786523e-01, 0.,
          1.39556415e-02, 2.83306509e-01, 1.03972778e-01 ]
      - [ 1.66248932e-01, 7.33459145e-02, 9.74147022e-02, 2.53448874e-01,
          2.53448874e-01, 2.53448874e-01, 4.33447920e-02, 6.45816550e-02,
          8.69169459e-02, 1.58107340e-01, 0., 5.45542836e-02,
          3.11354473e-02, 7.55527094e-02, 1.62989095e-01, 2.03089327e-01,
          2.53448874e-01, 1.75498873e-01, 1.80840224e-01, 3.15115042e-03,
          1.13217011e-01, 2.53448874e-01, 2.53448874e-01, 2.53448874e-01,
          6.25217706e-02, 3.27314511e-02, 1.65633917e-01, 1.59334466e-01,
          2.18729734e-01, 2.53448874e-01, 2.53448874e-01, 9.78796482e-02,
          6.57431185e-02, 1.58605259e-02, 2.53448874e-01, 5.41465208e-02 ]
      - [ 1.80338249e-01, 9.13392082e-02, 2.56032079e-01, 2.56032079e-01,
          2.56032079e-01, 1.63926169e-01, 5.07607535e-02, 3.11413817e-02,
          3.35798040e-02, 1.64903432e-01, 1.49621326e-03, 9.24272016e-02,
          0., 1.18274331e-01, 1.50499135e-01, 1.30445376e-01,
          2.56032079e-01, 2.46471390e-01, 2.11826742e-01, 1.34781435e-01,
          2.56032079e-01, 2.56032079e-01, 5.23150042e-02, 1.01154089e-01,
          8.43953565e-02, 0., 2.54609138e-01, 9.64896679e-02,
          2.56032079e-01, 2.56032079e-01, 8.17005262e-02, 1.44972473e-01,
          0., 0., 1.42751515e-01, 2.18391150e-01 ]
      - [ 4.47600186e-02, 6.93024397e-02, 3.13373923e-01, 1.30367652e-01,
          3.13373923e-01, 2.76067287e-01, 1.60506308e-01, 6.00176714e-02,
          1.45921320e-01, 2.73178518e-01, 0., 0., 0., 1.75089538e-02, 0.,
          1.17566988e-01, 1.65221855e-01, 0., 1.42337173e-01,
          1.35184661e-01, 3.13373923e-01, 3.13373923e-01, 3.13373923e-01,
          2.12700993e-01, 3.23639512e-02, 7.69530162e-02, 1.69440955e-01,
          1.63012028e-01, 7.11059049e-02, 1.77925676e-01, 3.07447147e-02,
          5.05439984e-03, 0., 1.40742101e-02, 2.17604950e-01,
          1.04856141e-01 ]
      - [ 9.99169871e-02, 6.82837367e-02, 6.91117868e-02, 6.07021675e-02,
          2.80485332e-01, 6.81025460e-02, 0., 5.91354519e-02, 0.,
          2.69162983e-01, 0., 2.80485332e-01, 6.77491650e-02,
          2.80485332e-01, 2.03906715e-01, 2.73985803e-01, 1.62793204e-01,
          1.43776372e-01, 1.02799401e-01, 3.98408286e-02, 7.91991875e-02,
          8.42216462e-02, 1.69754952e-01, 9.67459232e-02, 3.18882205e-02,
          0., 1.66950285e-01, 2.08852887e-01, 1.63417399e-01,
          2.80485332e-01, 2.80485332e-01, 2.63362169e-01, 1.12828501e-01,
          1.38673289e-02, 2.80485332e-01, 1.03314824e-01 ]
      - [ 2.63584793e-01, 1.01551801e-01, 1.57110646e-01, 1.81869060e-01,
          2.63584793e-01, 1.40060782e-01, 0., 1.46949232e-01,
          6.55101910e-02, 2.49718711e-01, 7.80875683e-02, 0., 0.,
          1.29608065e-01, 8.81816372e-02, 2.40969777e-01, 1.83575004e-01,
          1.99527159e-01, 7.42877051e-02, 1.20788939e-01, 2.63584793e-01,
          2.63584793e-01, 2.20460698e-01, 0., 2.07125932e-01,
          7.27961287e-02, 4.37493287e-02, 2.29454994e-01, 2.63584793e-01,
          2.63584793e-01, 1.45842254e-01, 5.34483185e-03, 1.10262729e-01,
          1.32086203e-01, 1.02859750e-01, 1.09522723e-01 ]
      - [ 1.76700801e-01, 1.19603403e-01, 1.09596267e-01, 1.35778457e-01,
          2.60144383e-01, 2.60144383e-01, 1.29616722e-01, 2.19705477e-01,
          1.12793438e-01, 2.59195954e-01, 3.74002755e-02, 0., 0.,
          3.98242511e-02, 1.96420938e-01, 2.23425642e-01, 2.60144383e-01,
          1.17276460e-01, 1.25774413e-01, 0., 1.81390539e-01,
          2.60144383e-01, 2.93644294e-02, 1.58986956e-01, 1.90174311e-01,
          9.76466909e-02, 6.27486557e-02, 1.70330986e-01, 1.52614057e-01,
          2.60144383e-01, 2.60144383e-01, 3.38730067e-02, 7.64644668e-02,
          0., 2.60144383e-01, 1.27620995e-01 ]
      - [ 2.06099063e-01, 1.18095234e-01, 2.53809631e-01, 2.44482607e-01,
          2.81420290e-01, 4.16822098e-02, 1.13280378e-01, 4.62041758e-02,
          1.64662480e-01, 1.73463002e-01, 4.36016656e-02, 0.,
          6.58630133e-02, 6.31553084e-02, 1.15026981e-01, 2.81420290e-01,
          2.52246410e-01, 1.58688471e-01, 2.16663972e-01, 1.23789296e-01,
          2.81420290e-01, 1.18569642e-01, 8.80719647e-02, 1.32799536e-01,
          1.38942420e-01, 6.09342232e-02, 1.19302712e-01, 2.45728269e-01,
          2.43883282e-01, 2.81420290e-01, 2.71153748e-02, 6.06318191e-03,
          1.58471897e-01, 2.34541409e-02, 1.13959312e-01, 1.34782031e-01 ]
      - [ 2.96326995e-01, 1.78747088e-01, 1.56330258e-01, 1.80965692e-01,
          2.96326995e-01, 2.27108702e-01, 9.47821811e-02, 2.65205979e-01,
          9.23090875e-02, 1.25478908e-01, 0., 0., 0., 1.30270813e-02, 0.,
          1.44990653e-01, 6.36764988e-02, 1.71411797e-01, 4.78645489e-02,
          2.24817559e-01, 2.96326995e-01, 2.96326995e-01, 2.19365656e-01,
          1.09715044e-01, 2.74252355e-01, 7.24345446e-02, 1.22969285e-01,
          2.28315264e-01, 1.61485821e-01, 2.18013823e-01, 1.18920431e-02,
          5.31828357e-03, 0., 6.32748827e-02, 1.02348834e-01,
          2.95414552e-02 ]
      - [ 2.87441313e-01, 0., 9.04556811e-02, 1.75382107e-01,
          1.52560174e-01, 7.93477595e-02, 0., 5.43722846e-02, 0.,
          2.40811691e-01, 1.73231944e-01, 6.10511005e-02, 0.,
          2.87441313e-01, 1.40753642e-01, 2.32374802e-01, 2.64362723e-01,
          2.55583912e-01, 7.16379881e-02, 1.16480604e-01, 8.07044879e-02,
          9.00599808e-02, 1.48612022e-01, 0., 0., 7.01996237e-02,
          4.21888679e-02, 2.21270740e-01, 2.57903606e-01, 2.87441313e-01,
          2.87441313e-01, 6.91394135e-02, 1.06329851e-01, 2.87441313e-01,
          9.91909206e-02, 1.05616242e-01 ]
      - [ 2.27367654e-02, 2.97429655e-02, 3.35766897e-02, 2.15519756e-01,
          2.64798403e-01, 1.07417278e-01, 3.08031924e-02, 1.82894468e-02,
          0., 0., 1.53983802e-01, 2.15264987e-02, 0., 2.64798403e-01,
          1.37150601e-01, 4.93150838e-02, 0., 1.22677267e-01,
          1.99588031e-01, 2.09248066e-01, 9.03026387e-02, 4.70110886e-02,
          2.64798403e-01, 2.64798403e-01, 2.34110296e-01, 4.75438945e-02,
          1.49052277e-01, 2.34941453e-01, 4.53510731e-02, 2.64798403e-01,
          2.25061283e-01, 2.64798403e-01, 2.64798403e-01, 2.64798403e-01,
          2.59648953e-02, 1.86917469e-01 ]
      - [ 4.15087938e-02, 0., 4.95822430e-02, 3.13991793e-02,
          2.24133581e-01, 2.36222699e-01, 1.04857281e-01, 1.05642878e-01,
          0., 2.99146678e-02, 0., 2.06222273e-02, 0., 2.67598271e-01,
          2.67598271e-01, 3.56157832e-02, 8.92780498e-02, 2.77611502e-02,
          2.67598271e-01, 7.70237297e-02, 9.81287360e-02, 6.61345720e-02,
          2.36677647e-01, 2.67598271e-01, 2.67598271e-01, 8.38502273e-02,
          6.66771084e-02, 2.67598271e-01, 7.58787543e-02, 2.67598271e-01,
          1.07891589e-01, 1.98792472e-01, 2.67598271e-01, 2.67598271e-01,
          1.97243124e-01, 1.66074038e-01 ]
      - [ 3.56447771e-02, 5.48560880e-02, 1.73169076e-01, 2.35837758e-01,
          1.12739213e-01, 5.74639700e-02, 0., 0., 0., 3.81668843e-02,
          1.40542671e-01, 1.81668803e-01, 2.49100477e-01, 2.49100477e-01,
          8.69375616e-02, 7.10198507e-02, 2.79416256e-02, 7.76104182e-02,
          2.49100477e-01, 1.99343607e-01, 1.08535938e-01, 1.19207941e-01,
          2.49100477e-01, 2.19050005e-01, 2.48553291e-01, 6.10257760e-02,
          6.25703931e-02, 2.09286824e-01, 2.49100477e-01, 2.22177401e-01,
          2.49100477e-01, 2.49100477e-01, 2.49100477e-01, 1.43635541e-01,
          5.98901249e-02, 1.53502479e-01 ]
      - [ 0., 0., 3.35471109e-02, 2.14826718e-01, 2.83350080e-01,
          1.06443323e-01, 0., 0., 6.20283186e-02, 5.45877181e-02,
          1.54798552e-01, 2.09706165e-02, 0., 2.83350080e-01,
          1.38165683e-01, 5.77373281e-02, 0., 6.22724108e-02,
          1.48963749e-01, 1.93216622e-01, 1.34320155e-01, 5.78363501e-02,
          2.83350080e-01, 2.83350080e-01, 2.31015980e-01, 4.80198003e-02,
          9.73768383e-02, 2.83350080e-01, 3.31855826e-02, 2.60693103e-01,
          1.71578586e-01, 2.61469912e-02, 2.83350080e-01, 2.72760719e-01,
          1.27127588e-01, 2.57542640e-01 ]
      - [ 4.64201868e-02, 3.41486521e-02, 3.88064682e-02, 1.84773996e-01,
          1.36479303e-01, 9.54862535e-02, 3.63706984e-02, 2.31090263e-02,
          0., 0., 5.51929325e-02, 2.53603738e-02, 6.65194318e-02,
          3.27518761e-01, 9.73997712e-02, 0., 0., 8.71760398e-02,
          2.46696264e-01, 1.26595065e-01, 5.00992797e-02, 7.37832114e-02,
          2.70655364e-01, 1.76657528e-01, 8.87565464e-02, 5.52909635e-02,
          1.72051758e-01, 1.56265914e-01, 1.57182679e-01, 3.27518761e-01,
          2.56900758e-01, 3.27518761e-01, 3.27518761e-01, 3.27518761e-01,
          3.16703916e-02, 1.54669672e-01 ]
      - [ 1.69627354e-01, 8.01730752e-02, 2.55177498e-01, 1.45201191e-01,
          2.55177498e-01, 6.49648905e-02, 2.89973896e-02, 7.68580958e-02,
          0., 2.55177498e-01, 1.45971090e-01, 6.74878657e-02, 0.,
          2.55177498e-01, 1.19500734e-01, 1.98040068e-01, 2.66529880e-02,
          1.17058538e-01, 2.51009941e-01, 3.56010981e-02, 9.97531191e-02,
          0., 2.55177498e-01, 2.08351135e-01, 1.63728505e-01,
          1.56923294e-01, 7.94034153e-02, 2.55177498e-01, 2.50306845e-01,
          2.55177498e-01, 1.95001677e-01, 3.83572169e-02, 5.39423972e-02,
          0., 2.55177498e-01, 1.93947360e-01 ]
      - [ 2.28779361e-01, 1.15536056e-01, 2.18583405e-01, 1.22860096e-01,
          2.28779361e-01, 2.28779361e-01, 7.60162845e-02, 6.12371191e-02,
          8.78780484e-02, 1.25500441e-01, 2.28779361e-01, 0., 0.,
          1.87061787e-01, 2.28779361e-01, 2.02281266e-01, 1.55394033e-01,
          1.56289056e-01, 1.93507969e-01, 3.83623466e-02, 8.96186978e-02,
          0., 2.28779361e-01, 2.28779361e-01, 1.88455522e-01,
          1.77691624e-01, 1.97762758e-01, 1.62255213e-01, 2.12750331e-01,
          2.28779361e-01, 1.70236543e-01, 9.10665840e-02, 1.54919093e-02,
          5.09781688e-02, 1.74307585e-01, 2.28779361e-01 ]
      - [ 7.19230473e-02, 2.28509650e-01, 2.28509650e-01, 2.28509650e-01,
          2.28509650e-01, 1.00927562e-01, 0., 6.30463660e-02,
          4.65476923e-02, 1.84464246e-01, 2.28509650e-01, 0.,
          1.88182637e-01, 1.22852333e-01, 1.58737063e-01, 1.71637237e-01,
          9.54742208e-02, 2.28509650e-01, 2.28509650e-01, 7.91185945e-02,
          4.57117036e-02, 2.22335160e-01, 1.97411060e-01, 7.02843219e-02,
          2.04107404e-01, 1.40796021e-01, 1.24847323e-01, 1.98758602e-01,
          2.28509650e-01, 2.28509650e-01, 2.28509650e-01, 3.54551822e-02,
          4.47018966e-02, 0., 2.28509650e-01, 1.85169071e-01 ]
      - [ 2.70662069e-01, 7.74464756e-02, 2.70662069e-01, 1.40263066e-01,
          2.70662069e-01, 1.78192154e-01, 2.80112214e-02, 7.79510513e-02,
          4.59349621e-03, 2.31452733e-01, 1.41006783e-01, 6.51926771e-02,
          0., 6.41080812e-02, 0., 1.91304952e-01, 2.20397394e-02,
          1.08484015e-01, 2.70662069e-01, 3.43903452e-02, 2.66339093e-01,
          1.88369885e-01, 2.70662069e-01, 2.53373235e-01, 1.58160284e-01,
          1.51586518e-01, 1.93558976e-01, 1.90576375e-01, 2.41794184e-01,
          9.64839086e-02, 0., 0., 0., 0., 2.69105017e-01, 7.04954341e-02 ]
      - [ 1.36245400e-01, 8.15456584e-02, 1.68548718e-01, 7.31608048e-02,
          2.21795887e-01, 6.60771057e-02, 0., 7.81739280e-02, 0.,
          2.66197622e-01, 1.48470163e-01, 2.17384741e-01, 7.45262578e-02,
          2.66197622e-01, 1.21546619e-01, 2.30924413e-01, 2.71092951e-02,
          1.19062617e-01, 2.55307287e-01, 3.62106003e-02, 7.61036575e-02,
          0., 8.99133552e-03, 5.16647249e-02, 1.06086142e-01,
          1.26143590e-01, 8.07628259e-02, 2.59732515e-01, 2.54592150e-01,
          2.66197622e-01, 1.98340163e-01, 2.66197622e-01, 2.15119347e-01,
          6.04454428e-02, 2.66197622e-01, 1.97267801e-01 ]
      - [ 8.23569223e-02, 2.58123040e-01, 8.43834653e-02, 1.46225244e-01,
          2.58123040e-01, 1.86503157e-01, 2.18903139e-01, 1.52743414e-01,
          8.30589607e-02, 2.20344171e-01, 0., 0., 0., 8.78157169e-02,
          1.57795101e-02, 2.58123040e-01, 2.58123040e-01, 2.31832594e-01,
          1.46138519e-01, 0., 2.58123040e-01, 1.93183050e-01,
          2.58123040e-01, 1.66490868e-01, 8.50880668e-02, 8.60558525e-02,
          0., 2.35340685e-01, 2.58123040e-01, 2.58123040e-01,
          5.80905750e-02, 4.68814000e-02, 0., 9.63580608e-02,
          1.45997047e-01, 1.26120940e-01 ]
      - [ 2.47406527e-01, 1.08999148e-01, 1.39200509e-01, 1.52567670e-01,
          1.73282307e-02, 2.47406527e-01, 1.99549094e-01, 2.47406527e-01,
          0., 9.00490955e-02, 3.18598598e-02, 0., 0., 5.24630956e-02,
          6.24773614e-02, 2.47406527e-01, 2.47406527e-01, 2.47406527e-01,
          7.82187060e-02, 0., 1.65239111e-01, 2.47406527e-01,
          2.47406527e-01, 1.48841977e-01, 1.39156878e-01, 1.39441118e-01,
          4.22534831e-02, 1.74566403e-01, 2.20922664e-01, 2.47406527e-01,
          2.41674900e-01, 3.84659804e-02, 0., 0., 2.47406527e-01,
          2.05254287e-01 ]
      - [ 2.54098207e-01, 1.65984482e-01, 2.01820105e-01, 4.65275301e-03,
          2.54098207e-01, 2.53016770e-01, 8.62367898e-02, 5.78127131e-02,
          1.61556393e-01, 9.70003903e-02, 0., 0., 0., 9.30812582e-02,
          9.80014056e-02, 2.54098207e-01, 2.54098207e-01, 2.54098207e-01,
          2.43706051e-02, 2.53001228e-02, 2.54098207e-01, 1.61014065e-01,
          2.47133166e-01, 1.67888269e-01, 8.10358077e-02, 9.61326733e-02,
          1.35001302e-01, 2.50449300e-01, 2.54098207e-01, 2.54098207e-01,
          4.71868925e-02, 2.20837574e-02, 0., 7.83255845e-02, 0.,
          2.54098207e-01 ]
      - [ 1.21124282e-01, 2.68607706e-01, 8.10799077e-02, 1.40500620e-01,
          2.83666015e-01, 1.94363445e-01, 2.83666015e-01, 1.92736357e-01,
          2.30882794e-01, 1.69726267e-01, 0., 0., 0., 1.01906275e-02, 0.,
          0., 2.83666015e-01, 7.16809630e-02, 2.81237900e-01,
          4.49368916e-02, 2.83666015e-01, 2.41436422e-01, 2.83666015e-01,
          1.59972861e-01, 1.74342632e-01, 8.26868191e-02, 4.34991606e-02,
          8.53066444e-02, 2.83666015e-01, 6.56485260e-02, 0.,
          1.90649182e-02, 0., 0., 1.40281364e-01, 7.76842237e-02 ]
      - [ 8.48993957e-02, 2.14303851e-01, 0., 3.04368958e-02,
          1.53818756e-01, 0., 6.78076074e-02, 7.64357150e-02,
          8.56231079e-02, 2.27146491e-01, 7.38782659e-02, 8.69885013e-02,
          1.20302513e-01, 2.88371623e-01, 2.08527416e-01, 2.88371623e-01,
          2.88371623e-01, 2.38989592e-01, 1.50650024e-01, 0.,
          7.07417727e-02, 1.13921948e-01, 1.58783406e-01, 0.,
          8.77148509e-02, 7.73097947e-02, 0., 2.24915579e-01,
          2.88371623e-01, 2.88371623e-01, 1.45108819e-01, 2.74549872e-01,
          1.71630681e-01, 9.93327647e-02, 1.61906898e-01, 1.30014479e-01 ]
      - [ 2.74515361e-01, 3.05788398e-01, 1.34136915e-01, 9.03419256e-02,
          1.69759750e-01, 5.97951934e-02, 1.13245860e-01, 0.,
          1.21190809e-01, 3.05788398e-01, 3.05788398e-01, 2.03200415e-01,
          9.61959437e-02, 1.56068385e-01, 0., 1.95426662e-02,
          8.14579800e-02, 9.44617391e-02, 1.72957167e-01, 7.44501576e-02,
          0., 1.61994815e-01, 2.36005008e-01, 1.36353850e-01,
          1.55256703e-01, 1.05040990e-01, 2.30615035e-01, 3.05788398e-01,
          3.05788398e-01, 7.93832839e-02, 1.58392504e-01, 1.32921070e-01,
          8.60394351e-03, 5.43817654e-02, 6.16917126e-02, 0. ]
      - [ 2.86064863e-01, 2.86064863e-01, 2.28375539e-01, 0.,
          1.66969821e-01, 2.87860110e-02, 5.71572334e-02, 1.22292871e-02,
          1.26979783e-01, 2.86064863e-01, 2.86064863e-01, 2.78344840e-01,
          1.45674080e-01, 1.44342542e-01, 8.66235644e-02, 6.80760890e-02,
          6.59178495e-02, 1.42420396e-01, 1.95285082e-01, 1.14155158e-01,
          0., 4.57610488e-02, 1.72332734e-01, 2.29561985e-01,
          1.07207566e-01, 2.86064863e-01, 9.33744013e-02, 1.57611102e-01,
          2.86064863e-01, 1.57895356e-01, 0., 2.01404721e-01,
          2.14791447e-02, 0., 7.73155317e-03, 7.46410415e-02 ]
      - [ 1.26194417e-01, 2.81444639e-01, 8.83560926e-02, 0.,
          1.66430950e-01, 7.75392279e-02, 0., 1.08595356e-01,
          1.87834695e-01, 2.81444639e-01, 2.81444639e-01, 1.95306689e-01,
          7.50835612e-02, 1.74005911e-01, 0., 0., 9.42284241e-02,
          2.81444639e-01, 1.19192988e-01, 0., 0., 2.60318339e-01,
          5.38445599e-02, 2.06585631e-01, 2.16434211e-01, 1.10140465e-01,
          2.69178122e-01, 2.81444639e-01, 2.81444639e-01, 0.,
          1.30529076e-01, 1.57328382e-01, 4.66488078e-02, 4.52845581e-02,
          6.42437041e-02, 1.67782187e-01 ]
      - [ 2.77797282e-01, 2.77797282e-01, 2.77797282e-01, 1.00282662e-01,
          1.55084223e-01, 5.46259731e-02, 1.03455894e-01, 0.,
          1.10714011e-01, 2.77797282e-01, 2.72556186e-01, 2.13513616e-02,
          7.01292381e-02, 1.42576456e-01, 0., 1.78532265e-02,
          7.44160414e-02, 8.62956420e-02, 2.77797282e-01, 1.00661308e-01,
          7.25206956e-02, 2.67294198e-01, 2.77797282e-01, 1.32426366e-01,
          1.91515476e-01, 1.52318865e-01, 2.10678652e-01, 2.77797282e-01,
          2.77797282e-01, 0., 2.53960323e-02, 0., 0., 0., 0., 0. ]
      - [ 2.63171285e-01, 2.89679319e-01, 0., 0., 2.92778946e-02, 0.,
          1.46679254e-02, 0., 3.16646732e-02, 2.89679319e-01,
          2.89679319e-01, 2.89679319e-01, 1.78829372e-01, 2.83085704e-01,
          5.73242158e-02, 1.12633228e-01, 7.80918077e-02, 1.75076246e-01,
          1.19809888e-01, 0., 0., 0., 5.55487350e-02, 8.54038596e-02,
          1.11151427e-01, 1.00700267e-01, 9.29641351e-02, 2.89679319e-01,
          2.89679319e-01, 7.61028454e-02, 2.89679319e-01, 2.89679319e-01,
          5.35636917e-02, 8.98239464e-02, 5.91423623e-02, 1.28120959e-01 ]
      - [ 4.02081609e-02, 0., 0., 0., 7.05364197e-02, 0., 0., 0., 0.,
          1.25378296e-01, 9.77748036e-02, 2.81901509e-01, 1.05032980e-01,
          2.81901509e-01, 6.13550656e-02, 1.53522313e-01, 1.22272313e-01,
          1.33099809e-01, 2.74726808e-01, 1.22913532e-01, 2.81901509e-01,
          4.83257174e-02, 2.81901509e-01, 1.39341533e-01, 5.90423569e-02,
          8.13260674e-02, 2.72644870e-02, 2.81901509e-01, 2.81901509e-01,
          2.18812138e-01, 1.40567303e-01, 2.81901509e-01, 1.46528840e-01,
          1.68986693e-01, 1.43201634e-01, 2.81901509e-01 ]
      - [ 4.26274389e-02, 0., 0., 0., 6.76880106e-02, 0., 2.12061163e-02,
          0., 0., 1.99868143e-01, 2.59720832e-02, 2.72071540e-01,
          1.51631445e-01, 2.72071540e-01, 1.36583105e-01, 1.98447183e-01,
          6.73869997e-02, 4.47406135e-02, 1.57981217e-01, 9.44795310e-02,
          2.72071540e-01, 1.14570744e-01, 2.07050815e-01, 2.10641354e-01,
          2.53379315e-01, 2.04624563e-01, 0., 2.72071540e-01,
          1.19251557e-01, 2.72071540e-01, 9.09097791e-02, 2.72071540e-01,
          1.51590616e-01, 1.92054570e-01, 1.55322075e-01, 2.72071540e-01 ]
      - [ 7.10360706e-02, 0., 1.99855547e-02, 3.17398198e-02,
          4.82494012e-02, 1.04125822e-02, 0., 1.22386031e-02, 0.,
          1.95744395e-01, 2.49391392e-01, 2.31699899e-01, 1.17753461e-01,
          1.80228114e-01, 1.83248803e-01, 2.34063759e-01, 3.49866301e-02,
          2.49391392e-01, 2.48544604e-01, 2.49391392e-01, 4.99638878e-02,
          5.97185418e-02, 1.71686649e-01, 6.58869445e-02, 1.53650224e-01,
          1.22386031e-02, 1.71272576e-01, 2.49391392e-01, 2.49391392e-01,
          1.95018873e-01, 2.09170237e-01, 2.49391392e-01, 2.45310873e-01,
          1.30017221e-01, 2.00846210e-01, 1.89454556e-01 ]
      - [ 3.18587311e-02, 2.51865387e-02, 8.87015015e-02, 0.,
          1.05659373e-01, 0., 0., 0., 0., 1.87789813e-01, 8.26400593e-02,
          2.55947858e-01, 1.00210033e-01, 2.73729146e-01, 5.85377403e-02,
          1.46472812e-01, 1.31199211e-01, 1.59503758e-01, 2.22024262e-01,
          2.73729146e-01, 2.73729146e-01, 2.71031298e-02, 2.73729146e-01,
          8.34591612e-02, 5.82935177e-02, 6.20359704e-02, 9.65392068e-02,
          2.73729146e-01, 6.72428384e-02, 1.50480270e-01, 1.06911004e-01,
          2.73729146e-01, 1.39250040e-01, 2.51333594e-01, 2.73729146e-01,
          2.73729146e-01 ]
      - [ 3.94501723e-02, 0., 0., 0., 4.91198227e-02, 0., 0., 0., 0.,
          1.06762148e-01, 1.47642314e-01, 2.99557120e-01, 1.62015617e-01,
          2.99557120e-01, 1.40083984e-01, 0., 1.04191557e-01, 0.,
          2.99557120e-01, 8.51883814e-02, 6.94426596e-02, 4.18432243e-02,
          2.28895113e-01, 1.01420097e-01, 0., 1.52052909e-01, 0.,
          2.93223709e-01, 2.99557120e-01, 2.99557120e-01, 1.55275509e-01,
          2.99557120e-01, 2.99557120e-01, 9.47364047e-02, 2.20254913e-01,
          1.03719324e-01 ]
      - [ 2.05332547e-01, 2.89059341e-01, 2.39602491e-01, 0.,
          2.03821257e-01, 2.87803654e-02, 0., 0., 2.94523928e-02,
          2.89059341e-01, 9.18545723e-02, 1.66185915e-01, 1.52293399e-01,
          2.24483848e-01, 0., 1.94783375e-01, 8.70059952e-02,
          1.93358064e-01, 2.89059341e-01, 0., 0., 0., 1.50071368e-01,
          2.89059341e-01, 1.05885528e-01, 1.79437503e-01, 1.71875283e-01,
          2.89059341e-01, 2.89059341e-01, 1.31318644e-01, 9.23241973e-02,
          1.11735627e-01, 6.19608164e-02, 4.91467444e-03, 0.,
          1.60407826e-01 ]
      - [ 2.87422061e-01, 2.87422061e-01, 2.07167506e-01, 1.53730422e-01,
          4.21123989e-02, 0., 3.97436209e-02, 0., 3.47891562e-02,
          2.87422061e-01, 6.37445003e-02, 3.75091210e-02, 1.18456207e-01,
          2.87422061e-01, 1.46070898e-01, 1.03768922e-01, 1.14508793e-01,
          1.99634612e-01, 2.87422061e-01, 0., 0., 3.00471461e-03,
          1.00035369e-02, 2.87422061e-01, 2.23264322e-01, 2.28040069e-01,
          1.74204424e-01, 2.87422061e-01, 2.60921836e-01, 1.34384662e-01,
          7.60656670e-02, 1.38651118e-01, 0., 0., 8.13380629e-03,
          5.01083061e-02 ]
      - [ 1.29983291e-01, 2.59662956e-01, 1.28263339e-01, 8.65750089e-02,
          1.78011566e-01, 2.29591485e-02, 3.23162302e-02, 1.12472931e-02,
          3.43576111e-02, 2.59662956e-01, 1.33554533e-01, 1.15051247e-01,
          2.34736040e-01, 1.44043490e-01, 1.24033272e-01, 3.21734995e-02,
          1.46320701e-01, 2.45993584e-01, 2.59662956e-01, 0., 0., 0.,
          2.59662956e-01, 1.40569329e-01, 1.55516565e-01, 2.52496839e-01,
          2.59662956e-01, 2.59662956e-01, 2.59662956e-01, 1.04254059e-01,
          2.33922035e-01, 7.36085325e-02, 7.41839334e-02, 0.,
          3.13849486e-02, 2.49313712e-01 ]
      - [ 1.98723868e-01, 2.93414116e-01, 2.93414116e-01, 5.64056151e-02,
          2.76499033e-01, 2.78540626e-02, 7.55477324e-02, 2.64593028e-02,
          2.85044592e-02, 2.93414116e-01, 1.31225772e-02, 0.,
          9.09861773e-02, 1.38020977e-01, 0., 1.12966500e-01,
          5.77463843e-02, 1.87134773e-01, 2.93414116e-01, 0.,
          9.50601920e-02, 8.93527195e-02, 2.47718170e-01, 2.93414116e-01,
          1.07234076e-01, 1.73662260e-01, 2.57775337e-01, 2.93414116e-01,
          2.93414116e-01, 3.20319310e-02, 0., 5.66249853e-03, 0., 0., 0.,
          6.38131201e-02 ]
      - [ 1.49133712e-01, 3.04226428e-01, 4.85202521e-02, 0.,
          5.64036472e-03, 0., 0., 0., 0., 3.04226428e-01, 1.47590786e-01,
          3.04226428e-01, 1.46815658e-01, 3.04226428e-01, 2.77451817e-02,
          1.87777340e-01, 8.38765353e-02, 2.14796320e-01, 1.30270422e-01,
          0., 0., 0., 2.10501272e-02, 2.15419129e-01, 1.02077000e-01, 0.,
          1.08449757e-01, 3.04226428e-01, 3.04226428e-01, 1.26595333e-01,
          8.90034512e-02, 2.31340110e-01, 2.21820399e-01, 4.73790150e-03,
          1.72983423e-01, 2.11881667e-01 ]
      - [ 2.57453322e-01, 2.57453322e-01, 1.75688028e-01, 1.24379257e-02,
          4.57305349e-02, 0., 0., 0., 0., 2.52675444e-01, 2.82536708e-02,
          1.93175413e-02, 8.20482597e-02, 2.57453322e-01, 4.26036939e-02,
          7.75498897e-02, 2.57453322e-01, 2.57453322e-01, 2.57453322e-01,
          7.24426210e-02, 1.35888740e-01, 0., 2.57453322e-01,
          1.67031080e-01, 1.16236173e-01, 1.29559308e-01, 1.23239487e-01,
          2.52482623e-01, 2.57453322e-01, 2.13952050e-01, 2.46906847e-01,
          2.57453322e-01, 8.68398324e-02, 1.78512186e-02, 1.13221340e-01,
          5.00812344e-02 ]
      - [ 3.89333107e-02, 2.85373688e-01, 1.20765008e-01, 3.38707119e-02,
          0., 0., 0., 0., 0., 2.85373688e-01, 3.47649641e-02,
          3.42493206e-02, 1.26283050e-01, 1.25043511e-01, 6.96681067e-02,
          2.19941482e-01, 1.72760651e-01, 2.85373688e-01, 2.85373688e-01,
          1.59077793e-01, 0., 0., 1.16554320e-01, 2.41451263e-01,
          2.15778440e-01, 1.45823419e-01, 1.96394101e-01, 1.55387759e-01,
          2.09082216e-01, 2.85373688e-01, 2.53183305e-01, 2.23993555e-01,
          6.22545481e-02, 1.12962566e-01, 1.42708868e-01, 1.89210460e-01 ]
      - [ 2.69681633e-01, 2.69681633e-01, 1.99959472e-01, 0.,
          6.85946718e-02, 0., 0., 0., 3.82806100e-02, 5.39084338e-02,
          1.83127765e-02, 0., 2.30575353e-02, 1.43292457e-01,
          1.44873932e-01, 2.69681633e-01, 1.88583821e-01, 2.69681633e-01,
          1.06297515e-01, 2.69681633e-01, 0., 0., 2.69681633e-01,
          2.21283987e-01, 0., 2.09913939e-01, 2.01671734e-01,
          2.69681633e-01, 2.69681633e-01, 2.69681633e-01, 1.61669403e-01,
          1.82029560e-01, 7.67648444e-02, 3.65164354e-02, 3.55043337e-02,
          7.53261521e-02 ]
      - [ 2.60932058e-01, 2.60932058e-01, 2.03362003e-01, 9.85351279e-02,
          2.60932058e-01, 0., 0., 1.96013123e-01, 9.05467123e-02,
          2.60932058e-01, 0., 0., 0., 2.86778938e-02, 4.44293581e-02,
          8.08730796e-02, 1.77780762e-01, 2.00625047e-01, 2.60932058e-01,
          2.60932058e-01, 2.35378638e-01, 9.68007594e-02, 2.60932058e-01,
          1.74188748e-01, 1.39833331e-01, 1.35111228e-01, 1.80747911e-01,
          2.16546312e-01, 1.61695570e-01, 1.29453644e-01, 1.60686612e-01,
          2.02905610e-01, 9.05611143e-02, 0., 1.18073136e-01, 0. ]
      - [ 7.14234933e-02, 1.29966050e-01, 0., 0., 0., 0., 0., 0., 0.,
          2.83956289e-01, 2.83956289e-01, 2.04391241e-01, 9.90338251e-02,
          2.83956289e-01, 4.46542203e-02, 8.12823847e-02, 2.83956289e-01,
          2.83956289e-01, 1.57859921e-01, 7.59292990e-02, 1.42429098e-01,
          0., 7.30744675e-02, 1.08793750e-01, 5.86800463e-02,
          2.37386096e-02, 6.19631410e-02, 2.83956289e-01, 2.83956289e-01,
          2.24249616e-01, 2.58790523e-01, 2.83956289e-01, 1.57296047e-01,
          8.18610117e-02, 1.83708653e-01, 1.19699560e-01 ]
      - [ 1.89577937e-01, 2.71564454e-01, 1.13450669e-01, 7.17919990e-02,
          1.45921007e-01, 0., 6.16061911e-02, 5.99673726e-02,
          2.38560177e-02, 1.65699825e-01, 2.71564454e-01, 2.17978984e-01,
          0., 2.56478876e-01, 5.89648588e-03, 0., 2.11453691e-01,
          6.69931844e-02, 1.81909382e-01, 1.77432165e-01, 6.94910530e-04,
          0., 2.71564454e-01, 2.01910764e-01, 9.48761404e-02,
          2.30444461e-01, 0., 2.71564454e-01, 9.52571332e-02,
          2.63466001e-01, 4.51575071e-02, 2.26938173e-01, 1.17732935e-01,
          1.68102875e-01, 2.71564454e-01, 1.28301710e-01 ]
      - [ 8.96472111e-02, 2.62833744e-01, 2.62833744e-01, 0.,
          1.32599443e-01, 4.99511734e-02, 1.09588346e-02, 3.58188264e-02,
          4.07280736e-02, 2.62833744e-01, 2.62833744e-01, 2.62833744e-01,
          1.58038527e-01, 1.62699267e-01, 9.64016914e-02, 4.89909723e-02,
          5.51199615e-02, 1.12243459e-01, 1.76188394e-01, 0., 0., 0.,
          1.75912514e-01, 2.62833744e-01, 2.20992759e-01, 2.44437501e-01,
          2.30504975e-01, 2.62833744e-01, 1.04604483e-01, 2.62833744e-01,
          7.23351315e-02, 1.05347618e-01, 7.71857053e-02, 7.63252005e-02,
          7.44898617e-02, 2.62833744e-01 ]
      - [ 2.38946214e-01, 2.38946214e-01, 1.66452259e-01, 5.14675602e-02,
          7.95069337e-02, 8.87915865e-02, 7.29398429e-02, 7.49418885e-02,
          0., 2.38946214e-01, 2.38946214e-01, 1.58933565e-01,
          1.15889154e-01, 1.10578947e-01, 0., 8.33202600e-02,
          2.38946214e-01, 2.38946214e-01, 1.33660018e-01, 2.33905584e-01,
          0., 2.00239405e-01, 2.38946214e-01, 1.42893597e-01,
          9.19431821e-02, 1.37394682e-01, 9.24395248e-02, 1.78219646e-01,
          2.38946214e-01, 1.67142883e-01, 1.15801491e-01, 1.70275822e-01,
          8.00769478e-02, 1.95467547e-01, 2.38946214e-01, 2.38946214e-01 ]
      - [ 1.99842662e-01, 2.93258786e-01, 2.10632280e-01, 7.30269104e-02,
          1.65155053e-01, 0., 6.26658946e-02, 8.87097120e-02,
          3.70399132e-02, 1.45203605e-01, 2.93258786e-01, 1.26498356e-01,
          0., 2.44166598e-01, 5.99791249e-03, 0., 1.87380120e-01,
          5.53719997e-02, 1.77215889e-01, 1.33972108e-01, 1.51484627e-02,
          0., 2.93258786e-01, 2.93258786e-01, 1.64232314e-01,
          2.83647656e-01, 5.83083183e-02, 2.76497126e-01, 9.68956649e-02,
          2.53556311e-01, 4.59342673e-02, 1.07516222e-01, 0.,
          8.32546428e-02, 2.33761162e-01, 7.22003430e-02 ]
      - [ 7.60979280e-02, 2.84469187e-01, 8.07903856e-02, 0.,
          1.24356411e-02, 0., 0., 1.50653636e-02, 0., 1.76665798e-01,
          2.84469187e-01, 2.50392169e-01, 7.17384815e-02, 2.84469187e-01,
          5.89209003e-03, 6.15602657e-02, 2.56153345e-01, 9.07814726e-02,
          7.76643455e-02, 1.77299887e-01, 6.94392424e-04, 0.,
          2.69853115e-01, 1.23570397e-01, 1.96624752e-02, 6.91586360e-02,
          0., 2.84469187e-01, 9.51861143e-02, 2.63269573e-01,
          4.51238416e-02, 2.84469187e-01, 1.95835024e-01, 2.43120492e-01,
          2.84469187e-01, 1.28206059e-01 ]
      - [ 1.98234916e-01, 2.58985162e-01, 2.58985162e-01, 0.,
          1.41408518e-01, 6.88879341e-02, 3.58919017e-02, 0.,
          6.96967617e-02, 2.58985162e-01, 2.25971520e-01, 7.64262155e-02,
          5.93896434e-02, 2.25195125e-01, 9.42977667e-02, 6.56396821e-02,
          0., 2.17262566e-01, 1.61671281e-01, 1.51317537e-01, 0.,
          2.58985162e-01, 2.58985162e-01, 1.02791928e-01, 0.,
          6.53271899e-02, 1.02853991e-01, 2.58985162e-01, 2.16618776e-01,
          1.74668521e-01, 2.58985162e-01, 1.74987555e-01, 1.36903018e-01,
          1.42960280e-01, 0., 2.58985162e-01 ]
      - [ 1.28527448e-01, 2.63495147e-01, 2.63495147e-01, 8.68288726e-02,
          1.64997801e-01, 0., 0., 3.24967392e-02, 3.24871093e-02,
          2.63495147e-01, 2.63495147e-01, 1.62676096e-01, 0.,
          2.63495147e-01, 2.21948493e-02, 1.13800265e-01, 6.33562133e-02,
          4.70080599e-02, 2.46481106e-01, 1.09121397e-01, 0., 0.,
          2.63495147e-01, 2.10199252e-01, 1.22148186e-01, 4.93039265e-02,
          1.75454259e-01, 2.55406708e-01, 2.63495147e-01, 1.78209051e-01,
          2.63495147e-01, 3.66781801e-02, 6.01802655e-02, 0.,
          1.59904554e-01, 2.29196221e-01 ]
      - [ 2.50240266e-01, 2.16146931e-01, 1.01184718e-01, 7.66607374e-02,
          1.69988230e-01, 2.71273851e-02, 8.26855302e-02, 0.,
          5.12281172e-02, 1.09256469e-01, 1.42835602e-01, 1.43260166e-01,
          5.79527207e-02, 1.87956661e-01, 1.99689418e-01, 7.56635889e-02,
          2.50240266e-01, 2.50240266e-01, 2.50240266e-01, 5.26756374e-03,
          8.14303160e-02, 2.50240266e-01, 2.50240266e-01, 1.39092639e-01,
          0., 1.01539105e-01, 6.15465529e-02, 2.06779107e-01,
          2.50240266e-01, 1.80566370e-01, 1.08475730e-01, 2.48953626e-01,
          6.95969164e-02, 1.78466737e-01, 1.84544727e-01, 2.50240266e-01 ]
      - [ 2.69051939e-01, 2.69051939e-01, 2.69051939e-01, 5.24377115e-02,
          1.44445091e-01, 7.03672096e-02, 3.66626307e-02, 0.,
          7.11934045e-02, 2.69051939e-01, 1.02792777e-01, 7.80673698e-02,
          8.22724774e-03, 2.30030894e-01, 9.63226855e-02, 6.70492128e-02,
          0., 2.21928000e-01, 2.58831203e-01, 0., 0., 2.69051939e-01,
          2.69051939e-01, 2.14396045e-01, 8.92817825e-02, 0.,
          2.69051939e-01, 2.69051939e-01, 2.21270368e-01, 1.78419292e-01,
          1.49281308e-01, 1.33125454e-01, 3.04460302e-02, 5.67483753e-02,
          0., 8.58053938e-02 ]
      - [ 8.14724043e-02, 2.76139081e-01, 2.76139081e-01, 0.,
          5.61915189e-02, 0., 0., 0., 0., 2.76139081e-01, 2.76139081e-01,
          8.09805989e-02, 6.29287884e-02, 2.76139081e-01, 7.84943402e-02,
          1.07582048e-01, 0., 2.58501559e-01, 1.53106555e-01,
          1.60334840e-01, 0., 7.89693296e-02, 2.76139081e-01,
          7.88294002e-02, 0., 6.92201629e-02, 1.08983256e-01,
          2.76139081e-01, 1.79576755e-01, 1.05375923e-01, 2.76139081e-01,
          2.76139081e-01, 1.75149411e-01, 9.26135033e-02, 0.,
          2.19041407e-01 ]
      - [ 2.59481847e-01, 2.05593869e-01, 2.83181667e-02, 5.90037592e-02,
          2.08747610e-01, 5.13002388e-02, 7.60750920e-02, 2.21831491e-03,
          1.62161678e-01, 2.59481847e-01, 7.46196136e-02, 7.81453997e-02,
          0., 2.59481847e-01, 0., 9.13682804e-02, 1.80030361e-01,
          2.59481847e-01, 2.59481847e-01, 8.23264122e-02, 0.,
          2.00264841e-01, 2.59481847e-01, 1.00685515e-01, 2.06059471e-01,
          5.23193851e-02, 1.15706965e-01, 2.59481847e-01, 8.86755362e-02,
          1.13942921e-01, 2.59481847e-01, 2.59481847e-01, 9.82449576e-02,
          3.27976644e-02, 2.29118362e-01, 1.30629048e-01 ]
      - [ 2.43395448e-01, 2.43395448e-01, 9.70076174e-02, 3.37981954e-02,
          2.17373431e-01, 6.60220385e-02, 7.05738291e-02, 4.67862636e-02,
          5.12156636e-02, 2.43395448e-01, 2.43395448e-01, 6.96169659e-02,
          9.90180764e-03, 1.60224751e-01, 1.08059600e-01, 1.17223777e-01,
          6.81322664e-02, 2.31033504e-01, 1.88383281e-01, 1.23012580e-01,
          0., 1.84730217e-02, 2.43395448e-01, 2.43395448e-01,
          1.61960319e-01, 2.02616960e-01, 1.33511588e-01, 9.01184231e-02,
          2.43395448e-01, 2.43395448e-01, 1.80049703e-01, 2.43395448e-01,
          2.33369023e-01, 1.13866337e-01, 1.81724504e-01, 6.12994693e-02 ]
      - [ 2.43399322e-01, 7.99239129e-02, 1.65662080e-01, 4.80968952e-02,
          2.43399322e-01, 0., 2.01198962e-02, 7.83152431e-02,
          2.32810125e-01, 1.90714329e-01, 0., 0., 4.53223139e-02,
          2.43399322e-01, 1.22683458e-01, 1.43831208e-01, 2.43399322e-01,
          2.43399322e-01, 2.43399322e-01, 0., 2.34566852e-02,
          2.18518212e-01, 2.43399322e-01, 1.29366666e-01, 1.18606813e-01,
          7.26098344e-02, 1.95044085e-01, 2.29234308e-01, 2.43399322e-01,
          2.33624279e-01, 2.23546490e-01, 5.22851050e-02, 6.87840804e-02,
          2.04686329e-01, 7.78882876e-02, 1.41625836e-01 ]
      - [ 2.55092025e-01, 2.55092025e-01, 1.05321281e-01, 5.83706833e-02,
          2.55092025e-01, 5.07498160e-02, 7.52588511e-02, 1.47023834e-02,
          2.55092025e-01, 2.55092025e-01, 0., 0., 0., 1.76575512e-01, 0.,
          9.03879553e-02, 1.65590882e-01, 2.40396261e-01, 2.12535903e-01,
          9.08215046e-02, 3.61202285e-02, 2.03789547e-01, 2.55092025e-01,
          1.17839858e-01, 2.36294359e-01, 1.86196417e-01, 1.91684306e-01,
          2.55092025e-01, 7.83456936e-02, 7.66001493e-02, 2.55092025e-01,
          2.55092025e-01, 7.89562166e-02, 0., 9.22216773e-02,
          5.20086773e-02 ]
      - [ 2.41718620e-01, 1.57712623e-01, 0., 6.12133853e-02,
          1.77206352e-01, 0., 0., 1.45746558e-03, 6.13786913e-02,
          2.93839157e-01, 1.32994547e-01, 1.10450514e-01, 0.,
          2.93839157e-01, 5.32213748e-02, 1.73713937e-01, 1.87616229e-01,
          2.93839157e-01, 2.93839157e-01, 8.54094401e-02, 0., 0.,
          2.15444684e-01, 8.37424397e-02, 1.14207312e-01, 0.,
          8.62148404e-02, 2.93839157e-01, 9.19963419e-02, 3.78793143e-02,
          2.93839157e-01, 2.93839157e-01, 1.22637764e-01, 1.33594781e-01,
          1.95264325e-01, 1.14804648e-01 ]
      - [ 1.20486923e-01, 1.19785629e-01, 1.97521865e-01, 1.44102320e-01,
          2.81309456e-01, 3.50651108e-02, 5.62228523e-02, 2.74672359e-02,
          9.94011983e-02, 3.43195349e-02, 1.69592146e-02, 7.47373775e-02,
          4.80893068e-02, 2.81309456e-01, 3.57326046e-02, 3.54289711e-02,
          2.02091318e-02, 3.30940410e-02, 2.81309456e-01, 1.17981896e-01,
          3.64342369e-02, 2.81309456e-01, 2.81309456e-01, 1.69508219e-01,
          2.04232186e-01, 8.48394707e-02, 1.50032461e-01, 1.90486625e-01,
          1.03833072e-01, 2.81309456e-01, 5.39465323e-02, 2.36726955e-01,
          2.81309456e-01, 2.43967265e-01, 9.49458107e-02, 1.97571203e-01 ]
      - [ 1.89192474e-01, 2.10739225e-01, 2.25538686e-01, 1.46382928e-01,
          1.00443855e-01, 1.56942561e-01, 6.80061802e-02, 1.86872724e-02,
          1.09486699e-01, 1.14535332e-01, 3.95502634e-02, 1.67854745e-02,
          4.07089815e-02, 2.44075909e-01, 2.44075909e-01, 9.37906727e-02,
          4.16503958e-02, 0., 2.44075909e-01, 1.13410704e-01, 0.,
          2.44075909e-01, 2.21049994e-01, 2.44075909e-01, 2.44075909e-01,
          1.15262292e-01, 3.48873734e-02, 2.44075909e-01, 2.07990393e-01,
          1.85781673e-01, 7.83150569e-02, 8.07467476e-02, 2.44075909e-01,
          2.44075909e-01, 2.44075909e-01, 7.92401135e-02 ]
      - [ 1.41851157e-01, 7.50032812e-02, 9.63817239e-02, 2.61031359e-01,
          1.60491869e-01, 1.43582210e-01, 2.90891491e-02, 6.93002120e-02,
          8.94010812e-02, 5.07163890e-02, 5.90860993e-02, 2.15300933e-01,
          2.61031359e-01, 2.61031359e-01, 2.54116394e-02, 2.50464175e-02,
          3.24426703e-02, 0., 2.61031359e-01, 1.09511212e-01,
          1.97282881e-01, 1.49586603e-01, 2.37945586e-01, 1.56399280e-01,
          1.55909464e-01, 8.80262107e-02, 1.02535397e-01, 2.61031359e-01,
          1.78463385e-01, 2.61031359e-01, 2.33190805e-01, 2.61031359e-01,
          2.22141519e-01, 1.74282014e-01, 8.75132978e-02, 5.19491397e-02 ]
      - [ 6.44504130e-02, 8.58823806e-02, 1.74540445e-01, 1.75023019e-01,
          2.97969222e-01, 3.79240029e-02, 4.81548011e-02, 0.,
          9.95155871e-02, 9.22336727e-02, 1.90988258e-02, 1.34787947e-01,
          1.21608175e-01, 2.97969222e-01, 6.36177957e-02, 2.88210679e-02,
          2.22630668e-02, 3.56565714e-02, 2.97969222e-01, 1.43796951e-02,
          1.13665156e-01, 2.97969222e-01, 2.97969222e-01, 2.97969222e-01,
          1.78502813e-01, 6.78555667e-02, 3.65968235e-02, 2.45797426e-01,
          1.30518734e-01, 1.77289903e-01, 3.87820154e-02, 1.12102419e-01,
          2.53531754e-01, 2.00245008e-01, 7.63158947e-02, 2.20084518e-01 ]
      - [ 1.07612640e-01, 1.28449604e-01, 1.71898484e-01, 9.75407735e-02,
          2.29663953e-01, 3.91544402e-02, 3.30714472e-02, 2.98699941e-02,
          6.84622973e-02, 7.03156963e-02, 0., 5.45559265e-02,
          5.94073124e-02, 3.13583791e-01, 2.58313399e-02, 3.76507230e-02,
          0., 1.99099015e-02, 3.13583791e-01, 1.34425804e-01,
          4.09663990e-02, 1.76774934e-01, 1.54935405e-01, 2.09886268e-01,
          1.87055930e-01, 9.58249420e-02, 1.91517875e-01, 3.13583791e-01,
          2.20173731e-01, 2.00954869e-01, 1.47106126e-01, 3.13583791e-01,
          3.13583791e-01, 2.17788637e-01, 5.07540926e-02, 7.67218918e-02 ]
      - [ 2.77649581e-01, 2.12458104e-01, 1.38480172e-01, 7.12171271e-02,
          2.66013682e-01, 6.07206263e-02, 1.63853802e-02, 1.09075665e-01,
          5.78257851e-02, 5.72145358e-02, 5.86497709e-02, 0.,
          1.23441376e-01, 2.77649581e-01, 1.42797440e-01, 1.55055970e-01,
          6.17578663e-02, 3.73457931e-02, 1.01718500e-01, 6.54984862e-02,
          0., 8.21141079e-02, 2.77649581e-01, 2.77649581e-01,
          2.72985011e-01, 1.71254992e-01, 0., 2.10355416e-01,
          2.15290666e-01, 8.81366134e-02, 1.56994700e-01, 2.76922941e-01,
          0., 2.20830247e-01, 2.77649581e-01, 9.95861739e-02 ]
      - [ 2.71081507e-01, 2.21011356e-01, 1.16571642e-01, 7.71518722e-02,
          1.57881364e-01, 7.18100518e-02, 3.09766419e-02, 1.08245194e-01,
          1.76438093e-01, 6.60134554e-02, 3.01103704e-02, 5.74811436e-02,
          0., 2.71081507e-01, 2.71081507e-01, 2.71081507e-01,
          3.26088108e-02, 1.00710303e-01, 1.44510284e-01, 1.05129499e-02,
          7.79362693e-02, 5.39342389e-02, 4.58764918e-02, 2.71081507e-01,
          2.71081507e-01, 1.72759980e-01, 6.18605278e-02, 1.22036368e-01,
          2.71081507e-01, 1.34134322e-01, 1.22253150e-01, 1.36889905e-01,
          6.78493381e-02, 2.29430452e-01, 2.56021827e-01, 2.61608511e-01 ]
      - [ 9.56146121e-02, 2.49857381e-01, 1.83973327e-01, 1.49353072e-01,
          1.64836541e-01, 7.08586350e-02, 0., 5.06596826e-02,
          2.34823421e-01, 1.18312031e-01, 2.67082471e-02, 1.30030245e-01,
          2.49857381e-01, 2.49857381e-01, 2.48736739e-01, 8.00937936e-02,
          5.46525866e-02, 3.53407487e-02, 1.48763850e-01, 5.27378954e-02,
          6.49681222e-03, 2.42234796e-01, 2.49857381e-01, 2.49857381e-01,
          1.42070547e-01, 1.00864053e-01, 1.98100880e-01, 8.14373493e-02,
          2.49857381e-01, 9.30764005e-02, 1.72131017e-01, 2.49857381e-01,
          7.00804964e-02, 5.40968329e-02, 2.49857381e-01, 1.87722743e-01 ]
      - [ 2.99898446e-01, 2.21302822e-01, 1.44245163e-01, 1.40557095e-01,
          2.99898446e-01, 1.11501358e-01, 1.78578511e-01, 1.13616534e-01,
          6.02330938e-02, 5.95964007e-02, 6.10913858e-02, 0.,
          6.22051135e-02, 2.99898446e-01, 1.00489236e-01, 0.,
          6.43288717e-02, 3.89005132e-02, 1.05953090e-01, 1.30461857e-01,
          0., 1.97093174e-01, 2.99898446e-01, 2.99898446e-01,
          2.99898446e-01, 2.31938168e-01, 9.33447629e-02, 2.19112590e-01,
          1.62016660e-01, 9.18057710e-02, 5.19698374e-02, 0., 0.,
          9.14918706e-02, 2.44124830e-01, 1.03872251e-02 ]
      - [ 2.92150497e-01, 1.68194085e-01, 7.78676495e-02, 0.,
          3.64192575e-02, 0., 0., 0., 5.71188070e-02, 0., 9.95992124e-02,
          5.89194633e-02, 1.92278609e-01, 3.07296842e-01, 2.01029852e-01,
          1.69345289e-01, 1.68744922e-01, 0., 1.00474894e-01,
          6.46977052e-02, 0., 0., 1.99566334e-01, 6.25739694e-02,
          1.93649903e-01, 1.69161230e-01, 0., 2.07783610e-01,
          2.12658510e-01, 8.70590508e-02, 2.36185476e-01, 3.07296842e-01,
          2.95198619e-01, 2.94127971e-01, 2.82287419e-01, 9.83686298e-02 ]
      - [ 2.80567229e-01, 1.19171634e-01, 2.00146213e-01, 1.29201964e-01,
          2.59300888e-01, 7.38118663e-02, 2.47721951e-02, 8.23479742e-02,
          6.81250617e-02, 1.42392635e-01, 0., 0., 2.33767077e-01,
          2.80567229e-01, 5.41331470e-02, 1.44007340e-01, 2.65010558e-02,
          0., 1.28393397e-01, 7.17651993e-02, 0., 1.74087256e-01,
          2.80567229e-01, 2.80567229e-01, 2.41943851e-01, 6.88711554e-02,
          7.19638122e-03, 1.60067528e-01, 1.72658607e-01, 1.49910212e-01,
          2.59036750e-01, 1.48240164e-01, 2.35838611e-02, 2.80567229e-01,
          1.99082792e-01, 1.70287058e-01 ]
      - [ 2.83466488e-01, 1.96546257e-01, 2.02260792e-01, 9.04891640e-02,
          1.32766798e-01, 1.32312462e-01, 6.61394522e-02, 2.52436157e-02,
          1.71744168e-01, 3.69896293e-02, 6.46702573e-02, 0.,
          6.99715987e-02, 2.83466488e-01, 2.83466488e-01, 1.38994306e-01,
          9.21913609e-02, 6.16871566e-02, 1.88723251e-01, 0.,
          7.42787868e-02, 4.97453362e-02, 2.83466488e-01, 2.83466488e-01,
          2.83466488e-01, 8.03345516e-02, 6.17985576e-02, 1.75322533e-01,
          1.55054227e-01, 1.98319420e-01, 2.50200797e-02, 1.47829697e-01,
          9.27358568e-02, 1.56515092e-01, 2.83466488e-01, 1.85793638e-01 ]
      - [ 1.83465019e-01, 1.03246346e-01, 2.66827345e-01, 2.21520290e-01,
          1.79330647e-01, 0., 4.18258868e-02, 0., 2.08249956e-01,
          6.77500963e-02, 1.03160501e-01, 2.96030678e-02, 2.66827345e-01,
          2.66827345e-01, 9.59128067e-02, 1.66898862e-01, 3.85457724e-02,
          0., 1.97691128e-01, 8.21074545e-02, 0., 2.66827345e-01,
          2.66827345e-01, 2.35070363e-01, 4.86332811e-02, 7.78399408e-02,
          1.25249386e-01, 9.48820412e-02, 1.43482551e-01, 2.66827345e-01,
          2.66827345e-01, 8.86861756e-02, 1.31243080e-01, 2.66827345e-01,
          1.42891482e-01, 6.94129094e-02 ]
      - [ 2.85325050e-01, 1.19828887e-01, 2.01250046e-01, 1.98738217e-01,
          2.85325050e-01, 1.28650665e-01, 1.05922103e-01, 8.28021392e-02,
          6.85007870e-02, 1.43177956e-01, 0., 0., 1.66232675e-01,
          2.85325050e-01, 0., 6.37882799e-02, 2.66472138e-02, 0.,
          5.32944277e-02, 7.21609965e-02, 1.59535278e-02, 2.85325050e-01,
          2.85325050e-01, 2.85325050e-01, 2.85325050e-01, 1.47691175e-01,
          7.23607093e-03, 1.60950333e-01, 1.73610851e-01, 1.34783462e-01,
          1.14225000e-01, 0., 2.37139314e-02, 2.85325050e-01,
          1.21740580e-01, 1.71226218e-01 ]
      - [ 2.92272151e-01, 1.20313212e-01, 1.09363221e-01, 0.,
          6.21876568e-02, 0., 2.50094943e-02, 2.31081117e-02,
          6.87776506e-02, 1.44887835e-01, 0., 9.27002430e-02,
          2.95813799e-01, 2.95813799e-01, 1.29170641e-01, 1.45386830e-01,
          8.67836177e-02, 0., 1.29623309e-01, 7.24526569e-02, 0.,
          1.75754890e-01, 2.31433630e-01, 1.37856990e-01, 2.21925229e-01,
          6.95308894e-02, 0., 6.76975474e-02, 1.74312562e-01,
          1.51346236e-01, 2.61518151e-01, 2.95813799e-01, 2.95813799e-01,
          2.95813799e-01, 2.00989857e-01, 1.40216723e-01 ]
      - [ 6.02485165e-02, 1.09667629e-01, 1.58433601e-01, 1.81125566e-01,
          2.99385816e-01, 0., 6.87642768e-03, 0., 0., 0., 0., 0.,
          4.79437709e-02, 2.99385816e-01, 2.40304843e-02, 0.,
          2.85296720e-02, 0., 2.99385816e-01, 1.23557627e-01,
          1.44873420e-02, 1.93836018e-01, 2.99385816e-01, 2.15498179e-01,
          2.02885956e-01, 7.64613152e-02, 8.82773027e-02, 1.47341669e-01,
          2.37185955e-01, 2.65085340e-01, 1.38900787e-01, 2.99385816e-01,
          2.99385816e-01, 1.54236481e-01, 1.24052137e-01, 1.54623881e-01 ]
      - [ 2.92751044e-02, 2.56178051e-01, 1.82507738e-01, 1.21148616e-01,
          2.56178051e-01, 5.21673150e-02, 0., 0., 1.93238128e-02, 0.,
          7.11754663e-03, 0., 4.57478873e-03, 2.56178051e-01,
          2.56178051e-01, 4.79020551e-02, 0., 2.35016327e-02,
          2.50786573e-01, 1.60664991e-01, 3.60266790e-02, 1.05257496e-01,
          2.56178051e-01, 2.56178051e-01, 2.02058956e-01, 1.28680855e-01,
          1.15852423e-01, 2.56178051e-01, 2.56178051e-01, 1.57825515e-01,
          5.53629547e-02, 1.67629302e-01, 2.56178051e-01, 2.43379295e-01,
          2.56178051e-01, 4.08895649e-02 ]
      - [ 3.84525023e-02, 2.41750665e-02, 1.78000391e-01, 2.65768617e-01,
          1.88208327e-01, 0., 2.12110803e-02, 0., 0., 1.30842626e-02,
          1.88706629e-02, 6.89631253e-02, 2.65768617e-01, 2.65768617e-01,
          1.54813472e-02, 0., 3.12288515e-02, 0., 2.65768617e-01,
          1.89364746e-01, 1.40305355e-01, 2.18708247e-01, 2.61681974e-01,
          2.30618462e-01, 1.21954903e-01, 5.56050800e-02, 1.25459954e-01,
          2.65768617e-01, 1.77872330e-01, 2.36958563e-01, 2.65768617e-01,
          2.65768617e-01, 2.65768617e-01, 9.09771472e-02, 3.85613479e-02,
          5.02159186e-02 ]
      - [ 2.23409515e-02, 4.93744239e-02, 1.10133909e-01, 1.86114013e-01,
          3.22192073e-01, 0., 0., 0., 0., 4.96921577e-02, 3.61931361e-02,
          4.62653860e-02, 7.11202696e-02, 3.22192073e-01, 2.63793841e-02,
          0., 3.13183516e-02, 3.97520363e-02, 2.56435812e-01, 0.,
          1.29811198e-01, 2.55292714e-01, 3.22192073e-01, 3.08904707e-01,
          1.62944436e-01, 9.39096063e-02, 1.66915245e-02, 2.44808301e-01,
          2.61314929e-01, 1.73736349e-01, 5.52927628e-02, 1.94896281e-01,
          2.79720068e-01, 1.64788127e-01, 1.08490832e-01, 1.70793548e-01 ]
      - [ 1.48542255e-01, 7.93563575e-02, 1.22721806e-01, 1.47550017e-01,
          2.18865320e-01, 0., 0., 0., 0., 0., 0., 4.56341542e-02,
          6.12050965e-02, 3.27884674e-01, 0., 0., 0., 0., 3.27884674e-01,
          1.45669758e-01, 4.66343015e-02, 1.50027528e-01, 2.52235770e-01,
          1.64069235e-01, 2.04345882e-01, 2.05464497e-01, 8.78221840e-02,
          2.48478144e-01, 1.60854638e-01, 2.63134241e-01, 1.75571665e-01,
          3.27884674e-01, 3.27884674e-01, 1.46944210e-01, 7.06498772e-02,
          9.29920822e-02 ]
      - [ 2.84931004e-01, 1.26200378e-01, 1.56544492e-01, 2.22784169e-02,
          2.06951544e-01, 2.03037802e-02, 0., 7.41460770e-02,
          5.84380329e-02, 9.69862714e-02, 5.90083003e-02, 0.,
          3.84913348e-02, 2.84931004e-01, 0., 2.84931004e-01,
          9.26762223e-02, 0., 1.83837399e-01, 2.14315221e-01,
          6.95835650e-02, 1.03577726e-01, 1.77550524e-01, 1.18424825e-01,
          1.11874051e-01, 2.77663440e-01, 2.82144129e-01, 1.64583832e-01,
          2.84931004e-01, 2.84931004e-01, 1.39555797e-01, 1.01217039e-01,
          3.61392908e-02, 0., 2.84931004e-01, 1.69308990e-01 ]
      - [ 2.49206871e-01, 2.09143341e-01, 7.42999762e-02, 5.41043282e-02,
          1.82120129e-01, 8.49044845e-02, 0., 5.16308285e-02,
          1.34488851e-01, 7.53822178e-02, 3.26811410e-02, 3.97297628e-02,
          5.37071787e-02, 2.49206871e-01, 2.49206871e-01, 2.49206871e-01,
          1.36672154e-01, 3.03698406e-02, 1.82905972e-01, 4.20851633e-02,
          2.49206871e-01, 6.16005026e-02, 1.26584232e-01, 2.35949710e-01,
          1.54226050e-01, 2.49206871e-01, 1.44152954e-01, 2.07516655e-01,
          2.41325811e-01, 2.49206871e-01, 2.49206871e-01, 2.21682675e-02,
          8.19080696e-02, 4.16686311e-02, 2.49206871e-01, 1.77229404e-01 ]
      - [ 2.58685559e-01, 1.20644912e-01, 1.46189630e-01, 1.61396101e-01,
          9.07214656e-02, 0., 1.48248598e-02, 6.12242781e-02,
          1.55412361e-01, 8.01527500e-02, 1.11516766e-01, 2.03141235e-02,
          1.96302235e-01, 2.58685559e-01, 2.11729303e-01, 1.71636581e-01,
          1.31077945e-01, 8.45938325e-02, 2.58685559e-01, 2.19205409e-01,
          0., 7.52597526e-02, 1.27361059e-01, 2.56706513e-02,
          1.93831354e-01, 2.29554608e-01, 1.36174008e-01, 2.58685559e-01,
          2.58685559e-01, 2.58685559e-01, 2.58334041e-01, 8.17242730e-03,
          7.11802859e-03, 0., 2.58685559e-01, 1.74796805e-01 ]
      - [ 2.69858599e-01, 1.80383831e-01, 1.52466387e-01, 2.16980465e-02,
          2.69858599e-01, 1.97748505e-02, 1.41859993e-01, 7.22145140e-02,
          5.69156781e-02, 8.64064842e-02, 0., 0., 3.74886058e-02,
          2.69858599e-01, 0., 2.30496317e-01, 9.02619362e-02, 0.,
          1.79048285e-01, 2.69858599e-01, 2.55193442e-01, 2.36799702e-01,
          2.48042986e-01, 1.15339771e-01, 1.08959645e-01, 2.69858599e-01,
          2.69858599e-01, 1.60296306e-01, 1.76500991e-01, 1.66622773e-01,
          0., 2.34624725e-02, 3.51978317e-02, 0., 2.69858599e-01,
          9.22246799e-02 ]
      - [ 3.06167871e-01, 7.82693028e-02, 0., 0., 1.65006183e-02, 0., 0.,
          0., 0., 7.56184384e-02, 1.01137571e-01, 1.51640624e-01,
          5.88660948e-02, 3.06167871e-01, 1.96677502e-02, 3.06167871e-01,
          1.61596477e-01, 5.66074215e-02, 1.39381155e-01, 1.04683936e-01,
          2.22150031e-02, 0., 7.37930089e-03, 3.42164114e-02, 0.,
          2.26661712e-01, 1.64192483e-01, 1.56468749e-01, 3.06167871e-01,
          3.06167871e-01, 2.35517189e-01, 2.62655675e-01, 1.15505867e-01,
          1.08369514e-01, 3.06167871e-01, 2.73118526e-01 ]
      - [ 1.75801113e-01, 2.51021743e-01, 2.01139525e-01, 1.37600601e-01,
          2.01399818e-01, 0., 5.08924611e-02, 0., 9.14257914e-02,
          9.20679048e-02, 8.66992325e-02, 2.51021743e-01, 2.51021743e-01,
          2.51021743e-01, 1.84507012e-01, 7.35013932e-02, 7.09103271e-02,
          4.84305397e-02, 1.43655360e-01, 1.75457541e-02, 8.83117020e-02,
          2.51021743e-01, 2.51021743e-01, 1.45036876e-01, 2.51021743e-01,
          0., 2.14890726e-02, 2.35692218e-01, 2.51021743e-01,
          2.51021743e-01, 9.15569887e-02, 2.51021743e-01, 0., 0.,
          2.07062885e-01, 9.06153768e-02 ]
      - [ 2.52309620e-01, 2.04244211e-01, 1.59704581e-01, 1.25281692e-01,
          2.14091748e-01, 5.35137914e-02, 7.42553100e-02, 6.94731250e-02,
          0., 7.01953843e-02, 7.64902756e-02, 1.17405102e-01,
          2.52309620e-01, 2.52309620e-01, 1.38639361e-01, 1.49898201e-01,
          1.06527857e-01, 2.07035542e-02, 9.51884612e-02, 5.27552776e-02,
          7.83122554e-02, 1.67365909e-01, 2.52309620e-01, 2.52309620e-01,
          2.52309620e-01, 4.83840704e-02, 8.36768374e-02, 2.52309620e-01,
          2.52309620e-01, 2.52309620e-01, 2.52309620e-01, 8.66492838e-02,
          7.05605149e-02, 8.76194462e-02, 2.47273654e-01, 8.23034793e-02 ]
      - [ 1.30107567e-01, 2.39672408e-01, 2.63691485e-01, 2.04600513e-01,
          1.32505074e-01, 0., 0., 3.33245993e-02, 8.37919936e-02,
          1.68072402e-01, 1.75904855e-02, 2.70764410e-01, 2.70764410e-01,
          1.87734380e-01, 1.24213763e-01, 1.83638155e-01, 8.12922269e-02,
          0., 7.67051056e-02, 8.42255279e-02, 2.50543684e-01,
          2.70764410e-01, 1.84472159e-01, 2.23264158e-01, 7.01490045e-02,
          1.71941936e-01, 1.01244889e-01, 1.06151745e-01, 2.15833187e-01,
          2.70764410e-01, 1.34405747e-01, 1.36547983e-01, 0., 0.,
          6.82669953e-02, 2.68597484e-01 ]
      - [ 1.77305698e-01, 2.70000726e-01, 2.70000726e-01, 2.70000726e-01,
          2.70000726e-01, 3.15780044e-02, 5.13280220e-02, 0.,
          9.22082514e-02, 9.28558633e-02, 0., 8.42494220e-02,
          1.03517078e-01, 2.19571620e-01, 1.54508084e-01, 7.41304532e-02,
          7.15172067e-02, 4.88450304e-02, 1.76276028e-01, 1.76959187e-02,
          2.70000726e-01, 2.70000726e-01, 2.70000726e-01, 1.46278158e-01,
          2.70000726e-01, 0., 2.16729846e-02, 1.99093834e-01,
          2.70000726e-01, 1.83727488e-01, 9.23405811e-02, 4.08669747e-02,
          0., 0., 2.08835021e-01, 9.13909003e-02 ]
      - [ 1.83439165e-01, 2.49106988e-01, 1.03592768e-01, 0.,
          1.97749734e-02, 0., 0., 0., 9.53979790e-02, 5.33767268e-02,
          1.65424049e-01, 2.81715542e-01, 2.81715542e-01, 2.81715542e-01,
          1.92523301e-01, 1.29798412e-01, 7.39911720e-02, 5.05347066e-02,
          1.49896771e-01, 1.83080677e-02, 0., 1.25670806e-01,
          2.23406866e-01, 4.95784804e-02, 2.81715542e-01, 0.,
          2.24227104e-02, 3.99513505e-02, 2.81715542e-01, 2.81715542e-01,
          2.76924759e-01, 2.81715542e-01, 1.01759829e-01, 2.53463723e-02,
          2.16059163e-01, 9.45523530e-02 ]
      - [ 1.47467792e-01, 2.57442921e-01, 2.57442921e-01, 6.92976266e-02,
          0., 0., 3.02704517e-02, 0., 5.51832616e-02, 1.13614678e-01, 0.,
          2.57442921e-01, 2.30345652e-01, 1.94652826e-01, 2.57442921e-01,
          2.50106771e-02, 1.26796499e-01, 0., 2.57442921e-01,
          7.05015436e-02, 9.48102996e-02, 1.23597477e-02, 2.57442921e-01,
          5.59038259e-02, 2.57442921e-01, 6.68966770e-02, 2.00091839e-01,
          1.56141877e-01, 1.90911993e-01, 2.57442921e-01, 1.90229312e-01,
          2.57442921e-01, 0., 1.77670702e-01, 2.36492112e-01,
          7.86014348e-02 ]
      - [ 2.43792206e-01, 1.75191805e-01, 2.43792206e-01, 3.55854742e-02,
          4.70841601e-02, 0., 2.41293553e-02, 0., 5.01266718e-02,
          1.25802219e-01, 0., 2.43792206e-01, 2.43792206e-01,
          2.37819493e-01, 2.26367295e-01, 2.16872796e-01, 7.91057944e-02,
          6.04709983e-02, 2.43792206e-01, 6.43149614e-02, 7.94887468e-02,
          7.72962766e-03, 2.05418423e-01, 1.58381894e-01, 2.43792206e-01,
          1.00549527e-01, 1.95366785e-01, 1.55044168e-01, 8.25827941e-02,
          2.25142315e-01, 2.43792206e-01, 1.76677719e-01, 1.51423633e-01,
          1.62465513e-01, 1.79743662e-01, 2.13642821e-01 ]
      - [ 1.82238966e-01, 2.41099507e-01, 2.41099507e-01, 2.41106935e-02,
          4.66377884e-02, 0., 0., 2.34015249e-02, 4.83630076e-02,
          7.70392567e-02, 1.33761734e-01, 2.28559911e-01, 2.09136382e-01,
          2.41099507e-01, 2.41099507e-01, 4.77753356e-02, 1.59486085e-01,
          8.96314457e-02, 2.41099507e-01, 3.94112580e-02, 8.15589502e-02,
          7.62311369e-02, 1.81477204e-01, 1.45350590e-01, 2.34963819e-01,
          1.64614737e-01, 1.74921080e-01, 2.26618294e-02, 2.41099507e-01,
          2.41099507e-01, 2.41099507e-01, 2.41099507e-01, 2.93046106e-02,
          0., 2.41099507e-01, 2.04808265e-01 ]
      - [ 1.51907787e-01, 2.82772720e-01, 2.87014306e-01, 2.51718909e-01,
          1.57084465e-01, 2.14459553e-01, 3.11818402e-02, 0.,
          5.68447299e-02, 1.17035419e-01, 0., 7.98747241e-02,
          5.69461323e-02, 4.34289910e-02, 1.84934974e-01, 2.57637054e-02,
          1.30614117e-01, 0., 2.87014306e-01, 1.57130569e-01,
          1.64266631e-01, 2.08688632e-01, 2.87014306e-01, 5.75869903e-02,
          2.87014306e-01, 1.52840421e-01, 2.06116259e-01, 1.60843030e-01,
          1.12153657e-01, 2.87014306e-01, 0., 3.64353806e-02, 0.,
          1.83020055e-01, 1.59682870e-01, 8.09679851e-02 ]
      - [ 1.38175964e-01, 2.00203910e-01, 1.57231197e-01, 0., 0., 0., 0.,
          0., 0., 1.22771651e-01, 7.41620734e-02, 2.86772102e-01,
          2.86772102e-01, 1.94552287e-01, 2.86772102e-01, 5.52525744e-02,
          1.26731008e-01, 5.51547557e-02, 2.86772102e-01, 0., 0.,
          1.23533634e-02, 3.03764120e-02, 0., 1.94079489e-01,
          6.68621212e-02, 1.25211135e-01, 1.18512221e-01, 2.61278510e-01,
          2.86772102e-01, 1.90131053e-01, 2.86772102e-01, 5.58749475e-02,
          2.86772102e-01, 2.36369953e-01, 1.53338179e-01 ]
      - [ 2.49101892e-01, 2.49101892e-01, 2.49101892e-01, 8.27971175e-02,
          0., 0., 0., 0., 0., 1.73167691e-01, 1.84953809e-01,
          2.49101892e-01, 2.49101892e-01, 1.58963889e-01, 9.76180136e-02,
          2.12689593e-01, 1.03800774e-01, 0., 2.49101892e-01,
          1.16714060e-01, 0., 4.42681238e-02, 1.99531257e-01, 0.,
          2.13244557e-01, 1.66819066e-01, 1.97837710e-01, 2.01804146e-01,
          2.49101892e-01, 2.49101892e-01, 8.07792917e-02, 2.49101892e-01,
          0., 8.55397135e-02, 2.29681849e-01, 6.72048107e-02 ]
      - [ 2.50667900e-01, 2.50667900e-01, 2.50667900e-01, 6.94118887e-02,
          0., 0., 0., 0., 0., 5.74661978e-02, 1.99671313e-01,
          2.50667900e-01, 1.96623474e-01, 1.45193666e-01, 1.26470163e-01,
          1.43063962e-01, 1.59568027e-01, 1.36662453e-01, 2.50667900e-01,
          3.88295539e-02, 4.51023988e-02, 0., 1.92775220e-01,
          5.37355319e-02, 2.47415766e-01, 2.50667900e-01, 7.84647614e-02,
          2.10606828e-01, 1.48075014e-01, 2.50667900e-01, 6.55035898e-02,
          2.50667900e-01, 2.31793568e-01, 7.44523108e-02, 2.50667900e-01,
          7.31588528e-02 ]
      - [ 2.40984619e-01, 2.40984619e-01, 2.40984619e-01, 3.43947671e-02,
          0., 1.04423389e-02, 0., 0., 0., 2.40984619e-01, 2.40984619e-01,
          2.40984619e-01, 8.52160305e-02, 2.17339337e-01, 1.25326335e-01,
          1.68777168e-01, 1.69830605e-01, 3.62667739e-02, 2.40984619e-01,
          0., 3.85487750e-02, 1.14317648e-01, 1.03329808e-01,
          7.02148452e-02, 1.56536698e-01, 1.97856843e-01, 1.89751044e-01,
          1.84753329e-01, 2.40984619e-01, 2.40984619e-01, 2.40984619e-01,
          2.40984619e-01, 0., 0., 2.37493530e-01, 1.03416681e-01 ]
      - [ 2.91789412e-01, 2.91789412e-01, 2.91789412e-01, 2.68795341e-01,
          9.14466456e-02, 2.73582246e-02, 8.90641287e-02, 0., 0.,
          1.79893434e-01, 0., 0., 8.12060311e-02, 7.36913159e-02,
          7.40512311e-02, 1.31886229e-01, 1.07832350e-01, 0.,
          2.91789412e-01, 1.21247180e-01, 1.83811486e-01, 1.29904211e-01,
          2.91789412e-01, 0., 2.52613306e-01, 1.73298240e-01,
          2.05521628e-01, 1.48386285e-01, 2.76221544e-01, 1.87989339e-01,
          0., 7.65558332e-02, 0., 5.77756278e-02, 2.38602594e-01,
          6.98150098e-02 ]
      - [ 2.86119759e-01, 5.52363321e-02, 0., 0., 0., 0., 0., 0., 0.,
          1.70593411e-01, 2.86119759e-01, 2.86119759e-01, 2.86119759e-01,
          1.56600758e-01, 9.61668417e-02, 2.09527776e-01, 1.02257691e-01,
          0., 2.37603813e-01, 7.14361221e-02, 0., 0., 1.60572547e-02, 0.,
          0., 1.64339170e-01, 9.24633369e-02, 1.80597454e-01,
          2.86119759e-01, 2.86119759e-01, 1.23188488e-01, 2.86119759e-01,
          0., 2.86119759e-01, 2.26267442e-01, 1.68639094e-01 ]
      - [ 2.74000108e-01, 2.74000108e-01, 8.64622816e-02, 3.58056352e-02,
          0., 3.65896747e-02, 0., 0., 2.42358416e-01, 2.58845419e-01,
          2.23697886e-01, 0., 1.74303874e-01, 2.74000108e-01,
          1.68611616e-01, 0., 0., 1.50761873e-01, 2.74000108e-01,
          2.17609424e-02, 1.96274370e-02, 0., 2.20794201e-01,
          2.51248091e-01, 1.33266300e-01, 1.06804304e-01, 1.51458248e-01,
          5.92144728e-02, 2.06504732e-01, 2.74000108e-01, 1.22955620e-01,
          2.74000108e-01, 1.29481032e-01, 1.55335039e-01, 8.51437896e-02,
          8.87320116e-02 ]
      - [ 2.57766217e-01, 2.57766217e-01, 1.45617574e-01, 0.,
          5.35226949e-02, 3.25935595e-02, 0., 0., 5.28320782e-02,
          1.96693972e-01, 1.33831695e-01, 8.58924016e-02, 2.27582827e-01,
          1.87475532e-01, 1.57584086e-01, 1.35805920e-01, 4.24721353e-02,
          2.57766217e-01, 2.57766217e-01, 0., 0., 0., 1.92515761e-01,
          2.26268500e-01, 1.32694483e-01, 2.57766217e-01, 1.40892074e-01,
          2.36922845e-01, 1.79005831e-01, 1.56131670e-01, 2.57766217e-01,
          2.57766217e-01, 1.32808477e-01, 2.19896466e-01, 8.19275305e-02,
          0. ]
      - [ 2.58633673e-01, 2.58633673e-01, 5.02694063e-02, 3.88814211e-02,
          2.65907291e-02, 0., 0., 4.05450612e-02, 2.45846763e-01,
          2.58633673e-01, 2.14937061e-01, 5.31600378e-02, 2.06726328e-01,
          2.58633673e-01, 0., 9.77683291e-02, 1.07653677e-01,
          3.70640680e-02, 2.58633673e-01, 2.71153208e-02, 0., 0.,
          2.58284807e-01, 1.93110883e-01, 4.56096753e-02, 2.15002567e-01,
          1.98586360e-01, 2.05499053e-01, 2.33670413e-01, 2.58633673e-01,
          2.58633673e-01, 2.00085938e-01, 4.02337080e-03, 8.75846669e-02,
          6.89146817e-02, 9.41539481e-02 ]
      - [ 2.82214314e-01, 2.82214314e-01, 8.61567780e-02, 2.09367096e-01,
          2.10178316e-01, 2.04476237e-01, 0., 0., 2.82214314e-01,
          2.26512685e-01, 0., 0., 0., 1.13177359e-01, 0., 0., 0.,
          8.93071443e-02, 2.82214314e-01, 2.16840524e-02, 2.82214314e-01,
          1.22521169e-01, 2.82214314e-01, 2.50360340e-01, 1.32795423e-01,
          1.13810085e-01, 1.50923088e-01, 5.90052456e-02, 2.05775082e-01,
          2.82214314e-01, 0., 3.70669961e-02, 1.29023522e-01,
          1.54786184e-01, 7.74597824e-02, 8.84184912e-02 ]
      - [ 2.68270820e-01, 1.48277998e-01, 0., 0., 0., 0., 0., 0., 0.,
          2.83837467e-01, 2.83837467e-01, 8.38671252e-02, 2.03803077e-01,
          2.83837467e-01, 1.99042186e-01, 0., 0., 2.83837467e-01,
          2.83837467e-01, 0., 0., 0., 2.20538545e-02, 0., 7.28881583e-02,
          1.03598580e-01, 1.46912247e-01, 1.22005850e-01, 2.21414313e-01,
          2.83837467e-01, 1.19265117e-01, 2.83837467e-01, 2.83837467e-01,
          2.07050845e-01, 8.25882107e-02, 8.60687345e-02 ]
      - [ 2.53744125e-01, 2.53744125e-01, 2.01174632e-01, 0.,
          4.73007234e-03, 0., 0., 0., 7.40102008e-02, 1.73812553e-01,
          2.53744125e-01, 2.53744125e-01, 7.03833476e-02, 2.53744125e-01,
          6.71034232e-02, 2.53744125e-01, 0., 3.64581868e-02,
          2.53744125e-01, 0., 8.43106136e-02, 0., 1.71909764e-01,
          7.03091025e-02, 1.86831743e-01, 2.53744125e-01, 1.49866521e-01,
          2.53744125e-01, 2.53744125e-01, 2.53744125e-01, 6.95442408e-02,
          2.53744125e-01, 9.03195236e-03, 8.44730735e-02, 1.00124314e-01,
          1.39104471e-01 ]
      - [ 2.40639612e-01, 2.40639612e-01, 2.40639612e-01, 0., 0.,
          2.13601589e-02, 0., 0., 5.51154874e-02, 8.95039812e-02,
          2.40639612e-01, 2.40639612e-01, 5.85151091e-02, 2.17011288e-01,
          2.23743856e-01, 1.81937024e-01, 1.32915795e-01, 6.16490245e-02,
          2.40639612e-01, 3.39748301e-02, 7.82287493e-02, 0.,
          1.04621448e-01, 1.97636649e-01, 1.94723010e-01, 1.47364572e-01,
          2.17167571e-01, 1.36976868e-01, 2.40639612e-01, 2.36027747e-01,
          9.90610123e-02, 2.40639612e-01, 1.93196893e-01, 5.72409779e-02,
          1.52378812e-01, 2.40639612e-01 ]
      - [ 2.50368148e-01, 2.50368148e-01, 2.50368148e-01, 0., 0., 0., 0.,
          4.83608395e-02, 7.81294107e-02, 2.50368148e-01, 2.50368148e-01,
          7.21479431e-02, 9.36143696e-02, 2.50368148e-01, 9.09910947e-02,
          1.31540641e-01, 1.12715013e-01, 1.37449831e-01, 2.50368148e-01,
          7.23698288e-02, 9.18127690e-03, 1.10324487e-01, 7.77109489e-02,
          1.61666647e-01, 1.20666690e-01, 2.22569019e-01, 1.50094658e-01,
          2.50368148e-01, 2.50368148e-01, 2.50368148e-01, 1.86784506e-01,
          2.50368148e-01, 0., 7.72475600e-02, 3.63309644e-02,
          2.28937969e-01 ]
      - [ 2.75387734e-01, 2.75387734e-01, 2.75387734e-01, 7.14198798e-02,
          1.99430183e-01, 6.80916458e-02, 8.69022459e-02, 0.,
          1.12095244e-01, 1.54734507e-01, 6.88889027e-02, 0., 0.,
          9.13102552e-02, 0., 2.46740907e-01, 0., 0., 2.75387734e-01,
          1.53491005e-01, 1.83879793e-01, 7.05684125e-02, 2.75387734e-01,
          7.13445395e-02, 2.75300294e-01, 2.75387734e-01, 2.41080031e-01,
          2.75387734e-01, 2.21287727e-01, 1.90628901e-01, 0.,
          4.25768346e-02, 9.16496478e-03, 0., 1.01598829e-01,
          5.21465726e-02 ]
      - [ 2.71630287e-01, 0., 0., 0., 0., 0., 0., 0., 0., 2.31679767e-01,
          2.71630287e-01, 2.71630287e-01, 6.62530586e-02, 2.69707024e-01,
          6.31656051e-02, 2.71630287e-01, 0., 1.03985794e-01,
          2.63652325e-01, 0., 0., 0., 1.97215676e-02, 0., 0.,
          1.82923257e-01, 1.41071945e-01, 2.71630287e-01, 2.71630287e-01,
          2.71630287e-01, 6.54631928e-02, 2.71630287e-01, 7.46851042e-02,
          2.55383909e-01, 2.20527709e-01, 1.30941421e-01 ]
      - [ 1.56111524e-01, 4.70854640e-02, 2.22948074e-01, 2.18479380e-01,
          2.62094468e-01, 6.08448796e-02, 3.48760746e-02, 0.,
          1.97403599e-02, 7.20850797e-03, 5.39374352e-02, 1.55806065e-01,
          1.56911552e-01, 2.45418668e-01, 5.04654981e-02, 3.91403437e-02,
          1.81584898e-02, 3.10648438e-02, 2.38821164e-01, 2.62094468e-01,
          2.62094468e-01, 2.62094468e-01, 1.81361377e-01, 0.,
          1.21187665e-01, 1.29241213e-01, 1.29527420e-01, 2.62094468e-01,
          1.23641796e-01, 2.62094468e-01, 1.39256433e-01, 1.06445976e-01,
          2.62094468e-01, 2.06698433e-01, 1.81577563e-01, 1.12021863e-01 ]
      - [ 1.45301342e-01, 6.51765540e-02, 2.50794142e-01, 2.57567912e-01,
          2.57567912e-01, 1.77356347e-01, 6.48740679e-02, 2.54821405e-02,
          4.48082946e-02, 3.25100757e-02, 1.11758985e-01, 3.52538526e-02,
          6.37361258e-02, 2.57567912e-01, 5.55786304e-02, 4.40173671e-02,
          4.73608188e-02, 0., 2.57567912e-01, 1.93662345e-01,
          2.57567912e-01, 2.57567912e-01, 2.00573266e-01, 1.21845834e-01,
          1.26460433e-01, 1.44433349e-01, 5.13674356e-02, 2.57567912e-01,
          1.57802954e-01, 2.24784121e-01, 1.81575269e-01, 8.24910328e-02,
          2.53195256e-01, 9.26807672e-02, 1.62505165e-01, 1.91123009e-01 ]
      - [ 1.17701285e-01, 1.99146457e-02, 2.68459767e-01, 1.98672891e-01,
          2.68459767e-01, 3.84423211e-02, 0., 2.26128977e-02, 0.,
          7.79046938e-02, 3.27256918e-02, 2.01530576e-01, 1.66280121e-01,
          2.60471463e-01, 5.04428186e-02, 0., 4.60968278e-02, 0.,
          2.68459767e-01, 2.68459767e-01, 2.68459767e-01, 4.45115827e-02,
          1.13536462e-01, 0., 6.67228475e-02, 9.23602208e-02,
          1.87879741e-01, 2.28070349e-01, 2.65997708e-01, 2.68459767e-01,
          1.69403791e-01, 2.14301750e-01, 2.58769631e-01, 1.72932178e-01,
          6.63242117e-02, 4.61995713e-02 ]
      - [ 8.38861093e-02, 3.03297378e-02, 2.78117597e-01, 9.77501720e-02,
          2.78117597e-01, 4.64709364e-02, 0., 3.19432802e-02, 0.,
          7.50021115e-02, 1.46493524e-01, 4.00738381e-02, 8.40110891e-03,
          1.84090942e-01, 7.45450556e-02, 2.12955214e-02, 4.41885069e-02,
          3.36711779e-02, 1.38284221e-01, 2.47645140e-01, 2.78117597e-01,
          2.78117597e-01, 2.63808548e-01, 1.63489252e-01, 2.18638927e-01,
          1.44303247e-01, 1.66634411e-01, 2.78117597e-01, 1.19420066e-01,
          2.77276397e-01, 8.64570290e-02, 1.00812547e-01, 2.68676698e-01,
          1.73893154e-01, 1.90886512e-01, 0. ]
      - [ 2.22331271e-01, 3.29418667e-02, 7.24623874e-02, 1.49104655e-01,
          2.60967463e-01, 4.79746237e-02, 4.72470149e-02, 2.21602060e-02,
          0., 1.86182968e-02, 3.31315026e-02, 2.60967463e-01,
          1.65236101e-01, 2.47083500e-01, 0., 3.84623893e-02, 0.,
          3.16755101e-02, 2.60967463e-01, 2.60967463e-01, 2.60967463e-01,
          1.67520985e-01, 5.50505035e-02, 0., 1.04912974e-01,
          1.69356361e-01, 9.94234979e-02, 2.25513652e-01, 1.77725345e-01,
          2.60967463e-01, 2.60967463e-01, 2.03330472e-01, 2.40480304e-01,
          2.36715347e-01, 8.98852050e-02, 1.46866962e-01 ]
      - [ 2.22355574e-01, 2.75339931e-01, 2.75339931e-01, 0.,
          9.56212636e-03, 0., 0., 4.07297015e-02, 5.03716283e-02,
          9.04895887e-02, 1.22306734e-01, 2.75339931e-01, 2.21134007e-01,
          2.26853654e-01, 7.80579746e-02, 1.56260177e-01, 8.00179616e-02,
          0., 1.82314605e-01, 0., 0., 6.99172020e-02, 1.23271674e-01,
          2.58553743e-01, 1.71118811e-01, 2.05176637e-01, 2.62796551e-01,
          1.05009973e-01, 2.61663109e-01, 2.75339931e-01, 1.80067837e-01,
          2.44727567e-01, 6.31712452e-02, 0., 0., 2.14903146e-01 ]
      - [ 2.65353203e-01, 2.25654632e-01, 2.65353203e-01, 1.30945146e-01,
          1.26846135e-02, 0., 1.09478636e-02, 0., 1.08369619e-01,
          1.05120756e-01, 1.54347554e-01, 2.65353203e-01, 2.65353203e-01,
          2.17541382e-01, 1.09245688e-01, 1.31355762e-01, 9.07634199e-02,
          5.53413630e-02, 5.12659214e-02, 0., 0., 6.22867048e-02,
          9.37732831e-02, 1.09000646e-01, 2.65353203e-01, 2.65353203e-01,
          2.36608416e-01, 2.42941290e-01, 1.39536873e-01, 2.65353203e-01,
          2.65353203e-01, 2.21374214e-01, 5.64190485e-02, 1.35876611e-02,
          7.35722482e-02, 1.20326631e-01 ]
      - [ 2.71134436e-01, 2.71134436e-01, 2.29889587e-01, 1.17200930e-02,
          0., 0., 0., 0., 8.44432265e-02, 2.00385511e-01, 2.67558336e-01,
          2.71134436e-01, 6.74067810e-02, 2.44818822e-01, 6.27226681e-02,
          6.91752806e-02, 0., 1.91580087e-01, 1.59679353e-01, 0., 0.,
          5.96662052e-02, 1.33483410e-01, 2.63353884e-01, 2.04160124e-01,
          1.88998491e-01, 2.71134436e-01, 2.05320165e-01, 1.72121450e-01,
          2.71134436e-01, 2.48487651e-01, 1.34213358e-01, 2.24903915e-02,
          3.14352242e-03, 2.65194159e-02, 6.53940439e-02 ]
      - [ 2.02865705e-01, 3.09306502e-01, 3.09306502e-01, 1.59658670e-01,
          4.90662307e-02, 0., 0., 5.99441938e-02, 5.16944826e-02,
          8.79593939e-02, 1.25518739e-01, 1.04359917e-01, 6.72827289e-02,
          1.93558246e-01, 8.01079273e-02, 1.60363868e-01, 6.39745370e-02,
          0., 2.13660240e-01, 7.77132437e-02, 1.21062055e-01,
          1.77302897e-01, 3.09306502e-01, 2.87224382e-01, 1.75612703e-01,
          2.10564956e-01, 2.69698083e-01, 8.12100172e-02, 1.90821618e-01,
          3.09306502e-01, 7.92472288e-02, 3.78140807e-02, 4.29496765e-02,
          0., 0., 2.20546901e-01 ]
      - [ 1.54174238e-01, 2.65164852e-01, 1.60508603e-01, 0.,
          9.72674694e-03, 0., 0., 0., 5.12388200e-02, 1.20830230e-01,
          3.02207500e-01, 3.02207500e-01, 2.24941030e-01, 2.30759144e-01,
          7.94018134e-02, 1.58950329e-01, 1.22826442e-01, 0.,
          1.85453311e-01, 0., 0., 0., 4.86337347e-03, 7.10247606e-02,
          8.92828554e-02, 2.08708927e-01, 1.62074566e-01, 7.95559287e-02,
          2.05161691e-01, 3.02207500e-01, 2.54288763e-01, 3.02207500e-01,
          2.56238997e-01, 8.47819075e-02, 0., 2.09340066e-01 ]
      - [ 2.63995528e-01, 2.63995528e-01, 2.75914539e-02, 6.27776757e-02,
          9.55840759e-03, 0., 0., 0., 0., 1.43198907e-01, 1.38149798e-01,
          2.00171322e-01, 1.55813545e-01, 2.03175530e-01, 2.63995528e-01,
          1.02708034e-01, 2.29353845e-01, 1.39198422e-01, 2.63995528e-01,
          5.59882373e-02, 7.82885924e-02, 2.72015389e-02, 2.63995528e-01,
          1.10350735e-01, 1.60199791e-01, 1.06769130e-01, 2.01890647e-01,
          1.50433883e-01, 2.63995528e-01, 2.63995528e-01, 2.27996990e-01,
          1.98055208e-01, 1.35094211e-01, 2.13886481e-02, 7.42014498e-02,
          2.03831926e-01 ]
      - [ 1.38878688e-01, 2.55144089e-01, 2.55144089e-01, 4.95168865e-02,
          0., 0., 9.08356998e-03, 0., 0., 2.50119001e-01, 1.96460456e-01,
          1.00511864e-01, 1.43109635e-01, 2.11732686e-01, 1.84115872e-01,
          2.42408291e-01, 1.73861250e-01, 1.22168012e-01, 2.55144089e-01,
          9.25360769e-02, 1.11986045e-02, 1.09809702e-02, 2.55144089e-01,
          1.14836231e-01, 1.82129845e-01, 1.82427317e-01, 1.27080232e-01,
          1.45310506e-01, 1.31781176e-01, 2.55144089e-01, 1.95085943e-01,
          2.49389187e-01, 1.46811113e-01, 6.86041564e-02, 6.01039007e-02,
          2.55144089e-01 ]
      - [ 2.65270293e-01, 2.65270293e-01, 1.30317822e-01, 7.31911510e-02,
          1.24927489e-02, 0., 0., 0., 0., 1.83987141e-01, 2.22015217e-01,
          4.74510677e-02, 1.02211118e-01, 2.57013708e-01, 1.22171931e-01,
          2.65270293e-01, 2.65270293e-01, 1.28359556e-01, 2.65270293e-01,
          1.55439258e-01, 0., 1.17382511e-01, 1.60249859e-01,
          1.05057582e-01, 9.31270942e-02, 2.65270293e-01, 1.53163269e-01,
          2.01095343e-01, 2.65270293e-01, 1.82899401e-01, 2.65270293e-01,
          9.59212780e-02, 9.34896693e-02, 7.07868189e-02, 4.45952490e-02,
          1.25050828e-01 ]
      - [ 2.89624274e-01, 2.89624274e-01, 2.31494412e-01, 1.90313950e-01,
          1.43869892e-01, 1.77050129e-01, 0., 0., 7.74333924e-02,
          8.12247023e-02, 0., 0., 3.18586417e-02, 7.23494515e-02,
          1.24345526e-01, 1.04390793e-01, 2.33111545e-01, 6.40456453e-02,
          2.89624274e-01, 5.69055416e-02, 1.50974214e-01, 2.05063701e-01,
          2.89624274e-01, 1.69609174e-01, 1.84563562e-01, 1.08518414e-01,
          2.76967973e-01, 8.61273333e-02, 2.74045020e-01, 2.85300821e-01,
          5.43159731e-02, 4.80301827e-02, 7.98571035e-02, 0.,
          7.54171535e-02, 1.35401905e-01 ]
      - [ 2.44118646e-01, 2.58012980e-01, 0., 0., 0., 0., 0., 0., 0.,
          1.49497792e-01, 2.58012980e-01, 2.23065570e-01, 2.14083150e-01,
          2.08346665e-01, 2.58012980e-01, 1.00589864e-01, 2.24623814e-01,
          1.36327699e-01, 2.58012980e-01, 3.72485407e-02, 0., 0.,
          6.30704239e-02, 0., 1.28481686e-01, 1.04567200e-01,
          1.73326790e-01, 1.58175409e-01, 2.37458542e-01, 2.58012980e-01,
          2.49935508e-01, 2.58012980e-01, 2.40383089e-01, 4.93618026e-02,
          3.49735282e-02, 1.79743752e-01 ]
      - [ 4.70594168e-02, 5.39784171e-02, 5.81108555e-02, 0.,
          3.06553066e-01, 3.06553066e-01, 1.33608267e-01, 1.00866653e-01,
          0., 2.21510038e-01, 1.98016047e-01, 0., 0., 3.06553066e-01,
          3.06553066e-01, 2.01282978e-01, 9.81576145e-02, 4.04976346e-02,
          2.76403636e-01, 2.37018242e-01, 3.04943115e-01, 2.93263644e-02,
          1.13169504e-02, 0., 0., 6.33517876e-02, 1.20114274e-01,
          1.20651707e-01, 3.06553066e-01, 3.06553066e-01, 0., 0.,
          1.15065149e-03, 0., 0., 0. ]
      - [ 1.89897403e-01, 0., 1.29698321e-01, 2.09778547e-01,
          3.36290240e-01, 7.16207102e-02, 5.73460422e-02, 1.52172893e-02,
          5.93568571e-03, 1.27255276e-01, 3.36290240e-01, 0.,
          2.16695547e-01, 3.36290240e-01, 6.43468872e-02, 1.21649854e-01,
          1.58945486e-01, 9.39185023e-02, 2.89373368e-01, 3.36290240e-01,
          0., 0., 1.19574759e-02, 0., 0., 3.90317552e-02, 0.,
          3.36290240e-01, 3.36290240e-01, 9.47189257e-02, 0., 0.,
          6.78971782e-03, 0., 0., 7.26842955e-02 ]
      - [ 1.11150667e-01, 6.42758012e-02, 0., 0., 3.85426253e-01,
          2.28498623e-01, 7.38476068e-02, 4.94395494e-02, 0.,
          1.22516379e-01, 3.20243388e-01, 4.72406931e-02, 0.,
          3.85426253e-01, 2.84411460e-01, 1.85231015e-01, 3.22937742e-02,
          8.41133371e-02, 1.91089019e-01, 1.61468871e-02, 0., 0., 0., 0.,
          0., 0., 0., 3.85426253e-01, 3.85426253e-01, 2.05451608e-01,
          2.09849998e-02, 3.72043811e-02, 0., 0., 0., 7.25565031e-02 ]
      - [ 1.57351598e-01, 5.61434925e-02, 0., 1.88782677e-01,
          3.22842121e-01, 3.22842121e-01, 1.85194016e-01, 0., 0.,
          3.22842121e-01, 1.23097055e-01, 0., 9.22778547e-02,
          2.89655864e-01, 1.04254715e-01, 2.03360707e-01, 8.83892179e-02,
          5.32310270e-02, 2.09293023e-01, 3.22842121e-01, 3.47535759e-02,
          0., 8.65414590e-02, 0., 0., 1.58755854e-01, 1.37950927e-01,
          3.22842121e-01, 3.22842121e-01, 9.80628505e-02, 0., 0., 0., 0.,
          0., 0. ]
      - [ 5.00179157e-02, 5.17531559e-02, 2.52248421e-02, 1.46659195e-01,
          2.90152043e-01, 2.90152043e-01, 2.74666756e-01, 7.50553831e-02,
          4.27181013e-02, 2.07716167e-01, 2.38335595e-01, 0.,
          7.79718012e-02, 2.33918756e-01, 1.63077056e-01, 2.31392264e-01,
          6.86240122e-02, 2.90152043e-01, 1.27957091e-01, 2.90152043e-01,
          2.34609082e-01, 3.61821465e-02, 7.82922879e-02, 7.98774511e-02,
          1.08240619e-01, 7.88726583e-02, 1.59735963e-01, 2.44186491e-01,
          2.90152043e-01, 1.86785638e-01, 0., 0., 6.19011512e-03, 0., 0.,
          0. ]
      - [ 1.26636326e-01, 4.41506784e-03, 1.35710239e-01, 2.91369647e-01,
          2.91369647e-01, 2.91369647e-01, 1.89921334e-01, 0.,
          1.07202038e-01, 2.91369647e-01, 1.61818817e-01, 6.58991188e-02,
          1.08960897e-01, 1.98929384e-01, 8.90632942e-02, 1.14674769e-01,
          1.98628038e-01, 2.03176364e-01, 2.91369647e-01, 2.91369647e-01,
          0., 0., 0., 0., 4.27476987e-02, 0., 1.92934304e-01,
          2.91369647e-01, 2.91369647e-01, 6.66317865e-02, 0., 0., 0., 0.,
          0., 1.07300647e-01 ]
      - [ 2.05774397e-01, 1.22635201e-01, 0., 2.80005991e-01,
          3.38581622e-01, 3.38581622e-01, 1.82780564e-01, 0.,
          5.30313067e-02, 3.38581622e-01, 0., 0., 0., 8.65984932e-02,
          8.84990618e-02, 1.20547831e-01, 8.80575851e-02, 0.,
          3.38581622e-01, 3.38581622e-01, 1.32318094e-01, 0.,
          8.62167552e-02, 0., 0., 1.58160210e-01, 1.37433350e-01,
          1.83593869e-01, 3.38581622e-01, 0., 0., 0., 0., 0., 0., 0. ]
      - [ 1.04738966e-01, 5.53761795e-02, 0., 0., 2.33799979e-01,
          3.71779680e-01, 1.51752800e-01, 0., 0., 3.71779680e-01,
          1.21414691e-01, 0., 2.77219296e-01, 3.71779680e-01,
          1.02829866e-01, 2.31491551e-01, 8.71812031e-02, 5.25035225e-02,
          8.09929818e-02, 6.46855906e-02, 3.42785977e-02, 0., 0., 0., 0.,
          5.61471209e-02, 6.70781359e-02, 3.71779680e-01, 3.71779680e-01,
          9.67226252e-02, 0., 8.53586942e-02, 0., 0., 1.00439020e-01,
          6.89874291e-02 ]
      - [ 1.35897979e-01, 1.81898937e-01, 1.07555449e-01, 1.42585665e-01,
          3.19410801e-01, 1.03868954e-01, 0., 5.90496473e-02, 0.,
          3.19410801e-01, 2.42705822e-01, 0., 0., 3.19410801e-01, 0.,
          2.07888648e-01, 1.16525732e-01, 1.75713882e-01, 3.19410801e-01,
          3.19410801e-01, 0., 0., 0., 0., 0., 6.40206411e-02,
          7.99841434e-02, 3.19410801e-01, 3.19410801e-01, 0.,
          7.40138516e-02, 0., 0., 0., 0., 1.59861431e-01 ]
      - [ 1.38639197e-01, 6.81429952e-02, 7.02298805e-02, 1.38933480e-01,
          3.11714679e-01, 3.11714679e-01, 8.81409347e-02, 0.,
          5.67101836e-02, 3.11714679e-01, 2.35818788e-01, 0., 0.,
          1.16908111e-01, 3.11714679e-01, 1.99798152e-01, 6.17512427e-02,
          1.86204717e-01, 3.11714679e-01, 3.11714679e-01, 0., 0.,
          6.22057589e-03, 0., 5.06093279e-02, 0., 7.33930096e-02,
          3.11714679e-01, 3.11714679e-01, 7.59895667e-02, 0., 0., 0., 0.,
          0., 4.63050567e-02 ]
      - [ 1.56825706e-01, 1.10342495e-01, 0., 3.26433152e-01,
          3.26433152e-01, 6.49203211e-02, 5.89776859e-02, 0.,
          4.96259704e-02, 3.26433152e-01, 3.03911299e-01, 0.,
          2.35324442e-01, 2.24073157e-01, 1.08707748e-01, 1.10863596e-01,
          1.18667163e-01, 5.69011420e-02, 3.26433152e-01, 2.41597906e-01,
          0., 0., 6.30250480e-03, 0., 0., 6.41209781e-02, 6.82901591e-02,
          3.26433152e-01, 3.26433152e-01, 3.42050567e-02, 6.25723675e-02,
          1.50818983e-02, 0., 0., 0., 4.30075563e-02 ]
      - [ 2.51954854e-01, 2.89855599e-01, 1.05225928e-01, 1.39497444e-01,
          3.34162742e-01, 1.01619281e-01, 9.26323831e-02, 5.77707030e-02,
          7.81898797e-02, 3.34162742e-01, 1.25552744e-01, 0., 0.,
          1.42848462e-01, 0., 1.10753670e-01, 1.14001930e-01,
          9.37182456e-02, 3.34162742e-01, 3.34162742e-01, 0.,
          7.24107996e-02, 0., 0., 0., 6.26340359e-02, 2.34650820e-01,
          3.17562521e-01, 3.34162742e-01, 0., 0., 0., 0., 0., 0., 0. ]
      - [ 5.39557002e-02, 1.78012669e-01, 1.05257533e-01, 3.48431841e-02,
          3.78080189e-01, 0., 0., 5.77880554e-02, 0., 3.78080189e-01,
          2.37520427e-01, 0., 1.04696155e-01, 3.78080189e-01,
          1.01649798e-01, 2.03447133e-01, 1.14036173e-01, 1.71959773e-01,
          9.54122096e-02, 0., 0., 0., 0., 0., 0., 0., 0., 3.78080189e-01,
          3.78080189e-01, 0., 7.24325553e-02, 0., 0., 0., 6.26528487e-02,
          2.34721303e-01 ]
      - [ 1.64544180e-01, 8.64938200e-02, 1.78229790e-02, 1.14707664e-01,
          3.23673844e-01, 0., 0., 5.02623804e-02, 0., 3.23673844e-01,
          1.07238337e-01, 1.84317946e-01, 3.40739638e-02, 3.23673844e-01,
          1.07849613e-01, 1.23074815e-01, 2.49566749e-01, 4.41289209e-02,
          3.04523259e-01, 3.23673844e-01, 5.72215319e-02, 0.,
          3.15497816e-02, 0., 0., 0., 1.03442155e-01, 3.23673844e-01,
          3.23673844e-01, 2.73919642e-01, 2.17539314e-02, 0., 0., 0., 0.,
          0. ]
      - [ 1.89035729e-01, 0., 2.00298280e-01, 3.01779002e-01,
          3.01779002e-01, 1.11806616e-01, 3.34079452e-02, 3.44120823e-02,
          0., 3.01779002e-01, 2.17682198e-01, 1.00651167e-01,
          2.18947098e-01, 3.01779002e-01, 2.57686097e-02, 1.38680235e-01,
          8.86666998e-02, 1.59086645e-01, 3.01779002e-01, 2.76156664e-01,
          8.48699063e-02, 0., 0., 0., 0., 4.32950668e-02, 1.07865565e-01,
          3.01779002e-01, 3.01779002e-01, 8.88426378e-02, 3.23393233e-02,
          0., 0., 0., 0., 8.61208290e-02 ]
      - [ 2.21988708e-01, 1.95209399e-01, 1.17503636e-01, 1.15582325e-01,
          3.70937496e-01, 1.08671978e-01, 0., 1.79079458e-01, 0.,
          3.70937496e-01, 0., 8.61786529e-02, 3.43337841e-02,
          1.59625709e-01, 0., 1.24013275e-01, 1.23035908e-01,
          4.44654115e-02, 3.70937496e-01, 3.70937496e-01, 3.33666176e-01,
          2.19198093e-02, 3.17903534e-02, 0., 0., 0., 1.04230918e-01,
          2.95276046e-01, 1.17191635e-01, 0., 0., 0., 0., 0., 0., 0. ]
      - [ 1.56318933e-01, 8.52427557e-02, 1.75651833e-02, 1.13048509e-01,
          3.69958520e-01, 0., 0., 4.95353751e-02, 0., 3.69958520e-01,
          1.05687223e-01, 1.81651935e-01, 3.35811116e-02, 3.69958520e-01,
          1.06289648e-01, 1.21294633e-01, 2.45956957e-01, 4.34906296e-02,
          1.28037393e-01, 0., 0., 0., 0., 0., 0., 0., 0., 3.69958520e-01,
          3.69958520e-01, 3.26351464e-01, 2.14392785e-02, 3.10934391e-02,
          0., 0., 0., 1.01945944e-01 ]
      - [ 7.53210187e-02, 1.48089275e-01, 0., 4.17160541e-02,
          3.04156929e-01, 3.04156929e-01, 8.47738087e-02, 0., 0.,
          4.56879474e-02, 3.04156929e-01, 2.31114805e-01, 0.,
          3.04156929e-01, 3.04156929e-01, 1.26970068e-01, 1.17403775e-01,
          7.57862180e-02, 3.04156929e-01, 3.04156929e-01, 0.,
          1.60359610e-02, 0., 0., 0., 2.86282562e-02, 1.13053329e-01,
          3.04156929e-01, 3.04156929e-01, 1.59492582e-01, 0.,
          4.79367096e-03, 4.83468920e-03, 0., 6.68788282e-03,
          1.81576461e-02 ]
      - [ 7.41624534e-02, 8.19079056e-02, 2.59121470e-02, 3.87855411e-01,
          3.87855411e-01, 4.10415344e-02, 2.64803357e-02, 0.,
          2.74034101e-03, 1.18136242e-01, 3.87855411e-01, 3.88652943e-02,
          2.66779721e-01, 1.82855487e-01, 1.75536722e-01, 4.13732529e-02,
          1.09722532e-01, 8.82717595e-02, 3.87855411e-01, 1.20378062e-01,
          0., 0., 0., 0., 0., 0., 0., 3.87855411e-01, 1.46972090e-01,
          6.25922438e-03, 0., 0., 0., 0., 0., 1.54940173e-01 ]
      - [ 7.84317479e-02, 2.62253910e-01, 0., 3.10828052e-02,
          3.88269067e-01, 5.05417958e-02, 4.20454182e-02, 3.71573381e-02,
          3.85504365e-02, 1.76047489e-01, 3.41260463e-01, 1.28887296e-01,
          0., 2.91637987e-01, 1.45673931e-01, 7.04940706e-02,
          9.41990092e-02, 4.53712605e-02, 3.88269067e-01, 3.77157897e-01,
          0., 0., 2.23844964e-03, 0., 0., 1.38577428e-02, 3.60059924e-02,
          3.88269067e-01, 1.79984093e-01, 1.14033083e-02, 0., 0., 0., 0.,
          0., 4.64029387e-02 ]
      - [ 5.62883057e-02, 5.61037920e-02, 6.81682006e-02, 0.,
          3.26994359e-01, 3.26994359e-01, 1.51094779e-01, 5.87076694e-02,
          5.59305102e-02, 1.66600868e-01, 1.57096460e-01, 0.,
          8.00457690e-03, 2.09056750e-01, 3.26994359e-01, 1.09131642e-01,
          2.10901469e-01, 1.71511218e-01, 2.89158285e-01, 1.96729988e-01,
          3.26994359e-01, 0., 4.97552156e-02, 0., 0., 6.68245479e-02,
          6.30728751e-02, 4.97536547e-02, 3.26994359e-01, 3.26994359e-01,
          0., 5.27780084e-03, 0., 0., 0., 1.82716921e-02 ]
      - [ 9.58698541e-02, 7.58009255e-02, 9.81366336e-02, 3.33343476e-01,
          3.33343476e-01, 1.53298587e-01, 0., 7.09845498e-02, 0.,
          1.26520514e-01, 2.79141992e-01, 0., 1.28760219e-01,
          3.08384717e-01, 1.95131958e-01, 1.66161895e-01, 7.31310025e-02,
          2.28036702e-01, 1.94146290e-01, 3.33343476e-01, 3.35808955e-02,
          3.46314721e-02, 4.97217849e-02, 0., 0., 0., 1.40974373e-01,
          3.33343476e-01, 3.33343476e-01, 0., 0., 0., 0., 0.,
          1.71695855e-02, 0. ]
      - [ 5.25621697e-02, 1.84374556e-01, 0., 0., 3.76251101e-01,
          2.98702002e-01, 0., 1.55304700e-01, 0., 2.16984808e-01,
          1.44369096e-01, 0., 0., 1.08856231e-01, 7.97828138e-02,
          1.55213654e-01, 1.32806540e-01, 4.77126986e-02, 3.76251101e-01,
          3.76251101e-01, 3.76251101e-01, 0., 4.81633749e-03, 0., 0.,
          6.01007864e-02, 7.50903636e-02, 5.15490435e-02, 3.76251101e-01,
          0., 0., 0., 0., 0., 0., 0. ]
      - [ 1.29977271e-01, 9.66440961e-02, 0., 0., 3.75172019e-01,
          1.99274480e-01, 0., 9.19631720e-02, 0., 1.72378525e-01,
          2.34844208e-01, 0., 0., 3.75172019e-01, 1.82370275e-01,
          1.56509519e-01, 1.98553458e-01, 4.81110476e-02, 1.61281809e-01,
          4.50377800e-02, 0., 0., 0., 0., 0., 0., 7.57172853e-02,
          3.75172019e-01, 3.75172019e-01, 3.75172019e-01, 0.,
          4.85654874e-03, 0., 0., 6.06025606e-02, 0. ]
      - [ 9.82934162e-02, 1.60130113e-01, 4.52678725e-02, 3.91019732e-02,
          3.08513761e-01, 3.08513761e-01, 2.07565501e-01, 4.07652892e-02,
          4.09729555e-02, 1.00684255e-01, 3.08513761e-01, 2.45206788e-01,
          0., 3.08513761e-01, 3.08513761e-01, 8.06337297e-02,
          7.11491182e-02, 4.49206829e-02, 3.08513761e-01, 3.08513761e-01,
          0., 1.24812182e-02, 0., 0., 0., 0., 1.14120267e-01,
          2.18726575e-01, 3.08513761e-01, 9.09578726e-02, 0.,
          4.85353637e-03, 0., 0., 0., 9.25474614e-03 ]
      - [ 8.96359310e-02, 9.44410786e-02, 9.22273323e-02, 3.34751934e-01,
          3.34751934e-01, 1.64019257e-01, 3.88897620e-02, 2.83107907e-02,
          3.61854471e-02, 2.64199704e-01, 3.34751934e-01, 2.80858856e-02,
          2.76577562e-01, 2.17633009e-01, 1.23210281e-01, 3.61377895e-02,
          6.92058727e-02, 6.71850070e-02, 3.34751934e-01, 2.04467639e-01,
          0., 0., 0., 0., 0., 0., 9.70201567e-02, 3.34751934e-01,
          3.34751934e-01, 1.29729435e-02, 5.81830880e-03, 0., 0., 0., 0.,
          0. ]
      - [ 8.94965157e-02, 7.11492673e-02, 1.21136717e-01, 7.93004408e-02,
          3.71143728e-01, 1.19481511e-01, 3.85361090e-02, 5.36320731e-02,
          7.45174959e-02, 1.16959251e-01, 3.71143728e-01, 1.84057094e-02,
          5.64922243e-02, 3.71143728e-01, 2.97865748e-01, 3.55296470e-02,
          0., 7.66547769e-02, 3.71143728e-01, 2.88469549e-02, 0., 0., 0.,
          0., 0., 0., 0., 3.71143728e-01, 3.71143728e-01, 0., 0.,
          1.06043508e-02, 0., 0., 0., 3.56777832e-02 ]
      - [ 2.67492265e-01, 1.47093087e-01, 1.61794469e-01, 1.03393607e-01,
          3.89657795e-01, 2.23171130e-01, 7.88104013e-02, 4.47932296e-02,
          6.81054741e-02, 2.12538108e-01, 3.89657795e-01, 0.,
          1.18355909e-02, 5.29303728e-03, 7.87755698e-02, 1.74930006e-01,
          7.89794996e-02, 1.17671140e-01, 3.89657795e-01, 2.42705077e-01,
          0., 0., 0., 0., 8.86599475e-04, 0., 1.95007563e-01,
          3.89657795e-01, 2.80081201e-02, 0., 0., 0., 0., 0., 0., 0. ]
      - [ 3.39989901e-01, 1.38833061e-01, 5.58805205e-02, 5.22456840e-02,
          1.72902286e-01, 3.39989901e-01, 1.09267309e-01, 1.11130804e-01,
          6.75131604e-02, 2.12483138e-01, 3.39989901e-01, 5.32494001e-02,
          1.41573306e-02, 5.77970548e-03, 1.95974335e-01, 7.13941306e-02,
          6.74993917e-02, 2.50065088e-01, 3.39989901e-01, 3.39989901e-01,
          1.31797642e-02, 0., 4.11896072e-02, 0., 0., 5.97572811e-02,
          2.17425138e-01, 3.39989901e-01, 1.04624711e-01, 1.00107435e-02,
          0., 0., 0., 0., 0., 0. ]
      - [ 2.20474958e-01, 5.85554391e-02, 1.64726317e-01, 3.81334513e-01,
          3.81334513e-01, 7.08987117e-02, 1.16212860e-01, 1.38088092e-02,
          7.99237266e-02, 2.39950508e-01, 3.81334513e-01, 9.49555449e-03,
          1.11972038e-02, 5.48226060e-03, 1.58653647e-01, 0.,
          1.46513268e-01, 1.29997745e-01, 3.81334513e-01, 1.68626130e-01,
          6.12584129e-03, 0., 0., 0., 0., 0., 9.46288854e-02,
          3.81334513e-01, 2.86671109e-02, 0., 0., 0., 0., 0., 0.,
          9.50240493e-02 ]
      - [ 3.93171817e-01, 4.64063257e-01, 0., 4.70491722e-02,
          4.64063257e-01, 2.47596473e-01, 1.51500911e-01, 7.95733929e-02,
          1.31455839e-01, 1.14526644e-01, 1.06760859e-01, 1.19169755e-02,
          0., 2.04033460e-02, 0., 0., 4.20545563e-02, 5.58955669e-02,
          4.64063257e-01, 1.28511071e-01, 0., 0., 0., 0., 0., 0.,
          2.06853837e-01, 0., 0., 0., 0., 0., 0., 0., 0., 0. ]
      - [ 2.38817841e-01, 4.82927337e-02, 1.62717700e-01, 1.34028986e-01,
          3.67389768e-01, 1.56488970e-01, 7.04370514e-02, 6.46064878e-02,
          8.91812071e-02, 3.02549571e-01, 3.67389768e-01, 7.16291601e-03,
          1.24271084e-02, 1.97446629e-01, 1.60548389e-01, 2.35621005e-01,
          8.29267278e-02, 1.54038444e-01, 3.67389768e-01, 1.47947714e-01,
          0., 0., 0., 0., 0., 0., 2.93632094e-02, 3.67389768e-01,
          1.36295155e-01, 0., 0., 0., 0., 9.30909766e-04, 0.,
          1.75390407e-01 ]
      - [ 0., 0., 6.17838204e-02, 6.89056739e-02, 3.87668043e-01, 0.,
          4.83063497e-02, 7.07132444e-02, 0., 7.02086315e-02,
          1.24264389e-01, 0., 0., 3.01353604e-01, 3.87668043e-01,
          1.77339211e-01, 9.71836224e-02, 1.67751580e-01, 1.66785181e-01,
          1.41830638e-01, 3.87668043e-01, 0., 0., 0., 4.35622185e-02, 0.,
          0., 8.18346720e-03, 3.87668043e-01, 3.87668043e-01,
          4.72875796e-02, 1.47530567e-02, 0., 0., 0., 9.87074338e-03 ]
      - [ 0., 4.36752886e-02, 7.36488849e-02, 5.08140065e-02,
          3.55310678e-01, 3.55310678e-01, 3.42686884e-02, 6.65363222e-02,
          5.66845350e-02, 1.61122307e-01, 0., 0., 0., 6.74581975e-02,
          3.55310678e-01, 3.55310678e-01, 1.21532746e-01, 8.88351426e-02,
          1.47049949e-01, 9.28433537e-02, 3.55310678e-01, 8.73812363e-02,
          1.51495794e-02, 0., 4.77177761e-02, 8.11356120e-03,
          4.67493273e-02, 1.48697393e-02, 3.55310678e-01, 3.55310678e-01,
          2.52492987e-02, 2.97249034e-02, 0., 0., 0., 0. ]
      - [ 0., 0., 1.59617029e-02, 3.27309370e-01, 3.27309370e-01,
          2.91630998e-02, 0., 0., 4.93023843e-02, 2.39618778e-01,
          1.16819188e-01, 0., 4.27281521e-02, 3.27309370e-01,
          3.27309370e-01, 1.31898984e-01, 1.02403283e-01, 0.,
          2.21713766e-01, 3.27309370e-01, 2.87014663e-01, 0.,
          1.04326971e-01, 2.84430534e-02, 0., 0., 0., 4.47879732e-02,
          3.27309370e-01, 3.27309370e-01, 1.90817025e-02, 1.31571470e-02,
          0., 0., 0., 0. ]
      - [ 0., 0., 0., 0., 4.19825375e-01, 2.05144018e-01, 1.44060314e-01,
          0., 0., 5.58373109e-02, 1.28741622e-01, 0., 0., 7.16321543e-02,
          2.85266489e-01, 1.51456952e-01, 1.01865970e-01, 1.69839144e-01,
          1.52944297e-01, 3.79848242e-01, 4.19825375e-01, 8.17554295e-02,
          1.19591234e-02, 0., 0., 5.10136597e-02, 0., 8.55413172e-03,
          3.49625438e-01, 3.41677547e-01, 0., 0., 1.15588792e-02, 0., 0.,
          0. ]
      - [ 7.04983622e-02, 0., 6.35976270e-02, 7.09285587e-02,
          4.14466828e-01, 0., 4.97244895e-02, 7.27891922e-02, 0., 0.,
          5.98244071e-02, 0., 0., 4.14466828e-01, 4.14466828e-01,
          1.82545394e-01, 4.45850156e-02, 1.06824793e-01, 1.49931610e-01,
          9.78419781e-02, 1.73661113e-01, 0., 0., 0., 4.48410846e-02, 0.,
          0., 3.01736426e-02, 4.14466828e-01, 4.14466828e-01,
          4.86758128e-02, 3.69360968e-02, 0., 0., 0., 1.01605216e-02 ]
      - [ 5.80673106e-03, 0., 2.87436634e-01, 0., 5.41119426e-02, 0., 0.,
          0., 0., 0., 0., 0., 2.33168349e-01, 2.87436634e-01,
          2.87436634e-01, 1.32794023e-01, 0., 2.72543803e-02,
          2.87436634e-01, 8.71245414e-02, 1.06377661e-01, 0.,
          5.60102835e-02, 9.32400376e-02, 2.87436634e-01, 1.48885101e-01,
          1.21935397e-01, 2.16835260e-01, 2.66491234e-01, 2.87436634e-01,
          2.00499028e-01, 2.87436634e-01, 2.41404533e-01, 6.43438175e-02,
          2.27302060e-01, 7.65810981e-02 ]
      - [ 6.54539140e-03, 6.61909059e-02, 1.02759913e-01, 2.57987201e-01,
          6.62829205e-02, 0., 0., 0., 0., 0., 0., 0., 1.67796448e-01,
          2.57987201e-01, 2.08668068e-01, 2.16690153e-01, 0., 0.,
          2.57987201e-01, 1.96361747e-02, 2.57987201e-01, 1.73174776e-02,
          1.78823415e-02, 1.34083852e-01, 2.57987201e-01, 1.87096536e-01,
          1.20869391e-01, 2.57987201e-01, 2.57987201e-01, 2.57987201e-01,
          2.57987201e-01, 2.57987201e-01, 2.07237333e-01, 1.20772488e-01,
          2.33495042e-01, 1.25478208e-01 ]
      - [ 7.07357144e-03, 2.82942858e-02, 2.58769900e-01, 1.28947169e-01,
          3.25776972e-02, 0., 0., 0., 0., 1.95905156e-02, 0.,
          1.26244292e-01, 2.86009282e-01, 2.93296933e-01, 2.93296933e-01,
          1.46861374e-01, 5.64381145e-02, 0., 2.93296933e-01,
          7.59301111e-02, 2.12207157e-02, 4.16341163e-02, 1.05840847e-01,
          1.58888191e-01, 1.69665992e-01, 1.03338502e-01, 1.18897587e-01,
          2.93296933e-01, 2.93296933e-01, 2.93296933e-01, 2.38503709e-01,
          2.93296933e-01, 1.23925440e-01, 6.53292537e-02, 9.46956053e-02,
          7.73653686e-02 ]
      - [ 5.63339796e-03, 0., 2.64731616e-01, 2.26208180e-01,
          1.25648692e-01, 0., 0., 0., 0., 1.69001929e-02, 0., 0., 0.,
          2.15198085e-01, 2.64731616e-01, 1.50648117e-01, 5.71727455e-02,
          2.64408253e-02, 2.64731616e-01, 8.45238417e-02, 2.64731616e-01,
          4.47137095e-02, 2.14227334e-01, 2.64731616e-01, 2.64731616e-01,
          1.98082909e-01, 1.18295573e-01, 2.64731616e-01, 2.64731616e-01,
          2.64731616e-01, 1.49800345e-01, 1.74475729e-01, 4.08308916e-02,
          6.24231286e-02, 2.38271773e-01, 7.42951185e-02 ]
      - [ 6.82515698e-03, 0., 1.34263948e-01, 0., 6.82515698e-03, 0., 0.,
          0., 0., 0., 0., 1.72928169e-01, 3.01540315e-01, 3.01540315e-01,
          2.37531960e-01, 0., 0., 3.25943492e-02, 9.69488397e-02,
          1.79382205e-01, 0., 0., 9.65222903e-03, 2.55373996e-02,
          1.38119012e-01, 1.08785987e-01, 1.19005747e-01, 3.01540315e-01,
          1.36789247e-01, 3.01540315e-01, 3.01540315e-01, 3.01540315e-01,
          3.01540315e-01, 2.95340717e-01, 1.80615708e-01, 1.79026917e-01 ]
      - [ 4.59729321e-02, 1.71369806e-01, 2.77989239e-01, 2.77989239e-01,
          1.08723596e-01, 0., 0., 0., 0., 9.04614571e-03, 0., 0.,
          8.53720959e-03, 2.77989239e-01, 2.77989239e-01, 2.18792289e-01,
          9.10901204e-02, 4.10982594e-02, 1.22105420e-01, 9.90982950e-02,
          1.11228667e-01, 1.30800217e-01, 1.01813473e-01, 2.77989239e-01,
          2.77989239e-01, 1.22315481e-01, 2.08843023e-01, 1.29895106e-01,
          2.77989239e-01, 2.77989239e-01, 2.77989239e-01, 2.46465936e-01,
          2.53299307e-02, 0., 0., 4.20919769e-02 ]
      - [ 1.95278570e-01, 1.26466915e-01, 2.68273950e-01, 2.53748387e-01,
          2.73277760e-01, 1.08971298e-02, 5.22632711e-03, 1.82378315e-03,
          0., 0., 0., 0., 6.96127629e-03, 2.73277760e-01, 2.73277760e-01,
          2.73277760e-01, 9.13631693e-02, 2.50845291e-02, 8.83869827e-02,
          9.12089795e-02, 1.55045331e-01, 2.21269652e-01, 5.23013808e-02,
          1.16291620e-01, 2.73277760e-01, 2.39274979e-01, 1.36659294e-01,
          1.58620834e-01, 1.16617493e-01, 2.73277760e-01, 2.73277760e-01,
          2.36063406e-01, 1.32048149e-02, 7.83464778e-03, 0.,
          3.91637646e-02 ]
      - [ 2.34888606e-02, 1.58785939e-01, 3.04184526e-01, 3.04184526e-01,
          4.55737561e-02, 0., 0., 6.53074775e-03, 0., 3.99075598e-02, 0.,
          8.40637181e-03, 3.46659422e-02, 3.04184526e-01, 3.04184526e-01,
          2.33001590e-01, 3.69470678e-02, 9.85550135e-02, 1.72048435e-01,
          1.38775185e-01, 5.10000922e-02, 0., 2.11633354e-01,
          3.04184526e-01, 1.87762454e-01, 9.41768214e-02, 2.10199103e-01,
          1.68303251e-01, 3.04184526e-01, 3.04184526e-01, 1.52349919e-01,
          1.33826673e-01, 1.07043087e-02, 3.80054377e-02, 0.,
          2.49715708e-02 ]
      - [ 0., 9.06053334e-02, 1.99934825e-01, 2.73076713e-01,
          2.73076713e-01, 1.37523562e-01, 0., 0., 0., 4.07377221e-02, 0.,
          0., 8.61951336e-03, 5.46436869e-02, 2.73076713e-01,
          2.41815612e-01, 2.01380804e-01, 4.14944701e-02, 1.24960780e-01,
          1.74463063e-01, 2.21623480e-01, 2.47780472e-01, 2.73076713e-01,
          2.73076713e-01, 2.23206982e-01, 3.54450643e-02, 1.43617123e-01,
          2.26444378e-01, 2.73076713e-01, 2.73076713e-01, 1.53332666e-01,
          4.54702936e-02, 0., 0., 0., 1.77016407e-02 ]
      - [ 7.92831853e-02, 1.87224001e-01, 2.20779032e-01, 2.16312543e-01,
          1.36474997e-01, 0., 0., 0., 0., 0., 0., 1.15755029e-01,
          2.61111110e-01, 2.79463857e-01, 2.79463857e-01, 9.08918455e-02,
          5.57496510e-02, 5.75956292e-02, 2.15069249e-01, 7.26347715e-02,
          0., 1.28277943e-01, 2.31690761e-02, 2.76085287e-01,
          2.58079082e-01, 6.38598874e-02, 2.06034124e-01, 1.57997698e-01,
          1.74151301e-01, 2.79463857e-01, 2.79463857e-01, 2.79463857e-01,
          1.77534729e-01, 1.02400698e-01, 2.74216477e-02, 4.25358675e-02 ]
      - [ 2.26625979e-01, 2.46106863e-01, 2.54625887e-01, 1.29898995e-01,
          2.54625887e-01, 4.10252810e-02, 2.54625887e-01, 2.33583704e-01,
          2.52986401e-02, 2.54625887e-01, 1.07757658e-01, 2.08047763e-01,
