%YAML:1.0
---
opencv_ml_svm:
   format: 3
   svmType: C_SVC
   kernel:
      type: RBF
      gamma: 5.0000000000000003e-02
   C: 2.5000000000000000e+00
   term_criteria: { epsilon:1.1920928955078125e-07, iterations:1000 }
   var_count: 36
   class_count: 10
   class_labels: !!opencv-matrix
      rows: 10
      cols: 1
      dt: i
      data: [ 48, 50, 51, 53, 55, 57, 68, 74, 75, 80 ]
   sv_total: 249
   support_vectors:
      - [ 2.47292250e-01, 1.96733236e-01, 2.47292250e-01, 2.00744823e-01,
          1.01977371e-01, 0., 0., 0., 5.35661206e-02, 2.17976496e-01, 0.,
          0., 0., 2.47292250e-01, 1.67448372e-01, 2.47292250e-01,
          2.47292250e-01, 1.17667250e-01, 2.47292250e-01, 0., 0., 0.,
          2.47292250e-01, 5.97044565e-02, 1.88002765e-01, 2.47292250e-01,
          1.77939296e-01, 1.55024529e-01, 2.47292250e-01, 2.47292250e-01,
          2.26514816e-01, 2.12345317e-01, 0., 0., 8.84355456e-02,
          8.92801508e-02 ]
      - [ 1.93110883e-01, 2.53929734e-01, 2.36270130e-01, 1.04446597e-01,
          1.42959684e-01, 3.16093192e-02, 0., 1.27777178e-02, 0.,
          1.71896964e-01, 7.06598395e-03, 0., 2.22486090e-02,
          2.47027487e-01, 1.46209314e-01, 2.53929734e-01, 2.53929734e-01,
          9.44009498e-02, 1.95359558e-01, 4.18894701e-02, 2.01723482e-02,
          9.42015089e-03, 2.53929734e-01, 2.06319556e-01, 2.53929734e-01,
          2.49764219e-01, 1.65801167e-01, 2.53929734e-01, 1.93038628e-01,
          2.53929734e-01, 2.53929734e-01, 1.37562469e-01, 5.42829894e-02,
          0., 5.58057288e-03, 7.14673623e-02 ]
      - [ 2.48508438e-01, 2.48508438e-01, 2.46015579e-01, 2.48508438e-01,
          5.53320386e-02, 0., 0., 0., 1.38775408e-01, 1.44139677e-01, 0.,
          0., 0., 1.94322333e-01, 1.93671376e-01, 2.40977228e-01,
          2.48508438e-01, 1.84905142e-01, 2.48508438e-01, 1.41766258e-02,
          0., 0., 2.07091287e-01, 9.85088870e-02, 2.12247580e-01,
          2.48508438e-01, 1.84591651e-01, 1.53731734e-01, 2.48508438e-01,
          2.48508438e-01, 2.43429944e-01, 8.97423550e-02, 0., 0.,
          6.45246357e-02, 8.81759450e-02 ]
      - [ 2.57216066e-01, 2.09081590e-01, 2.57216066e-01, 2.13344976e-01,
          2.57216066e-01, 6.59589171e-02, 1.09720379e-01, 0.,
          5.69283031e-02, 2.07048118e-01, 0., 0., 0., 2.82142982e-02,
          1.11999676e-01, 2.30371267e-01, 2.57216066e-01, 1.25052869e-01,
          2.37100586e-01, 0., 1.14980295e-01, 1.97079852e-01,
          2.57216066e-01, 6.34519234e-02, 1.99803129e-01, 2.57216066e-01,
          1.89107999e-01, 1.64754942e-01, 2.57216066e-01, 2.57216066e-01,
          4.36526164e-02, 4.54637483e-02, 0., 0., 9.39863771e-02,
          9.48839933e-02 ]
      - [ 2.71969080e-01, 1.55834600e-01, 1.93884641e-01, 6.87297583e-02,
          2.40338556e-02, 0., 0., 0., 6.00473620e-02, 1.33092299e-01,
          6.47024140e-02, 1.64446115e-01, 1.56304210e-01, 2.71969080e-01,
          1.87708825e-01, 2.71969080e-01, 2.71969080e-01, 1.31904423e-01,
          2.71969080e-01, 0., 0., 0., 5.71846068e-02, 0., 1.37654066e-01,
          2.71969080e-01, 1.67960450e-01, 8.85865092e-02, 2.71969080e-01,
          2.71969080e-01, 2.53922015e-01, 2.71969080e-01, 6.69284090e-02,
          7.30961189e-02, 3.26343104e-02, 6.21681549e-02 ]
      - [ 2.58461893e-01, 2.58461893e-01, 2.58461893e-01, 6.80591092e-02,
          1.55108646e-01, 0., 0., 0., 9.21921153e-03, 1.33117810e-01, 0.,
          5.92309982e-02, 1.68585572e-02, 2.58461893e-01, 1.69051975e-01,
          2.58461893e-01, 2.58461893e-01, 3.35232727e-02, 2.58461893e-01,
          6.26032427e-02, 0., 0., 2.26325005e-01, 1.66773945e-01,
          2.06017271e-01, 2.58461893e-01, 5.32738008e-02, 1.09439209e-01,
          2.58461893e-01, 2.58461893e-01, 1.73907578e-01, 2.58402497e-01,
          4.59323125e-03, 0., 0., 1.21378981e-01 ]
      - [ 1.14487067e-01, 2.68591374e-01, 2.68591374e-01, 9.63366032e-02,
          1.23158865e-01, 0., 0., 0., 0., 5.01862466e-02, 2.00803000e-02,
          0., 9.16904397e-03, 2.05285102e-01, 1.85033172e-01,
          2.68591374e-01, 2.68591374e-01, 4.74511497e-02, 2.68591374e-01,
          0., 1.78737566e-02, 8.70097242e-03, 1.63253620e-01,
          2.56902784e-01, 2.68591374e-01, 2.68591374e-01, 2.89848652e-02,
          1.23637110e-01, 2.10378915e-01, 2.68591374e-01, 2.68591374e-01,
          2.45685130e-01, 5.72606586e-02, 0., 0., 1.20265126e-01 ]
      - [ 2.56982177e-01, 2.56982177e-01, 1.60759881e-01, 2.40011632e-01,
          8.78010616e-02, 0., 0., 0., 7.42944852e-02, 1.76227599e-01, 0.,
          0., 1.01590216e-01, 1.03310436e-01, 1.70407355e-01,
          2.56982177e-01, 2.56982177e-01, 6.40843138e-02, 2.56982177e-01,
          1.65819395e-02, 0., 1.71491820e-02, 1.42148003e-01,
          1.51436135e-01, 2.56982177e-01, 2.56982177e-01, 1.60646975e-01,
          2.44512796e-01, 2.56982177e-01, 2.56982177e-01, 2.56982177e-01,
          1.60274476e-01, 6.48597069e-03, 0., 9.44475085e-03,
          5.10608293e-02 ]
      - [ 2.74753660e-01, 2.74753660e-01, 2.74753660e-01, 8.97651911e-02,
          2.74753660e-01, 5.96400835e-02, 0., 0., 9.74549074e-03,
          1.29237548e-01, 0., 0., 0., 3.18430290e-02, 1.19062230e-01,
          2.74753660e-01, 2.74753660e-01, 3.54369506e-02, 2.17068180e-01,
          6.61769509e-02, 7.08794594e-02, 1.63140491e-01, 2.74753660e-01,
          1.76294237e-01, 2.17777774e-01, 2.74753660e-01, 5.63149340e-02,
          1.31224394e-01, 2.74753660e-01, 2.74753660e-01, 2.06946060e-02,
          3.60155702e-02, 4.85543581e-03, 0., 0., 1.28307894e-01 ]
      - [ 2.76904523e-01, 2.76904523e-01, 1.46453202e-01, 0.,
          1.60027035e-02, 0., 0., 0., 0., 8.12048912e-02, 1.26867712e-01,
          2.27370322e-01, 9.45947021e-02, 2.76904523e-01, 1.88316777e-01,
          2.76904523e-01, 2.01891065e-01, 4.76133302e-02, 2.76904523e-01,
          6.97373748e-02, 0., 0., 3.60981487e-02, 0., 1.51683152e-01,
          2.76904523e-01, 5.93447722e-02, 1.02397978e-01, 2.76904523e-01,
          2.76904523e-01, 1.93725720e-01, 2.76904523e-01, 1.90895811e-01,
          7.78114200e-02, 3.52682397e-02, 4.39818464e-02 ]
      - [ 2.49849111e-01, 2.33022064e-01, 1.17054835e-01, 1.96741238e-01,
          2.49849111e-01, 0., 0., 0., 1.73581302e-01, 6.08386248e-02, 0.,
          0., 0., 2.49849111e-01, 1.45135567e-01, 2.49849111e-01,
          2.49849111e-01, 2.10116401e-01, 1.01367109e-01, 7.64097879e-03,
          0., 0., 6.42004907e-02, 1.64808169e-01, 2.49849111e-01,
          2.49849111e-01, 2.49849111e-01, 2.40749955e-01, 2.49849111e-01,
          2.49849111e-01, 2.29115561e-01, 8.75633135e-02, 0., 0., 0.,
          1.01301633e-01 ]
      - [ 2.51069069e-01, 2.51069069e-01, 1.22595355e-01, 1.50599509e-01,
          2.15282008e-01, 6.08005784e-02, 1.53535800e-02, 0.,
          3.62825841e-02, 7.75786564e-02, 0., 0., 0., 1.77808389e-01,
          2.51069069e-01, 2.42080137e-01, 2.51069069e-01, 1.64103940e-01,
          2.51069069e-01, 0., 0., 2.89832614e-03, 5.75802550e-02,
          2.25904688e-01, 2.47942910e-01, 2.51069069e-01, 2.11181670e-01,
          2.51069069e-01, 2.51069069e-01, 2.51069069e-01, 2.26890117e-01,
          6.18195496e-02, 0., 0., 0., 6.69006482e-02 ]
      - [ 2.56467104e-01, 1.86943457e-01, 2.56467104e-01, 2.13545099e-01,
          1.89023972e-01, 0., 0., 2.72778459e-02, 5.38072474e-02,
          5.02490774e-02, 0., 0., 6.27532899e-02, 1.83893040e-01,
          1.64168850e-01, 2.56467104e-01, 2.56467104e-01, 2.25836903e-01,
          1.05348408e-01, 0., 5.84770367e-03, 0., 5.41763268e-02,
          1.31984025e-01, 2.56467104e-01, 2.56467104e-01, 2.56467104e-01,
          2.56467104e-01, 2.56467104e-01, 2.56467104e-01, 2.44893610e-01,
          6.77511245e-02, 0., 2.71749357e-03, 0., 8.96459818e-02 ]
      - [ 2.22188979e-01, 2.25981459e-01, 1.25936314e-01, 2.11668894e-01,
          2.60122448e-01, 1.32208556e-01, 5.92691414e-02, 1.17262229e-02,
          1.46319389e-01, 5.86845875e-02, 0., 0., 0., 7.21674860e-02,
          2.39391122e-02, 2.60122448e-01, 2.60122448e-01, 2.26058885e-01,
          2.13651732e-02, 8.22073407e-03, 1.19378142e-01, 1.92783833e-01,
          1.70048967e-01, 1.77312911e-01, 2.60122448e-01, 2.60122448e-01,
          2.60122448e-01, 2.60122448e-01, 2.60122448e-01, 2.60122448e-01,
          5.37157729e-02, 0., 0., 0., 0., 1.08987845e-01 ]
      - [ 2.64936000e-01, 2.64936000e-01, 7.22602904e-02, 8.97941068e-02,
          1.03453770e-01, 0., 0., 0., 1.97415635e-01, 5.87603822e-02, 0.,
          6.08672574e-02, 1.33961543e-01, 2.64936000e-01, 1.65064037e-01,
          2.64936000e-01, 2.48488948e-01, 1.24045514e-01, 1.11153819e-01,
          8.69015604e-03, 0., 0., 7.15672784e-03, 4.52631228e-02,
          2.13796526e-01, 2.64936000e-01, 2.64936000e-01, 1.15247019e-01,
          2.64936000e-01, 2.64936000e-01, 2.60575265e-01, 2.14012340e-01,
          1.42174751e-01, 1.33866131e-01, 1.17580697e-01, 8.27432871e-02 ]
      - [ 1.30599782e-01, 2.97737151e-01, 2.60766387e-01, 2.70359606e-01,
          2.43339315e-01, 5.61790951e-02, 1.50024652e-01, 4.43034954e-02,
          3.40215638e-02, 1.87005386e-01, 0., 0., 7.72089660e-02,
          2.98357010e-01, 2.98357010e-01, 1.71979964e-01, 1.19851679e-01,
          9.78471041e-02, 2.98357010e-01, 1.83692366e-01, 0., 0.,
          1.83828905e-01, 7.50797614e-02, 7.65646175e-02, 7.68517330e-02,
          1.29099980e-01, 2.98357010e-01, 2.98357010e-01, 1.25909671e-01,
          8.49290118e-02, 3.15997899e-02, 0., 0., 0., 0. ]
      - [ 2.58106202e-01, 2.97828406e-01, 2.30525091e-01, 1.09057344e-01,
          1.63404346e-01, 0., 7.59366229e-02, 1.41522706e-01,
          3.79093252e-02, 1.80249915e-01, 2.13911645e-02, 8.22707824e-03,
          0., 2.08385363e-01, 2.97828406e-01, 2.97828406e-01,
          1.29486293e-01, 8.47529992e-02, 2.97828406e-01, 2.97828406e-01,
          1.02815160e-03, 1.59798022e-02, 1.87946290e-01, 1.17583342e-01,
          1.58599943e-01, 1.03401229e-01, 4.56310622e-02, 2.97828406e-01,
          2.97828406e-01, 4.03727517e-02, 4.78727631e-02, 4.15527448e-02,
          0., 0., 9.64586530e-03, 5.94825810e-03 ]
      - [ 8.94785747e-02, 2.03049645e-01, 2.85697162e-01, 2.85697162e-01,
          2.70665288e-01, 6.63667172e-02, 1.20802566e-01, 4.76947390e-02,
          6.31126687e-02, 7.47431740e-02, 0., 0., 7.56465569e-02,
          2.85697162e-01, 2.85697162e-01, 1.10352024e-01, 1.25403702e-01,
          1.94375992e-01, 2.85697162e-01, 1.58249065e-01, 0.,
          3.21762785e-02, 9.95370150e-02, 5.57899959e-02, 4.67028171e-02,
          1.16078347e-01, 2.85697162e-01, 2.85697162e-01, 2.85697162e-01,
          2.17184976e-01, 1.30020723e-01, 5.26752360e-02, 0., 0., 0.,
          2.58540940e-02 ]
      - [ 1.10540666e-01, 2.36084282e-01, 2.13414326e-01, 3.23752970e-01,
          3.23752970e-01, 1.15294673e-01, 1.12783074e-01, 9.37929973e-02,
          3.63948494e-02, 1.82580039e-01, 0., 0., 0., 1.47204578e-01,
          3.23752970e-01, 1.93959370e-01, 8.21433365e-02, 1.59500167e-01,
          3.23752970e-01, 1.05327599e-01, 8.46755281e-02, 6.35471046e-02,
          2.29588225e-01, 8.24829638e-02, 4.23934571e-02, 3.50288413e-02,
          8.46711844e-02, 3.23752970e-01, 3.23752970e-01, 6.22217804e-02,
          2.78346911e-02, 0., 0., 0., 0., 0. ]
      - [ 2.34976560e-01, 2.73433119e-01, 1.50818735e-01, 1.01338081e-01,
          1.64611891e-01, 2.78496742e-02, 1.65668681e-01, 4.52997684e-02,
          3.38967368e-02, 1.56950250e-01, 0., 1.28324360e-01,
          2.67073601e-01, 3.06471914e-01, 3.06471914e-01, 8.58512595e-02,
          7.06851333e-02, 1.23108208e-01, 3.06471914e-01, 1.90065160e-01,
          0., 0., 0., 5.43674268e-02, 7.57903904e-02, 1.27714321e-01,
          1.66380331e-01, 3.06471914e-01, 3.06471914e-01, 8.04473385e-02,
          8.90472159e-02, 2.55172819e-01, 2.39968300e-02, 0., 0., 0. ]
      - [ 1.85749248e-01, 2.60344028e-01, 2.43883356e-01, 7.49552026e-02,
          1.35192022e-01, 0., 0., 4.64186706e-02, 7.81457275e-02,
          1.19393252e-01, 0., 0., 1.19350582e-01, 2.60344028e-01,
          1.15794703e-01, 7.41334930e-02, 2.60344028e-01, 1.94001302e-01,
          2.60344028e-01, 1.50561541e-01, 0., 0., 1.05342887e-01,
          1.49605021e-01, 2.60344028e-01, 7.00908303e-02, 2.14116648e-01,
          2.60344028e-01, 2.60344028e-01, 1.29821837e-01, 2.60344028e-01,
          2.32321814e-01, 0., 0., 3.28179896e-02, 2.60344028e-01 ]
      - [ 2.44391292e-01, 1.81162313e-01, 2.55300701e-01, 1.27266303e-01,
          3.93642895e-02, 7.04596937e-02, 4.73689381e-03, 0.,
          1.14098482e-01, 8.20189938e-02, 0., 0., 1.27005965e-01,
          2.55300701e-01, 1.47809952e-01, 1.99978158e-01, 2.55300701e-01,
          2.53142893e-01, 2.55300701e-01, 1.18526034e-01, 0.,
          3.03754434e-02, 6.36083558e-02, 1.78256691e-01, 2.55300701e-01,
          1.05917603e-01, 1.85062364e-01, 2.55300701e-01, 2.55300701e-01,
          1.96752012e-01, 3.24491933e-02, 2.55300701e-01, 1.71440803e-02,
          0., 0., 2.55300701e-01 ]
      - [ 1.54035240e-01, 2.78210938e-01, 1.16154343e-01, 1.43031985e-01,
          7.90103748e-02, 0., 0., 0., 1.57170281e-01, 6.42430186e-02, 0.,
          0., 2.12147653e-01, 2.16589853e-01, 9.14519727e-02,
          8.46802071e-02, 2.78210938e-01, 2.67787904e-01, 2.78210938e-01,
          8.42228830e-02, 0., 0., 3.58568095e-02, 2.20608279e-01,
          1.83260977e-01, 2.21217200e-01, 1.98323339e-01, 2.78210938e-01,
          1.84958890e-01, 1.43099979e-01, 2.78210938e-01, 1.73470929e-01,
          0., 0., 0., 2.78210938e-01 ]
      - [ 1.83421627e-01, 2.56875068e-01, 2.40649372e-01, 1.91729203e-01,
          2.56875068e-01, 1.14259228e-01, 0., 1.11689314e-01,
          7.71094859e-02, 1.17674552e-01, 0., 0., 0., 7.00499788e-02, 0.,
          7.31504560e-02, 2.56875068e-01, 1.91428766e-01, 2.56875068e-01,
          2.18186721e-01, 9.49129760e-02, 1.36610791e-01, 2.56875068e-01,
          1.47621199e-01, 2.56875068e-01, 6.91614002e-02, 2.56875068e-01,
          2.56875068e-01, 2.35798866e-01, 3.31873856e-02, 1.65735051e-01,
          0., 0., 0., 3.23828086e-02, 2.53986448e-01 ]
      - [ 1.92634374e-01, 2.03379676e-01, 1.44183382e-01, 0.,
          1.78179592e-02, 0., 0., 4.91281524e-02, 5.76730818e-02,
          5.15370034e-02, 1.14261538e-01, 1.13935590e-01, 2.05647513e-01,
          2.74230540e-01, 1.22553714e-01, 7.84607083e-02, 2.74230540e-01,
          2.30359331e-01, 2.74230540e-01, 3.15547958e-02, 0., 0., 0.,
          4.57751602e-02, 1.64298639e-01, 7.41820782e-02, 1.87835604e-01,
          2.74230540e-01, 2.74230540e-01, 1.37399614e-01, 2.74230540e-01,
          2.74230540e-01, 1.12562388e-01, 2.13118240e-01, 0.,
          2.74230540e-01 ]
      - [ 3.57095003e-02, 1.34459510e-01, 2.82649368e-01, 2.70234138e-01,
          2.82649368e-01, 4.64183688e-02, 2.08987184e-02, 4.90456447e-02,
          7.99790397e-02, 1.86105788e-01, 1.28149241e-01, 2.82649368e-01,
          9.32376981e-02, 2.82649368e-01, 1.69026721e-02, 1.24624588e-01,
          0., 7.16209561e-02, 1.81992814e-01, 1.18370563e-01,
          2.82649368e-01, 1.34018987e-01, 2.82649368e-01, 1.56268880e-01,
          1.59220546e-01, 0., 1.68958567e-02, 5.43391481e-02,
          7.78541490e-02, 2.08326429e-01, 2.82649368e-01, 2.82649368e-01,
          6.06392249e-02, 0., 7.18404278e-02, 0. ]
      - [ 3.33967023e-02, 6.61065653e-02, 2.74413407e-01, 2.74413407e-01,
          2.74413407e-01, 1.11762777e-01, 7.61101842e-02, 5.22546768e-02,
          9.43721905e-02, 9.10134092e-02, 1.71905935e-01, 2.64213294e-01,
          1.12693138e-01, 2.74413407e-01, 2.58968472e-01, 8.71753022e-02,
          1.50626138e-01, 4.08347584e-02, 1.37702256e-01, 1.60111189e-01,
          1.78477988e-01, 9.95862260e-02, 2.74413407e-01, 1.36447027e-01,
          2.74413407e-01, 7.87633508e-02, 2.61204597e-02, 4.60280031e-02,
          4.20279615e-02, 8.66902769e-02, 2.74413407e-01, 2.74413407e-01,
          9.20561254e-02, 7.72775039e-02, 7.13424906e-02, 0. ]
      - [ 5.37799858e-02, 2.00981885e-01, 2.72126675e-01, 2.72126675e-01,
          2.72126675e-01, 7.74768069e-02, 5.00524277e-03, 7.17279390e-02,
          3.06937583e-02, 1.23806946e-01, 2.42517039e-01, 2.46075198e-01,
          1.16801150e-01, 2.72126675e-01, 9.09678340e-02, 7.17229545e-02,
          4.78993095e-02, 1.18802063e-01, 1.92176476e-01, 2.54302651e-01,
          2.25923747e-01, 1.60828531e-01, 2.25360319e-01, 2.09779292e-01,
          0., 6.92224652e-02, 4.75510508e-02, 2.40849555e-02,
          9.56357196e-02, 2.72126675e-01, 2.72126675e-01, 1.55500278e-01,
          0., 0., 5.51037602e-02, 6.94006309e-02 ]
      - [ 4.27084081e-02, 9.25435424e-02, 3.01943362e-01, 3.01943362e-01,
          3.01943362e-01, 5.52404895e-02, 0., 5.05443737e-02,
          7.58626834e-02, 1.49084374e-01, 1.32065207e-01, 2.48245999e-01,
          0., 1.74949944e-01, 1.00155026e-02, 1.28432840e-01, 0.,
          3.25330608e-02, 4.69497405e-02, 1.21987708e-01, 3.01943362e-01,
          3.01943362e-01, 3.01943362e-01, 1.61044121e-01, 1.64085984e-01,
          1.89854577e-02, 1.74121577e-02, 8.76435637e-02, 9.32747126e-02,
          7.16473982e-02, 3.01943362e-01, 3.01943362e-01, 6.24922290e-02,
          0., 5.50502650e-02, 1.66827478e-02 ]
      - [ 3.85290273e-02, 1.04584128e-01, 1.66514575e-01, 2.80842751e-01,
          1.79901540e-01, 4.82337549e-02, 2.17160489e-02, 5.14990911e-02,
          4.86042202e-02, 1.37761340e-01, 1.67433619e-01, 3.33928466e-01,
          9.68841463e-02, 3.33928466e-01, 1.77101102e-02, 1.28650367e-01,
          0., 1.09870590e-01, 1.89110413e-01, 6.68875352e-02,
          3.10641378e-01, 8.34332220e-03, 8.34526047e-02, 1.62796721e-01,
          1.61338106e-01, 0., 1.75566394e-02, 0., 5.61123975e-02,
          3.30596119e-01, 3.33928466e-01, 3.33928466e-01, 0.,
          3.80692794e-03, 1.91429947e-02, 0. ]
      - [ 1.11306354e-01, 2.05643147e-01, 0., 5.31249642e-02,
          3.83529812e-02, 1.92723140e-01, 2.40883633e-01, 0.,
          7.48748556e-02, 2.48951420e-01, 2.48951420e-01, 0., 0.,
          5.12513239e-03, 3.39962840e-02, 2.48951420e-01, 1.97014824e-01,
          1.61824390e-01, 1.50265291e-01, 2.03901231e-01, 2.48951420e-01,
          2.48951420e-01, 2.48951420e-01, 1.00114085e-01, 6.40128851e-02,
          0., 6.75266758e-02, 1.91539943e-01, 2.48951420e-01,
          1.61310866e-01, 2.48951420e-01, 2.48951420e-01, 1.97043002e-01,
          1.46714866e-01, 6.58145323e-02, 7.77994320e-02 ]
      - [ 2.22846150e-01, 8.47646073e-02, 1.51985601e-01, 0.,
          3.37059274e-02, 2.45401844e-01, 7.48760179e-02, 9.05477479e-02,
          3.38830054e-02, 2.45401844e-01, 2.44226754e-01, 5.93037270e-02,
          0., 0., 1.13132186e-02, 2.45401844e-01, 2.45401844e-01,
          1.24574140e-01, 1.84072122e-01, 1.07288130e-01, 1.81458384e-01,
          2.45401844e-01, 2.45401844e-01, 2.45401844e-01, 1.11725427e-01,
          4.57734168e-02, 0., 1.29193500e-01, 2.41097674e-01,
          2.18015522e-01, 1.05212040e-01, 2.45401844e-01, 2.45401844e-01,
          1.80089429e-01, 8.54811519e-02, 1.30765915e-01 ]
      - [ 1.82138652e-01, 1.33891314e-01, 6.71202615e-02, 0.,
          1.69487432e-01, 1.74752951e-01, 1.37442738e-01, 1.46410003e-01,
          6.84217215e-02, 2.53539830e-01, 2.17700869e-01, 1.85823385e-02,
          0., 5.49861975e-03, 0., 2.53539830e-01, 2.31687605e-01,
          1.68137431e-01, 6.81051686e-02, 2.53539830e-01, 2.53539830e-01,
          2.53539830e-01, 2.53539830e-01, 7.10791200e-02, 6.36708438e-02,
          6.01080544e-02, 6.52993098e-02, 1.24311291e-01, 2.53539830e-01,
          1.11421071e-01, 2.53539830e-01, 2.53539830e-01, 2.48235121e-01,
          1.35502052e-02, 8.84971321e-02, 1.12849109e-01 ]
      - [ 2.28095159e-01, 2.69709975e-01, 0., 5.36383353e-02,
          3.87236029e-02, 2.28910327e-01, 2.69709975e-01, 0.,
          1.63422078e-01, 2.16609403e-01, 1.54711172e-01, 0., 0.,
          5.17465919e-03, 0., 4.26713303e-02, 1.98918670e-01,
          7.55644813e-02, 7.47913346e-02, 2.69709975e-01, 2.69709975e-01,
          2.69709975e-01, 2.69709975e-01, 1.83042705e-01, 2.12764114e-01,
          0., 1.30366758e-01, 1.93390891e-01, 1.19176432e-01,
          8.21451694e-02, 2.43353844e-01, 2.69709975e-01, 1.16985939e-01,
          0., 6.64505288e-02, 1.63637083e-02 ]
      - [ 5.61972074e-02, 8.20183828e-02, 0., 0., 3.91855575e-02, 0.,
          6.45585507e-02, 0., 4.02214751e-02, 2.94522822e-01,
          2.94522822e-01, 0., 5.42782135e-02, 5.23639005e-03,
          2.31641114e-01, 2.94522822e-01, 2.01291665e-01, 2.01616079e-01,
          1.53527290e-01, 0., 2.49515086e-01, 2.14285269e-01,
          1.40643477e-01, 1.02287389e-01, 6.54024929e-02, 0.,
          3.72653715e-02, 9.18584615e-02, 2.94522822e-01, 2.69608110e-01,
          2.94522822e-01, 2.94522822e-01, 2.01320454e-01, 1.49899796e-01,
          1.95374656e-02, 1.11215517e-01 ]
      - [ 6.45544827e-02, 0., 2.67937988e-01, 2.67937988e-01,
          2.49946728e-01, 1.13220789e-01, 0., 2.96897404e-02,
          5.39836399e-02, 1.70234546e-01, 2.11261898e-01, 2.45437056e-01,
          2.50639440e-03, 1.54058516e-01, 1.67015284e-01, 2.67564148e-01,
          2.68115196e-02, 1.11788802e-01, 9.34658796e-02, 2.14809299e-01,
          2.67937988e-01, 1.14624193e-02, 2.26906702e-01, 7.62931332e-02,
          2.67937988e-01, 4.12061177e-02, 9.12537649e-02, 0.,
          1.06657185e-01, 2.67937988e-01, 2.67937988e-01, 2.67937988e-01,
          8.98424163e-02, 0., 4.61279973e-02, 0. ]
      - [ 1.07179672e-01, 4.31292281e-02, 2.67138898e-01, 2.67138898e-01,
          2.67138898e-01, 1.02593854e-01, 6.64267763e-02, 5.63998334e-02,
          5.90907829e-03, 7.51841366e-02, 9.20849815e-02, 2.67138898e-01,
          0., 1.84833631e-01, 1.26555443e-01, 2.67138898e-01,
          5.78561798e-02, 1.87060043e-01, 5.03187813e-02, 1.14659190e-01,
          2.67138898e-01, 1.86186004e-02, 2.16026530e-01, 9.98065099e-02,
          2.67138898e-01, 1.41587317e-01, 1.27596006e-01, 0.,
          4.87708561e-02, 2.41728693e-01, 2.67138898e-01, 2.67138898e-01,
          2.18694910e-01, 5.34247644e-02, 3.41154970e-02, 4.40481342e-02 ]
      - [ 6.53342158e-02, 1.84537113e-01, 2.89512902e-01, 2.89512902e-01,
          1.72120318e-01, 4.14553098e-02, 3.54806557e-02, 4.57512103e-02,
          5.26076928e-02, 1.66885301e-01, 2.76706249e-01, 2.26992264e-01,
          5.61499037e-03, 8.39433223e-02, 2.89512902e-01, 1.48262128e-01,
          7.61018172e-02, 9.18970332e-02, 1.47123143e-01, 2.89512902e-01,
          8.54703858e-02, 0., 1.46326065e-01, 1.80188194e-01,
          1.88047573e-01, 7.09674731e-02, 9.62825939e-02, 8.49681795e-02,
          1.67130604e-01, 2.89512902e-01, 2.89512902e-01, 2.05913588e-01,
          9.44708139e-02, 2.38605998e-02, 5.02395369e-02, 0. ]
      - [ 5.46105802e-02, 1.35720652e-02, 2.67928749e-01, 2.67928749e-01,
          2.67928749e-01, 2.02506125e-01, 9.52980593e-02, 3.13131586e-02,
          9.55472514e-02, 1.31548211e-01, 2.09241539e-01, 1.51724622e-01,
          0., 3.15504484e-02, 9.30531174e-02, 1.86896339e-01,
          2.82775611e-02, 7.92895481e-02, 4.43461128e-02, 2.26554960e-01,
          2.67928749e-01, 2.67928749e-01, 2.67928749e-01, 1.20996475e-01,
          2.67928749e-01, 4.34592515e-02, 9.62434784e-02, 5.93973659e-02,
          1.12489149e-01, 2.32826754e-01, 2.67928749e-01, 2.67928749e-01,
          5.42232841e-02, 0., 4.86502536e-02, 0. ]
      - [ 6.97551742e-02, 0., 1.53864786e-01, 1.85398251e-01,
          1.31324768e-01, 9.49225426e-02, 0., 3.20816264e-02,
          5.66789731e-02, 7.04881325e-02, 2.28281736e-01, 3.09572279e-01,
          2.02564150e-01, 3.05228263e-01, 2.07890108e-01, 2.89119840e-01,
          2.89715286e-02, 1.22448541e-01, 5.55613227e-02, 2.32114911e-01,
          1.52110934e-01, 0., 3.19247730e-02, 0., 2.87943065e-01,
          4.45257984e-02, 5.67567386e-02, 4.54344265e-02, 1.62268393e-02,
          3.09572279e-01, 3.09572279e-01, 3.09572279e-01, 1.23965889e-01,
          2.54368670e-02, 0., 4.18486744e-02 ]
      - [ 3.67280282e-02, 1.34348080e-01, 1.46371678e-01, 0.,
          2.92845130e-01, 2.75022089e-01, 0., 0., 6.21274486e-02,
          2.07504898e-01, 1.99733973e-01, 5.77157252e-02, 0.,
          2.92845130e-01, 2.92845130e-01, 1.72352523e-01, 1.24941804e-01,
          8.12831447e-02, 1.71381176e-01, 1.46368280e-01, 1.45130917e-01,
          2.23313704e-01, 1.26232967e-01, 1.86929479e-01, 7.97975585e-02,
          5.59155941e-02, 3.29385661e-02, 1.96230263e-01, 2.08228361e-02,
          2.92845130e-01, 2.17712179e-01, 2.92845130e-01, 1.95827797e-01,
          6.13017380e-02, 3.24673392e-02, 0. ]
      - [ 8.79406556e-02, 8.31765756e-02, 1.47155300e-01, 0.,
          2.73200333e-01, 2.73200333e-01, 2.25182306e-02, 8.73795450e-02,
          0., 2.23287791e-01, 1.34741113e-01, 0., 0., 1.34494960e-01,
          2.73200333e-01, 2.59063154e-01, 2.09407464e-01, 7.32316971e-02,
          1.26578853e-01, 1.68277338e-01, 1.24389470e-01, 2.61230528e-01,
          4.11240682e-02, 2.73200333e-01, 9.37975571e-02, 6.29372299e-02,
          8.94822702e-02, 1.40540272e-01, 2.48585925e-01, 2.73200333e-01,
          2.30514988e-01, 9.09241289e-02, 2.47860149e-01, 1.31762579e-01,
          7.58063123e-02, 4.38753515e-02 ]
      - [ 5.59410267e-02, 1.29806876e-01, 7.18342662e-02, 2.82498062e-01,
          2.82498062e-01, 5.63144460e-02, 4.39997651e-02, 0.,
          6.41178340e-02, 1.61578417e-01, 2.39767537e-01, 1.33264467e-01,
          1.09553456e-01, 2.82498062e-01, 1.82619452e-01, 1.49323374e-01,
          9.59320962e-02, 6.84784725e-02, 1.47103027e-01, 1.52869463e-01,
          2.82498062e-01, 6.14091977e-02, 2.03893006e-01, 9.90412533e-02,
          5.27994260e-02, 9.15234536e-02, 6.45287782e-02, 1.74759746e-01,
          2.82498062e-01, 2.81743169e-01, 2.82498062e-01, 2.27391869e-01,
          1.46908805e-01, 6.22592382e-02, 2.51484495e-02, 2.65881885e-02 ]
      - [ 0., 1.06251560e-01, 1.45689696e-01, 0., 3.09272230e-01,
          3.09272230e-01, 0., 0., 1.54735241e-02, 2.06538066e-01,
          1.44861177e-01, 5.74468113e-02, 0., 2.17903763e-01,
          6.66339993e-02, 1.71549469e-01, 1.24359667e-01, 8.09044242e-02,
          2.13115364e-01, 1.45686299e-01, 3.09272230e-01, 2.87626565e-01,
          3.09272230e-01, 2.20141634e-01, 7.94257522e-02, 8.79711285e-02,
          3.27850953e-02, 1.48836464e-01, 2.07258165e-02, 3.09272230e-01,
          1.51344493e-01, 1.75102219e-01, 1.60832271e-01, 6.10161163e-02,
          0., 0. ]
      - [ 3.88983674e-02, 1.42287001e-01, 1.55021101e-01, 0.,
          3.39045197e-01, 5.88452592e-02, 0., 0., 6.57986924e-02,
          6.94042584e-03, 1.41894266e-01, 6.11262731e-02, 0.,
          3.39045197e-01, 3.39045197e-01, 1.47652715e-01, 6.66705519e-02,
          2.08995156e-02, 1.81508467e-01, 1.55017495e-01, 7.28340223e-02,
          3.46307606e-02, 1.14735113e-02, 8.05675909e-02, 6.98263571e-02,
          5.92197664e-02, 0., 1.13565437e-01, 2.20533032e-02,
          3.39045197e-01, 3.39045197e-01, 3.39045197e-01, 3.24807614e-01,
          7.96107948e-02, 3.43859047e-02, 3.48849781e-02 ]
      - [ 3.53260851e-03, 7.39560947e-02, 3.04499835e-01, 3.04499835e-01,
          3.04499835e-01, 4.13669907e-02, 3.71194854e-02, 0., 0.,
          9.60585251e-02, 1.51696846e-01, 3.04499835e-01, 3.61211086e-03,
          7.67498612e-02, 3.04499835e-01, 1.24155402e-01, 2.13678375e-01,
          5.27958907e-02, 1.21486135e-01, 5.80643341e-02, 3.04499835e-01,
          1.73061769e-02, 2.99145997e-01, 1.21056914e-01, 8.07510763e-02,
          8.14579800e-02, 7.56298378e-03, 3.31568159e-02, 0.,
          3.04499835e-01, 3.98895629e-02, 3.04499835e-01, 7.92417079e-02,
          4.55672443e-02, 0., 2.88446210e-02 ]
      - [ 3.46650518e-02, 6.90453723e-02, 9.88642871e-02, 2.70985156e-01,
          2.49882713e-01, 2.27900416e-01, 8.32304955e-02, 3.96362916e-02,
          0., 1.41909629e-01, 4.53599431e-02, 2.70985156e-01,
          1.00681763e-02, 9.77318957e-02, 2.70309597e-01, 2.70985156e-01,
          9.35635865e-02, 8.56350809e-02, 3.66242900e-02, 4.66452986e-02,
          2.70985156e-01, 1.96107522e-01, 2.00383633e-01, 2.70985156e-01,
          2.40565483e-02, 1.09813608e-01, 6.62605390e-02, 5.16095795e-02,
          3.29645127e-02, 2.70985156e-01, 1.85413107e-01, 2.70985156e-01,
          2.70985156e-01, 1.01430379e-01, 7.30617195e-02, 0. ]
      - [ 1.97174307e-02, 8.34301710e-02, 2.91918308e-01, 2.91918308e-01,
          2.91918308e-01, 0., 3.60796563e-02, 4.47299238e-03,
          1.16228992e-02, 9.05874297e-02, 2.91918308e-01, 1.70774654e-01,
          0., 9.49157923e-02, 2.55716443e-01, 1.42164484e-01,
          1.43486857e-01, 1.58408612e-01, 2.00615302e-01, 1.60787508e-01,
          2.91918308e-01, 1.19028948e-01, 5.64157479e-02, 4.97360826e-02,
          7.47468546e-02, 6.67682365e-02, 0., 5.80363646e-02,
          1.56962231e-01, 2.91918308e-01, 2.91918308e-01, 2.91918308e-01,
          7.47333393e-02, 0., 0., 4.73493822e-02 ]
      - [ 3.80743761e-03, 6.36119545e-02, 3.20012629e-01, 3.03057700e-01,
          3.20012629e-01, 1.55252963e-01, 4.75324728e-02, 3.61617170e-02,
          0., 1.46270201e-01, 1.07138023e-01, 2.37619191e-01,
          3.89312510e-03, 2.27482636e-02, 2.59660214e-01, 8.62273350e-02,
          1.93477690e-01, 7.42682517e-02, 6.17971644e-02, 4.89973612e-02,
          3.20012629e-01, 0., 3.20012629e-01, 1.61726207e-01,
          4.85489666e-02, 4.75183576e-02, 8.54115374e-03, 9.25148651e-02,
          9.32627916e-03, 3.20012629e-01, 4.24840935e-02, 3.20012629e-01,
          5.55712804e-02, 4.84651662e-02, 3.42669375e-02, 1.31893503e-02 ]
      - [ 1.93074644e-02, 1.08402543e-01, 2.69152433e-01, 2.41934299e-01,
          2.75999278e-01, 4.40876037e-02, 3.87471728e-02, 2.67944895e-02,
          0., 3.99080180e-02, 1.27988026e-01, 3.27842265e-01,
          8.56506526e-02, 3.27842265e-01, 3.27842265e-01, 1.47417113e-01,
          1.19587466e-01, 2.11959109e-02, 9.55674350e-02, 6.16809502e-02,
          3.27842265e-01, 1.89465657e-02, 1.54522076e-01, 1.01634085e-01,
          8.70776922e-02, 7.24406987e-02, 8.50049499e-03, 6.15029931e-02,
          4.73612500e-03, 3.27842265e-01, 0., 3.27842265e-01,
          5.86509965e-02, 0., 4.72921580e-02, 0. ]
      - [ 0., 2.96764746e-02, 1.65786043e-01, 4.93429340e-02,
          2.90174454e-01, 1.08387180e-01, 9.22482368e-03, 7.27365911e-02,
          0., 1.07246213e-01, 1.85600035e-02, 2.90174454e-01,
          5.66784441e-02, 2.90174454e-01, 5.71151339e-02, 6.07525073e-02,
          8.80001020e-03, 4.72787619e-02, 2.46679887e-01, 4.83217351e-02,
          6.51645139e-02, 1.02169491e-01, 2.16896176e-01, 2.90174454e-01,
          2.90174454e-01, 1.31209135e-01, 3.06911189e-02, 1.74438491e-01,
          1.98960915e-01, 1.24359675e-01, 6.73725158e-02, 2.90174454e-01,
          2.90174454e-01, 1.63388386e-01, 2.28754148e-01, 1.61949605e-01 ]
      - [ 2.32391227e-02, 2.49313563e-02, 6.88254908e-02, 1.46578789e-01,
          2.60035694e-01, 2.60035694e-01, 9.18830410e-02, 9.87834483e-02,
          0., 1.03479005e-01, 1.97610557e-02, 5.12856208e-02,
          1.97555184e-01, 2.60035694e-01, 2.60035694e-01, 4.94767986e-02,
          0., 2.67172772e-02, 2.60035694e-01, 1.62098706e-02,
          5.41312732e-02, 3.10312510e-02, 2.43788868e-01, 2.60035694e-01,
          2.60035694e-01, 1.78978696e-01, 1.13008581e-02, 1.80431709e-01,
          2.02690780e-01, 1.65286154e-01, 1.15864664e-01, 2.16702923e-01,
          1.66559443e-01, 2.60035694e-01, 2.11113319e-01, 1.67762205e-01 ]
      - [ 0., 6.60877898e-02, 9.42196921e-02, 2.59202749e-01,
          2.59202749e-01, 5.29291816e-02, 3.70908678e-02, 0.,
          3.58265862e-02, 1.42068133e-01, 8.93350840e-02, 2.59202749e-01,
          2.45080128e-01, 2.59202749e-01, 1.17102966e-01, 5.92916235e-02,
          0., 8.55730996e-02, 2.59202749e-01, 6.91905320e-02,
          1.23138726e-01, 1.70392215e-01, 1.96225196e-01, 2.59202749e-01,
          1.38272032e-01, 6.46968856e-02, 6.61384985e-02, 2.38015905e-01,
          1.39682353e-01, 2.42536500e-01, 2.29004607e-01, 2.59202749e-01,
          2.02188313e-01, 1.96830764e-01, 1.04255266e-01, 7.15766475e-02 ]
      - [ 3.07148062e-02, 0., 1.59353197e-01, 6.61959797e-02,
          3.03714156e-01, 5.31173982e-02, 8.72353744e-03, 8.32180958e-03,
          2.47338545e-02, 1.23190112e-01, 3.53730172e-02, 2.97471851e-01,
          3.40640955e-02, 3.03714156e-01, 5.40114455e-02, 5.74511588e-02,
          0., 4.75347564e-02, 1.42218128e-01, 4.54624295e-02,
          3.99421379e-02, 6.25043809e-02, 3.03714156e-01, 3.03714156e-01,
          3.03714156e-01, 4.33364548e-02, 2.85435766e-02, 2.15767875e-01,
          2.80580044e-01, 1.17601857e-01, 5.73856980e-02, 2.76253615e-02,
          2.14720801e-01, 1.82875499e-01, 2.98534334e-01, 2.18198359e-01 ]
      - [ 2.69965362e-02, 3.63812484e-02, 7.73938298e-02, 5.62471412e-02,
          3.35350156e-01, 1.02380477e-01, 1.05625074e-02, 8.39230046e-02,
          2.01220307e-02, 3.61265615e-02, 2.15235390e-02, 3.35350156e-01,
          4.14615534e-02, 3.35350156e-01, 0., 4.19327579e-02,
          9.95306205e-03, 5.31900339e-02, 2.58089572e-01, 5.50461598e-02,
          6.00088239e-02, 4.61811014e-02, 2.04601198e-01, 1.35392085e-01,
          1.67157203e-01, 1.43535122e-01, 7.77413622e-02, 9.12901908e-02,
          1.20408475e-01, 1.42863944e-01, 1.07507467e-01, 3.35350156e-01,
          3.35350156e-01, 3.34229469e-01, 1.12051524e-01, 1.76240951e-01 ]
      - [ 2.68511027e-01, 8.60200226e-02, 1.15533628e-01, 8.00269917e-02,
          2.68511027e-01, 2.56882846e-01, 3.90985496e-02, 8.15168172e-02,
          0., 2.68511027e-01, 1.12191588e-01, 2.32297331e-01, 0.,
          1.27231270e-01, 1.65843099e-01, 2.10197479e-01, 6.81380108e-02,
          1.22364625e-01, 1.51053995e-01, 2.52662525e-02, 9.30913016e-02,
          2.68511027e-01, 2.68511027e-01, 4.59968485e-02, 2.05956206e-01,
          2.46853419e-02, 6.61682189e-02, 1.11167938e-01, 1.55666038e-01,
          2.68511027e-01, 9.77846608e-02, 1.16286628e-01, 2.26916652e-02,
          2.68511027e-01, 2.68511027e-01, 7.76416510e-02 ]
      - [ 2.33805716e-01, 2.95662805e-02, 1.42278969e-01, 7.36140311e-02,
          1.87355161e-01, 2.49879524e-01, 2.02598840e-01, 6.73302710e-02,
          1.79902792e-01, 1.12169705e-01, 1.36686131e-01, 2.25876957e-01,
          1.82396173e-02, 4.65239733e-02, 1.96154311e-01, 2.49879524e-01,
          8.38786364e-02, 1.73944592e-01, 1.54875845e-01, 3.59387584e-02,
          1.24456190e-01, 2.49879524e-01, 2.49879524e-01, 1.00315444e-01,
          6.37412816e-02, 2.49879524e-01, 2.49641538e-02, 1.08872831e-01,
          1.03821971e-01, 2.05121681e-01, 2.49879524e-01, 1.25874028e-01,
          0., 1.10406592e-01, 2.49879524e-01, 2.44670898e-01 ]
      - [ 2.36631751e-01, 1.72289401e-01, 7.73900896e-02, 1.48585975e-01,
          2.61532515e-01, 1.82820767e-01, 9.05599743e-02, 5.20287454e-02,
          1.47418067e-01, 2.61532515e-01, 1.36008769e-01, 1.61315605e-01,
          0., 2.29652196e-01, 2.25051701e-01, 1.17506616e-01,
          8.50684047e-02, 1.31161287e-01, 1.54680550e-01, 1.34021446e-01,
          1.39453679e-01, 2.61532515e-01, 1.26289770e-01, 0.,
          1.09682985e-01, 2.28262708e-01, 1.39971435e-01, 1.36807561e-01,
          2.00750306e-01, 2.61532515e-01, 1.62215337e-01, 4.40540351e-02,
          1.26988217e-02, 2.61532515e-01, 1.16196066e-01, 1.73472747e-01 ]
      - [ 2.86493361e-01, 8.80690590e-02, 2.32302755e-01, 8.19332749e-02,
          2.86493361e-01, 2.86493361e-01, 1.41470507e-01, 8.34585801e-02,
          1.25279412e-01, 1.87078699e-01, 1.14864036e-01, 1.23813681e-01,
          0., 7.41050020e-02, 0., 1.13763854e-01, 6.97610900e-02, 0.,
          1.32591769e-01, 8.44500810e-02, 2.86493361e-01, 2.86493361e-01,
          2.86493361e-01, 7.03247041e-02, 2.86493361e-01, 1.50427669e-01,
          1.47235483e-01, 1.13816008e-01, 1.00792103e-01, 2.27611154e-01,
          2.13425681e-02, 5.23208156e-02, 0., 1.83453962e-01,
          2.04419896e-01, 0. ]
      - [ 6.63663745e-02, 8.46008733e-02, 0., 7.87067115e-02,
          2.16972321e-01, 9.05192792e-02, 0., 8.01719576e-02, 0.,
          2.79445559e-01, 1.10340655e-01, 2.79445559e-01, 0.,
          2.79445559e-01, 2.79445559e-01, 2.45183140e-01, 6.70138747e-02,
          1.20345868e-01, 8.47665966e-02, 2.48494111e-02, 7.65707269e-02,
          1.63655549e-01, 1.39324635e-01, 4.52379957e-02, 0.,
          2.42780838e-02, 6.50765821e-02, 1.73129201e-01, 1.53097883e-01,
          2.79445559e-01, 2.79445559e-01, 2.79445559e-01, 2.23172996e-02,
          2.79445559e-01, 2.79445559e-01, 7.63607249e-02 ]
      - [ 1.79236814e-01, 5.90808541e-02, 1.83556050e-01, 3.72799411e-02,
          2.81358629e-01, 1.01800457e-01, 7.08834231e-02, 2.07759663e-02,
          2.39391942e-02, 8.38404074e-02, 0., 2.81358629e-01,
          5.56161441e-02, 2.81358629e-01, 2.81358629e-01, 1.68394715e-01,
          4.96835411e-02, 1.14757814e-01, 1.42103070e-02, 3.18065770e-02,
          4.56972085e-02, 0., 2.81358629e-01, 2.81358629e-01,
          2.81358629e-01, 3.10442243e-02, 7.71777183e-02, 1.07755288e-01,
          1.50295287e-01, 2.47224092e-01, 2.81358629e-01, 2.81358629e-01,
          9.98812467e-02, 1.85416490e-02, 1.17221542e-01, 1.29324794e-01 ]
      - [ 1.56809524e-01, 7.16402307e-02, 1.31134346e-01, 1.61187854e-02,
          1.84355248e-02, 2.74797171e-01, 1.32066622e-01, 1.16231486e-01,
          2.63049025e-02, 7.90752470e-02, 0., 2.74797171e-01,
          9.65486020e-02, 2.74797171e-01, 2.74797171e-01, 1.90169901e-01,
          2.69447244e-03, 1.61359653e-01, 3.92180495e-02, 3.33317779e-02,
          0., 6.67420700e-02, 2.65976459e-01, 2.74797171e-01,
          2.74797171e-01, 5.40871024e-02, 3.99135314e-02, 1.82195663e-01,
          8.98372382e-02, 1.81577861e-01, 2.50347555e-01, 2.74797171e-01,
          1.06421575e-01, 2.40488991e-01, 1.51085481e-01, 5.65533675e-02 ]
      - [ 8.39796588e-02, 1.60300091e-01, 9.81964990e-02, 2.63982445e-01,
          2.63982445e-01, 8.23964328e-02, 3.13338861e-02, 1.27845285e-02,
          9.90554988e-02, 7.05064312e-02, 2.29111105e-01, 1.70038864e-01,
          2.14397788e-01, 2.51419663e-01, 2.63982445e-01, 9.64228511e-02,
          8.95350352e-02, 1.33958131e-01, 7.03025050e-03, 2.81686597e-02,
          4.14173044e-02, 1.76006779e-01, 2.63982445e-01, 2.63982445e-01,
          2.51082182e-01, 0., 8.96210745e-02, 5.89016192e-02,
          7.50643536e-02, 2.63982445e-01, 2.63982445e-01, 2.63982445e-01,
          4.98460457e-02, 5.51754944e-02, 5.20667359e-02, 1.72047883e-01 ]
      - [ 1.05871767e-01, 5.66904321e-02, 2.39480585e-01, 3.69505584e-02,
          2.93498218e-01, 1.09331794e-01, 6.88177943e-02, 1.99353676e-02,
          6.93740994e-02, 1.35887101e-01, 1.96214058e-02, 2.86620647e-01,
          1.64153483e-02, 2.87690103e-01, 2.40632370e-01, 1.48235217e-01,
          8.93304348e-02, 6.37112111e-02, 1.71594638e-02, 0., 0.,
          1.15983993e-01, 2.93498218e-01, 2.93498218e-01, 2.44833842e-01,
          5.11941127e-03, 0., 2.29349643e-01, 2.14645609e-01,
          2.44269595e-01, 2.83268362e-01, 4.99794073e-02, 5.41422106e-02,
          1.77914500e-02, 1.54656053e-01, 1.69177532e-01 ]
      - [ 1.45442545e-01, 9.75896046e-03, 9.38980952e-02, 4.26239371e-02,
          3.02194387e-01, 4.29736525e-02, 1.03318907e-01, 8.90867133e-03,
          6.83062077e-02, 8.94716009e-02, 4.09756303e-02, 3.02194387e-01,
          8.13897476e-02, 3.02194387e-01, 2.71924108e-01, 6.65423051e-02,
          4.72594984e-02, 1.00366510e-01, 5.20763732e-02, 3.28535549e-02,
          4.88905385e-02, 0., 2.99958438e-01, 2.64431566e-01,
          2.69026548e-01, 2.48805638e-02, 8.33066702e-02, 8.37503597e-02,
          1.06252469e-01, 7.29951188e-02, 3.02194387e-01, 3.02194387e-01,
          3.02194387e-01, 9.18396637e-02, 8.05316120e-02, 1.06627330e-01 ]
      - [ 1.43365040e-01, 3.20635922e-02, 2.66727477e-01, 2.66727477e-01,
          2.66727477e-01, 0., 6.98996782e-02, 8.28374475e-02,
          6.90043867e-02, 2.66727477e-01, 6.21689204e-03, 6.58563375e-02,
          0., 1.82789683e-01, 1.56910598e-01, 2.64134586e-01,
          2.63971895e-01, 6.74963444e-02, 8.81124213e-02, 6.51733726e-02,
          0., 6.95610270e-02, 2.66727477e-01, 2.06878304e-01,
          2.37424359e-01, 1.27402499e-01, 0., 2.66727477e-01,
          2.41283715e-01, 2.66727477e-01, 7.77953118e-02, 1.42351091e-01,
          0., 8.05797651e-02, 1.22603878e-01, 1.38499647e-01 ]
      - [ 1.35820627e-01, 1.09292783e-01, 1.41297475e-01, 2.49831334e-01,
          2.49831334e-01, 6.35942370e-02, 1.32851556e-01, 1.61947578e-01,
          6.27047196e-02, 1.90255284e-01, 0., 4.79890667e-02, 0.,
          1.74525738e-01, 1.71953291e-01, 1.42216444e-01, 2.49831334e-01,
          2.49831334e-01, 6.55346885e-02, 6.53344393e-02, 0.,
          1.02508381e-01, 2.49831334e-01, 2.49831334e-01, 2.49831334e-01,
          4.33188304e-02, 9.78855938e-02, 2.45803326e-01, 1.72332913e-01,
          2.49831334e-01, 2.49831334e-01, 9.75622833e-02, 6.65768161e-02,
          0., 1.42415881e-01, 2.49831334e-01 ]
      - [ 1.85088694e-01, 2.07623139e-01, 2.53609717e-01, 1.79241315e-01,
          2.53609717e-01, 9.04422328e-02, 3.85181271e-02, 0.,
          8.57910365e-02, 9.62586775e-02, 5.81125263e-03, 3.20615470e-02,
          0., 1.44284159e-01, 1.71744272e-01, 2.07251042e-01,
          2.53609717e-01, 2.38394827e-01, 1.31475076e-01, 3.41893733e-02,
          1.22506857e-01, 1.66335776e-01, 2.53609717e-01, 1.74598858e-01,
          2.24544257e-01, 1.05328880e-01, 0., 2.13335216e-01,
          2.53609717e-01, 2.53609717e-01, 2.53609717e-01, 5.62069798e-03,
          0., 0., 7.11439699e-02, 2.43100584e-01 ]
      - [ 2.39215508e-01, 3.85519117e-02, 2.77774274e-01, 2.77774274e-01,
          2.77774274e-01, 1.58023164e-01, 1.64392918e-01, 1.36829615e-01,
          1.37468591e-01, 2.24336460e-01, 0., 0., 0., 0., 0.,
          1.72009841e-01, 2.12438792e-01, 0., 1.32563800e-01,
          1.55453309e-01, 2.77774274e-01, 1.03952870e-01, 2.77774274e-01,
          2.08345175e-01, 2.77774274e-01, 1.28305838e-01, 0.,
          2.33777732e-01, 1.53176710e-01, 1.90614015e-01, 4.44482937e-02,
          1.17131546e-02, 0., 0., 1.23473205e-01, 1.39481679e-01 ]
      - [ 1.50308132e-01, 3.36164124e-02, 8.37752223e-02, 1.22950830e-01,
          1.04462214e-01, 0., 2.11205501e-02, 2.93715764e-02,
          7.23462328e-02, 2.78878957e-01, 6.51797280e-03, 2.78878957e-01,
          1.78502172e-01, 2.78878957e-01, 1.64509684e-01, 2.78878957e-01,
          2.78878957e-01, 7.07651526e-02, 9.23796669e-02, 6.83296844e-02,
          0., 0., 1.59713149e-01, 8.48802105e-02, 1.58325627e-01,
          1.33572534e-01, 0., 2.56750822e-01, 2.52968967e-01,
          2.78878957e-01, 1.54492721e-01, 2.78878957e-01, 1.32017106e-01,
          1.75079271e-01, 1.28541529e-01, 1.45207107e-01 ]
      - [ 1.98788628e-01, 5.55847064e-02, 2.55761147e-01, 2.55761147e-01,
          2.13161305e-01, 7.48531371e-02, 0., 7.92453215e-02, 0.,
          2.40060255e-01, 1.50939628e-01, 0., 9.33499485e-02,
          2.55761147e-01, 1.30341083e-01, 0., 2.16058239e-01,
          2.13613391e-01, 7.27287307e-02, 4.88185063e-02, 7.63349906e-02,
          2.55761147e-01, 2.55761147e-01, 1.26454189e-01, 1.52944759e-01,
          0., 1.93502069e-01, 1.98476940e-01, 2.55761147e-01,
          2.55761147e-01, 1.22541890e-01, 7.86781497e-03, 7.88968951e-02,
          0., 2.55761147e-01, 1.65270582e-01 ]
      - [ 1.25731513e-01, 5.05668521e-02, 2.48594567e-01, 2.45124564e-01,
          2.16116607e-01, 4.21186313e-02, 3.94895524e-02, 8.73362273e-02,
          2.36487821e-01, 1.67953864e-01, 1.91009402e-01, 0.,
          9.33336020e-02, 1.19377166e-01, 2.48594567e-01, 1.00142524e-01,
          8.77325311e-02, 2.48594567e-01, 1.55366868e-01, 0.,
          1.18066944e-01, 2.48594567e-01, 2.48594567e-01, 1.90371424e-01,
          1.61640689e-01, 1.29312709e-01, 6.73677921e-02, 2.00503469e-01,
          2.48594567e-01, 2.48594567e-01, 8.20667297e-02, 8.21508616e-02,
          8.15159157e-02, 0., 1.61684364e-01, 2.48594567e-01 ]
      - [ 1.26468480e-01, 2.44511738e-01, 2.44511738e-01, 1.70253471e-01,
          2.09476903e-01, 0., 1.18090153e-01, 2.73711644e-02,
          5.98482825e-02, 2.44511738e-01, 1.33767370e-02, 0.,
          2.24425182e-01, 1.39308289e-01, 8.05613995e-02, 1.70948386e-01,
          1.85724556e-01, 2.44511738e-01, 2.44511738e-01, 6.56623021e-02,
          2.01054692e-01, 2.44511738e-01, 2.44511738e-01, 0.,
          8.48999768e-02, 1.42108783e-01, 1.11890964e-01, 1.64867148e-01,
          2.44511738e-01, 2.44511738e-01, 1.32765725e-01, 8.59296173e-02,
          0., 0., 1.34143084e-01, 2.44511738e-01 ]
      - [ 1.98603958e-01, 1.32023305e-01, 2.59719044e-01, 2.59719044e-01,
          2.59719044e-01, 2.05003589e-01, 0., 8.08146298e-02,
          1.09212920e-01, 2.39837244e-01, 7.43091702e-02, 0., 0.,
          5.53499274e-02, 0., 0., 2.14214593e-01, 1.04202032e-01,
          7.26611689e-02, 2.59719044e-01, 2.59719044e-01, 2.59719044e-01,
          2.59719044e-01, 2.05160320e-01, 1.52802676e-01, 1.81919754e-01,
          1.93322301e-01, 1.98292568e-01, 2.08461374e-01, 1.70240641e-01,
          0., 7.86050595e-03, 0., 0., 8.56702328e-02, 1.65117040e-01 ]
      - [ 2.00291783e-01, 5.60050160e-02, 1.33224398e-01, 0.,
          6.84587210e-02, 7.54191428e-02, 0., 5.52073121e-02, 0.,
          2.41875485e-01, 1.52080968e-01, 2.63569236e-01, 2.63569236e-01,
          2.63569236e-01, 1.31326661e-01, 0., 2.42329225e-01,
          2.15228647e-01, 6.07445054e-02, 4.91876528e-02, 0.,
          7.42246285e-02, 6.63148239e-02, 6.94271252e-02, 3.58924158e-02,
          0., 1.94965243e-01, 2.12511927e-01, 2.63569236e-01,
          2.63569236e-01, 2.63569236e-01, 2.63569236e-01, 1.37476742e-01,
          1.18208855e-01, 2.63569236e-01, 1.66520283e-01 ]
      - [ 1.04269005e-01, 1.53672770e-02, 6.03973381e-02, 4.53235507e-02,
          2.79415011e-01, 5.10075241e-02, 2.18369037e-01, 2.26661012e-01,
          1.62180290e-01, 6.14613146e-02, 5.03076948e-02, 4.38129622e-03,
          6.30382001e-02, 2.79415011e-01, 1.78272933e-01, 2.03702956e-01,
          6.13359176e-02, 6.94856793e-02, 1.10909224e-01, 6.39460608e-02,
          0., 1.94435954e-01, 2.79415011e-01, 2.08125204e-01,
          2.79415011e-01, 2.79415011e-01, 0., 2.79415011e-01,
          1.44917220e-01, 2.79415011e-01, 2.01875702e-01, 5.58042154e-02,
          0., 6.18910082e-02, 1.74232915e-01, 1.41351745e-01 ]
      - [ 1.14782222e-01, 5.95072508e-02, 0., 1.97883863e-02,
          2.52955526e-01, 1.53207511e-01, 5.68637364e-02, 2.52955526e-01,
          2.52955526e-01, 9.19835344e-02, 7.87729099e-02, 6.51759207e-02,
          6.16442859e-02, 2.52955526e-01, 2.52955526e-01, 2.00338438e-01,
          1.14364050e-01, 4.46955338e-02, 4.92956452e-02, 8.98944214e-02,
          0., 1.03429355e-01, 2.52955526e-01, 2.52955526e-01,
          2.52955526e-01, 2.52955526e-01, 1.66450918e-01, 2.52955526e-01,
          1.74902648e-01, 2.52955526e-01, 1.93588063e-01, 6.90380782e-02,
          5.71134463e-02, 1.09906010e-01, 1.05126269e-01, 1.62072808e-01 ]
      - [ 1.10484362e-01, 6.46364093e-02, 7.15713724e-02, 2.72461414e-01,
          1.99493125e-01, 6.37747273e-02, 2.05453098e-01, 1.80363432e-01,
          8.46289545e-02, 1.20690435e-01, 4.16498259e-02, 4.84162830e-02,
          2.72461414e-01, 2.72461414e-01, 1.61252946e-01, 1.07633770e-01,
          1.66219980e-01, 7.38758072e-02, 1.67060480e-01, 0.,
          1.30510971e-01, 2.72461414e-01, 2.00752825e-01, 9.14788693e-02,
          2.72461414e-01, 1.62024990e-01, 2.79267114e-02, 2.56448925e-01,
          1.40378773e-01, 2.72461414e-01, 2.24308833e-01, 6.39464660e-03,
          6.11683950e-02, 0., 1.07187532e-01, 2.15152979e-01 ]
      - [ 5.72200790e-02, 1.52273569e-02, 5.98474145e-02, 4.49108742e-02,
          2.82103807e-01, 1.56258196e-01, 2.16380775e-01, 2.24597245e-01,
          1.72926486e-01, 6.09017052e-02, 4.98496406e-02, 4.34140442e-03,
          6.24642372e-02, 2.82103807e-01, 7.09346607e-02, 2.01848224e-01,
          6.07774481e-02, 5.66301681e-02, 9.00759846e-02, 1.85274333e-02,
          2.71294206e-01, 2.82103807e-01, 2.82103807e-01, 2.06230223e-01,
          2.82103807e-01, 1.77347913e-01, 0., 2.82103807e-01,
          1.30809307e-01, 2.73238868e-01, 2.87177972e-02, 3.10542975e-02,
          0., 0., 1.72646508e-01, 1.40064731e-01 ]
      - [ 1.05762281e-01, 0., 6.12623096e-02, 0., 2.02941895e-01,
          6.08847803e-03, 1.69134617e-01, 2.29907110e-01, 6.74089193e-02,
          0., 6.66155294e-02, 4.44404269e-03, 1.09913647e-01,
          2.98409730e-01, 2.26475582e-01, 2.58982033e-01, 6.22143336e-02,
          1.67574838e-01, 1.12497598e-01, 6.48618564e-02, 0.,
          3.58377323e-02, 1.28746271e-01, 1.41295627e-01, 2.98409730e-01,
          2.98409730e-01, 0., 1.67314842e-01, 1.46992624e-01,
          2.98409730e-01, 2.98409730e-01, 2.84330249e-01, 6.98102191e-02,
          6.27773702e-02, 1.76728174e-01, 1.43376097e-01 ]
      - [ 1.34948760e-01, 1.47550151e-01, 2.53705382e-01, 7.05487356e-02,
          1.68849975e-01, 4.95579913e-02, 2.43528292e-01, 1.16468117e-01,
          1.00722045e-01, 8.05012062e-02, 0., 2.53705382e-01,
          2.53705382e-01, 2.53705382e-01, 0., 1.81594089e-01,
          3.88994478e-02, 0., 4.27096859e-02, 6.02562018e-02, 0., 0.,
          2.53705382e-01, 2.09172949e-01, 2.53705382e-01, 0.,
          6.79654479e-02, 1.69334173e-01, 1.60686314e-01, 2.53705382e-01,
          1.89306006e-01, 2.53705382e-01, 4.85196449e-02, 2.53705382e-01,
          2.51120538e-01, 1.05908722e-01 ]
      - [ 6.27668053e-02, 1.78970620e-01, 2.02191755e-01, 6.36332259e-02,
          1.13272943e-01, 1.10768087e-01, 2.19999135e-01, 1.77946076e-01,
          1.29964679e-01, 1.24392509e-01, 0., 2.44917020e-01,
          2.44917020e-01, 2.44917020e-01, 1.07533269e-01, 2.44917020e-01,
          5.15059568e-02, 0., 3.42561081e-02, 3.63343544e-02, 0.,
          5.90861142e-02, 2.44917020e-01, 2.44917020e-01, 2.44917020e-01,
          1.06764831e-01, 9.05626416e-02, 1.21286176e-01, 1.58391729e-01,
          1.85450211e-01, 2.18649313e-01, 1.93231359e-01, 7.38586858e-02,
          2.44917020e-01, 2.44917020e-01, 1.92661673e-01 ]
      - [ 9.62790921e-02, 2.57504940e-01, 1.87363222e-01, 1.11547515e-01,
          1.42248571e-01, 4.66261152e-03, 9.33700204e-02, 1.67439267e-01,
          1.08482972e-01, 2.90572066e-02, 1.65244892e-01, 2.57504940e-01,
          2.57504940e-01, 8.12241510e-02, 1.97615951e-01, 1.50336176e-01,
          0., 4.72252816e-02, 1.34402737e-01, 2.13727280e-02,
          4.42891084e-02, 1.27571791e-01, 2.00765029e-01, 2.57504940e-01,
          2.57504940e-01, 7.65451342e-02, 0., 2.18629673e-01,
          1.73147798e-01, 2.43542805e-01, 2.57504940e-01, 1.07822016e-01,
          1.08838044e-01, 2.57504940e-01, 1.40163422e-01, 2.20180094e-01 ]
      - [ 1.22217253e-01, 1.48750409e-01, 2.68399894e-01, 2.76442438e-01,
          2.76442438e-01, 4.99611236e-02, 2.76442438e-01, 1.17415540e-01,
          1.01541378e-01, 8.11560526e-02, 0., 2.76442438e-01,
          2.36702356e-02, 2.22128823e-01, 0., 3.16960588e-02,
          3.92158814e-02, 0., 5.38237281e-02, 1.34011969e-01, 0.,
          1.90845937e-01, 2.76442438e-01, 2.59788841e-01, 2.76442438e-01,
          1.64585888e-01, 6.85183257e-02, 1.59945056e-01, 8.87278244e-02,
          2.58361936e-01, 0., 4.91118059e-02, 0., 2.61411697e-01,
          8.85774046e-02, 1.06770247e-01 ]
      - [ 1.19113170e-01, 9.94963720e-02, 1.73152819e-01, 0.,
          2.42234915e-02, 0., 1.43531412e-01, 1.23426557e-01,
          3.23433280e-02, 2.38981657e-02, 5.68692312e-02, 2.95720816e-01,
          2.95720816e-01, 2.95720816e-01, 5.25188558e-02, 2.95720816e-01,
          4.12235148e-02, 7.43964016e-02, 4.52613980e-02, 6.38562441e-02,
          0., 0., 1.82065859e-01, 4.68927026e-02, 1.71343252e-01, 0.,
          7.20260814e-02, 1.27876118e-01, 1.70286596e-01, 2.71588624e-01,
          2.00616181e-01, 2.95720816e-01, 2.26195872e-01, 2.95720816e-01,
          2.66123861e-01, 1.12236291e-01 ]
      - [ 1.41660050e-01, 2.57748544e-01, 1.54004365e-01, 7.74258822e-02,
          2.57748544e-01, 6.84910119e-02, 0., 1.29784182e-01,
          2.57748544e-01, 1.06363319e-01, 0., 7.43843019e-02, 0.,
          2.57748544e-01, 2.57748544e-01, 2.19847918e-01, 1.25402287e-01,
          0., 2.57748544e-01, 0., 1.11901544e-01, 1.06779747e-01,
          1.54530063e-01, 2.57748544e-01, 1.52949706e-01, 1.30035460e-01,
          1.46315098e-01, 2.57748544e-01, 1.71995312e-01, 7.53535107e-02,
          1.42588764e-01, 1.10826030e-01, 2.67340299e-02, 7.95143992e-02,
          2.57748544e-01, 2.55823046e-01 ]
      - [ 2.27411523e-01, 2.59389520e-01, 1.85212001e-01, 0.,
          2.34646365e-01, 8.34915265e-02, 4.25339751e-02, 1.12035386e-01,
          2.52725959e-01, 1.15215801e-01, 8.05094317e-02, 0.,
          1.03632636e-01, 2.59389520e-01, 2.59389520e-01, 2.59389520e-01,
          6.39832020e-02, 5.92830852e-02, 1.17771551e-01, 2.25059036e-02,
          3.71102318e-02, 1.33776516e-01, 9.12465081e-02, 2.59389520e-01,
          1.43742934e-01, 1.52815655e-01, 2.59389520e-01, 2.16800734e-01,
          2.03782186e-01, 1.25625998e-01, 7.08704740e-02, 1.45026982e-01,
          3.10081132e-02, 3.96615863e-02, 2.59389520e-01, 2.13874131e-01 ]
      - [ 2.47292757e-01, 2.47292757e-01, 1.79510355e-01, 1.52281836e-01,
          2.24994317e-01, 5.96716031e-02, 2.52644606e-02, 6.04369566e-02,
          1.78855941e-01, 1.34691656e-01, 6.38247430e-02, 5.35332896e-02,
          2.47292757e-01, 2.47292757e-01, 2.47292757e-01, 1.68963701e-01,
          1.09902173e-01, 0., 1.77860737e-01, 0., 1.47959679e-01,
          1.09174527e-01, 1.68614954e-01, 1.70846969e-01, 4.74743135e-02,
          2.07262114e-01, 2.47292757e-01, 2.47292757e-01, 2.21353218e-01,
          9.48584601e-02, 2.17804164e-01, 1.12841889e-01, 2.50920001e-02,
          4.05957289e-02, 2.47292757e-01, 1.02289036e-01 ]
      - [ 1.15840271e-01, 2.53691643e-01, 1.51184678e-01, 7.60082826e-02,
          2.53691643e-01, 2.53691643e-01, 7.40923733e-02, 1.27407938e-01,
          2.53691643e-01, 1.04415901e-01, 0., 7.30223879e-02, 0.,
          2.53691643e-01, 1.53525144e-01, 1.41730323e-01, 1.23106286e-01,
          0., 2.53691643e-01, 0., 1.71280265e-01, 2.04880655e-01,
          2.53691643e-01, 2.53691643e-01, 2.28207916e-01, 2.42885545e-01,
          1.84028491e-01, 1.69378251e-01, 1.68846235e-01, 1.25463204e-02,
          3.99221480e-02, 0., 0., 0., 1.63358971e-01, 2.10746884e-01 ]
      - [ 1.35637566e-01, 2.61065513e-01, 7.43928179e-02, 0.,
          4.29060832e-02, 0., 0., 2.73627155e-02, 1.64172634e-01, 0., 0.,
          1.44286215e-01, 7.41342232e-02, 2.75153071e-01, 2.75153071e-01,
          2.10501373e-01, 2.16974840e-01, 1.33655518e-01, 2.61189431e-01,
          0., 0., 0., 0., 8.97806361e-02, 4.33272421e-02, 1.24507166e-01,
          1.40094697e-01, 2.52179533e-01, 1.64683163e-01, 1.79294154e-01,
          2.38766938e-01, 2.54074842e-01, 2.60212183e-01, 1.79253966e-01,
          2.71720976e-01, 2.44947061e-01 ]
      - [ 2.73924708e-01, 7.30262101e-02, 1.11257292e-01, 1.76597044e-01,
          2.73924708e-01, 4.26339731e-02, 1.03294089e-01, 5.10800183e-02,
          1.29695728e-01, 1.14532359e-01, 1.32914418e-02, 0.,
          8.16571191e-02, 2.73924708e-01, 2.73924708e-01, 1.43346265e-01,
          5.11041209e-02, 0., 1.60360739e-01, 4.13571708e-02,
          4.52451557e-02, 1.59321398e-01, 2.73924708e-01, 2.66156375e-01,
          2.73924708e-01, 8.23353827e-02, 3.59784216e-02, 1.99254677e-01,
          2.73924708e-01, 2.05436736e-01, 2.73924708e-01, 8.34862217e-02,
          4.17066589e-02, 5.25287539e-02, 1.37652948e-01, 1.72314301e-01 ]
      - [ 2.49310285e-01, 1.79457486e-01, 6.70292899e-02, 5.25631905e-02,
          1.99112087e-01, 1.96247473e-01, 7.99864456e-02, 1.41851723e-01,
          1.09732814e-01, 6.61431998e-02, 2.91831456e-02, 2.34706029e-02,
          3.86104174e-02, 2.49310285e-01, 2.49310285e-01, 2.49310285e-01,
          7.06689730e-02, 0., 1.83637097e-01, 6.91595674e-02,
          5.14173508e-02, 1.59881696e-01, 2.49310285e-01, 1.27842039e-01,
          2.47241735e-01, 2.35201374e-01, 8.97735655e-02, 2.46579260e-01,
          1.63500473e-01, 2.48499662e-01, 2.31778845e-01, 1.62452057e-01,
          1.63458828e-02, 4.55516279e-02, 1.38999298e-01, 2.49310285e-01 ]
      - [ 2.47848347e-01, 1.41514167e-01, 1.50973618e-01, 2.47848347e-01,
          1.94011644e-01, 0., 5.25541678e-02, 3.34949791e-02,
          1.74997494e-01, 1.00406453e-01, 8.07245076e-02, 9.14722383e-02,
          1.79884553e-01, 2.47848347e-01, 2.37498075e-01, 1.40464216e-01,
          1.29578829e-01, 3.54495607e-02, 1.05947003e-01, 3.34529988e-02,
          1.22911669e-01, 2.47848347e-01, 2.47848347e-01, 1.79378226e-01,
          2.47848347e-01, 1.71874255e-01, 9.34048295e-02, 1.93861783e-01,
          2.47848347e-01, 2.47848347e-01, 2.47848347e-01, 8.78725052e-02,
          0., 5.18818013e-02, 7.51740485e-02, 1.70665815e-01 ]
      - [ 2.13896185e-01, 3.40104029e-02, 9.72412750e-02, 1.92216024e-01,
          2.95666546e-01, 1.98976770e-01, 1.11943021e-01, 0.,
          8.50221738e-02, 1.39539018e-01, 1.44568784e-02, 0.,
          8.88170749e-02, 2.95666546e-01, 2.22945109e-01, 1.55915320e-01,
          5.55850938e-02, 0., 1.06213443e-01, 6.97256252e-02,
          7.36982822e-02, 2.95666546e-01, 2.95666546e-01, 2.95666546e-01,
          2.95666546e-01, 5.23712449e-02, 3.11531182e-02, 1.96419284e-01,
          2.47433797e-01, 1.49751812e-01, 1.45898923e-01, 5.01133837e-02,
          0., 0., 1.49722800e-01, 1.56270236e-01 ]
      - [ 3.08514625e-01, 7.72055238e-02, 7.22869039e-02, 1.18312940e-01,
          1.36808887e-01, 3.87785621e-02, 7.13628083e-02, 5.40033467e-02,
          1.37118250e-01, 8.88420939e-02, 0., 4.53376845e-02,
          1.18789360e-01, 3.08514625e-01, 3.08514625e-01, 1.73803449e-01,
          0., 0., 1.83788031e-01, 4.37240563e-02, 4.78345528e-02,
          1.30941108e-01, 2.26996735e-01, 2.43459553e-01, 2.81253159e-01,
          6.91875443e-02, 3.80374789e-02, 1.04470447e-01, 2.10692227e-01,
          2.09399253e-01, 3.08514625e-01, 3.08514625e-01, 8.20225775e-02,
          1.10097975e-01, 1.10736936e-01, 1.26829430e-01 ]
      - [ 2.30723456e-01, 2.48600423e-01, 1.56948999e-01, 7.38195702e-02,
          2.51758307e-01, 4.66190875e-02, 2.51758307e-01, 6.76327050e-02,
          5.31125553e-02, 1.01846971e-01, 0., 3.22048850e-02,
          1.39837146e-01, 2.51758307e-01, 2.25609079e-01, 2.51758307e-01,
          2.42352318e-02, 0., 9.45746750e-02, 1.19326031e-02,
          6.68518692e-02, 1.15908623e-01, 2.51758307e-01, 2.51758307e-01,
          2.51758307e-01, 7.71506354e-02, 0., 9.89976376e-02,
          2.51758307e-01, 2.51758307e-01, 2.10248217e-01, 0., 0.,
          2.51758307e-01, 1.38000965e-01, 1.51815593e-01 ]
      - [ 1.45543650e-01, 1.39350653e-01, 2.64544606e-01, 1.48398980e-01,
          1.16474070e-01, 1.21293038e-01, 1.87354788e-01, 1.13714322e-01,
          1.48837239e-01, 6.93254769e-02, 0., 5.79958931e-02,
          8.76439139e-02, 2.64544606e-01, 2.64544606e-01, 2.64544606e-01,
          6.64972737e-02, 0., 9.49414000e-02, 7.07212016e-02, 0.,
          1.63287312e-01, 2.32214034e-01, 2.53494918e-01, 2.64544606e-01,
          1.42652422e-01, 1.06112249e-01, 1.26097590e-01, 1.29756436e-01,
          2.64544606e-01, 1.38810351e-01, 1.23017222e-01, 0.,
          2.64544606e-01, 1.41787365e-01, 2.25919589e-01 ]
      - [ 1.56910807e-01, 2.52276659e-01, 1.51786685e-01, 2.57618502e-02,
          2.52276659e-01, 1.15564562e-01, 4.56867255e-02, 2.87312064e-02,
          1.05924249e-01, 4.24826369e-02, 1.13622863e-02, 1.48127154e-01,
          2.52276659e-01, 2.52276659e-01, 2.52276659e-01, 5.80085702e-02,
          2.23979987e-02, 3.99941280e-02, 1.17089525e-01, 1.28089972e-02,
          7.51681328e-02, 1.74336597e-01, 2.52276659e-01, 2.52276659e-01,
          2.35370114e-01, 2.30482444e-01, 2.69554723e-02, 1.18417144e-01,
          2.52276659e-01, 1.75650403e-01, 2.52276659e-01, 0.,
          3.13925371e-02, 2.52276659e-01, 2.03223020e-01, 1.09933093e-01 ]
      - [ 1.99617386e-01, 2.61480778e-01, 1.65080771e-01, 7.76442736e-02,
          2.75740445e-01, 2.15308398e-01, 2.75740445e-01, 7.11368620e-02,
          5.58643974e-02, 1.24268599e-01, 0., 3.38734686e-02,
          1.47082314e-01, 2.75740445e-01, 7.10243434e-02, 5.77915534e-02,
          2.54908968e-02, 0., 1.34089276e-01, 4.42327559e-02,
          2.58565873e-01, 2.75740445e-01, 2.75740445e-01, 2.75740445e-01,
          2.75740445e-01, 1.43672407e-01, 6.01974018e-02, 6.18265159e-02,
          2.36182332e-01, 9.72184688e-02, 0., 0., 0., 1.66240677e-01,
          8.26265141e-02, 9.94839892e-02 ]
      - [ 1.80962816e-01, 2.45772049e-01, 1.60747901e-01, 0.,
          4.45061624e-02, 0., 8.49236250e-02, 6.92697391e-02,
          5.43981269e-02, 5.53452261e-02, 8.84565990e-03, 3.29843946e-02,
          1.59474701e-01, 2.92122811e-01, 2.78817385e-01, 2.92122811e-01,
          0., 0., 9.68638286e-02, 1.22214286e-02, 6.84699938e-02, 0.,
          1.68690577e-01, 5.69969453e-02, 2.60760099e-01, 7.90180415e-02,
          0., 1.01393841e-01, 2.60833621e-01, 2.77976096e-01,
          2.92122811e-01, 1.00369386e-01, 2.92122811e-01, 2.92122811e-01,
          1.41341239e-01, 1.55490234e-01 ]
      - [ 1.08306214e-01, 6.26309216e-02, 0., 0., 3.35875481e-01,
          3.35875481e-01, 7.19577745e-02, 4.81743440e-02, 0.,
          2.01850489e-01, 3.12048048e-01, 4.60317582e-02, 0.,
          3.35875481e-01, 9.39825624e-02, 1.80490777e-01, 3.14673483e-02,
          8.19607899e-02, 2.97693044e-01, 3.28649580e-01, 1.04068466e-01,
          2.04479732e-02, 3.62522863e-02, 0., 0., 0., 7.06997141e-02,
          3.35875481e-01, 3.35875481e-01, 9.61254314e-02, 0., 0., 0., 0.,
          0., 0. ]
      - [ 4.70594168e-02, 5.39784171e-02, 5.81108555e-02, 0.,
          3.06553066e-01, 3.06553066e-01, 1.33608267e-01, 1.00866653e-01,
          0., 2.21510038e-01, 1.98016047e-01, 0., 0., 3.06553066e-01,
          3.06553066e-01, 2.01282978e-01, 9.81576145e-02, 4.04976346e-02,
          2.76403636e-01, 2.37018242e-01, 3.04943115e-01, 2.93263644e-02,
          1.13169504e-02, 0., 0., 6.33517876e-02, 1.20114274e-01,
          1.20651707e-01, 3.06553066e-01, 3.06553066e-01, 0., 0.,
          1.15065149e-03, 0., 0., 0. ]
      - [ 1.89897403e-01, 0., 1.29698321e-01, 2.09778547e-01,
          3.36290240e-01, 7.16207102e-02, 5.73460422e-02, 1.52172893e-02,
          5.93568571e-03, 1.27255276e-01, 3.36290240e-01, 0.,
          2.16695547e-01, 3.36290240e-01, 6.43468872e-02, 1.21649854e-01,
          1.58945486e-01, 9.39185023e-02, 2.89373368e-01, 3.36290240e-01,
          0., 0., 1.19574759e-02, 0., 0., 3.90317552e-02, 0.,
          3.36290240e-01, 3.36290240e-01, 9.47189257e-02, 0., 0.,
          6.78971782e-03, 0., 0., 7.26842955e-02 ]
      - [ 1.11150667e-01, 6.42758012e-02, 0., 0., 3.85426253e-01,
          2.28498623e-01, 7.38476068e-02, 4.94395494e-02, 0.,
          1.22516379e-01, 3.20243388e-01, 4.72406931e-02, 0.,
          3.85426253e-01, 2.84411460e-01, 1.85231015e-01, 3.22937742e-02,
          8.41133371e-02, 1.91089019e-01, 1.61468871e-02, 0., 0., 0., 0.,
          0., 0., 0., 3.85426253e-01, 3.85426253e-01, 2.05451608e-01,
          2.09849998e-02, 3.72043811e-02, 0., 0., 0., 7.25565031e-02 ]
      - [ 1.12919070e-01, 0., 6.43226802e-02, 5.08032031e-02,
          3.42973024e-01, 3.40367168e-01, 8.03690404e-02, 5.62540181e-02,
          0., 1.17225543e-01, 1.23956680e-01, 0., 0., 1.86866954e-01,
          3.42973024e-01, 8.38992298e-02, 1.88570023e-01, 1.56625584e-01,
          2.71527231e-01, 2.26289138e-01, 3.42973024e-01, 0.,
          2.64982004e-02, 0., 0., 0., 0., 1.00335851e-01, 3.42973024e-01,
          3.42973024e-01, 0., 6.78305747e-03, 0., 0., 0., 0. ]
      - [ 8.61589983e-02, 6.18236139e-02, 0., 0., 3.32502455e-01,
          3.32502455e-01, 1.03303023e-01, 1.23042814e-01, 0.,
          2.10556746e-01, 7.37506803e-03, 0., 1.22019239e-02,
          7.03401342e-02, 3.32502455e-01, 2.95917779e-01, 2.21442461e-01,
          9.92722735e-02, 2.66526222e-01, 1.56255409e-01, 3.32502455e-01,
          0., 1.71705782e-02, 0., 0., 5.13553619e-02, 0., 7.16869906e-02,
          3.32502455e-01, 3.32502455e-01, 1.13422349e-02, 0., 0., 0., 0.,
          0. ]
      - [ 5.36544472e-02, 5.70301265e-02, 4.27194498e-02, 3.21562141e-01,
          3.21562141e-01, 1.09002940e-01, 6.19196407e-02, 3.68704945e-02,
          0., 1.78002238e-01, 1.72402680e-01, 0., 1.10680565e-01,
          3.21562141e-01, 2.65875846e-01, 1.11248329e-01, 1.87587216e-01,
          5.86038120e-02, 2.77633905e-01, 3.21562141e-01, 2.51757354e-01,
          0., 1.03258034e-02, 0., 0., 0., 0., 1.35309711e-01,
          3.21562141e-01, 3.21562141e-01, 1.81811433e-02, 0., 0., 0., 0.,
          0. ]
      - [ 0., 0., 6.52283728e-02, 5.15185334e-02, 3.80315661e-01,
          3.80315661e-01, 8.15006718e-02, 0., 4.48415093e-02,
          1.18876129e-01, 1.25702038e-01, 0., 0., 6.06393889e-02,
          2.33111501e-01, 8.50805640e-02, 1.91225171e-01, 1.13989428e-01,
          3.13142121e-01, 3.80315661e-01, 3.80315661e-01, 0.,
          2.68713068e-02, 0., 0., 0., 0., 6.39569908e-02, 3.80315661e-01,
          1.16490982e-01, 0., 6.87856553e-03, 0., 0., 0., 0. ]
      - [ 1.16959922e-01, 0., 6.66244924e-02, 5.26212156e-02,
          4.05014992e-01, 0., 8.32450762e-02, 5.82670905e-02, 0.,
          8.25849771e-02, 7.96710998e-02, 0., 0., 4.05014992e-01,
          4.05014992e-01, 8.69015977e-02, 1.52636275e-01, 1.06878623e-01,
          2.26260573e-01, 8.32661986e-02, 8.74401033e-02, 0., 0., 0., 0.,
          0., 0., 1.58909798e-01, 4.05014992e-01, 4.05014992e-01, 0.,
          4.62200195e-02, 0., 0., 0., 0. ]
      - [ 1.57351598e-01, 5.61434925e-02, 0., 1.88782677e-01,
          3.22842121e-01, 3.22842121e-01, 1.85194016e-01, 0., 0.,
          3.22842121e-01, 1.23097055e-01, 0., 9.22778547e-02,
          2.89655864e-01, 1.04254715e-01, 2.03360707e-01, 8.83892179e-02,
          5.32310270e-02, 2.09293023e-01, 3.22842121e-01, 3.47535759e-02,
          0., 8.65414590e-02, 0., 0., 1.58755854e-01, 1.37950927e-01,
          3.22842121e-01, 3.22842121e-01, 9.80628505e-02, 0., 0., 0., 0.,
          0., 0. ]
      - [ 5.00179157e-02, 5.17531559e-02, 2.52248421e-02, 1.46659195e-01,
          2.90152043e-01, 2.90152043e-01, 2.74666756e-01, 7.50553831e-02,
          4.27181013e-02, 2.07716167e-01, 2.38335595e-01, 0.,
          7.79718012e-02, 2.33918756e-01, 1.63077056e-01, 2.31392264e-01,
          6.86240122e-02, 2.90152043e-01, 1.27957091e-01, 2.90152043e-01,
          2.34609082e-01, 3.61821465e-02, 7.82922879e-02, 7.98774511e-02,
          1.08240619e-01, 7.88726583e-02, 1.59735963e-01, 2.44186491e-01,
          2.90152043e-01, 1.86785638e-01, 0., 0., 6.19011512e-03, 0., 0.,
          0. ]
      - [ 1.26636326e-01, 4.41506784e-03, 1.35710239e-01, 2.91369647e-01,
          2.91369647e-01, 2.91369647e-01, 1.89921334e-01, 0.,
          1.07202038e-01, 2.91369647e-01, 1.61818817e-01, 6.58991188e-02,
          1.08960897e-01, 1.98929384e-01, 8.90632942e-02, 1.14674769e-01,
          1.98628038e-01, 2.03176364e-01, 2.91369647e-01, 2.91369647e-01,
          0., 0., 0., 0., 4.27476987e-02, 0., 1.92934304e-01,
          2.91369647e-01, 2.91369647e-01, 6.66317865e-02, 0., 0., 0., 0.,
          0., 1.07300647e-01 ]
      - [ 2.05774397e-01, 1.22635201e-01, 0., 2.80005991e-01,
          3.38581622e-01, 3.38581622e-01, 1.82780564e-01, 0.,
          5.30313067e-02, 3.38581622e-01, 0., 0., 0., 8.65984932e-02,
          8.84990618e-02, 1.20547831e-01, 8.80575851e-02, 0.,
          3.38581622e-01, 3.38581622e-01, 1.32318094e-01, 0.,
          8.62167552e-02, 0., 0., 1.58160210e-01, 1.37433350e-01,
          1.83593869e-01, 3.38581622e-01, 0., 0., 0., 0., 0., 0., 0. ]
      - [ 1.04738966e-01, 5.53761795e-02, 0., 0., 2.33799979e-01,
          3.71779680e-01, 1.51752800e-01, 0., 0., 3.71779680e-01,
          1.21414691e-01, 0., 2.77219296e-01, 3.71779680e-01,
          1.02829866e-01, 2.31491551e-01, 8.71812031e-02, 5.25035225e-02,
          8.09929818e-02, 6.46855906e-02, 3.42785977e-02, 0., 0., 0., 0.,
          5.61471209e-02, 6.70781359e-02, 3.71779680e-01, 3.71779680e-01,
          9.67226252e-02, 0., 8.53586942e-02, 0., 0., 1.00439020e-01,
          6.89874291e-02 ]
      - [ 5.38885333e-02, 8.84020403e-02, 0., 5.98933324e-02,
          3.51960689e-01, 6.00192621e-02, 0., 0., 0., 7.03143254e-02,
          3.51960689e-01, 3.51960689e-01, 5.72200259e-03, 3.51960689e-01,
          1.30534053e-01, 8.62589255e-02, 5.20293741e-03, 3.76221612e-02,
          2.68011272e-01, 2.53397107e-01, 0., 0., 4.45844494e-02,
          8.97004083e-02, 0., 9.92873162e-02, 6.36174753e-02,
          3.51960689e-01, 3.51960689e-01, 6.39710128e-02, 1.19818412e-01,
          1.70504048e-01, 2.08546277e-02, 0., 0., 0. ]
      - [ 5.66542745e-02, 1.11881509e-01, 1.40420608e-02, 0.,
          3.09048533e-01, 3.36188257e-01, 1.69580430e-02, 0.,
          6.67378157e-02, 8.82704258e-02, 1.40859321e-01, 3.36188257e-01,
          1.33722806e-02, 3.36188257e-01, 3.36188257e-01, 8.16309154e-02,
          3.89746800e-02, 5.69979921e-02, 1.99194789e-01, 3.36188257e-01,
          0., 0., 5.29965945e-02, 1.24238104e-01, 9.28393900e-02,
          9.60870981e-02, 5.51910065e-02, 1.14982821e-01, 3.36188257e-01,
          2.09757775e-01, 2.53926814e-02, 1.72418684e-01, 0., 0.,
          5.66414744e-03, 0. ]
      - [ 1.23893291e-01, 6.58896044e-02, 2.88356021e-02, 3.85445178e-01,
          3.85445178e-01, 0., 0., 0., 0., 1.71769872e-01, 3.85445178e-01,
          2.90470533e-02, 2.34293744e-01, 1.55311853e-01, 5.65338805e-02,
          3.81818190e-02, 5.91876805e-02, 9.79746655e-02, 3.85445178e-01,
          5.81632666e-02, 0., 0., 0., 4.01115417e-02, 7.63261765e-02,
          4.41840217e-02, 1.44158319e-01, 3.85445178e-01, 1.76747918e-01,
          8.90679210e-02, 9.27946940e-02, 1.52018130e-01, 6.18696921e-02,
          3.46383937e-02, 0., 6.71121432e-03 ]
      - [ 6.57810718e-02, 3.31969917e-01, 0., 0., 3.31969917e-01,
          4.87486236e-02, 0., 2.24350393e-02, 0., 1.54154643e-01,
          3.31969917e-01, 1.98575675e-01, 2.83076726e-02, 3.31969917e-01,
          1.04320869e-01, 8.69503245e-02, 3.85746695e-02, 1.04732595e-01,
          3.31969917e-01, 2.96326637e-01, 0., 6.45944774e-02,
          1.62238032e-01, 1.39794469e-01, 2.43841037e-02, 9.53953415e-02,
          5.80818541e-02, 3.31969917e-01, 2.84446925e-01, 5.43118492e-02,
          2.02661566e-02, 3.85624170e-02, 0., 0., 0., 0. ]
      - [ 1.66941464e-01, 0., 3.80442515e-02, 5.80759272e-02,
          3.80443215e-01, 5.80759272e-02, 3.87297906e-02, 0., 0.,
          2.88954079e-02, 3.80443215e-01, 3.04834813e-01, 1.75277367e-02,
          3.80443215e-01, 4.48370092e-02, 0., 4.11386229e-02,
          6.53717369e-02, 1.43203288e-01, 3.53909805e-02, 0., 0.,
          1.35724023e-02, 0., 0., 3.90680507e-02, 0., 3.80443215e-01,
          3.80443215e-01, 7.06807077e-02, 1.17622316e-01, 2.84121156e-01,
          7.35263079e-02, 6.19375557e-02, 3.61965820e-02, 5.59582002e-02 ]
      - [ 0., 0., 6.17838204e-02, 6.89056739e-02, 3.87668043e-01, 0.,
          4.83063497e-02, 7.07132444e-02, 0., 7.02086315e-02,
          1.24264389e-01, 0., 0., 3.01353604e-01, 3.87668043e-01,
          1.77339211e-01, 9.71836224e-02, 1.67751580e-01, 1.66785181e-01,
          1.41830638e-01, 3.87668043e-01, 0., 0., 0., 4.35622185e-02, 0.,
          0., 8.18346720e-03, 3.87668043e-01, 3.87668043e-01,
          4.72875796e-02, 1.47530567e-02, 0., 0., 0., 9.87074338e-03 ]
      - [ 0., 4.36752886e-02, 7.36488849e-02, 5.08140065e-02,
          3.55310678e-01, 3.55310678e-01, 3.42686884e-02, 6.65363222e-02,
          5.66845350e-02, 1.61122307e-01, 0., 0., 0., 6.74581975e-02,
          3.55310678e-01, 3.55310678e-01, 1.21532746e-01, 8.88351426e-02,
          1.47049949e-01, 9.28433537e-02, 3.55310678e-01, 8.73812363e-02,
          1.51495794e-02, 0., 4.77177761e-02, 8.11356120e-03,
          4.67493273e-02, 1.48697393e-02, 3.55310678e-01, 3.55310678e-01,
          2.52492987e-02, 2.97249034e-02, 0., 0., 0., 0. ]
      - [ 0., 0., 1.59617029e-02, 3.27309370e-01, 3.27309370e-01,
          2.91630998e-02, 0., 0., 4.93023843e-02, 2.39618778e-01,
          1.16819188e-01, 0., 4.27281521e-02, 3.27309370e-01,
          3.27309370e-01, 1.31898984e-01, 1.02403283e-01, 0.,
          2.21713766e-01, 3.27309370e-01, 2.87014663e-01, 0.,
          1.04326971e-01, 2.84430534e-02, 0., 0., 0., 4.47879732e-02,
          3.27309370e-01, 3.27309370e-01, 1.90817025e-02, 1.31571470e-02,
          0., 0., 0., 0. ]
      - [ 0., 0., 0., 0., 4.19825375e-01, 2.05144018e-01, 1.44060314e-01,
          0., 0., 5.58373109e-02, 1.28741622e-01, 0., 0., 7.16321543e-02,
          2.85266489e-01, 1.51456952e-01, 1.01865970e-01, 1.69839144e-01,
          1.52944297e-01, 3.79848242e-01, 4.19825375e-01, 8.17554295e-02,
          1.19591234e-02, 0., 0., 5.10136597e-02, 0., 8.55413172e-03,
          3.49625438e-01, 3.41677547e-01, 0., 0., 1.15588792e-02, 0., 0.,
          0. ]
      - [ 7.04983622e-02, 0., 6.35976270e-02, 7.09285587e-02,
          4.14466828e-01, 0., 4.97244895e-02, 7.27891922e-02, 0., 0.,
          5.98244071e-02, 0., 0., 4.14466828e-01, 4.14466828e-01,
          1.82545394e-01, 4.45850156e-02, 1.06824793e-01, 1.49931610e-01,
          9.78419781e-02, 1.73661113e-01, 0., 0., 0., 4.48410846e-02, 0.,
          0., 3.01736426e-02, 4.14466828e-01, 4.14466828e-01,
          4.86758128e-02, 3.69360968e-02, 0., 0., 0., 1.01605216e-02 ]
      - [ 9.15923566e-02, 3.05993557e-01, 3.05993557e-01, 1.33475855e-01,
          6.53859824e-02, 6.65017739e-02, 0., 0., 1.81832105e-01,
          1.65389076e-01, 1.64650455e-01, 0., 1.71190158e-01,
          2.42857888e-01, 7.66515583e-02, 8.95806029e-02, 3.05993557e-01,
          1.89081520e-01, 1.61974624e-01, 1.70642018e-01, 0.,
          2.36440767e-02, 2.72016138e-01, 2.39498869e-01, 2.81134695e-01,
          7.13584721e-02, 1.72806099e-01, 1.23358518e-01, 3.05993557e-01,
          1.38961688e-01, 1.64742097e-01, 1.33936359e-02, 1.26149198e-02,
          0., 4.29178216e-02, 0. ]
      - [ 1.85468540e-01, 2.55561739e-01, 2.73419648e-01, 2.26644382e-01,
          3.65314409e-02, 2.09912583e-02, 4.96392809e-02, 8.99914205e-02,
          1.22181170e-01, 2.03976929e-01, 7.17793256e-02, 0.,
          1.40087418e-02, 2.73419648e-01, 1.86208874e-01, 6.22892827e-02,
          2.73419648e-01, 1.64745569e-01, 2.20957413e-01, 2.13105723e-01,
          0., 0., 2.11827457e-01, 2.73419648e-01, 1.10323533e-01,
          1.49374336e-01, 1.16921939e-01, 2.56292284e-01, 2.73419648e-01,
          2.73419648e-01, 7.33694509e-02, 0., 1.41221564e-02, 0.,
          8.24988633e-03, 4.31067385e-02 ]
      - [ 2.68632770e-01, 1.62553206e-01, 2.73449510e-01, 2.51277357e-01,
          7.70282075e-02, 3.04213073e-02, 0., 0., 0., 7.08840340e-02,
          1.93521589e-01, 6.45975173e-02, 5.51093519e-02, 1.57901451e-01,
          1.98271245e-01, 2.73449510e-01, 2.73449510e-01, 2.13155806e-01,
          1.18100941e-01, 1.21364474e-01, 0., 2.41054475e-01,
          1.85520500e-01, 1.94612548e-01, 5.92536069e-02, 2.73449510e-01,
          1.42320290e-01, 2.73449510e-01, 2.73449510e-01, 1.38283268e-01,
          1.24080665e-01, 6.86244294e-02, 0., 3.61776687e-02,
          4.73057665e-03, 0. ]
      - [ 4.52742465e-02, 2.74666488e-01, 2.74666488e-01, 2.74666488e-01,
          2.57144660e-01, 1.40087381e-01, 0., 1.57002315e-01,
          1.97498828e-01, 1.61846891e-01, 8.12203065e-02, 0., 0.,
          4.44974639e-02, 0., 8.76620263e-02, 2.74666488e-01,
          1.65470839e-01, 1.41124621e-01, 2.74666488e-01, 8.87316391e-02,
          1.84351459e-01, 2.66190290e-01, 2.46714205e-01, 2.74666488e-01,
          1.11828797e-01, 1.69105053e-01, 1.16669372e-01, 2.74666488e-01,
          4.72538620e-02, 0., 1.31067811e-02, 0., 0., 0., 0. ]
      - [ 9.01583657e-02, 1.79365918e-01, 2.60996908e-01, 4.57268469e-02,
          7.18474388e-03, 0., 0., 0., 1.38449743e-01, 7.17628002e-02,
          3.14208806e-01, 2.36333340e-01, 2.54169226e-01, 2.96233147e-01,
          1.40912086e-01, 8.81781057e-02, 3.14208806e-01, 2.26656765e-01,
          3.67953740e-02, 0., 0., 0., 1.94498692e-02, 1.38054907e-01,
          2.06652209e-01, 7.02412650e-02, 1.19801268e-01, 2.36885771e-01,
          3.14208806e-01, 1.36786059e-01, 1.85436755e-01, 2.61491477e-01,
          1.10111728e-01, 7.00809583e-02, 4.22458872e-02, 5.02993166e-02 ]
      - [ 1.77508846e-01, 1.46169409e-01, 2.25045264e-01, 2.95789778e-01,
          1.76017314e-01, 0., 0., 1.30130481e-02, 3.26113999e-02,
          7.73792118e-02, 0., 0., 0., 2.95789778e-01, 2.95789778e-01,
          1.79618210e-01, 4.62439731e-02, 1.06232472e-01, 1.43343553e-01,
          2.46230159e-02, 2.95789778e-01, 9.39700082e-02, 1.90856099e-01,
          2.95789778e-01, 2.29036182e-01, 1.25699908e-01, 5.88715598e-02,
          2.42330983e-01, 1.74211681e-01, 2.95789778e-01, 1.15725577e-01,
          2.05639377e-01, 2.69958861e-02, 3.67767401e-02, 0.,
          5.16898744e-02 ]
      - [ 8.52898508e-02, 8.64142925e-02, 1.84902415e-01, 2.68138975e-01,
          2.10054979e-01, 0., 6.98943157e-03, 8.97212327e-02,
          1.53117090e-01, 2.78858300e-02, 0., 0., 2.25320384e-02,
          2.68138975e-01, 2.68138975e-01, 2.68138975e-01, 6.39672652e-02,
          8.34819153e-02, 2.22651780e-01, 3.98612283e-02, 1.34388536e-01,
          2.68138975e-01, 4.00486365e-02, 2.68138975e-01, 2.68138975e-01,
          1.99257538e-01, 0., 1.96861878e-01, 2.44627416e-01,
          2.68138975e-01, 1.97382480e-01, 1.66743845e-01, 7.17487261e-02,
          0., 0., 8.26392844e-02 ]
      - [ 4.49872054e-02, 1.91837147e-01, 2.76798010e-01, 2.76798010e-01,
          1.21820688e-01, 0., 0., 1.52412779e-03, 2.61977948e-02,
          1.41798645e-01, 0., 0., 1.04093663e-01, 2.76798010e-01,
          2.76798010e-01, 1.24757066e-01, 1.10622510e-01, 1.11490607e-01,
          1.23734511e-01, 1.38225993e-02, 2.18951389e-01, 7.06469640e-02,
          2.76798010e-01, 2.76798010e-01, 2.36002833e-01, 1.42711610e-01,
          1.39405251e-01, 2.32783407e-01, 2.76798010e-01, 2.76798010e-01,
          8.19321722e-02, 1.85034230e-01, 0., 1.63253732e-02,
          4.51153778e-02, 1.28114633e-02 ]
      - [ 7.61367381e-02, 1.58625674e-02, 2.00049669e-01, 2.91941583e-01,
          2.91941583e-01, 8.73877555e-02, 0., 1.22995032e-02,
          3.40815075e-02, 1.34107992e-01, 0., 0., 0., 1.22320078e-01,
          2.91941583e-01, 1.78041518e-01, 8.57702717e-02, 1.65762529e-01,
          1.90593719e-01, 2.36617960e-02, 2.91941583e-01, 1.27892151e-01,
          2.91941583e-01, 2.91941583e-01, 2.26267874e-01, 0.,
          5.27334362e-02, 2.89050221e-01, 2.32284382e-01, 2.91941583e-01,
          6.28258139e-02, 0., 2.98312353e-03, 8.43443722e-03,
          1.07652321e-02, 4.90176538e-03 ]
      - [ 1.91257879e-01, 1.61668390e-01, 1.86336607e-01, 2.65880942e-01,
          4.60091978e-02, 0., 1.31892357e-02, 0., 3.67143638e-02,
          1.33002445e-01, 1.00295013e-02, 6.56140819e-02, 2.34681681e-01,
          3.22134942e-01, 3.22134942e-01, 5.32215126e-02, 0.,
          5.14814146e-02, 1.59460649e-01, 3.04314289e-02, 1.14861868e-01,
          7.06055760e-02, 1.18295498e-01, 2.38867208e-01, 1.92699298e-01,
          1.41505480e-01, 6.62741065e-02, 1.69514015e-01, 4.56916057e-02,
          3.22134942e-01, 1.46686092e-01, 3.22134942e-01, 2.95693547e-01,
          1.01959728e-01, 4.58813226e-03, 5.63013144e-02 ]
      - [ 1.84715956e-01, 2.68942446e-01, 1.21213675e-01, 2.52516009e-02,
          1.47539720e-01, 9.31823179e-02, 1.92307696e-01, 4.85625342e-02,
          9.24356505e-02, 2.68942446e-01, 0., 0., 3.05154268e-02,
          1.96574271e-01, 4.75969277e-02, 2.17088327e-01, 2.40109816e-01,
          2.50970125e-01, 2.34870508e-01, 1.63299382e-01, 0., 0.,
          2.68942446e-01, 2.14358747e-01, 2.68942446e-01, 6.88801333e-02,
          0., 2.68942446e-01, 2.68942446e-01, 1.11153714e-01,
          1.39829382e-01, 0., 0., 0., 1.14287704e-01, 2.26131156e-01 ]
      - [ 2.56179482e-01, 2.14726880e-01, 1.72416210e-01, 0.,
          1.87063411e-01, 9.29439440e-02, 9.67220366e-02, 2.35663772e-01,
          0., 2.56179482e-01, 0., 2.24154592e-02, 0., 6.13013804e-02,
          1.74561232e-01, 1.54214039e-01, 2.29913443e-01, 2.56179482e-01,
          6.66449964e-02, 1.70548707e-01, 0., 1.82344899e-01,
          2.56179482e-01, 2.56179482e-01, 2.56179482e-01, 1.22615146e-02,
          1.54998526e-01, 2.56179482e-01, 2.56179482e-01, 1.48882166e-01,
          1.27518505e-01, 0., 0., 0., 1.41109511e-01, 1.73066109e-01 ]
      - [ 2.33595818e-01, 2.27501526e-01, 2.37711594e-01, 1.09924696e-01,
          1.94426447e-01, 0., 4.93523516e-02, 1.31701216e-01,
          9.40893516e-02, 1.83657587e-01, 0., 0., 0., 1.94618136e-01,
          9.53536853e-02, 1.05287842e-01, 1.75096139e-01, 2.59481549e-01,
          1.59389287e-01, 7.27299675e-02, 1.77560583e-01, 8.85797888e-02,
          2.59481549e-01, 2.24922687e-01, 2.59481549e-01, 1.18140534e-01,
          0., 2.59481549e-01, 2.59481549e-01, 2.59481549e-01,
          9.99071971e-02, 6.30968139e-02, 0., 0., 1.27726912e-01,
          2.59481549e-01 ]
      - [ 2.61370093e-01, 2.70466745e-01, 1.20223500e-01, 5.53114749e-02,
          2.70466745e-01, 1.39629245e-01, 2.70466745e-01, 2.03896984e-01,
          1.74849644e-01, 2.02645212e-01, 0., 0., 0., 1.20217921e-02, 0.,
          0., 8.24172571e-02, 1.65750891e-01, 2.70466745e-01,
          2.70466745e-01, 1.10245720e-01, 1.38687149e-01, 2.70466745e-01,
          2.12607697e-01, 2.70466745e-01, 1.81671575e-01, 5.42295910e-02,
          2.70466745e-01, 1.42766014e-01, 0., 0., 0., 0., 0., 0.,
          1.70054361e-01 ]
      - [ 1.52712509e-01, 2.35706031e-01, 0., 0., 0., 0., 8.98154080e-02,
          0., 9.29235369e-02, 2.72136569e-01, 2.09181026e-01,
          1.21853448e-01, 5.60613684e-02, 2.72136569e-01, 1.41522288e-01,
          2.72136569e-01, 2.72136569e-01, 2.52294749e-01, 1.32827684e-01,
          7.71445632e-02, 0., 0., 1.51682407e-01, 3.51744294e-02,
          1.15957588e-01, 3.85316573e-02, 0., 2.72136569e-01,
          2.72136569e-01, 1.11740395e-01, 1.40567407e-01, 2.72136569e-01,
          1.80315718e-01, 2.00441942e-01, 1.45602956e-01, 2.27324709e-01 ]
      - [ 1.49120167e-01, 4.19603661e-02, 2.87692428e-01, 2.23789185e-01,
          2.87692428e-01, 8.18512365e-02, 1.69977561e-01, 4.25913818e-02,
          1.19301818e-01, 1.20004594e-01, 2.87692428e-01, 2.87692428e-01,
          1.52414709e-01, 2.87692428e-01, 3.71588953e-02, 0.,
          8.82589370e-02, 1.07691750e-01, 2.87692428e-01, 1.59787029e-01,
          9.81343091e-02, 6.13527410e-02, 2.32173055e-01, 1.40971109e-01,
          1.49552748e-01, 8.12994838e-02, 0., 2.87692428e-01,
          2.87692428e-01, 6.73484206e-02, 0., 9.66747757e-03,
          4.12429906e-02, 0., 0., 7.57475048e-02 ]
      - [ 1.65811300e-01, 6.71299547e-02, 2.07288370e-01, 2.55492598e-01,
          2.35131621e-01, 8.23134631e-02, 1.91865340e-01, 1.95149899e-01,
          3.17832790e-02, 0., 2.03144297e-01, 2.55492598e-01,
          2.31687784e-01, 2.55492598e-01, 2.06714988e-01, 6.98372647e-02,
          1.54702872e-01, 5.97398840e-02, 2.55492598e-01, 2.55492598e-01,
          8.56478605e-03, 0., 1.57334790e-01, 1.98247999e-01,
          9.97148976e-02, 6.71265498e-02, 1.19640298e-01, 2.55492598e-01,
          2.55492598e-01, 2.55492598e-01, 0., 0., 2.08455827e-02,
          3.83065566e-02, 0., 0. ]
      - [ 1.19997822e-01, 2.65955508e-01, 2.53753990e-01, 2.25415438e-01,
          2.65955508e-01, 0., 7.90448189e-02, 4.96720970e-02,
          6.68170527e-02, 2.52056569e-01, 2.65955508e-01, 2.65955508e-01,
          1.35848269e-01, 2.37581417e-01, 6.15630485e-02, 0.,
          1.02957211e-01, 0., 2.01485485e-01, 9.38262641e-02, 0.,
          1.05399206e-01, 1.40433982e-01, 1.21985406e-01, 2.60630578e-01,
          8.78569707e-02, 2.51387984e-01, 2.65955508e-01, 2.65955508e-01,
          0., 0., 0., 4.63142656e-02, 7.69713894e-02, 0., 1.94877997e-01 ]
      - [ 1.12407915e-01, 0., 2.86072016e-01, 2.86072016e-01,
          2.86072016e-01, 1.15333796e-01, 1.64726779e-01, 8.55325311e-02,
          9.16400328e-02, 1.16297536e-01, 2.86072016e-01, 2.86072016e-01,
          0., 2.30553895e-01, 0., 0., 0., 6.69678599e-02, 2.86072016e-01,
          2.86072016e-01, 1.60370797e-01, 5.94574958e-02, 2.34369859e-01,
          1.76585332e-01, 1.44932926e-01, 7.87880644e-02, 7.34075904e-02,
          2.39549726e-01, 2.86072016e-01, 0., 0., 0., 0., 0., 0., 0. ]
      - [ 1.52437672e-01, 4.28938642e-02, 3.42451870e-01, 0.,
          1.03962280e-01, 5.72846197e-02, 1.32111058e-01, 4.35389206e-02,
          1.21955946e-01, 2.83967834e-02, 2.97099888e-01, 3.42451870e-01,
          3.42451870e-01, 3.42451870e-01, 6.43731579e-02, 4.16480191e-02,
          9.02224481e-02, 3.94477509e-02, 0., 0., 0., 0., 1.05971664e-01,
          7.11380765e-02, 1.52879879e-01, 0., 0., 3.42451870e-01,
          3.42451870e-01, 1.69164255e-01, 6.27176687e-02, 1.41249165e-01,
          1.15129784e-01, 0., 8.31081644e-02, 7.74326697e-02 ]
      - [ 1.72710434e-01, 1.78543761e-01, 1.68460429e-01, 3.01623940e-01,
          1.15315281e-01, 1.31077347e-02, 1.56639342e-03, 0., 0.,
          1.56914461e-02, 0., 0., 0., 3.01623940e-01, 3.01623940e-01,
          1.62777081e-01, 4.49620821e-02, 1.15186200e-01, 1.50201321e-01,
          3.09267659e-02, 3.01623940e-01, 0., 1.22722007e-01,
          3.01623940e-01, 2.11365551e-01, 1.12370044e-01, 1.13515429e-01,
          1.65498495e-01, 3.01623940e-01, 3.01623940e-01, 1.44102588e-01,
          2.32724845e-01, 7.00389743e-02, 0., 3.97990383e-02, 0. ]
      - [ 1.40687093e-01, 8.60235095e-02, 1.52466446e-01, 2.77279496e-01,
          2.49756649e-01, 0., 0., 1.00785755e-02, 1.72274008e-01, 0.,
          7.73482025e-03, 1.15866251e-02, 4.91843931e-03, 2.77279496e-01,
          2.77279496e-01, 2.77279496e-01, 7.59870186e-02, 3.64908390e-02,
          1.84437722e-01, 6.36522919e-02, 1.68511838e-01, 2.77279496e-01,
          3.75605449e-02, 2.33366445e-01, 2.77279496e-01, 8.26317668e-02,
          3.45914327e-02, 1.07311465e-01, 9.54190716e-02, 2.77279496e-01,
          2.77279496e-01, 2.71980941e-01, 6.32128492e-02, 0.,
          3.14274430e-02, 7.12004527e-02 ]
      - [ 3.98355462e-02, 1.17291473e-01, 2.90387481e-01, 2.90387481e-01,
          1.20242208e-01, 0., 0., 0., 2.18788348e-02, 1.62623480e-01, 0.,
          3.98975750e-03, 1.40509367e-01, 2.90387481e-01, 2.90387481e-01,
          1.09541230e-01, 7.48698562e-02, 2.55739763e-02, 1.38510391e-01,
          2.54736375e-02, 1.93015754e-01, 0., 2.90387481e-01,
          2.90387481e-01, 1.81269586e-01, 8.21415633e-02, 2.15814918e-01,
          1.73543558e-01, 2.90387481e-01, 2.90387481e-01, 1.28806189e-01,
          1.90756291e-01, 3.41642760e-02, 3.45527567e-02, 6.68356195e-03,
          4.33888845e-02 ]
      - [ 8.23322386e-02, 4.81147543e-02, 1.39556304e-01, 3.01846951e-01,
          3.01846951e-01, 3.01144924e-02, 1.22280130e-02, 1.66666228e-03,
          0., 8.50804597e-02, 0., 0., 0., 1.11379713e-01, 3.01846951e-01,
          1.99392274e-01, 1.02449954e-01, 1.71507522e-01, 2.17361107e-01,
          1.41980559e-01, 3.01846951e-01, 7.64260888e-02, 3.01846951e-01,
          3.01846951e-01, 1.10376090e-01, 1.07014552e-01, 2.20028572e-02,
          1.84184417e-01, 3.01846951e-01, 3.01846951e-01, 9.77604315e-02,
          0., 0., 0., 1.09806787e-02, 3.46459858e-02 ]
      - [ 2.14852825e-01, 1.54615760e-01, 1.81970716e-01, 2.50620186e-01,
          4.24859263e-02, 1.63213667e-02, 0., 0., 0., 0., 4.34279032e-02,
          6.24645539e-02, 2.39733875e-01, 3.14222753e-01, 2.61557072e-01,
          6.10223003e-02, 5.13590537e-02, 9.72151309e-02, 1.68989122e-01,
          5.20252064e-03, 1.97630435e-01, 2.19916534e-02, 7.73665085e-02,
          2.74198592e-01, 1.70772091e-01, 1.25128925e-01, 1.25035986e-01,
          1.31435066e-01, 1.55207485e-01, 3.14222753e-01, 1.60122946e-01,
          3.14222753e-01, 3.14222753e-01, 9.61288586e-02, 0.,
          5.92743792e-02 ]
      - [ 3.45134139e-01, 7.67890364e-02, 7.14595839e-02, 6.14910759e-02,
          2.70881206e-01, 9.70557984e-03, 0., 0., 7.64502808e-02,
          1.18493950e-02, 3.72890905e-02, 0., 6.29934072e-02,
          3.45134139e-01, 3.40560108e-01, 2.67896295e-01, 7.89394230e-02,
          9.57785174e-02, 3.45134139e-01, 0., 0., 0., 0., 0.,
          4.96074781e-02, 0., 3.45134139e-01, 3.45134139e-01,
          5.63252419e-02, 2.09329322e-01, 1.35195941e-01, 1.68923378e-01,
          0., 4.83583286e-02, 1.90631510e-03, 5.52399419e-02 ]
      - [ 3.50279421e-01, 1.26583591e-01, 9.66400877e-02, 8.19408894e-02,
          1.77547336e-01, 5.47045767e-02, 0., 0., 2.15387084e-02, 0.,
          4.62993011e-02, 0., 4.26474698e-02, 3.09764206e-01,
          3.50279421e-01, 3.50279421e-01, 8.17493945e-02, 0.,
          3.50279421e-01, 1.02358229e-01, 0., 0., 9.91871022e-03,
          4.93706837e-02, 0., 1.13046445e-01, 2.67576039e-01,
          3.50279421e-01, 2.19858289e-01, 8.17344114e-02, 8.79740044e-02,
          1.72483951e-01, 5.14148697e-02, 0., 5.26631298e-03,
          1.42466709e-01 ]
      - [ 1.53846666e-01, 1.35005757e-01, 4.11348119e-02, 2.57938564e-01,
          1.78726643e-01, 0., 0., 0., 2.24708736e-01, 0., 4.82557379e-02,
          1.94476768e-02, 1.60122052e-01, 3.00502449e-01, 2.96612471e-01,
          1.55446231e-01, 1.34996787e-01, 1.33756384e-01, 3.00502449e-01,
          2.48871185e-03, 0., 0., 0., 0., 1.69274174e-02, 1.39490455e-01,
          3.00502449e-01, 3.00502449e-01, 8.49957615e-02, 2.86087960e-01,
          1.02761284e-01, 1.98225483e-01, 4.27324027e-02, 0.,
          1.37225866e-01, 3.00502449e-01 ]
      - [ 3.55726868e-01, 1.08605392e-01, 6.80314153e-02, 1.18512519e-01,
          3.55726868e-01, 3.79161201e-02, 0., 0., 7.27826953e-02,
          7.52918348e-02, 0., 0., 0., 1.82926834e-01, 2.95546085e-01,
          2.63506413e-01, 1.11040458e-01, 1.47679582e-01, 3.55726868e-01,
          0., 0., 3.61002460e-02, 1.18670367e-01, 0., 9.32660475e-02, 0.,
          3.55726868e-01, 3.55726868e-01, 8.99211764e-02, 1.99287057e-01,
          9.26098749e-02, 0., 0., 0., 1.81486248e-03, 1.39890969e-01 ]
      - [ 3.62717479e-01, 3.70493680e-02, 6.36410341e-02, 7.22413063e-02,
          7.69981965e-02, 0., 0., 0., 0., 3.62659432e-02, 9.51365530e-02,
          2.23105829e-02, 7.29956031e-02, 3.62717479e-01, 3.52280736e-01,
          1.32105008e-01, 3.43769230e-02, 1.53192267e-01, 3.62717479e-01,
          0., 0., 0., 0., 0., 0., 0., 3.08403850e-01, 3.62717479e-01,
          5.92041239e-02, 1.22686423e-01, 1.52195245e-01, 1.23615034e-01,
          7.31106251e-02, 1.11884817e-01, 0., 3.23729634e-01 ]
      - [ 2.77701229e-01, 4.57336716e-02, 1.08966306e-01, 1.74105242e-01,
          1.70453578e-01, 1.91209838e-01, 3.45584890e-03, 7.25474358e-02,
          2.61093736e-01, 0., 2.17915233e-03, 0., 0., 2.50507127e-02,
          2.77701229e-01, 2.77701229e-01, 2.77701229e-01, 5.89177646e-02,
          2.77701229e-01, 1.02998815e-01, 0., 1.82159856e-01,
          2.25472704e-01, 1.87154904e-01, 7.22558349e-02, 9.66519937e-02,
          1.26163378e-01, 9.10034701e-02, 2.61893868e-01, 2.77701229e-01,
          2.77701229e-01, 8.58273730e-02, 4.04630043e-03, 0., 0.,
          1.68356031e-01 ]
      - [ 2.87670881e-01, 1.83205426e-01, 9.70485508e-02, 3.40029858e-02,
          8.07963088e-02, 7.14475438e-02, 5.65776974e-03, 2.56516170e-02,
          1.53765514e-01, 7.50870258e-02, 8.31382535e-03, 9.82583780e-03,
          0., 1.62006710e-02, 1.42752647e-01, 2.87670881e-01,
          2.87670881e-01, 6.90466240e-02, 2.87670881e-01, 2.65618294e-01,
          2.94779078e-03, 0., 2.87670881e-01, 1.92839041e-01,
          2.07466930e-01, 9.62170213e-02, 1.14987746e-01, 1.64981619e-01,
          2.02478275e-01, 2.87670881e-01, 2.87670881e-01, 1.45573720e-01,
          0., 0., 3.91403399e-03, 2.16116488e-01 ]
      - [ 2.41061121e-01, 7.09729120e-02, 9.25910920e-02, 2.81710863e-01,
          2.49942392e-01, 1.52456984e-01, 0., 2.10774615e-01,
          1.40115470e-01, 0., 0., 3.51358764e-03, 0., 1.31476447e-01,
          2.81710863e-01, 2.81710863e-01, 2.30262801e-01, 1.12914793e-01,
          2.81710863e-01, 1.99912731e-02, 0., 1.72416121e-01,
          1.45699486e-01, 6.48556650e-02, 8.21256340e-02, 1.76904216e-01,
          2.81710863e-01, 1.79307893e-01, 1.06916696e-01, 2.81710863e-01,
          2.79069722e-01, 3.09765860e-02, 5.16985776e-03, 0., 0.,
          5.67581095e-02 ]
      - [ 2.79311568e-01, 0., 9.33585316e-02, 2.06245050e-01,
          2.08802909e-01, 2.79311568e-01, 8.21043551e-02, 3.90653946e-02,
          1.72495306e-01, 3.24988998e-02, 0., 3.13743437e-03, 0.,
          1.64960138e-02, 1.63100898e-01, 2.79311568e-01, 2.79311568e-01,
          8.50220770e-02, 2.79311568e-01, 5.53535745e-02, 0.,
          2.79311568e-01, 2.79311568e-01, 2.33831167e-01, 5.00495210e-02,
          4.48850952e-02, 8.21081623e-02, 1.74182832e-01, 2.31330529e-01,
          2.79311568e-01, 1.42659590e-01, 3.59566920e-02, 0., 0., 0.,
          1.82586044e-01 ]
      - [ 3.14439863e-01, 5.20808920e-02, 8.42183530e-02, 1.72759712e-01,
          8.35990384e-02, 8.57251231e-04, 6.79367280e-04, 8.60817060e-02,
          2.49543682e-01, 7.74903297e-02, 0., 4.12533358e-02,
          2.37802919e-02, 1.77211940e-01, 3.14439863e-01, 3.14439863e-01,
          1.45722389e-01, 1.08010009e-01, 3.14439863e-01, 7.08647892e-02,
          0., 0., 8.40656161e-02, 1.89396098e-01, 8.03516284e-02,
          1.04512833e-01, 1.09093234e-01, 8.45276192e-02, 1.24046430e-01,
          3.14439863e-01, 3.14439863e-01, 3.14439863e-01, 5.28464057e-02,
          0., 4.90672421e-03, 1.28073692e-01 ]
      - [ 2.78007835e-01, 1.08906500e-01, 6.14666156e-02, 1.74651206e-01,
          1.03859983e-01, 9.82627496e-02, 0., 0., 2.78007835e-01,
          5.62242232e-02, 0., 0., 0., 2.08556242e-02, 2.63161719e-01,
          2.74357766e-01, 2.78007835e-01, 2.78007835e-01, 2.78007835e-01,
          0., 0., 0., 1.73171207e-01, 1.69488400e-01, 1.29736453e-01, 0.,
          2.78007835e-01, 2.78007835e-01, 2.09051922e-01, 2.78007835e-01,
          2.05895081e-01, 4.59621400e-02, 3.52664082e-03, 0., 0.,
          5.67445643e-02 ]
      - [ 3.01695555e-01, 1.73099369e-01, 1.22219577e-01, 4.42400575e-02,
          7.66765997e-02, 3.79967690e-02, 0., 0., 1.51097104e-01,
          1.77099258e-01, 0., 0., 0., 0., 3.01695555e-01, 1.83041096e-01,
          3.01695555e-01, 1.30684510e-01, 3.01695555e-01, 7.69328559e-03,
          0., 2.57313880e-03, 8.66010338e-02, 3.01695555e-01,
          9.57124457e-02, 1.48491338e-01, 1.37905687e-01, 3.01695555e-01,
          2.39858106e-01, 3.01695555e-01, 2.92832285e-01, 1.38388537e-02,
          0., 4.86566080e-03, 0., 5.10729849e-02 ]
      - [ 2.66381025e-01, 1.09566487e-01, 2.29414865e-01, 1.30293146e-01,
          2.66381025e-01, 0., 0., 2.38690488e-02, 2.66381025e-01,
          9.51950178e-02, 0., 0., 0., 1.38133615e-01, 1.53979421e-01,
          2.66381025e-01, 2.66381025e-01, 1.99985445e-01, 2.66381025e-01,
          0., 0., 0., 1.03442557e-01, 1.14867717e-01, 3.62413637e-02,
          1.59017473e-01, 2.66381025e-01, 2.66381025e-01, 2.66381025e-01,
          2.66381025e-01, 1.64572492e-01, 4.19348702e-02, 0., 0.,
          2.95775826e-03, 1.92448243e-01 ]
      - [ 2.64140636e-01, 1.24956220e-01, 7.05250502e-02, 2.00389847e-01,
          1.56818748e-01, 2.64140636e-01, 1.31044954e-01, 4.91503701e-02,
          2.64140636e-01, 5.83012700e-02, 0., 0., 0., 3.58465896e-03,
          6.55701756e-02, 1.83745354e-01, 2.64140636e-01, 2.64140636e-01,
          2.64140636e-01, 4.45720330e-02, 1.37012884e-01, 1.58701479e-01,
          2.64140636e-01, 1.98512539e-01, 1.48855925e-01, 0.,
          2.64140636e-01, 2.64140636e-01, 1.95288211e-01, 2.64140636e-01,
          7.75366798e-02, 0., 0., 0., 0., 6.51070997e-02 ]
      - [ 2.71087319e-01, 6.60110787e-02, 6.68135360e-02, 1.42014891e-01,
          1.33611532e-02, 0., 0., 0., 2.71087319e-01, 1.47906870e-01,
          5.23690991e-02, 0., 4.78290617e-02, 1.60322234e-01,
          2.71087319e-01, 2.71087319e-01, 2.71087319e-01, 2.71087319e-01,
          2.71087319e-01, 0., 0., 0., 1.27352893e-01, 5.49338991e-03,
          6.98626563e-02, 0., 1.80724263e-01, 2.68881172e-01,
          2.27237150e-01, 2.71087319e-01, 2.23805696e-01, 1.48961559e-01,
          1.82572052e-01, 7.11594373e-02, 0., 2.04733327e-01 ]
      - [ 3.02118152e-01, 4.11753617e-02, 6.52618110e-02, 5.40034287e-02,
          1.77833989e-01, 3.02118152e-01, 9.53789279e-02, 8.94216821e-02,
          1.22863010e-01, 2.88644046e-01, 5.83739392e-02, 1.73260793e-02,
          0., 5.22839054e-02, 2.92025775e-01, 3.02118152e-01,
          1.58019885e-01, 7.96721727e-02, 3.02118152e-01, 1.23653136e-01,
          1.30387157e-01, 9.54615921e-02, 5.71085103e-02, 1.40585452e-01,
          8.30292776e-02, 9.33083743e-02, 1.51363686e-01, 2.35556886e-01,
          3.02118152e-01, 3.02118152e-01, 1.13226324e-01, 3.72117083e-03,
          0., 3.18211988e-02, 3.38652311e-03, 3.19936760e-02 ]
      - [ 2.80147433e-01, 6.51359186e-02, 0., 0., 3.41571867e-02,
          1.76625431e-01, 2.37433687e-01, 7.94620719e-03, 1.74990967e-01,
          7.29850009e-02, 1.22445807e-01, 4.75678742e-02, 2.97742356e-02,
          1.14588723e-01, 2.24836349e-01, 2.80147433e-01, 2.80147433e-01,
          9.01989564e-02, 2.80147433e-01, 2.66327113e-01, 1.53277844e-01,
          1.27591327e-01, 5.43672442e-02, 1.47938669e-01, 1.91643789e-01,
          1.30949751e-01, 5.57676069e-02, 2.80147433e-01, 2.00314432e-01,
          2.80147433e-01, 2.74327248e-01, 9.59192123e-03, 3.22786123e-02,
          0., 3.32596563e-02, 0. ]
      - [ 2.39841744e-01, 7.74193481e-02, 6.53931648e-02, 2.03763664e-01,
          2.74394274e-01, 2.04768896e-01, 3.28878500e-02, 9.83896852e-02,
          1.74745083e-01, 2.24039450e-01, 4.45368960e-02, 5.10998294e-02,
          0., 1.91504985e-01, 2.74394274e-01, 2.74394274e-01,
          1.43432334e-01, 1.61245570e-01, 2.74394274e-01, 2.74394274e-01,
          1.70383565e-02, 4.92880978e-02, 5.92834838e-02, 4.34763432e-02,
          8.62355083e-02, 1.08526975e-01, 2.40481541e-01, 2.27924764e-01,
          2.74394274e-01, 2.74394274e-01, 2.63499040e-02, 3.11476421e-02,
          0., 2.54244953e-02, 3.83032635e-02, 3.84557024e-02 ]
      - [ 2.89685249e-01, 9.14081261e-02, 3.20792645e-02, 5.43721393e-02,
          2.89685249e-01, 2.89685249e-01, 1.37836844e-01, 2.67500244e-02,
          8.53828415e-02, 2.28433311e-01, 8.69040098e-03, 0., 0.,
          9.89960972e-03, 5.84428981e-02, 2.89685249e-01, 1.58891693e-01,
          8.01117346e-02, 2.89685249e-01, 1.61477908e-01, 2.89685249e-01,
          2.58387864e-01, 9.72079411e-02, 1.41211495e-01, 1.14429623e-01,
          5.40989339e-02, 1.55113831e-01, 1.98363602e-01, 2.89685249e-01,
          2.89685249e-01, 1.44915460e-02, 0., 0., 0., 3.14504607e-03, 0. ]
      - [ 3.04332465e-01, 0., 5.49715906e-02, 5.57340905e-02,
          1.60474628e-01, 1.80783272e-01, 1.03446171e-01, 9.69850495e-02,
          9.87125486e-02, 3.04332465e-01, 1.07969277e-01, 3.46016586e-02,
          2.83700181e-03, 1.79574803e-01, 3.04332465e-01, 3.04332465e-01,
          6.17266074e-02, 7.04142898e-02, 3.04332465e-01, 1.07087642e-01,
          1.41415432e-01, 9.88592301e-03, 0., 1.52476311e-01,
          9.00519714e-02, 1.01200484e-01, 5.10728471e-02, 2.81922936e-01,
          2.18524784e-01, 3.04332465e-01, 2.16453001e-01, 1.51963770e-01,
          0., 3.45126651e-02, 3.67295858e-03, 1.47793069e-01 ]
      - [ 2.69029170e-01, 7.49246255e-02, 7.81770498e-02, 1.34641677e-01,
          2.24278763e-01, 2.69029170e-01, 3.46666574e-03, 3.05103827e-02,
          2.56222874e-01, 0., 0., 0., 0., 5.90454191e-02, 2.56561756e-01,
          2.69029170e-01, 2.69029170e-01, 4.06893902e-02, 1.67454347e-01,
          1.34175658e-01, 8.33916739e-02, 0., 2.69029170e-01,
          1.82455659e-01, 2.28358135e-02, 6.45601377e-02, 2.01382607e-01,
