%YAML:1.0
---
opencv_ml_svm:
   format: 3
   svmType: C_SVC
   kernel:
      type: RBF
      gamma: 5.0000000000000003e-02
   C: 2.5000000000000000e+00
   term_criteria: { epsilon:1.1920928955078125e-07, iterations:1000 }
   var_count: 36
   class_count: 9
   class_labels: !!opencv-matrix
      rows: 9
      cols: 1
      dt: i
      data: [ 50, 51, 53, 54, 55, 57, 65, 77, 87 ]
   sv_total: 220
   support_vectors:
      - [ 6.90791160e-02, 4.31602374e-02, 2.83927262e-01, 2.94426322e-01,
          2.94426322e-01, 4.03107591e-02, 7.04954192e-02, 3.65772061e-02,
          1.09783830e-02, 9.43119824e-02, 1.48552641e-01, 8.66249502e-02,
          0., 2.94426322e-01, 2.91858047e-01, 2.94426322e-01,
          1.41906559e-01, 8.27380121e-02, 1.75171271e-01, 9.88863781e-02,
          2.94426322e-01, 1.47239557e-02, 1.23147089e-02, 6.22425368e-03,
          0., 0., 1.74147487e-02, 8.54855999e-02, 2.94426322e-01,
          2.94426322e-01, 3.01881582e-02, 2.94426322e-01, 9.65201259e-02,
          0., 4.31600735e-02, 0. ]
      - [ 3.50614414e-02, 1.01822354e-01, 1.74970642e-01, 3.10841262e-01,
          3.10841262e-01, 1.37672365e-01, 1.36578336e-01, 4.02693078e-02,
          0., 7.51318559e-02, 8.24507847e-02, 6.44540787e-02, 0.,
          1.93352580e-01, 3.10841262e-01, 3.10841262e-01, 2.17775747e-01,
          9.93627533e-02, 1.01559579e-01, 8.48467872e-02, 3.10841262e-01,
          2.53199905e-01, 5.20893894e-02, 5.13783135e-02, 7.38595724e-02,
          1.01871364e-01, 6.21530563e-02, 1.14659220e-01, 8.47173035e-02,
          3.10841262e-01, 8.11512098e-02, 1.64034456e-01, 2.54967868e-01,
          1.99552439e-02, 0., 4.05939221e-02 ]
      - [ 9.07553732e-02, 1.65381223e-01, 2.75797963e-01, 2.75797963e-01,
          2.04735205e-01, 4.35818806e-02, 7.39453658e-02, 3.51806097e-02,
          0., 6.14874102e-02, 2.75797963e-01, 6.59549832e-02,
          5.21194004e-02, 2.75797963e-01, 2.02448845e-01, 2.75797963e-01,
          1.26223505e-01, 1.32830307e-01, 1.44427195e-01, 2.75797963e-01,
          2.75797963e-01, 0., 7.27367774e-02, 0., 5.51899429e-03,
          1.30489897e-02, 0., 2.07905516e-01, 2.75797963e-01,
          2.63398439e-01, 4.68463264e-02, 2.75797963e-01, 3.93284820e-02,
          1.96937993e-02, 2.86057163e-02, 0. ]
      - [ 1.13339154e-02, 5.10372221e-02, 2.41298765e-01, 3.01841259e-01,
          3.01841259e-01, 7.04008639e-02, 3.42386253e-02, 0., 0.,
          2.15963334e-01, 1.05500922e-01, 2.29763594e-02, 0., 0.,
          2.22706825e-01, 3.01841259e-01, 1.74114674e-01, 1.74517483e-01,
          1.95590377e-01, 2.90264428e-01, 3.01841259e-01, 2.47163232e-02,
          1.20783281e-02, 2.91016065e-02, 6.17889501e-03, 2.27643624e-02,
          1.78829040e-02, 7.93421268e-02, 2.61308730e-01, 3.01841259e-01,
          1.84220728e-02, 3.01841259e-01, 1.26812473e-01, 3.55830304e-02,
          1.84896141e-02, 0. ]
      - [ 1.39543861e-01, 5.40850647e-02, 2.98591256e-01, 2.98591256e-01,
          1.66943431e-01, 4.46983762e-02, 8.08314607e-02, 4.10103127e-02,
          2.41576452e-02, 8.86700004e-02, 1.34636819e-01, 1.00581668e-01,
          2.72431582e-01, 2.98591256e-01, 2.98591256e-01, 1.73771352e-01,
          1.63836822e-01, 3.99537645e-02, 1.83639407e-01, 9.62194949e-02,
          2.98591256e-01, 0., 1.85965635e-02, 0., 0., 0., 0.,
          8.45492855e-02, 2.98591256e-01, 2.98591256e-01, 4.79481556e-02,
          2.98591256e-01, 3.37521806e-02, 8.43046792e-03, 4.73548211e-02,
          2.22038236e-02 ]
      - [ 6.90791160e-02, 4.31602374e-02, 2.83927262e-01, 2.94426322e-01,
          2.94426322e-01, 4.03107591e-02, 7.04954192e-02, 3.65772061e-02,
          1.09783830e-02, 9.43119824e-02, 1.48552641e-01, 8.66249502e-02,
          0., 2.94426322e-01, 2.91858047e-01, 2.94426322e-01,
          1.41906559e-01, 8.27380121e-02, 1.75171271e-01, 9.88863781e-02,
          2.94426322e-01, 1.47239557e-02, 1.23147089e-02, 6.22425368e-03,
          0., 0., 1.74147487e-02, 8.54855999e-02, 2.94426322e-01,
          2.94426322e-01, 3.01881582e-02, 2.94426322e-01, 9.65201259e-02,
          0., 4.31600735e-02, 0. ]
      - [ 3.50614414e-02, 1.01822354e-01, 1.74970642e-01, 3.10841262e-01,
          3.10841262e-01, 1.37672365e-01, 1.36578336e-01, 4.02693078e-02,
          0., 7.51318559e-02, 8.24507847e-02, 6.44540787e-02, 0.,
          1.93352580e-01, 3.10841262e-01, 3.10841262e-01, 2.17775747e-01,
          9.93627533e-02, 1.01559579e-01, 8.48467872e-02, 3.10841262e-01,
          2.53199905e-01, 5.20893894e-02, 5.13783135e-02, 7.38595724e-02,
          1.01871364e-01, 6.21530563e-02, 1.14659220e-01, 8.47173035e-02,
          3.10841262e-01, 8.11512098e-02, 1.64034456e-01, 2.54967868e-01,
          1.99552439e-02, 0., 4.05939221e-02 ]
      - [ 9.07553732e-02, 1.65381223e-01, 2.75797963e-01, 2.75797963e-01,
          2.04735205e-01, 4.35818806e-02, 7.39453658e-02, 3.51806097e-02,
          0., 6.14874102e-02, 2.75797963e-01, 6.59549832e-02,
          5.21194004e-02, 2.75797963e-01, 2.02448845e-01, 2.75797963e-01,
          1.26223505e-01, 1.32830307e-01, 1.44427195e-01, 2.75797963e-01,
          2.75797963e-01, 0., 7.27367774e-02, 0., 5.51899429e-03,
          1.30489897e-02, 0., 2.07905516e-01, 2.75797963e-01,
          2.63398439e-01, 4.68463264e-02, 2.75797963e-01, 3.93284820e-02,
          1.96937993e-02, 2.86057163e-02, 0. ]
      - [ 1.13339154e-02, 5.10372221e-02, 2.41298765e-01, 3.01841259e-01,
          3.01841259e-01, 7.04008639e-02, 3.42386253e-02, 0., 0.,
          2.15963334e-01, 1.05500922e-01, 2.29763594e-02, 0., 0.,
          2.22706825e-01, 3.01841259e-01, 1.74114674e-01, 1.74517483e-01,
          1.95590377e-01, 2.90264428e-01, 3.01841259e-01, 2.47163232e-02,
          1.20783281e-02, 2.91016065e-02, 6.17889501e-03, 2.27643624e-02,
          1.78829040e-02, 7.93421268e-02, 2.61308730e-01, 3.01841259e-01,
          1.84220728e-02, 3.01841259e-01, 1.26812473e-01, 3.55830304e-02,
          1.84896141e-02, 0. ]
      - [ 1.39543861e-01, 5.40850647e-02, 2.98591256e-01, 2.98591256e-01,
          1.66943431e-01, 4.46983762e-02, 8.08314607e-02, 4.10103127e-02,
          2.41576452e-02, 8.86700004e-02, 1.34636819e-01, 1.00581668e-01,
          2.72431582e-01, 2.98591256e-01, 2.98591256e-01, 1.73771352e-01,
          1.63836822e-01, 3.99537645e-02, 1.83639407e-01, 9.62194949e-02,
          2.98591256e-01, 0., 1.85965635e-02, 0., 0., 0., 0.,
          8.45492855e-02, 2.98591256e-01, 2.98591256e-01, 4.79481556e-02,
          2.98591256e-01, 3.37521806e-02, 8.43046792e-03, 4.73548211e-02,
          2.22038236e-02 ]
      - [ 6.90791160e-02, 4.31602374e-02, 2.83927262e-01, 2.94426322e-01,
          2.94426322e-01, 4.03107591e-02, 7.04954192e-02, 3.65772061e-02,
          1.09783830e-02, 9.43119824e-02, 1.48552641e-01, 8.66249502e-02,
          0., 2.94426322e-01, 2.91858047e-01, 2.94426322e-01,
          1.41906559e-01, 8.27380121e-02, 1.75171271e-01, 9.88863781e-02,
          2.94426322e-01, 1.47239557e-02, 1.23147089e-02, 6.22425368e-03,
          0., 0., 1.74147487e-02, 8.54855999e-02, 2.94426322e-01,
          2.94426322e-01, 3.01881582e-02, 2.94426322e-01, 9.65201259e-02,
          0., 4.31600735e-02, 0. ]
      - [ 3.50614414e-02, 1.01822354e-01, 1.74970642e-01, 3.10841262e-01,
          3.10841262e-01, 1.37672365e-01, 1.36578336e-01, 4.02693078e-02,
          0., 7.51318559e-02, 8.24507847e-02, 6.44540787e-02, 0.,
          1.93352580e-01, 3.10841262e-01, 3.10841262e-01, 2.17775747e-01,
          9.93627533e-02, 1.01559579e-01, 8.48467872e-02, 3.10841262e-01,
          2.53199905e-01, 5.20893894e-02, 5.13783135e-02, 7.38595724e-02,
          1.01871364e-01, 6.21530563e-02, 1.14659220e-01, 8.47173035e-02,
          3.10841262e-01, 8.11512098e-02, 1.64034456e-01, 2.54967868e-01,
          1.99552439e-02, 0., 4.05939221e-02 ]
      - [ 9.07553732e-02, 1.65381223e-01, 2.75797963e-01, 2.75797963e-01,
          2.04735205e-01, 4.35818806e-02, 7.39453658e-02, 3.51806097e-02,
          0., 6.14874102e-02, 2.75797963e-01, 6.59549832e-02,
          5.21194004e-02, 2.75797963e-01, 2.02448845e-01, 2.75797963e-01,
          1.26223505e-01, 1.32830307e-01, 1.44427195e-01, 2.75797963e-01,
          2.75797963e-01, 0., 7.27367774e-02, 0., 5.51899429e-03,
          1.30489897e-02, 0., 2.07905516e-01, 2.75797963e-01,
          2.63398439e-01, 4.68463264e-02, 2.75797963e-01, 3.93284820e-02,
          1.96937993e-02, 2.86057163e-02, 0. ]
      - [ 1.13339154e-02, 5.10372221e-02, 2.41298765e-01, 3.01841259e-01,
          3.01841259e-01, 7.04008639e-02, 3.42386253e-02, 0., 0.,
          2.15963334e-01, 1.05500922e-01, 2.29763594e-02, 0., 0.,
          2.22706825e-01, 3.01841259e-01, 1.74114674e-01, 1.74517483e-01,
          1.95590377e-01, 2.90264428e-01, 3.01841259e-01, 2.47163232e-02,
          1.20783281e-02, 2.91016065e-02, 6.17889501e-03, 2.27643624e-02,
          1.78829040e-02, 7.93421268e-02, 2.61308730e-01, 3.01841259e-01,
          1.84220728e-02, 3.01841259e-01, 1.26812473e-01, 3.55830304e-02,
          1.84896141e-02, 0. ]
      - [ 1.39543861e-01, 5.40850647e-02, 2.98591256e-01, 2.98591256e-01,
          1.66943431e-01, 4.46983762e-02, 8.08314607e-02, 4.10103127e-02,
          2.41576452e-02, 8.86700004e-02, 1.34636819e-01, 1.00581668e-01,
          2.72431582e-01, 2.98591256e-01, 2.98591256e-01, 1.73771352e-01,
          1.63836822e-01, 3.99537645e-02, 1.83639407e-01, 9.62194949e-02,
          2.98591256e-01, 0., 1.85965635e-02, 0., 0., 0., 0.,
          8.45492855e-02, 2.98591256e-01, 2.98591256e-01, 4.79481556e-02,
          2.98591256e-01, 3.37521806e-02, 8.43046792e-03, 4.73548211e-02,
          2.22038236e-02 ]
      - [ 6.90791160e-02, 4.31602374e-02, 2.83927262e-01, 2.94426322e-01,
          2.94426322e-01, 4.03107591e-02, 7.04954192e-02, 3.65772061e-02,
          1.09783830e-02, 9.43119824e-02, 1.48552641e-01, 8.66249502e-02,
          0., 2.94426322e-01, 2.91858047e-01, 2.94426322e-01,
          1.41906559e-01, 8.27380121e-02, 1.75171271e-01, 9.88863781e-02,
          2.94426322e-01, 1.47239557e-02, 1.23147089e-02, 6.22425368e-03,
          0., 0., 1.74147487e-02, 8.54855999e-02, 2.94426322e-01,
          2.94426322e-01, 3.01881582e-02, 2.94426322e-01, 9.65201259e-02,
          0., 4.31600735e-02, 0. ]
      - [ 3.50614414e-02, 1.01822354e-01, 1.74970642e-01, 3.10841262e-01,
          3.10841262e-01, 1.37672365e-01, 1.36578336e-01, 4.02693078e-02,
          0., 7.51318559e-02, 8.24507847e-02, 6.44540787e-02, 0.,
          1.93352580e-01, 3.10841262e-01, 3.10841262e-01, 2.17775747e-01,
          9.93627533e-02, 1.01559579e-01, 8.48467872e-02, 3.10841262e-01,
          2.53199905e-01, 5.20893894e-02, 5.13783135e-02, 7.38595724e-02,
          1.01871364e-01, 6.21530563e-02, 1.14659220e-01, 8.47173035e-02,
          3.10841262e-01, 8.11512098e-02, 1.64034456e-01, 2.54967868e-01,
          1.99552439e-02, 0., 4.05939221e-02 ]
      - [ 9.07553732e-02, 1.65381223e-01, 2.75797963e-01, 2.75797963e-01,
          2.04735205e-01, 4.35818806e-02, 7.39453658e-02, 3.51806097e-02,
          0., 6.14874102e-02, 2.75797963e-01, 6.59549832e-02,
          5.21194004e-02, 2.75797963e-01, 2.02448845e-01, 2.75797963e-01,
          1.26223505e-01, 1.32830307e-01, 1.44427195e-01, 2.75797963e-01,
          2.75797963e-01, 0., 7.27367774e-02, 0., 5.51899429e-03,
          1.30489897e-02, 0., 2.07905516e-01, 2.75797963e-01,
          2.63398439e-01, 4.68463264e-02, 2.75797963e-01, 3.93284820e-02,
          1.96937993e-02, 2.86057163e-02, 0. ]
      - [ 1.13339154e-02, 5.10372221e-02, 2.41298765e-01, 3.01841259e-01,
          3.01841259e-01, 7.04008639e-02, 3.42386253e-02, 0., 0.,
          2.15963334e-01, 1.05500922e-01, 2.29763594e-02, 0., 0.,
          2.22706825e-01, 3.01841259e-01, 1.74114674e-01, 1.74517483e-01,
          1.95590377e-01, 2.90264428e-01, 3.01841259e-01, 2.47163232e-02,
          1.20783281e-02, 2.91016065e-02, 6.17889501e-03, 2.27643624e-02,
          1.78829040e-02, 7.93421268e-02, 2.61308730e-01, 3.01841259e-01,
          1.84220728e-02, 3.01841259e-01, 1.26812473e-01, 3.55830304e-02,
          1.84896141e-02, 0. ]
      - [ 1.39543861e-01, 5.40850647e-02, 2.98591256e-01, 2.98591256e-01,
          1.66943431e-01, 4.46983762e-02, 8.08314607e-02, 4.10103127e-02,
          2.41576452e-02, 8.86700004e-02, 1.34636819e-01, 1.00581668e-01,
          2.72431582e-01, 2.98591256e-01, 2.98591256e-01, 1.73771352e-01,
          1.63836822e-01, 3.99537645e-02, 1.83639407e-01, 9.62194949e-02,
          2.98591256e-01, 0., 1.85965635e-02, 0., 0., 0., 0.,
          8.45492855e-02, 2.98591256e-01, 2.98591256e-01, 4.79481556e-02,
          2.98591256e-01, 3.37521806e-02, 8.43046792e-03, 4.73548211e-02,
          2.22038236e-02 ]
      - [ 6.90791160e-02, 4.31602374e-02, 2.83927262e-01, 2.94426322e-01,
          2.94426322e-01, 4.03107591e-02, 7.04954192e-02, 3.65772061e-02,
          1.09783830e-02, 9.43119824e-02, 1.48552641e-01, 8.66249502e-02,
          0., 2.94426322e-01, 2.91858047e-01, 2.94426322e-01,
          1.41906559e-01, 8.27380121e-02, 1.75171271e-01, 9.88863781e-02,
          2.94426322e-01, 1.47239557e-02, 1.23147089e-02, 6.22425368e-03,
          0., 0., 1.74147487e-02, 8.54855999e-02, 2.94426322e-01,
          2.94426322e-01, 3.01881582e-02, 2.94426322e-01, 9.65201259e-02,
          0., 4.31600735e-02, 0. ]
      - [ 3.50614414e-02, 1.01822354e-01, 1.74970642e-01, 3.10841262e-01,
          3.10841262e-01, 1.37672365e-01, 1.36578336e-01, 4.02693078e-02,
          0., 7.51318559e-02, 8.24507847e-02, 6.44540787e-02, 0.,
          1.93352580e-01, 3.10841262e-01, 3.10841262e-01, 2.17775747e-01,
          9.93627533e-02, 1.01559579e-01, 8.48467872e-02, 3.10841262e-01,
          2.53199905e-01, 5.20893894e-02, 5.13783135e-02, 7.38595724e-02,
          1.01871364e-01, 6.21530563e-02, 1.14659220e-01, 8.47173035e-02,
          3.10841262e-01, 8.11512098e-02, 1.64034456e-01, 2.54967868e-01,
          1.99552439e-02, 0., 4.05939221e-02 ]
      - [ 9.07553732e-02, 1.65381223e-01, 2.75797963e-01, 2.75797963e-01,
          2.04735205e-01, 4.35818806e-02, 7.39453658e-02, 3.51806097e-02,
          0., 6.14874102e-02, 2.75797963e-01, 6.59549832e-02,
          5.21194004e-02, 2.75797963e-01, 2.02448845e-01, 2.75797963e-01,
          1.26223505e-01, 1.32830307e-01, 1.44427195e-01, 2.75797963e-01,
          2.75797963e-01, 0., 7.27367774e-02, 0., 5.51899429e-03,
          1.30489897e-02, 0., 2.07905516e-01, 2.75797963e-01,
          2.63398439e-01, 4.68463264e-02, 2.75797963e-01, 3.93284820e-02,
          1.96937993e-02, 2.86057163e-02, 0. ]
      - [ 1.13339154e-02, 5.10372221e-02, 2.41298765e-01, 3.01841259e-01,
          3.01841259e-01, 7.04008639e-02, 3.42386253e-02, 0., 0.,
          2.15963334e-01, 1.05500922e-01, 2.29763594e-02, 0., 0.,
          2.22706825e-01, 3.01841259e-01, 1.74114674e-01, 1.74517483e-01,
          1.95590377e-01, 2.90264428e-01, 3.01841259e-01, 2.47163232e-02,
          1.20783281e-02, 2.91016065e-02, 6.17889501e-03, 2.27643624e-02,
          1.78829040e-02, 7.93421268e-02, 2.61308730e-01, 3.01841259e-01,
          1.84220728e-02, 3.01841259e-01, 1.26812473e-01, 3.55830304e-02,
          1.84896141e-02, 0. ]
      - [ 1.39543861e-01, 5.40850647e-02, 2.98591256e-01, 2.98591256e-01,
          1.66943431e-01, 4.46983762e-02, 8.08314607e-02, 4.10103127e-02,
          2.41576452e-02, 8.86700004e-02, 1.34636819e-01, 1.00581668e-01,
          2.72431582e-01, 2.98591256e-01, 2.98591256e-01, 1.73771352e-01,
          1.63836822e-01, 3.99537645e-02, 1.83639407e-01, 9.62194949e-02,
          2.98591256e-01, 0., 1.85965635e-02, 0., 0., 0., 0.,
          8.45492855e-02, 2.98591256e-01, 2.98591256e-01, 4.79481556e-02,
          2.98591256e-01, 3.37521806e-02, 8.43046792e-03, 4.73548211e-02,
          2.22038236e-02 ]
      - [ 3.80844474e-02, 2.31633782e-01, 2.05289990e-01, 1.04537502e-01,
          2.67525405e-01, 1.66802764e-01, 3.41876410e-02, 6.63411543e-02,
          0., 2.19612285e-01, 5.25739565e-02, 2.67525405e-01,
          2.13857070e-02, 2.67525405e-01, 7.57474154e-02, 1.84764773e-01,
          6.95141926e-02, 5.01198098e-02, 1.32002473e-01, 3.69177051e-02,
          2.74587870e-02, 7.06740841e-02, 2.67525405e-01, 2.67525405e-01,
          2.67525405e-01, 1.28942356e-01, 0., 2.67525405e-01,
          1.59077168e-01, 1.11048631e-01, 7.46883079e-02, 6.40231147e-02,
          9.10437256e-02, 2.52460986e-01, 2.05635503e-01, 2.36604914e-01 ]
      - [ 1.29321352e-01, 8.28559324e-02, 1.95463672e-01, 3.28359865e-02,
          8.45971853e-02, 2.65950590e-01, 1.01386756e-01, 1.12316348e-01,
          1.25969842e-01, 7.92903602e-02, 1.48736998e-01, 2.36187682e-01,
          5.12225777e-02, 2.65950590e-01, 2.65950590e-01, 1.15962051e-01,
          5.33018112e-02, 1.63884833e-01, 1.20912112e-01, 3.18666883e-02,
          0., 5.63412607e-02, 2.65950590e-01, 2.65950590e-01,
          2.65950590e-01, 9.61734131e-02, 4.38857377e-02, 2.65950590e-01,
          1.69959173e-01, 5.26732355e-02, 8.94308165e-02, 4.53239754e-02,
          8.12279955e-02, 2.65950590e-01, 2.65950590e-01, 2.15359598e-01 ]
      - [ 8.24620873e-02, 2.59236157e-01, 3.54450680e-02, 2.59236157e-01,
          2.59236157e-01, 7.46580586e-02, 4.93963361e-02, 3.41763459e-02,
          3.57646234e-02, 9.69699547e-02, 2.59236157e-01, 1.39483944e-01,
          1.18897289e-01, 2.59236157e-01, 4.18632030e-02, 2.59236157e-01,
          1.10680841e-01, 1.07955746e-01, 2.22731292e-01, 0.,
          7.11969510e-02, 1.45649135e-01, 2.59236157e-01, 2.59236157e-01,
          8.97850990e-02, 2.28794347e-02, 4.32696901e-02, 2.59236157e-01,
          2.07171112e-01, 2.18642786e-01, 8.34311470e-02, 1.84174255e-01,
          9.03589875e-02, 1.41058475e-01, 1.77658647e-01, 1.74413860e-01 ]
      - [ 5.29632419e-02, 2.19845995e-01, 1.78772077e-01, 5.21456264e-02,
          2.98351049e-01, 9.42841917e-02, 0., 2.88442411e-02,
          5.08062728e-02, 2.38392577e-01, 5.36056720e-02, 2.86784142e-01,
          0., 2.42268816e-01, 7.64770955e-02, 1.86155036e-01,
          1.01075746e-01, 0., 9.59983096e-02, 1.63960699e-02,
          7.71202147e-02, 8.54224786e-02, 2.98351049e-01, 2.98351049e-01,
          2.98351049e-01, 7.71297216e-02, 3.00852675e-02, 2.98351049e-01,
          1.44224390e-01, 3.25204022e-02, 0., 0., 0., 1.71784252e-01,
          2.02375963e-01, 2.89040804e-01 ]
      - [ 1.01265617e-01, 1.70130536e-01, 1.47851750e-01, 1.19926661e-01,
          2.83529788e-01, 1.32868648e-01, 5.58750406e-02, 4.22675125e-02,
          3.12309060e-02, 1.69274837e-01, 1.36526451e-01, 2.83529788e-01,
          2.09148396e-02, 2.83529788e-01, 1.01073056e-01, 9.04448479e-02,
          7.71272257e-02, 5.62994517e-02, 2.64500767e-01, 3.99617851e-02,
          7.48704374e-02, 8.97017121e-02, 1.56061187e-01, 1.94869801e-01,
          2.78754443e-01, 1.49833098e-01, 5.09853512e-02, 2.18241945e-01,
          7.04142749e-02, 1.04850277e-01, 8.32138658e-02, 2.83529788e-01,
          2.83529788e-01, 2.83529788e-01, 5.30105084e-02, 1.40825897e-01 ]
      - [ 3.80844474e-02, 2.31633782e-01, 2.05289990e-01, 1.04537502e-01,
          2.67525405e-01, 1.66802764e-01, 3.41876410e-02, 6.63411543e-02,
          0., 2.19612285e-01, 5.25739565e-02, 2.67525405e-01,
          2.13857070e-02, 2.67525405e-01, 7.57474154e-02, 1.84764773e-01,
          6.95141926e-02, 5.01198098e-02, 1.32002473e-01, 3.69177051e-02,
          2.74587870e-02, 7.06740841e-02, 2.67525405e-01, 2.67525405e-01,
          2.67525405e-01, 1.28942356e-01, 0., 2.67525405e-01,
          1.59077168e-01, 1.11048631e-01, 7.46883079e-02, 6.40231147e-02,
          9.10437256e-02, 2.52460986e-01, 2.05635503e-01, 2.36604914e-01 ]
      - [ 1.29321352e-01, 8.28559324e-02, 1.95463672e-01, 3.28359865e-02,
          8.45971853e-02, 2.65950590e-01, 1.01386756e-01, 1.12316348e-01,
          1.25969842e-01, 7.92903602e-02, 1.48736998e-01, 2.36187682e-01,
          5.12225777e-02, 2.65950590e-01, 2.65950590e-01, 1.15962051e-01,
          5.33018112e-02, 1.63884833e-01, 1.20912112e-01, 3.18666883e-02,
          0., 5.63412607e-02, 2.65950590e-01, 2.65950590e-01,
          2.65950590e-01, 9.61734131e-02, 4.38857377e-02, 2.65950590e-01,
          1.69959173e-01, 5.26732355e-02, 8.94308165e-02, 4.53239754e-02,
          8.12279955e-02, 2.65950590e-01, 2.65950590e-01, 2.15359598e-01 ]
      - [ 8.24620873e-02, 2.59236157e-01, 3.54450680e-02, 2.59236157e-01,
          2.59236157e-01, 7.46580586e-02, 4.93963361e-02, 3.41763459e-02,
          3.57646234e-02, 9.69699547e-02, 2.59236157e-01, 1.39483944e-01,
          1.18897289e-01, 2.59236157e-01, 4.18632030e-02, 2.59236157e-01,
          1.10680841e-01, 1.07955746e-01, 2.22731292e-01, 0.,
          7.11969510e-02, 1.45649135e-01, 2.59236157e-01, 2.59236157e-01,
          8.97850990e-02, 2.28794347e-02, 4.32696901e-02, 2.59236157e-01,
          2.07171112e-01, 2.18642786e-01, 8.34311470e-02, 1.84174255e-01,
          9.03589875e-02, 1.41058475e-01, 1.77658647e-01, 1.74413860e-01 ]
      - [ 5.29632419e-02, 2.19845995e-01, 1.78772077e-01, 5.21456264e-02,
          2.98351049e-01, 9.42841917e-02, 0., 2.88442411e-02,
          5.08062728e-02, 2.38392577e-01, 5.36056720e-02, 2.86784142e-01,
          0., 2.42268816e-01, 7.64770955e-02, 1.86155036e-01,
          1.01075746e-01, 0., 9.59983096e-02, 1.63960699e-02,
          7.71202147e-02, 8.54224786e-02, 2.98351049e-01, 2.98351049e-01,
          2.98351049e-01, 7.71297216e-02, 3.00852675e-02, 2.98351049e-01,
          1.44224390e-01, 3.25204022e-02, 0., 0., 0., 1.71784252e-01,
          2.02375963e-01, 2.89040804e-01 ]
      - [ 1.01265617e-01, 1.70130536e-01, 1.47851750e-01, 1.19926661e-01,
          2.83529788e-01, 1.32868648e-01, 5.58750406e-02, 4.22675125e-02,
          3.12309060e-02, 1.69274837e-01, 1.36526451e-01, 2.83529788e-01,
          2.09148396e-02, 2.83529788e-01, 1.01073056e-01, 9.04448479e-02,
          7.71272257e-02, 5.62994517e-02, 2.64500767e-01, 3.99617851e-02,
          7.48704374e-02, 8.97017121e-02, 1.56061187e-01, 1.94869801e-01,
          2.78754443e-01, 1.49833098e-01, 5.09853512e-02, 2.18241945e-01,
          7.04142749e-02, 1.04850277e-01, 8.32138658e-02, 2.83529788e-01,
          2.83529788e-01, 2.83529788e-01, 5.30105084e-02, 1.40825897e-01 ]
      - [ 3.80844474e-02, 2.31633782e-01, 2.05289990e-01, 1.04537502e-01,
          2.67525405e-01, 1.66802764e-01, 3.41876410e-02, 6.63411543e-02,
          0., 2.19612285e-01, 5.25739565e-02, 2.67525405e-01,
          2.13857070e-02, 2.67525405e-01, 7.57474154e-02, 1.84764773e-01,
          6.95141926e-02, 5.01198098e-02, 1.32002473e-01, 3.69177051e-02,
          2.74587870e-02, 7.06740841e-02, 2.67525405e-01, 2.67525405e-01,
          2.67525405e-01, 1.28942356e-01, 0., 2.67525405e-01,
          1.59077168e-01, 1.11048631e-01, 7.46883079e-02, 6.40231147e-02,
          9.10437256e-02, 2.52460986e-01, 2.05635503e-01, 2.36604914e-01 ]
      - [ 1.29321352e-01, 8.28559324e-02, 1.95463672e-01, 3.28359865e-02,
          8.45971853e-02, 2.65950590e-01, 1.01386756e-01, 1.12316348e-01,
          1.25969842e-01, 7.92903602e-02, 1.48736998e-01, 2.36187682e-01,
          5.12225777e-02, 2.65950590e-01, 2.65950590e-01, 1.15962051e-01,
          5.33018112e-02, 1.63884833e-01, 1.20912112e-01, 3.18666883e-02,
          0., 5.63412607e-02, 2.65950590e-01, 2.65950590e-01,
          2.65950590e-01, 9.61734131e-02, 4.38857377e-02, 2.65950590e-01,
          1.69959173e-01, 5.26732355e-02, 8.94308165e-02, 4.53239754e-02,
          8.12279955e-02, 2.65950590e-01, 2.65950590e-01, 2.15359598e-01 ]
      - [ 8.24620873e-02, 2.59236157e-01, 3.54450680e-02, 2.59236157e-01,
          2.59236157e-01, 7.46580586e-02, 4.93963361e-02, 3.41763459e-02,
          3.57646234e-02, 9.69699547e-02, 2.59236157e-01, 1.39483944e-01,
          1.18897289e-01, 2.59236157e-01, 4.18632030e-02, 2.59236157e-01,
          1.10680841e-01, 1.07955746e-01, 2.22731292e-01, 0.,
          7.11969510e-02, 1.45649135e-01, 2.59236157e-01, 2.59236157e-01,
          8.97850990e-02, 2.28794347e-02, 4.32696901e-02, 2.59236157e-01,
          2.07171112e-01, 2.18642786e-01, 8.34311470e-02, 1.84174255e-01,
          9.03589875e-02, 1.41058475e-01, 1.77658647e-01, 1.74413860e-01 ]
      - [ 5.29632419e-02, 2.19845995e-01, 1.78772077e-01, 5.21456264e-02,
          2.98351049e-01, 9.42841917e-02, 0., 2.88442411e-02,
          5.08062728e-02, 2.38392577e-01, 5.36056720e-02, 2.86784142e-01,
          0., 2.42268816e-01, 7.64770955e-02, 1.86155036e-01,
          1.01075746e-01, 0., 9.59983096e-02, 1.63960699e-02,
          7.71202147e-02, 8.54224786e-02, 2.98351049e-01, 2.98351049e-01,
          2.98351049e-01, 7.71297216e-02, 3.00852675e-02, 2.98351049e-01,
          1.44224390e-01, 3.25204022e-02, 0., 0., 0., 1.71784252e-01,
          2.02375963e-01, 2.89040804e-01 ]
      - [ 1.01265617e-01, 1.70130536e-01, 1.47851750e-01, 1.19926661e-01,
          2.83529788e-01, 1.32868648e-01, 5.58750406e-02, 4.22675125e-02,
          3.12309060e-02, 1.69274837e-01, 1.36526451e-01, 2.83529788e-01,
          2.09148396e-02, 2.83529788e-01, 1.01073056e-01, 9.04448479e-02,
          7.71272257e-02, 5.62994517e-02, 2.64500767e-01, 3.99617851e-02,
          7.48704374e-02, 8.97017121e-02, 1.56061187e-01, 1.94869801e-01,
          2.78754443e-01, 1.49833098e-01, 5.09853512e-02, 2.18241945e-01,
          7.04142749e-02, 1.04850277e-01, 8.32138658e-02, 2.83529788e-01,
          2.83529788e-01, 2.83529788e-01, 5.30105084e-02, 1.40825897e-01 ]
      - [ 3.80844474e-02, 2.31633782e-01, 2.05289990e-01, 1.04537502e-01,
          2.67525405e-01, 1.66802764e-01, 3.41876410e-02, 6.63411543e-02,
          0., 2.19612285e-01, 5.25739565e-02, 2.67525405e-01,
          2.13857070e-02, 2.67525405e-01, 7.57474154e-02, 1.84764773e-01,
          6.95141926e-02, 5.01198098e-02, 1.32002473e-01, 3.69177051e-02,
          2.74587870e-02, 7.06740841e-02, 2.67525405e-01, 2.67525405e-01,
          2.67525405e-01, 1.28942356e-01, 0., 2.67525405e-01,
          1.59077168e-01, 1.11048631e-01, 7.46883079e-02, 6.40231147e-02,
          9.10437256e-02, 2.52460986e-01, 2.05635503e-01, 2.36604914e-01 ]
      - [ 1.29321352e-01, 8.28559324e-02, 1.95463672e-01, 3.28359865e-02,
          8.45971853e-02, 2.65950590e-01, 1.01386756e-01, 1.12316348e-01,
          1.25969842e-01, 7.92903602e-02, 1.48736998e-01, 2.36187682e-01,
          5.12225777e-02, 2.65950590e-01, 2.65950590e-01, 1.15962051e-01,
          5.33018112e-02, 1.63884833e-01, 1.20912112e-01, 3.18666883e-02,
          0., 5.63412607e-02, 2.65950590e-01, 2.65950590e-01,
          2.65950590e-01, 9.61734131e-02, 4.38857377e-02, 2.65950590e-01,
          1.69959173e-01, 5.26732355e-02, 8.94308165e-02, 4.53239754e-02,
          8.12279955e-02, 2.65950590e-01, 2.65950590e-01, 2.15359598e-01 ]
      - [ 8.24620873e-02, 2.59236157e-01, 3.54450680e-02, 2.59236157e-01,
          2.59236157e-01, 7.46580586e-02, 4.93963361e-02, 3.41763459e-02,
          3.57646234e-02, 9.69699547e-02, 2.59236157e-01, 1.39483944e-01,
          1.18897289e-01, 2.59236157e-01, 4.18632030e-02, 2.59236157e-01,
          1.10680841e-01, 1.07955746e-01, 2.22731292e-01, 0.,
          7.11969510e-02, 1.45649135e-01, 2.59236157e-01, 2.59236157e-01,
          8.97850990e-02, 2.28794347e-02, 4.32696901e-02, 2.59236157e-01,
          2.07171112e-01, 2.18642786e-01, 8.34311470e-02, 1.84174255e-01,
          9.03589875e-02, 1.41058475e-01, 1.77658647e-01, 1.74413860e-01 ]
      - [ 5.29632419e-02, 2.19845995e-01, 1.78772077e-01, 5.21456264e-02,
          2.98351049e-01, 9.42841917e-02, 0., 2.88442411e-02,
          5.08062728e-02, 2.38392577e-01, 5.36056720e-02, 2.86784142e-01,
          0., 2.42268816e-01, 7.64770955e-02, 1.86155036e-01,
          1.01075746e-01, 0., 9.59983096e-02, 1.63960699e-02,
          7.71202147e-02, 8.54224786e-02, 2.98351049e-01, 2.98351049e-01,
          2.98351049e-01, 7.71297216e-02, 3.00852675e-02, 2.98351049e-01,
          1.44224390e-01, 3.25204022e-02, 0., 0., 0., 1.71784252e-01,
          2.02375963e-01, 2.89040804e-01 ]
      - [ 1.01265617e-01, 1.70130536e-01, 1.47851750e-01, 1.19926661e-01,
          2.83529788e-01, 1.32868648e-01, 5.58750406e-02, 4.22675125e-02,
          3.12309060e-02, 1.69274837e-01, 1.36526451e-01, 2.83529788e-01,
          2.09148396e-02, 2.83529788e-01, 1.01073056e-01, 9.04448479e-02,
          7.71272257e-02, 5.62994517e-02, 2.64500767e-01, 3.99617851e-02,
          7.48704374e-02, 8.97017121e-02, 1.56061187e-01, 1.94869801e-01,
          2.78754443e-01, 1.49833098e-01, 5.09853512e-02, 2.18241945e-01,
          7.04142749e-02, 1.04850277e-01, 8.32138658e-02, 2.83529788e-01,
          2.83529788e-01, 2.83529788e-01, 5.30105084e-02, 1.40825897e-01 ]
      - [ 3.80844474e-02, 2.31633782e-01, 2.05289990e-01, 1.04537502e-01,
          2.67525405e-01, 1.66802764e-01, 3.41876410e-02, 6.63411543e-02,
          0., 2.19612285e-01, 5.25739565e-02, 2.67525405e-01,
          2.13857070e-02, 2.67525405e-01, 7.57474154e-02, 1.84764773e-01,
          6.95141926e-02, 5.01198098e-02, 1.32002473e-01, 3.69177051e-02,
          2.74587870e-02, 7.06740841e-02, 2.67525405e-01, 2.67525405e-01,
          2.67525405e-01, 1.28942356e-01, 0., 2.67525405e-01,
          1.59077168e-01, 1.11048631e-01, 7.46883079e-02, 6.40231147e-02,
          9.10437256e-02, 2.52460986e-01, 2.05635503e-01, 2.36604914e-01 ]
      - [ 1.29321352e-01, 8.28559324e-02, 1.95463672e-01, 3.28359865e-02,
          8.45971853e-02, 2.65950590e-01, 1.01386756e-01, 1.12316348e-01,
          1.25969842e-01, 7.92903602e-02, 1.48736998e-01, 2.36187682e-01,
          5.12225777e-02, 2.65950590e-01, 2.65950590e-01, 1.15962051e-01,
          5.33018112e-02, 1.63884833e-01, 1.20912112e-01, 3.18666883e-02,
          0., 5.63412607e-02, 2.65950590e-01, 2.65950590e-01,
          2.65950590e-01, 9.61734131e-02, 4.38857377e-02, 2.65950590e-01,
          1.69959173e-01, 5.26732355e-02, 8.94308165e-02, 4.53239754e-02,
          8.12279955e-02, 2.65950590e-01, 2.65950590e-01, 2.15359598e-01 ]
      - [ 8.24620873e-02, 2.59236157e-01, 3.54450680e-02, 2.59236157e-01,
          2.59236157e-01, 7.46580586e-02, 4.93963361e-02, 3.41763459e-02,
          3.57646234e-02, 9.69699547e-02, 2.59236157e-01, 1.39483944e-01,
          1.18897289e-01, 2.59236157e-01, 4.18632030e-02, 2.59236157e-01,
          1.10680841e-01, 1.07955746e-01, 2.22731292e-01, 0.,
          7.11969510e-02, 1.45649135e-01, 2.59236157e-01, 2.59236157e-01,
          8.97850990e-02, 2.28794347e-02, 4.32696901e-02, 2.59236157e-01,
          2.07171112e-01, 2.18642786e-01, 8.34311470e-02, 1.84174255e-01,
          9.03589875e-02, 1.41058475e-01, 1.77658647e-01, 1.74413860e-01 ]
      - [ 5.29632419e-02, 2.19845995e-01, 1.78772077e-01, 5.21456264e-02,
          2.98351049e-01, 9.42841917e-02, 0., 2.88442411e-02,
          5.08062728e-02, 2.38392577e-01, 5.36056720e-02, 2.86784142e-01,
          0., 2.42268816e-01, 7.64770955e-02, 1.86155036e-01,
          1.01075746e-01, 0., 9.59983096e-02, 1.63960699e-02,
          7.71202147e-02, 8.54224786e-02, 2.98351049e-01, 2.98351049e-01,
          2.98351049e-01, 7.71297216e-02, 3.00852675e-02, 2.98351049e-01,
          1.44224390e-01, 3.25204022e-02, 0., 0., 0., 1.71784252e-01,
          2.02375963e-01, 2.89040804e-01 ]
      - [ 1.01265617e-01, 1.70130536e-01, 1.47851750e-01, 1.19926661e-01,
          2.83529788e-01, 1.32868648e-01, 5.58750406e-02, 4.22675125e-02,
          3.12309060e-02, 1.69274837e-01, 1.36526451e-01, 2.83529788e-01,
          2.09148396e-02, 2.83529788e-01, 1.01073056e-01, 9.04448479e-02,
          7.71272257e-02, 5.62994517e-02, 2.64500767e-01, 3.99617851e-02,
          7.48704374e-02, 8.97017121e-02, 1.56061187e-01, 1.94869801e-01,
          2.78754443e-01, 1.49833098e-01, 5.09853512e-02, 2.18241945e-01,
          7.04142749e-02, 1.04850277e-01, 8.32138658e-02, 2.83529788e-01,
          2.83529788e-01, 2.83529788e-01, 5.30105084e-02, 1.40825897e-01 ]
      - [ 2.85234720e-01, 1.31273001e-01, 2.60071725e-01, 1.92415118e-01,
          1.99122325e-01, 5.52552156e-02, 0., 1.90285724e-02,
          5.88372760e-02, 0., 5.33156991e-02, 6.14059195e-02,
          6.91049546e-02, 2.85234720e-01, 2.85234720e-01, 1.16286926e-01,
          0., 3.77668627e-02, 1.41114920e-01, 4.28743521e-03,
          6.48781955e-02, 1.84909075e-01, 2.85234720e-01, 2.59527564e-01,
          2.84312129e-01, 6.30958453e-02, 1.03145152e-01, 2.07287058e-01,
          2.85234720e-01, 6.88967854e-02, 4.44277711e-02, 6.35124519e-02,
          7.19334483e-02, 1.67035192e-01, 1.54630810e-01, 2.58068353e-01 ]
      - [ 2.82049567e-01, 1.80983812e-01, 2.51720399e-01, 1.06434658e-01,
          6.31154552e-02, 8.46018568e-02, 6.17464110e-02, 7.79569820e-02,
          8.39608833e-02, 3.94585654e-02, 3.69918160e-02, 0.,
          1.25542805e-01, 2.82049567e-01, 2.82049567e-01, 1.34911522e-01,
          3.27139050e-02, 4.52314168e-02, 1.51405141e-01, 3.41752507e-02,
          8.26770160e-03, 1.10887595e-01, 2.82049567e-01, 2.79662222e-01,
          2.82049567e-01, 7.35730827e-02, 5.87610118e-02, 2.05639377e-01,
          2.82049567e-01, 1.14349902e-01, 3.98270078e-02, 1.82243786e-03,
          5.71964271e-02, 2.16675222e-01, 1.92094803e-01, 2.82049567e-01 ]
      - [ 1.71655461e-01, 2.56103098e-01, 2.39727437e-01, 2.56103098e-01,
          1.19551077e-01, 2.47666761e-02, 3.17600854e-02, 1.99629739e-02,
          1.16811305e-01, 1.20630637e-01, 0., 1.42105684e-01,
          2.56103098e-01, 2.56103098e-01, 1.47049740e-01, 1.35598674e-01,
          5.12663908e-02, 1.21645238e-02, 2.12549180e-01, 3.11247110e-02,
          6.76041469e-02, 2.56103098e-01, 2.39192218e-01, 2.53145278e-01,
          1.43467948e-01, 6.95207044e-02, 6.15730062e-02, 2.56103098e-01,
          2.56103098e-01, 2.12408021e-01, 4.20909114e-02, 1.44754395e-01,
          6.04743622e-02, 9.82153937e-02, 2.16211990e-01, 1.31682515e-01 ]
      - [ 2.08820164e-01, 9.15051624e-02, 2.30062410e-01, 2.10848898e-01,
          2.85866112e-01, 1.49451360e-01, 0., 2.00504530e-02,
          6.46290407e-02, 4.32752371e-02, 5.30668721e-02, 6.72718808e-02,
          7.56410286e-02, 2.85866112e-01, 2.49056444e-01, 1.27285540e-01,
          1.33402618e-02, 6.61895797e-02, 6.18249960e-02, 1.23317137e-01,
          8.20017308e-02, 1.85396358e-01, 2.85866112e-01, 2.85866112e-01,
          2.81084627e-01, 0., 5.32795265e-02, 2.67290413e-01,
          2.85866112e-01, 0., 0., 0., 0., 1.40857875e-01, 1.79494917e-01,
          2.27862164e-01 ]
      - [ 3.19354981e-01, 9.38771516e-02, 2.75594354e-01, 1.35049924e-01,
          1.00528169e-03, 0., 0., 1.89162344e-02, 2.53163911e-02,
          7.70731121e-02, 4.98416461e-02, 7.79878069e-03, 9.10148174e-02,
          3.19354981e-01, 3.19354981e-01, 3.54659967e-02, 0.,
          3.56567018e-02, 2.24672511e-01, 2.07760464e-02, 6.04553334e-02,
          9.37932432e-02, 1.89414933e-01, 1.91877827e-01, 2.82167554e-01,
          6.51567578e-02, 1.28158644e-01, 1.73537195e-01, 3.19354981e-01,
          7.74792060e-02, 1.42141074e-01, 3.19354981e-01, 1.50253907e-01,
          1.87016308e-01, 7.13694468e-02, 1.06995627e-01 ]
      - [ 2.85234720e-01, 1.31273001e-01, 2.60071725e-01, 1.92415118e-01,
          1.99122325e-01, 5.52552156e-02, 0., 1.90285724e-02,
          5.88372760e-02, 0., 5.33156991e-02, 6.14059195e-02,
          6.91049546e-02, 2.85234720e-01, 2.85234720e-01, 1.16286926e-01,
          0., 3.77668627e-02, 1.41114920e-01, 4.28743521e-03,
          6.48781955e-02, 1.84909075e-01, 2.85234720e-01, 2.59527564e-01,
          2.84312129e-01, 6.30958453e-02, 1.03145152e-01, 2.07287058e-01,
          2.85234720e-01, 6.88967854e-02, 4.44277711e-02, 6.35124519e-02,
          7.19334483e-02, 1.67035192e-01, 1.54630810e-01, 2.58068353e-01 ]
      - [ 2.82049567e-01, 1.80983812e-01, 2.51720399e-01, 1.06434658e-01,
          6.31154552e-02, 8.46018568e-02, 6.17464110e-02, 7.79569820e-02,
          8.39608833e-02, 3.94585654e-02, 3.69918160e-02, 0.,
          1.25542805e-01, 2.82049567e-01, 2.82049567e-01, 1.34911522e-01,
          3.27139050e-02, 4.52314168e-02, 1.51405141e-01, 3.41752507e-02,
          8.26770160e-03, 1.10887595e-01, 2.82049567e-01, 2.79662222e-01,
          2.82049567e-01, 7.35730827e-02, 5.87610118e-02, 2.05639377e-01,
          2.82049567e-01, 1.14349902e-01, 3.98270078e-02, 1.82243786e-03,
          5.71964271e-02, 2.16675222e-01, 1.92094803e-01, 2.82049567e-01 ]
      - [ 1.71655461e-01, 2.56103098e-01, 2.39727437e-01, 2.56103098e-01,
          1.19551077e-01, 2.47666761e-02, 3.17600854e-02, 1.99629739e-02,
          1.16811305e-01, 1.20630637e-01, 0., 1.42105684e-01,
          2.56103098e-01, 2.56103098e-01, 1.47049740e-01, 1.35598674e-01,
          5.12663908e-02, 1.21645238e-02, 2.12549180e-01, 3.11247110e-02,
          6.76041469e-02, 2.56103098e-01, 2.39192218e-01, 2.53145278e-01,
          1.43467948e-01, 6.95207044e-02, 6.15730062e-02, 2.56103098e-01,
          2.56103098e-01, 2.12408021e-01, 4.20909114e-02, 1.44754395e-01,
          6.04743622e-02, 9.82153937e-02, 2.16211990e-01, 1.31682515e-01 ]
      - [ 2.08820164e-01, 9.15051624e-02, 2.30062410e-01, 2.10848898e-01,
          2.85866112e-01, 1.49451360e-01, 0., 2.00504530e-02,
          6.46290407e-02, 4.32752371e-02, 5.30668721e-02, 6.72718808e-02,
          7.56410286e-02, 2.85866112e-01, 2.49056444e-01, 1.27285540e-01,
          1.33402618e-02, 6.61895797e-02, 6.18249960e-02, 1.23317137e-01,
          8.20017308e-02, 1.85396358e-01, 2.85866112e-01, 2.85866112e-01,
          2.81084627e-01, 0., 5.32795265e-02, 2.67290413e-01,
          2.85866112e-01, 0., 0., 0., 0., 1.40857875e-01, 1.79494917e-01,
          2.27862164e-01 ]
      - [ 3.19354981e-01, 9.38771516e-02, 2.75594354e-01, 1.35049924e-01,
          1.00528169e-03, 0., 0., 1.89162344e-02, 2.53163911e-02,
          7.70731121e-02, 4.98416461e-02, 7.79878069e-03, 9.10148174e-02,
          3.19354981e-01, 3.19354981e-01, 3.54659967e-02, 0.,
          3.56567018e-02, 2.24672511e-01, 2.07760464e-02, 6.04553334e-02,
          9.37932432e-02, 1.89414933e-01, 1.91877827e-01, 2.82167554e-01,
          6.51567578e-02, 1.28158644e-01, 1.73537195e-01, 3.19354981e-01,
          7.74792060e-02, 1.42141074e-01, 3.19354981e-01, 1.50253907e-01,
          1.87016308e-01, 7.13694468e-02, 1.06995627e-01 ]
      - [ 2.85234720e-01, 1.31273001e-01, 2.60071725e-01, 1.92415118e-01,
          1.99122325e-01, 5.52552156e-02, 0., 1.90285724e-02,
          5.88372760e-02, 0., 5.33156991e-02, 6.14059195e-02,
          6.91049546e-02, 2.85234720e-01, 2.85234720e-01, 1.16286926e-01,
          0., 3.77668627e-02, 1.41114920e-01, 4.28743521e-03,
          6.48781955e-02, 1.84909075e-01, 2.85234720e-01, 2.59527564e-01,
          2.84312129e-01, 6.30958453e-02, 1.03145152e-01, 2.07287058e-01,
          2.85234720e-01, 6.88967854e-02, 4.44277711e-02, 6.35124519e-02,
          7.19334483e-02, 1.67035192e-01, 1.54630810e-01, 2.58068353e-01 ]
      - [ 2.82049567e-01, 1.80983812e-01, 2.51720399e-01, 1.06434658e-01,
          6.31154552e-02, 8.46018568e-02, 6.17464110e-02, 7.79569820e-02,
          8.39608833e-02, 3.94585654e-02, 3.69918160e-02, 0.,
          1.25542805e-01, 2.82049567e-01, 2.82049567e-01, 1.34911522e-01,
          3.27139050e-02, 4.52314168e-02, 1.51405141e-01, 3.41752507e-02,
          8.26770160e-03, 1.10887595e-01, 2.82049567e-01, 2.79662222e-01,
          2.82049567e-01, 7.35730827e-02, 5.87610118e-02, 2.05639377e-01,
          2.82049567e-01, 1.14349902e-01, 3.98270078e-02, 1.82243786e-03,
          5.71964271e-02, 2.16675222e-01, 1.92094803e-01, 2.82049567e-01 ]
      - [ 1.71655461e-01, 2.56103098e-01, 2.39727437e-01, 2.56103098e-01,
          1.19551077e-01, 2.47666761e-02, 3.17600854e-02, 1.99629739e-02,
          1.16811305e-01, 1.20630637e-01, 0., 1.42105684e-01,
          2.56103098e-01, 2.56103098e-01, 1.47049740e-01, 1.35598674e-01,
          5.12663908e-02, 1.21645238e-02, 2.12549180e-01, 3.11247110e-02,
          6.76041469e-02, 2.56103098e-01, 2.39192218e-01, 2.53145278e-01,
          1.43467948e-01, 6.95207044e-02, 6.15730062e-02, 2.56103098e-01,
          2.56103098e-01, 2.12408021e-01, 4.20909114e-02, 1.44754395e-01,
          6.04743622e-02, 9.82153937e-02, 2.16211990e-01, 1.31682515e-01 ]
      - [ 2.08820164e-01, 9.15051624e-02, 2.30062410e-01, 2.10848898e-01,
          2.85866112e-01, 1.49451360e-01, 0., 2.00504530e-02,
          6.46290407e-02, 4.32752371e-02, 5.30668721e-02, 6.72718808e-02,
          7.56410286e-02, 2.85866112e-01, 2.49056444e-01, 1.27285540e-01,
          1.33402618e-02, 6.61895797e-02, 6.18249960e-02, 1.23317137e-01,
          8.20017308e-02, 1.85396358e-01, 2.85866112e-01, 2.85866112e-01,
          2.81084627e-01, 0., 5.32795265e-02, 2.67290413e-01,
          2.85866112e-01, 0., 0., 0., 0., 1.40857875e-01, 1.79494917e-01,
          2.27862164e-01 ]
      - [ 3.19354981e-01, 9.38771516e-02, 2.75594354e-01, 1.35049924e-01,
          1.00528169e-03, 0., 0., 1.89162344e-02, 2.53163911e-02,
          7.70731121e-02, 4.98416461e-02, 7.79878069e-03, 9.10148174e-02,
          3.19354981e-01, 3.19354981e-01, 3.54659967e-02, 0.,
          3.56567018e-02, 2.24672511e-01, 2.07760464e-02, 6.04553334e-02,
          9.37932432e-02, 1.89414933e-01, 1.91877827e-01, 2.82167554e-01,
          6.51567578e-02, 1.28158644e-01, 1.73537195e-01, 3.19354981e-01,
          7.74792060e-02, 1.42141074e-01, 3.19354981e-01, 1.50253907e-01,
          1.87016308e-01, 7.13694468e-02, 1.06995627e-01 ]
      - [ 2.85234720e-01, 1.31273001e-01, 2.60071725e-01, 1.92415118e-01,
          1.99122325e-01, 5.52552156e-02, 0., 1.90285724e-02,
          5.88372760e-02, 0., 5.33156991e-02, 6.14059195e-02,
          6.91049546e-02, 2.85234720e-01, 2.85234720e-01, 1.16286926e-01,
          0., 3.77668627e-02, 1.41114920e-01, 4.28743521e-03,
          6.48781955e-02, 1.84909075e-01, 2.85234720e-01, 2.59527564e-01,
          2.84312129e-01, 6.30958453e-02, 1.03145152e-01, 2.07287058e-01,
          2.85234720e-01, 6.88967854e-02, 4.44277711e-02, 6.35124519e-02,
          7.19334483e-02, 1.67035192e-01, 1.54630810e-01, 2.58068353e-01 ]
      - [ 2.82049567e-01, 1.80983812e-01, 2.51720399e-01, 1.06434658e-01,
          6.31154552e-02, 8.46018568e-02, 6.17464110e-02, 7.79569820e-02,
          8.39608833e-02, 3.94585654e-02, 3.69918160e-02, 0.,
          1.25542805e-01, 2.82049567e-01, 2.82049567e-01, 1.34911522e-01,
          3.27139050e-02, 4.52314168e-02, 1.51405141e-01, 3.41752507e-02,
          8.26770160e-03, 1.10887595e-01, 2.82049567e-01, 2.79662222e-01,
          2.82049567e-01, 7.35730827e-02, 5.87610118e-02, 2.05639377e-01,
          2.82049567e-01, 1.14349902e-01, 3.98270078e-02, 1.82243786e-03,
          5.71964271e-02, 2.16675222e-01, 1.92094803e-01, 2.82049567e-01 ]
      - [ 1.71655461e-01, 2.56103098e-01, 2.39727437e-01, 2.56103098e-01,
          1.19551077e-01, 2.47666761e-02, 3.17600854e-02, 1.99629739e-02,
          1.16811305e-01, 1.20630637e-01, 0., 1.42105684e-01,
          2.56103098e-01, 2.56103098e-01, 1.47049740e-01, 1.35598674e-01,
          5.12663908e-02, 1.21645238e-02, 2.12549180e-01, 3.11247110e-02,
          6.76041469e-02, 2.56103098e-01, 2.39192218e-01, 2.53145278e-01,
          1.43467948e-01, 6.95207044e-02, 6.15730062e-02, 2.56103098e-01,
          2.56103098e-01, 2.12408021e-01, 4.20909114e-02, 1.44754395e-01,
          6.04743622e-02, 9.82153937e-02, 2.16211990e-01, 1.31682515e-01 ]
      - [ 2.08820164e-01, 9.15051624e-02, 2.30062410e-01, 2.10848898e-01,
          2.85866112e-01, 1.49451360e-01, 0., 2.00504530e-02,
          6.46290407e-02, 4.32752371e-02, 5.30668721e-02, 6.72718808e-02,
          7.56410286e-02, 2.85866112e-01, 2.49056444e-01, 1.27285540e-01,
          1.33402618e-02, 6.61895797e-02, 6.18249960e-02, 1.23317137e-01,
          8.20017308e-02, 1.85396358e-01, 2.85866112e-01, 2.85866112e-01,
          2.81084627e-01, 0., 5.32795265e-02, 2.67290413e-01,
          2.85866112e-01, 0., 0., 0., 0., 1.40857875e-01, 1.79494917e-01,
          2.27862164e-01 ]
      - [ 3.19354981e-01, 9.38771516e-02, 2.75594354e-01, 1.35049924e-01,
          1.00528169e-03, 0., 0., 1.89162344e-02, 2.53163911e-02,
          7.70731121e-02, 4.98416461e-02, 7.79878069e-03, 9.10148174e-02,
          3.19354981e-01, 3.19354981e-01, 3.54659967e-02, 0.,
          3.56567018e-02, 2.24672511e-01, 2.07760464e-02, 6.04553334e-02,
          9.37932432e-02, 1.89414933e-01, 1.91877827e-01, 2.82167554e-01,
          6.51567578e-02, 1.28158644e-01, 1.73537195e-01, 3.19354981e-01,
          7.74792060e-02, 1.42141074e-01, 3.19354981e-01, 1.50253907e-01,
          1.87016308e-01, 7.13694468e-02, 1.06995627e-01 ]
      - [ 2.85234720e-01, 1.31273001e-01, 2.60071725e-01, 1.92415118e-01,
          1.99122325e-01, 5.52552156e-02, 0., 1.90285724e-02,
          5.88372760e-02, 0., 5.33156991e-02, 6.14059195e-02,
          6.91049546e-02, 2.85234720e-01, 2.85234720e-01, 1.16286926e-01,
          0., 3.77668627e-02, 1.41114920e-01, 4.28743521e-03,
          6.48781955e-02, 1.84909075e-01, 2.85234720e-01, 2.59527564e-01,
          2.84312129e-01, 6.30958453e-02, 1.03145152e-01, 2.07287058e-01,
          2.85234720e-01, 6.88967854e-02, 4.44277711e-02, 6.35124519e-02,
          7.19334483e-02, 1.67035192e-01, 1.54630810e-01, 2.58068353e-01 ]
      - [ 2.82049567e-01, 1.80983812e-01, 2.51720399e-01, 1.06434658e-01,
          6.31154552e-02, 8.46018568e-02, 6.17464110e-02, 7.79569820e-02,
          8.39608833e-02, 3.94585654e-02, 3.69918160e-02, 0.,
          1.25542805e-01, 2.82049567e-01, 2.82049567e-01, 1.34911522e-01,
          3.27139050e-02, 4.52314168e-02, 1.51405141e-01, 3.41752507e-02,
          8.26770160e-03, 1.10887595e-01, 2.82049567e-01, 2.79662222e-01,
          2.82049567e-01, 7.35730827e-02, 5.87610118e-02, 2.05639377e-01,
          2.82049567e-01, 1.14349902e-01, 3.98270078e-02, 1.82243786e-03,
          5.71964271e-02, 2.16675222e-01, 1.92094803e-01, 2.82049567e-01 ]
      - [ 1.71655461e-01, 2.56103098e-01, 2.39727437e-01, 2.56103098e-01,
          1.19551077e-01, 2.47666761e-02, 3.17600854e-02, 1.99629739e-02,
          1.16811305e-01, 1.20630637e-01, 0., 1.42105684e-01,
          2.56103098e-01, 2.56103098e-01, 1.47049740e-01, 1.35598674e-01,
          5.12663908e-02, 1.21645238e-02, 2.12549180e-01, 3.11247110e-02,
          6.76041469e-02, 2.56103098e-01, 2.39192218e-01, 2.53145278e-01,
          1.43467948e-01, 6.95207044e-02, 6.15730062e-02, 2.56103098e-01,
          2.56103098e-01, 2.12408021e-01, 4.20909114e-02, 1.44754395e-01,
          6.04743622e-02, 9.82153937e-02, 2.16211990e-01, 1.31682515e-01 ]
      - [ 2.08820164e-01, 9.15051624e-02, 2.30062410e-01, 2.10848898e-01,
          2.85866112e-01, 1.49451360e-01, 0., 2.00504530e-02,
          6.46290407e-02, 4.32752371e-02, 5.30668721e-02, 6.72718808e-02,
          7.56410286e-02, 2.85866112e-01, 2.49056444e-01, 1.27285540e-01,
          1.33402618e-02, 6.61895797e-02, 6.18249960e-02, 1.23317137e-01,
          8.20017308e-02, 1.85396358e-01, 2.85866112e-01, 2.85866112e-01,
          2.81084627e-01, 0., 5.32795265e-02, 2.67290413e-01,
          2.85866112e-01, 0., 0., 0., 0., 1.40857875e-01, 1.79494917e-01,
          2.27862164e-01 ]
      - [ 3.19354981e-01, 9.38771516e-02, 2.75594354e-01, 1.35049924e-01,
          1.00528169e-03, 0., 0., 1.89162344e-02, 2.53163911e-02,
          7.70731121e-02, 4.98416461e-02, 7.79878069e-03, 9.10148174e-02,
          3.19354981e-01, 3.19354981e-01, 3.54659967e-02, 0.,
          3.56567018e-02, 2.24672511e-01, 2.07760464e-02, 6.04553334e-02,
          9.37932432e-02, 1.89414933e-01, 1.91877827e-01, 2.82167554e-01,
          6.51567578e-02, 1.28158644e-01, 1.73537195e-01, 3.19354981e-01,
          7.74792060e-02, 1.42141074e-01, 3.19354981e-01, 1.50253907e-01,
          1.87016308e-01, 7.13694468e-02, 1.06995627e-01 ]
      - [ 7.83715323e-02, 7.34562576e-02, 2.99616963e-01, 1.57163277e-01,
          1.68371052e-01, 9.20821279e-02, 6.03321232e-02, 0.,
          5.53074032e-02, 6.20362274e-02, 2.05494948e-02, 0., 0.,
          6.84983144e-03, 0., 0., 2.73993257e-02, 0., 2.99616963e-01,
          2.99616963e-01, 2.99616963e-01, 2.99616963e-01, 2.99616963e-01,
          2.99616963e-01, 2.99616963e-01, 2.06658289e-01, 1.11161277e-01,
          2.20568314e-01, 5.60682826e-02, 1.85426965e-01, 0.,
          6.84983144e-03, 0., 1.77574009e-01, 1.35254055e-01,
          7.67409578e-02 ]
      - [ 7.40909204e-02, 2.38944098e-01, 2.78224289e-01, 2.78224289e-01,
          2.28951022e-01, 6.23234436e-02, 6.37824237e-02, 7.05330372e-02,
          2.62595247e-02, 8.88258442e-02, 2.95883175e-02, 0., 0., 0., 0.,
          0., 7.71227032e-02, 0., 1.21817611e-01, 2.78224289e-01,
          2.44060829e-01, 2.78224289e-01, 2.78224289e-01, 2.78224289e-01,
          2.78224289e-01, 2.78224289e-01, 2.52810061e-01, 9.94038731e-02,
          1.15817182e-01, 8.12315345e-02, 3.36594619e-02, 7.17622088e-03,
          0., 1.01487087e-02, 1.80422395e-01, 1.88005999e-01 ]
      - [ 7.96325505e-03, 2.68829256e-01, 2.68829256e-01, 1.38620764e-01,
          2.21713483e-01, 7.97044411e-02, 1.08429603e-01, 0.,
          8.57218131e-02, 6.53725564e-02, 2.97957715e-02, 0., 0.,
          7.96325505e-03, 0., 0., 2.51820236e-02, 0., 2.68829256e-01,
          2.68829256e-01, 2.68829256e-01, 1.98610142e-01, 2.34073758e-01,
          2.68829256e-01, 2.68829256e-01, 2.47603446e-01, 9.32903141e-02,
          2.68829256e-01, 1.09994955e-01, 2.51316905e-01, 0.,
          3.23305316e-02, 7.98569545e-02, 1.56659991e-01, 1.69937238e-01,
          1.47459045e-01 ]
      - [ 1.65506169e-01, 1.11038044e-01, 3.04948956e-01, 1.79979771e-01,
          3.04948956e-01, 0., 6.78946003e-02, 3.53185646e-02,
          5.87648489e-02, 0., 0., 0., 0., 0., 0., 0., 0., 0.,
          3.04948956e-01, 2.32045889e-01, 3.04948956e-01, 3.04948956e-01,
          3.04948956e-01, 3.04948956e-01, 3.04948956e-01, 2.13355139e-01,
          2.66166091e-01, 6.64389804e-02, 0., 0., 0., 0., 0., 0., 0., 0. ]
      - [ 1.12555241e-02, 0., 2.73034245e-01, 1.49099544e-01,
          8.94415453e-02, 0., 0., 0., 0., 1.33203700e-01, 8.91825035e-02,
          1.07971907e-01, 0., 7.67891109e-02, 8.73575732e-02,
          5.72366007e-02, 2.59935204e-02, 5.24696894e-02, 2.73034245e-01,
          2.73034245e-01, 2.53106445e-01, 1.94718063e-01, 2.73034245e-01,
          2.19290182e-01, 2.73034245e-01, 2.20365077e-01, 1.82472840e-01,
          2.54423887e-01, 1.20509878e-01, 2.73034245e-01, 1.01015024e-01,
          6.49838010e-03, 1.31224692e-01, 2.73034245e-01, 1.96934626e-01,
          1.13113917e-01 ]
      - [ 7.83715323e-02, 7.34562576e-02, 2.99616963e-01, 1.57163277e-01,
          1.68371052e-01, 9.20821279e-02, 6.03321232e-02, 0.,
          5.53074032e-02, 6.20362274e-02, 2.05494948e-02, 0., 0.,
          6.84983144e-03, 0., 0., 2.73993257e-02, 0., 2.99616963e-01,
          2.99616963e-01, 2.99616963e-01, 2.99616963e-01, 2.99616963e-01,
          2.99616963e-01, 2.99616963e-01, 2.06658289e-01, 1.11161277e-01,
          2.20568314e-01, 5.60682826e-02, 1.85426965e-01, 0.,
          6.84983144e-03, 0., 1.77574009e-01, 1.35254055e-01,
          7.67409578e-02 ]
      - [ 7.40909204e-02, 2.38944098e-01, 2.78224289e-01, 2.78224289e-01,
          2.28951022e-01, 6.23234436e-02, 6.37824237e-02, 7.05330372e-02,
          2.62595247e-02, 8.88258442e-02, 2.95883175e-02, 0., 0., 0., 0.,
          0., 7.71227032e-02, 0., 1.21817611e-01, 2.78224289e-01,
          2.44060829e-01, 2.78224289e-01, 2.78224289e-01, 2.78224289e-01,
          2.78224289e-01, 2.78224289e-01, 2.52810061e-01, 9.94038731e-02,
          1.15817182e-01, 8.12315345e-02, 3.36594619e-02, 7.17622088e-03,
          0., 1.01487087e-02, 1.80422395e-01, 1.88005999e-01 ]
      - [ 7.96325505e-03, 2.68829256e-01, 2.68829256e-01, 1.38620764e-01,
          2.21713483e-01, 7.97044411e-02, 1.08429603e-01, 0.,
          8.57218131e-02, 6.53725564e-02, 2.97957715e-02, 0., 0.,
          7.96325505e-03, 0., 0., 2.51820236e-02, 0., 2.68829256e-01,
          2.68829256e-01, 2.68829256e-01, 1.98610142e-01, 2.34073758e-01,
          2.68829256e-01, 2.68829256e-01, 2.47603446e-01, 9.32903141e-02,
          2.68829256e-01, 1.09994955e-01, 2.51316905e-01, 0.,
          3.23305316e-02, 7.98569545e-02, 1.56659991e-01, 1.69937238e-01,
          1.47459045e-01 ]
      - [ 1.65506169e-01, 1.11038044e-01, 3.04948956e-01, 1.79979771e-01,
          3.04948956e-01, 0., 6.78946003e-02, 3.53185646e-02,
          5.87648489e-02, 0., 0., 0., 0., 0., 0., 0., 0., 0.,
          3.04948956e-01, 2.32045889e-01, 3.04948956e-01, 3.04948956e-01,
          3.04948956e-01, 3.04948956e-01, 3.04948956e-01, 2.13355139e-01,
          2.66166091e-01, 6.64389804e-02, 0., 0., 0., 0., 0., 0., 0., 0. ]
      - [ 1.12555241e-02, 0., 2.73034245e-01, 1.49099544e-01,
          8.94415453e-02, 0., 0., 0., 0., 1.33203700e-01, 8.91825035e-02,
          1.07971907e-01, 0., 7.67891109e-02, 8.73575732e-02,
          5.72366007e-02, 2.59935204e-02, 5.24696894e-02, 2.73034245e-01,
          2.73034245e-01, 2.53106445e-01, 1.94718063e-01, 2.73034245e-01,
          2.19290182e-01, 2.73034245e-01, 2.20365077e-01, 1.82472840e-01,
          2.54423887e-01, 1.20509878e-01, 2.73034245e-01, 1.01015024e-01,
          6.49838010e-03, 1.31224692e-01, 2.73034245e-01, 1.96934626e-01,
          1.13113917e-01 ]
      - [ 7.83715323e-02, 7.34562576e-02, 2.99616963e-01, 1.57163277e-01,
          1.68371052e-01, 9.20821279e-02, 6.03321232e-02, 0.,
          5.53074032e-02, 6.20362274e-02, 2.05494948e-02, 0., 0.,
          6.84983144e-03, 0., 0., 2.73993257e-02, 0., 2.99616963e-01,
          2.99616963e-01, 2.99616963e-01, 2.99616963e-01, 2.99616963e-01,
          2.99616963e-01, 2.99616963e-01, 2.06658289e-01, 1.11161277e-01,
          2.20568314e-01, 5.60682826e-02, 1.85426965e-01, 0.,
          6.84983144e-03, 0., 1.77574009e-01, 1.35254055e-01,
          7.67409578e-02 ]
      - [ 7.40909204e-02, 2.38944098e-01, 2.78224289e-01, 2.78224289e-01,
          2.28951022e-01, 6.23234436e-02, 6.37824237e-02, 7.05330372e-02,
          2.62595247e-02, 8.88258442e-02, 2.95883175e-02, 0., 0., 0., 0.,
          0., 7.71227032e-02, 0., 1.21817611e-01, 2.78224289e-01,
          2.44060829e-01, 2.78224289e-01, 2.78224289e-01, 2.78224289e-01,
          2.78224289e-01, 2.78224289e-01, 2.52810061e-01, 9.94038731e-02,
          1.15817182e-01, 8.12315345e-02, 3.36594619e-02, 7.17622088e-03,
          0., 1.01487087e-02, 1.80422395e-01, 1.88005999e-01 ]
      - [ 7.96325505e-03, 2.68829256e-01, 2.68829256e-01, 1.38620764e-01,
          2.21713483e-01, 7.97044411e-02, 1.08429603e-01, 0.,
          8.57218131e-02, 6.53725564e-02, 2.97957715e-02, 0., 0.,
          7.96325505e-03, 0., 0., 2.51820236e-02, 0., 2.68829256e-01,
          2.68829256e-01, 2.68829256e-01, 1.98610142e-01, 2.34073758e-01,
          2.68829256e-01, 2.68829256e-01, 2.47603446e-01, 9.32903141e-02,
          2.68829256e-01, 1.09994955e-01, 2.51316905e-01, 0.,
          3.23305316e-02, 7.98569545e-02, 1.56659991e-01, 1.69937238e-01,
          1.47459045e-01 ]
      - [ 1.65506169e-01, 1.11038044e-01, 3.04948956e-01, 1.79979771e-01,
          3.04948956e-01, 0., 6.78946003e-02, 3.53185646e-02,
          5.87648489e-02, 0., 0., 0., 0., 0., 0., 0., 0., 0.,
          3.04948956e-01, 2.32045889e-01, 3.04948956e-01, 3.04948956e-01,
          3.04948956e-01, 3.04948956e-01, 3.04948956e-01, 2.13355139e-01,
          2.66166091e-01, 6.64389804e-02, 0., 0., 0., 0., 0., 0., 0., 0. ]
      - [ 1.12555241e-02, 0., 2.73034245e-01, 1.49099544e-01,
          8.94415453e-02, 0., 0., 0., 0., 1.33203700e-01, 8.91825035e-02,
          1.07971907e-01, 0., 7.67891109e-02, 8.73575732e-02,
          5.72366007e-02, 2.59935204e-02, 5.24696894e-02, 2.73034245e-01,
          2.73034245e-01, 2.53106445e-01, 1.94718063e-01, 2.73034245e-01,
          2.19290182e-01, 2.73034245e-01, 2.20365077e-01, 1.82472840e-01,
          2.54423887e-01, 1.20509878e-01, 2.73034245e-01, 1.01015024e-01,
          6.49838010e-03, 1.31224692e-01, 2.73034245e-01, 1.96934626e-01,
          1.13113917e-01 ]
      - [ 7.83715323e-02, 7.34562576e-02, 2.99616963e-01, 1.57163277e-01,
          1.68371052e-01, 9.20821279e-02, 6.03321232e-02, 0.,
          5.53074032e-02, 6.20362274e-02, 2.05494948e-02, 0., 0.,
          6.84983144e-03, 0., 0., 2.73993257e-02, 0., 2.99616963e-01,
          2.99616963e-01, 2.99616963e-01, 2.99616963e-01, 2.99616963e-01,
          2.99616963e-01, 2.99616963e-01, 2.06658289e-01, 1.11161277e-01,
          2.20568314e-01, 5.60682826e-02, 1.85426965e-01, 0.,
          6.84983144e-03, 0., 1.77574009e-01, 1.35254055e-01,
          7.67409578e-02 ]
      - [ 7.40909204e-02, 2.38944098e-01, 2.78224289e-01, 2.78224289e-01,
          2.28951022e-01, 6.23234436e-02, 6.37824237e-02, 7.05330372e-02,
          2.62595247e-02, 8.88258442e-02, 2.95883175e-02, 0., 0., 0., 0.,
          0., 7.71227032e-02, 0., 1.21817611e-01, 2.78224289e-01,
          2.44060829e-01, 2.78224289e-01, 2.78224289e-01, 2.78224289e-01,
          2.78224289e-01, 2.78224289e-01, 2.52810061e-01, 9.94038731e-02,
          1.15817182e-01, 8.12315345e-02, 3.36594619e-02, 7.17622088e-03,
          0., 1.01487087e-02, 1.80422395e-01, 1.88005999e-01 ]
      - [ 7.96325505e-03, 2.68829256e-01, 2.68829256e-01, 1.38620764e-01,
          2.21713483e-01, 7.97044411e-02, 1.08429603e-01, 0.,
          8.57218131e-02, 6.53725564e-02, 2.97957715e-02, 0., 0.,
          7.96325505e-03, 0., 0., 2.51820236e-02, 0., 2.68829256e-01,
          2.68829256e-01, 2.68829256e-01, 1.98610142e-01, 2.34073758e-01,
          2.68829256e-01, 2.68829256e-01, 2.47603446e-01, 9.32903141e-02,
          2.68829256e-01, 1.09994955e-01, 2.51316905e-01, 0.,
          3.23305316e-02, 7.98569545e-02, 1.56659991e-01, 1.69937238e-01,
          1.47459045e-01 ]
      - [ 1.65506169e-01, 1.11038044e-01, 3.04948956e-01, 1.79979771e-01,
          3.04948956e-01, 0., 6.78946003e-02, 3.53185646e-02,
          5.87648489e-02, 0., 0., 0., 0., 0., 0., 0., 0., 0.,
          3.04948956e-01, 2.32045889e-01, 3.04948956e-01, 3.04948956e-01,
          3.04948956e-01, 3.04948956e-01, 3.04948956e-01, 2.13355139e-01,
          2.66166091e-01, 6.64389804e-02, 0., 0., 0., 0., 0., 0., 0., 0. ]
      - [ 1.12555241e-02, 0., 2.73034245e-01, 1.49099544e-01,
          8.94415453e-02, 0., 0., 0., 0., 1.33203700e-01, 8.91825035e-02,
          1.07971907e-01, 0., 7.67891109e-02, 8.73575732e-02,
          5.72366007e-02, 2.59935204e-02, 5.24696894e-02, 2.73034245e-01,
          2.73034245e-01, 2.53106445e-01, 1.94718063e-01, 2.73034245e-01,
          2.19290182e-01, 2.73034245e-01, 2.20365077e-01, 1.82472840e-01,
          2.54423887e-01, 1.20509878e-01, 2.73034245e-01, 1.01015024e-01,
          6.49838010e-03, 1.31224692e-01, 2.73034245e-01, 1.96934626e-01,
          1.13113917e-01 ]
      - [ 7.83715323e-02, 7.34562576e-02, 2.99616963e-01, 1.57163277e-01,
          1.68371052e-01, 9.20821279e-02, 6.03321232e-02, 0.,
          5.53074032e-02, 6.20362274e-02, 2.05494948e-02, 0., 0.,
          6.84983144e-03, 0., 0., 2.73993257e-02, 0., 2.99616963e-01,
          2.99616963e-01, 2.99616963e-01, 2.99616963e-01, 2.99616963e-01,
          2.99616963e-01, 2.99616963e-01, 2.06658289e-01, 1.11161277e-01,
          2.20568314e-01, 5.60682826e-02, 1.85426965e-01, 0.,
          6.84983144e-03, 0., 1.77574009e-01, 1.35254055e-01,
          7.67409578e-02 ]
      - [ 7.40909204e-02, 2.38944098e-01, 2.78224289e-01, 2.78224289e-01,
          2.28951022e-01, 6.23234436e-02, 6.37824237e-02, 7.05330372e-02,
          2.62595247e-02, 8.88258442e-02, 2.95883175e-02, 0., 0., 0., 0.,
          0., 7.71227032e-02, 0., 1.21817611e-01, 2.78224289e-01,
          2.44060829e-01, 2.78224289e-01, 2.78224289e-01, 2.78224289e-01,
          2.78224289e-01, 2.78224289e-01, 2.52810061e-01, 9.94038731e-02,
          1.15817182e-01, 8.12315345e-02, 3.36594619e-02, 7.17622088e-03,
          0., 1.01487087e-02, 1.80422395e-01, 1.88005999e-01 ]
      - [ 7.96325505e-03, 2.68829256e-01, 2.68829256e-01, 1.38620764e-01,
          2.21713483e-01, 7.97044411e-02, 1.08429603e-01, 0.,
          8.57218131e-02, 6.53725564e-02, 2.97957715e-02, 0., 0.,
          7.96325505e-03, 0., 0., 2.51820236e-02, 0., 2.68829256e-01,
          2.68829256e-01, 2.68829256e-01, 1.98610142e-01, 2.34073758e-01,
          2.68829256e-01, 2.68829256e-01, 2.47603446e-01, 9.32903141e-02,
          2.68829256e-01, 1.09994955e-01, 2.51316905e-01, 0.,
          3.23305316e-02, 7.98569545e-02, 1.56659991e-01, 1.69937238e-01,
          1.47459045e-01 ]
      - [ 1.65506169e-01, 1.11038044e-01, 3.04948956e-01, 1.79979771e-01,
          3.04948956e-01, 0., 6.78946003e-02, 3.53185646e-02,
          5.87648489e-02, 0., 0., 0., 0., 0., 0., 0., 0., 0.,
          3.04948956e-01, 2.32045889e-01, 3.04948956e-01, 3.04948956e-01,
          3.04948956e-01, 3.04948956e-01, 3.04948956e-01, 2.13355139e-01,
          2.66166091e-01, 6.64389804e-02, 0., 0., 0., 0., 0., 0., 0., 0. ]
      - [ 1.12555241e-02, 0., 2.73034245e-01, 1.49099544e-01,
          8.94415453e-02, 0., 0., 0., 0., 1.33203700e-01, 8.91825035e-02,
          1.07971907e-01, 0., 7.67891109e-02, 8.73575732e-02,
          5.72366007e-02, 2.59935204e-02, 5.24696894e-02, 2.73034245e-01,
          2.73034245e-01, 2.53106445e-01, 1.94718063e-01, 2.73034245e-01,
          2.19290182e-01, 2.73034245e-01, 2.20365077e-01, 1.82472840e-01,
          2.54423887e-01, 1.20509878e-01, 2.73034245e-01, 1.01015024e-01,
          6.49838010e-03, 1.31224692e-01, 2.73034245e-01, 1.96934626e-01,
          1.13113917e-01 ]
      - [ 3.00294876e-01, 2.13695869e-01, 4.45174947e-02, 6.30764430e-03,
          2.36611560e-01, 3.41793507e-01, 1.33633241e-01, 7.46279433e-02,
          4.61371876e-02, 2.52033651e-01, 3.41793507e-01, 3.01226117e-02,
          0., 2.22476870e-02, 1.87659562e-01, 1.29548252e-01,
          1.06594712e-01, 1.50712073e-01, 3.41793507e-01, 3.41793507e-01,
          4.68050018e-02, 8.85998271e-03, 0., 0., 0., 1.35381252e-01,
          9.92550030e-02, 3.09705198e-01, 1.88910350e-01, 1.58578809e-02,
          0., 0., 0., 0., 0., 0. ]
      - [ 1.49935454e-01, 4.62560691e-02, 7.56043568e-02, 3.88142824e-01,
          3.88142824e-01, 0., 8.02692771e-02, 7.87064731e-02,
          1.03518829e-01, 2.07458541e-01, 3.88142824e-01, 0., 0.,
          8.91760290e-02, 9.64817703e-02, 0., 1.28055766e-01,
          1.81582674e-01, 3.88142824e-01, 2.69864112e-01, 0.,
          3.77537659e-03, 0., 0., 0., 0., 1.02173932e-01, 3.88142824e-01,
          9.18515772e-03, 0., 0., 0., 0., 0., 0., 0. ]
      - [ 3.27845365e-01, 4.08335894e-01, 0., 0., 4.61685389e-01,
          2.54771650e-01, 3.34852003e-02, 1.53621778e-01, 2.06755266e-01,
          2.68851727e-01, 3.15036438e-02, 1.74142960e-02, 0.,
          4.82404828e-02, 0., 4.10755090e-02, 9.09431931e-03,
          9.87704471e-02, 4.61685389e-01, 1.97482601e-01, 0., 0., 0., 0.,
          0., 0., 2.00654134e-01, 2.01015677e-02, 0., 0., 0., 0., 0., 0.,
          0., 0. ]
      - [ 1.23555973e-01, 1.48727357e-01, 4.50396203e-02, 9.98231620e-02,
          3.45443904e-01, 1.52140096e-01, 8.51638615e-02, 1.15436889e-01,
          3.73555906e-02, 3.45443904e-01, 3.45443904e-01, 1.20723210e-02,
          0., 2.83374518e-01, 1.04697250e-01, 1.27772063e-01,
          5.05856611e-02, 1.97788045e-01, 3.45443904e-01, 2.86930948e-01,
          0., 0., 0., 0., 0., 0., 0., 3.45443904e-01, 2.77669549e-01, 0.,
          0., 0., 0., 0., 0., 0. ]
      - [ 3.00294876e-01, 2.13695869e-01, 4.45174947e-02, 6.30764430e-03,
          2.36611560e-01, 3.41793507e-01, 1.33633241e-01, 7.46279433e-02,
          4.61371876e-02, 2.52033651e-01, 3.41793507e-01, 3.01226117e-02,
          0., 2.22476870e-02, 1.87659562e-01, 1.29548252e-01,
          1.06594712e-01, 1.50712073e-01, 3.41793507e-01, 3.41793507e-01,
          4.68050018e-02, 8.85998271e-03, 0., 0., 0., 1.35381252e-01,
          9.92550030e-02, 3.09705198e-01, 1.88910350e-01, 1.58578809e-02,
          0., 0., 0., 0., 0., 0. ]
      - [ 1.49935454e-01, 4.62560691e-02, 7.56043568e-02, 3.88142824e-01,
          3.88142824e-01, 0., 8.02692771e-02, 7.87064731e-02,
          1.03518829e-01, 2.07458541e-01, 3.88142824e-01, 0., 0.,
          8.91760290e-02, 9.64817703e-02, 0., 1.28055766e-01,
          1.81582674e-01, 3.88142824e-01, 2.69864112e-01, 0.,
          3.77537659e-03, 0., 0., 0., 0., 1.02173932e-01, 3.88142824e-01,
          9.18515772e-03, 0., 0., 0., 0., 0., 0., 0. ]
      - [ 3.27845365e-01, 4.08335894e-01, 0., 0., 4.61685389e-01,
          2.54771650e-01, 3.34852003e-02, 1.53621778e-01, 2.06755266e-01,
          2.68851727e-01, 3.15036438e-02, 1.74142960e-02, 0.,
          4.82404828e-02, 0., 4.10755090e-02, 9.09431931e-03,
          9.87704471e-02, 4.61685389e-01, 1.97482601e-01, 0., 0., 0., 0.,
          0., 0., 2.00654134e-01, 2.01015677e-02, 0., 0., 0., 0., 0., 0.,
          0., 0. ]
      - [ 1.23555973e-01, 1.48727357e-01, 4.50396203e-02, 9.98231620e-02,
          3.45443904e-01, 1.52140096e-01, 8.51638615e-02, 1.15436889e-01,
          3.73555906e-02, 3.45443904e-01, 3.45443904e-01, 1.20723210e-02,
          0., 2.83374518e-01, 1.04697250e-01, 1.27772063e-01,
          5.05856611e-02, 1.97788045e-01, 3.45443904e-01, 2.86930948e-01,
          0., 0., 0., 0., 0., 0., 0., 3.45443904e-01, 2.77669549e-01, 0.,
          0., 0., 0., 0., 0., 0. ]
      - [ 3.00294876e-01, 2.13695869e-01, 4.45174947e-02, 6.30764430e-03,
          2.36611560e-01, 3.41793507e-01, 1.33633241e-01, 7.46279433e-02,
          4.61371876e-02, 2.52033651e-01, 3.41793507e-01, 3.01226117e-02,
          0., 2.22476870e-02, 1.87659562e-01, 1.29548252e-01,
          1.06594712e-01, 1.50712073e-01, 3.41793507e-01, 3.41793507e-01,
          4.68050018e-02, 8.85998271e-03, 0., 0., 0., 1.35381252e-01,
          9.92550030e-02, 3.09705198e-01, 1.88910350e-01, 1.58578809e-02,
          0., 0., 0., 0., 0., 0. ]
      - [ 1.49935454e-01, 4.62560691e-02, 7.56043568e-02, 3.88142824e-01,
          3.88142824e-01, 0., 8.02692771e-02, 7.87064731e-02,
          1.03518829e-01, 2.07458541e-01, 3.88142824e-01, 0., 0.,
          8.91760290e-02, 9.64817703e-02, 0., 1.28055766e-01,
          1.81582674e-01, 3.88142824e-01, 2.69864112e-01, 0.,
          3.77537659e-03, 0., 0., 0., 0., 1.02173932e-01, 3.88142824e-01,
          9.18515772e-03, 0., 0., 0., 0., 0., 0., 0. ]
      - [ 3.27845365e-01, 4.08335894e-01, 0., 0., 4.61685389e-01,
          2.54771650e-01, 3.34852003e-02, 1.53621778e-01, 2.06755266e-01,
          2.68851727e-01, 3.15036438e-02, 1.74142960e-02, 0.,
          4.82404828e-02, 0., 4.10755090e-02, 9.09431931e-03,
          9.87704471e-02, 4.61685389e-01, 1.97482601e-01, 0., 0., 0., 0.,
          0., 0., 2.00654134e-01, 2.01015677e-02, 0., 0., 0., 0., 0., 0.,
          0., 0. ]
      - [ 1.23555973e-01, 1.48727357e-01, 4.50396203e-02, 9.98231620e-02,
          3.45443904e-01, 1.52140096e-01, 8.51638615e-02, 1.15436889e-01,
          3.73555906e-02, 3.45443904e-01, 3.45443904e-01, 1.20723210e-02,
          0., 2.83374518e-01, 1.04697250e-01, 1.27772063e-01,
          5.05856611e-02, 1.97788045e-01, 3.45443904e-01, 2.86930948e-01,
          0., 0., 0., 0., 0., 0., 0., 3.45443904e-01, 2.77669549e-01, 0.,
          0., 0., 0., 0., 0., 0. ]
      - [ 3.00294876e-01, 2.13695869e-01, 4.45174947e-02, 6.30764430e-03,
          2.36611560e-01, 3.41793507e-01, 1.33633241e-01, 7.46279433e-02,
          4.61371876e-02, 2.52033651e-01, 3.41793507e-01, 3.01226117e-02,
          0., 2.22476870e-02, 1.87659562e-01, 1.29548252e-01,
          1.06594712e-01, 1.50712073e-01, 3.41793507e-01, 3.41793507e-01,
          4.68050018e-02, 8.85998271e-03, 0., 0., 0., 1.35381252e-01,
          9.92550030e-02, 3.09705198e-01, 1.88910350e-01, 1.58578809e-02,
          0., 0., 0., 0., 0., 0. ]
      - [ 1.49935454e-01, 4.62560691e-02, 7.56043568e-02, 3.88142824e-01,
          3.88142824e-01, 0., 8.02692771e-02, 7.87064731e-02,
          1.03518829e-01, 2.07458541e-01, 3.88142824e-01, 0., 0.,
          8.91760290e-02, 9.64817703e-02, 0., 1.28055766e-01,
          1.81582674e-01, 3.88142824e-01, 2.69864112e-01, 0.,
          3.77537659e-03, 0., 0., 0., 0., 1.02173932e-01, 3.88142824e-01,
          9.18515772e-03, 0., 0., 0., 0., 0., 0., 0. ]
      - [ 3.27845365e-01, 4.08335894e-01, 0., 0., 4.61685389e-01,
          2.54771650e-01, 3.34852003e-02, 1.53621778e-01, 2.06755266e-01,
          2.68851727e-01, 3.15036438e-02, 1.74142960e-02, 0.,
          4.82404828e-02, 0., 4.10755090e-02, 9.09431931e-03,
          9.87704471e-02, 4.61685389e-01, 1.97482601e-01, 0., 0., 0., 0.,
          0., 0., 2.00654134e-01, 2.01015677e-02, 0., 0., 0., 0., 0., 0.,
          0., 0. ]
      - [ 1.23555973e-01, 1.48727357e-01, 4.50396203e-02, 9.98231620e-02,
          3.45443904e-01, 1.52140096e-01, 8.51638615e-02, 1.15436889e-01,
          3.73555906e-02, 3.45443904e-01, 3.45443904e-01, 1.20723210e-02,
          0., 2.83374518e-01, 1.04697250e-01, 1.27772063e-01,
          5.05856611e-02, 1.97788045e-01, 3.45443904e-01, 2.86930948e-01,
          0., 0., 0., 0., 0., 0., 0., 3.45443904e-01, 2.77669549e-01, 0.,
          0., 0., 0., 0., 0., 0. ]
      - [ 3.00294876e-01, 2.13695869e-01, 4.45174947e-02, 6.30764430e-03,
          2.36611560e-01, 3.41793507e-01, 1.33633241e-01, 7.46279433e-02,
          4.61371876e-02, 2.52033651e-01, 3.41793507e-01, 3.01226117e-02,
          0., 2.22476870e-02, 1.87659562e-01, 1.29548252e-01,
          1.06594712e-01, 1.50712073e-01, 3.41793507e-01, 3.41793507e-01,
          4.68050018e-02, 8.85998271e-03, 0., 0., 0., 1.35381252e-01,
          9.92550030e-02, 3.09705198e-01, 1.88910350e-01, 1.58578809e-02,
          0., 0., 0., 0., 0., 0. ]
      - [ 1.49935454e-01, 4.62560691e-02, 7.56043568e-02, 3.88142824e-01,
          3.88142824e-01, 0., 8.02692771e-02, 7.87064731e-02,
          1.03518829e-01, 2.07458541e-01, 3.88142824e-01, 0., 0.,
          8.91760290e-02, 9.64817703e-02, 0., 1.28055766e-01,
          1.81582674e-01, 3.88142824e-01, 2.69864112e-01, 0.,
          3.77537659e-03, 0., 0., 0., 0., 1.02173932e-01, 3.88142824e-01,
          9.18515772e-03, 0., 0., 0., 0., 0., 0., 0. ]
      - [ 3.27845365e-01, 4.08335894e-01, 0., 0., 4.61685389e-01,
          2.54771650e-01, 3.34852003e-02, 1.53621778e-01, 2.06755266e-01,
          2.68851727e-01, 3.15036438e-02, 1.74142960e-02, 0.,
          4.82404828e-02, 0., 4.10755090e-02, 9.09431931e-03,
          9.87704471e-02, 4.61685389e-01, 1.97482601e-01, 0., 0., 0., 0.,
          0., 0., 2.00654134e-01, 2.01015677e-02, 0., 0., 0., 0., 0., 0.,
          0., 0. ]
      - [ 1.23555973e-01, 1.48727357e-01, 4.50396203e-02, 9.98231620e-02,
          3.45443904e-01, 1.52140096e-01, 8.51638615e-02, 1.15436889e-01,
          3.73555906e-02, 3.45443904e-01, 3.45443904e-01, 1.20723210e-02,
          0., 2.83374518e-01, 1.04697250e-01, 1.27772063e-01,
          5.05856611e-02, 1.97788045e-01, 3.45443904e-01, 2.86930948e-01,
          0., 0., 0., 0., 0., 0., 0., 3.45443904e-01, 2.77669549e-01, 0.,
          0., 0., 0., 0., 0., 0. ]
      - [ 1.27738845e-02, 5.73213138e-02, 2.70783335e-01, 2.70783335e-01,
          2.70783335e-01, 0., 0., 0., 0., 0., 3.09944781e-03, 0., 0.,
          2.70783335e-01, 2.70783335e-01, 2.59365976e-01, 7.11109266e-02,
          0., 7.63821080e-02, 9.20022577e-02, 2.28756145e-01,
          1.51597947e-01, 1.51647776e-01, 2.70783335e-01, 2.70783335e-01,
          1.77711949e-01, 1.69731811e-01, 1.44788325e-01, 1.49285212e-01,
          2.70783335e-01, 2.70783335e-01, 1.81868255e-01, 0., 0.,
          1.22162448e-02, 1.21774361e-01 ]
      - [ 5.87758534e-02, 9.19532031e-02, 1.31224081e-01, 2.75499552e-01,
          2.75499552e-01, 6.83204830e-02, 0., 0., 5.34914620e-02, 0., 0.,
          0., 7.64391292e-03, 2.03433916e-01, 2.75499552e-01,
          2.75499552e-01, 8.77013505e-02, 0., 8.36031586e-02,
          8.19885880e-02, 1.28007859e-01, 2.75499552e-01, 1.18863419e-01,
          1.33312315e-01, 2.75499552e-01, 2.01768503e-01, 2.38406330e-01,
          2.23128140e-01, 1.77926496e-01, 2.75499552e-01, 2.75499552e-01,
          2.45201394e-01, 1.02024572e-02, 0., 5.31435572e-02,
          5.44376597e-02 ]
      - [ 0., 6.96096383e-03, 2.80059636e-01, 2.80059636e-01,
          2.48753205e-01, 0., 0., 0., 0., 1.93310902e-02, 0.,
          1.19968569e-02, 6.02319613e-02, 2.80059636e-01, 2.80059636e-01,
          9.21887159e-02, 1.31367475e-01, 5.73861115e-02, 2.74218410e-01,
          2.00481012e-01, 1.43304290e-02, 0., 2.80059636e-01,
          2.80059636e-01, 1.52629390e-01, 1.46420717e-01, 1.81743652e-01,
          1.82853743e-01, 2.80059636e-01, 2.80059636e-01, 1.74123615e-01,
          1.21724911e-01, 1.14438776e-02, 2.78153326e-02, 3.97123173e-02,
          5.47621548e-02 ]
      - [ 1.69899669e-02, 3.03220935e-03, 1.50898606e-01, 2.29850695e-01,
          2.96627402e-01, 6.55436218e-02, 0., 0., 0., 9.43600759e-03, 0.,
          0., 0., 8.61427709e-02, 2.96627402e-01, 2.69884199e-01,
          7.16495365e-02, 5.36582693e-02, 5.63963465e-02, 1.72503456e-01,
          2.77053356e-01, 2.93932498e-01, 2.96627402e-01, 2.96627402e-01,
          1.37416780e-01, 1.23327553e-01, 1.12493306e-01, 2.66635150e-01,
          1.24419659e-01, 2.96627402e-01, 2.32586741e-01, 1.50325159e-02,
          0., 0., 0., 8.81340727e-02 ]
      - [ 5.47124147e-02, 7.10674301e-02, 3.13446045e-01, 2.55014479e-01,
          9.68684480e-02, 0., 0., 0., 0., 0., 6.80397777e-03, 0.,
          6.80038556e-02, 3.13446045e-01, 3.13446045e-01, 1.15778089e-01,
          1.92917045e-02, 0., 1.21709570e-01, 9.13523063e-02,
          1.65724933e-01, 6.81436947e-03, 1.56801399e-02, 3.13446045e-01,
          2.41999954e-01, 1.04533210e-01, 2.38442913e-01, 1.16784215e-01,
          7.71219954e-02, 3.13446045e-01, 3.13446045e-01, 3.13446045e-01,
          3.91709767e-02, 5.85735850e-02, 8.96971524e-02, 3.86606045e-02 ]
      - [ 1.34208109e-02, 8.11968520e-02, 2.73543447e-01, 2.56099224e-01,
          2.49026299e-01, 1.16513379e-01, 7.22099021e-02, 1.05813988e-01,
          5.05931452e-02, 0., 0., 0., 1.64605230e-01, 2.73543447e-01,
          2.73543447e-01, 7.59891123e-02, 2.21068058e-02, 0.,
          2.56526798e-01, 2.11627528e-01, 1.79235235e-01, 1.26529813e-01,
          1.08325258e-01, 2.73543447e-01, 2.19598770e-01, 1.22941956e-01,
          4.66008186e-02, 1.11261636e-01, 9.87649634e-02, 2.73543447e-01,
          2.73543447e-01, 2.73543447e-01, 4.62317280e-02, 2.62553282e-02,
          6.57365173e-02, 1.03377119e-01 ]
      - [ 1.10014252e-01, 1.42135143e-01, 2.74284840e-01, 1.79496959e-01,
          2.38030538e-01, 5.43452911e-02, 1.33489832e-01, 3.96154746e-02,
          6.61555827e-02, 8.89830571e-03, 0., 0., 3.71413194e-02,
          2.74284840e-01, 1.99587792e-01, 2.74284840e-01, 3.03935036e-02,
          9.14721042e-02, 2.15892538e-01, 8.05066824e-02, 1.56161517e-01,
          1.72570080e-01, 2.10246220e-01, 1.32395431e-01, 2.74284840e-01,
          1.98400304e-01, 1.40446186e-01, 1.14567600e-01, 1.44011840e-01,
          2.16423064e-01, 2.74284840e-01, 2.50852287e-01, 1.58410788e-01,
          8.67986828e-02, 1.21786572e-01, 7.86361620e-02 ]
      - [ 4.57003377e-02, 1.02721848e-01, 2.55683869e-01, 2.14276984e-01,
          2.14298710e-01, 1.49206683e-01, 7.94551373e-02, 1.01300888e-01,
          6.30952194e-02, 0., 4.60980088e-03, 1.36683760e-02,
          2.71945417e-01, 2.71945417e-01, 2.71945417e-01, 5.18184789e-02,
          2.77144387e-02, 2.31728815e-02, 2.71945417e-01, 2.51203775e-01,
          1.62966207e-01, 3.18008512e-02, 1.12852223e-01, 2.71945417e-01,
          1.26762331e-01, 1.25980005e-01, 7.21805319e-02, 1.56361625e-01,
          1.82721600e-01, 2.71945417e-01, 2.71945417e-01, 2.52569199e-01,
          1.00579839e-02, 3.23122405e-02, 4.15701158e-02, 1.97785553e-02 ]
      - [ 0., 4.23895456e-02, 2.65567124e-01, 2.65567124e-01,
          2.65567124e-01, 9.30249393e-02, 9.25660655e-02, 7.80841336e-02,
          3.10991816e-02, 3.21227722e-02, 0., 0., 0., 2.41443887e-01,
          2.65567124e-01, 8.63197669e-02, 7.81455711e-02, 0.,
          1.77987352e-01, 2.40323946e-01, 1.50969669e-01, 2.53149152e-01,
          2.65567124e-01, 2.65567124e-01, 1.71177775e-01, 9.69552323e-02,
          2.48882007e-02, 2.47345209e-01, 1.66383952e-01, 2.65567124e-01,
          2.65567124e-01, 6.60236850e-02, 5.83241880e-03, 2.49709766e-02,
          3.62639315e-02, 1.61234781e-01 ]
      - [ 2.26876866e-02, 5.38687594e-02, 2.77319491e-01, 1.28661916e-01,
          2.52884418e-01, 5.72617315e-02, 3.09645440e-02, 4.28013653e-02,
          3.62417810e-02, 4.46071923e-02, 4.11216617e-02, 0.,
          2.77319491e-01, 2.77319491e-01, 2.76161104e-01, 9.71995145e-02,
          3.68640162e-02, 1.55778890e-02, 2.65169024e-01, 1.04086727e-01,
          1.89779252e-01, 1.10496104e-01, 9.37755685e-03, 2.17922390e-01,
          1.54686347e-01, 9.94222388e-02, 9.13064107e-02, 1.62016571e-01,
          1.53022096e-01, 2.77319491e-01, 2.77319491e-01, 2.77319491e-01,
          2.15973467e-01, 1.65672138e-01, 2.81339195e-02, 1.12311587e-01 ]
      - [ 1.34208109e-02, 8.11968520e-02, 2.73543447e-01, 2.56099224e-01,
          2.49026299e-01, 1.16513379e-01, 7.22099021e-02, 1.05813988e-01,
          5.05931452e-02, 0., 0., 0., 1.64605230e-01, 2.73543447e-01,
          2.73543447e-01, 7.59891123e-02, 2.21068058e-02, 0.,
          2.56526798e-01, 2.11627528e-01, 1.79235235e-01, 1.26529813e-01,
          1.08325258e-01, 2.73543447e-01, 2.19598770e-01, 1.22941956e-01,
          4.66008186e-02, 1.11261636e-01, 9.87649634e-02, 2.73543447e-01,
          2.73543447e-01, 2.73543447e-01, 4.62317280e-02, 2.62553282e-02,
          6.57365173e-02, 1.03377119e-01 ]
      - [ 1.10014252e-01, 1.42135143e-01, 2.74284840e-01, 1.79496959e-01,
          2.38030538e-01, 5.43452911e-02, 1.33489832e-01, 3.96154746e-02,
          6.61555827e-02, 8.89830571e-03, 0., 0., 3.71413194e-02,
          2.74284840e-01, 1.99587792e-01, 2.74284840e-01, 3.03935036e-02,
          9.14721042e-02, 2.15892538e-01, 8.05066824e-02, 1.56161517e-01,
          1.72570080e-01, 2.10246220e-01, 1.32395431e-01, 2.74284840e-01,
          1.98400304e-01, 1.40446186e-01, 1.14567600e-01, 1.44011840e-01,
          2.16423064e-01, 2.74284840e-01, 2.50852287e-01, 1.58410788e-01,
          8.67986828e-02, 1.21786572e-01, 7.86361620e-02 ]
      - [ 4.57003377e-02, 1.02721848e-01, 2.55683869e-01, 2.14276984e-01,
          2.14298710e-01, 1.49206683e-01, 7.94551373e-02, 1.01300888e-01,
          6.30952194e-02, 0., 4.60980088e-03, 1.36683760e-02,
          2.71945417e-01, 2.71945417e-01, 2.71945417e-01, 5.18184789e-02,
          2.77144387e-02, 2.31728815e-02, 2.71945417e-01, 2.51203775e-01,
          1.62966207e-01, 3.18008512e-02, 1.12852223e-01, 2.71945417e-01,
          1.26762331e-01, 1.25980005e-01, 7.21805319e-02, 1.56361625e-01,
          1.82721600e-01, 2.71945417e-01, 2.71945417e-01, 2.52569199e-01,
          1.00579839e-02, 3.23122405e-02, 4.15701158e-02, 1.97785553e-02 ]
      - [ 0., 4.23895456e-02, 2.65567124e-01, 2.65567124e-01,
          2.65567124e-01, 9.30249393e-02, 9.25660655e-02, 7.80841336e-02,
          3.10991816e-02, 3.21227722e-02, 0., 0., 0., 2.41443887e-01,
          2.65567124e-01, 8.63197669e-02, 7.81455711e-02, 0.,
          1.77987352e-01, 2.40323946e-01, 1.50969669e-01, 2.53149152e-01,
          2.65567124e-01, 2.65567124e-01, 1.71177775e-01, 9.69552323e-02,
          2.48882007e-02, 2.47345209e-01, 1.66383952e-01, 2.65567124e-01,
          2.65567124e-01, 6.60236850e-02, 5.83241880e-03, 2.49709766e-02,
          3.62639315e-02, 1.61234781e-01 ]
      - [ 2.26876866e-02, 5.38687594e-02, 2.77319491e-01, 1.28661916e-01,
          2.52884418e-01, 5.72617315e-02, 3.09645440e-02, 4.28013653e-02,
          3.62417810e-02, 4.46071923e-02, 4.11216617e-02, 0.,
          2.77319491e-01, 2.77319491e-01, 2.76161104e-01, 9.71995145e-02,
          3.68640162e-02, 1.55778890e-02, 2.65169024e-01, 1.04086727e-01,
          1.89779252e-01, 1.10496104e-01, 9.37755685e-03, 2.17922390e-01,
          1.54686347e-01, 9.94222388e-02, 9.13064107e-02, 1.62016571e-01,
          1.53022096e-01, 2.77319491e-01, 2.77319491e-01, 2.77319491e-01,
          2.15973467e-01, 1.65672138e-01, 2.81339195e-02, 1.12311587e-01 ]
      - [ 1.27738845e-02, 5.73213138e-02, 2.70783335e-01, 2.70783335e-01,
          2.70783335e-01, 0., 0., 0., 0., 0., 3.09944781e-03, 0., 0.,
          2.70783335e-01, 2.70783335e-01, 2.59365976e-01, 7.11109266e-02,
          0., 7.63821080e-02, 9.20022577e-02, 2.28756145e-01,
          1.51597947e-01, 1.51647776e-01, 2.70783335e-01, 2.70783335e-01,
          1.77711949e-01, 1.69731811e-01, 1.44788325e-01, 1.49285212e-01,
          2.70783335e-01, 2.70783335e-01, 1.81868255e-01, 0., 0.,
          1.22162448e-02, 1.21774361e-01 ]
      - [ 5.87758534e-02, 9.19532031e-02, 1.31224081e-01, 2.75499552e-01,
          2.75499552e-01, 6.83204830e-02, 0., 0., 5.34914620e-02, 0., 0.,
          0., 7.64391292e-03, 2.03433916e-01, 2.75499552e-01,
          2.75499552e-01, 8.77013505e-02, 0., 8.36031586e-02,
          8.19885880e-02, 1.28007859e-01, 2.75499552e-01, 1.18863419e-01,
          1.33312315e-01, 2.75499552e-01, 2.01768503e-01, 2.38406330e-01,
          2.23128140e-01, 1.77926496e-01, 2.75499552e-01, 2.75499552e-01,
          2.45201394e-01, 1.02024572e-02, 0., 5.31435572e-02,
          5.44376597e-02 ]
      - [ 0., 6.96096383e-03, 2.80059636e-01, 2.80059636e-01,
          2.48753205e-01, 0., 0., 0., 0., 1.93310902e-02, 0.,
          1.19968569e-02, 6.02319613e-02, 2.80059636e-01, 2.80059636e-01,
          9.21887159e-02, 1.31367475e-01, 5.73861115e-02, 2.74218410e-01,
          2.00481012e-01, 1.43304290e-02, 0., 2.80059636e-01,
          2.80059636e-01, 1.52629390e-01, 1.46420717e-01, 1.81743652e-01,
          1.82853743e-01, 2.80059636e-01, 2.80059636e-01, 1.74123615e-01,
          1.21724911e-01, 1.14438776e-02, 2.78153326e-02, 3.97123173e-02,
          5.47621548e-02 ]
      - [ 1.69899669e-02, 3.03220935e-03, 1.50898606e-01, 2.29850695e-01,
          2.96627402e-01, 6.55436218e-02, 0., 0., 0., 9.43600759e-03, 0.,
          0., 0., 8.61427709e-02, 2.96627402e-01, 2.69884199e-01,
          7.16495365e-02, 5.36582693e-02, 5.63963465e-02, 1.72503456e-01,
          2.77053356e-01, 2.93932498e-01, 2.96627402e-01, 2.96627402e-01,
          1.37416780e-01, 1.23327553e-01, 1.12493306e-01, 2.66635150e-01,
          1.24419659e-01, 2.96627402e-01, 2.32586741e-01, 1.50325159e-02,
          0., 0., 0., 8.81340727e-02 ]
      - [ 5.47124147e-02, 7.10674301e-02, 3.13446045e-01, 2.55014479e-01,
          9.68684480e-02, 0., 0., 0., 0., 0., 6.80397777e-03, 0.,
          6.80038556e-02, 3.13446045e-01, 3.13446045e-01, 1.15778089e-01,
          1.92917045e-02, 0., 1.21709570e-01, 9.13523063e-02,
          1.65724933e-01, 6.81436947e-03, 1.56801399e-02, 3.13446045e-01,
          2.41999954e-01, 1.04533210e-01, 2.38442913e-01, 1.16784215e-01,
          7.71219954e-02, 3.13446045e-01, 3.13446045e-01, 3.13446045e-01,
          3.91709767e-02, 5.85735850e-02, 8.96971524e-02, 3.86606045e-02 ]
      - [ 1.34208109e-02, 8.11968520e-02, 2.73543447e-01, 2.56099224e-01,
          2.49026299e-01, 1.16513379e-01, 7.22099021e-02, 1.05813988e-01,
          5.05931452e-02, 0., 0., 0., 1.64605230e-01, 2.73543447e-01,
          2.73543447e-01, 7.59891123e-02, 2.21068058e-02, 0.,
          2.56526798e-01, 2.11627528e-01, 1.79235235e-01, 1.26529813e-01,
          1.08325258e-01, 2.73543447e-01, 2.19598770e-01, 1.22941956e-01,
          4.66008186e-02, 1.11261636e-01, 9.87649634e-02, 2.73543447e-01,
          2.73543447e-01, 2.73543447e-01, 4.62317280e-02, 2.62553282e-02,
          6.57365173e-02, 1.03377119e-01 ]
      - [ 1.10014252e-01, 1.42135143e-01, 2.74284840e-01, 1.79496959e-01,
          2.38030538e-01, 5.43452911e-02, 1.33489832e-01, 3.96154746e-02,
          6.61555827e-02, 8.89830571e-03, 0., 0., 3.71413194e-02,
          2.74284840e-01, 1.99587792e-01, 2.74284840e-01, 3.03935036e-02,
          9.14721042e-02, 2.15892538e-01, 8.05066824e-02, 1.56161517e-01,
          1.72570080e-01, 2.10246220e-01, 1.32395431e-01, 2.74284840e-01,
          1.98400304e-01, 1.40446186e-01, 1.14567600e-01, 1.44011840e-01,
          2.16423064e-01, 2.74284840e-01, 2.50852287e-01, 1.58410788e-01,
          8.67986828e-02, 1.21786572e-01, 7.86361620e-02 ]
      - [ 4.57003377e-02, 1.02721848e-01, 2.55683869e-01, 2.14276984e-01,
          2.14298710e-01, 1.49206683e-01, 7.94551373e-02, 1.01300888e-01,
          6.30952194e-02, 0., 4.60980088e-03, 1.36683760e-02,
          2.71945417e-01, 2.71945417e-01, 2.71945417e-01, 5.18184789e-02,
          2.77144387e-02, 2.31728815e-02, 2.71945417e-01, 2.51203775e-01,
          1.62966207e-01, 3.18008512e-02, 1.12852223e-01, 2.71945417e-01,
          1.26762331e-01, 1.25980005e-01, 7.21805319e-02, 1.56361625e-01,
          1.82721600e-01, 2.71945417e-01, 2.71945417e-01, 2.52569199e-01,
          1.00579839e-02, 3.23122405e-02, 4.15701158e-02, 1.97785553e-02 ]
      - [ 0., 4.23895456e-02, 2.65567124e-01, 2.65567124e-01,
          2.65567124e-01, 9.30249393e-02, 9.25660655e-02, 7.80841336e-02,
          3.10991816e-02, 3.21227722e-02, 0., 0., 0., 2.41443887e-01,
          2.65567124e-01, 8.63197669e-02, 7.81455711e-02, 0.,
          1.77987352e-01, 2.40323946e-01, 1.50969669e-01, 2.53149152e-01,
          2.65567124e-01, 2.65567124e-01, 1.71177775e-01, 9.69552323e-02,
          2.48882007e-02, 2.47345209e-01, 1.66383952e-01, 2.65567124e-01,
          2.65567124e-01, 6.60236850e-02, 5.83241880e-03, 2.49709766e-02,
          3.62639315e-02, 1.61234781e-01 ]
      - [ 2.26876866e-02, 5.38687594e-02, 2.77319491e-01, 1.28661916e-01,
          2.52884418e-01, 5.72617315e-02, 3.09645440e-02, 4.28013653e-02,
          3.62417810e-02, 4.46071923e-02, 4.11216617e-02, 0.,
          2.77319491e-01, 2.77319491e-01, 2.76161104e-01, 9.71995145e-02,
          3.68640162e-02, 1.55778890e-02, 2.65169024e-01, 1.04086727e-01,
          1.89779252e-01, 1.10496104e-01, 9.37755685e-03, 2.17922390e-01,
          1.54686347e-01, 9.94222388e-02, 9.13064107e-02, 1.62016571e-01,
          1.53022096e-01, 2.77319491e-01, 2.77319491e-01, 2.77319491e-01,
          2.15973467e-01, 1.65672138e-01, 2.81339195e-02, 1.12311587e-01 ]
      - [ 2.99763530e-01, 2.99763530e-01, 1.68008327e-01, 8.11537951e-02,
          1.98406890e-01, 1.03918530e-01, 9.15778279e-02, 1.45157054e-01,
          4.62690964e-02, 7.53643289e-02, 0., 0., 0., 1.31561663e-02, 0.,
          2.57583279e-02, 2.99763530e-01, 1.66598871e-01, 2.99763530e-01,
          2.44818076e-01, 1.20358735e-01, 6.86790794e-02, 2.99763530e-01,
          8.72383788e-02, 1.26441240e-01, 1.16036251e-01, 8.59946832e-02,
          2.99763530e-01, 1.59969497e-02, 6.38564210e-03, 0.,
          7.49184191e-02, 2.79690195e-02, 0., 2.99763530e-01,
          2.99763530e-01 ]
      - [ 1.74807966e-01, 3.07788968e-01, 2.62122482e-01, 9.66261998e-02,
          1.63078874e-01, 6.84445500e-02, 5.01546711e-02, 4.03599665e-02,
          6.98273778e-02, 7.59870484e-02, 0., 0., 0., 0., 0.,
          6.88658133e-02, 2.71791875e-01, 3.07788968e-01, 2.22761214e-01,
          1.95252270e-01, 1.14304677e-01, 2.91840315e-01, 3.07788968e-01,
          1.94637880e-01, 1.95012987e-01, 1.03967763e-01, 1.16016187e-01,
          3.07788968e-01, 0., 1.49613684e-02, 0., 6.62910119e-02,
          2.25264952e-02, 6.55423198e-03, 4.13039215e-02, 3.07788968e-01 ]
      - [ 2.77188867e-01, 2.77188867e-01, 2.77188867e-01, 1.59900844e-01,
          1.24218665e-01, 1.38891861e-01, 1.36060715e-01, 1.39591843e-01,
          0., 8.34249333e-02, 0., 8.36158078e-03, 0., 3.77657488e-02, 0.,
          3.77657488e-02, 2.77188867e-01, 2.34098345e-01, 2.77188867e-01,
          2.77188867e-01, 1.35281220e-01, 1.82165846e-01, 2.30116710e-01,
          1.17983401e-01, 4.39104810e-02, 1.02732100e-01, 5.85706048e-02,
          2.77188867e-01, 5.34462295e-02, 3.99678200e-02, 0.,
          5.63189872e-02, 5.93510307e-02, 1.02408025e-02, 2.77188867e-01,
          2.77188867e-01 ]
      - [ 9.04953405e-02, 2.78563797e-01, 2.78563797e-01, 1.43977150e-01,
          2.78563797e-01, 1.23117037e-01, 9.92350131e-02, 2.21326843e-01,
          2.78563797e-01, 1.03432357e-01, 0., 0., 0., 1.55767072e-02, 0.,
          0., 1.04761064e-01, 1.60111710e-01, 2.78563797e-01,
          4.19969633e-02, 1.64239794e-01, 1.36222079e-01, 2.78563797e-01,
          1.87300444e-01, 9.30747390e-02, 1.29789367e-01, 2.78563797e-01,
          2.78563797e-01, 4.52969968e-02, 0., 2.62195040e-02,
          4.78416756e-02, 0., 0., 1.95565626e-01, 2.78563797e-01 ]
      - [ 3.15997213e-01, 3.15997213e-01, 1.47609413e-01, 6.73124641e-02,
          1.09409384e-01, 0., 0., 0., 6.70852233e-03, 6.62138835e-02, 0.,
          0., 3.98795633e-03, 5.20155542e-02, 9.13011506e-02,
          1.03089646e-01, 3.15997213e-01, 1.80313841e-01, 3.15997213e-01,
          3.15997213e-01, 6.19211830e-02, 5.74377030e-02, 2.65307575e-01,
          2.00357754e-02, 4.81478684e-02, 2.66873259e-02, 7.55535439e-02,
          3.15997213e-01, 2.89263222e-02, 4.93203960e-02, 2.97945272e-03,
          6.18584342e-02, 8.09848756e-02, 6.26427606e-02, 3.15997213e-01,
          3.15997213e-01 ]
      - [ 4.69834730e-02, 2.83624560e-01, 2.29643524e-01, 1.41517848e-01,
          2.83624560e-01, 7.28544742e-02, 1.53050274e-01, 6.86855838e-02,
          0., 6.46662414e-02, 5.20058870e-02, 3.39415558e-02,
          1.72901005e-01, 2.48144746e-01, 7.72322640e-02, 4.05922458e-02,
          2.13317260e-01, 5.10683246e-02, 2.18597591e-01, 2.83624560e-01,
          1.22734293e-01, 2.83624560e-01, 2.83624560e-01, 1.28089204e-01,
          1.32052466e-01, 1.48699939e-01, 1.11452788e-01, 2.46167868e-01,
          1.10494934e-01, 0., 1.36811482e-02, 7.77349025e-02, 0.,
          1.44126043e-02, 2.83624560e-01, 2.07884699e-01 ]
      - [ 0., 1.31368309e-01, 2.93064535e-01, 2.17561796e-01,
          2.93064535e-01, 5.81824221e-02, 9.11534801e-02, 1.06309697e-01,
          0., 8.72829705e-02, 6.40776753e-02, 1.02959201e-01,
          1.78085685e-01, 2.54218489e-01, 9.40716192e-02, 4.05898578e-02,
          1.64559618e-01, 1.78110033e-01, 2.24469379e-01, 5.44347204e-02,
          1.76657751e-01, 2.13165522e-01, 2.93064535e-01, 2.37767383e-01,
          1.14920430e-01, 1.42605126e-01, 2.21256986e-01, 2.93064535e-01,
          8.16202015e-02, 3.25340778e-02, 2.93041654e-02, 7.01774582e-02,
          0., 1.59688592e-02, 1.10569991e-01, 2.93064535e-01 ]
      - [ 7.47640505e-02, 1.33611873e-01, 2.86099136e-01, 2.49168992e-01,
          2.22587988e-01, 8.80791470e-02, 1.53937101e-01, 0.,
          3.70771475e-02, 5.02655804e-02, 7.65362382e-02, 3.70416082e-02,
          1.83868125e-01, 1.68297559e-01, 9.70120206e-02, 1.26661777e-01,
          1.81177095e-01, 1.79216694e-02, 2.86099136e-01, 2.86099136e-01,
          1.64849520e-01, 2.49847382e-01, 2.86099136e-01, 8.23969916e-02,
          9.77052152e-02, 5.06159738e-02, 7.10757542e-03, 2.86099136e-01,
          1.50456414e-01, 0., 2.42821239e-02, 3.77143174e-02,
          3.64712998e-02, 2.45532751e-01, 2.86099136e-01, 1.25221044e-01 ]
      - [ 8.87711067e-03, 7.22385570e-02, 2.74215192e-01, 2.04968154e-01,
          2.74215192e-01, 2.08230495e-01, 6.85937032e-02, 2.74215192e-01,
          9.31347162e-02, 7.02396780e-02, 1.02731869e-01, 0.,
          1.13367125e-01, 2.66393960e-01, 5.84834181e-02, 3.98670696e-02,
          0., 5.37512675e-02, 2.74215192e-01, 4.16704006e-02,
          1.71298608e-01, 9.65794176e-02, 2.74215192e-01, 1.03000425e-01,
          1.70570523e-01, 2.74215192e-01, 2.74215192e-01, 2.19020545e-01,
          1.15955830e-01, 4.16373424e-02, 0., 5.23246080e-02, 0.,
          1.66075528e-02, 2.02291965e-01, 2.74215192e-01 ]
      - [ 1.39836036e-02, 2.85469443e-01, 1.44096762e-01, 1.30234629e-01,
          2.28871450e-01, 3.85904545e-03, 0., 0., 0., 7.41124377e-02,
          6.70072958e-02, 9.84726697e-02, 1.59115613e-01, 2.53177643e-01,
          1.34261280e-01, 1.78203404e-01, 2.59518743e-01, 4.69966456e-02,
          2.49912724e-01, 2.96782613e-01, 1.13478966e-01, 2.96782613e-01,
          2.96782613e-01, 7.02468678e-02, 8.91355798e-02, 9.89006385e-02,
          6.19050451e-02, 2.88164586e-01, 1.29213855e-01, 1.06371352e-02,
          1.25903506e-02, 4.33993265e-02, 4.78973426e-02, 4.49583866e-02,
          2.96782613e-01, 1.98493719e-01 ]
      - [ 2.99763530e-01, 2.99763530e-01, 1.68008327e-01, 8.11537951e-02,
          1.98406890e-01, 1.03918530e-01, 9.15778279e-02, 1.45157054e-01,
          4.62690964e-02, 7.53643289e-02, 0., 0., 0., 1.31561663e-02, 0.,
          2.57583279e-02, 2.99763530e-01, 1.66598871e-01, 2.99763530e-01,
          2.44818076e-01, 1.20358735e-01, 6.86790794e-02, 2.99763530e-01,
          8.72383788e-02, 1.26441240e-01, 1.16036251e-01, 8.59946832e-02,
          2.99763530e-01, 1.59969497e-02, 6.38564210e-03, 0.,
          7.49184191e-02, 2.79690195e-02, 0., 2.99763530e-01,
          2.99763530e-01 ]
      - [ 1.74807966e-01, 3.07788968e-01, 2.62122482e-01, 9.66261998e-02,
          1.63078874e-01, 6.84445500e-02, 5.01546711e-02, 4.03599665e-02,
          6.98273778e-02, 7.59870484e-02, 0., 0., 0., 0., 0.,
          6.88658133e-02, 2.71791875e-01, 3.07788968e-01, 2.22761214e-01,
          1.95252270e-01, 1.14304677e-01, 2.91840315e-01, 3.07788968e-01,
          1.94637880e-01, 1.95012987e-01, 1.03967763e-01, 1.16016187e-01,
          3.07788968e-01, 0., 1.49613684e-02, 0., 6.62910119e-02,
          2.25264952e-02, 6.55423198e-03, 4.13039215e-02, 3.07788968e-01 ]
      - [ 2.77188867e-01, 2.77188867e-01, 2.77188867e-01, 1.59900844e-01,
          1.24218665e-01, 1.38891861e-01, 1.36060715e-01, 1.39591843e-01,
          0., 8.34249333e-02, 0., 8.36158078e-03, 0., 3.77657488e-02, 0.,
          3.77657488e-02, 2.77188867e-01, 2.34098345e-01, 2.77188867e-01,
          2.77188867e-01, 1.35281220e-01, 1.82165846e-01, 2.30116710e-01,
          1.17983401e-01, 4.39104810e-02, 1.02732100e-01, 5.85706048e-02,
          2.77188867e-01, 5.34462295e-02, 3.99678200e-02, 0.,
          5.63189872e-02, 5.93510307e-02, 1.02408025e-02, 2.77188867e-01,
          2.77188867e-01 ]
      - [ 9.04953405e-02, 2.78563797e-01, 2.78563797e-01, 1.43977150e-01,
          2.78563797e-01, 1.23117037e-01, 9.92350131e-02, 2.21326843e-01,
          2.78563797e-01, 1.03432357e-01, 0., 0., 0., 1.55767072e-02, 0.,
          0., 1.04761064e-01, 1.60111710e-01, 2.78563797e-01,
          4.19969633e-02, 1.64239794e-01, 1.36222079e-01, 2.78563797e-01,
          1.87300444e-01, 9.30747390e-02, 1.29789367e-01, 2.78563797e-01,
          2.78563797e-01, 4.52969968e-02, 0., 2.62195040e-02,
          4.78416756e-02, 0., 0., 1.95565626e-01, 2.78563797e-01 ]
      - [ 3.15997213e-01, 3.15997213e-01, 1.47609413e-01, 6.73124641e-02,
          1.09409384e-01, 0., 0., 0., 6.70852233e-03, 6.62138835e-02, 0.,
          0., 3.98795633e-03, 5.20155542e-02, 9.13011506e-02,
          1.03089646e-01, 3.15997213e-01, 1.80313841e-01, 3.15997213e-01,
          3.15997213e-01, 6.19211830e-02, 5.74377030e-02, 2.65307575e-01,
          2.00357754e-02, 4.81478684e-02, 2.66873259e-02, 7.55535439e-02,
          3.15997213e-01, 2.89263222e-02, 4.93203960e-02, 2.97945272e-03,
          6.18584342e-02, 8.09848756e-02, 6.26427606e-02, 3.15997213e-01,
          3.15997213e-01 ]
      - [ 4.69834730e-02, 2.83624560e-01, 2.29643524e-01, 1.41517848e-01,
          2.83624560e-01, 7.28544742e-02, 1.53050274e-01, 6.86855838e-02,
          0., 6.46662414e-02, 5.20058870e-02, 3.39415558e-02,
          1.72901005e-01, 2.48144746e-01, 7.72322640e-02, 4.05922458e-02,
          2.13317260e-01, 5.10683246e-02, 2.18597591e-01, 2.83624560e-01,
          1.22734293e-01, 2.83624560e-01, 2.83624560e-01, 1.28089204e-01,
          1.32052466e-01, 1.48699939e-01, 1.11452788e-01, 2.46167868e-01,
          1.10494934e-01, 0., 1.36811482e-02, 7.77349025e-02, 0.,
          1.44126043e-02, 2.83624560e-01, 2.07884699e-01 ]
      - [ 0., 1.31368309e-01, 2.93064535e-01, 2.17561796e-01,
          2.93064535e-01, 5.81824221e-02, 9.11534801e-02, 1.06309697e-01,
          0., 8.72829705e-02, 6.40776753e-02, 1.02959201e-01,
          1.78085685e-01, 2.54218489e-01, 9.40716192e-02, 4.05898578e-02,
          1.64559618e-01, 1.78110033e-01, 2.24469379e-01, 5.44347204e-02,
          1.76657751e-01, 2.13165522e-01, 2.93064535e-01, 2.37767383e-01,
          1.14920430e-01, 1.42605126e-01, 2.21256986e-01, 2.93064535e-01,
          8.16202015e-02, 3.25340778e-02, 2.93041654e-02, 7.01774582e-02,
          0., 1.59688592e-02, 1.10569991e-01, 2.93064535e-01 ]
      - [ 7.47640505e-02, 1.33611873e-01, 2.86099136e-01, 2.49168992e-01,
          2.22587988e-01, 8.80791470e-02, 1.53937101e-01, 0.,
          3.70771475e-02, 5.02655804e-02, 7.65362382e-02, 3.70416082e-02,
          1.83868125e-01, 1.68297559e-01, 9.70120206e-02, 1.26661777e-01,
          1.81177095e-01, 1.79216694e-02, 2.86099136e-01, 2.86099136e-01,
          1.64849520e-01, 2.49847382e-01, 2.86099136e-01, 8.23969916e-02,
          9.77052152e-02, 5.06159738e-02, 7.10757542e-03, 2.86099136e-01,
          1.50456414e-01, 0., 2.42821239e-02, 3.77143174e-02,
          3.64712998e-02, 2.45532751e-01, 2.86099136e-01, 1.25221044e-01 ]
      - [ 8.87711067e-03, 7.22385570e-02, 2.74215192e-01, 2.04968154e-01,
          2.74215192e-01, 2.08230495e-01, 6.85937032e-02, 2.74215192e-01,
          9.31347162e-02, 7.02396780e-02, 1.02731869e-01, 0.,
          1.13367125e-01, 2.66393960e-01, 5.84834181e-02, 3.98670696e-02,
          0., 5.37512675e-02, 2.74215192e-01, 4.16704006e-02,
          1.71298608e-01, 9.65794176e-02, 2.74215192e-01, 1.03000425e-01,
          1.70570523e-01, 2.74215192e-01, 2.74215192e-01, 2.19020545e-01,
          1.15955830e-01, 4.16373424e-02, 0., 5.23246080e-02, 0.,
          1.66075528e-02, 2.02291965e-01, 2.74215192e-01 ]
      - [ 1.39836036e-02, 2.85469443e-01, 1.44096762e-01, 1.30234629e-01,
          2.28871450e-01, 3.85904545e-03, 0., 0., 0., 7.41124377e-02,
          6.70072958e-02, 9.84726697e-02, 1.59115613e-01, 2.53177643e-01,
          1.34261280e-01, 1.78203404e-01, 2.59518743e-01, 4.69966456e-02,
          2.49912724e-01, 2.96782613e-01, 1.13478966e-01, 2.96782613e-01,
          2.96782613e-01, 7.02468678e-02, 8.91355798e-02, 9.89006385e-02,
          6.19050451e-02, 2.88164586e-01, 1.29213855e-01, 1.06371352e-02,
          1.25903506e-02, 4.33993265e-02, 4.78973426e-02, 4.49583866e-02,
          2.96782613e-01, 1.98493719e-01 ]
      - [ 4.69834730e-02, 2.83624560e-01, 2.29643524e-01, 1.41517848e-01,
          2.83624560e-01, 7.28544742e-02, 1.53050274e-01, 6.86855838e-02,
          0., 6.46662414e-02, 5.20058870e-02, 3.39415558e-02,
          1.72901005e-01, 2.48144746e-01, 7.72322640e-02, 4.05922458e-02,
          2.13317260e-01, 5.10683246e-02, 2.18597591e-01, 2.83624560e-01,
          1.22734293e-01, 2.83624560e-01, 2.83624560e-01, 1.28089204e-01,
          1.32052466e-01, 1.48699939e-01, 1.11452788e-01, 2.46167868e-01,
          1.10494934e-01, 0., 1.36811482e-02, 7.77349025e-02, 0.,
          1.44126043e-02, 2.83624560e-01, 2.07884699e-01 ]
      - [ 0., 1.31368309e-01, 2.93064535e-01, 2.17561796e-01,
          2.93064535e-01, 5.81824221e-02, 9.11534801e-02, 1.06309697e-01,
          0., 8.72829705e-02, 6.40776753e-02, 1.02959201e-01,
          1.78085685e-01, 2.54218489e-01, 9.40716192e-02, 4.05898578e-02,
          1.64559618e-01, 1.78110033e-01, 2.24469379e-01, 5.44347204e-02,
          1.76657751e-01, 2.13165522e-01, 2.93064535e-01, 2.37767383e-01,
          1.14920430e-01, 1.42605126e-01, 2.21256986e-01, 2.93064535e-01,
          8.16202015e-02, 3.25340778e-02, 2.93041654e-02, 7.01774582e-02,
          0., 1.59688592e-02, 1.10569991e-01, 2.93064535e-01 ]
      - [ 7.47640505e-02, 1.33611873e-01, 2.86099136e-01, 2.49168992e-01,
          2.22587988e-01, 8.80791470e-02, 1.53937101e-01, 0.,
          3.70771475e-02, 5.02655804e-02, 7.65362382e-02, 3.70416082e-02,
          1.83868125e-01, 1.68297559e-01, 9.70120206e-02, 1.26661777e-01,
          1.81177095e-01, 1.79216694e-02, 2.86099136e-01, 2.86099136e-01,
          1.64849520e-01, 2.49847382e-01, 2.86099136e-01, 8.23969916e-02,
          9.77052152e-02, 5.06159738e-02, 7.10757542e-03, 2.86099136e-01,
