%YAML:1.0
---
opencv_ml_svm:
   format: 3
   svmType: C_SVC
   kernel:
      type: RBF
      gamma: 5.0000000000000003e-02
   C: 2.5000000000000000e+00
   term_criteria: { epsilon:1.1920928955078125e-07, iterations:1000 }
   var_count: 36
   class_count: 9
   class_labels: !!opencv-matrix
      rows: 9
      cols: 1
      dt: i
      data: [ 48, 53, 54, 55, 57, 66, 67, 68, 72 ]
   sv_total: 225
   support_vectors:
      - [ 1.18259862e-01, 1.53762922e-02, 1.92934588e-01, 3.45268011e-01,
          3.45268011e-01, 6.36676028e-02, 3.35940160e-02, 1.74279083e-02,
          2.50505004e-02, 1.54403755e-02, 1.26133943e-02, 0.,
          4.87557426e-02, 3.43446732e-01, 3.45268011e-01, 2.29773447e-01,
          3.13348286e-02, 4.23727855e-02, 3.45268011e-01, 5.76557815e-02,
          0., 0., 1.08179256e-01, 7.16787651e-02, 7.57737607e-02,
          1.07367821e-01, 1.69048831e-01, 3.45268011e-01, 2.22026289e-01,
          1.70208648e-01, 7.89634585e-02, 1.00771077e-01, 1.20263994e-02,
          0., 8.36342275e-02, 4.77471575e-02 ]
      - [ 2.20796138e-01, 1.91093117e-01, 8.38072971e-02, 2.95457810e-01,
          2.84657031e-01, 1.05799019e-01, 3.53562906e-02, 2.59600207e-02,
          9.83091369e-02, 5.05092703e-02, 5.04823262e-03, 0., 0.,
          2.95457810e-01, 2.95457810e-01, 2.48140261e-01, 8.65711868e-02,
          0., 2.95457810e-01, 2.95457810e-01, 0., 0., 2.09444791e-01,
          8.69843662e-02, 1.36926070e-01, 5.25089391e-02, 1.27844855e-01,
          2.95457810e-01, 2.95457810e-01, 1.00427635e-01, 5.02372794e-02,
          2.98292097e-02, 1.19582871e-02, 2.54010651e-02, 8.46574455e-02,
          1.02210686e-01 ]
      - [ 7.92613104e-02, 8.45418721e-02, 3.07524800e-01, 3.07524800e-01,
          3.07524800e-01, 3.96656469e-02, 1.24688065e-02, 1.74831524e-02,
          2.04870366e-02, 0., 0., 0., 9.65197906e-02, 3.07524800e-01,
          3.07524800e-01, 1.81901380e-01, 9.03829336e-02, 5.86440898e-02,
          1.81028336e-01, 1.15041487e-01, 9.51022096e-03, 2.41123922e-02,
          3.42661627e-02, 0., 6.36443421e-02, 1.43638626e-01,
          3.07524800e-01, 3.07524800e-01, 9.76104438e-02, 1.69439062e-01,
          1.69916391e-01, 1.62073866e-01, 2.40358710e-02, 6.62454516e-02,
          5.15174903e-02, 3.07524800e-01 ]
      - [ 1.09557584e-01, 5.21394657e-03, 1.80072054e-01, 3.52715373e-01,
          3.52715373e-01, 1.88674077e-01, 6.16366155e-02, 6.84114872e-03,
          9.28695034e-03, 2.74254475e-02, 0., 0., 0., 5.10901101e-02,
          3.52715373e-01, 2.60702312e-01, 1.25953346e-01, 4.06731181e-02,
          3.52715373e-01, 4.61376868e-02, 3.36256661e-02, 6.10614344e-02,
          1.82862729e-01, 7.86792412e-02, 1.26901999e-01, 2.26863828e-02,
          2.37258837e-01, 3.52715373e-01, 2.03452721e-01, 1.25041932e-01,
          7.14765862e-02, 0., 0., 4.01297882e-02, 5.73077984e-02,
          1.36261135e-01 ]
      - [ 2.19162121e-01, 1.68264285e-02, 8.64596441e-02, 3.27671051e-01,
          3.27671051e-01, 6.66595548e-02, 8.40373933e-02, 1.54495044e-02,
          2.50945911e-02, 4.59873527e-02, 1.34013817e-02, 1.48395196e-01,
          2.36304000e-01, 3.27671051e-01, 3.27671051e-01, 1.35882959e-01,
          3.62812988e-02, 0., 3.27671051e-01, 5.71161769e-02, 0., 0., 0.,
          3.04782148e-02, 4.97196056e-02, 1.44553646e-01, 1.79831743e-01,
          3.27671051e-01, 1.56991869e-01, 1.28431678e-01, 8.37653577e-02,
          2.21751183e-01, 5.90625927e-02, 3.10369637e-02, 8.88590515e-02,
          1.34582117e-01 ]
      - [ 1.18259862e-01, 1.53762922e-02, 1.92934588e-01, 3.45268011e-01,
          3.45268011e-01, 6.36676028e-02, 3.35940160e-02, 1.74279083e-02,
          2.50505004e-02, 1.54403755e-02, 1.26133943e-02, 0.,
          4.87557426e-02, 3.43446732e-01, 3.45268011e-01, 2.29773447e-01,
          3.13348286e-02, 4.23727855e-02, 3.45268011e-01, 5.76557815e-02,
          0., 0., 1.08179256e-01, 7.16787651e-02, 7.57737607e-02,
          1.07367821e-01, 1.69048831e-01, 3.45268011e-01, 2.22026289e-01,
          1.70208648e-01, 7.89634585e-02, 1.00771077e-01, 1.20263994e-02,
          0., 8.36342275e-02, 4.77471575e-02 ]
      - [ 2.20796138e-01, 1.91093117e-01, 8.38072971e-02, 2.95457810e-01,
          2.84657031e-01, 1.05799019e-01, 3.53562906e-02, 2.59600207e-02,
          9.83091369e-02, 5.05092703e-02, 5.04823262e-03, 0., 0.,
          2.95457810e-01, 2.95457810e-01, 2.48140261e-01, 8.65711868e-02,
          0., 2.95457810e-01, 2.95457810e-01, 0., 0., 2.09444791e-01,
          8.69843662e-02, 1.36926070e-01, 5.25089391e-02, 1.27844855e-01,
          2.95457810e-01, 2.95457810e-01, 1.00427635e-01, 5.02372794e-02,
          2.98292097e-02, 1.19582871e-02, 2.54010651e-02, 8.46574455e-02,
          1.02210686e-01 ]
      - [ 7.92613104e-02, 8.45418721e-02, 3.07524800e-01, 3.07524800e-01,
          3.07524800e-01, 3.96656469e-02, 1.24688065e-02, 1.74831524e-02,
          2.04870366e-02, 0., 0., 0., 9.65197906e-02, 3.07524800e-01,
          3.07524800e-01, 1.81901380e-01, 9.03829336e-02, 5.86440898e-02,
          1.81028336e-01, 1.15041487e-01, 9.51022096e-03, 2.41123922e-02,
          3.42661627e-02, 0., 6.36443421e-02, 1.43638626e-01,
          3.07524800e-01, 3.07524800e-01, 9.76104438e-02, 1.69439062e-01,
          1.69916391e-01, 1.62073866e-01, 2.40358710e-02, 6.62454516e-02,
          5.15174903e-02, 3.07524800e-01 ]
      - [ 1.09557584e-01, 5.21394657e-03, 1.80072054e-01, 3.52715373e-01,
          3.52715373e-01, 1.88674077e-01, 6.16366155e-02, 6.84114872e-03,
          9.28695034e-03, 2.74254475e-02, 0., 0., 0., 5.10901101e-02,
          3.52715373e-01, 2.60702312e-01, 1.25953346e-01, 4.06731181e-02,
          3.52715373e-01, 4.61376868e-02, 3.36256661e-02, 6.10614344e-02,
          1.82862729e-01, 7.86792412e-02, 1.26901999e-01, 2.26863828e-02,
          2.37258837e-01, 3.52715373e-01, 2.03452721e-01, 1.25041932e-01,
          7.14765862e-02, 0., 0., 4.01297882e-02, 5.73077984e-02,
          1.36261135e-01 ]
      - [ 2.19162121e-01, 1.68264285e-02, 8.64596441e-02, 3.27671051e-01,
          3.27671051e-01, 6.66595548e-02, 8.40373933e-02, 1.54495044e-02,
          2.50945911e-02, 4.59873527e-02, 1.34013817e-02, 1.48395196e-01,
          2.36304000e-01, 3.27671051e-01, 3.27671051e-01, 1.35882959e-01,
          3.62812988e-02, 0., 3.27671051e-01, 5.71161769e-02, 0., 0., 0.,
          3.04782148e-02, 4.97196056e-02, 1.44553646e-01, 1.79831743e-01,
          3.27671051e-01, 1.56991869e-01, 1.28431678e-01, 8.37653577e-02,
          2.21751183e-01, 5.90625927e-02, 3.10369637e-02, 8.88590515e-02,
          1.34582117e-01 ]
      - [ 1.18259862e-01, 1.53762922e-02, 1.92934588e-01, 3.45268011e-01,
          3.45268011e-01, 6.36676028e-02, 3.35940160e-02, 1.74279083e-02,
          2.50505004e-02, 1.54403755e-02, 1.26133943e-02, 0.,
          4.87557426e-02, 3.43446732e-01, 3.45268011e-01, 2.29773447e-01,
          3.13348286e-02, 4.23727855e-02, 3.45268011e-01, 5.76557815e-02,
          0., 0., 1.08179256e-01, 7.16787651e-02, 7.57737607e-02,
          1.07367821e-01, 1.69048831e-01, 3.45268011e-01, 2.22026289e-01,
          1.70208648e-01, 7.89634585e-02, 1.00771077e-01, 1.20263994e-02,
          0., 8.36342275e-02, 4.77471575e-02 ]
      - [ 2.20796138e-01, 1.91093117e-01, 8.38072971e-02, 2.95457810e-01,
          2.84657031e-01, 1.05799019e-01, 3.53562906e-02, 2.59600207e-02,
          9.83091369e-02, 5.05092703e-02, 5.04823262e-03, 0., 0.,
          2.95457810e-01, 2.95457810e-01, 2.48140261e-01, 8.65711868e-02,
          0., 2.95457810e-01, 2.95457810e-01, 0., 0., 2.09444791e-01,
          8.69843662e-02, 1.36926070e-01, 5.25089391e-02, 1.27844855e-01,
          2.95457810e-01, 2.95457810e-01, 1.00427635e-01, 5.02372794e-02,
          2.98292097e-02, 1.19582871e-02, 2.54010651e-02, 8.46574455e-02,
          1.02210686e-01 ]
      - [ 7.92613104e-02, 8.45418721e-02, 3.07524800e-01, 3.07524800e-01,
          3.07524800e-01, 3.96656469e-02, 1.24688065e-02, 1.74831524e-02,
          2.04870366e-02, 0., 0., 0., 9.65197906e-02, 3.07524800e-01,
          3.07524800e-01, 1.81901380e-01, 9.03829336e-02, 5.86440898e-02,
          1.81028336e-01, 1.15041487e-01, 9.51022096e-03, 2.41123922e-02,
          3.42661627e-02, 0., 6.36443421e-02, 1.43638626e-01,
          3.07524800e-01, 3.07524800e-01, 9.76104438e-02, 1.69439062e-01,
          1.69916391e-01, 1.62073866e-01, 2.40358710e-02, 6.62454516e-02,
          5.15174903e-02, 3.07524800e-01 ]
      - [ 1.09557584e-01, 5.21394657e-03, 1.80072054e-01, 3.52715373e-01,
          3.52715373e-01, 1.88674077e-01, 6.16366155e-02, 6.84114872e-03,
          9.28695034e-03, 2.74254475e-02, 0., 0., 0., 5.10901101e-02,
          3.52715373e-01, 2.60702312e-01, 1.25953346e-01, 4.06731181e-02,
          3.52715373e-01, 4.61376868e-02, 3.36256661e-02, 6.10614344e-02,
          1.82862729e-01, 7.86792412e-02, 1.26901999e-01, 2.26863828e-02,
          2.37258837e-01, 3.52715373e-01, 2.03452721e-01, 1.25041932e-01,
          7.14765862e-02, 0., 0., 4.01297882e-02, 5.73077984e-02,
          1.36261135e-01 ]
      - [ 2.19162121e-01, 1.68264285e-02, 8.64596441e-02, 3.27671051e-01,
          3.27671051e-01, 6.66595548e-02, 8.40373933e-02, 1.54495044e-02,
          2.50945911e-02, 4.59873527e-02, 1.34013817e-02, 1.48395196e-01,
          2.36304000e-01, 3.27671051e-01, 3.27671051e-01, 1.35882959e-01,
          3.62812988e-02, 0., 3.27671051e-01, 5.71161769e-02, 0., 0., 0.,
          3.04782148e-02, 4.97196056e-02, 1.44553646e-01, 1.79831743e-01,
          3.27671051e-01, 1.56991869e-01, 1.28431678e-01, 8.37653577e-02,
          2.21751183e-01, 5.90625927e-02, 3.10369637e-02, 8.88590515e-02,
          1.34582117e-01 ]
      - [ 1.18259862e-01, 1.53762922e-02, 1.92934588e-01, 3.45268011e-01,
          3.45268011e-01, 6.36676028e-02, 3.35940160e-02, 1.74279083e-02,
          2.50505004e-02, 1.54403755e-02, 1.26133943e-02, 0.,
          4.87557426e-02, 3.43446732e-01, 3.45268011e-01, 2.29773447e-01,
          3.13348286e-02, 4.23727855e-02, 3.45268011e-01, 5.76557815e-02,
          0., 0., 1.08179256e-01, 7.16787651e-02, 7.57737607e-02,
          1.07367821e-01, 1.69048831e-01, 3.45268011e-01, 2.22026289e-01,
          1.70208648e-01, 7.89634585e-02, 1.00771077e-01, 1.20263994e-02,
          0., 8.36342275e-02, 4.77471575e-02 ]
      - [ 2.20796138e-01, 1.91093117e-01, 8.38072971e-02, 2.95457810e-01,
          2.84657031e-01, 1.05799019e-01, 3.53562906e-02, 2.59600207e-02,
          9.83091369e-02, 5.05092703e-02, 5.04823262e-03, 0., 0.,
          2.95457810e-01, 2.95457810e-01, 2.48140261e-01, 8.65711868e-02,
          0., 2.95457810e-01, 2.95457810e-01, 0., 0., 2.09444791e-01,
          8.69843662e-02, 1.36926070e-01, 5.25089391e-02, 1.27844855e-01,
          2.95457810e-01, 2.95457810e-01, 1.00427635e-01, 5.02372794e-02,
          2.98292097e-02, 1.19582871e-02, 2.54010651e-02, 8.46574455e-02,
          1.02210686e-01 ]
      - [ 7.92613104e-02, 8.45418721e-02, 3.07524800e-01, 3.07524800e-01,
          3.07524800e-01, 3.96656469e-02, 1.24688065e-02, 1.74831524e-02,
          2.04870366e-02, 0., 0., 0., 9.65197906e-02, 3.07524800e-01,
          3.07524800e-01, 1.81901380e-01, 9.03829336e-02, 5.86440898e-02,
          1.81028336e-01, 1.15041487e-01, 9.51022096e-03, 2.41123922e-02,
          3.42661627e-02, 0., 6.36443421e-02, 1.43638626e-01,
          3.07524800e-01, 3.07524800e-01, 9.76104438e-02, 1.69439062e-01,
          1.69916391e-01, 1.62073866e-01, 2.40358710e-02, 6.62454516e-02,
          5.15174903e-02, 3.07524800e-01 ]
      - [ 1.09557584e-01, 5.21394657e-03, 1.80072054e-01, 3.52715373e-01,
          3.52715373e-01, 1.88674077e-01, 6.16366155e-02, 6.84114872e-03,
          9.28695034e-03, 2.74254475e-02, 0., 0., 0., 5.10901101e-02,
          3.52715373e-01, 2.60702312e-01, 1.25953346e-01, 4.06731181e-02,
          3.52715373e-01, 4.61376868e-02, 3.36256661e-02, 6.10614344e-02,
          1.82862729e-01, 7.86792412e-02, 1.26901999e-01, 2.26863828e-02,
          2.37258837e-01, 3.52715373e-01, 2.03452721e-01, 1.25041932e-01,
          7.14765862e-02, 0., 0., 4.01297882e-02, 5.73077984e-02,
          1.36261135e-01 ]
      - [ 2.19162121e-01, 1.68264285e-02, 8.64596441e-02, 3.27671051e-01,
          3.27671051e-01, 6.66595548e-02, 8.40373933e-02, 1.54495044e-02,
          2.50945911e-02, 4.59873527e-02, 1.34013817e-02, 1.48395196e-01,
          2.36304000e-01, 3.27671051e-01, 3.27671051e-01, 1.35882959e-01,
          3.62812988e-02, 0., 3.27671051e-01, 5.71161769e-02, 0., 0., 0.,
          3.04782148e-02, 4.97196056e-02, 1.44553646e-01, 1.79831743e-01,
          3.27671051e-01, 1.56991869e-01, 1.28431678e-01, 8.37653577e-02,
          2.21751183e-01, 5.90625927e-02, 3.10369637e-02, 8.88590515e-02,
          1.34582117e-01 ]
      - [ 1.18259862e-01, 1.53762922e-02, 1.92934588e-01, 3.45268011e-01,
          3.45268011e-01, 6.36676028e-02, 3.35940160e-02, 1.74279083e-02,
          2.50505004e-02, 1.54403755e-02, 1.26133943e-02, 0.,
          4.87557426e-02, 3.43446732e-01, 3.45268011e-01, 2.29773447e-01,
          3.13348286e-02, 4.23727855e-02, 3.45268011e-01, 5.76557815e-02,
          0., 0., 1.08179256e-01, 7.16787651e-02, 7.57737607e-02,
          1.07367821e-01, 1.69048831e-01, 3.45268011e-01, 2.22026289e-01,
          1.70208648e-01, 7.89634585e-02, 1.00771077e-01, 1.20263994e-02,
          0., 8.36342275e-02, 4.77471575e-02 ]
      - [ 2.20796138e-01, 1.91093117e-01, 8.38072971e-02, 2.95457810e-01,
          2.84657031e-01, 1.05799019e-01, 3.53562906e-02, 2.59600207e-02,
          9.83091369e-02, 5.05092703e-02, 5.04823262e-03, 0., 0.,
          2.95457810e-01, 2.95457810e-01, 2.48140261e-01, 8.65711868e-02,
          0., 2.95457810e-01, 2.95457810e-01, 0., 0., 2.09444791e-01,
          8.69843662e-02, 1.36926070e-01, 5.25089391e-02, 1.27844855e-01,
          2.95457810e-01, 2.95457810e-01, 1.00427635e-01, 5.02372794e-02,
          2.98292097e-02, 1.19582871e-02, 2.54010651e-02, 8.46574455e-02,
          1.02210686e-01 ]
      - [ 7.92613104e-02, 8.45418721e-02, 3.07524800e-01, 3.07524800e-01,
          3.07524800e-01, 3.96656469e-02, 1.24688065e-02, 1.74831524e-02,
          2.04870366e-02, 0., 0., 0., 9.65197906e-02, 3.07524800e-01,
          3.07524800e-01, 1.81901380e-01, 9.03829336e-02, 5.86440898e-02,
          1.81028336e-01, 1.15041487e-01, 9.51022096e-03, 2.41123922e-02,
          3.42661627e-02, 0., 6.36443421e-02, 1.43638626e-01,
          3.07524800e-01, 3.07524800e-01, 9.76104438e-02, 1.69439062e-01,
          1.69916391e-01, 1.62073866e-01, 2.40358710e-02, 6.62454516e-02,
          5.15174903e-02, 3.07524800e-01 ]
      - [ 1.09557584e-01, 5.21394657e-03, 1.80072054e-01, 3.52715373e-01,
          3.52715373e-01, 1.88674077e-01, 6.16366155e-02, 6.84114872e-03,
          9.28695034e-03, 2.74254475e-02, 0., 0., 0., 5.10901101e-02,
          3.52715373e-01, 2.60702312e-01, 1.25953346e-01, 4.06731181e-02,
          3.52715373e-01, 4.61376868e-02, 3.36256661e-02, 6.10614344e-02,
          1.82862729e-01, 7.86792412e-02, 1.26901999e-01, 2.26863828e-02,
          2.37258837e-01, 3.52715373e-01, 2.03452721e-01, 1.25041932e-01,
          7.14765862e-02, 0., 0., 4.01297882e-02, 5.73077984e-02,
          1.36261135e-01 ]
      - [ 2.19162121e-01, 1.68264285e-02, 8.64596441e-02, 3.27671051e-01,
          3.27671051e-01, 6.66595548e-02, 8.40373933e-02, 1.54495044e-02,
          2.50945911e-02, 4.59873527e-02, 1.34013817e-02, 1.48395196e-01,
          2.36304000e-01, 3.27671051e-01, 3.27671051e-01, 1.35882959e-01,
          3.62812988e-02, 0., 3.27671051e-01, 5.71161769e-02, 0., 0., 0.,
          3.04782148e-02, 4.97196056e-02, 1.44553646e-01, 1.79831743e-01,
          3.27671051e-01, 1.56991869e-01, 1.28431678e-01, 8.37653577e-02,
          2.21751183e-01, 5.90625927e-02, 3.10369637e-02, 8.88590515e-02,
          1.34582117e-01 ]
      - [ 2.41333283e-02, 2.34055482e-02, 5.12514077e-02, 1.88925028e-01,
          3.62730235e-01, 1.28937862e-03, 0., 6.77180961e-02,
          8.16746280e-02, 6.17824905e-02, 1.01450086e-02, 2.96828505e-02,
          4.48818952e-02, 3.62730235e-01, 4.44362871e-02, 3.14731635e-02,
          0., 0., 2.91963786e-01, 4.45793308e-02, 1.95999239e-02,
          1.20802268e-01, 3.10259432e-01, 1.09364800e-01, 2.83965379e-01,
          1.39774472e-01, 1.62399769e-01, 1.80938318e-01, 6.59617409e-02,
          1.86659411e-01, 9.28090289e-02, 2.80640453e-01, 2.47345060e-01,
          2.91869670e-01, 1.81949541e-01, 2.47412734e-02 ]
      - [ 2.24116758e-01, 4.80676405e-02, 5.91328032e-02, 4.08717021e-02,
          2.70574719e-01, 2.70574719e-01, 4.73724976e-02, 5.22070974e-02,
          1.43115565e-01, 5.76659888e-02, 2.58386005e-02, 0.,
          8.33006389e-03, 2.70574719e-01, 2.70574719e-01, 1.33160070e-01,
          2.43829302e-02, 0., 2.21267730e-01, 4.57057543e-02, 0.,
          1.39503554e-01, 2.38929227e-01, 2.22033128e-01, 1.75100446e-01,
          2.70574719e-01, 1.97573453e-01, 2.01904565e-01, 8.25646520e-02,
          1.31098464e-01, 1.40499130e-01, 1.72160909e-01, 9.06188861e-02,
          2.70574719e-01, 2.70574719e-01, 1.14138402e-01 ]
      - [ 7.21450597e-02, 2.87107248e-02, 1.26901433e-01, 2.95129597e-01,
          2.95129597e-01, 6.92667253e-03, 0., 0., 0., 8.16383734e-02,
          4.60257288e-03, 1.54785693e-01, 2.95129597e-01, 2.90165275e-01,
          5.16659655e-02, 2.66939215e-02, 2.09384086e-03, 2.39586607e-02,
          2.95129597e-01, 5.66686913e-02, 9.75272283e-02, 1.85454428e-01,
          1.28524616e-01, 1.06163420e-01, 2.47229502e-01, 1.04516789e-01,
          2.02155113e-01, 9.92125869e-02, 7.26484656e-02, 2.95129597e-01,
          1.99690051e-02, 2.95129597e-01, 1.91647112e-01, 2.87707686e-01,
          8.64368454e-02, 7.80728832e-02 ]
      - [ 0., 2.52958760e-02, 2.33176183e-02, 1.16071731e-01,
          3.77692789e-01, 8.11925856e-04, 0., 1.23267835e-02,
          2.97713503e-02, 1.45396426e-01, 3.80028635e-02, 2.81753950e-02,
          7.58957714e-02, 3.77692789e-01, 4.61310484e-02, 6.25518337e-02,
          1.61652006e-02, 0., 1.11381255e-01, 2.31377333e-02, 0.,
          2.02550814e-01, 3.77692789e-01, 2.60936350e-01, 3.19525212e-01,
          3.86258289e-02, 1.16206609e-01, 2.33537301e-01, 5.81438914e-02,
          2.21932963e-01, 2.18161680e-02, 4.94952500e-02, 1.82039395e-01,
          3.18661034e-01, 1.83863014e-01, 5.63168712e-02 ]
      - [ 9.43002850e-02, 5.90805784e-02, 5.32570183e-02, 1.57524109e-01,
          3.89053285e-01, 0., 2.58846506e-02, 7.06401393e-02,
          1.16557151e-01, 0., 1.01816431e-02, 0., 4.17942032e-02,
          3.89053285e-01, 1.86896545e-03, 0., 0., 0., 3.86258125e-01,
          4.38049212e-02, 2.13284679e-02, 7.03064278e-02, 1.18824616e-01,
          5.80879711e-02, 1.86153769e-01, 1.29656330e-01, 1.50677070e-01,
          1.73791528e-01, 1.10127233e-01, 3.62387896e-02, 1.55826375e-01,
          3.89053285e-01, 2.88798988e-01, 2.59543926e-01, 1.06939763e-01,
          8.04739222e-02 ]
      - [ 2.41333283e-02, 2.34055482e-02, 5.12514077e-02, 1.88925028e-01,
          3.62730235e-01, 1.28937862e-03, 0., 6.77180961e-02,
          8.16746280e-02, 6.17824905e-02, 1.01450086e-02, 2.96828505e-02,
          4.48818952e-02, 3.62730235e-01, 4.44362871e-02, 3.14731635e-02,
          0., 0., 2.91963786e-01, 4.45793308e-02, 1.95999239e-02,
          1.20802268e-01, 3.10259432e-01, 1.09364800e-01, 2.83965379e-01,
          1.39774472e-01, 1.62399769e-01, 1.80938318e-01, 6.59617409e-02,
          1.86659411e-01, 9.28090289e-02, 2.80640453e-01, 2.47345060e-01,
          2.91869670e-01, 1.81949541e-01, 2.47412734e-02 ]
      - [ 2.24116758e-01, 4.80676405e-02, 5.91328032e-02, 4.08717021e-02,
          2.70574719e-01, 2.70574719e-01, 4.73724976e-02, 5.22070974e-02,
          1.43115565e-01, 5.76659888e-02, 2.58386005e-02, 0.,
          8.33006389e-03, 2.70574719e-01, 2.70574719e-01, 1.33160070e-01,
          2.43829302e-02, 0., 2.21267730e-01, 4.57057543e-02, 0.,
          1.39503554e-01, 2.38929227e-01, 2.22033128e-01, 1.75100446e-01,
          2.70574719e-01, 1.97573453e-01, 2.01904565e-01, 8.25646520e-02,
          1.31098464e-01, 1.40499130e-01, 1.72160909e-01, 9.06188861e-02,
          2.70574719e-01, 2.70574719e-01, 1.14138402e-01 ]
      - [ 7.21450597e-02, 2.87107248e-02, 1.26901433e-01, 2.95129597e-01,
          2.95129597e-01, 6.92667253e-03, 0., 0., 0., 8.16383734e-02,
          4.60257288e-03, 1.54785693e-01, 2.95129597e-01, 2.90165275e-01,
          5.16659655e-02, 2.66939215e-02, 2.09384086e-03, 2.39586607e-02,
          2.95129597e-01, 5.66686913e-02, 9.75272283e-02, 1.85454428e-01,
          1.28524616e-01, 1.06163420e-01, 2.47229502e-01, 1.04516789e-01,
          2.02155113e-01, 9.92125869e-02, 7.26484656e-02, 2.95129597e-01,
          1.99690051e-02, 2.95129597e-01, 1.91647112e-01, 2.87707686e-01,
          8.64368454e-02, 7.80728832e-02 ]
      - [ 0., 2.52958760e-02, 2.33176183e-02, 1.16071731e-01,
          3.77692789e-01, 8.11925856e-04, 0., 1.23267835e-02,
          2.97713503e-02, 1.45396426e-01, 3.80028635e-02, 2.81753950e-02,
          7.58957714e-02, 3.77692789e-01, 4.61310484e-02, 6.25518337e-02,
          1.61652006e-02, 0., 1.11381255e-01, 2.31377333e-02, 0.,
          2.02550814e-01, 3.77692789e-01, 2.60936350e-01, 3.19525212e-01,
          3.86258289e-02, 1.16206609e-01, 2.33537301e-01, 5.81438914e-02,
          2.21932963e-01, 2.18161680e-02, 4.94952500e-02, 1.82039395e-01,
          3.18661034e-01, 1.83863014e-01, 5.63168712e-02 ]
      - [ 9.43002850e-02, 5.90805784e-02, 5.32570183e-02, 1.57524109e-01,
          3.89053285e-01, 0., 2.58846506e-02, 7.06401393e-02,
          1.16557151e-01, 0., 1.01816431e-02, 0., 4.17942032e-02,
          3.89053285e-01, 1.86896545e-03, 0., 0., 0., 3.86258125e-01,
          4.38049212e-02, 2.13284679e-02, 7.03064278e-02, 1.18824616e-01,
          5.80879711e-02, 1.86153769e-01, 1.29656330e-01, 1.50677070e-01,
          1.73791528e-01, 1.10127233e-01, 3.62387896e-02, 1.55826375e-01,
          3.89053285e-01, 2.88798988e-01, 2.59543926e-01, 1.06939763e-01,
          8.04739222e-02 ]
      - [ 1.39418229e-01, 1.54251635e-01, 2.03044191e-01, 1.69988051e-01,
          2.92372912e-01, 0., 0., 2.40391493e-02, 4.24855314e-02,
          2.43199375e-02, 2.11926606e-02, 3.66398096e-02, 3.71480398e-02,
          3.23030055e-01, 2.23104246e-02, 1.39235137e-02, 0., 0.,
          2.34168515e-01, 3.34286094e-02, 5.86703680e-02, 1.40424743e-01,
          3.15925270e-01, 2.35934511e-01, 2.27154508e-01, 7.42628798e-02,
          8.65272135e-02, 1.70272976e-01, 0., 2.71965206e-01,
          8.11138600e-02, 3.23030055e-01, 3.23030055e-01, 2.66119272e-01,
          1.38192223e-02, 3.93048264e-02 ]
      - [ 2.84527719e-01, 2.09188402e-01, 1.55598789e-01, 1.67165741e-01,
          1.26344323e-01, 1.54104576e-01, 4.11828980e-03, 1.76412407e-02,
          3.12082060e-02, 3.92113440e-02, 0., 1.92705989e-02,
          3.11193597e-02, 2.86925048e-01, 2.86925048e-01, 5.57274185e-02,
          6.32030517e-02, 2.09962912e-02, 2.13289768e-01, 0.,
          5.23453280e-02, 7.67696798e-02, 2.86925048e-01, 2.37600029e-01,
          2.86925048e-01, 1.40101716e-01, 1.20871283e-01, 2.05101863e-01,
          8.52176696e-02, 1.74400747e-01, 7.71780685e-02, 1.50856927e-01,
          2.86925048e-01, 2.86925048e-01, 1.22368790e-01, 9.74179059e-02 ]
      - [ 8.88682827e-02, 2.24878728e-01, 2.15207800e-01, 2.76868373e-01,
          1.69630334e-01, 3.05345431e-02, 2.27158479e-02, 3.81963998e-02,
          0., 3.85026112e-02, 3.17278206e-02, 7.43291304e-02,
          2.76868373e-01, 2.76868373e-01, 4.13548909e-02, 3.38104889e-02,
          1.81906503e-02, 3.97899374e-02, 2.28621051e-01, 7.18330815e-02,
          1.12701923e-01, 2.76868373e-01, 8.23179856e-02, 2.76868373e-01,
          1.09069191e-01, 8.46815035e-02, 2.22688794e-01, 1.82071745e-01,
          4.84987721e-02, 2.76868373e-01, 1.90367624e-01, 2.76868373e-01,
          2.76868373e-01, 1.24089763e-01, 6.10459745e-02, 3.27976048e-02 ]
      - [ 4.01113741e-02, 9.18270722e-02, 1.85573697e-01, 2.07759440e-01,
          3.27561945e-01, 0., 0., 2.69289054e-02, 1.56280864e-02,
          3.45068872e-02, 6.42038807e-02, 3.28070894e-02, 6.90363720e-02,
          3.27561945e-01, 3.47821414e-02, 7.12460950e-02, 0.,
          5.48889674e-02, 7.03511313e-02, 0., 4.37269248e-02,
          1.92646176e-01, 3.27561945e-01, 3.27561945e-01, 1.96804345e-01,
          5.34123890e-02, 3.96220945e-02, 3.27561945e-01, 4.88284752e-02,
          2.90984899e-01, 1.99007448e-02, 1.01852797e-01, 2.39012897e-01,
          3.27561945e-01, 6.41820207e-02, 3.08472086e-02 ]
      - [ 2.11202651e-01, 1.56386033e-01, 1.83340997e-01, 8.88817161e-02,
          1.64536789e-01, 0., 0., 3.40029150e-02, 1.26349339e-02, 0.,
          6.81268573e-02, 9.86059234e-02, 1.39064655e-01, 3.64180773e-01,
          2.70321257e-02, 0., 1.40350275e-02, 1.76064074e-02,
          3.39644343e-01, 4.02274877e-02, 7.88786635e-02, 3.39467004e-02,
          2.33290091e-01, 1.79217517e-01, 1.50328428e-01, 1.39869630e-01,
          1.57824814e-01, 1.58611193e-01, 0., 1.99727833e-01,
          2.15024665e-01, 3.64180773e-01, 3.64180773e-01, 1.95483029e-01,
          8.84933583e-03, 2.58802772e-02 ]
      - [ 1.39418229e-01, 1.54251635e-01, 2.03044191e-01, 1.69988051e-01,
          2.92372912e-01, 0., 0., 2.40391493e-02, 4.24855314e-02,
          2.43199375e-02, 2.11926606e-02, 3.66398096e-02, 3.71480398e-02,
          3.23030055e-01, 2.23104246e-02, 1.39235137e-02, 0., 0.,
          2.34168515e-01, 3.34286094e-02, 5.86703680e-02, 1.40424743e-01,
          3.15925270e-01, 2.35934511e-01, 2.27154508e-01, 7.42628798e-02,
          8.65272135e-02, 1.70272976e-01, 0., 2.71965206e-01,
          8.11138600e-02, 3.23030055e-01, 3.23030055e-01, 2.66119272e-01,
          1.38192223e-02, 3.93048264e-02 ]
      - [ 2.84527719e-01, 2.09188402e-01, 1.55598789e-01, 1.67165741e-01,
          1.26344323e-01, 1.54104576e-01, 4.11828980e-03, 1.76412407e-02,
          3.12082060e-02, 3.92113440e-02, 0., 1.92705989e-02,
          3.11193597e-02, 2.86925048e-01, 2.86925048e-01, 5.57274185e-02,
          6.32030517e-02, 2.09962912e-02, 2.13289768e-01, 0.,
          5.23453280e-02, 7.67696798e-02, 2.86925048e-01, 2.37600029e-01,
          2.86925048e-01, 1.40101716e-01, 1.20871283e-01, 2.05101863e-01,
          8.52176696e-02, 1.74400747e-01, 7.71780685e-02, 1.50856927e-01,
          2.86925048e-01, 2.86925048e-01, 1.22368790e-01, 9.74179059e-02 ]
      - [ 8.88682827e-02, 2.24878728e-01, 2.15207800e-01, 2.76868373e-01,
          1.69630334e-01, 3.05345431e-02, 2.27158479e-02, 3.81963998e-02,
          0., 3.85026112e-02, 3.17278206e-02, 7.43291304e-02,
          2.76868373e-01, 2.76868373e-01, 4.13548909e-02, 3.38104889e-02,
          1.81906503e-02, 3.97899374e-02, 2.28621051e-01, 7.18330815e-02,
          1.12701923e-01, 2.76868373e-01, 8.23179856e-02, 2.76868373e-01,
          1.09069191e-01, 8.46815035e-02, 2.22688794e-01, 1.82071745e-01,
          4.84987721e-02, 2.76868373e-01, 1.90367624e-01, 2.76868373e-01,
          2.76868373e-01, 1.24089763e-01, 6.10459745e-02, 3.27976048e-02 ]
      - [ 4.01113741e-02, 9.18270722e-02, 1.85573697e-01, 2.07759440e-01,
          3.27561945e-01, 0., 0., 2.69289054e-02, 1.56280864e-02,
          3.45068872e-02, 6.42038807e-02, 3.28070894e-02, 6.90363720e-02,
          3.27561945e-01, 3.47821414e-02, 7.12460950e-02, 0.,
          5.48889674e-02, 7.03511313e-02, 0., 4.37269248e-02,
          1.92646176e-01, 3.27561945e-01, 3.27561945e-01, 1.96804345e-01,
          5.34123890e-02, 3.96220945e-02, 3.27561945e-01, 4.88284752e-02,
          2.90984899e-01, 1.99007448e-02, 1.01852797e-01, 2.39012897e-01,
          3.27561945e-01, 6.41820207e-02, 3.08472086e-02 ]
      - [ 2.11202651e-01, 1.56386033e-01, 1.83340997e-01, 8.88817161e-02,
          1.64536789e-01, 0., 0., 3.40029150e-02, 1.26349339e-02, 0.,
          6.81268573e-02, 9.86059234e-02, 1.39064655e-01, 3.64180773e-01,
          2.70321257e-02, 0., 1.40350275e-02, 1.76064074e-02,
          3.39644343e-01, 4.02274877e-02, 7.88786635e-02, 3.39467004e-02,
          2.33290091e-01, 1.79217517e-01, 1.50328428e-01, 1.39869630e-01,
          1.57824814e-01, 1.58611193e-01, 0., 1.99727833e-01,
          2.15024665e-01, 3.64180773e-01, 3.64180773e-01, 1.95483029e-01,
          8.84933583e-03, 2.58802772e-02 ]
      - [ 1.39418229e-01, 1.54251635e-01, 2.03044191e-01, 1.69988051e-01,
          2.92372912e-01, 0., 0., 2.40391493e-02, 4.24855314e-02,
          2.43199375e-02, 2.11926606e-02, 3.66398096e-02, 3.71480398e-02,
          3.23030055e-01, 2.23104246e-02, 1.39235137e-02, 0., 0.,
          2.34168515e-01, 3.34286094e-02, 5.86703680e-02, 1.40424743e-01,
          3.15925270e-01, 2.35934511e-01, 2.27154508e-01, 7.42628798e-02,
          8.65272135e-02, 1.70272976e-01, 0., 2.71965206e-01,
          8.11138600e-02, 3.23030055e-01, 3.23030055e-01, 2.66119272e-01,
          1.38192223e-02, 3.93048264e-02 ]
      - [ 2.84527719e-01, 2.09188402e-01, 1.55598789e-01, 1.67165741e-01,
          1.26344323e-01, 1.54104576e-01, 4.11828980e-03, 1.76412407e-02,
          3.12082060e-02, 3.92113440e-02, 0., 1.92705989e-02,
          3.11193597e-02, 2.86925048e-01, 2.86925048e-01, 5.57274185e-02,
          6.32030517e-02, 2.09962912e-02, 2.13289768e-01, 0.,
          5.23453280e-02, 7.67696798e-02, 2.86925048e-01, 2.37600029e-01,
          2.86925048e-01, 1.40101716e-01, 1.20871283e-01, 2.05101863e-01,
          8.52176696e-02, 1.74400747e-01, 7.71780685e-02, 1.50856927e-01,
          2.86925048e-01, 2.86925048e-01, 1.22368790e-01, 9.74179059e-02 ]
      - [ 8.88682827e-02, 2.24878728e-01, 2.15207800e-01, 2.76868373e-01,
          1.69630334e-01, 3.05345431e-02, 2.27158479e-02, 3.81963998e-02,
          0., 3.85026112e-02, 3.17278206e-02, 7.43291304e-02,
          2.76868373e-01, 2.76868373e-01, 4.13548909e-02, 3.38104889e-02,
          1.81906503e-02, 3.97899374e-02, 2.28621051e-01, 7.18330815e-02,
          1.12701923e-01, 2.76868373e-01, 8.23179856e-02, 2.76868373e-01,
          1.09069191e-01, 8.46815035e-02, 2.22688794e-01, 1.82071745e-01,
          4.84987721e-02, 2.76868373e-01, 1.90367624e-01, 2.76868373e-01,
          2.76868373e-01, 1.24089763e-01, 6.10459745e-02, 3.27976048e-02 ]
      - [ 4.01113741e-02, 9.18270722e-02, 1.85573697e-01, 2.07759440e-01,
          3.27561945e-01, 0., 0., 2.69289054e-02, 1.56280864e-02,
          3.45068872e-02, 6.42038807e-02, 3.28070894e-02, 6.90363720e-02,
          3.27561945e-01, 3.47821414e-02, 7.12460950e-02, 0.,
          5.48889674e-02, 7.03511313e-02, 0., 4.37269248e-02,
          1.92646176e-01, 3.27561945e-01, 3.27561945e-01, 1.96804345e-01,
          5.34123890e-02, 3.96220945e-02, 3.27561945e-01, 4.88284752e-02,
          2.90984899e-01, 1.99007448e-02, 1.01852797e-01, 2.39012897e-01,
          3.27561945e-01, 6.41820207e-02, 3.08472086e-02 ]
      - [ 2.11202651e-01, 1.56386033e-01, 1.83340997e-01, 8.88817161e-02,
          1.64536789e-01, 0., 0., 3.40029150e-02, 1.26349339e-02, 0.,
          6.81268573e-02, 9.86059234e-02, 1.39064655e-01, 3.64180773e-01,
          2.70321257e-02, 0., 1.40350275e-02, 1.76064074e-02,
          3.39644343e-01, 4.02274877e-02, 7.88786635e-02, 3.39467004e-02,
          2.33290091e-01, 1.79217517e-01, 1.50328428e-01, 1.39869630e-01,
          1.57824814e-01, 1.58611193e-01, 0., 1.99727833e-01,
          2.15024665e-01, 3.64180773e-01, 3.64180773e-01, 1.95483029e-01,
          8.84933583e-03, 2.58802772e-02 ]
      - [ 0., 3.58502083e-02, 2.57779926e-01, 2.31251761e-01,
          2.39939347e-01, 1.13642430e-02, 0., 0., 0., 1.92679539e-02,
          1.34710312e-01, 2.15202942e-01, 2.57779926e-01, 2.57779926e-01,
          4.79717031e-02, 9.81488358e-03, 4.64880317e-02, 0.,
          1.56491801e-01, 2.34932333e-01, 2.17660069e-01, 1.76783293e-01,
          2.08330482e-01, 2.57779926e-01, 2.43275791e-01, 7.65215904e-02,
          1.16128646e-01, 4.32298705e-02, 0., 1.71273023e-01,
          2.57779926e-01, 2.57779926e-01, 2.57779926e-01, 1.73515514e-01,
          3.17718163e-02, 1.02162197e-01 ]
      - [ 2.89425943e-02, 2.81013753e-02, 2.55712897e-01, 2.66623616e-01,
          1.16219521e-01, 6.56653121e-02, 3.93850990e-02, 0., 0.,
          1.75024625e-02, 3.00585423e-02, 1.25371337e-01, 2.66623616e-01,
          2.51181364e-01, 1.35413036e-01, 4.38131653e-02, 9.84562784e-02,
          1.51424911e-02, 1.07068211e-01, 1.63333416e-01, 2.66623616e-01,
          1.24869272e-01, 2.66623616e-01, 1.95071861e-01, 2.43204281e-01,
          1.63725540e-01, 1.83166206e-01, 1.57788128e-01, 6.92130476e-02,
          1.13641255e-01, 2.65188813e-01, 1.71430841e-01, 2.66623616e-01,
          2.66623616e-01, 1.45637631e-01, 4.54821922e-02 ]
      - [ 9.88116208e-03, 5.21825738e-02, 2.75132209e-01, 1.40247762e-01,
          1.50468677e-01, 0., 1.86175329e-03, 0., 0., 9.85070616e-02,
          8.53553861e-02, 2.75132209e-01, 1.53445065e-01, 2.04110250e-01,
          1.82713300e-01, 5.36725409e-02, 4.44219746e-02, 3.83926407e-02,
          2.75132209e-01, 2.75132209e-01, 2.43204445e-01, 3.63494717e-02,
          8.58945623e-02, 8.97917151e-02, 2.75132209e-01, 9.36790332e-02,
          1.33448973e-01, 1.20300449e-01, 1.06511064e-01, 2.72861898e-01,
          2.75132209e-01, 2.75132209e-01, 2.75132209e-01, 1.34607881e-01,
          6.11477233e-02, 5.24671562e-02 ]
      - [ 0., 8.32694247e-02, 2.68333733e-01, 2.68333733e-01,
          2.56819338e-01, 1.34605393e-02, 0., 0., 0., 4.82851118e-02,
          1.12075217e-01, 1.05022468e-01, 2.20158368e-01, 2.48129740e-01,
          4.87152711e-02, 4.46907170e-02, 3.05383690e-02, 0.,
          1.29652962e-01, 9.18194652e-02, 1.50522768e-01, 2.60598361e-01,
          2.68333733e-01, 2.68333733e-01, 7.37722591e-02, 4.59307060e-02,
          7.11101219e-02, 2.50933498e-01, 6.15944676e-02, 2.24465713e-01,
          2.68333733e-01, 1.80217579e-01, 2.68333733e-01, 2.32815892e-01,
          8.09494033e-02, 1.21856794e-01 ]
      - [ 0., 2.22803354e-02, 2.79206038e-01, 8.11346322e-02,
          1.77303508e-01, 1.20751569e-02, 1.26036610e-02, 0., 0.,
          2.20029280e-02, 1.58354878e-01, 2.79206038e-01, 2.79206038e-01,
          2.79206038e-01, 9.79812909e-03, 5.61657064e-02, 0., 0.,
          2.75988847e-01, 2.79206038e-01, 9.15775225e-02, 0.,
          1.49611786e-01, 1.37692034e-01, 2.79206038e-01, 9.24990773e-02,
          1.25944123e-01, 0., 2.48925444e-02, 1.18395872e-01,
          2.79206038e-01, 2.79206038e-01, 2.79206038e-01, 1.39600366e-01,
          1.50761139e-02, 2.14696661e-01 ]
      - [ 9.56685320e-02, 2.72748750e-02, 2.55190760e-01, 1.11601852e-01,
          8.35497454e-02, 6.80226684e-02, 7.70751433e-03, 6.69845985e-03,
          3.58800404e-02, 9.38000754e-02, 3.28428186e-02, 2.55190760e-01,
          1.93610623e-01, 2.55190760e-01, 7.26840198e-02, 1.57724470e-02,
          5.55270836e-02, 4.93692122e-02, 2.08544269e-01, 2.55190760e-01,
          1.39179885e-01, 2.55190760e-01, 1.03830658e-01, 2.55190760e-01,
          1.74097687e-01, 2.55190760e-01, 6.11757636e-02, 1.60910144e-01,
          1.55046433e-02, 2.28192329e-01, 2.55190760e-01, 2.55190760e-01,
          2.55190760e-01, 2.55190760e-01, 5.07860519e-02, 3.75617780e-02 ]
      - [ 8.48559588e-02, 4.29713205e-02, 2.64420986e-01, 2.64420986e-01,
          9.88789201e-02, 1.75167993e-02, 1.87332258e-02, 9.04607307e-03,
          5.24444096e-02, 8.26560259e-02, 5.53547218e-02, 5.38915507e-02,
          2.64420986e-01, 1.99890301e-01, 1.43170580e-01, 9.09624770e-02,
          3.13272253e-02, 1.22741751e-01, 2.64420986e-01, 2.53564358e-01,
          4.74759825e-02, 1.40211895e-01, 2.64420986e-01, 3.78187709e-02,
          2.64420986e-01, 1.77672610e-01, 1.47027820e-01, 1.52022645e-01,
          8.55186880e-02, 2.30368450e-01, 1.32130340e-01, 2.64420986e-01,
          2.64420986e-01, 2.64420986e-01, 7.88996592e-02, 5.33238053e-02 ]
      - [ 1.04633078e-01, 9.28096324e-02, 2.77546823e-01, 4.82934602e-02,
          9.74287242e-02, 3.84790488e-02, 2.12641750e-02, 1.70710031e-02,
          3.88911739e-02, 1.26063794e-01, 1.37819216e-01, 2.77546823e-01,
          1.57952502e-01, 2.56803751e-01, 2.29772016e-01, 4.92764078e-02,
          5.29419631e-02, 5.27993031e-02, 2.77546823e-01, 2.77546823e-01,
          1.48583055e-01, 7.64442906e-02, 7.01427609e-02, 1.52768210e-01,
          2.51053125e-01, 1.52916402e-01, 1.31825402e-01, 1.95299521e-01,
          6.75058290e-02, 2.77546823e-01, 1.63289443e-01, 2.77546823e-01,
          2.09812030e-01, 1.79375723e-01, 8.08548406e-02, 6.34174347e-02 ]
      - [ 1.72170326e-01, 0., 2.68366903e-01, 2.68366903e-01,
          7.91796446e-02, 7.94147924e-02, 1.47220856e-02, 2.30917893e-02,
          5.05617261e-02, 5.60667478e-02, 2.56716087e-02, 2.19161987e-01,
          9.70711336e-02, 2.50415921e-01, 4.09909822e-02, 1.11660920e-02,
          5.56169041e-02, 3.04336380e-02, 1.84062958e-01, 1.28218323e-01,
          1.97172344e-01, 2.68366903e-01, 2.68366903e-01, 2.68366903e-01,
          1.81744799e-01, 9.99881849e-02, 4.97690141e-02, 2.49591663e-01,
          1.02698565e-01, 1.41835898e-01, 2.68366903e-01, 1.34193525e-01,
          2.54101038e-01, 2.68366903e-01, 9.54830125e-02, 3.44224162e-02 ]
      - [ 6.56081811e-02, 3.98426130e-02, 2.80522674e-01, 1.55124674e-02,
          7.30420575e-02, 1.67553797e-02, 1.52890654e-02, 1.07864281e-02,
          0., 1.45718113e-01, 9.13061481e-03, 2.80522674e-01,
          2.80522674e-01, 2.80522674e-01, 1.15116455e-01, 0.,
          6.07903115e-02, 5.02317622e-02, 2.80522674e-01, 2.80522674e-01,
          4.83850352e-02, 1.25050575e-01, 1.03617422e-01, 1.67145059e-01,
          1.16407558e-01, 2.05255643e-01, 6.56637698e-02, 1.09252438e-01,
          1.28672227e-01, 8.82423893e-02, 2.80522674e-01, 2.80522674e-01,
          2.80522674e-01, 2.80522674e-01, 8.17266330e-02, 2.40921825e-02 ]
      - [ 9.56685320e-02, 2.72748750e-02, 2.55190760e-01, 1.11601852e-01,
          8.35497454e-02, 6.80226684e-02, 7.70751433e-03, 6.69845985e-03,
          3.58800404e-02, 9.38000754e-02, 3.28428186e-02, 2.55190760e-01,
          1.93610623e-01, 2.55190760e-01, 7.26840198e-02, 1.57724470e-02,
          5.55270836e-02, 4.93692122e-02, 2.08544269e-01, 2.55190760e-01,
          1.39179885e-01, 2.55190760e-01, 1.03830658e-01, 2.55190760e-01,
          1.74097687e-01, 2.55190760e-01, 6.11757636e-02, 1.60910144e-01,
          1.55046433e-02, 2.28192329e-01, 2.55190760e-01, 2.55190760e-01,
          2.55190760e-01, 2.55190760e-01, 5.07860519e-02, 3.75617780e-02 ]
      - [ 8.48559588e-02, 4.29713205e-02, 2.64420986e-01, 2.64420986e-01,
          9.88789201e-02, 1.75167993e-02, 1.87332258e-02, 9.04607307e-03,
          5.24444096e-02, 8.26560259e-02, 5.53547218e-02, 5.38915507e-02,
          2.64420986e-01, 1.99890301e-01, 1.43170580e-01, 9.09624770e-02,
          3.13272253e-02, 1.22741751e-01, 2.64420986e-01, 2.53564358e-01,
          4.74759825e-02, 1.40211895e-01, 2.64420986e-01, 3.78187709e-02,
          2.64420986e-01, 1.77672610e-01, 1.47027820e-01, 1.52022645e-01,
          8.55186880e-02, 2.30368450e-01, 1.32130340e-01, 2.64420986e-01,
          2.64420986e-01, 2.64420986e-01, 7.88996592e-02, 5.33238053e-02 ]
      - [ 1.04633078e-01, 9.28096324e-02, 2.77546823e-01, 4.82934602e-02,
          9.74287242e-02, 3.84790488e-02, 2.12641750e-02, 1.70710031e-02,
          3.88911739e-02, 1.26063794e-01, 1.37819216e-01, 2.77546823e-01,
          1.57952502e-01, 2.56803751e-01, 2.29772016e-01, 4.92764078e-02,
          5.29419631e-02, 5.27993031e-02, 2.77546823e-01, 2.77546823e-01,
          1.48583055e-01, 7.64442906e-02, 7.01427609e-02, 1.52768210e-01,
          2.51053125e-01, 1.52916402e-01, 1.31825402e-01, 1.95299521e-01,
          6.75058290e-02, 2.77546823e-01, 1.63289443e-01, 2.77546823e-01,
          2.09812030e-01, 1.79375723e-01, 8.08548406e-02, 6.34174347e-02 ]
      - [ 1.72170326e-01, 0., 2.68366903e-01, 2.68366903e-01,
          7.91796446e-02, 7.94147924e-02, 1.47220856e-02, 2.30917893e-02,
          5.05617261e-02, 5.60667478e-02, 2.56716087e-02, 2.19161987e-01,
          9.70711336e-02, 2.50415921e-01, 4.09909822e-02, 1.11660920e-02,
          5.56169041e-02, 3.04336380e-02, 1.84062958e-01, 1.28218323e-01,
          1.97172344e-01, 2.68366903e-01, 2.68366903e-01, 2.68366903e-01,
          1.81744799e-01, 9.99881849e-02, 4.97690141e-02, 2.49591663e-01,
          1.02698565e-01, 1.41835898e-01, 2.68366903e-01, 1.34193525e-01,
          2.54101038e-01, 2.68366903e-01, 9.54830125e-02, 3.44224162e-02 ]
      - [ 6.56081811e-02, 3.98426130e-02, 2.80522674e-01, 1.55124674e-02,
          7.30420575e-02, 1.67553797e-02, 1.52890654e-02, 1.07864281e-02,
          0., 1.45718113e-01, 9.13061481e-03, 2.80522674e-01,
          2.80522674e-01, 2.80522674e-01, 1.15116455e-01, 0.,
          6.07903115e-02, 5.02317622e-02, 2.80522674e-01, 2.80522674e-01,
          4.83850352e-02, 1.25050575e-01, 1.03617422e-01, 1.67145059e-01,
          1.16407558e-01, 2.05255643e-01, 6.56637698e-02, 1.09252438e-01,
          1.28672227e-01, 8.82423893e-02, 2.80522674e-01, 2.80522674e-01,
          2.80522674e-01, 2.80522674e-01, 8.17266330e-02, 2.40921825e-02 ]
      - [ 9.56685320e-02, 2.72748750e-02, 2.55190760e-01, 1.11601852e-01,
          8.35497454e-02, 6.80226684e-02, 7.70751433e-03, 6.69845985e-03,
          3.58800404e-02, 9.38000754e-02, 3.28428186e-02, 2.55190760e-01,
          1.93610623e-01, 2.55190760e-01, 7.26840198e-02, 1.57724470e-02,
          5.55270836e-02, 4.93692122e-02, 2.08544269e-01, 2.55190760e-01,
          1.39179885e-01, 2.55190760e-01, 1.03830658e-01, 2.55190760e-01,
          1.74097687e-01, 2.55190760e-01, 6.11757636e-02, 1.60910144e-01,
          1.55046433e-02, 2.28192329e-01, 2.55190760e-01, 2.55190760e-01,
          2.55190760e-01, 2.55190760e-01, 5.07860519e-02, 3.75617780e-02 ]
      - [ 8.48559588e-02, 4.29713205e-02, 2.64420986e-01, 2.64420986e-01,
          9.88789201e-02, 1.75167993e-02, 1.87332258e-02, 9.04607307e-03,
          5.24444096e-02, 8.26560259e-02, 5.53547218e-02, 5.38915507e-02,
          2.64420986e-01, 1.99890301e-01, 1.43170580e-01, 9.09624770e-02,
          3.13272253e-02, 1.22741751e-01, 2.64420986e-01, 2.53564358e-01,
          4.74759825e-02, 1.40211895e-01, 2.64420986e-01, 3.78187709e-02,
          2.64420986e-01, 1.77672610e-01, 1.47027820e-01, 1.52022645e-01,
          8.55186880e-02, 2.30368450e-01, 1.32130340e-01, 2.64420986e-01,
          2.64420986e-01, 2.64420986e-01, 7.88996592e-02, 5.33238053e-02 ]
      - [ 1.04633078e-01, 9.28096324e-02, 2.77546823e-01, 4.82934602e-02,
          9.74287242e-02, 3.84790488e-02, 2.12641750e-02, 1.70710031e-02,
          3.88911739e-02, 1.26063794e-01, 1.37819216e-01, 2.77546823e-01,
          1.57952502e-01, 2.56803751e-01, 2.29772016e-01, 4.92764078e-02,
          5.29419631e-02, 5.27993031e-02, 2.77546823e-01, 2.77546823e-01,
          1.48583055e-01, 7.64442906e-02, 7.01427609e-02, 1.52768210e-01,
          2.51053125e-01, 1.52916402e-01, 1.31825402e-01, 1.95299521e-01,
          6.75058290e-02, 2.77546823e-01, 1.63289443e-01, 2.77546823e-01,
          2.09812030e-01, 1.79375723e-01, 8.08548406e-02, 6.34174347e-02 ]
      - [ 1.72170326e-01, 0., 2.68366903e-01, 2.68366903e-01,
          7.91796446e-02, 7.94147924e-02, 1.47220856e-02, 2.30917893e-02,
          5.05617261e-02, 5.60667478e-02, 2.56716087e-02, 2.19161987e-01,
          9.70711336e-02, 2.50415921e-01, 4.09909822e-02, 1.11660920e-02,
          5.56169041e-02, 3.04336380e-02, 1.84062958e-01, 1.28218323e-01,
          1.97172344e-01, 2.68366903e-01, 2.68366903e-01, 2.68366903e-01,
          1.81744799e-01, 9.99881849e-02, 4.97690141e-02, 2.49591663e-01,
          1.02698565e-01, 1.41835898e-01, 2.68366903e-01, 1.34193525e-01,
          2.54101038e-01, 2.68366903e-01, 9.54830125e-02, 3.44224162e-02 ]
      - [ 6.56081811e-02, 3.98426130e-02, 2.80522674e-01, 1.55124674e-02,
          7.30420575e-02, 1.67553797e-02, 1.52890654e-02, 1.07864281e-02,
          0., 1.45718113e-01, 9.13061481e-03, 2.80522674e-01,
          2.80522674e-01, 2.80522674e-01, 1.15116455e-01, 0.,
          6.07903115e-02, 5.02317622e-02, 2.80522674e-01, 2.80522674e-01,
          4.83850352e-02, 1.25050575e-01, 1.03617422e-01, 1.67145059e-01,
          1.16407558e-01, 2.05255643e-01, 6.56637698e-02, 1.09252438e-01,
          1.28672227e-01, 8.82423893e-02, 2.80522674e-01, 2.80522674e-01,
          2.80522674e-01, 2.80522674e-01, 8.17266330e-02, 2.40921825e-02 ]
      - [ 0., 0., 2.20321178e-01, 7.69854188e-02, 2.93171793e-01, 0., 0.,
          0., 0., 0., 2.91784499e-02, 2.93171793e-01, 2.92636991e-01,
          2.93171793e-01, 7.98005313e-02, 0., 6.28264919e-02, 0.,
          2.93171793e-01, 2.59605229e-01, 2.93171793e-01, 7.62480274e-02,
          4.39804122e-02, 7.16051906e-02, 1.58773080e-01, 1.22775063e-01,
          8.45008790e-02, 1.92193598e-01, 6.86743036e-02, 1.42206475e-01,
          1.66391492e-01, 2.93171793e-01, 2.93171793e-01, 1.27181858e-01,
          5.46002574e-02, 1.03285074e-01 ]
      - [ 5.18684685e-02, 0., 7.94436410e-02, 2.57763386e-01,
          2.57763386e-01, 2.57763386e-01, 4.41807359e-02, 0., 0.,
          1.89537276e-02, 1.20240618e-02, 1.02240413e-01, 2.57763386e-01,
          2.57763386e-01, 2.57763386e-01, 7.70625994e-02, 4.66114879e-02,
          3.39690074e-02, 2.41542801e-01, 1.23286307e-01, 2.57763386e-01,
          1.69689551e-01, 1.19623117e-01, 9.82342884e-02, 2.57763386e-01,
          9.43930671e-02, 1.38098598e-01, 1.77869499e-01, 1.63616747e-01,
          1.47982836e-01, 1.12096757e-01, 2.57763386e-01, 1.87806845e-01,
          2.57763386e-01, 1.40901953e-01, 4.61454205e-02 ]
      - [ 1.68380756e-02, 6.69476297e-03, 2.62903094e-01, 2.62903094e-01,
          2.62903094e-01, 6.91632926e-03, 0., 8.36737547e-03, 0.,
          6.38159066e-02, 2.34747678e-01, 2.62903094e-01, 2.62903094e-01,
          7.07656965e-02, 8.44413266e-02, 2.06268467e-02, 3.15295346e-02,
          3.04364618e-02, 2.59628117e-01, 2.62903094e-01, 2.62903094e-01,
          1.28647210e-02, 8.30916315e-03, 3.67422625e-02, 3.05332523e-02,
          1.41611874e-01, 1.67775944e-01, 2.60158747e-01, 5.85134514e-02,
          1.84896305e-01, 2.62903094e-01, 2.62903094e-01, 2.62903094e-01,
          7.58897811e-02, 7.22798407e-02, 1.75351985e-02 ]
      - [ 0., 0., 2.88820028e-01, 1.61554337e-01, 2.88820028e-01, 0., 0.,
          0., 0., 7.06627816e-02, 7.03065023e-02, 2.33055294e-01,
          2.06976384e-01, 2.88820028e-01, 9.01603773e-02, 6.68006539e-02,
          6.63915873e-02, 5.72799356e-04, 2.61659384e-01, 1.29324213e-01,
          2.88820028e-01, 1.09883562e-01, 2.88820028e-01, 1.40588492e-01,
          1.50733933e-01, 1.20880403e-01, 1.44678308e-02, 1.80740520e-01,
          1.02771774e-01, 1.70794219e-01, 1.51550859e-01, 3.96573991e-02,
          2.88820028e-01, 1.98118120e-01, 1.54690012e-01, 1.86055198e-01 ]
      - [ 0., 2.46440154e-02, 1.00482345e-01, 3.85564081e-02,
          3.06604505e-01, 0., 3.15504968e-02, 0., 3.73375490e-02, 0., 0.,
          3.06604505e-01, 3.04924577e-01, 3.06604505e-01, 3.12072784e-02,
          0., 0., 0., 3.06604505e-01, 2.49540493e-01, 3.01200956e-01, 0.,
          9.02042910e-03, 3.17223184e-02, 9.51467678e-02, 8.48678648e-02,
          8.07901919e-02, 2.11579889e-01, 1.05360746e-01, 1.08460642e-01,
          2.17839628e-01, 3.06604505e-01, 3.06604505e-01, 1.18359461e-01,
          1.06313102e-01, 1.00847490e-01 ]
      - [ 4.27076593e-02, 0., 3.79723348e-02, 2.83603638e-01,
          4.16191250e-01, 5.59336431e-02, 3.70053202e-02, 1.07072294e-02,
          5.27364239e-02, 0., 0., 3.48237865e-02, 6.19594827e-02,
          4.16191250e-01, 4.77873050e-02, 2.44624764e-02, 1.01280864e-02,
          3.26082520e-02, 2.89631784e-01, 1.50568128e-01, 1.73426926e-01,
          0., 1.63751647e-01, 2.63296366e-02, 0., 0., 0., 4.16191250e-01,
          4.16191250e-01, 1.96392044e-01, 1.07898852e-02, 5.61221913e-02,
          0., 0., 2.72273608e-02, 1.51582798e-02 ]
      - [ 8.67465734e-02, 1.51995951e-02, 2.85780858e-02, 5.25966249e-02,
          3.30622494e-01, 3.30622494e-01, 6.65802285e-02, 3.01542711e-02,
          1.13883689e-01, 3.15160789e-02, 0., 3.16277845e-03, 0.,
          3.30622494e-01, 3.30622494e-01, 4.85659465e-02, 1.14012836e-02,
          1.59170274e-02, 2.03288436e-01, 3.25988173e-01, 2.53665328e-01,
          1.51443575e-02, 7.43609667e-02, 2.04141550e-02, 0., 0., 0.,
          3.30622494e-01, 2.85857201e-01, 3.30622494e-01, 1.70102920e-02,
          9.65460390e-02, 0., 0., 8.74695648e-03, 3.49142775e-02 ]
      - [ 4.44164351e-02, 2.79144309e-02, 1.00927129e-01, 3.43190521e-01,
          3.23186785e-01, 0., 9.32628568e-03, 0., 2.14371718e-02,
          6.04814403e-02, 0., 1.43011987e-01, 3.43190521e-01,
          3.43190521e-01, 8.32103342e-02, 6.77190814e-03, 1.66757088e-02,
          3.15286778e-02, 2.42156237e-01, 2.36582994e-01, 0.,
          1.49226725e-01, 3.42049718e-01, 1.92386899e-02, 3.66695523e-02,
          0., 1.88370869e-02, 3.43190521e-01, 3.43190521e-01,
          4.63832431e-02, 0., 2.41958573e-02, 0., 1.94929969e-02,
          1.39968833e-02, 3.94242704e-02 ]
      - [ 0., 0., 0., 1.73900768e-01, 3.76217902e-01, 3.58064584e-02, 0.,
          1.94641948e-02, 0., 1.40417337e-01, 8.69718120e-02,
          5.87301403e-02, 4.37341817e-02, 3.76217902e-01, 7.53563419e-02,
          1.13478810e-01, 1.11122634e-02, 6.71504587e-02, 3.72822762e-01,
          3.41605276e-01, 1.41378805e-01, 0., 1.33543581e-01,
          2.44315434e-02, 0., 2.85594109e-02, 0., 3.76217902e-01,
          3.76217902e-01, 2.26205096e-01, 0., 3.48128052e-03, 0., 0., 0.,
          0. ]
      - [ 2.25398853e-01, 1.43385278e-02, 3.83507945e-02, 9.64721739e-02,
          4.01210040e-01, 9.76518095e-02, 3.59528176e-02, 9.47687030e-03,
          3.11623849e-02, 0., 0., 0., 2.06894100e-01, 4.01210040e-01, 0.,
          2.53229737e-02, 0., 3.52340415e-02, 1.30538300e-01,
          3.89644466e-02, 1.21317580e-01, 0., 1.40183255e-01, 0., 0., 0.,
          0., 4.01210040e-01, 4.01210040e-01, 4.01210040e-01,
          2.39393059e-02, 1.48234963e-01, 2.62976754e-02, 4.15826077e-03,
          2.45771986e-02, 0. ]
      - [ 4.27076593e-02, 0., 3.79723348e-02, 2.83603638e-01,
          4.16191250e-01, 5.59336431e-02, 3.70053202e-02, 1.07072294e-02,
          5.27364239e-02, 0., 0., 3.48237865e-02, 6.19594827e-02,
          4.16191250e-01, 4.77873050e-02, 2.44624764e-02, 1.01280864e-02,
          3.26082520e-02, 2.89631784e-01, 1.50568128e-01, 1.73426926e-01,
          0., 1.63751647e-01, 2.63296366e-02, 0., 0., 0., 4.16191250e-01,
          4.16191250e-01, 1.96392044e-01, 1.07898852e-02, 5.61221913e-02,
          0., 0., 2.72273608e-02, 1.51582798e-02 ]
      - [ 8.67465734e-02, 1.51995951e-02, 2.85780858e-02, 5.25966249e-02,
          3.30622494e-01, 3.30622494e-01, 6.65802285e-02, 3.01542711e-02,
          1.13883689e-01, 3.15160789e-02, 0., 3.16277845e-03, 0.,
          3.30622494e-01, 3.30622494e-01, 4.85659465e-02, 1.14012836e-02,
          1.59170274e-02, 2.03288436e-01, 3.25988173e-01, 2.53665328e-01,
          1.51443575e-02, 7.43609667e-02, 2.04141550e-02, 0., 0., 0.,
          3.30622494e-01, 2.85857201e-01, 3.30622494e-01, 1.70102920e-02,
          9.65460390e-02, 0., 0., 8.74695648e-03, 3.49142775e-02 ]
      - [ 4.44164351e-02, 2.79144309e-02, 1.00927129e-01, 3.43190521e-01,
          3.23186785e-01, 0., 9.32628568e-03, 0., 2.14371718e-02,
          6.04814403e-02, 0., 1.43011987e-01, 3.43190521e-01,
          3.43190521e-01, 8.32103342e-02, 6.77190814e-03, 1.66757088e-02,
          3.15286778e-02, 2.42156237e-01, 2.36582994e-01, 0.,
          1.49226725e-01, 3.42049718e-01, 1.92386899e-02, 3.66695523e-02,
          0., 1.88370869e-02, 3.43190521e-01, 3.43190521e-01,
          4.63832431e-02, 0., 2.41958573e-02, 0., 1.94929969e-02,
          1.39968833e-02, 3.94242704e-02 ]
      - [ 0., 0., 0., 1.73900768e-01, 3.76217902e-01, 3.58064584e-02, 0.,
          1.94641948e-02, 0., 1.40417337e-01, 8.69718120e-02,
          5.87301403e-02, 4.37341817e-02, 3.76217902e-01, 7.53563419e-02,
          1.13478810e-01, 1.11122634e-02, 6.71504587e-02, 3.72822762e-01,
          3.41605276e-01, 1.41378805e-01, 0., 1.33543581e-01,
          2.44315434e-02, 0., 2.85594109e-02, 0., 3.76217902e-01,
          3.76217902e-01, 2.26205096e-01, 0., 3.48128052e-03, 0., 0., 0.,
          0. ]
      - [ 2.25398853e-01, 1.43385278e-02, 3.83507945e-02, 9.64721739e-02,
          4.01210040e-01, 9.76518095e-02, 3.59528176e-02, 9.47687030e-03,
          3.11623849e-02, 0., 0., 0., 2.06894100e-01, 4.01210040e-01, 0.,
          2.53229737e-02, 0., 3.52340415e-02, 1.30538300e-01,
          3.89644466e-02, 1.21317580e-01, 0., 1.40183255e-01, 0., 0., 0.,
          0., 4.01210040e-01, 4.01210040e-01, 4.01210040e-01,
          2.39393059e-02, 1.48234963e-01, 2.62976754e-02, 4.15826077e-03,
          2.45771986e-02, 0. ]
      - [ 4.27076593e-02, 0., 3.79723348e-02, 2.83603638e-01,
          4.16191250e-01, 5.59336431e-02, 3.70053202e-02, 1.07072294e-02,
          5.27364239e-02, 0., 0., 3.48237865e-02, 6.19594827e-02,
          4.16191250e-01, 4.77873050e-02, 2.44624764e-02, 1.01280864e-02,
          3.26082520e-02, 2.89631784e-01, 1.50568128e-01, 1.73426926e-01,
          0., 1.63751647e-01, 2.63296366e-02, 0., 0., 0., 4.16191250e-01,
          4.16191250e-01, 1.96392044e-01, 1.07898852e-02, 5.61221913e-02,
          0., 0., 2.72273608e-02, 1.51582798e-02 ]
      - [ 8.67465734e-02, 1.51995951e-02, 2.85780858e-02, 5.25966249e-02,
          3.30622494e-01, 3.30622494e-01, 6.65802285e-02, 3.01542711e-02,
          1.13883689e-01, 3.15160789e-02, 0., 3.16277845e-03, 0.,
          3.30622494e-01, 3.30622494e-01, 4.85659465e-02, 1.14012836e-02,
          1.59170274e-02, 2.03288436e-01, 3.25988173e-01, 2.53665328e-01,
          1.51443575e-02, 7.43609667e-02, 2.04141550e-02, 0., 0., 0.,
          3.30622494e-01, 2.85857201e-01, 3.30622494e-01, 1.70102920e-02,
          9.65460390e-02, 0., 0., 8.74695648e-03, 3.49142775e-02 ]
      - [ 4.44164351e-02, 2.79144309e-02, 1.00927129e-01, 3.43190521e-01,
          3.23186785e-01, 0., 9.32628568e-03, 0., 2.14371718e-02,
          6.04814403e-02, 0., 1.43011987e-01, 3.43190521e-01,
          3.43190521e-01, 8.32103342e-02, 6.77190814e-03, 1.66757088e-02,
          3.15286778e-02, 2.42156237e-01, 2.36582994e-01, 0.,
          1.49226725e-01, 3.42049718e-01, 1.92386899e-02, 3.66695523e-02,
          0., 1.88370869e-02, 3.43190521e-01, 3.43190521e-01,
          4.63832431e-02, 0., 2.41958573e-02, 0., 1.94929969e-02,
          1.39968833e-02, 3.94242704e-02 ]
      - [ 0., 0., 0., 1.73900768e-01, 3.76217902e-01, 3.58064584e-02, 0.,
          1.94641948e-02, 0., 1.40417337e-01, 8.69718120e-02,
          5.87301403e-02, 4.37341817e-02, 3.76217902e-01, 7.53563419e-02,
          1.13478810e-01, 1.11122634e-02, 6.71504587e-02, 3.72822762e-01,
          3.41605276e-01, 1.41378805e-01, 0., 1.33543581e-01,
          2.44315434e-02, 0., 2.85594109e-02, 0., 3.76217902e-01,
          3.76217902e-01, 2.26205096e-01, 0., 3.48128052e-03, 0., 0., 0.,
          0. ]
      - [ 2.25398853e-01, 1.43385278e-02, 3.83507945e-02, 9.64721739e-02,
          4.01210040e-01, 9.76518095e-02, 3.59528176e-02, 9.47687030e-03,
          3.11623849e-02, 0., 0., 0., 2.06894100e-01, 4.01210040e-01, 0.,
          2.53229737e-02, 0., 3.52340415e-02, 1.30538300e-01,
          3.89644466e-02, 1.21317580e-01, 0., 1.40183255e-01, 0., 0., 0.,
          0., 4.01210040e-01, 4.01210040e-01, 4.01210040e-01,
          2.39393059e-02, 1.48234963e-01, 2.62976754e-02, 4.15826077e-03,
          2.45771986e-02, 0. ]
      - [ 4.27076593e-02, 0., 3.79723348e-02, 2.83603638e-01,
          4.16191250e-01, 5.59336431e-02, 3.70053202e-02, 1.07072294e-02,
          5.27364239e-02, 0., 0., 3.48237865e-02, 6.19594827e-02,
          4.16191250e-01, 4.77873050e-02, 2.44624764e-02, 1.01280864e-02,
          3.26082520e-02, 2.89631784e-01, 1.50568128e-01, 1.73426926e-01,
          0., 1.63751647e-01, 2.63296366e-02, 0., 0., 0., 4.16191250e-01,
          4.16191250e-01, 1.96392044e-01, 1.07898852e-02, 5.61221913e-02,
          0., 0., 2.72273608e-02, 1.51582798e-02 ]
      - [ 8.67465734e-02, 1.51995951e-02, 2.85780858e-02, 5.25966249e-02,
          3.30622494e-01, 3.30622494e-01, 6.65802285e-02, 3.01542711e-02,
          1.13883689e-01, 3.15160789e-02, 0., 3.16277845e-03, 0.,
          3.30622494e-01, 3.30622494e-01, 4.85659465e-02, 1.14012836e-02,
          1.59170274e-02, 2.03288436e-01, 3.25988173e-01, 2.53665328e-01,
          1.51443575e-02, 7.43609667e-02, 2.04141550e-02, 0., 0., 0.,
          3.30622494e-01, 2.85857201e-01, 3.30622494e-01, 1.70102920e-02,
          9.65460390e-02, 0., 0., 8.74695648e-03, 3.49142775e-02 ]
      - [ 4.44164351e-02, 2.79144309e-02, 1.00927129e-01, 3.43190521e-01,
          3.23186785e-01, 0., 9.32628568e-03, 0., 2.14371718e-02,
          6.04814403e-02, 0., 1.43011987e-01, 3.43190521e-01,
          3.43190521e-01, 8.32103342e-02, 6.77190814e-03, 1.66757088e-02,
          3.15286778e-02, 2.42156237e-01, 2.36582994e-01, 0.,
          1.49226725e-01, 3.42049718e-01, 1.92386899e-02, 3.66695523e-02,
          0., 1.88370869e-02, 3.43190521e-01, 3.43190521e-01,
          4.63832431e-02, 0., 2.41958573e-02, 0., 1.94929969e-02,
          1.39968833e-02, 3.94242704e-02 ]
      - [ 0., 0., 0., 1.73900768e-01, 3.76217902e-01, 3.58064584e-02, 0.,
          1.94641948e-02, 0., 1.40417337e-01, 8.69718120e-02,
          5.87301403e-02, 4.37341817e-02, 3.76217902e-01, 7.53563419e-02,
          1.13478810e-01, 1.11122634e-02, 6.71504587e-02, 3.72822762e-01,
          3.41605276e-01, 1.41378805e-01, 0., 1.33543581e-01,
          2.44315434e-02, 0., 2.85594109e-02, 0., 3.76217902e-01,
          3.76217902e-01, 2.26205096e-01, 0., 3.48128052e-03, 0., 0., 0.,
          0. ]
      - [ 2.25398853e-01, 1.43385278e-02, 3.83507945e-02, 9.64721739e-02,
          4.01210040e-01, 9.76518095e-02, 3.59528176e-02, 9.47687030e-03,
          3.11623849e-02, 0., 0., 0., 2.06894100e-01, 4.01210040e-01, 0.,
          2.53229737e-02, 0., 3.52340415e-02, 1.30538300e-01,
          3.89644466e-02, 1.21317580e-01, 0., 1.40183255e-01, 0., 0., 0.,
          0., 4.01210040e-01, 4.01210040e-01, 4.01210040e-01,
          2.39393059e-02, 1.48234963e-01, 2.62976754e-02, 4.15826077e-03,
          2.45771986e-02, 0. ]
      - [ 4.27076593e-02, 0., 3.79723348e-02, 2.83603638e-01,
          4.16191250e-01, 5.59336431e-02, 3.70053202e-02, 1.07072294e-02,
          5.27364239e-02, 0., 0., 3.48237865e-02, 6.19594827e-02,
          4.16191250e-01, 4.77873050e-02, 2.44624764e-02, 1.01280864e-02,
          3.26082520e-02, 2.89631784e-01, 1.50568128e-01, 1.73426926e-01,
          0., 1.63751647e-01, 2.63296366e-02, 0., 0., 0., 4.16191250e-01,
          4.16191250e-01, 1.96392044e-01, 1.07898852e-02, 5.61221913e-02,
          0., 0., 2.72273608e-02, 1.51582798e-02 ]
      - [ 8.67465734e-02, 1.51995951e-02, 2.85780858e-02, 5.25966249e-02,
          3.30622494e-01, 3.30622494e-01, 6.65802285e-02, 3.01542711e-02,
          1.13883689e-01, 3.15160789e-02, 0., 3.16277845e-03, 0.,
          3.30622494e-01, 3.30622494e-01, 4.85659465e-02, 1.14012836e-02,
          1.59170274e-02, 2.03288436e-01, 3.25988173e-01, 2.53665328e-01,
          1.51443575e-02, 7.43609667e-02, 2.04141550e-02, 0., 0., 0.,
          3.30622494e-01, 2.85857201e-01, 3.30622494e-01, 1.70102920e-02,
          9.65460390e-02, 0., 0., 8.74695648e-03, 3.49142775e-02 ]
      - [ 4.44164351e-02, 2.79144309e-02, 1.00927129e-01, 3.43190521e-01,
          3.23186785e-01, 0., 9.32628568e-03, 0., 2.14371718e-02,
          6.04814403e-02, 0., 1.43011987e-01, 3.43190521e-01,
          3.43190521e-01, 8.32103342e-02, 6.77190814e-03, 1.66757088e-02,
          3.15286778e-02, 2.42156237e-01, 2.36582994e-01, 0.,
          1.49226725e-01, 3.42049718e-01, 1.92386899e-02, 3.66695523e-02,
          0., 1.88370869e-02, 3.43190521e-01, 3.43190521e-01,
          4.63832431e-02, 0., 2.41958573e-02, 0., 1.94929969e-02,
          1.39968833e-02, 3.94242704e-02 ]
      - [ 0., 0., 0., 1.73900768e-01, 3.76217902e-01, 3.58064584e-02, 0.,
          1.94641948e-02, 0., 1.40417337e-01, 8.69718120e-02,
          5.87301403e-02, 4.37341817e-02, 3.76217902e-01, 7.53563419e-02,
          1.13478810e-01, 1.11122634e-02, 6.71504587e-02, 3.72822762e-01,
          3.41605276e-01, 1.41378805e-01, 0., 1.33543581e-01,
          2.44315434e-02, 0., 2.85594109e-02, 0., 3.76217902e-01,
          3.76217902e-01, 2.26205096e-01, 0., 3.48128052e-03, 0., 0., 0.,
          0. ]
      - [ 2.25398853e-01, 1.43385278e-02, 3.83507945e-02, 9.64721739e-02,
          4.01210040e-01, 9.76518095e-02, 3.59528176e-02, 9.47687030e-03,
          3.11623849e-02, 0., 0., 0., 2.06894100e-01, 4.01210040e-01, 0.,
          2.53229737e-02, 0., 3.52340415e-02, 1.30538300e-01,
          3.89644466e-02, 1.21317580e-01, 0., 1.40183255e-01, 0., 0., 0.,
          0., 4.01210040e-01, 4.01210040e-01, 4.01210040e-01,
          2.39393059e-02, 1.48234963e-01, 2.62976754e-02, 4.15826077e-03,
          2.45771986e-02, 0. ]
      - [ 1.38834808e-02, 1.42883599e-01, 2.28945121e-01, 2.71383226e-01,
          2.71383226e-01, 6.67909086e-02, 7.69094750e-02, 1.10916398e-01,
          9.42876711e-02, 6.11430071e-02, 1.11734249e-01, 6.27381429e-02,
          1.99604351e-02, 2.71383226e-01, 2.71383226e-01, 1.85783982e-01,
          1.17851682e-01, 3.53035331e-02, 2.25466751e-02, 1.20355831e-02,
          2.71383226e-01, 1.71041995e-01, 2.35967234e-01, 2.71383226e-01,
          1.81095332e-01, 3.77430655e-02, 2.92879343e-02, 4.28453945e-02,
          1.98232666e-01, 2.71383226e-01, 2.71383226e-01, 2.64894873e-01,
          0., 7.66615150e-03, 0., 6.30927086e-02 ]
      - [ 9.63829085e-02, 1.25637352e-01, 1.27042547e-01, 2.83580452e-01,
          1.52957186e-01, 6.98647350e-02, 2.32872769e-01, 7.05220923e-02,
          1.69453442e-01, 1.52489617e-01, 5.05098701e-02, 1.43210720e-02,
          2.91383937e-02, 2.83580452e-01, 2.83580452e-01, 2.83580452e-01,
          5.74423466e-03, 4.42994386e-02, 1.12830557e-01, 7.11536482e-02,
          5.40700518e-02, 2.83580452e-01, 1.77079529e-01, 1.81878835e-01,
          2.83580452e-01, 3.64721492e-02, 4.00444344e-02, 1.39983565e-01,
          6.80522695e-02, 2.83580452e-01, 2.83580452e-01, 2.31019288e-01,
          6.73024207e-02, 0., 1.34294108e-02, 0. ]
      - [ 1.41299501e-01, 3.49815562e-02, 2.83548921e-01, 2.83548921e-01,
          2.22248197e-01, 1.88640505e-02, 4.16073762e-02, 5.31295985e-02,
          9.04663652e-02, 1.17221765e-01, 7.61582628e-02, 1.18240915e-01,
          1.98770851e-01, 2.83548921e-01, 2.83548921e-01, 1.87956035e-01,
          8.95505324e-02, 1.32043064e-01, 1.42806783e-01, 5.41510507e-02,
          1.35658994e-01, 4.46582921e-02, 2.52822012e-01, 2.83548921e-01,
          1.23484075e-01, 1.79838702e-01, 1.85505804e-02, 2.85265800e-02,
          2.83548921e-01, 2.83548921e-01, 1.77156284e-01, 1.56696379e-01,
          3.51643898e-02, 0., 0., 7.83776790e-02 ]
      - [ 2.63074134e-02, 6.26713037e-02, 1.56556815e-01, 2.90434927e-01,
          2.90434927e-01, 6.87679872e-02, 8.91141966e-02, 6.49330392e-02,
          5.22432216e-02, 1.51984632e-01, 1.03554599e-01, 6.46682009e-02,
          2.05217898e-02, 1.34194970e-01, 2.90434927e-01, 1.81811273e-01,
          2.04411477e-01, 3.62239182e-02, 4.30790558e-02, 4.87601710e-03,
          2.90434927e-01, 2.67073512e-01, 2.90434927e-01, 2.90434927e-01,
          1.10368378e-01, 3.95812839e-02, 7.08324313e-02, 3.71514969e-02,
          2.75526077e-01, 2.90434927e-01, 2.23496631e-01, 9.07041132e-02,
          0., 0., 0., 2.74846442e-02 ]
      - [ 5.20930551e-02, 1.73553586e-01, 1.91227064e-01, 2.71476537e-01,
          1.34396493e-01, 9.51947365e-03, 4.93454859e-02, 1.09309457e-01,
          1.01121798e-01, 2.05830988e-02, 1.29108116e-01, 1.45298302e-01,
          1.60053879e-01, 3.14639091e-01, 3.14639091e-01, 8.54674578e-02,
          8.12595338e-02, 4.11533751e-02, 5.01763225e-02, 1.04265930e-02,
          1.52296886e-01, 6.53637722e-02, 1.64863825e-01, 3.14639091e-01,
          1.70172274e-01, 3.89327630e-02, 3.62821929e-02, 4.75603826e-02,
          5.84983220e-03, 3.14639091e-01, 3.14639091e-01, 3.14639091e-01,
          2.09415078e-01, 3.12608294e-02, 7.54058547e-03, 6.69150427e-02 ]
      - [ 1.40010744e-01, 7.57767707e-02, 1.78139836e-01, 2.85044342e-01,
          1.78916559e-01, 5.87545186e-02, 1.04878686e-01, 1.52306691e-01,
          5.73005155e-02, 3.39679457e-02, 9.51111242e-02, 5.77888712e-02,
          6.51275516e-02, 2.85044342e-01, 2.85044342e-01, 1.69297203e-01,
          1.11591727e-01, 3.62040401e-02, 3.15692462e-02, 1.75286736e-02,
          2.27599651e-01, 1.41198754e-01, 2.85044342e-01, 2.85044342e-01,
          2.02489018e-01, 3.05954181e-02, 2.65495330e-02, 9.99701098e-02,
          1.80207521e-01, 2.85044342e-01, 2.85044342e-01, 2.85044342e-01,
          1.99907366e-02, 0., 0., 3.48649323e-02 ]
      - [ 1.23384126e-01, 6.61703646e-02, 1.56741410e-01, 2.68658131e-01,
          1.68527707e-01, 7.21000135e-02, 2.57114887e-01, 1.14445910e-01,
          6.76155686e-02, 1.02191426e-01, 3.42632607e-02, 1.44497445e-02,
          3.39505039e-02, 2.68658131e-01, 2.68658131e-01, 2.56940126e-01,
          8.17910358e-02, 0., 2.15784132e-01, 2.36295313e-02,
          8.06607381e-02, 2.68284142e-01, 1.42968416e-01, 2.68658131e-01,
          2.13737056e-01, 2.35748924e-02, 3.62123549e-02, 2.04457775e-01,
          8.03980157e-02, 2.68658131e-01, 2.68658131e-01, 2.68658131e-01,
          6.88645840e-02, 2.85203978e-02, 0., 1.04179028e-02 ]
      - [ 1.37343481e-01, 6.79312572e-02, 2.61441112e-01, 2.61441112e-01,
          8.90551284e-02, 4.01675366e-02, 2.61699706e-02, 5.54798581e-02,
          7.11725354e-02, 1.80828393e-01, 7.14280754e-02, 1.24356940e-01,
          2.61441112e-01, 2.61441112e-01, 2.61441112e-01, 1.00557677e-01,
          9.30703580e-02, 3.64035703e-02, 1.90723822e-01, 4.96104546e-02,
          2.05132902e-01, 4.31658924e-02, 2.61441112e-01, 2.61441112e-01,
          1.39408529e-01, 1.04552403e-01, 3.93126085e-02, 1.26073465e-01,
          2.61441112e-01, 2.61441112e-01, 2.61441112e-01, 2.59333313e-01,
          2.00095531e-02, 8.55861884e-03, 3.45632881e-02, 4.19846885e-02 ]
      - [ 7.06484616e-02, 5.24371192e-02, 1.27967730e-01, 2.72626340e-01,
          2.72626340e-01, 1.52110636e-01, 9.12529454e-02, 6.97424188e-02,
          2.47035287e-02, 1.68627262e-01, 3.83678116e-02, 1.30257353e-01,
          1.49824703e-02, 2.05496073e-01, 2.72626340e-01, 1.41440794e-01,
          1.94798529e-01, 4.08312157e-02, 4.91644181e-02, 1.75241996e-02,
          2.72626340e-01, 2.62743652e-01, 2.72626340e-01, 2.72626340e-01,
          1.26643240e-01, 3.03385966e-02, 6.57923147e-02, 1.21583708e-01,
          2.37300828e-01, 2.72626340e-01, 1.88898847e-01, 2.64384240e-01,
          0., 0., 0., 0. ]
      - [ 1.90837294e-01, 4.93040457e-02, 1.53854236e-01, 2.69869417e-01,
          7.09170029e-02, 0., 4.66685817e-02, 1.83940500e-01,
          6.20594323e-02, 0., 1.45737633e-01, 1.01668783e-01,
          2.59634018e-01, 3.00719738e-01, 3.00719738e-01, 1.11291982e-01,
          7.17723966e-02, 3.43253203e-02, 1.01186730e-01, 1.89844631e-02,
          9.40745696e-02, 3.19002792e-02, 2.56185204e-01, 2.45766655e-01,
          2.01151028e-01, 3.33629288e-02, 2.91208364e-02, 1.08272813e-01,
          0., 3.00719738e-01, 3.00719738e-01, 3.00719738e-01,
          2.17936978e-01, 1.80753395e-02, 0., 3.77605334e-02 ]
      - [ 1.40010744e-01, 7.57767707e-02, 1.78139836e-01, 2.85044342e-01,
          1.78916559e-01, 5.87545186e-02, 1.04878686e-01, 1.52306691e-01,
          5.73005155e-02, 3.39679457e-02, 9.51111242e-02, 5.77888712e-02,
          6.51275516e-02, 2.85044342e-01, 2.85044342e-01, 1.69297203e-01,
          1.11591727e-01, 3.62040401e-02, 3.15692462e-02, 1.75286736e-02,
          2.27599651e-01, 1.41198754e-01, 2.85044342e-01, 2.85044342e-01,
          2.02489018e-01, 3.05954181e-02, 2.65495330e-02, 9.99701098e-02,
          1.80207521e-01, 2.85044342e-01, 2.85044342e-01, 2.85044342e-01,
          1.99907366e-02, 0., 0., 3.48649323e-02 ]
      - [ 1.23384126e-01, 6.61703646e-02, 1.56741410e-01, 2.68658131e-01,
          1.68527707e-01, 7.21000135e-02, 2.57114887e-01, 1.14445910e-01,
          6.76155686e-02, 1.02191426e-01, 3.42632607e-02, 1.44497445e-02,
          3.39505039e-02, 2.68658131e-01, 2.68658131e-01, 2.56940126e-01,
          8.17910358e-02, 0., 2.15784132e-01, 2.36295313e-02,
          8.06607381e-02, 2.68284142e-01, 1.42968416e-01, 2.68658131e-01,
          2.13737056e-01, 2.35748924e-02, 3.62123549e-02, 2.04457775e-01,
          8.03980157e-02, 2.68658131e-01, 2.68658131e-01, 2.68658131e-01,
          6.88645840e-02, 2.85203978e-02, 0., 1.04179028e-02 ]
      - [ 1.37343481e-01, 6.79312572e-02, 2.61441112e-01, 2.61441112e-01,
          8.90551284e-02, 4.01675366e-02, 2.61699706e-02, 5.54798581e-02,
          7.11725354e-02, 1.80828393e-01, 7.14280754e-02, 1.24356940e-01,
          2.61441112e-01, 2.61441112e-01, 2.61441112e-01, 1.00557677e-01,
          9.30703580e-02, 3.64035703e-02, 1.90723822e-01, 4.96104546e-02,
          2.05132902e-01, 4.31658924e-02, 2.61441112e-01, 2.61441112e-01,
          1.39408529e-01, 1.04552403e-01, 3.93126085e-02, 1.26073465e-01,
          2.61441112e-01, 2.61441112e-01, 2.61441112e-01, 2.59333313e-01,
          2.00095531e-02, 8.55861884e-03, 3.45632881e-02, 4.19846885e-02 ]
      - [ 7.06484616e-02, 5.24371192e-02, 1.27967730e-01, 2.72626340e-01,
          2.72626340e-01, 1.52110636e-01, 9.12529454e-02, 6.97424188e-02,
          2.47035287e-02, 1.68627262e-01, 3.83678116e-02, 1.30257353e-01,
          1.49824703e-02, 2.05496073e-01, 2.72626340e-01, 1.41440794e-01,
          1.94798529e-01, 4.08312157e-02, 4.91644181e-02, 1.75241996e-02,
          2.72626340e-01, 2.62743652e-01, 2.72626340e-01, 2.72626340e-01,
          1.26643240e-01, 3.03385966e-02, 6.57923147e-02, 1.21583708e-01,
          2.37300828e-01, 2.72626340e-01, 1.88898847e-01, 2.64384240e-01,
          0., 0., 0., 0. ]
      - [ 1.90837294e-01, 4.93040457e-02, 1.53854236e-01, 2.69869417e-01,
          7.09170029e-02, 0., 4.66685817e-02, 1.83940500e-01,
          6.20594323e-02, 0., 1.45737633e-01, 1.01668783e-01,
          2.59634018e-01, 3.00719738e-01, 3.00719738e-01, 1.11291982e-01,
          7.17723966e-02, 3.43253203e-02, 1.01186730e-01, 1.89844631e-02,
          9.40745696e-02, 3.19002792e-02, 2.56185204e-01, 2.45766655e-01,
          2.01151028e-01, 3.33629288e-02, 2.91208364e-02, 1.08272813e-01,
          0., 3.00719738e-01, 3.00719738e-01, 3.00719738e-01,
          2.17936978e-01, 1.80753395e-02, 0., 3.77605334e-02 ]
      - [ 1.38834808e-02, 1.42883599e-01, 2.28945121e-01, 2.71383226e-01,
          2.71383226e-01, 6.67909086e-02, 7.69094750e-02, 1.10916398e-01,
          9.42876711e-02, 6.11430071e-02, 1.11734249e-01, 6.27381429e-02,
          1.99604351e-02, 2.71383226e-01, 2.71383226e-01, 1.85783982e-01,
          1.17851682e-01, 3.53035331e-02, 2.25466751e-02, 1.20355831e-02,
          2.71383226e-01, 1.71041995e-01, 2.35967234e-01, 2.71383226e-01,
          1.81095332e-01, 3.77430655e-02, 2.92879343e-02, 4.28453945e-02,
          1.98232666e-01, 2.71383226e-01, 2.71383226e-01, 2.64894873e-01,
          0., 7.66615150e-03, 0., 6.30927086e-02 ]
      - [ 9.63829085e-02, 1.25637352e-01, 1.27042547e-01, 2.83580452e-01,
          1.52957186e-01, 6.98647350e-02, 2.32872769e-01, 7.05220923e-02,
          1.69453442e-01, 1.52489617e-01, 5.05098701e-02, 1.43210720e-02,
          2.91383937e-02, 2.83580452e-01, 2.83580452e-01, 2.83580452e-01,
          5.74423466e-03, 4.42994386e-02, 1.12830557e-01, 7.11536482e-02,
          5.40700518e-02, 2.83580452e-01, 1.77079529e-01, 1.81878835e-01,
          2.83580452e-01, 3.64721492e-02, 4.00444344e-02, 1.39983565e-01,
          6.80522695e-02, 2.83580452e-01, 2.83580452e-01, 2.31019288e-01,
          6.73024207e-02, 0., 1.34294108e-02, 0. ]
      - [ 1.41299501e-01, 3.49815562e-02, 2.83548921e-01, 2.83548921e-01,
          2.22248197e-01, 1.88640505e-02, 4.16073762e-02, 5.31295985e-02,
          9.04663652e-02, 1.17221765e-01, 7.61582628e-02, 1.18240915e-01,
          1.98770851e-01, 2.83548921e-01, 2.83548921e-01, 1.87956035e-01,
          8.95505324e-02, 1.32043064e-01, 1.42806783e-01, 5.41510507e-02,
          1.35658994e-01, 4.46582921e-02, 2.52822012e-01, 2.83548921e-01,
          1.23484075e-01, 1.79838702e-01, 1.85505804e-02, 2.85265800e-02,
          2.83548921e-01, 2.83548921e-01, 1.77156284e-01, 1.56696379e-01,
          3.51643898e-02, 0., 0., 7.83776790e-02 ]
      - [ 2.63074134e-02, 6.26713037e-02, 1.56556815e-01, 2.90434927e-01,
          2.90434927e-01, 6.87679872e-02, 8.91141966e-02, 6.49330392e-02,
          5.22432216e-02, 1.51984632e-01, 1.03554599e-01, 6.46682009e-02,
          2.05217898e-02, 1.34194970e-01, 2.90434927e-01, 1.81811273e-01,
          2.04411477e-01, 3.62239182e-02, 4.30790558e-02, 4.87601710e-03,
          2.90434927e-01, 2.67073512e-01, 2.90434927e-01, 2.90434927e-01,
          1.10368378e-01, 3.95812839e-02, 7.08324313e-02, 3.71514969e-02,
          2.75526077e-01, 2.90434927e-01, 2.23496631e-01, 9.07041132e-02,
          0., 0., 0., 2.74846442e-02 ]
      - [ 5.20930551e-02, 1.73553586e-01, 1.91227064e-01, 2.71476537e-01,
          1.34396493e-01, 9.51947365e-03, 4.93454859e-02, 1.09309457e-01,
          1.01121798e-01, 2.05830988e-02, 1.29108116e-01, 1.45298302e-01,
          1.60053879e-01, 3.14639091e-01, 3.14639091e-01, 8.54674578e-02,
          8.12595338e-02, 4.11533751e-02, 5.01763225e-02, 1.04265930e-02,
          1.52296886e-01, 6.53637722e-02, 1.64863825e-01, 3.14639091e-01,
          1.70172274e-01, 3.89327630e-02, 3.62821929e-02, 4.75603826e-02,
          5.84983220e-03, 3.14639091e-01, 3.14639091e-01, 3.14639091e-01,
          2.09415078e-01, 3.12608294e-02, 7.54058547e-03, 6.69150427e-02 ]
      - [ 1.38834808e-02, 1.42883599e-01, 2.28945121e-01, 2.71383226e-01,
          2.71383226e-01, 6.67909086e-02, 7.69094750e-02, 1.10916398e-01,
          9.42876711e-02, 6.11430071e-02, 1.11734249e-01, 6.27381429e-02,
          1.99604351e-02, 2.71383226e-01, 2.71383226e-01, 1.85783982e-01,
          1.17851682e-01, 3.53035331e-02, 2.25466751e-02, 1.20355831e-02,
          2.71383226e-01, 1.71041995e-01, 2.35967234e-01, 2.71383226e-01,
          1.81095332e-01, 3.77430655e-02, 2.92879343e-02, 4.28453945e-02,
          1.98232666e-01, 2.71383226e-01, 2.71383226e-01, 2.64894873e-01,
          0., 7.66615150e-03, 0., 6.30927086e-02 ]
      - [ 9.63829085e-02, 1.25637352e-01, 1.27042547e-01, 2.83580452e-01,
          1.52957186e-01, 6.98647350e-02, 2.32872769e-01, 7.05220923e-02,
          1.69453442e-01, 1.52489617e-01, 5.05098701e-02, 1.43210720e-02,
          2.91383937e-02, 2.83580452e-01, 2.83580452e-01, 2.83580452e-01,
          5.74423466e-03, 4.42994386e-02, 1.12830557e-01, 7.11536482e-02,
          5.40700518e-02, 2.83580452e-01, 1.77079529e-01, 1.81878835e-01,
          2.83580452e-01, 3.64721492e-02, 4.00444344e-02, 1.39983565e-01,
          6.80522695e-02, 2.83580452e-01, 2.83580452e-01, 2.31019288e-01,
          6.73024207e-02, 0., 1.34294108e-02, 0. ]
      - [ 1.41299501e-01, 3.49815562e-02, 2.83548921e-01, 2.83548921e-01,
          2.22248197e-01, 1.88640505e-02, 4.16073762e-02, 5.31295985e-02,
          9.04663652e-02, 1.17221765e-01, 7.61582628e-02, 1.18240915e-01,
          1.98770851e-01, 2.83548921e-01, 2.83548921e-01, 1.87956035e-01,
          8.95505324e-02, 1.32043064e-01, 1.42806783e-01, 5.41510507e-02,
          1.35658994e-01, 4.46582921e-02, 2.52822012e-01, 2.83548921e-01,
          1.23484075e-01, 1.79838702e-01, 1.85505804e-02, 2.85265800e-02,
          2.83548921e-01, 2.83548921e-01, 1.77156284e-01, 1.56696379e-01,
          3.51643898e-02, 0., 0., 7.83776790e-02 ]
      - [ 2.63074134e-02, 6.26713037e-02, 1.56556815e-01, 2.90434927e-01,
          2.90434927e-01, 6.87679872e-02, 8.91141966e-02, 6.49330392e-02,
          5.22432216e-02, 1.51984632e-01, 1.03554599e-01, 6.46682009e-02,
          2.05217898e-02, 1.34194970e-01, 2.90434927e-01, 1.81811273e-01,
          2.04411477e-01, 3.62239182e-02, 4.30790558e-02, 4.87601710e-03,
          2.90434927e-01, 2.67073512e-01, 2.90434927e-01, 2.90434927e-01,
          1.10368378e-01, 3.95812839e-02, 7.08324313e-02, 3.71514969e-02,
          2.75526077e-01, 2.90434927e-01, 2.23496631e-01, 9.07041132e-02,
          0., 0., 0., 2.74846442e-02 ]
      - [ 5.20930551e-02, 1.73553586e-01, 1.91227064e-01, 2.71476537e-01,
          1.34396493e-01, 9.51947365e-03, 4.93454859e-02, 1.09309457e-01,
          1.01121798e-01, 2.05830988e-02, 1.29108116e-01, 1.45298302e-01,
          1.60053879e-01, 3.14639091e-01, 3.14639091e-01, 8.54674578e-02,
          8.12595338e-02, 4.11533751e-02, 5.01763225e-02, 1.04265930e-02,
          1.52296886e-01, 6.53637722e-02, 1.64863825e-01, 3.14639091e-01,
          1.70172274e-01, 3.89327630e-02, 3.62821929e-02, 4.75603826e-02,
          5.84983220e-03, 3.14639091e-01, 3.14639091e-01, 3.14639091e-01,
          2.09415078e-01, 3.12608294e-02, 7.54058547e-03, 6.69150427e-02 ]
      - [ 1.19441740e-01, 1.05235443e-01, 0., 1.56227320e-01,
          3.12389672e-01, 4.76081967e-02, 0., 9.18638054e-03, 0., 0.,
          5.19680791e-02, 5.80317006e-02, 1.00074492e-01, 3.12389672e-01,
          3.12389672e-01, 1.83943734e-01, 8.80504996e-02, 7.69072920e-02,
          3.12389672e-01, 1.78313926e-02, 3.94029841e-02, 4.44871113e-02,
          2.91917324e-01, 4.14745882e-02, 3.59054878e-02, 9.36027318e-02,
          3.12389672e-01, 3.12389672e-01, 2.05640018e-01, 5.67867570e-02,
          9.60325822e-02, 3.12389672e-01, 1.02946766e-01, 7.04895630e-02,
          8.53557736e-02, 1.50931999e-01 ]
      - [ 2.76454091e-01, 1.32187068e-01, 7.89636448e-02, 8.65180418e-02,
          2.27335945e-01, 2.76454091e-01, 3.35242227e-02, 2.62091625e-02,
          4.73303869e-02, 2.17458084e-02, 0., 3.88449542e-02,
          5.02790548e-02, 2.76454091e-01, 2.76454091e-01, 2.76454091e-01,
          1.44315258e-01, 2.26534121e-02, 2.76454091e-01, 1.25096574e-01,
          3.63947302e-02, 4.46604006e-02, 2.19065845e-01, 1.67952746e-01,
          1.08854108e-01, 1.65087849e-01, 2.04466939e-01, 2.76454091e-01,
          1.51702836e-01, 4.69081253e-02, 8.93698037e-02, 1.75656363e-01,
          1.52773783e-01, 5.58979772e-02, 9.59779397e-02, 2.76454091e-01 ]
      - [ 4.31050360e-02, 7.27904364e-02, 1.22883856e-01, 2.94905812e-01,
          2.94905812e-01, 2.43754238e-02, 1.45760989e-02, 0.,
          1.50292786e-02, 5.10408990e-02, 5.99404387e-02, 9.96666476e-02,
          1.98042125e-01, 2.94905812e-01, 2.48192489e-01, 1.73096910e-01,
          3.95777263e-02, 9.89928022e-02, 2.06016243e-01, 1.27627611e-01,
          0., 1.05707787e-01, 1.39438286e-01, 0., 1.12580068e-01,
          1.37201220e-01, 2.94905812e-01, 2.94905812e-01, 3.66716161e-02,
          1.96801499e-01, 2.94905812e-01, 2.94905812e-01, 3.81837711e-02,
          1.52293861e-01, 1.01718523e-01, 1.17147408e-01 ]
      - [ 0., 6.36624694e-02, 2.73076687e-02, 1.07591808e-01,
          3.41497004e-01, 2.30700776e-01, 3.36552486e-02, 2.23792829e-02,
          1.42936157e-02, 1.32523701e-01, 2.87694726e-02, 6.80131838e-02,
          1.36993870e-01, 3.10810238e-01, 2.67924815e-01, 1.76210091e-01,
          1.08474463e-01, 6.03713244e-02, 2.54311353e-01, 0.,
          8.23958367e-02, 9.85099822e-02, 3.41497004e-01, 1.37912869e-01,
          0., 1.08478509e-01, 3.03380609e-01, 3.41497004e-01,
          1.64194092e-01, 1.03115991e-01, 5.01938835e-02, 4.94868914e-03,
          8.75843987e-02, 8.12155753e-02, 1.60936102e-01, 1.94354922e-01 ]
      - [ 2.36661807e-01, 1.14372782e-01, 6.66977093e-02, 1.04006693e-01,
          3.33495706e-01, 3.34310234e-02, 0., 1.49795078e-02,
          4.42017391e-02, 6.16806140e-03, 2.66531948e-02, 1.04351513e-01,
          1.57484263e-01, 3.33495706e-01, 3.33495706e-01, 1.74147293e-01,
          2.19697114e-02, 4.45462912e-02, 3.33495706e-01, 4.43158858e-02,
          2.40560900e-02, 4.13948186e-02, 2.96547320e-02, 4.77192551e-02,
          0., 8.24337825e-02, 3.31339985e-01, 2.78780013e-01,
          1.28576711e-01, 1.17940895e-01, 1.53100863e-01, 3.33495706e-01,
          8.82946923e-02, 9.68357101e-02, 9.45795700e-02, 7.28370845e-02 ]
      - [ 1.19441740e-01, 1.05235443e-01, 0., 1.56227320e-01,
          3.12389672e-01, 4.76081967e-02, 0., 9.18638054e-03, 0., 0.,
          5.19680791e-02, 5.80317006e-02, 1.00074492e-01, 3.12389672e-01,
          3.12389672e-01, 1.83943734e-01, 8.80504996e-02, 7.69072920e-02,
          3.12389672e-01, 1.78313926e-02, 3.94029841e-02, 4.44871113e-02,
          2.91917324e-01, 4.14745882e-02, 3.59054878e-02, 9.36027318e-02,
          3.12389672e-01, 3.12389672e-01, 2.05640018e-01, 5.67867570e-02,
          9.60325822e-02, 3.12389672e-01, 1.02946766e-01, 7.04895630e-02,
          8.53557736e-02, 1.50931999e-01 ]
      - [ 2.76454091e-01, 1.32187068e-01, 7.89636448e-02, 8.65180418e-02,
          2.27335945e-01, 2.76454091e-01, 3.35242227e-02, 2.62091625e-02,
          4.73303869e-02, 2.17458084e-02, 0., 3.88449542e-02,
          5.02790548e-02, 2.76454091e-01, 2.76454091e-01, 2.76454091e-01,
          1.44315258e-01, 2.26534121e-02, 2.76454091e-01, 1.25096574e-01,
          3.63947302e-02, 4.46604006e-02, 2.19065845e-01, 1.67952746e-01,
          1.08854108e-01, 1.65087849e-01, 2.04466939e-01, 2.76454091e-01,
          1.51702836e-01, 4.69081253e-02, 8.93698037e-02, 1.75656363e-01,
          1.52773783e-01, 5.58979772e-02, 9.59779397e-02, 2.76454091e-01 ]
      - [ 4.31050360e-02, 7.27904364e-02, 1.22883856e-01, 2.94905812e-01,
          2.94905812e-01, 2.43754238e-02, 1.45760989e-02, 0.,
          1.50292786e-02, 5.10408990e-02, 5.99404387e-02, 9.96666476e-02,
          1.98042125e-01, 2.94905812e-01, 2.48192489e-01, 1.73096910e-01,
          3.95777263e-02, 9.89928022e-02, 2.06016243e-01, 1.27627611e-01,
          0., 1.05707787e-01, 1.39438286e-01, 0., 1.12580068e-01,
          1.37201220e-01, 2.94905812e-01, 2.94905812e-01, 3.66716161e-02,
          1.96801499e-01, 2.94905812e-01, 2.94905812e-01, 3.81837711e-02,
          1.52293861e-01, 1.01718523e-01, 1.17147408e-01 ]
      - [ 0., 6.36624694e-02, 2.73076687e-02, 1.07591808e-01,
          3.41497004e-01, 2.30700776e-01, 3.36552486e-02, 2.23792829e-02,
          1.42936157e-02, 1.32523701e-01, 2.87694726e-02, 6.80131838e-02,
          1.36993870e-01, 3.10810238e-01, 2.67924815e-01, 1.76210091e-01,
          1.08474463e-01, 6.03713244e-02, 2.54311353e-01, 0.,
          8.23958367e-02, 9.85099822e-02, 3.41497004e-01, 1.37912869e-01,
          0., 1.08478509e-01, 3.03380609e-01, 3.41497004e-01,
          1.64194092e-01, 1.03115991e-01, 5.01938835e-02, 4.94868914e-03,
          8.75843987e-02, 8.12155753e-02, 1.60936102e-01, 1.94354922e-01 ]
      - [ 2.36661807e-01, 1.14372782e-01, 6.66977093e-02, 1.04006693e-01,
          3.33495706e-01, 3.34310234e-02, 0., 1.49795078e-02,
          4.42017391e-02, 6.16806140e-03, 2.66531948e-02, 1.04351513e-01,
          1.57484263e-01, 3.33495706e-01, 3.33495706e-01, 1.74147293e-01,
          2.19697114e-02, 4.45462912e-02, 3.33495706e-01, 4.43158858e-02,
          2.40560900e-02, 4.13948186e-02, 2.96547320e-02, 4.77192551e-02,
          0., 8.24337825e-02, 3.31339985e-01, 2.78780013e-01,
          1.28576711e-01, 1.17940895e-01, 1.53100863e-01, 3.33495706e-01,
          8.82946923e-02, 9.68357101e-02, 9.45795700e-02, 7.28370845e-02 ]
      - [ 1.19441740e-01, 1.05235443e-01, 0., 1.56227320e-01,
          3.12389672e-01, 4.76081967e-02, 0., 9.18638054e-03, 0., 0.,
          5.19680791e-02, 5.80317006e-02, 1.00074492e-01, 3.12389672e-01,
          3.12389672e-01, 1.83943734e-01, 8.80504996e-02, 7.69072920e-02,
          3.12389672e-01, 1.78313926e-02, 3.94029841e-02, 4.44871113e-02,
          2.91917324e-01, 4.14745882e-02, 3.59054878e-02, 9.36027318e-02,
          3.12389672e-01, 3.12389672e-01, 2.05640018e-01, 5.67867570e-02,
          9.60325822e-02, 3.12389672e-01, 1.02946766e-01, 7.04895630e-02,
          8.53557736e-02, 1.50931999e-01 ]
      - [ 2.76454091e-01, 1.32187068e-01, 7.89636448e-02, 8.65180418e-02,
          2.27335945e-01, 2.76454091e-01, 3.35242227e-02, 2.62091625e-02,
          4.73303869e-02, 2.17458084e-02, 0., 3.88449542e-02,
          5.02790548e-02, 2.76454091e-01, 2.76454091e-01, 2.76454091e-01,
          1.44315258e-01, 2.26534121e-02, 2.76454091e-01, 1.25096574e-01,
          3.63947302e-02, 4.46604006e-02, 2.19065845e-01, 1.67952746e-01,
          1.08854108e-01, 1.65087849e-01, 2.04466939e-01, 2.76454091e-01,
          1.51702836e-01, 4.69081253e-02, 8.93698037e-02, 1.75656363e-01,
          1.52773783e-01, 5.58979772e-02, 9.59779397e-02, 2.76454091e-01 ]
      - [ 4.31050360e-02, 7.27904364e-02, 1.22883856e-01, 2.94905812e-01,
          2.94905812e-01, 2.43754238e-02, 1.45760989e-02, 0.,
          1.50292786e-02, 5.10408990e-02, 5.99404387e-02, 9.96666476e-02,
          1.98042125e-01, 2.94905812e-01, 2.48192489e-01, 1.73096910e-01,
          3.95777263e-02, 9.89928022e-02, 2.06016243e-01, 1.27627611e-01,
          0., 1.05707787e-01, 1.39438286e-01, 0., 1.12580068e-01,
          1.37201220e-01, 2.94905812e-01, 2.94905812e-01, 3.66716161e-02,
          1.96801499e-01, 2.94905812e-01, 2.94905812e-01, 3.81837711e-02,
          1.52293861e-01, 1.01718523e-01, 1.17147408e-01 ]
      - [ 0., 6.36624694e-02, 2.73076687e-02, 1.07591808e-01,
          3.41497004e-01, 2.30700776e-01, 3.36552486e-02, 2.23792829e-02,
          1.42936157e-02, 1.32523701e-01, 2.87694726e-02, 6.80131838e-02,
          1.36993870e-01, 3.10810238e-01, 2.67924815e-01, 1.76210091e-01,
          1.08474463e-01, 6.03713244e-02, 2.54311353e-01, 0.,
          8.23958367e-02, 9.85099822e-02, 3.41497004e-01, 1.37912869e-01,
          0., 1.08478509e-01, 3.03380609e-01, 3.41497004e-01,
          1.64194092e-01, 1.03115991e-01, 5.01938835e-02, 4.94868914e-03,
          8.75843987e-02, 8.12155753e-02, 1.60936102e-01, 1.94354922e-01 ]
      - [ 2.36661807e-01, 1.14372782e-01, 6.66977093e-02, 1.04006693e-01,
          3.33495706e-01, 3.34310234e-02, 0., 1.49795078e-02,
          4.42017391e-02, 6.16806140e-03, 2.66531948e-02, 1.04351513e-01,
          1.57484263e-01, 3.33495706e-01, 3.33495706e-01, 1.74147293e-01,
          2.19697114e-02, 4.45462912e-02, 3.33495706e-01, 4.43158858e-02,
          2.40560900e-02, 4.13948186e-02, 2.96547320e-02, 4.77192551e-02,
          0., 8.24337825e-02, 3.31339985e-01, 2.78780013e-01,
          1.28576711e-01, 1.17940895e-01, 1.53100863e-01, 3.33495706e-01,
          8.82946923e-02, 9.68357101e-02, 9.45795700e-02, 7.28370845e-02 ]
      - [ 1.19441740e-01, 1.05235443e-01, 0., 1.56227320e-01,
          3.12389672e-01, 4.76081967e-02, 0., 9.18638054e-03, 0., 0.,
          5.19680791e-02, 5.80317006e-02, 1.00074492e-01, 3.12389672e-01,
          3.12389672e-01, 1.83943734e-01, 8.80504996e-02, 7.69072920e-02,
          3.12389672e-01, 1.78313926e-02, 3.94029841e-02, 4.44871113e-02,
          2.91917324e-01, 4.14745882e-02, 3.59054878e-02, 9.36027318e-02,
          3.12389672e-01, 3.12389672e-01, 2.05640018e-01, 5.67867570e-02,
          9.60325822e-02, 3.12389672e-01, 1.02946766e-01, 7.04895630e-02,
          8.53557736e-02, 1.50931999e-01 ]
      - [ 2.76454091e-01, 1.32187068e-01, 7.89636448e-02, 8.65180418e-02,
          2.27335945e-01, 2.76454091e-01, 3.35242227e-02, 2.62091625e-02,
          4.73303869e-02, 2.17458084e-02, 0., 3.88449542e-02,
          5.02790548e-02, 2.76454091e-01, 2.76454091e-01, 2.76454091e-01,
          1.44315258e-01, 2.26534121e-02, 2.76454091e-01, 1.25096574e-01,
          3.63947302e-02, 4.46604006e-02, 2.19065845e-01, 1.67952746e-01,
          1.08854108e-01, 1.65087849e-01, 2.04466939e-01, 2.76454091e-01,
          1.51702836e-01, 4.69081253e-02, 8.93698037e-02, 1.75656363e-01,
          1.52773783e-01, 5.58979772e-02, 9.59779397e-02, 2.76454091e-01 ]
      - [ 4.31050360e-02, 7.27904364e-02, 1.22883856e-01, 2.94905812e-01,
          2.94905812e-01, 2.43754238e-02, 1.45760989e-02, 0.,
          1.50292786e-02, 5.10408990e-02, 5.99404387e-02, 9.96666476e-02,
          1.98042125e-01, 2.94905812e-01, 2.48192489e-01, 1.73096910e-01,
          3.95777263e-02, 9.89928022e-02, 2.06016243e-01, 1.27627611e-01,
          0., 1.05707787e-01, 1.39438286e-01, 0., 1.12580068e-01,
          1.37201220e-01, 2.94905812e-01, 2.94905812e-01, 3.66716161e-02,
          1.96801499e-01, 2.94905812e-01, 2.94905812e-01, 3.81837711e-02,
          1.52293861e-01, 1.01718523e-01, 1.17147408e-01 ]
      - [ 0., 6.36624694e-02, 2.73076687e-02, 1.07591808e-01,
          3.41497004e-01, 2.30700776e-01, 3.36552486e-02, 2.23792829e-02,
          1.42936157e-02, 1.32523701e-01, 2.87694726e-02, 6.80131838e-02,
          1.36993870e-01, 3.10810238e-01, 2.67924815e-01, 1.76210091e-01,
          1.08474463e-01, 6.03713244e-02, 2.54311353e-01, 0.,
          8.23958367e-02, 9.85099822e-02, 3.41497004e-01, 1.37912869e-01,
          0., 1.08478509e-01, 3.03380609e-01, 3.41497004e-01,
          1.64194092e-01, 1.03115991e-01, 5.01938835e-02, 4.94868914e-03,
          8.75843987e-02, 8.12155753e-02, 1.60936102e-01, 1.94354922e-01 ]
      - [ 2.36661807e-01, 1.14372782e-01, 6.66977093e-02, 1.04006693e-01,
          3.33495706e-01, 3.34310234e-02, 0., 1.49795078e-02,
          4.42017391e-02, 6.16806140e-03, 2.66531948e-02, 1.04351513e-01,
          1.57484263e-01, 3.33495706e-01, 3.33495706e-01, 1.74147293e-01,
          2.19697114e-02, 4.45462912e-02, 3.33495706e-01, 4.43158858e-02,
          2.40560900e-02, 4.13948186e-02, 2.96547320e-02, 4.77192551e-02,
          0., 8.24337825e-02, 3.31339985e-01, 2.78780013e-01,
          1.28576711e-01, 1.17940895e-01, 1.53100863e-01, 3.33495706e-01,
          8.82946923e-02, 9.68357101e-02, 9.45795700e-02, 7.28370845e-02 ]
      - [ 1.19441740e-01, 1.05235443e-01, 0., 1.56227320e-01,
          3.12389672e-01, 4.76081967e-02, 0., 9.18638054e-03, 0., 0.,
          5.19680791e-02, 5.80317006e-02, 1.00074492e-01, 3.12389672e-01,
          3.12389672e-01, 1.83943734e-01, 8.80504996e-02, 7.69072920e-02,
          3.12389672e-01, 1.78313926e-02, 3.94029841e-02, 4.44871113e-02,
          2.91917324e-01, 4.14745882e-02, 3.59054878e-02, 9.36027318e-02,
          3.12389672e-01, 3.12389672e-01, 2.05640018e-01, 5.67867570e-02,
          9.60325822e-02, 3.12389672e-01, 1.02946766e-01, 7.04895630e-02,
          8.53557736e-02, 1.50931999e-01 ]
      - [ 2.76454091e-01, 1.32187068e-01, 7.89636448e-02, 8.65180418e-02,
          2.27335945e-01, 2.76454091e-01, 3.35242227e-02, 2.62091625e-02,
          4.73303869e-02, 2.17458084e-02, 0., 3.88449542e-02,
          5.02790548e-02, 2.76454091e-01, 2.76454091e-01, 2.76454091e-01,
          1.44315258e-01, 2.26534121e-02, 2.76454091e-01, 1.25096574e-01,
          3.63947302e-02, 4.46604006e-02, 2.19065845e-01, 1.67952746e-01,
          1.08854108e-01, 1.65087849e-01, 2.04466939e-01, 2.76454091e-01,
          1.51702836e-01, 4.69081253e-02, 8.93698037e-02, 1.75656363e-01,
          1.52773783e-01, 5.58979772e-02, 9.59779397e-02, 2.76454091e-01 ]
      - [ 4.31050360e-02, 7.27904364e-02, 1.22883856e-01, 2.94905812e-01,
          2.94905812e-01, 2.43754238e-02, 1.45760989e-02, 0.,
          1.50292786e-02, 5.10408990e-02, 5.99404387e-02, 9.96666476e-02,
          1.98042125e-01, 2.94905812e-01, 2.48192489e-01, 1.73096910e-01,
          3.95777263e-02, 9.89928022e-02, 2.06016243e-01, 1.27627611e-01,
          0., 1.05707787e-01, 1.39438286e-01, 0., 1.12580068e-01,
          1.37201220e-01, 2.94905812e-01, 2.94905812e-01, 3.66716161e-02,
          1.96801499e-01, 2.94905812e-01, 2.94905812e-01, 3.81837711e-02,
          1.52293861e-01, 1.01718523e-01, 1.17147408e-01 ]
      - [ 0., 6.36624694e-02, 2.73076687e-02, 1.07591808e-01,
          3.41497004e-01, 2.30700776e-01, 3.36552486e-02, 2.23792829e-02,
          1.42936157e-02, 1.32523701e-01, 2.87694726e-02, 6.80131838e-02,
          1.36993870e-01, 3.10810238e-01, 2.67924815e-01, 1.76210091e-01,
          1.08474463e-01, 6.03713244e-02, 2.54311353e-01, 0.,
          8.23958367e-02, 9.85099822e-02, 3.41497004e-01, 1.37912869e-01,
          0., 1.08478509e-01, 3.03380609e-01, 3.41497004e-01,
          1.64194092e-01, 1.03115991e-01, 5.01938835e-02, 4.94868914e-03,
          8.75843987e-02, 8.12155753e-02, 1.60936102e-01, 1.94354922e-01 ]
      - [ 2.36661807e-01, 1.14372782e-01, 6.66977093e-02, 1.04006693e-01,
          3.33495706e-01, 3.34310234e-02, 0., 1.49795078e-02,
          4.42017391e-02, 6.16806140e-03, 2.66531948e-02, 1.04351513e-01,
          1.57484263e-01, 3.33495706e-01, 3.33495706e-01, 1.74147293e-01,
          2.19697114e-02, 4.45462912e-02, 3.33495706e-01, 4.43158858e-02,
          2.40560900e-02, 4.13948186e-02, 2.96547320e-02, 4.77192551e-02,
          0., 8.24337825e-02, 3.31339985e-01, 2.78780013e-01,
          1.28576711e-01, 1.17940895e-01, 1.53100863e-01, 3.33495706e-01,
          8.82946923e-02, 9.68357101e-02, 9.45795700e-02, 7.28370845e-02 ]
      - [ 2.40170673e-01, 1.00738510e-01, 1.99280724e-01, 1.24343716e-01,
          1.32492721e-01, 0., 0., 0., 1.78873107e-01, 4.95455973e-02,
          2.57498827e-02, 1.03623539e-01, 9.39687490e-02, 2.74451792e-01,
          2.74451792e-01, 2.04548717e-01, 7.92692304e-02, 0.,
          2.11431324e-01, 0., 0., 0., 2.73301810e-01, 2.48252243e-01,
          7.30145797e-02, 2.58085161e-01, 2.74451792e-01, 5.70080541e-02,
          9.63830054e-02, 1.94787666e-01, 2.74451792e-01, 2.74451792e-01,
          2.60031790e-01, 6.82515278e-02, 4.11562324e-02, 5.10037243e-02 ]
      - [ 2.71062613e-01, 1.66495532e-01, 1.32047251e-01, 1.66267157e-01,
          1.51408449e-01, 0., 0., 0., 9.34939384e-02, 2.82915719e-02,
          6.07712120e-02, 5.36729656e-02, 1.30397052e-01, 2.71062613e-01,
          2.71062613e-01, 2.71062613e-01, 3.49905416e-02, 1.70297064e-02,
          2.71062613e-01, 0., 0., 3.07047796e-02, 1.13932960e-01,
          1.57201990e-01, 2.71062613e-01, 2.47225955e-01, 1.97440013e-01,
          1.39061660e-01, 1.05436463e-02, 1.92096889e-01, 2.71062613e-01,
          2.71062613e-01, 2.71062613e-01, 8.43904167e-02, 7.84494728e-02,
          0. ]
      - [ 2.00733408e-01, 1.54827654e-01, 2.78898001e-01, 1.36493295e-01,
          7.03035221e-02, 0., 7.03511527e-03, 0., 1.58790722e-01,
          8.84621888e-02, 5.31757064e-02, 6.16220087e-02, 2.78898001e-01,
          2.78898001e-01, 2.78898001e-01, 9.94915515e-03, 4.74196896e-02,
          0., 2.78898001e-01, 0., 8.96882080e-03, 0., 9.57526639e-02,
          1.33089378e-01, 1.85990155e-01, 1.64511546e-01, 2.78898001e-01,
          1.09508902e-01, 1.80629835e-01, 2.78898001e-01, 2.78898001e-01,
          2.78898001e-01, 9.35901478e-02, 4.57281843e-02, 1.54401749e-01,
          4.59892154e-02 ]
      - [ 2.54110515e-01, 1.17265612e-01, 1.77507192e-01, 2.27354184e-01,
          2.54110515e-01, 8.89859255e-03, 0., 0., 0., 7.41960108e-02,
          6.45086989e-02, 6.65473044e-02, 9.95480549e-03, 2.54110515e-01,
          2.54110515e-01, 2.10273653e-01, 5.78100942e-02, 4.93924879e-02,
          2.54110515e-01, 0., 0., 0., 2.38749370e-01, 2.54110515e-01,
          1.33761495e-01, 2.31953904e-01, 2.52359986e-01, 2.00664699e-01,
          1.37827590e-01, 2.54110515e-01, 2.54110515e-01, 2.54110515e-01,
          5.80804646e-02, 0., 5.11185266e-02, 0. ]
      - [ 1.66742653e-01, 1.21327765e-01, 1.88697577e-01, 0.,
          3.42880785e-02, 0., 0., 0., 1.06718078e-01, 1.73643753e-01,
          1.92978848e-02, 9.71824750e-02, 2.56915480e-01, 2.99036652e-01,
          2.36332849e-01, 1.78450629e-01, 1.03417048e-02, 1.06776401e-01,
          2.09613785e-01, 0., 0., 0., 2.74871051e-01, 4.20082062e-02,
          8.48308280e-02, 1.74620226e-01, 2.99036652e-01, 1.52717352e-01,
          8.99785906e-02, 1.44699946e-01, 1.93324640e-01, 2.99036652e-01,
          2.99036652e-01, 1.52977899e-01, 1.87002078e-01, 1.98455438e-01 ]
      - [ 2.40170673e-01, 1.00738510e-01, 1.99280724e-01, 1.24343716e-01,
          1.32492721e-01, 0., 0., 0., 1.78873107e-01, 4.95455973e-02,
          2.57498827e-02, 1.03623539e-01, 9.39687490e-02, 2.74451792e-01,
          2.74451792e-01, 2.04548717e-01, 7.92692304e-02, 0.,
          2.11431324e-01, 0., 0., 0., 2.73301810e-01, 2.48252243e-01,
          7.30145797e-02, 2.58085161e-01, 2.74451792e-01, 5.70080541e-02,
          9.63830054e-02, 1.94787666e-01, 2.74451792e-01, 2.74451792e-01,
          2.60031790e-01, 6.82515278e-02, 4.11562324e-02, 5.10037243e-02 ]
      - [ 2.71062613e-01, 1.66495532e-01, 1.32047251e-01, 1.66267157e-01,
          1.51408449e-01, 0., 0., 0., 9.34939384e-02, 2.82915719e-02,
          6.07712120e-02, 5.36729656e-02, 1.30397052e-01, 2.71062613e-01,
          2.71062613e-01, 2.71062613e-01, 3.49905416e-02, 1.70297064e-02,
          2.71062613e-01, 0., 0., 3.07047796e-02, 1.13932960e-01,
          1.57201990e-01, 2.71062613e-01, 2.47225955e-01, 1.97440013e-01,
          1.39061660e-01, 1.05436463e-02, 1.92096889e-01, 2.71062613e-01,
          2.71062613e-01, 2.71062613e-01, 8.43904167e-02, 7.84494728e-02,
          0. ]
      - [ 2.00733408e-01, 1.54827654e-01, 2.78898001e-01, 1.36493295e-01,
          7.03035221e-02, 0., 7.03511527e-03, 0., 1.58790722e-01,
          8.84621888e-02, 5.31757064e-02, 6.16220087e-02, 2.78898001e-01,
          2.78898001e-01, 2.78898001e-01, 9.94915515e-03, 4.74196896e-02,
          0., 2.78898001e-01, 0., 8.96882080e-03, 0., 9.57526639e-02,
          1.33089378e-01, 1.85990155e-01, 1.64511546e-01, 2.78898001e-01,
          1.09508902e-01, 1.80629835e-01, 2.78898001e-01, 2.78898001e-01,
          2.78898001e-01, 9.35901478e-02, 4.57281843e-02, 1.54401749e-01,
          4.59892154e-02 ]
      - [ 2.54110515e-01, 1.17265612e-01, 1.77507192e-01, 2.27354184e-01,
          2.54110515e-01, 8.89859255e-03, 0., 0., 0., 7.41960108e-02,
          6.45086989e-02, 6.65473044e-02, 9.95480549e-03, 2.54110515e-01,
          2.54110515e-01, 2.10273653e-01, 5.78100942e-02, 4.93924879e-02,
          2.54110515e-01, 0., 0., 0., 2.38749370e-01, 2.54110515e-01,
          1.33761495e-01, 2.31953904e-01, 2.52359986e-01, 2.00664699e-01,
          1.37827590e-01, 2.54110515e-01, 2.54110515e-01, 2.54110515e-01,
          5.80804646e-02, 0., 5.11185266e-02, 0. ]
      - [ 1.66742653e-01, 1.21327765e-01, 1.88697577e-01, 0.,
          3.42880785e-02, 0., 0., 0., 1.06718078e-01, 1.73643753e-01,
          1.92978848e-02, 9.71824750e-02, 2.56915480e-01, 2.99036652e-01,
          2.36332849e-01, 1.78450629e-01, 1.03417048e-02, 1.06776401e-01,
          2.09613785e-01, 0., 0., 0., 2.74871051e-01, 4.20082062e-02,
          8.48308280e-02, 1.74620226e-01, 2.99036652e-01, 1.52717352e-01,
          8.99785906e-02, 1.44699946e-01, 1.93324640e-01, 2.99036652e-01,
          2.99036652e-01, 1.52977899e-01, 1.87002078e-01, 1.98455438e-01 ]
      - [ 2.40170673e-01, 1.00738510e-01, 1.99280724e-01, 1.24343716e-01,
          1.32492721e-01, 0., 0., 0., 1.78873107e-01, 4.95455973e-02,
          2.57498827e-02, 1.03623539e-01, 9.39687490e-02, 2.74451792e-01,
          2.74451792e-01, 2.04548717e-01, 7.92692304e-02, 0.,
          2.11431324e-01, 0., 0., 0., 2.73301810e-01, 2.48252243e-01,
          7.30145797e-02, 2.58085161e-01, 2.74451792e-01, 5.70080541e-02,
          9.63830054e-02, 1.94787666e-01, 2.74451792e-01, 2.74451792e-01,
          2.60031790e-01, 6.82515278e-02, 4.11562324e-02, 5.10037243e-02 ]
      - [ 2.71062613e-01, 1.66495532e-01, 1.32047251e-01, 1.66267157e-01,
          1.51408449e-01, 0., 0., 0., 9.34939384e-02, 2.82915719e-02,
          6.07712120e-02, 5.36729656e-02, 1.30397052e-01, 2.71062613e-01,
          2.71062613e-01, 2.71062613e-01, 3.49905416e-02, 1.70297064e-02,
          2.71062613e-01, 0., 0., 3.07047796e-02, 1.13932960e-01,
          1.57201990e-01, 2.71062613e-01, 2.47225955e-01, 1.97440013e-01,
          1.39061660e-01, 1.05436463e-02, 1.92096889e-01, 2.71062613e-01,
          2.71062613e-01, 2.71062613e-01, 8.43904167e-02, 7.84494728e-02,
          0. ]
      - [ 2.00733408e-01, 1.54827654e-01, 2.78898001e-01, 1.36493295e-01,
